     48 -    50 -    50 -     1 
rmse=  39.1988meV
  2.067085353041341E-002
  1.014591691396868E-002
  6.310284101152057E-003
 -0.274121117765682     
 -0.381999540362568     
  6.751197224055694E-002
 -0.143410887532942     
 -0.406873760454273     
  0.294085762060114     
 -0.108363709014133     
 -0.307494292203255     
  8.879607314640019E-002
  0.181990503159854     
 -7.110493218683518E-002
 -0.239144793871047     
  0.288722264517788     
 -0.219032006171900     
 -2.280535341527003E-003
 -0.264512275824168     
 -7.582493521488354E-002
 -0.311098593529913     
 -0.120378356651232     
  0.546924082342293     
 -9.936741464160236E-002
  0.178478165703962     
  0.166699075603197     
 -0.255399851311499     
  0.265324369304986     
 -0.224100924383949     
 -0.152203743650239     
  0.104592757901810     
 -0.124036530208029     
 -0.226464699935468     
 -0.263645943576385     
 -8.192216458817669E-002
  0.240283293464336     
 -0.142937318431834     
 -0.195174387323655     
 -0.372876432947917     
  0.167688447769073     
 -0.281856991417855     
  0.215514280190944     
  0.240861674309303     
 -0.316914013458240     
 -3.339447194555887E-002
  0.345796038462463     
 -0.110314959332107     
 -0.295056987707859     
  4.311846766775724E-002
  0.240700126667257     
  0.456770485963307     
  0.673239698083653     
 -0.239118088778850     
  0.222881472590908     
 -0.156411796609382     
  0.221796299106354     
  0.497846027702752     
 -2.444901246056123E-002
 -0.204684190146940     
  4.538589509074344E-002
  0.186930875687429     
 -9.671848739724122E-002
 -0.214230880365788     
  0.284329350326292     
  0.111729010735481     
 -0.236126124056707     
 -0.305471768518713     
 -3.572705532463999E-002
 -0.164131061410092     
 -0.107436916430774     
  0.181235742583632     
  0.144093900787076     
 -0.126777514577550     
  7.179563061664273E-003
  0.286228995223724     
 -0.255692671099889     
  0.216366306074245     
 -0.184880468613879     
  1.545513304611646E-002
 -9.776963362005132E-002
  0.152870640595680     
 -3.242739465465180E-002
 -0.261686308343453     
 -8.988508824177739E-002
 -0.171293537093220     
  0.139237743635975     
 -0.110443584577906     
 -9.992099418592189E-002
 -0.232674497982441     
  0.144424238716016     
  0.182309026265657     
 -4.561674318089507E-003
 -0.158508689988471     
  0.172431794180816     
  9.057775267766574E-002
 -0.166940677478803     
 -8.328018648541920E-002
  9.796693272098192E-002
  0.586860448310887     
  0.262472936223427     
 -0.388917742069019     
  0.559856275955349     
 -0.370671384712508     
  0.273830862714129     
 -0.330803949664694     
 -0.361532640571422     
  0.233655983436347     
 -0.284157907537382     
 -0.238593799150636     
 -3.714272611217195E-002
  0.274607856182862     
 -0.184456026544624     
  0.186700144622947     
 -9.232339828165783E-003
  2.308576499264644E-003
 -0.268560769110765     
 -4.410693875132041E-002
  0.195166849463356     
 -0.498428475042887     
 -0.163712794572960     
 -0.107516437534519     
 -0.156922259435301     
 -2.866586532367735E-002
 -0.118260091557038     
  0.264965194414145     
 -5.195772317807162E-002
  2.174559849791765E-002
 -4.384514659702124E-002
  2.949916799557647E-002
 -0.227687315737512     
 -5.768686538025546E-002
  0.220423400825830     
 -0.340743096564372     
 -0.249940534487817     
  0.278963871761399     
 -0.295481887585013     
  0.389627962684426     
 -0.148968570687642     
 -1.810257224723470E-002
  0.190744026049421     
  0.132019372185754     
 -0.181971965014724     
  6.663998030057262E-002
  8.098515110713217E-003
  8.401818377610810E-002
 -0.106382366770405     
 -0.489353597742073     
 -0.328068930557871     
  4.469338774847185E-003
  0.193185830523597     
 -4.711524895819626E-002
  0.295929564260218     
 -0.343660861260084     
  0.202093385607834     
 -0.157387716352465     
  0.286597378471897     
 -3.528554532081028E-002
  0.229071378055666     
 -0.342292942117131     
  0.242907160105743     
 -0.375627970276994     
  0.104808653988659     
  0.143148378005351     
 -0.143770429279902     
  7.333932581544972E-002
 -0.140241163883037     
  6.853889515089091E-002
  0.145698011627369     
  6.435663902771560E-002
  4.683942589499500E-003
  0.103136384256788     
 -9.083360172846067E-002
  0.135995107553328     
  9.927883794089117E-002
 -0.245381123862918     
  0.202393812383258     
  7.413523068705244E-002
 -6.025648276275193E-002
 -0.142309147388685     
  0.201796732409699     
 -0.317670786794258     
  2.444789471094340E-002
 -8.930427497385442E-002
  6.029562361738630E-002
  0.186435100351400     
 -0.181604755422803     
  5.907414180011136E-002
 -0.102806587864115     
 -0.127951498875264     
 -4.568635835691276E-002
  0.286822018282346     
 -0.319525054169883     
  0.130278442665932     
  0.104732350026295     
  0.319711380854034     
  5.586090317178791E-002
 -0.339359866083301     
 -0.451769439488841     
  0.186514853171139     
  0.499792482132155     
  0.943268183185820     
 -0.344374022354896     
 -0.133820678566713     
  8.248088669790689E-003
 -0.294710509700127     
  -1.01757098341231     
  0.128592323719643     
 -0.107351321081758     
 -6.191168074982915E-002
 -9.168984442209464E-002
 -4.762077194557628E-002
  1.455820465712604E-002
  0.234916413252073     
  0.387396805317082     
 -7.990923553500932E-002
  0.365652027470980     
 -0.445313209057569     
 -0.205930526132412     
  2.895009533177130E-002
 -0.335177329530275     
  0.376022711768020     
  0.346380516579998     
 -5.101360237182012E-002
 -0.218775856676092     
  0.171871704153806     
 -9.785485937559591E-003
 -0.176230859848712     
 -4.256206493008875E-002
  0.274256046555696     
  0.414131799697763     
 -0.250992423385173     
 -0.800217134619676     
 -2.578781985038094E-002
  4.949561598916293E-002
  6.036131126887908E-002
  0.115535881909510     
  0.456156412264080     
 -3.289523342413029E-002
  0.808999395644534     
 -0.370865034745668     
  0.287027434533831     
  9.142330877731522E-002
  0.198948327218182     
  0.147266913743086     
  8.650323670291762E-002
  6.737749831407192E-002
  0.208804685467802     
  0.162641812972189     
  0.526763208598644     
 -0.161027673187561     
 -0.360787108746752     
  0.248021293178803     
 -0.443679020296772     
 -0.321369521712615     
  0.260127651779004     
 -1.231458472792445E-002
 -0.107693507720646     
 -4.275378327452378E-002
 -0.164332766437304     
  1.928278477346526E-002
 -0.243888765507556     
 -5.259626840070615E-003
 -0.130576276967085     
 -3.743575472294712E-002
 -0.320017418994629     
  0.300719890103779     
 -0.213241737942065     
 -0.120282098633543     
 -4.079467775283461E-002
  3.930897672981112E-002
  0.191491223489947     
  4.429038878977184E-003
 -0.157762809602014     
 -2.707560391691767E-002
  9.608436911624881E-003
  6.751620626106229E-002
 -0.127094730856046     
  7.428318588150448E-002
 -0.298320985436086     
 -0.271953608039916     
 -8.451212778316827E-002
 -5.267359274631899E-002
 -0.131269082203212     
  3.065001637777021E-002
  0.249766879626771     
  0.260053150085252     
 -0.559625590090917     
  0.405952597430724     
  0.208205551596101     
 -0.130304821847036     
 -0.248681325315983     
  4.237787845537029E-002
 -0.268457870752548     
 -0.115096099336901     
 -8.376408444333622E-002
 -9.300653166159248E-002
 -8.931464706398838E-002
  8.188361562354772E-002
  0.196379036108179     
 -7.724030551899105E-002
 -0.219833329357349     
 -3.941719639546283E-002
  9.383832046607553E-002
  1.086398420285245E-002
 -0.364030587209763     
 -0.630361894072944     
 -0.503793896968014     
 -0.129453010751719     
  0.152656472146740     
  1.539208483068592E-002
 -1.562437599131887E-002
 -0.116043098843399     
 -7.923568630922134E-002
  0.179918057135228     
 -0.154657695176989     
  0.263677646436741     
 -0.193584645931177     
 -7.193372667401905E-003
  0.173312900565252     
 -0.101124237576450     
 -7.134304008456786E-002
 -0.246933031970456     
 -0.150480194937039     
 -0.400988264224992     
 -0.160175233083957     
  0.119155667830649     
  7.680431285231662E-002
  0.118729363712395     
  2.729813999668896E-002
 -0.245528295071132     
  0.105894840535134     
 -0.146856574878867     
  0.314010589316963     
 -8.062309727730364E-002
 -0.174156913678081     
  3.054246556660631E-002
 -1.865665623002484E-002
  4.667312760070513E-002
  0.100941438579931     
 -7.074095338126540E-002
 -9.316462859478640E-003
  0.123185211888477     
 -0.626730084222787     
  0.418686202169010     
 -0.258041421332074     
 -0.598272313351912     
 -0.394787534645656     
  0.129717745022054     
 -0.722360630276152     
  0.462371505591649     
 -0.862544376197169     
  5.114619881422187E-002
 -0.207128621609235     
 -3.841735003610167E-004
 -0.130136595142546     
 -0.294367622393360     
  2.972579910288824E-002
  0.100230620457499     
  0.141817604749568     
  0.178652370298242     
 -0.335588612132750     
  0.875365752803258     
 -0.533639368409717     
  4.576713113326800E-002
  0.631093219507135     
 -0.157824026207738     
 -0.164684431262039     
  8.766521697133656E-003
 -0.136461409502556     
 -0.256461192435071     
 -8.432344005936063E-002
 -0.172028022478179     
 -0.217779531944629     
  8.816592889342507E-002
 -0.187354121399581     
  3.243363826027567E-002
  0.172204726781436     
  6.928085199669604E-003
  0.440756495535646     
  7.126481542438946E-002
 -0.850203048988192     
  0.663502277670857     
  0.246289503001863     
  0.250628845712868     
 -0.211618184492899     
 -7.915098137555061E-002
  0.212325191635366     
 -8.051206549464626E-002
  0.105074548029046     
 -2.213691259320627E-002
 -0.391954833212423     
  0.479222326501341     
  0.138840302835215     
 -0.283300479450102     
  0.264259025787443     
  0.305528089967960     
  0.208136497493825     
 -0.209449096373618     
  6.510605612474048E-002
 -0.533884917286899     
 -0.197172315205304     
  5.188652290650588E-002
  1.391519565083461E-002
 -1.390435021047704E-002
 -0.259599165563435     
 -0.521598796634153     
  0.482668872793708     
 -0.406167429337596     
  0.436450819796858     
  0.173700128851881     
 -0.347392396399789     
  0.183914456899139     
  0.121560998054227     
 -0.319308575164157     
  9.957816227735311E-002
  1.300671242496812E-002
 -0.343621038587395     
 -4.530758502256270E-002
 -0.267730124437876     
 -0.244208731693494     
  0.220122057016798     
  0.243422554572419     
 -0.138089583019518     
  0.147783987929226     
 -0.187108580177340     
  0.159793452778305     
 -0.215555544841728     
 -0.330463801443207     
 -0.193352099226144     
  0.197862021182529     
  0.193650876394348     
  4.333896161176810E-002
 -5.191565656076134E-002
  4.094464325538095E-002
 -0.303196254025557     
 -0.134274997637119     
 -0.166078219318675     
  0.316430145050563     
 -9.843970916833608E-002
 -0.368710193781224     
  3.929289939133692E-002
  0.210926424248270     
 -0.263550754829914     
  0.441350013787419     
  0.151073800300927     
  0.313570947039672     
 -9.601964494441878E-002
  0.513461359413325     
 -0.368927951285726     
  0.101832663031709     
  5.389665358540394E-002
 -0.457385601133367     
 -8.515724030133812E-002
  8.022410875224030E-002
 -0.263919201476531     
  6.518113315600839E-002
 -0.196622187906701     
  0.101892933540104     
  0.246926182763125     
 -4.354443885772336E-002
 -0.110567600638951     
 -0.380375103147905     
  0.157298297034040     
 -0.302023931182819     
 -0.248158469064774     
  0.123009362715242     
  0.292894279869097     
  6.838757962021283E-002
  4.639937958888214E-002
 -2.746613518619626E-002
  0.346993006800900     
  0.139531827248685     
 -5.528097385469149E-002
 -7.784599764078329E-002
  0.318307976211579     
 -0.307520103571352     
 -8.900989222522969E-002
 -9.709192928775436E-002
 -4.921486582435514E-002
 -0.534136159482095     
  0.288031445974460     
 -4.723228566866416E-002
  0.294695028336486     
  0.264241829220525     
  0.109771064002726     
  2.361866126333120E-003
  0.204772552830537     
  8.162974240255233E-002
  4.106233966448289E-002
 -0.169947848144052     
 -5.009733934416741E-002
 -2.727772436523169E-002
  1.246800935739020E-002
  0.261815243643178     
  0.131182260099968     
  0.344272624201055     
  0.307948839495469     
 -4.854599225550235E-002
 -0.154258003664736     
  7.737003446794061E-002
 -1.198907158343902E-002
 -5.962348473917785E-002
 -6.915975484720295E-002
 -0.127043879225075     
  0.249552074625874     
 -4.718707080347929E-002
  0.179749462740827     
 -4.843386566030512E-002
 -0.215619609881457     
  0.266395256370770     
 -0.180604658502615     
  0.123322387611600     
 -0.236757907931275     
 -5.159962620519692E-002
  2.619814491214195E-003
 -0.106889102165485     
 -2.601736634764599E-003
  3.604536795317352E-003
 -9.239239253648555E-002
  4.770026678247082E-003
 -0.141570914254604     
  0.281468682344904     
  8.332629713977853E-002
  6.164644683706134E-002
  1.951470742839342E-002
 -0.493493551776233     
  5.029850757756828E-002
 -0.573328379996387     
  2.245887843276377E-002
 -1.201216444554097E-002
  8.708281686794618E-002
  0.309839525096894     
  0.148880844058534     
 -6.628203717509609E-002
  2.103175962869313E-002
 -0.379784047494999     
 -0.345246806893012     
  0.717260405779876     
  0.126590457889973     
  0.176903632440673     
  0.421782964441605     
  0.193472197890739     
  0.115947987680363     
 -7.267459970918390E-002
  0.395198236276697     
  5.069407253697141E-002
  0.162182697787042     
 -9.408484479742384E-002
 -3.508148599834705E-002
 -0.105249436942914     
 -3.761909775565007E-002
  0.161885898533215     
  0.190656085597906     
  0.133159501099632     
 -3.560855877649621E-002
 -0.189850736369979     
 -0.322383662576749     
  0.176267857964440     
 -0.282079640530785     
  0.445113133247761     
 -5.046988717831355E-002
 -0.122818754746594     
 -0.228598640639799     
  0.164278661679095     
 -0.246724375579526     
 -3.374537419532951E-002
  5.231994352953899E-002
  0.259283648213071     
 -6.669819733246357E-002
 -0.270807431110241     
 -9.265242554609256E-002
 -0.255176990823184     
  7.089211724651501E-003
 -0.403062993197452     
  4.929156839733812E-002
 -4.993882711816255E-002
 -2.883980072918056E-002
 -0.193439602357734     
 -4.884643911720706E-002
  0.116508633753955     
 -3.866627503007414E-002
 -0.178635112552731     
 -0.181420904904681     
  8.941396327191703E-002
  2.622139000153710E-002
 -4.846794104740831E-002
 -0.841570082742926     
 -3.973802334120923E-002
  0.139334410456783     
 -0.252843821280038     
 -0.240473920667000     
  0.273473824490774     
  0.151579074824787     
 -0.140186807851583     
 -0.103727255928010     
 -1.591572588766806E-002
 -0.506049268569113     
  0.350753791616669     
 -0.234481235493641     
 -5.090992956636976E-002
  0.230194837496615     
  8.247895738825714E-003
  5.624680633171876E-002
 -0.231831436469042     
  0.251998772428325     
 -0.153880428025257     
  0.412961391642294     
 -0.368548315061026     
 -7.691220914605154E-002
  0.132329674734939     
  4.027626030937092E-002
 -0.449292087017744     
  0.349858319965121     
  0.266572365610756     
  8.291494114867348E-002
  0.113201975225683     
 -0.160654596266358     
  0.383851192087180     
  0.150626546234395     
  0.321057138402112     
 -0.307961631424715     
  0.487784686410732     
 -0.411915097212633     
  7.292177350770380E-002
 -0.302423575125485     
  9.724595822052777E-002
 -0.267410330488684     
 -0.243515951702094     
 -0.343311956221719     
  0.385347092870105     
  3.329661716182717E-002
 -3.847201836156458E-002
 -0.296370302300700     
 -1.712819210614540E-002
  0.105841170446295     
 -0.507786499036286     
  0.471023036909915     
  0.384340867002955     
  0.155373163841521     
  0.241756436741354     
  1.813083131505192E-002
  2.249075479764640E-003
 -0.140795054647708     
  2.153147325164724E-002
  0.140675274270301     
 -3.065773028258816E-002
 -0.220027048152500     
  0.281583112207368     
 -0.209178796881983     
  6.434628335361980E-002
  0.285710870051867     
 -5.684781913629068E-002
  0.182663966473380     
  0.198847631305054     
 -0.371895180312048     
  0.267067382203884     
 -0.216733396606056     
 -4.219188403827034E-002
  1.710026647483758E-002
  0.108061356860468     
 -0.257271512011931     
 -0.263271048938206     
  0.236162393158267     
 -2.881845620690758E-002
  0.511738145280948     
 -0.317804376662439     
 -3.366295584585010E-002
  0.348428688418622     
 -0.470928433370337     
 -0.222915834140159     
 -9.265514537453594E-002
 -0.290381880013208     
 -0.114045567676613     
  0.218442316187008     
 -0.165370271085964     
 -0.177776224742359     
 -0.111400712724658     
  4.744837867292021E-002
  0.728186911242797     
  0.293923419731190     
  0.136166977081920     
  0.164295669647595     
 -0.607416862725630     
  0.487528153782309     
 -0.169662147660912     
 -0.401581496305704     
  0.243408872202675     
 -0.959146741399360     
 -7.496828143382601E-002
  8.039462189007349E-002
  0.109578703174977     
  0.414952321870067     
  0.248023900064737     
 -5.837698992762155E-002
 -0.201535062434292     
 -0.631597004051492     
  0.105137946176513     
  6.440105598739423E-002
  0.437487030566795     
 -0.510773387845392     
  0.521406883662433     
 -0.190240750498376     
  0.183978682788775     
  0.295373228214688     
 -4.101711260369493E-002
  0.278695267190036     
  0.324386536339452     
  0.482228155256826     
  0.252502904674850     
 -0.460278811589261     
 -0.191470568760023     
 -0.165765484133301     
  0.187258547762646     
 -0.326006746005039     
 -0.240876031138113     
  3.705906035459698E-002
 -0.144196968056098     
  0.318041325505495     
 -0.120958158150799     
  0.762899474856225     
 -9.227984559089734E-002
 -0.176571080163316     
  0.322970671823562     
  0.342177098350676     
 -0.328146089259298     
 -1.425440565061698E-002
  5.032734933035626E-002
 -0.141023016573914     
 -0.152989124358802     
  0.135662634370506     
 -0.129585127252256     
 -0.315453673520732     
  0.352912914760780     
  0.111889921586074     
 -0.369990928295691     
  0.164258960118690     
  0.285719220103801     
 -1.980265926382310E-002
  9.455785238559358E-002
 -9.811054647127211E-003
  0.134976169732455     
  0.117082801900578     
 -0.122530703377451     
  0.394388428518188     
 -0.238121894738899     
  0.236857091328950     
 -0.172431056811673     
 -1.420347713784308E-002
  6.998153544322254E-002
 -5.731432762413443E-002
  0.155172465478903     
 -0.188879465247510     
  0.109184376146623     
 -0.291434960586857     
 -0.180964109276110     
  0.216747743735164     
 -0.292378575146415     
  7.006300861146211E-002
  3.054391060042318E-003
  3.961541551717502E-002
  0.285085422956529     
 -0.307439513977530     
  7.596532696778097E-002
  4.041879050085077E-002
 -8.089683347321419E-002
  0.119543164893687     
  0.109809459187165     
  0.173087638664261     
  0.243369001994570     
 -0.553896716611233     
  0.432835458723889     
  0.145308146103738     
 -0.172297338582434     
  0.201832012735786     
 -0.544391516283136     
  0.204887734109352     
 -0.331033126578387     
  0.180980110834989     
  0.327853206001541     
  0.503331459850282     
 -0.113003330401984     
 -0.303714334859897     
  0.319057877199287     
 -0.490382919200770     
  0.490775236386662     
 -0.695006289105164     
  0.222579414744810     
  3.366560846630202E-002
 -0.169439480998788     
  0.425055256145299     
 -4.077564670356035E-002
  8.867809535693087E-002
 -0.209484309095565     
  0.206653857268675     
 -0.135079192789142     
  0.132872124552834     
 -3.459255139090476E-003
  1.597765906404313E-002
 -0.260912899982412     
  0.279564148241427     
  0.179437952393191     
 -0.245747713652443     
 -0.471836808800635     
  2.883135282134931E-002
  0.206181626815490     
 -0.148615048814333     
  0.497909086930024     
  5.846630401108813E-002
  0.272779347899355     
 -0.271404042473145     
 -1.141478733335191E-002
 -0.281499025255167     
  6.653586573971429E-002
  0.149820127541995     
  5.824584725921157E-002
  2.715474490098167E-002
 -0.256887116886277     
  2.582164617623673E-003
 -0.307727563069919     
  0.131103409789342     
  0.566126968159893     
 -0.581871714506429     
 -0.222052691563389     
 -0.113479208566147     
 -0.412048447081066     
 -0.207840822192777     
 -0.455489860248689     
  0.114147736763843     
  2.651638904021763E-002
 -0.433885194737813     
  2.513496234064709E-002
  5.212638561576519E-002
 -8.478732772288125E-002
  0.301987939186262     
  0.165680366401028     
  1.375857867603781E-002
 -0.306403285899028     
  0.509055127355008     
 -9.873145057717135E-002
  0.419374903654596     
 -0.110544383446421     
 -5.091804515111766E-002
 -0.155788078382376     
 -0.195532278679080     
  7.609999394155452E-002
  0.237544129596719     
 -0.237598839340794     
  0.251132665409834     
 -4.778526012416668E-002
  5.850084813230934E-002
 -0.115791954836343     
  1.983712641498154E-003
 -6.777003203439760E-002
  0.370930127498823     
  0.273345470976575     
  1.460546947073468E-002
  0.537904310740100     
  3.021710213028969E-002
  9.972812561492136E-002
  0.176820680714113     
 -0.142058149446822     
  0.262648867072123     
 -0.259950910414848     
 -8.993518029761749E-002
 -1.333015874771017E-002
 -5.770183435494845E-002
  3.196923224906245E-002
 -0.412815509612746     
  9.107528666842912E-002
 -0.182007944083550     
  1.129914164059103E-002
  0.327695882149968     
  0.275918087640023     
  0.197353660396780     
  0.284625607036906     
  0.521095374559591     
 -0.805462950693760     
  0.347337076787652     
 -0.154207231633402     
  0.500314600132848     
 -0.375838763268185     
  8.853322449369479E-003
 -9.107603413883944E-002
 -0.415050395373601     
 -5.926474104556170E-002
  0.199948924842484     
 -0.121816874326454     
  6.916533851714356E-002
 -0.257155565670939     
  7.143451777339860E-002
  0.229933483122572     
 -7.036370004001229E-002
 -0.127521861141122     
  0.183460690342704     
 -0.156420678773716     
 -7.233058057218694E-002
  0.161540892217469     
  0.177259754022679     
 -0.335487034519475     
 -7.225185296908435E-002
 -0.194060780381461     
  9.811176769090396E-002
 -0.172564510634163     
 -0.316279219707491     
 -2.012566863608976E-002
 -0.197059783697448     
 -0.403508237453025     
 -8.875997188986920E-002
  0.428129563930141     
 -0.514274209285949     
  0.291082263612808     
 -0.286948318048256     
 -0.364794737260745     
  0.105738534441262     
  0.128739136199096     
 -8.279651523583315E-002
 -0.293020428215706     
  0.236003541448096     
  0.116503888812432     
  0.143727195487218     
 -0.433227243632706     
 -0.307024330739986     
  7.933501463625325E-002
  0.224407045086120     
  0.299145853782485     
 -3.726467560697748E-002
 -2.593646304577971E-002
 -0.290134775675010     
 -0.578168420540552     
  0.405773858333124     
  0.183169049223713     
 -0.194437741156594     
 -0.135225317917597     
  5.183834868601987E-002
 -7.011187757272064E-002
 -2.497687141426626E-002
  0.297139372150106     
 -0.362910313550014     
  0.101899332507977     
  1.727155363108430E-002
  0.133421652124048     
  0.208957536243289     
 -0.136235185453596     
  0.226324257865248     
 -0.339465427601868     
 -0.296025965041290     
 -0.276388615537866     
 -0.106489918096803     
  0.178164140796606     
 -0.357219037663841     
  7.679872857081430E-002
 -4.040475109572235E-002
  0.144042902281616     
  1.777464064929715E-002
 -0.305348033488651     
 -1.031511603432573E-002
 -0.285369009971897     
 -1.497581868581672E-002
  0.137464984316154     
 -4.975643163815132E-002
  0.283412617582716     
 -6.294848171655166E-003
  0.179369786750830     
  7.634507058334367E-002
  0.284431732836878     
  1.594417894438389E-002
  0.211922442211682     
 -0.578273943717094     
 -0.503758415514564     
  0.542934634334292     
 -3.922119174585095E-002
 -0.148030347525672     
  0.400495458139270     
 -0.167257037575732     
  0.182888632577276     
 -0.102252993521261     
  0.187374435436316     
  0.412941604450977     
  0.312939017221072     
  0.190578787204878     
 -0.363685353275708     
  0.182728528654535     
 -0.196161563881436     
  0.269119128526678     
 -0.245177585572603     
  0.410013731919462     
  3.013021111080450E-002
  0.290814712404776     
  5.142659506706615E-002
  0.423056437703714     
 -0.241318204705457     
  0.371618874828360     
  8.385426294552059E-002
 -7.082880065263797E-002
  3.836730227530371E-002
  0.138176184941010     
 -1.578989946018503E-003
 -0.418689824502784     
  0.409554748326397     
  0.303500229146148     
  0.487226895826689     
 -0.691889022476993     
  0.382013759267761     
 -0.196099757629944     
 -8.842802893001679E-002
  3.239970108449909E-002
 -0.266633477066706     
  0.116975701728521     
  0.225216089961605     
  0.231860796405647     
 -0.161505014657639     
 -0.118550210405599     
  0.281545890425898     
 -0.342518734529052     
  9.792871678373475E-003
 -9.040750678911519E-003
  0.152894677901131     
  1.809672173818772E-002
 -0.236693964679440     
  0.490393207670729     
 -0.290569202607887     
  3.799098478676681E-002
  9.616394106348157E-002
 -0.139015581621246     
 -0.250409414505978     
  0.200208746029852     
 -3.691236233680043E-002
 -7.453669929398353E-002
 -0.201728522566938     
 -6.911558312915778E-002
  0.132287717634418     
 -0.212684686093815     
  0.250672204297623     
 -0.100577364859069     
 -0.119616179795039     
 -3.249187873958368E-002
 -3.826224722619870E-002
 -7.319417888223971E-002
 -1.638665844544401E-002
  2.043322085983935E-002
 -0.330101263052470     
 -2.920248942465678E-002
 -0.260196180677415     
  0.317624349561367     
 -0.243918412737887     
  0.261612405667461     
 -0.194456548503267     
  1.420688787054871E-002
 -0.309511603582385     
  0.433142257247000     
 -0.181110982421761     
 -7.721674349878101E-002
  4.295243573759263E-002
  5.958092306168767E-002
 -8.823040449522582E-002
  0.193228806409773     
  8.973052532367590E-002
 -0.107370408321518     
  0.180773575632737     
 -0.155753078236529     
 -0.462776267427481     
  0.143423010160340     
  8.743008656796769E-002
 -0.462763167296587     
  8.487334633174469E-004
 -3.999841739985278E-002
  0.461020371866147     
  0.215988464006399     
 -3.916537015954585E-002
  0.213337153629252     
 -0.506110344378346     
  0.317358888734548     
 -5.222128785577834E-002
 -0.300816969067064     
  0.119442425415032     
 -0.270323632280061     
 -0.107595508293686     
 -2.597560836192968E-003
 -8.131224434765168E-003
  1.991569727436341E-002
 -0.214347585186481     
 -6.264176264248977E-002
  9.450126743268103E-002
 -0.201800193307764     
  8.328336352824658E-002
 -0.126489248886162     
  9.846798780322112E-002
 -2.327059322258764E-002
  4.091643736405029E-002
  0.169771290044330     
  0.364409613187526     
 -0.234801306162996     
  0.213126314095408     
 -0.118653354523183     
 -1.055464558147080E-002
  0.237065822798032     
  8.469656389350236E-002
 -0.118180513503979     
 -0.278011575010021     
  7.223260627650431E-002
 -0.189258921042029     
  0.215931383319792     
  2.674925242168097E-002
  3.038289543450496E-002
  7.994051284297513E-002
  0.113164861617049     
  6.765131657047875E-002
  1.424369751462180E-002
  0.258869458020954     
 -7.478570449760622E-003
 -0.409957733891689     
  0.707441857208296     
 -0.437488996126036     
  0.151162686456653     
  0.537705210373255     
 -0.234270856228936     
 -0.374864264931205     
  0.274615443729897     
  0.375098200343047     
  8.252772917025632E-002
 -3.034901375728368E-002
 -9.461329275349860E-002
 -0.126756283563646     
 -3.547850993608603E-002
 -3.434134357077651E-003
  7.434265582692844E-002
  0.263198974646421     
  0.178523736155260     
  0.225790519560796     
  0.337450175672201     
 -0.491608994286700     
  0.565651381468867     
 -0.334544250540493     
  0.143720809507338     
 -0.116256843776556     
  0.281231942012756     
 -0.179684937018791     
 -0.171060769384167     
 -5.961501052769886E-002
 -0.218489339541484     
 -0.199803705826051     
 -0.110815500485745     
 -9.846785054017188E-002
 -6.615940846314949E-002
  0.122672695738747     
 -0.515885338510640     
 -8.723851293222082E-002
 -0.499880215266516     
  0.517234300906586     
 -0.550931759765634     
 -0.190423270111298     
 -0.287337291772837     
 -6.098368945346611E-002
 -9.242339382841908E-002
  0.111067343014354     
  0.375644159375726     
 -0.195378639405214     
 -2.498244478358737E-002
 -0.108013297538163     
  0.226197817252100     
 -0.191823982978839     
  9.043596491020331E-002
 -8.935499915428766E-002
  7.656971429019209E-002
  0.153980811347467     
 -7.268563036527044E-002
  8.451628453147648E-002
  0.258469801958556     
  0.256385679105123     
 -9.921562051716032E-002
 -0.327376627246604     
 -3.601414991988618E-002
 -3.953292571962291E-002
  0.194666568061977     
 -0.223027848777928     
  0.269586889858258     
 -0.288957589980718     
  0.266514649578487     
 -0.195205423235682     
  6.169249122164784E-003
 -0.273957003099028     
  2.864850431779439E-002
 -0.206574538199681     
  5.466684516935374E-002
  0.195137842481289     
  3.685190298822558E-002
  0.304825469543478     
  8.324233267275796E-003
 -7.981921533501175E-002
  0.198232309321000     
 -3.794416624447440E-002
 -0.223045305553832     
  0.461233482095503     
 -0.311130939914972     
  0.268360641914466     
 -0.230783150514394     
  0.167792783555102     
 -0.140731249967389     
  9.760632928405301E-002
 -0.253173346032634     
 -6.039064352988534E-002
  0.240497449673970     
 -0.190388768848509     
 -0.103950838009191     
  6.524012966762383E-002
  1.167929077575233E-002
 -0.178763949599607     
  1.500718649002047E-002
  0.119056148566042     
 -6.202817053769402E-002
  0.347401858350756     
 -5.364421115167121E-002
 -4.893635384397359E-002
  7.095926546129817E-002
  0.122209009481666     
  3.929362819200584E-002
 -0.352947055988996     
  0.401699745384454     
 -0.454840832706849     
  4.248170742376826E-002
  2.299923170631502E-002
  9.503428487950456E-002
 -8.156329548248488E-002
 -5.195689846523934E-002
 -0.103469876135340     
  0.151989042021085     
 -6.061839984282959E-002
  5.653192256578142E-002
 -4.255843706051834E-002
 -6.599338492523900E-002
  6.082143032898640E-002
 -1.993121376210464E-002
 -0.224753379756257     
  0.178729450117564     
 -6.082900458194251E-002
  7.845243553780959E-002
 -8.248594696161721E-002
  0.118907873890160     
  0.199336339986049     
  5.499428012110074E-002
 -4.288033983734633E-003
 -3.885015256788181E-002
 -0.155946460156602     
  3.732022866393440E-002
  3.903263597753294E-002
  6.782944828280753E-003
 -0.205562467213536     
 -2.067144263739432E-003
 -5.576639221600545E-002
 -0.102191618686305     
 -3.927052669392435E-002
 -0.139030703213815     
 -0.427619085587238     
  2.541714415907401E-002
 -0.343360628363065     
 -0.279652613463257     
 -0.255550049350879     
  2.032004822137373E-003
 -0.246034301448054     
 -2.204544556120601E-002
  0.682089761354626     
 -8.451702897083638E-002
 -7.081466850368910E-002
  0.135031506428875     
  8.476660082458291E-002
 -0.188451987574053     
 -0.164399219540197     
 -0.219509542969428     
 -0.389506703099799     
 -2.022125813175460E-002
 -3.334674524990791E-002
 -0.165637355062973     
  0.206862733300602     
  0.169389255377266     
 -0.211570504655642     
  0.289684495394768     
 -7.808199434644469E-002
 -0.610323432270646     
  0.360505236976858     
 -0.388680859386258     
  0.166677420237734     
 -0.233650432239688     
  5.116377747537876E-002
 -5.551574367642729E-002
  0.430489424265792     
  0.137716533019138     
  0.193070430422217     
  0.459199691570930     
 -0.212204481293185     
  6.372646883745654E-002
  0.754596127134701     
 -0.571192214279062     
 -0.100543188784052     
  0.375395764860493     
 -0.300571548683165     
  5.784848876306312E-002
 -5.022546048169335E-002
 -0.256772299762748     
  0.118853965666555     
  0.294294232580053     
 -0.242810138618495     
  5.569295249648770E-002
  0.308627826599282     
  0.115840779873677     
  0.338887760841267     
 -0.447284219600509     
  0.164615997072571     
 -3.928005118280194E-002
  3.234776080178376E-002
 -0.306137668817377     
  0.340995646929885     
 -0.179401280829191     
  0.215698685918237     
 -8.305151230028950E-002
  0.167924057056951     
  1.004350745187091E-002
  0.240820047136387     
 -0.203197601298531     
  5.820982999573053E-002
 -0.282332311957913     
  4.712044695193529E-002
  0.219333603906992     
 -4.257553521380244E-002
  0.215973610506305     
 -0.398255926073466     
  0.628192787913751     
 -0.352440086805606     
  0.400463545334010     
  2.671408626654121E-002
 -0.184360477092481     
 -1.224628344382163E-002
 -0.251036152410806     
 -4.815735681638321E-002
 -7.301143581673705E-002
 -0.172818821843647     
 -5.219312679759017E-002
 -9.961356746447264E-002
 -3.918353993231584E-002
 -0.173947393246723     
 -2.134764079759626E-002
  0.112821936815916     
 -9.240441524121228E-002
 -0.102861243748084     
  2.064935092128170E-002
 -0.107048890240249     
 -0.201131030969009     
  0.117066238543872     
  0.101209328690321     
 -1.364910292316427E-002
  5.103781754173604E-002
  2.264128686018529E-002
  0.103579813225091     
 -0.282872314201308     
  0.192821807757937     
 -5.474539111789530E-002
  0.224001205879877     
 -7.075635510564517E-002
  0.251071991284760     
 -0.256136994108839     
  0.137274562661184     
  0.281680903021212     
  0.216912727111148     
  0.344821753947697     
  8.970788342956684E-002
  0.165064055129397     
 -0.218790693393006     
  0.198220880098743     
 -1.416781136663315E-003
  0.233953949545469     
  2.297988874165946E-003
  5.074957819233476E-002
  9.845160196100602E-002
 -1.643402829191793E-002
  1.598313350361479E-002
 -7.202712699234035E-002
  0.124194761018045     
  0.116012842191604     
  0.181054006941097     
 -1.929916436648020E-002
  0.472432975326303     
 -0.134293214065584     
  4.856412178200070E-002
 -0.141392237559013     
  0.204365654747031     
 -1.140526504009358E-002
 -7.585245093521026E-002
  4.905315596226326E-003
 -0.144253589438127     
 -6.901680361322439E-002
  3.348938160593099E-002
  2.130916342249254E-002
 -0.112749129791913     
  0.498147882038286     
 -5.525270007355906E-002
  0.293686119680303     
 -0.117348615083571     
 -0.251097934138504     
 -0.180504790649795     
  0.173219210261831     
 -0.101737942812577     
 -0.136228705616684     
 -0.223806666681273     
 -1.324028280417863E-002
  0.259384242034458     
 -8.601375197067104E-002
  0.341144414198568     
 -0.392295239129242     
  0.548220951316986     
  1.634976906196287E-002
 -0.161508649765214     
 -0.174847008779921     
  4.386125671818153E-002
 -0.220898836010097     
  0.116145882433317     
 -0.165489178351106     
 -4.359310355845474E-003
  0.122836190507114     
 -0.251726315416645     
 -0.161905579753578     
 -4.245867382427091E-002
 -0.132535517488583     
 -6.068441813084417E-002
 -0.108208652770307     
 -0.242041738398698     
  9.635839578317387E-002
 -7.914702615759953E-002
 -4.067246041132605E-002
  0.244376200973913     
  0.124470626903227     
 -0.162083127275906     
  8.791202681815873E-002
 -0.147642188893783     
  5.399231305050186E-002
  0.281735988727947     
 -7.334539891870442E-002
 -0.155273641882207     
  6.854460719042130E-002
  0.118548091355539     
  7.308998896820877E-002
 -1.129259708390139E-002
  0.342424495127340     
 -0.342238436895640     
 -8.122117403117392E-002
  0.199773516712632     
  5.467979799410735E-003
 -2.283630647790927E-002
 -0.122179084487324     
  7.061910798120272E-002
 -0.169655548417258     
  8.144444722239358E-002
  0.252472431626407     
 -6.591114069187282E-002
  0.123472321796406     
  0.118310125295718     
  0.267403689564411     
  1.468379527895677E-002
  0.302697874809933     
 -0.484943527841359     
  0.305405160703029     
 -0.143718644570128     
  0.216120884140098     
 -0.186612081062099     
  7.947784450418455E-002
 -0.117110752643790     
  8.114862881462320E-002
  0.311574296686675     
 -0.257686861534553     
  0.192675805847173     
 -6.139834507458544E-002
  2.847878930758537E-002
 -0.216581657460259     
  0.318398895908266     
  0.175427272811887     
 -0.268115818246664     
 -0.158684268055351     
 -8.753972889125315E-002
  3.022700275131588E-003
  0.169186403644419     
  8.490135210418179E-002
  0.240842756337678     
  0.103303159802736     
 -0.363669502991267     
  4.825945967652403E-002
 -0.167035128651665     
 -1.126308852418616E-002
 -3.596752880442624E-002
 -0.290659810046847     
 -0.143466381181315     
  0.174887375786250     
  0.178169869948758     
  0.274928986445009     
  5.429866476051602E-002
 -0.142872635204096     
  5.182154211100724E-002
  0.123795625423108     
 -0.438143072491313     
 -0.375174241139824     
 -0.161579488645158     
 -7.066159777810699E-002
  0.129202186202307     
  0.141020797580145     
 -0.108131953099196     
 -0.775818191189255     
  0.659343273022701     
 -2.868158308558737E-002
  0.130362045929159     
 -3.796300392564241E-002
 -0.293231543538449     
 -0.614551423362275     
  8.831628650347624E-002
  0.282958098704447     
  0.609265900355099     
  0.406571215554472     
  6.722439986802144E-002
 -0.325428294988497     
  0.227652567955178     
  0.140463593658757     
  6.359258033993014E-003
  0.102161297025296     
  0.454826982953393     
 -0.177345592916129     
 -0.169701335239545     
 -0.141311101260204     
 -0.634209538939193     
 -0.178360343626328     
 -0.187219721780135     
 -0.793611167938228     
 -0.745881620698871     
 -0.486220656551900     
 -3.862574681258789E-002
  0.166409062491805     
 -0.602600235511712     
 -0.162722415730789     
  0.331975854857546     
 -0.263161890934925     
 -0.745889115500785     
  0.184656636369813     
 -0.153270130689406     
 -0.332970322830425     
 -0.196430739599925     
  0.122116753104592     
 -0.271470549314414     
 -0.391758133737449     
  0.240751499901672     
 -0.209464085613768     
  0.426739607222039     
  0.309664515073378     
  8.707830950873624E-002
  0.242400060992617     
  5.686458057184288E-002
  0.239768971433877     
  8.074533078051579E-002
 -1.009164218774785E-002
  0.303879671375548     
  0.232510515865118     
 -0.321289186306506     
 -0.109991286635614     
  0.537830858623842     
 -0.305189797844010     
  0.475611429034405     
 -0.187360363547758     
  0.239399329374375     
 -0.114117034769509     
  6.322183601126850E-002
 -0.503450163561200     
 -1.260664586380490E-002
  0.330970466925836     
 -0.341966941989984     
 -6.565186256111036E-002
  0.231457308876284     
  0.397346972614359     
  0.389119015231112     
 -3.130396649004805E-002
  0.301810946545366     
  0.294976239383344     
 -0.249604723127736     
  0.354424848541099     
 -0.266269507510301     
 -6.167188698986142E-003
 -0.133906485601979     
  0.233796346161627     
 -0.282675745911226     
 -0.269834471551315     
 -2.931580984644037E-002
 -6.663954069938417E-002
 -2.297117772283136E-002
  0.154286981154901     
  0.125846460577565     
  5.446435255488336E-002
 -0.116596762352903     
  0.156913725095077     
 -4.662125530820809E-002
 -0.138109013568868     
  4.799001913507165E-002
  2.655518813153021E-002
  0.162705915830914     
  0.184846451709596     
 -0.100099534095069     
  4.153801627172893E-002
 -0.192347198788052     
  0.111048796401956     
  0.314686449189652     
  3.756356056981477E-002
 -0.221956080517113     
 -7.486268811425176E-002
  0.233450129476725     
 -0.165543702168544     
  0.414167064370711     
  1.300361465069183E-002
  0.290709919605173     
  7.919130809008967E-002
  1.896046804454700E-002
  0.314167354419882     
  0.147094510149182     
 -0.107412440059240     
  0.322458156169915     
  6.006095295968911E-002
 -0.337911590642494     
  5.982664594780185E-002
  0.403256435579217     
  2.567916788756070E-003
 -0.196096636383093     
  0.215100705049829     
  5.001901911233878E-002
  0.268167118291039     
 -0.210589114200928     
  3.820426879474684E-002
 -0.146039725033045     
 -0.136635009320086     
  0.177928274274407     
 -0.158548763353340     
  0.139633369488539     
 -0.131456657618894     
 -6.115993454453349E-002
 -0.102743411147361     
 -0.203022838465587     
 -0.254909487771869     
  0.346009602012078     
 -0.370870549603151     
 -6.462826589078519E-002
  0.164563925647978     
 -0.207970333449882     
  8.449303597614920E-002
  0.339260443007563     
 -0.203251665633884     
 -8.769231414701033E-002
 -0.513500739950010     
  0.191770067625020     
 -0.206339728202681     
  0.417248536024496     
  0.155415671039945     
 -0.117993717283807     
  0.147555271957490     
 -0.149479525092322     
  9.667456042697305E-002
 -0.588354868908759     
  4.586951588179582E-002
  4.952037078831191E-002
 -4.476231714379872E-002
  0.146061679668810     
  8.031235570738725E-003
  0.102297955971905     
  6.117993023871362E-002
 -4.589178855284132E-002
  0.230632603306546     
  0.282921406316388     
  0.186171082506637     
  0.200003513974366     
 -7.376792526766722E-002
  0.173086914384992     
  0.284993043951298     
  0.231015008320734     
 -0.136433774380578     
 -0.347234935094020     
 -0.137722382589571     
 -0.189189868595300     
 -0.181082294701412     
  0.187426923378656     
  7.954735932745041E-002
 -0.183258591220947     
  0.186224995839443     
  3.813241303810087E-002
  0.453281508379976     
  0.413918745530241     
 -7.517025581883989E-002
  0.173078367575685     
  0.332848140547870     
  2.004128235395558E-002
 -0.660462579394215     
  0.330059160023527     
 -0.244067241017783     
 -1.939654353518556E-002
 -0.133965685122308     
  0.360425040406754     
 -0.347475827495455     
  0.158585922045610     
  0.338852754291730     
  4.344953669595424E-002
  0.160904091962693     
  0.144469434719349     
  0.154737048106150     
 -0.396499261673624     
 -0.226857401797583     
 -8.334071208713778E-002
 -7.837590970458989E-002
  0.398508812399357     
 -0.402513930208533     
  0.226032162788043     
 -0.448009820709106     
  0.619285838896350     
 -0.499749181316029     
  0.435656551066257     
 -8.023947547168313E-002
 -0.377582441143941     
 -0.141416710438264     
 -0.119099472396532     
 -0.253045001032404     
 -0.100477797958531     
 -0.312840615594122     
  0.224105511432565     
  0.334627401452150     
 -0.439347951840134     
  0.326083088547659     
 -0.294398965730117     
  0.309535567453056     
 -0.476101612148372     
  0.494899610485975     
  7.808873507397780E-002
 -0.132948664728698     
 -0.214008673690198     
  2.969219746284084E-002
  0.143498235200664     
 -0.166187690853464     
 -3.789161212499698E-002
  0.344890591743775     
 -0.306426241785635     
 -1.680835362702802E-002
 -0.269314144703953     
  0.256609363342085     
 -0.418008293511692     
  0.406818699113667     
 -0.103560720476572     
  0.108645594467592     
  0.337633894153239     
 -4.114531058552397E-002
 -1.880709545730482E-002
 -0.181912130636671     
 -3.230375675450387E-002
  2.013535183436604E-002
  0.140632305889633     
 -0.392469608512985     
  0.247262673827626     
 -0.384080087933723     
  0.182340423843016     
  0.277937508795471     
 -0.318058332457636     
  0.213407558449445     
  0.216720718521803     
 -0.670445294817084     
  0.467192125549601     
 -8.433625963403009E-003
 -3.441863497897411E-003
 -0.205392645637187     
 -0.115858015387182     
  0.184884495722060     
 -0.328744419570795     
  0.259291942123361     
 -0.207806148638930     
  0.590874042483467     
 -0.354707740288904     
  4.441176307305026E-002
  0.211727429572185     
 -0.357881216678437     
 -1.936118248774349E-002
 -2.671860166180215E-002
 -0.248950518006242     
 -0.226954895955085     
  0.161544060231446     
 -0.434788226062701     
 -0.144364783098044     
  0.100122378386818     
 -3.100941709418313E-002
 -0.400246193206489     
  0.134638885092151     
 -0.727506538536575     
  0.113293839898235     
  1.573789590809182E-002
  0.135648682313962     
 -8.801502735722130E-002
  0.199010755606611     
 -0.348746812718441     
  0.136185990364827     
 -0.389855046631014     
  0.240150869507576     
  0.287613826193185     
 -9.046498798243803E-002
 -0.421899223093540     
  0.266200371436643     
 -8.007287774110368E-002
 -0.100232588138972     
  0.222857365655254     
 -3.997834549566573E-002
 -9.373771923856472E-002
 -3.281757176411230E-002
 -8.630973114018096E-002
 -6.215216183349612E-002
  0.198696350901804     
 -2.024659948003385E-002
  6.088866035935412E-002
  0.314494453220363     
 -0.224542900206750     
  0.151345753699131     
 -9.634303318759442E-002
  0.165095183560844     
  0.142123192056742     
  0.347818579497803     
  0.215736831310021     
  1.739230053503215E-002
  0.178989255154239     
 -7.237887499866563E-003
  1.131617781730961E-002
 -2.723793456700362E-002
  2.472424341187584E-002
 -0.224814391591241     
  0.351460932236981     
  9.243385173460977E-002
  0.135556689443954     
 -0.132169815404059     
 -4.447027093421307E-002
  0.526361930327375     
  3.065352207001376E-002
  0.139365239953193     
  0.149535708525509     
  7.555435638973455E-002
 -0.116867107316706     
 -0.518339928896555     
 -2.192995370538696E-002
  0.108729885715865     
  0.504675395496114     
 -0.128234156626515     
  0.433655867069752     
 -0.584747146117037     
  6.487789769981521E-002
  0.436237533624474     
  0.120917579802772     
 -1.909843753376252E-003
 -0.247899194845952     
 -0.511406189418916     
 -7.588607373438304E-002
 -8.099455855297474E-002
 -0.193118885589276     
  0.369017788124945     
 -0.287417862915665     
 -6.971054215976477E-002
  0.188945145194079     
 -0.126600407376682     
  0.257975803886255     
 -3.332370010456522E-002
 -0.132992293931602     
 -1.388969500793735E-002
 -0.691694987850850     
 -9.501859668594433E-002
 -0.170108500511369     
  6.481408973867565E-002
 -0.233873010704199     
 -0.302886624716226     
  0.452356787566335     
 -0.153465940647048     
  0.406433169340600     
 -0.389523108095590     
 -0.200726828504528     
 -1.896371225077543E-002
 -0.244326712377698     
 -5.024124136356174E-002
 -0.184685837233453     
  0.270917756297492     
  0.220636067761594     
 -0.356929653208681     
 -1.690981799347014E-002
  0.250851640193408     
  0.125536489002588     
 -5.160887696654965E-002
 -8.721405781924710E-002
 -0.218322281073742     
 -4.915464711656188E-002
  4.952653112782898E-002
  0.358113859806700     
 -5.582690886127446E-003
 -9.334384686801356E-002
  0.114637834162394     
  0.165267878475312     
 -0.184677555430171     
  0.388307466451686     
 -4.273324937358999E-002
  0.116726424078901     
 -0.132587740167589     
  9.266344353504651E-002
  9.690922196348220E-003
  0.137783836960405     
  0.204778089212382     
 -1.336183035852693E-002
  5.395934398196787E-002
 -0.134892704707472     
 -7.475382485591707E-002
  0.113425081103936     
 -0.323719184859072     
  5.748630937101779E-002
  3.917370734441808E-003
 -2.748194054529027E-002
  0.438824948408930     
 -0.232841466129178     
 -4.799872146821050E-003
 -0.272796401888515     
  0.318028553606022     
 -0.167694742704186     
  0.209649413500620     
 -9.020738451738733E-002
 -8.187088920086000E-002
 -0.273535044482323     
  0.241451269917823     
 -0.191781618727767     
 -0.109512923966101     
 -0.452555222884552     
 -0.189053142282534     
 -0.179762118436645     
  8.512385947594865E-002
  8.506792997880633E-002
 -8.977233279848323E-002
 -7.612266425540636E-002
  0.325499638880548     
 -0.484937814465905     
  7.708092869204002E-002
  0.157263967228621     
 -3.272959546344236E-002
 -1.551878498251343E-002
 -1.212125533000723E-004
 -0.298367748444057     
  9.044582513995553E-002
 -0.414403126027012     
  8.291859307332247E-002
  0.317090360714410     
 -0.238589878132130     
  0.239053106237245     
  6.935187209798747E-002
  0.208299324031507     
 -8.242041996908939E-002
  8.599417107862944E-002
 -3.736298617308007E-002
  7.310216565771623E-002
 -4.746530806057193E-002
 -2.730463405805833E-002
  4.946632212474073E-002
  8.139003657789998E-002
  5.963164582428247E-002
 -0.180867118788287     
  9.593766595518173E-002
  0.111199080013588     
  0.134336066914397     
 -0.168045330544885     
  0.180639863151998     
 -0.168372147928963     
  8.475821773236980E-002
  0.257815683455098     
 -7.442770086501815E-002
 -8.802699235950327E-002
  5.664451698953017E-002
  2.215113943701059E-002
 -8.583689683394242E-003
 -9.899854252269180E-002
 -7.363749644928763E-003
 -3.840916594273520E-002
  0.124000574536539     
  0.118439831469007     
  2.379412034221106E-002
  0.296235002934260     
  0.368162370857134     
  0.125594049438643     
  0.390689011569899     
 -0.553886226143241     
 -0.298289483047525     
  0.171920514547347     
 -0.123106567975050     
  0.689119510986237     
  0.492177230834895     
 -2.662478117036905E-002
  2.928831365745747E-002
  7.053233862955777E-002
 -0.171108385746329     
  0.362527905435435     
  0.246771802703938     
 -0.504925036495105     
  0.516525276830269     
 -0.370115257509722     
 -0.360698253539065     
  0.766873662039965     
 -0.822050287984175     
 -1.670392107718287E-002
  0.156441781401151     
 -0.463944710877194     
 -4.072895586383120E-002
 -0.227065548665791     
 -0.247232303552205     
 -0.311980765546948     
  0.118863172495581     
 -0.259463907081783     
  1.513188655821995E-002
 -0.148362352841031     
 -0.600564628692237     
  0.337883555550399     
  9.053052823879715E-002
  9.912043706437139E-002
  0.775882270612325     
 -4.529107210165707E-002
 -0.290486951896351     
 -9.576867011125960E-002
 -0.264104382422870     
 -0.227955359734341     
  0.152180768999116     
 -0.270750893106898     
  0.140702098323115     
 -2.858766018267811E-002
 -7.153957330374618E-003
 -2.077425239683284E-002
  0.475315791212955     
 -0.116098786604270     
  0.228147952140150     
 -6.246143307971253E-002
 -5.971367646078076E-002
 -8.801372528345758E-002
  0.160909793154551     
  7.651508599604924E-002
  0.144847156001725     
  3.970347442457842E-003
  0.105186140460864     
  1.744749293978814E-002
 -0.499409432707004     
  2.292490977348096E-003
  3.963280838642610E-002
 -8.090817601653086E-002
 -4.144601682222255E-002
 -2.920861908372143E-003
  0.164611909842862     
 -2.562007479346622E-002
  0.261889339004553     
 -0.306940209546526     
  0.320530763274190     
 -0.106426695727047     
  3.155676815350091E-002
 -7.283340937457408E-002
 -8.958041268416536E-002
 -6.306584002842411E-002
 -4.519926280771760E-002
 -0.310969175880866     
  8.217404896391983E-002
 -0.214579221886870     
 -8.480020193298962E-002
  0.105864885661068     
 -0.158216229929132     
 -1.562352798062117E-002
 -4.127931944292716E-002
  0.162292503629044     
 -0.182993673735543     
 -0.150888682422745     
 -3.063017235360441E-002
 -0.181709559259256     
  8.844822709301203E-002
 -0.135212133014454     
  0.447368113824538     
  0.536709634918690     
 -0.549797146952749     
  0.495932608255504     
  0.367315884328946     
  0.195160338971139     
 -4.267134888961147E-002
 -1.322323222134770E-002
 -7.243717828158738E-002
  0.260207636227769     
  0.417015628313495     
  0.189726515861554     
  0.273391786166645     
  5.805774326071979E-002
  0.219059320159475     
  2.137243744594462E-002
  0.140362685470361     
 -0.177395371483604     
 -1.305776458752599E-002
 -5.423402659918346E-002
 -0.148896227216126     
  0.426894988872679     
  0.190798703548151     
  0.301919731421651     
  9.951181320269184E-002
  0.169690318981411     
  5.435873177001661E-002
 -0.206111915000897     
  9.580040187185629E-002
 -0.119658480157833     
 -0.146951435014203     
 -3.991987852854936E-002
  0.713631183132074     
  0.261197485203537     
  0.254744954015915     
 -0.429496270545014     
  7.269901473102395E-003
 -0.157269549203193     
  0.136171277490917     
 -6.391002331352004E-002
  0.154163611135611     
 -0.365871730780276     
 -0.196419224157063     
 -0.227392623947063     
 -0.165363600643340     
 -0.240969502322619     
 -3.799034371274386E-002
 -0.271721824371028     
 -0.203652636938947     
  9.857123533214296E-002
  0.186582205919315     
 -5.216382148995219E-002
 -7.462915660194015E-002
 -0.445687344970446     
  4.548839672216288E-002
  0.220094021296432     
 -0.429604291550359     
 -5.964244936367877E-002
  0.193273527896806     
 -0.114893009578389     
  6.867823217572037E-002
 -0.109629934145734     
  0.184310663151804     
 -9.744071079706540E-002
 -6.064134447713970E-002
  0.176413368642274     
 -0.119536184141558     
  0.212646406044074     
 -0.113086006526354     
  0.206587204474421     
 -0.433571396930230     
 -9.487662064018419E-002
 -4.561158304795799E-003
  6.381423947479370E-002
 -5.494652033459092E-002
  0.207963456981615     
 -9.592768807296741E-002
  9.769812862256370E-002
  0.211070622863405     
  0.263285482159153     
 -0.317752195775348     
 -0.381144820753131     
 -6.379969151239075E-002
 -0.218109444024209     
  0.251713343714431     
 -9.810912081803028E-002
  2.038192955191216E-002
 -4.250591678097878E-002
  0.260651863630327     
 -4.963169868030416E-002
  0.130504097923732     
 -0.269603786938359     
  0.151741829186948     
  8.824870039840346E-002
  0.240185137220018     
  0.338154113036895     
  0.124024241974004     
 -0.181763107292854     
 -0.233179260710886     
  0.398161207656718     
 -0.275393743991449     
 -0.248663444242797     
 -0.337765202219127     
  0.117205906520821     
 -0.217809036868641     
 -0.169578380959519     
  0.615680600022619     
 -0.289376078029678     
  0.559748531820743     
  4.203365697450915E-002
  0.319925687471602     
 -0.205893728555082     
 -0.164376875164301     
 -2.781651491335205E-002
  0.136116506073951     
 -0.344953140048710     
 -0.180676699283077     
 -3.294951715176455E-002
 -0.166864517670932     
 -0.121705436539622     
 -0.100685868581723     
 -0.230611226389274     
  1.069586184274867E-002
 -0.121213882416375     
 -0.194879722786353     
 -0.141369950320866     
 -6.908024053039606E-002
  3.330456036853648E-002
  0.419560609829633     
 -0.108806050716110     
 -4.779027589638640E-002
  5.071189826718450E-002
 -1.242206809483483E-002
  0.212324344560051     
  0.245349707794046     
 -0.322510348011398     
  0.446826891271222     
 -0.198864479945987     
  6.858052078157421E-002
 -0.133463465031006     
  0.109052716932774     
  0.354776116845440     
  4.099340496750449E-002
  0.121937041066888     
 -9.258575151049639E-002
 -8.364630683891494E-002
 -7.975934870619843E-002
 -0.368467662489812     
 -1.450241356285380E-002
 -0.358091190200886     
  0.408236325963564     
 -4.150540647037706E-002
 -0.211685476735384     
 -0.530191190579361     
  0.661659938016936     
 -0.303521534105502     
  0.593958954446377     
 -6.585374144267944E-003
  8.093894774761413E-002
 -0.180598862473809     
 -4.680515134378325E-002
  0.242285352366987     
  0.201852521229318     
 -0.215052405579831     
 -0.118075762646250     
  2.830921740487724E-002
 -0.380298381039796     
  0.220003365239716     
 -0.119723317642940     
 -0.332857347790395     
 -0.214761108035939     
  0.140383242888474     
 -0.541613794171456     
 -0.156176667738424     
  4.252522960586633E-002
  0.244101081964567     
  1.555035273500506E-002
 -8.833888821348000E-002
  0.425964422603341     
  7.390218371239135E-002
  0.175978828585342     
 -2.366469349117491E-002
  0.280612053367628     
  3.696841359332409E-002
  0.487457512368540     
  0.293491623654047     
 -9.294473547835494E-002
 -8.718263413352845E-003
  0.235539972280801     
  4.163147041928061E-002
  3.206404920635537E-002
  0.197371855689512     
 -7.779609696375973E-003
 -0.133185603589135     
 -6.496946853888752E-002
 -0.158345500715930     
  0.405012515500143     
 -0.292276179076800     
  9.010448860295593E-002
 -0.244483750617509     
 -0.375494290565199     
  5.733067818696124E-003
 -7.286385336364520E-002
 -0.272717491299790     
 -7.974021868835549E-002
  3.157268653303895E-002
 -5.531469236623695E-002
  3.799390072409935E-002
  0.585572425171631     
 -0.236735673615112     
  5.446414104169086E-002
  0.112079600895791     
  0.156090109937199     
  0.368871344356165     
 -0.122593738702676     
  0.215580498212065     
 -8.792111883152214E-002
  0.252532620984072     
  0.249918572327944     
 -0.260260764569428     
  0.252824809894698     
 -0.178154157322118     
 -0.159068728687356     
 -0.312829724083958     
  9.155073955653494E-002
  0.119379332264520     
 -4.362571025973431E-002
 -4.281807544900562E-002
 -9.470991720450005E-002
  0.120621343116667     
  7.422430626067474E-002
  0.132484197836159     
  0.236002283275349     
 -0.101337106116120     
  5.593672230625148E-002
  0.328714371091105     
  7.354671061927523E-002
  7.592590956317886E-002
  1.509995394381725E-002
  0.271456684897862     
  0.386116079838886     
 -0.179007291692389     
 -0.159324139200363     
 -0.185132320164874     
 -0.115875641777724     
 -0.361793135752481     
  0.412570099880481     
 -2.919361973681112E-003
  0.674514135413227     
 -0.206235253224579     
  0.356710009616786     
 -4.877201851213375E-002
 -0.167639034233080     
  1.855823837457670E-002
 -8.545642932278328E-003
 -5.930109401590030E-002
  0.170886270539523     
 -2.320291419803846E-002
  0.149214812566013     
  0.134622933557121     
  1.254554471649286E-002
  0.232124197632596     
 -0.299035238686702     
 -7.842874921275747E-002
  0.103736869938162     
  0.162254102943526     
 -0.179001811594345     
  0.258078572463348     
 -0.157201841753263     
  0.129467216389052     
 -1.345793394175171E-002
  0.280663931355704     
  0.331586439734666     
  0.170334873020200     
  0.118668633622429     
  6.345964619964381E-002
  0.186522427986580     
 -0.182701483738624     
  0.255487224276848     
 -0.550534709419752     
 -6.121625380177101E-002
 -0.117220877141557     
  2.341370484435940E-002
 -0.136305622292019     
  0.192262396437954     
 -0.170148231461698     
  0.294663195469145     
  1.483218823242822E-002
 -0.236094335363615     
 -0.254150814312311     
  5.296542047503662E-002
  0.152921602243222     
 -6.085334083849223E-002
  0.123336678673803     
 -0.405543007537102     
  0.627577818907681     
  1.821936175308887E-002
  0.145140992739882     
  4.613746117279913E-002
  1.371722425407102E-002
 -3.486393767623897E-002
 -5.203100221472644E-002
 -3.379743694443871E-002
 -0.123528381041683     
 -2.615790850538557E-002
 -0.117091065350564     
  0.127459471830743     
 -0.224211633125619     
  1.487780050159516E-002
 -0.330033057266430     
  0.210833905451607     
 -0.246684925850052     
  0.100260349660712     
 -0.317050581283464     
 -8.812039493897492E-002
  7.980195176742022E-002
 -8.831140076237691E-002
 -0.233971367402594     
  0.152856028334738     
 -1.936163871218817E-002
 -0.151192997182238     
  0.295892923331465     
 -0.266383208091379     
  0.103974610050145     
 -0.185705759915992     
  0.232430959625846     
 -0.241863637654529     
 -0.164458796344130     
 -0.155344275735140     
  5.201539216882321E-002
 -1.691768686914324E-002
  3.495166668410479E-002
 -4.408490242279368E-002
 
 -0.169354747126956     
  0.166705182262350     
  6.761121449229304E-002
  8.998927810299594E-002
  0.443474132398284     
 -0.309192623658268     
 -0.178180633878783     
 -0.438020573339765     
 -8.275701722243317E-003
 -0.116432188496961     
 -0.145015865453912     
  8.794733140666953E-002
 -0.476515506805526     
 -0.839959064124080     
  9.940521061777184E-002
 -9.258322577699142E-002
 -0.449799524856414     
 -5.435966979429087E-002
  0.510048224302219     
  0.121264244758173     
 -0.585684167907904     
  0.283821903453176     
 -0.497138729181787     
 -2.387331610348000E-002
 -0.496853327572280     
  0.288324889237167     
 -0.450652816897052     
 -0.704742585047732     
  7.198657690595546E-002
  0.737239481843001     
 -0.292400914846858     
  0.204770773034761     
  -1.05473433179028     
 -0.276877090753715     
 -0.201536304083028     
 -0.425746392287629     
 -0.153129574212880     
 -0.155146204236448     
 -0.225999414418845     
 -0.266626666430006     
 -0.674182098897877     
  0.410513123274849     
  2.494037686363361E-002
 -0.604933158013026     
  0.818814199772307     
 -7.012925286313490E-002
  0.168605738141064     
 -0.355380991794176     
 -0.230118331890579     
  0.447868742815034     
 
  0.304600367998171     
  4.470327918765134E-002
 -0.221304182564613     
  0.179241815627894     
 -0.158728269277995     
  0.358765741422375     
 -0.194463104002477     
 -0.250877142303398     
 -7.396560853814708E-002
 -0.307599071586824     
  0.217832505593481     
 -0.256474179603639     
 -5.471690120181762E-002
  0.170677852877443     
  1.113199946733036E-002
  0.319058068967580     
  0.182428428317069     
 -0.248917952182137     
  0.143709389649479     
 -1.954434003651248E-002
 -7.808643714712987E-002
  0.215165729684033     
 -0.244383552339652     
 -8.737843011443948E-002
 -0.340193244804739     
 -0.337390797109577     
  6.797721412993919E-002
 -0.223210494117980     
 -0.499210454138232     
  0.128364727641243     
  8.741748267587414E-002
  0.463285421291225     
  0.328763272417744     
  0.294241124096701     
  0.225509717112390     
 -0.135076390661031     
  0.280459956791885     
  0.339976311527369     
  6.721424378916172E-002
  0.165285151222212     
  9.096764330172720E-002
  1.580164879991050E-002
 -0.312088607685508     
 -3.474381013299478E-002
  1.822733078146876E-002
 -0.127753110520383     
  0.310818679264584     
 -0.271739724626420     
 -9.722422363698996E-002
 -4.487416360517030E-002
 -5.010062754742786E-002
  0.335229568944627     
  0.348543239507176     
 -0.148673594602902     
 -8.476111812371756E-002
 -0.391127358592170     
  0.113757214766677     
 -5.244585977596434E-002
 -0.296200147102076     
 -0.410445407328702     
  0.497865765312639     
  0.132549885478508     
 -0.169912972290470     
 -1.808586481653050E-002
 -5.688471132019420E-002
  0.171754351698211     
 -0.535776175845636     
  0.279432495169623     
 -0.499634952725795     
 -0.251214347137362     
 -0.197960258260248     
  0.186890495656205     
 -0.173879320031177     
  5.659006452235822E-003
 -0.195970890287310     
 -0.584482333770300     
  0.421051357916907     
  0.625791294787662     
  0.352960892925864     
 -0.413898328905525     
 -0.146630391082748     
 -1.006981712719543E-002
  2.520683540987166E-002
  0.151968631570183     
 -1.624062804235882E-003
 -4.002629329168976E-003
  9.486069868687901E-002
 -0.471522336942620     
 -0.604126313178970     
 -0.262448142967203     
  0.434411351732377     
  0.366466505350748     
  0.638292156023694     
  0.149583238945214     
  0.164464038133931     
 -8.298863383165123E-002
  0.194221820058749     
 -0.333861416973785     
 -0.211312160632320     
  0.267987890147751     
  0.748632066912268     
  0.128046598623950     
  0.380984937474848     
 -0.640121409824062     
 -0.288916208934910     
 -0.452661216366601     
 -0.141445761024549     
  0.372538836287337     
 -8.674494482462559E-002
 -0.286866970420853     
 -0.186461167862590     
 -9.708384221071781E-002
 -0.506362852850060     
 -0.276838004963236     
 -0.166977294659568     
  4.283399235696318E-002
  1.140646648761577E-002
  0.546783554632922     
  0.268738659688771     
  0.247580003566937     
  0.196385628395646     
  0.722781013827097     
 -0.426107158743866     
 -2.732070986617093E-002
 -0.923301170822370     
 -0.593435763923169     
  0.628606199492772     
  0.632842979097155     
 -0.246315923656072     
 -0.395874276220873     
  0.533931165904865     
   1.01822488563258     
 -1.797044423600617E-002
  1.159340011894477E-005
  0.802441518596804     
  6.265243433551578E-003
  0.419816318517227     
 -0.276512210400292     
 -0.318866770419026     
 -0.754073337007442     
 -2.830127637803661E-002
  0.691932727666639     
  0.558722390385311     
 -6.911953967978332E-004
 -6.943374247850401E-002
 -0.279576923885554     
  0.272892303770957     
  0.292962629132981     
  0.681557637478088     
  0.684063189461163     
  6.432238215908319E-002
  7.859069719603866E-002
 -9.759722702701613E-002
 -0.117178183505692     
 -0.192590239993238     
  0.580183263490228     
  0.253715539877910     
 -0.116019424251451     
 -1.024970564651039E-002
 -0.205500627598529     
 -0.312575836172725     
 -0.264776633401673     
 -0.755456749231434     
  0.404976971594290     
  5.031265457073843E-002
 -0.444098245594236     
  0.961548665157991     
 -2.158401143763063E-002
  0.262364170089641     
  3.893623780421459E-002
  -1.09001617775491     
 -0.552381603930153     
 -0.305084572975540     
  0.102091630347193     
  0.815301178651572     
  0.876857273027074     
  0.582306462565366     
  0.213577575334727     
 -0.183471621301207     
 -0.450937468456169     
 -0.591599463887933     
 -4.295329780782957E-002
  0.603280264213114     
 -0.319462076844412     
 -0.208734849943122     
  0.286506747443422     
 -9.415818430595284E-002
 -0.308159716099222     
 -0.541748934347224     
 -0.531255159776680     
 -0.833881048265956     
  0.576725991290552     
 -0.281151821573295     
 -0.187590770278396     
  0.495933090635921     
  0.369191302291679     
  0.579385133870441     
  0.359822228362938     
  0.287213065599767     
 -0.568619759488015     
 -0.152659326120149     
  3.817042045479661E-002
 -0.455024745510949     
  0.288378324930072     
 -1.107239069151781E-002
  0.131148975010275     
  0.434340958193851     
  0.274324792510856     
 -0.244428610965183     
 -1.155214475437200E-002
  5.237229765902254E-002
 -5.819030090456927E-002
  0.315529974394242     
 -0.110230794404571     
  6.428283301767231E-002
 -5.967272812828227E-002
  0.167971293546998     
 -0.264255174578455     
 -0.248400088579754     
  0.563082220902716     
 -0.184593749459031     
 -4.768516440230764E-002
  0.312419807993545     
  0.160477339328393     
  0.144610484689171     
  0.138637690455117     
 -0.273076122359612     
 -0.406473882460139     
  0.221208190286715     
  0.139682717149310     
  9.631703674921127E-002
  1.869009463263152E-002
 -5.326568856664968E-002
 -0.219223755438960     
 -9.252299919266034E-002
 -6.508552547451342E-002
  7.056993752283383E-002
 -3.108329697324637E-002
  1.236854882283980E-002
  0.101481175677428     
 -1.191598512241639E-002
  6.816303366343160E-002
  0.341106235087018     
 -8.706369891163747E-002
 -0.105544703809190     
  0.189653149104222     
  8.926752365610427E-003
  2.687848243919506E-002
  6.483000869863560E-002
  1.817888231727336E-002
 -0.565578603356976     
   1.06522915702297     
 -2.157583414750322E-002
 -0.150977494450911     
  0.102393896438387     
 -1.675919322546624E-002
 -0.379137096167633     
  0.727718221604934     
  0.750128990745658     
  0.362886741915538     
 -0.538432571072169     
  7.830503693804401E-002
  0.179724222897677     
 -9.279428671072584E-002
  0.208582639026429     
 -0.130640569894139     
 -6.732180490174422E-002
  0.418947545058796     
 -1.643292066327794E-002
  0.209566304744763     
  7.340303911508485E-002
 -0.748321836445748     
  0.172847351280692     
  0.317464710278686     
 -0.731971340276075     
  0.303668339472330     
 -0.259098771627246     
 -0.119205414779029     
 -9.743402968304571E-002
 -0.142929149306917     
  9.672621033662845E-002
  -1.34642477503009     
   1.07042105418863     
  7.098584016034626E-002
  -1.05905367196956     
 -0.100271306598251     
 -0.137069029647954     
 -0.382808662621756     
  0.338580917173907     
 -0.595015713128112     
 -0.296300468039250     
 -0.492101327495648     
 -0.295609904287623     
  0.494221738462853     
 -9.646265162924758E-002
  0.228149602545560     
  2.251125142180129E-002
 -0.201226133887588     
 -0.175092593735644     
  6.389506859284437E-002
  0.373555175032213     
 -0.109126948574405     
 -0.773934158989244     
  0.392004361703828     
 -0.145591374779737     
  0.124146669080017     
 -0.268913511095516     
 -0.104948879834430     
  6.847310834940064E-002
 -4.568987321356616E-002
  0.223262063661443     
 -9.722034552119869E-002
 -0.153824117539721     
 -0.272118706364017     
 -9.221776638080899E-002
  0.537480293174257     
  8.593033981333005E-002
  0.250658565195568     
  0.258378486648144     
  0.161240650964513     
 -9.386260400174284E-002
  0.137426266153076     
 -0.389635182131212     
  1.075524173727421E-002
 -0.563130123662127     
 -0.192314935687091     
  8.119356151671231E-002
 -8.414999801339132E-002
 -0.168740806421452     
 -9.031378088913035E-002
 -0.522053475372840     
   1.01244110258042     
  0.201645362158810     
  0.181577522822187     
  6.928736133379698E-002
  1.452797073134537E-002
  0.338305911818482     
 -1.469462297195438E-002
  0.285640304624282     
 -0.103675316371303     
 -0.238855904374604     
 -0.149700322380937     
 -1.100746852519358E-002
  0.221378398095782     
  0.240354063211034     
  0.170593355174447     
  0.361282390842720     
 -0.606256179518771     
 -4.561299096444919E-002
 -0.361134464365208     
  0.197306549674625     
 -0.120523959732110     
 -0.117196946946660     
 -0.562684653132836     
  0.232346254789159     
  0.239631778321470     
 -0.304853165859443     
 -0.214620074646105     
  6.429511934588050E-002
  0.425557457316735     
 -7.734788349764637E-002
 -0.586026223754856     
 -0.280436480712296     
  0.106904072700193     
 -0.193209699396920     
  0.893455192970037     
 -0.455119928954585     
 -0.345367444583374     
 -0.573309834967308     
 -0.158522296110754     
 -0.511549060435022     
  0.567306436849435     
  9.185508725692181E-002
  0.334647080736720     
 -0.224999358730393     
 -0.750883109046866     
  0.102157258958313     
  0.430987093475758     
  8.509722116511555E-002
 -0.211568981080461     
  6.275204460940716E-002
  0.582757761200582     
 -0.181312510111134     
  0.875853683438166     
  5.009319292945849E-002
 -0.271903815577525     
  0.440233313109671     
  0.651061186807122     
 -0.345132114419626     
  0.229106200226757     
 -0.473281661839770     
 -4.155303596629274E-002
 -0.264418969834430     
 -0.580826219622343     
 -0.267660161583549     
  0.235959814362479     
 -6.652986373228613E-002
 -0.414049221754549     
  0.285003859350497     
  0.158475876019016     
  0.284749518635174     
  0.648483219097318     
  0.179158530825481     
 -0.332940316137554     
 -6.248189564140091E-002
 -0.429319300942763     
 -0.275057946551393     
 -1.071755851082733E-002
 -4.643045741960591E-002
 -4.540499169170640E-002
 -0.117284572022419     
  0.233856577667199     
  7.342072345994777E-002
  5.392942430073933E-002
 -0.207012504985674     
 -0.101524079019046     
 -0.216627911686169     
  0.166164861153710     
 -0.343895491574798     
 -0.148061657734524     
  8.482645494065011E-002
  0.142915753688242     
 -0.135998214666827     
 -7.741380535835597E-002
 -0.347221055525170     
 -2.883120575163630E-002
  7.834413699139599E-002
  0.402529051292417     
 -0.526596819613011     
  9.089756047697298E-002
  0.461265720839159     
  0.255099207449653     
 -3.306673374152401E-002
  0.363976178603386     
  0.109727103840505     
  0.339499997179015     
 -0.239732669094862     
  4.770978318495476E-002
  0.112714478627074     
  0.488057781369940     
  5.109024854420699E-002
 -0.204964539420393     
 -5.925473369473282E-002
  0.179682445235235     
  0.200661523354615     
 -0.354993837064894     
 -0.452302218117190     
 -0.332542926927029     
 -0.355605578491290     
  0.158071683305454     
 -3.226733450212252E-002
  0.264630357250804     
  0.304126724631786     
 -4.257644188545399E-003
  0.134866649078780     
 -0.173426897881354     
 -0.111324321972725     
  4.579221180475233E-002
  0.175180743801530     
  0.150411919021313     
  0.170014889578579     
  8.195439436979177E-002
  3.303898820762641E-002
 -0.191435535502310     
  7.250522386124741E-002
  0.120330154583671     
 -0.237541491869251     
  0.228286229559821     
 -7.186905985659435E-002
  4.113532497836143E-002
  0.140532602535007     
  0.219226287243584     
 -9.042747546283751E-002
  0.172863739845215     
 -0.164208702777863     
  0.539937588501628     
  0.181623374290897     
  0.334602500559874     
 -4.929642594150273E-002
 -0.368286173108071     
 -0.106707144667545     
 -2.958788769130518E-003
 -3.569421925992901E-002
  1.781730053553760E-003
 -8.685154815063571E-002
  2.308027687077004E-002
  0.215492562822429     
 -0.369539134910740     
 -6.783620820445102E-002
 -0.199369441185307     
 -1.538324578201129E-002
 -5.337109388209273E-002
 -0.105633989411179     
  0.134369780715575     
  0.323483646343645     
  8.578686280005327E-002
  3.553853693890439E-002
  9.749005103131850E-002
  0.288996630542490     
  0.360709478358831     
  0.153073870635287     
 -0.193158290366452     
  0.621976352832180     
 -0.161976899037972     
 -4.869816662098982E-002
  8.897718516471037E-002
 -0.165914631381561     
 -0.718255749301690     
  0.309750025192330     
  0.139010476330036     
 -0.632179416322253     
  0.103776174875449     
  0.597002209022616     
 -0.784610712358851     
 -0.278639605313077     
 -0.419533694782036     
 -8.207498380945656E-002
  6.293820835126904E-002
  0.264585446758034     
 -0.404319500630491     
 -0.407252304630164     
 -0.696876831528145     
  1.968093434104413E-002
  0.287503839454176     
  3.472501501355634E-003
 -0.117446242983805     
 -4.026008869728042E-002
 -0.626997035902826     
  0.279620933657372     
 -0.315265274132706     
 -0.265040337612716     
 -0.569654282212124     
  0.225096355364253     
 -1.104450560822817E-002
  2.911910350921590E-002
  0.142094863550729     
  0.411593218443941     
  1.459951800107850E-002
  0.605072723073437     
 -0.708513734173737     
 -0.117001918677968     
 -4.778787941008527E-002
  0.101802984758004     
 -0.148378896797145     
 -0.157210276138225     
  0.284654168163772     
 -0.152884366192121     
  0.246005870795048     
 -5.965244123623284E-002
 -0.193974247963747     
  1.181810252247251E-002
  3.486805856679787E-002
  0.132943643472370     
 -5.749469152613986E-002
 -5.432411864046088E-002
  0.297329730985993     
  7.845540442631442E-002
 -7.616875296675876E-002
  2.951574713233896E-002
 -0.262929313841477     
  0.350434142594715     
 -7.380597821982832E-002
  0.372056029576889     
  0.296404184232822     
  0.178188405831683     
  0.292831731372300     
  0.260840803160822     
 -0.396130890514807     
 -0.263173684015671     
  8.769113856750151E-002
 -3.083478834290810E-002
  0.289640033095423     
  6.294437029101554E-002
 -2.123180979011454E-002
  5.623371144874541E-002
 -0.720976408570577     
 -0.201321065537045     
 -0.157358768477081     
  0.329427390394709     
  0.458065736434180     
  5.254743642458750E-002
 -0.804801444452443     
  0.345154794284170     
  5.638378700302163E-002
  4.099707301083658E-002
 -0.206713742128425     
  0.198315781289419     
  2.041980793818102E-002
 -0.128584441320568     
  0.247730053127077     
 -0.191726449705206     
  0.143662737340957     
 -9.169171171050185E-002
 -0.162740505802255     
  0.253164760907896     
 -0.371761249455009     
  9.134624104379893E-002
 -0.355162319954409     
 -1.311393384531677E-002
 -0.318923447074299     
 -0.339086040644004     
 -0.165402874890759     
  0.143237397312062     
 -6.395565925267399E-002
  0.144342903055513     
 -0.170991323399387     
  5.445653977990445E-002
  0.168367172822783     
  5.831162367991553E-002
  0.195282241041820     
 -9.764318376911689E-002
 -2.027431475784019E-002
 -0.282698607338232     
 -0.208550302682277     
  7.409562119179020E-002
 -0.337556706752754     
 -0.227192765175735     
 -5.127797982052715E-002
 -0.166592661446028     
  9.237196580453322E-002
 -1.596279679330873E-002
 -0.231005002746594     
  0.163090540877579     
 -0.224596935627594     
  0.155962238225009     
  0.363875895864146     
  0.166803456524822     
  0.203458288153768     
 -0.370146185216325     
 -0.160974472152642     
  0.422176335984402     
 -0.117689822091370     
  0.126125623606557     
  0.101913649798443     
  6.204730568836681E-002
 -7.994646107549637E-002
  0.215560278426777     
 -0.254364510142132     
 -2.156573352561616E-003
 -0.156454347175427     
 -0.285448148232903     
  2.677080880572209E-002
  0.181224434266144     
  3.324250452248897E-002
 -1.216979225204693E-002
  0.154711458950225     
 -0.254199810188980     
  0.661765630709417     
  0.279672784878187     
 -1.480667765790649E-004
 -0.115939833755733     
  0.190243992804355     
 -0.139610262315202     
 -0.181657650443796     
  1.818911892722665E-004
  0.140263271867365     
 -6.142321781713753E-002
  0.166291947123301     
  1.405198645008868E-002
  7.561128304870413E-002
  1.410923757513128E-002
 -0.209262969657931     
 -5.336189821550215E-002
  0.133216426962140     
 -5.179553591691298E-002
  0.274633773136126     
  0.128614989719536     
 -0.163567089310825     
  0.268834940114112     
  0.241018732333605     
  6.285147807151620E-002
  0.548614283780821     
 -0.258992579409752     
 -8.828368517224520E-002
 -0.167404140544810     
 -0.237642596442001     
 -7.459660668956124E-002
 -0.301544010367831     
  0.361742263106811     
 -0.349959020827593     
  2.584313996532729E-002
  0.384431338859962     
  0.144470560858536     
 -9.695663301008572E-002
  1.060650943783422E-002
 -1.757959073057499E-002
  0.155304517053677     
  3.485052963088504E-002
  0.166571329309268     
 -0.296486033516388     
 -0.204210115871873     
  5.525989021666620E-002
 -0.209441837445478     
  3.169233690269915E-002
  0.179578244766143     
  0.132419800185641     
 -5.486378889853299E-002
  0.126018655704095     
 -9.547545919030914E-002
 -0.220506211135791     
  2.576020399507013E-002
  0.546268836082190     
  0.191510982139696     
 -0.385151585825988     
  5.211093207336483E-002
  0.118649928043057     
  5.943101470546309E-002
  0.642387464852577     
  0.562107614321984     
  8.762215461795422E-002
  0.400082893293077     
 -0.315967433958252     
 -9.142523255739905E-002
  0.262353347452938     
  0.174847862039932     
  0.244183511192448     
 -0.459420879400938     
  5.669276875380550E-002
  0.279061937832821     
  0.221992832474090     
  2.349557150690948E-002
  0.380796851145180     
  6.196402266126237E-002
  8.850590177876246E-002
  0.490268957398096     
  0.167383390941939     
 -0.101935245103424     
  0.577482139865220     
  0.837748950986586     
  9.221241778721492E-002
  0.356200410276181     
  -1.15118556970801     
  4.768294965383705E-003
 -1.164718781228839E-002
 -7.614154442990864E-002
 -0.264628076770137     
  0.461439481422487     
 -0.469247521160311     
  3.803261676283182E-002
 -0.258571693286710     
  0.113593184643374     
 -9.293949880347764E-003
 -0.579053944378386     
 -0.289188848558391     
  0.949009752576423     
 -0.137838127067039     
  0.877222769685292     
  0.206405487033816     
  0.412567880147160     
  7.467392849215795E-002
 -0.531002428041564     
  0.125299272239206     
  0.314450940067414     
 -9.048073435914540E-002
  0.205349143182535     
  0.278340709541236     
 -0.912562359492252     
 -0.692145030006143     
 -0.340567315302042     
 -0.326532347968813     
 -0.107325290792663     
  0.310039890210607     
  0.152154579610660     
  0.138741453738784     
  0.171132667734617     
  0.544524817299637     
 -0.586819256300159     
  -1.08427693143253     
 -4.122880641885306E-002
  0.470651884921738     
  4.018110310158137E-002
  0.377171823558058     
  0.332977932021003     
  0.100180975773011     
  0.161721953591747     
 -0.127258882906898     
  0.405941339986968     
 -0.623232397973875     
  0.611467101367578     
  0.151847846995608     
 -0.174497280839240     
 -0.306795708174228     
  2.019352217385116E-002
  0.101847333774322     
 -0.293901252322868     
 -2.937488474439439E-002
 -4.251215904731364E-002
  0.578215818141052     
  0.280103362794068     
 -0.769424017687767     
  0.192841540892704     
  0.152518991997301     
  0.346666125033052     
  0.329962896939679     
  0.152169289575361     
  0.197397115484017     
 -6.391282432324004E-002
  0.758060234468972     
 -0.131632252792508     
 -0.457117056143941     
  3.350510540865843E-002
  0.121907290554311     
  0.172583562865418     
  0.479254516032016     
  8.812595560710750E-002
 -6.440027319067823E-002
  0.118695238345834     
 -9.769500942320750E-002
 -0.164882077374469     
  1.875909352794841E-002
 -0.168581372591434     
  3.211029865676192E-002
 -0.282796290460115     
 -0.187513452068263     
 -5.326998623381013E-002
 -0.450864010389963     
  0.213300965356030     
  0.152039363467571     
 -0.189408689099597     
  5.179774662310267E-002
 -0.115820497051967     
  7.588088542780413E-002
 -6.430337257476960E-002
 -0.125420757429226     
 -0.239141543296841     
  0.144191259903700     
  0.249607976274079     
 -0.111992801301651     
  6.039629735604415E-002
 -0.308734161634423     
 -0.190711106994410     
 -0.248958457539716     
  0.146228623134766     
 -0.314999830249951     
  0.176607075167941     
  0.162067193609620     
  0.125525948461876     
 -0.196303061321981     
  1.484644119712472E-002
 -3.496578596108964E-002
 -0.125261348813633     
 -0.109323253357869     
  0.298557674245522     
  0.134439280674442     
 -0.216077755028587     
  0.169269334381941     
 -0.203656674861613     
  0.235888437419427     
  5.016554409533636E-002
  0.179658303033150     
  0.309935769450034     
 -0.114288396107778     
  0.199461392761499     
 -0.205803146854331     
 -7.178310151956208E-002
  0.252747600880869     
 -0.382319397732720     
 -0.255931640281665     
 -0.336963516453037     
  1.957098174921401E-002
 -0.119173948551103     
  4.757747662578510E-002
 -0.315667670367003     
 -0.186949448011982     
 -9.594441640797788E-002
  0.198015110382762     
 -8.085358647996264E-002
  0.326646662128241     
  0.390239061162814     
  0.353358492545082     
 -0.263439429980400     
  7.298720205169644E-002
  0.127617773641093     
  0.244982519354662     
 -0.443572434329655     
  4.869032354707505E-002
  9.529758528339123E-003
 -0.360093038293944     
  0.374131302788776     
  4.848753781950357E-002
  0.281424603730563     
 -0.324505125777845     
  0.222574098774299     
  0.231739984647025     
  0.278953794523887     
 -0.165899268110089     
 -0.181865236775270     
  0.256759252107227     
 -0.129642003828753     
 -0.200704677604944     
 -0.171933981132837     
 -0.121562125965853     
  0.300213400778940     
 -6.219598807920054E-002
 -0.560058665437331     
  0.202897748699000     
  0.202084136879603     
  5.919128626002257E-002
 -0.464427102995964     
 -0.187407048149442     
  8.455315962780176E-002
  0.413238260456965     
  0.395963039142154     
 -0.297150738258403     
 -4.142267359645747E-002
 -7.727722573994837E-002
  6.608517981402817E-002
 -3.030274772190676E-002
  0.183628747846859     
 -0.122065929604097     
  0.216035174951669     
  0.314800655704902     
 -0.207417418176773     
 -0.192368404662990     
 -2.481303844730498E-002
  5.502385667574761E-002
 -0.235396281442460     
  0.322969063893346     
 -0.226433698483533     
 -0.240407659451204     
  0.173280992021699     
 -0.278249832420900     
  1.564550047235299E-002
  0.132948600131767     
 -0.198882253039421     
  2.465609986744923E-002
  0.225882407410230     
  0.672367956878685     
 -0.338468994309408     
 -6.600916311350531E-002
  0.170826383163694     
 -0.782019631688417     
  0.154764843306465     
  0.142763481385466     
 -0.153406870290805     
 -0.141832578979512     
  0.160693925367797     
 -0.431507742805606     
  7.333092028253221E-002
  8.639758619280680E-002
  0.143273398615385     
  5.369423407300118E-002
 -7.891548224840565E-002
  0.146327800895931     
  0.155131061881146     
 -3.319541365620520E-002
  0.156080552196377     
 -0.241401779595384     
 -1.000866834823131E-003
 -0.225072130608120     
  8.223104806699683E-002
 -0.190498913387399     
 -0.561275061566368     
 -0.579306721413655     
  0.131264769495671     
 -7.601777345589693E-002
  0.177012617959764     
 -0.223888122543453     
  0.316176403825233     
  0.155767167137134     
  6.490141251910517E-002
  9.967742412560575E-002
 -0.321110162059131     
 -0.106309866258814     
 -0.373100286609554     
 -0.161797273383068     
 -3.144521801622167E-002
  0.660337355237488     
 -6.538531347907671E-002
 -0.441294702728679     
 -4.113355423008351E-002
 -5.294479443872245E-002
 -0.281657605469377     
  8.571469378372229E-002
 -0.315811922154778     
 -0.121551990437944     
  0.302525674488883     
  0.169359273175795     
 -0.347202368229919     
 -0.799999908846255     
 -0.266487865060426     
  0.332535942641064     
 -0.405199502581505     
 -5.687646791404963E-002
 -0.175261577702266     
  0.196575870808327     
  0.358373918767806     
 -0.266024465447520     
  0.346936992095991     
 -0.468757498174324     
 -0.109477758245287     
 -3.227350731705868E-002
  0.298276143254953     
  7.926368163763216E-002
  5.338487028772477E-002
  0.468909890127894     
 -0.180878886129197     
 -0.579965407401991     
 -0.131162823873915     
 -4.121451204618320E-002
  0.420362711239381     
 -0.121397294225162     
  7.198605859764769E-002
 -0.124780803519990     
  0.238584439817940     
 -0.263749659983682     
 -0.281073454028507     
  0.380378789504282     
  0.167265859657526     
  0.388486220936161     
 -2.920794298990852E-002
  1.646024043484482E-002
 -0.242980908849463     
  6.111507267263598E-002
  0.189635588703606     
 -0.106361967289394     
  3.397003374442366E-003
  0.330979629586697     
  0.583730909130002     
 -9.132889779023343E-002
 -0.167036229736602     
  0.223908373111941     
  0.138471908363660     
  9.460230595535073E-002
  6.712360979553381E-002
  0.487843174004266     
  0.231995626107230     
  0.262295699381302     
  0.481738109141055     
 -0.419923724479993     
 -9.307098145222788E-002
  0.237054621743435     
 -0.250651899919602     
  0.307130176219423     
 -0.194545353524236     
  8.407929003215731E-002
 -7.946144898965700E-002
 -0.182028914102113     
 -0.133864078737016     
 -0.515593945202681     
 -0.117625028699508     
  2.093810093921238E-003
  0.363737825167286     
  0.143602437755907     
  0.303212535635248     
  0.228330867628894     
  0.121412228894549     
  0.264221799988786     
 -0.227393985111988     
 -0.193884937277535     
 -0.122742289787279     
  0.125862070569637     
 -0.450771661312909     
 -0.319584057565155     
 -9.502340511416890E-002
  6.094689989250762E-002
  4.429429360763026E-002
  0.126683009123818     
 -5.583902597393643E-002
  1.161395010103776E-002
  0.327663572359966     
  0.151799919238344     
 -0.156923648968305     
  0.530362947142157     
 -0.186056909069982     
  3.538074181355162E-002
  0.212841738354650     
  0.251620671099179     
 -7.128097714357455E-002
  0.266832242958147     
 -0.133375613401369     
 -0.270704963107997     
  0.168529280232267     
  1.086858637940325E-003
  0.119828364215193     
 -0.326487999899084     
 -5.546968885626622E-003
  9.227785521259450E-002
  9.354789205288870E-002
  2.168818010339016E-002
  0.265005879824348     
  0.319837820843126     
 -0.294304774660824     
  9.175567990627592E-002
 -8.207682532654906E-002
  4.597612561432370E-002
 -0.642658274134760     
 -0.241632751039356     
 -3.621257756459643E-002
  0.442079634434154     
  2.073346722121443E-002
 -0.105554685824796     
 -0.301806757698274     
  4.331178640333114E-002
  2.117759160103054E-002
  0.199061917986963     
 -0.378912007460727     
 -0.297644573019322     
 -0.646370687831214     
 -0.213735317029601     
 -0.814530443986613     
 -0.634832448374056     
  7.552533845759296E-002
  0.196524005302065     
  7.585510741288086E-002
 -0.102568310632318     
 -6.114920042659946E-003
  0.176780643212565     
  0.479409058529637     
  0.389773367419556     
  0.161248872573836     
 -9.559913838598243E-002
  0.191838877730540     
  0.239048312086853     
  0.159350625980875     
 -0.259719861379724     
  0.195705934636539     
 -6.685261035481448E-002
  0.246405665983533     
 -0.101883082520379     
  1.843655508417940E-002
  0.230984377148236     
  0.146993483809792     
  1.983415088796975E-002
  0.304229175018741     
 -4.796830282940692E-002
 -1.101466612767085E-002
 -7.475964285309067E-002
 -8.796352948383662E-002
 -9.884175417004618E-002
 -0.118347335521879     
  -1.03264306958605     
  8.019335475155180E-002
  4.983035722487068E-002
  4.893998852726418E-002
  0.241789520997530     
 -1.402109512728653E-002
 -0.344211355229630     
 -6.794785530227999E-003
 -0.197088063400581     
  0.398211253230199     
  4.885563507392567E-002
  0.314072795646959     
 -0.203658821224335     
  0.471304721112212     
  7.876529041547158E-002
 -7.576720285296677E-002
  0.523108377277432     
  0.211980646343645     
  7.135510384932933E-002
  0.338636075714445     
 -7.762195546826435E-002
  0.332313801951470     
  0.475065895939628     
 -5.346013819251853E-002
 -8.115827098219465E-002
  0.322755699812992     
  0.166864641245867     
  0.322381811241444     
  0.178408589419831     
 -4.287766936649812E-002
 -3.941188919260748E-002
 -0.462252234477398     
 -0.251294997744354     
  6.100636971027653E-002
  3.185364655069277E-002
 -0.385849264719035     
  9.805287021380749E-002
  0.187923513447588     
 -0.175093579090590     
 -0.397011876797310     
 -0.363717523524808     
  0.331196206506777     
 -0.253366494412370     
 -9.654291182206468E-003
  0.106686801046379     
 -5.119680739773778E-002
  0.311769620545494     
 -0.186212552021288     
 -0.280323427358752     
 -0.197192819732839     
 -0.443601383488872     
  0.160921944904589     
  0.506656863798312     
  0.180552776580569     
 -0.147650190759239     
  9.472027735471965E-002
 -0.244036048786159     
 -0.250397891352059     
 -0.116721122646944     
  5.855929143418988E-002
  1.429497338751297E-002
  0.529256279071850     
 -5.201297148086316E-002
  0.143044618557192     
  0.171628327979637     
  0.416839876969058     
 -7.507547595792856E-003
  0.469353693869527     
 -0.464791553243861     
 -0.208621507583995     
  0.131556627778880     
  0.581038129215719     
 -0.231741059903739     
  5.025974862913490E-002
  0.107081671534982     
 -0.435633152789632     
 -3.634139693930398E-002
 -0.146156326887181     
 -5.792053002647424E-002
  0.209532570586040     
 -0.405856474977814     
  2.981310315758126E-002
  8.699822216222643E-002
  3.299975095504577E-002
  0.536522274060484     
  0.165055833873846     
 -0.174681294465560     
  0.206603495646027     
 -0.115779277789709     
  9.719924897948135E-002
  0.884078145837588     
  2.889677662273978E-002
  6.583564186643799E-002
 -7.811235615236214E-002
  0.456575192573132     
 -5.007873600150604E-002
  3.105254048508161E-002
  0.753717060973533     
 -0.172862466524643     
  1.560624310932956E-002
 -0.191142816408503     
  5.076270411293075E-002
 -0.190793766700988     
  6.952753345092048E-002
 -0.231549296048975     
  0.142283640767454     
 -3.233745708437197E-002
 -1.916504336580004E-002
 -0.137012331261600     
  0.116270839941539     
 -0.104349745316730     
  0.119170604576607     
 -0.244338526503016     
 -1.767164564100185E-002
 -0.192050079808255     
  0.180988601313514     
  4.968814073744709E-002
 -3.208756394140666E-002
  0.149268055435113     
 -0.587271022497151     
 -0.186861117126159     
 -0.358181644235526     
 -6.478458408791604E-003
 -1.062646511721723E-002
  0.316545016945289     
  0.379354107869209     
  0.558493216993191     
  9.866529578657697E-002
  0.164705648305879     
  0.149559235110102     
 -0.220470791645849     
 -1.778267161610704E-002
 -0.157347159891886     
  0.170858402784688     
  0.305280133528705     
  0.196374201252840     
 -3.685745728340741E-003
  0.216245538451764     
  0.368364908911029     
 -0.187163861064166     
  7.822840056390759E-002
  0.415189927307774     
  5.335511954599464E-002
 -0.345117605291717     
 -0.937753436329594     
 -0.466666542031803     
 -0.773087884491080     
  0.523637936263687     
  0.203662072094010     
 -8.645930700294999E-002
  -1.03959909249559     
 -8.297320333364616E-003
  0.114112107928854     
  0.161778666145433     
 -9.788418704587701E-002
  0.141942812194439     
 -1.826492478412200E-002
 -0.184443508063167     
 -0.311923810504647     
  0.120982839597704     
  8.834457960549827E-002
  0.443224788876906     
  4.925586640308359E-003
 -0.112900618643583     
  0.395351628862418     
  9.949182659453275E-002
 -0.151056006193014     
  0.309820231994448     
 -0.184859985003162     
  -1.29025688433553     
  0.645393548760539     
 -0.516964744251893     
   1.31596936466648     
 -2.643790927557748E-002
 -1.402488148178035E-002
 -0.827736321527587     
 -0.101952784911926     
  0.216092276556807     
 -0.362222643624287     
 -8.460643400083556E-002
 -0.213814965911694     
  0.309080617679889     
 -0.316827284696811     
 -5.018617683651638E-002
 -0.557980885074859     
  7.276245079465568E-002
 -9.400544769285818E-002
 -0.564650664482159     
 -0.221618819524613     
  0.249086995342585     
 -2.964313806873437E-002
 -0.247508403488603     
  0.822553819793114     
  0.622726197836341     
  0.434969470789885     
  0.183693909343603     
 -0.204675294007055     
 -1.651230779294330E-002
 -0.486801206383847     
 -0.280304220518095     
 -0.865037630384533     
 -9.462684378349930E-002
 -5.769762545914976E-002
  0.206371581874874     
 -7.361985423025304E-002
 -0.413875514699842     
 -0.203006471701210     
 -8.965139379998291E-002
 -4.638962331400687E-002
  0.255670929135493     
  0.192010941166273     
  0.273441366237294     
 -0.119155162308121     
  0.455019591934198     
  0.321661607546266     
 -0.646110301647546     
 -4.490877446023447E-002
 -0.165094399869770     
  0.468275588959570     
  7.987701466603543E-002
  8.363852750422817E-003
 -5.498021292307306E-002
  0.147691217194632     
 -7.207667039577433E-002
 -7.247347971428403E-002
 -0.420766649005793     
 -6.187446367218143E-002
  0.255100943399663     
 -0.175997221878794     
 -0.127182611439657     
  8.614963713118301E-002
 -0.387225294499050     
 -5.665996150830060E-002
  5.815542731399002E-002
  6.903675399294285E-003
 -0.265952833157990     
  0.104857988307932     
  0.213100679384075     
  0.243550253998758     
  0.167739439051257     
 -0.454189414702305     
 -0.360195221841188     
 -4.351600872499180E-002
 -6.449952128854838E-002
  0.242438491578736     
  0.245360851789048     
  6.616969593031879E-002
 -0.737025163475481     
 -0.505236947355994     
 -0.352722507736856     
  0.354064781576608     
  0.101224725125631     
  3.850796326403716E-002
 -0.102371742222123     
  6.160865772043299E-002
  6.057366487258604E-002
  0.302773566934742     
  0.171247127661978     
 -5.126982791758426E-002
  0.229620841303652     
  0.191822807967546     
 -0.104767201454372     
 -5.763980651797009E-002
 -0.266842046456142     
  0.261859698412457     
 -8.779107933431630E-002
 -0.281131990286789     
  0.136777850414566     
 -0.350272638903975     
 -0.598938209964053     
 -0.759125325134475     
  0.542121642966735     
 -0.190011994572220     
 -0.250074161794280     
  0.477166937149582     
 -0.513703854371504     
 -0.282061688122375     
 -0.549638910518561     
  0.392357054048117     
 -0.625631203803592     
  0.354911210436710     
 -0.396227278711266     
  0.854217984530150     
 -0.127019832072088     
  0.430199907052325     
 -6.166799108333144E-002
  6.407881075726647E-002
 -6.207880375225851E-002
  8.417402178496790E-002
 -0.884208450499064     
  0.851536808563685     
  0.327897591921793     
 -0.514586080749506     
  0.157702310639732     
   1.07367342258645     
  0.299623359104167     
  0.920598661583169     
  0.651147010758715     
  0.288474544292405     
  0.870531366355535     
 -0.345390710709064     
  0.313690300113525     
  6.492993435475176E-002
  0.499488885484285     
 -0.515697560260769     
 -9.016816217038465E-002
  0.495802342436451     
 -0.609409282846543     
 -0.170926345807011     
 -0.625485782850805     
 -0.460917222749974     
  0.495488636622961     
  0.259552315069137     
  0.165668101753073     
 -0.630077818319431     
  0.150491026840698     
  0.492678948997232     
 -0.762792041099492     
 -0.872991950864607     
  0.525121064942234     
  9.659100669250308E-002
 -0.200276267792082     
  0.225787251969505     
  4.728881197914864E-002
  2.129081010966584E-002
  0.406459688187361     
 -0.162760879469518     
  4.882757492746850E-002
  1.538065105568434E-002
 -0.114622591226687     
  0.128381713481502     
 -7.746785442288880E-002
  0.545395147775575     
 -5.327947078015208E-002
  2.219668639463213E-002
  0.209923168732384     
 -1.814427410400136E-002
 -7.160997727793247E-002
  0.167922415419324     
 -0.133952558260522     
  0.520681724486543     
  0.102920220704244     
  0.263120326895010     
 -0.190371925603761     
 -5.195440189774619E-002
  0.155743212938487     
  0.275894991717571     
 -0.493387902295672     
  2.526659689514818E-002
 -0.114755656452488     
  0.203725756043901     
 -4.537206796353003E-002
 -3.171947906671944E-002
 -6.407803286553371E-002
 -6.100761133763624E-002
 -8.059821720384988E-002
  0.172631039357642     
  8.422518280969059E-002
  7.220599535044199E-002
  0.298628802902095     
  9.955360122797409E-002
  0.305047472181240     
 -0.116799477089806     
  8.835356366713810E-002
 -6.270109836067217E-002
  0.244792767923708     
  0.156716699132289     
 -0.309780549826332     
 -6.012809330881305E-002
  0.204264009242024     
  0.839513349660891     
  2.517589283136822E-002
 -0.441306900037718     
  0.327707270560575     
 -0.179229008657688     
  0.274160942251732     
 -4.343070216549461E-002
  0.460036236561493     
 -0.376849209543563     
  0.325921189600072     
 -0.255425480331857     
 -0.379730162886582     
  0.497685389866974     
  0.153472116842735     
 -0.160067933458009     
  4.848047638892796E-002
  7.245310501022083E-002
 -0.429560943482654     
  0.188506468009230     
 -0.280056593504358     
 -7.602247107138650E-002
 -0.267036159075585     
  0.664750257392546     
  3.362919158535859E-002
 -0.476147462111113     
  0.172734415813750     
  0.134164984425211     
  0.791048717371326     
 -0.225259156118584     
 -0.336489416583643     
  0.891986370598325     
 -3.970881642194751E-002
 -3.509266992739137E-002
 -0.515028099017840     
  0.132020509529706     
  0.182777197536880     
  0.291507123460414     
 -0.190702124870221     
  0.363520941322818     
 -0.119398350384661     
  0.482231950729819     
  0.182714361569280     
 -7.667995122768284E-002
  0.266533100530672     
 -0.127480134444211     
  0.559138434264410     
