     48 -    30 -    30 -     1 
rmse=  49.8567meV
  0.181866979578228     
 -0.218981524160764     
 -5.750717071533666E-002
  9.989193944294794E-002
  0.340682531802907     
 -0.166924467842983     
  8.919270185395321E-002
 -0.101961481311852     
 -0.562736442328038     
 -0.318345913109375     
 -4.822353769060764E-002
 -5.820579890899266E-002
  9.625866692051942E-002
 -0.374665338729377     
 -0.340572184220423     
  0.104215237008495     
  0.403960441503760     
  0.271693180775581     
 -0.321156151208657     
  5.150540718164157E-002
  0.140586874517873     
 -8.956004360553498E-002
  0.335131874370324     
 -0.378586220991857     
  0.279063474973168     
  0.378761355797416     
 -0.423051534519455     
  6.373425498136706E-002
 -4.041520107412094E-002
  0.189817345030109     
 -0.122202728840026     
 -0.241974256632298     
 -0.410340110045574     
  0.115290401764010     
  -1.24659865332272     
 -0.179971004218017     
 -0.330473487834140     
  0.159359330201127     
 -0.220489152276274     
 -0.230269404468873     
  0.971556154706709     
 -0.959044901091221     
  0.748749858705869     
 -0.566845494042531     
 -0.264617868156048     
  0.473093585173054     
 -0.381663903156699     
  0.295032385871305     
  6.720194695249347E-002
 -0.192165403210041     
  0.575143498715301     
  -1.12664311335092     
  0.441470960213000     
 -0.227244679690506     
  0.251956619703320     
 -2.222112640698240E-002
 -0.886615310427025     
   1.00521118077861     
  0.387898308965389     
 -0.555783937072541     
  1.474825690665203E-002
  3.093208421798936E-004
  0.390669470383664     
  0.406530044521689     
  1.429403670711191E-003
  5.673881685569340E-002
 -0.546983889226382     
  0.230398042769715     
  9.125395503000182E-002
  0.395910004730019     
  0.306044305358823     
 -0.513324749032650     
 -7.690974216614847E-002
  0.893281942245744     
 -0.763931028878686     
  0.214079459960091     
  3.271104320295717E-002
 -0.142978158281679     
 -0.361851504220122     
  2.167784600664179E-002
 -0.231328081812775     
  0.482305526981664     
  0.178069952042838     
  0.695188537398552     
 -0.315867283008718     
 -1.266360089355153E-002
 -3.186138334939767E-002
 -0.308571280408025     
  0.704588060822518     
 -0.955292477791968     
   1.00109729359488     
 -0.118085747857755     
  0.395605624052519     
 -8.145277874605816E-002
 -0.207352885079403     
 -0.469588716632036     
 -0.147495442046450     
  7.653875342977504E-002
 -9.140129944306699E-002
  0.112453284360268     
 -5.365255275001022E-002
 -0.534017336501086     
  0.196979384308354     
  0.188759970766857     
  0.118264662956894     
  0.110758486735178     
  0.377414626749887     
  0.623139848513182     
  -1.53089715262268     
  0.649110039759543     
  0.211123078544712     
 -0.361069039822704     
  5.298414662261137E-002
 -0.101028357515938     
 -0.312734246672933     
 -0.554360635710175     
  1.501015439589836E-002
 -0.353505609495474     
 -0.201706422967654     
 -0.747431098890870     
 -0.537901486115135     
   1.12316298635923     
 -0.571848678676382     
  0.180239778716943     
  0.337929116766318     
  0.845503797178499     
 -0.331009043098677     
  0.288313489467651     
  0.336065127345413     
  1.454245700122069E-002
  0.930252902900695     
  0.285595777408323     
  0.339646768615390     
  0.633946267611250     
  0.152988096469651     
  0.263505056406498     
  3.669283148524207E-002
  0.128422355916206     
 -0.878781015237857     
   1.14161184886704     
  0.952254040227663     
 -0.328408763253974     
  0.676521480746437     
 -0.119070858696146     
  0.340868318536330     
 -0.467526641351821     
  0.176297315316565     
  0.687412484501934     
 -0.310768169175733     
  0.195129913673443     
 -0.535307586083954     
  -1.08072032258163     
 -0.620578193094744     
 -0.370047024530186     
  0.334887066278106     
  0.315651577197712     
 -0.631142205132415     
 -0.253533607302188     
  0.328286430575390     
 -0.227008888267943     
  0.219540753014833     
 -0.198684597385033     
  -1.13673926725251     
  0.559786117250106     
  0.265442170342591     
 -3.761811735852200E-002
  0.119701973253032     
  6.787366335083736E-002
  0.590547711711202     
  0.168179669163074     
 -0.307907370321509     
  0.375105855678043     
 -5.660351561371582E-002
 -0.107888227937788     
 -0.380243225221700     
 -0.366789433164710     
 -0.127142882249793     
  0.383735548713280     
 -2.254968189969299E-002
 -0.463488997093706     
  0.154092401718842     
  0.243514672313900     
  0.278770460389518     
  0.438955473128983     
  0.705351787352649     
 -0.770632061477406     
  0.135783564662448     
 -0.105746185487859     
 -1.525816554321559E-002
 -7.338919869604750E-002
  0.193808120003486     
 -9.827198400645312E-002
  0.523563991795523     
 -0.770436685818040     
  0.188234042067715     
  0.357657888820971     
 -0.660851546473178     
 -0.586759142343755     
  0.953414254046306     
  0.441714197659490     
 -0.454227535826952     
  0.398157899185396     
  0.124142939564232     
  0.264074561165552     
  0.250636158447006     
 -0.298632577105693     
  0.150604292587304     
  -1.49824040190778     
  7.370222041682381E-002
  0.550397738575657     
  5.503095932659875E-002
 -0.813806464497626     
  0.161695122906022     
 -0.550256981472331     
  5.079558981815513E-002
  9.175361889477923E-002
 -0.904400320085280     
 -0.188540257558896     
  0.207003673169757     
 -0.411796234284522     
  0.223138909509987     
 -0.407454431677868     
  9.450548674257593E-002
   1.12570108988174     
  -1.05902596001853     
  0.195626397474833     
  0.234624386707938     
  0.137414666453287     
  0.281923523171853     
  0.657285472817504     
 -0.543906972920697     
 -0.535381728388984     
  0.578977818863790     
 -0.475927082928269     
  0.515685107294926     
 -0.730657210037270     
  0.514278941483008     
  0.397963985109592     
  0.620127315630093     
  0.971084587672716     
 -0.158056440386656     
  0.411954860582178     
  0.595064162053890     
  -1.08013386130285     
  0.225483848623319     
 -0.290240933637396     
 -0.217098833422730     
 -7.705260329444623E-002
  0.401775403852370     
  0.592701097174354     
 -0.309187501659608     
 -0.685144988066342     
  0.816102965488057     
  6.046795630524249E-002
 -0.614307447951456     
  0.124560651078040     
  0.143719218251346     
  0.289109791105044     
  0.337516496279132     
  0.332242591100191     
  0.201466674193530     
  0.224935547579928     
 -0.835628011188371     
  0.544544643220585     
 -8.751741721078217E-002
 -0.857145012283393     
  0.526286426287196     
  0.187748978870173     
 -0.624036532182640     
  3.395163264201882E-002
 -0.205730342734065     
 -4.741652443919458E-002
 -0.470640206203537     
 -0.107863967025871     
  0.536195914842630     
  0.115391466121904     
  0.489341579624097     
  0.144198636605789     
  8.511102522390702E-002
  0.602475873130586     
 -0.811097469656984     
  0.722692476287600     
 -0.128984244581236     
 -0.131075817897058     
 -0.840315661943964     
  0.390890013002466     
  1.577286559852432E-003
  0.117151117413254     
  0.327092891647633     
  2.197564292034569E-002
 -0.399199376988462     
  0.581611298177066     
 -0.944451226192924     
 -0.204004927137021     
 -0.323186375650381     
  0.388557895205004     
  0.959556652823603     
 -0.181396205522592     
   1.05536771235897     
 -6.177274463452422E-004
  0.437745424660022     
 -0.351254748945146     
  0.329810291953526     
 -0.868185850592580     
  0.294199010419004     
 -8.089429486399834E-002
  0.675689616706605     
 -0.770247458527440     
 -6.841513211542552E-002
 -4.214524181732000E-002
 -0.277880734057204     
 -5.681406519403087E-002
 -0.891202240724871     
  0.463051447743309     
 -0.147366248322922     
 -0.912062415968880     
  0.739538646098297     
  0.381156792192074     
 -0.135492631002968     
 -0.248942643358538     
 -0.236041644338751     
  0.163392255009461     
   1.10728207383117     
 -0.100794185970658     
   1.12432513788813     
  0.246543747199511     
  1.693194838329202E-002
  0.496984098291075     
 -0.601475631905841     
  0.281027235217184     
 -0.570960708529489     
  0.249104859243010     
 -0.410715379769419     
 -1.561459123798310E-002
  0.707011514970414     
  0.330401549473504     
 -0.141090421762738     
  0.516866796359937     
 -0.602383147236275     
  0.441396563098694     
  0.557363442623835     
 -0.591375724740132     
  0.532344384887333     
  0.319443047040836     
   1.26208029892865     
 -8.677585062804601E-002
 -0.545764828507684     
  0.574158925080937     
 -0.401909063373225     
  3.576800567162515E-002
 -0.290464769125869     
  0.243164944289060     
  3.330275919303553E-002
 -0.292873807680151     
 -7.218037455084939E-002
 -0.399655518068975     
  0.734877660009852     
 -0.363623139852545     
  0.209514756832462     
  0.235990196165492     
 -0.631275462698837     
 -0.312254081885276     
  0.346466029814708     
  0.111082911293433     
  9.235093720477000E-002
 -0.320895776759831     
  5.320653001647308E-002
  7.053631155513912E-002
  0.579324421934032     
 -6.972440648731044E-002
 -0.784501622062114     
  4.329963690252694E-002
  -1.30515378161173     
  0.282645321440065     
  -1.16478785191229     
 -0.133437510636474     
 -0.210861771318376     
  0.279052486115857     
 -0.174217513050635     
 -0.215216228995134     
  0.179905917742515     
  0.290593479465420     
 -0.241959565818628     
  0.177366819960324     
  4.463329794739689E-002
  1.963961892957260E-002
  0.199741245849286     
  0.374247799837929     
 -0.247351484020091     
  0.205512034000022     
 -0.250199962788301     
  5.486149185849591E-002
  0.289501414392240     
 -5.204691141754418E-002
 -4.351463402575258E-002
  0.216713062993756     
 -4.053521598925460E-002
 -0.223605925815183     
 -0.108293896061605     
  3.690599650292736E-002
  0.203905959909409     
 -0.362827764116384     
 -0.471213161688529     
 -0.212875157644485     
  0.249415899247381     
 -0.193377251836037     
  1.423858244122724E-002
  0.177394142547541     
 -1.175106056985466E-002
 -9.641159145341822E-002
  1.433631800312896E-002
  0.233915779838245     
  0.133487817635102     
 -3.102982121979405E-002
  2.296810813631334E-002
  0.101391847552939     
  0.214258837038906     
  0.169041936369588     
  0.195952754434942     
 -0.250281988520093     
  0.223541214741910     
 -1.963217188801289E-003
 -0.177575765002800     
  0.181514091545056     
 -0.243898489942667     
  0.214825824020994     
 -0.295897059179298     
 -0.141878838986073     
  0.115892189794728     
  0.282285070208162     
 -5.419988915401307E-003
 -9.832753533317730E-002
  0.174983954646544     
 -0.259048039102406     
  0.347932521305421     
  -1.08592757581045     
  0.629213229506940     
  0.562136794747055     
 -0.364106878945900     
 -0.335871226020441     
 -0.970491481429321     
  0.530869026713753     
 -0.399874034382301     
  0.248991006216069     
  0.711569844432334     
 -0.603485320459777     
  0.702395674644619     
 -6.028598467219923E-002
  9.564927465919633E-002
 -0.262097024192859     
  7.667732485512340E-003
 -0.271095061597064     
  0.218274910763485     
 -0.144496735625825     
 -0.184075680013650     
 -0.233720692659118     
  0.222375629442284     
  0.373356354585120     
  8.469304754145564E-002
 -0.859914024189023     
  0.583412749441077     
 -0.977784134288444     
  0.488688047823107     
   1.26077523591209     
  0.153405874578782     
  0.361917964475413     
  0.239290244816912     
  0.568713525896840     
 -0.393858408173000     
 -0.234375334146438     
  0.386227881688799     
  0.159974918903945     
  0.360101099787393     
 -0.157802172330698     
 -1.951823418082500E-002
  0.157619712888918     
 -0.170028268733351     
 -0.190452831570958     
 -0.245187424602850     
 -0.614755957508993     
   1.04513632229691     
  1.252938483647191E-002
 -0.781861337753883     
 -0.116158077915404     
  0.460954396718465     
   1.37452207737854     
  0.333075433125153     
  0.422382652006612     
  0.385753344978044     
  0.787998279964376     
 -9.713028427334279E-002
  0.536508250512653     
 -0.939453845456126     
 -0.522471270936789     
  0.776883648768836     
  0.487663842700912     
 -9.569481605673667E-002
 -0.875490319150116     
  0.752485414717037     
  0.228752333516002     
  -1.52287236176701     
 -0.850933460666282     
 -0.228880640889431     
 -0.203204440421331     
 -6.866545983858817E-002
 -0.956199152141942     
  0.579169795212944     
 -0.367265785941232     
   1.17304037085095     
  0.216519911391452     
 -0.565171827967659     
  0.154310336292180     
 -8.873014795036634E-004
   1.16320468855889     
  0.637186863762686     
  5.052923641804578E-002
 -0.636128591051304     
 -0.230275572072523     
 -6.503486766510783E-002
  -1.34097247257584     
 -0.275967980990321     
   1.13850552624221     
 -0.709014310793370     
  0.470567386952225     
  7.187056673968323E-004
  0.360228076269574     
  0.529461429547256     
  -1.13994236604416     
  4.662544806459001E-002
  0.330729189445963     
 -0.470553947723400     
  -1.00921750142777     
  0.306523375066333     
  0.333542723100139     
  0.196671530612527     
   1.23700426624869     
  0.557281138896808     
 -0.199096840069673     
 -0.160063506375564     
  0.805807719890902     
 -0.450988073769272     
  0.281637167285646     
  0.639279514406677     
  0.485731739606504     
 -2.540130483543161E-002
 -0.407702210301804     
  6.093483186759370E-002
  0.357980814511231     
 -0.882609865421293     
 -0.327085913968821     
 -0.486747706360727     
 -0.569805126716377     
 -5.815553543599949E-002
  0.213373233196217     
 -0.104986412851763     
 -0.455923371609093     
  0.450772807542743     
  2.113166657055163E-002
 -0.137328433175064     
 -0.115793952759583     
  0.666518997349891     
  0.532573567383638     
  0.540388581702808     
  0.822553648481000     
  0.749583973188450     
  -1.31746989443414     
  1.608051566330857E-002
  0.241178164633044     
  0.638957523786872     
 -0.438314367637711     
  0.388961389950279     
 -0.605386456635802     
   1.05140881879210     
 -0.690069057843859     
 -0.228481032283037     
 -0.478125221411429     
 -0.117326735659422     
  0.389965765881661     
 -0.302955083320822     
 -0.256376245264674     
  0.713123486695462     
 -0.449959013577831     
  0.238195058748985     
 -0.245593209062452     
 -0.250828894613004     
 -9.657297598548838E-002
  0.330663118111933     
 -0.280784763228962     
 -0.122562194721547     
  0.235854362864879     
 -1.505672186817160E-002
 -0.159042735527349     
  6.986736465899027E-002
  0.174081963273241     
  0.215068153505322     
  0.110123771876235     
  9.745992314251993E-002
 -9.089112847804806E-002
  0.152039661974908     
 -0.297648254237556     
  0.685506548793325     
  4.749699737366235E-002
  0.183968639197880     
 -4.530616317785650E-002
 -5.175077075989222E-002
  0.269092914589127     
  3.360035080649167E-002
  0.109781524335644     
  5.110481963284814E-002
 -0.289904706143110     
 -0.374353705725351     
  0.244270410017227     
 -0.262422013289182     
  0.141702871133862     
 -0.111778102354313     
 -1.489999702781712E-003
  9.416006396230055E-002
 -0.192762641987414     
  8.579899610923477E-003
  0.173038906459878     
  0.256073347313174     
 -0.234369971921837     
 -3.127841483960202E-002
  5.728801866445706E-002
  0.218721721211533     
  0.436158509626735     
  0.549014584368043     
 -0.611241182723904     
   1.43859373065514     
 -0.521243261981380     
  0.214151212749982     
 -0.130083119379292     
  5.077955030929818E-002
  0.534109748634416     
  1.854442694138563E-002
 -0.359785715440675     
 -0.204006802677157     
 -0.600645720823564     
 -0.320022497709095     
 -0.795836613726328     
  7.809043915957979E-002
  1.056216649044778E-002
  0.291737496423238     
  0.130493547374802     
 -0.284339185200072     
  7.813267461723247E-002
  0.199405908355490     
 -0.150590194467181     
  0.103721465717233     
  0.430029677609528     
 -0.549102163349669     
  0.645237136942449     
 -0.171305343778920     
 -9.910282505489092E-002
  8.958691769897349E-002
  8.793771175411269E-003
 -0.605127343277473     
  0.200075492063627     
  -1.24895373696664     
 -1.423065676903489E-002
 -0.611513063137128     
  0.211225128823477     
 -0.111208213404570     
  0.128333865305268     
 -1.922240732802329E-002
 -0.659498250664762     
  0.535891046094631     
  5.030788747843092E-002
  0.119293010307555     
  0.790959506860277     
  0.239265371542703     
  0.199283135659769     
 -0.143239571810767     
  0.857132880521683     
 -0.540936413272857     
  0.362964385870030     
 -0.111526593960075     
  0.111303239653422     
 -0.319290822704831     
 -0.545640515523447     
  0.318402302731244     
 -8.798198450460834E-002
 -1.767514853277060E-002
  0.359778621690561     
  0.881953826035192     
 -0.490123896739072     
  0.209511269556908     
 -0.134872012429353     
 -9.058561788303582E-003
 -0.648218227062457     
  0.441782218103060     
  -1.25466832469799     
  0.549202225255837     
 -0.524856620571929     
 -0.149362995252203     
  0.350489813239229     
 -0.643026868044253     
  0.291445472821639     
 -0.166345797167645     
 -0.455333659725528     
  0.226373226332935     
 -0.491614482559173     
  0.658246402555611     
  0.351632785621608     
  0.723943117907332     
  7.326681049876455E-002
 -0.629264804894226     
  0.187886132172397     
  0.152339205202635     
  0.319859284925332     
 -0.241902879312883     
 -0.110273097061744     
  0.227995107179516     
 -0.416472748104195     
  0.469243423029248     
 -0.405181544500071     
 -0.779888139542144     
  0.274310825754830     
 -0.399928392495788     
 -0.187219594895139     
 -5.184495676480674E-002
 -0.143567534720593     
  0.528882790648225     
 -0.241802134366568     
 -0.150768380950674     
  0.403741088352144     
 -0.422436726934939     
 -0.315937404648140     
  0.179805398718414     
  3.715385346498676E-002
  0.379002963782814     
  0.219280149295477     
 -0.256556943390827     
  0.204180934533955     
  0.684415562676698     
 -0.575436644133152     
  0.114739694573949     
 -0.534354555211235     
 -0.454677305808771     
  0.547252792226080     
 -0.618650470441063     
 -7.981170552027522E-002
 -0.135137768585503     
  0.139518425176441     
 -0.119849148158303     
 -0.695509429275321     
  0.385141436813769     
 -0.313745350733695     
  0.741640900613377     
  0.879755462850849     
 -0.246762201968966     
  0.340300476587957     
  0.645805468814648     
 -0.142877741230393     
  0.780047164106196     
  0.606389945705562     
 -9.261624093863433E-002
  1.294989968054638E-002
  0.506634443172167     
 -8.314025940848772E-002
  0.304547880696686     
  0.577344897898299     
 -0.548859536930204     
  0.771053371240970     
  5.607305195141688E-002
 -0.793161128807873     
  0.267949927611220     
  0.266271892948470     
  0.759609326288447     
  0.348018750776746     
 -0.196890011322882     
  0.329239970506479     
 -0.123416188880948     
 -7.720528974754071E-002
  0.441285430424440     
 -0.336872291817513     
 -0.120507658042661     
  0.581656941704206     
  0.209530147669685     
  0.526507548195669     
 -0.996763076744969     
 -0.123354888886219     
  0.214537378150116     
 -0.298774434220442     
  0.166346469218682     
 -0.801226243471929     
  0.114484390669852     
  0.364025369606119     
  7.966248190044317E-002
  3.782998664416654E-002
 -0.302392173782039     
 -0.653446403133414     
 -0.300658489360217     
  9.722487585564217E-002
 -0.260011274325679     
  0.373820252931736     
  0.339040221069299     
  0.185780744853863     
 -0.125690702174397     
  0.359171181868573     
  0.280315586890093     
  0.547363362257702     
 -0.416905542756115     
 -0.265943460669263     
 -9.524243982639061E-002
 -0.137311767128520     
  0.208716884496853     
  0.262753190410686     
  0.429414361423081     
 -0.326403681328256     
  4.587353359724115E-002
 -1.410456284863474E-002
  0.887524530957705     
  0.108162538001438     
  0.156406565966449     
  7.610350293692933E-002
 -0.244707046770549     
 -5.168504086977710E-002
  0.393234451388995     
 -0.381547506947546     
  0.375267070938249     
 -0.180842102411299     
 -0.110253734501310     
  0.235712625185151     
 -1.908192973188070E-002
 -0.197620676399088     
  0.591222043117371     
 -0.325557963363312     
 -3.551020485872156E-002
  0.120142622971631     
 -0.497178024292712     
 -0.134882512449781     
  6.142436061269829E-002
  0.980166618886451     
  -1.50754290325527     
 -0.932756046090026     
  0.237382905256686     
 -4.412956504459955E-002
  0.150099689278456     
  1.260631546557200E-002
  5.231907418246413E-002
  0.250703464572197     
 -0.496832697220614     
  0.690321215728354     
 -0.196792892801278     
  0.948793347996297     
 -0.627318789831846     
 -0.663818531214682     
  -1.08616309301643     
  0.502350892726265     
  0.294745428868924     
  3.794020509265551E-002
 -0.306832913716539     
  0.189808100297286     
  0.154194402588674     
 -1.082288437187576E-002
  0.193865699666010     
 -0.533506956958874     
  0.549320317640705     
 -0.544905571884832     
 -0.153795478533220     
  0.316149176881674     
  7.857741420360297E-002
  0.792840337977380     
  0.152675214564579     
 -0.518562771360315     
 -0.221807540586147     
 -0.212471800246755     
  0.124786695702391     
 -0.547224373349313     
  0.433221732367890     
 -0.704655706009807     
   1.06111275011620     
 -6.278677370408725E-002
 -0.981367923525384     
  0.229287567097984     
  0.339894094841995     
 -5.068295008634101E-002
 -4.927249996258092E-004
  7.653706641498391E-002
  9.453421824526785E-002
 -0.194801875999714     
   1.49578012369115     
  0.285759038262070     
  0.269261397476936     
  0.854551768816346     
 -0.685728631064653     
  0.420964615032497     
  -1.04251841347211     
  1.318084813637047E-004
  0.268474259055434     
 -0.717780073056038     
 -0.227686416530860     
 -0.184258939517403     
  0.259423394192115     
 -0.459503688712232     
  0.323866190996970     
 -0.349102170640081     
  0.101419245102544     
  1.697124804116256E-002
 -0.371908061389136     
 -7.580989493596900E-002
  4.395386368020088E-003
  0.343981316725756     
 -0.488711315236435     
  0.195544881924170     
  0.131303175711455     
  0.185419258764296     
 -0.968884503020756     
 -0.165176496322771     
  0.309385332030999     
 -0.237048340597176     
 -0.333331874383175     
 -2.281622662190438E-003
  0.370765916759972     
 -0.106366667556944     
  0.200815657722030     
 -0.126399913836259     
  0.271462520298763     
  0.101486927689526     
 -0.775619469096965     
  0.485910032210570     
 -0.133227907423155     
 -0.316373617985100     
  9.611867472218724E-002
  0.389003789130030     
 -7.729832934504403E-002
  7.598247219846074E-002
  3.678187425692965E-002
 -0.519578587971075     
  0.308240372925766     
 -0.115450693276530     
 -0.333656477833807     
  0.119535908362028     
 -0.161965979663960     
 -0.201777116162565     
  0.538904095197030     
  0.165222773732086     
 -0.297588207530286     
  0.455484028357063     
 -0.202200167393313     
  0.390727509520921     
 -0.186086275911008     
 -0.560743580407452     
  0.832547983244175     
 -0.434371960886467     
  0.672122617562980     
  0.140742258891714     
 -0.129959892594255     
 -0.250855375735979     
  0.647769372978739     
  0.350671207105337     
 -0.159661065812129     
  4.509340623077016E-002
  8.359495308753674E-002
 -3.014651770782161E-002
 -0.352863720339115     
 -0.265057419843573     
  0.141310044473322     
  8.062029877176366E-003
  4.195398531652393E-002
 -0.243307311757974     
  1.410424158053643E-003
 -6.658900181634371E-002
  0.107237206999520     
 -0.256075498967406     
  0.176588480332209     
 -0.216590077944110     
 -0.170209163638949     
 -0.216263611103717     
 -0.133141608523473     
  0.206122604146600     
  0.250165737878871     
  0.237465598679962     
  0.475815275258753     
  0.321347679317288     
 -8.020215162975482E-002
  6.780895467176727E-002
  0.132369214369686     
 -0.357306950663833     
  2.054912314734212E-002
  0.380384206275042     
 -0.215934806205315     
 -6.537650914710871E-002
 -0.118368331549910     
 -7.181008224447518E-004
  0.238348170087835     
 -0.851550272733391     
  0.196586240046714     
 -8.421635377618214E-002
  0.191190590012660     
  0.373810984376345     
 -0.100299098692454     
  9.448694558093257E-002
  1.050028612793595E-002
 -2.399977801513990E-002
  0.182916665289604     
  0.157428349594466     
 -0.201493211347901     
 -0.330913158836310     
  0.405949888511011     
 -9.820803425342373E-002
  0.271798605396398     
 -0.316716378876442     
 -9.810251804904173E-002
 -0.421882336422930     
 -0.236711815311489     
 -0.323288967537002     
 -0.573926850996527     
  0.612192770319235     
 -0.167438601229698     
  0.158973300098105     
  0.453819157885975     
 -7.385596825058385E-002
  0.268017102658955     
 -4.998309551350114E-002
 -0.112112783740258     
  0.457265443736917     
 -0.360836747602104     
 -0.143545143116003     
  0.300824611063724     
  0.140648873009926     
 -0.415410499231823     
  0.667116569385659     
  0.262049044343268     
 -0.260463483857682     
 -0.194213270781351     
  0.105708199167964     
  0.318074412284064     
 -0.161309278395367     
  0.753103896650179     
  0.336234766053557     
 -0.187626136571067     
 -0.487891719662884     
  0.265929550990525     
  0.320237067240587     
 -0.914719756458880     
 -0.740862508700027     
  1.271342196337444E-002
 -0.615008323869912     
  0.859339008227700     
 -0.629348549878996     
 -0.410033462178523     
  0.335491631879005     
 -0.768200761276303     
 -6.767301457971175E-002
 -0.824198105116103     
 -2.238258919455266E-002
  9.778579183468036E-002
 -5.639869451500235E-002
  1.992690076246290E-002
 -0.181465173066212     
 -0.175644915536089     
  0.414919125762229     
 -2.556204084675794E-002
 -0.381807011240128     
 -0.135266699396192     
  0.440124142122467     
 -0.161494284920932     
 -0.342617060921455     
  0.678802639951926     
 -0.525768309814235     
  0.310007594190182     
 -0.216742770712986     
 -2.050514216942840E-002
  0.120139116956063     
 -2.820976438863768E-002
 -2.065478021090450E-002
 -0.261741761111072     
  0.164425214820205     
  0.350340961935947     
 -0.373534810949842     
  0.320154787766525     
 -0.530406667118833     
 -2.536981894000493E-002
  0.196550312384531     
 -5.672234150257346E-002
 -0.147115002680583     
  6.463490529413836E-002
 -7.613723439510361E-002
  9.676258443112225E-002
  1.886563203936313E-002
 -4.429777332401972E-003
  3.026214511938973E-002
 -0.259421527258939     
 -0.227628207070279     
 -5.779180334103323E-002
 -4.735586650610461E-002
  0.673116799580435     
  0.121613594955133     
  4.011853347179178E-002
  0.650079637820389     
 -0.634635279761634     
  0.347760064535500     
 -0.183017606656087     
 -0.198270169445512     
 -0.104221790447851     
  9.548441725694912E-002
 -5.116652579509195E-002
  0.497439711082521     
 -6.820394478290920E-002
 -0.407335798863481     
  0.223130483958351     
 -2.022922255331977E-002
 -0.588325618755622     
  0.429992978870462     
  0.137992070362407     
 -0.295183631646484     
  0.221007113377099     
 -0.371770808413683     
  0.234807262923528     
  0.446651734614406     
  0.284217803549821     
  0.889191725560824     
 -0.276096828347462     
  0.326579738119040     
  0.255663315480356     
 -7.472733948224426E-002
  0.218488122994925     
  5.337800787871860E-002
  2.470603305346625E-002
  0.183575468881214     
  0.138582596440748     
  -1.24679537309482     
  7.080892922205756E-002
  0.192019888375048     
 -0.210627626512444     
  0.286899360759134     
 -0.202078891377969     
  8.493844112125599E-002
 -0.384024441739958     
 -1.815011501419544E-002
  0.209250230609156     
  6.117780548357824E-003
 -0.338109130562310     
 -0.435549288164385     
  0.194699848699503     
 -0.316370923792336     
 -0.645465424648886     
  0.675087357911806     
 -0.311802943062099     
 -6.351624363208301E-002
  5.250505674956022E-002
  0.228218359126104     
 -0.577206386412473     
  0.397949606206678     
 -0.157040931627782     
 -0.196680848878423     
 -0.729703999816918     
 -8.983863490947699E-002
  0.469596608742163     
 -9.396249528198661E-002
  0.290594614595424     
  0.681232334932384     
 -0.864884712910469     
  6.247400887180579E-002
 -0.686799686545430     
  0.562025420731374     
  0.190607922692990     
  3.728085021199207E-002
 -0.326294730221831     
 -0.191422626510042     
 -0.159130863557499     
  0.370302599518315     
  9.967733777080195E-002
 -0.441728941740547     
  0.583943105472528     
 -0.734982962020760     
  0.231755911712018     
  0.285521164497421     
  0.779851276759001     
 -3.556789941310080E-002
 -0.528832166499358     
 -0.914037041722512     
 -0.406252921533433     
  0.301124046294082     
 -0.481972371119203     
 -3.612760792793601E-002
 -1.579669000963569E-002
  -1.00684440722093     
   1.00460722098624     
  0.192440743869417     
 -0.266628903395532     
  0.367342379861406     
 -0.306949627720873     
 -8.178944614760408E-002
 -3.162316612922747E-002
  0.447470516434113     
 -3.148442285505947E-002
  4.872780443808519E-002
  0.439706100830969     
 -0.823322833337090     
  0.764102853453324     
  3.900528226255515E-002
 -0.116460594975885     
  0.347172245172500     
 -0.781310462411127     
 -0.216684581588467     
   1.01542716754769     
  7.346115158181284E-002
 -4.804358844771887E-002
  0.259323283264999     
  0.716389384683030     
  0.799266981800111     
  -2.24144532828511     
   1.31839942291361     
  -1.54790371324915     
  7.074979745045232E-002
  2.845086669348323E-003
  2.246012556992270E-002
  7.900929810224912E-002
  0.186344005296203     
 -0.473755939605258     
  0.773390560355786     
 -0.666461112276599     
   1.09389230273581     
  1.741060485350466E-002
  0.448819269227678     
  0.121189807267563     
   1.12010072736973     
  0.388882240937486     
  0.780005152374344     
   2.22013128972335     
   1.13705429617802     
 -0.992650798087972     
 -0.691321259290034     
  0.228661385483134     
  0.208546572728460     
 -0.959225647759151     
  0.339978502281215     
  0.187877486995587     
  -1.54529092871278     
 -0.731252376955283     
  -1.15335063480147     
  0.997516497864501     
 -0.133110877896670     
  0.446039443271888     
  -1.32738270369083     
  -1.69215970956899     
  0.319576813288174     
  0.723443172338706     
 -0.131088038023946     
 -0.246304936666667     
 -0.171989184797893     
  0.463034189446941     
 -0.195372743936671     
 -0.217081576515580     
 -0.270458258657115     
 -0.274581898930948     
  0.244557723709807     
 -4.816224310883987E-002
  0.527886575306996     
 -0.472956790753142     
  0.915911376897020     
  -1.25881623636533     
  0.473075093663736     
  0.188545982695092     
  0.222348434097707     
  0.582763235548864     
 -0.723140811733163     
  0.540409515229807     
 -0.365791626712240     
 -0.179540291861269     
  1.299423601695762E-002
 -1.468382830009571E-002
 -0.898793127213072     
  4.191041487663346E-002
  6.801987454300145E-003
  5.455114028479819E-002
  0.452282376321399     
 -0.158754785161118     
 -0.258880686607697     
 -2.288065978910558E-002
 -1.516415599608669E-002
 -0.244442575455248     
  2.620120896322108E-002
  0.310944214168604     
  0.193052213227298     
  3.545132928490394E-002
  -1.01169195237405     
   1.11101736135537     
 -0.173013769152263     
  0.121746311641765     
 -0.222871062637207     
 -7.223799136173902E-002
 -0.229198264135019     
  0.926932690761860     
  0.517602458619693     
  7.683129267564905E-003
 -0.418564823705460     
  0.123881012988717     
  0.438231971570454     
  -1.14398229209822     
  3.872136019205461E-002
  0.329437188817111     
  2.361279249536240E-002
  0.339672201291257     
  0.309207533562589     
 -0.166960333549189     
 -0.437206333808394     
   1.98845209175329     
  -1.76082717421552     
   1.01807657016274     
 -0.428988967792181     
 -7.132664650243396E-002
  0.333189746860385     
 -0.738879148585761     
  6.313014228082202E-002
  2.739426815186907E-003
  7.186322870194665E-003
 -0.819289454281467     
  0.782783947605049     
 -4.247048718238021E-002
 -0.271423876451617     
  0.877845566843011     
 -0.814789392269574     
  -1.33977980378608     
  0.337918508182295     
  0.212434097926552     
 -0.225458329147467     
 -0.479987540725901     
 -1.683717358881984E-002
 -5.787827616599955E-002
  3.585658693905783E-002
 -0.631952237769284     
 -0.503179163080806     
 -7.581072066356832E-002
 -1.905877511629863E-002
  0.142287369857872     
 -7.311175403920680E-003
   1.04135285820944     
  0.663472169638277     
  0.435679618179257     
  0.700913373802803     
 -0.242694153717356     
 -0.780486810695661     
   1.02225183915290     
 -0.377808366716635     
 -0.106715536219071     
  0.496818319950470     
  0.200815522077917     
  0.331270795760204     
 -0.923604952145087     
  0.852420287110129     
 -0.268430888850783     
  3.869255623354234E-002
  0.248452521132268     
  0.796822384834930     
  -1.15261912877823     
 -0.145044432989484     
  0.122825280073076     
 -0.264011526787109     
  0.255669288348171     
  0.127867674529342     
  0.778864671962584     
 -0.386403545515438     
 -0.275386731465642     
  0.597109795897313     
  0.273573864493518     
  7.951106498166953E-002
  0.397958935968813     
  0.147824025014372     
 -0.434567777282498     
  0.582403227765786     
  0.164506571230849     
  0.804717055916795     
 -0.715947662191670     
 -0.688484131239453     
  0.579727516176763     
  0.485063019512492     
 -0.330003215835336     
  0.193826477579492     
 -7.463930511147884E-002
 -5.177346597501970E-002
  3.497086251548882E-002
  0.517788672679875     
 -0.249680456523580     
 -0.113256443327097     
 -0.990646319277362     
 -0.504571962306863     
   1.09930072457045     
  8.925725339657596E-003
   1.12918676758526     
  0.184743196536323     
 -0.859703886303824     
  0.563264746688924     
 -0.244657547574732     
  0.244416580331532     
  0.848674851029645     
 -0.527650865328118     
 -0.346377806570924     
 -2.167319869288351E-003
 -3.197667968858654E-002
  0.362779309537155     
 -0.619753372771634     
 -0.568319780413146     
   1.38254149362732     
 -0.700190000840863     
  0.494102427906461     
 -0.987048071583526     
  0.960322523391579     
  0.740968202534260     
 -0.216632150826707     
  0.154180749778459     
 -0.517791621382324     
  0.444615823124239     
  0.318360766363258     
  0.497172946629366     
  0.200257788368133     
  0.275616467742164     
   1.21423286946031     
  0.582209397261677     
 -0.147062551722812     
  0.437903635991881     
  0.416875169694499     
  0.332337078097623     
  0.564792931650573     
  0.182814556558400     
 -0.113665742404094     
  0.567153689375332     
  0.169292227172804     
  0.515425576113888     
 -0.221868823761083     
  0.133147976825652     
 -2.460711737955511E-002
 -0.474151030673227     
  -2.06963752184039     
  0.276311464684787     
 -0.764079933195626     
  8.530646563978156E-002
 -0.478321078680628     
  0.238934626603377     
 -0.628290733646576     
  0.235709843324784     
 -0.303511661316194     
  0.393000448360096     
  0.259311583787440     
 -0.744047478584429     
  0.216331766506001     
 -0.797300258984156     
 
   2.18469951043424     
  -1.40528627628229     
 -0.227339017676519     
  0.375890182285265     
  -1.73705939882780     
  -1.11407262038198     
  0.565118278838935     
 -0.103421574450940     
  0.257691859263859     
  -1.22829236115909     
   2.37173398605765     
  0.756787754191910     
 -0.565224445470625     
  0.885974473742678     
 -0.919141911564163     
  -1.06506898491440     
  0.704300976810129     
 -0.208548004778678     
 -8.281895166951359E-002
  0.423205956881976     
 -0.793521800344531     
 -0.804305948259702     
  -1.23766889539124     
 -0.784232367961014     
  6.807954774829675E-002
  -1.52636835732201     
  0.267890141315386     
 -0.540877137581498     
 -0.898505854193461     
  -1.59335677255628     
 
  0.239899883205844     
  0.589176570260240     
  0.603502323960181     
 -0.285317152193442     
 -0.737595996752507     
 -0.184514901918115     
 -0.138446560987205     
  0.514556789367955     
   1.50925950353250     
 -0.372192823638950     
 -0.684507153004539     
  0.322801083033188     
  0.307360454472847     
  2.882680469864281E-004
 -0.693620647956718     
  9.903641811765798E-002
  0.309488326903145     
 -0.671799220992002     
 -0.480222665748059     
  0.418201098688487     
  0.607741250350243     
  0.732364695671859     
 -0.775525408679861     
  7.420684522588469E-002
  0.599413083443248     
  -1.48590913708419     
  0.792066370328722     
  0.299441015919898     
 -0.139337764155112     
  0.180373084559198     
  0.596587947438841     
 -0.511563701897264     
 -0.984875945527171     
 -0.892554171553788     
 -9.625056506948221E-003
  0.334989805245351     
  0.907448533975099     
  0.309880197145354     
   1.21731040892147     
  0.737978416002454     
 -0.122384858957658     
 -0.415527790028488     
  0.277376588875374     
  0.514080585990812     
 -0.654431785329908     
   1.20747128447190     
   1.05769861201844     
  0.948950680407546     
 -4.672840380509328E-002
  0.465872860418719     
  0.796618838335183     
  0.969451040929805     
   1.33128744666778     
 -0.257377184566918     
 -0.233455476905567     
   1.00758207919580     
 -0.168111667958463     
 -7.183613545623642E-002
 -0.564157474988633     
  0.575602864652557     
 -0.612307817331583     
 -0.796786058202279     
  0.583967867637428     
 -0.524356692296402     
  0.628990065345954     
  -1.09996622134422     
 -0.451324438361556     
  4.897235083256906E-002
  0.758701249706630     
 -0.137044214962142     
 -0.124979207202011     
 -0.694613702157703     
 -0.108631626801909     
  0.440576947327095     
 -0.597448572137790     
 -0.763277129143868     
 -0.522736653775865     
 -0.350809766903237     
  0.600527209609148     
   1.48575909900022     
  0.211932004519611     
  0.460426786226956     
 -0.943494995471303     
  0.860351112926846     
 -0.628559348664869     
 -0.391263005474320     
   1.14467857689761     
 -0.949019649380017     
  0.105801350715607     
 -0.500849231395108     
  0.222725776639202     
  0.623677658266356     
 -0.639612443780590     
  0.232803103961219     
  5.000649022924889E-002
 -4.612783090505707E-002
   1.17066675174894     
  0.110022623368231     
 -0.549329656633487     
 -0.143536145521751     
 -0.310286829741130     
  0.850243854487454     
 -0.101965157155205     
 -0.591909135022210     
  0.537595692630372     
  8.034501792970014E-002
  0.898948928272165     
 -0.672612788721972     
 -0.188110452887512     
  0.822269217820791     
  -1.05361937664679     
  0.553438069392792     
 -0.371146170648706     
 -0.187617305021872     
  8.118035504471677E-002
  0.983954808287915     
  0.440654511121276     
 -0.252384583384476     
 -7.480263611259741E-002
  0.112829495369088     
  0.404347355637191     
 -0.430383036609711     
 -0.937375766553242     
  1.963140309278298E-003
  0.496820810324741     
 -0.361798543121222     
 -0.155578920571371     
 -1.350541322390945E-002
  0.182617065284212     
 -0.224096729285418     
  0.886285474566090     
  -1.37514632242086     
 -0.824863648273932     
 -0.198662221401367     
  0.766346993278058     
 -0.742340155620997     
  0.613062759119998     
 -0.155945979949131     
  0.443471828566006     
  0.354223943336205     
 -0.547683151293994     
 -0.321357063582421     
  0.149435021321111     
 -0.595238644601246     
  0.450618773303726     
  5.032012391672711E-002
 -0.251532066770792     
 -1.102935109152932E-002
  0.874797094390602     
  0.265426215147438     
 -0.121802458333402     
 -3.853664213938241E-002
 -0.722730500808164     
 -0.376241624164969     
 -8.512166247414972E-002
 -0.343657815169332     
  0.228187332463302     
  0.233927400381021     
  0.716567974282465     
 -0.349757846329593     
 -0.849801935865905     
 -6.984115790194455E-002
 -0.409209428585834     
 -0.410031107674704     
  0.595711700540036     
  -1.05481727165149     
  0.173338534647382     
 -7.863681827436628E-002
  0.304610045295736     
  0.226151907410870     
 -8.418795379324824E-002
 -0.353877476837901     
 -0.382101228140488     
 -0.261046597107685     
  0.536868808100204     
  -1.09339830824784     
  0.790229978559322     
  9.904999361048603E-002
  0.370917722274544     
 -0.179036798280154     
  0.482240630139788     
 -0.978024010667448     
  0.338388998179289     
  -1.06819145156754     
 -0.603960487055902     
 -0.134715957593776     
 -0.250289633170842     
  -1.02915788727795     
   1.27516886636651     
 -0.259089955415180     
  0.497305022429792     
   1.39695987662954     
  0.127643410106525     
 -0.827782090921608     
  0.596770976347736     
  -1.01583547035443     
  0.465483115199707     
  0.436708420583928     
  0.499895573899375     
 -0.210759324549935     
 -0.522998180886531     
 -0.571306517833908     
 -8.259291501546902E-002
 -0.276906036153404     
  0.828816673404308     
  0.216644581546305     
  0.995155318512073     
 -0.328236233214775     
 -0.217504882570802     
 -0.713149289510739     
 -0.604570579498103     
  0.725670978423015     
  0.460673498498564     
 -0.214224822707777     
 -0.411384184386769     
  0.556443900000162     
 -0.869447940272290     
 -0.127277022922794     
 -0.566139949005512     
  0.882629350501264     
 -0.964105445376036     
  0.301928543503169     
  0.310592047111847     
 -0.640571057257992     
 -0.150507910742969     
  6.581341254924374E-002
 -0.120582129497898     
  0.712354873296057     
  3.489853658483311E-002
 -0.476120495593072     
 -0.894363993224813     
 -0.432995343293927     
 -0.601023547435925     
 -5.487793125503175E-002
  0.125060314191964     
 -9.925139775704249E-002
 -6.714893235338669E-002
 -2.473713580172279E-002
 -0.485464173724939     
 -0.301312138051781     
 -3.292793116602079E-002
  0.564544222016660     
  0.376532849059131     
  8.381345560922060E-002
  1.399332901854175E-002
 -0.195511450356270     
 -0.396639237356967     
 -0.611074393458146     
 -0.108169025439026     
 -0.259119502081869     
  6.558266846649753E-002
  0.301487817119790     
  1.854572094329262E-002
  0.209442761759080     
 -0.329276493173131     
  0.745174176713232     
  0.776585483371819     
 -7.647544649874916E-002
 -2.467383476427324E-003
 -0.396342805204156     
  0.507026727705506     
  0.338734022050726     
 -0.120304850630823     
  0.173448467194099     
  2.320517520504622E-002
  7.121139610466069E-003
  0.474217562044497     
  8.056671188595778E-002
 -0.888830473114868     
 -0.308663002834440     
  0.401355445426701     
 -0.814761005527641     
 -3.133929908751963E-002
  2.236914841342687E-002
  0.185220441487752     
  0.385902793620272     
 -0.528130273418959     
 -8.133663583713389E-002
 -9.339692946065358E-003
 -0.640506333871332     
 -0.231115207300979     
   1.26779920372855     
  0.692401280857733     
  0.341257347717160     
 -6.966301798968870E-002
  0.923633757156781     
   1.63992961412191     
 -0.345917646057421     
  3.343081595020513E-002
 -0.152369934183215     
  0.834597609694791     
  0.890968498164286     
 -0.351830331630783     
   1.18063607943384     
 -0.332508507210933     
   1.48971746195586     
  0.112626167444313     
 -0.352734128706659     
  5.993218585715736E-002
 -1.849975581443686E-002
 -0.652609493600018     
  0.675163491233468     
 -0.437086555374831     
  -1.53641339355797     
 -0.995040018186025     
   1.98287551673761     
  0.456721578517662     
 -0.336348835833959     
 -0.327013806396267     
 -8.307266555856749E-002
   1.10895881347587     
 -8.433646806425554E-002
  0.420874103366654     
  0.554971070788375     
  -1.11050845510299     
  0.264034470756500     
 -0.863173699594548     
   1.09676348537869     
  0.106916915704719     
  -2.34633369606281     
  0.321658841104606     
  0.753133779608764     
  4.344027953374103E-002
  0.454430125262021     
 -0.819490883967736     
  0.732150215651555     
 -0.324427897885251     
  0.451440893029813     
  0.323835390489771     
  0.191219625512112     
  9.304908353863675E-002
 -0.452211213249835     
  0.148141226140641     
 -0.483686667199454     
 -0.542063587185312     
 -0.114383420131762     
 -0.320733447116170     
 -0.212371046245688     
  0.747389193808419     
 -0.691732609127544     
 -0.896708423169575     
 -0.269255436519687     
 -4.986464343243187E-002
 -0.428464502477637     
  0.785859543322922     
  0.693655284176946     
 -0.856885488765905     
 -9.853076687442386E-002
  0.229791651657364     
 -0.537264471127944     
  9.122344492556615E-002
 -0.663213674064080     
  0.221560587636192     
 -0.685904328806622     
  0.132604857537715     
 -0.360820958732857     
 -0.667764735841312     
 -2.544788296728871E-002
 -0.313951141617664     
 -0.259372345179591     
  0.288018427803333     
 -0.506315934831910     
  8.444600094527678E-002
 -0.412350783751496     
 -1.816787188987422E-002
  0.620869569679351     
 -0.311333546896254     
 -4.104598521834765E-002
 -4.127577077468520E-002
  0.570875836504443     
  0.200693903961748     
  0.489798929410817     
 -0.430073982004657     
 -9.328121130037546E-002
 -0.328165952488082     
  0.562372694901500     
 -0.225844751846028     
  0.113538796859809     
  0.498053412680600     
  0.352698369858026     
  0.316144320593427     
 -0.120269018525646     
  0.162289378847106     
 -0.158362228195780     
 -0.437822416565777     
 -0.525778558326838     
  0.763520608507708     
 -0.177846271837163     
 -0.527003708946201     
  0.106251918131253     
 -0.127137131793469     
 -0.236455379311516     
 -0.463047036360806     
  0.950047593362376     
  2.948525186142980E-002
  -1.13734465582697     
  0.789597500324189     
  0.480926807893236     
  0.328369611719542     
  -1.20536522383317     
 -4.978534462704182E-002
  0.234009136691426     
  0.502787685759933     
  5.736641363432474E-002
  0.441304072577530     
 -0.293367986789583     
  0.232904127040811     
 -0.681956073463780     
 -0.590594123870637     
 -0.243001484083135     
  0.190563380635782     
  0.172716503848638     
  0.174646285637639     
  0.247648035525834     
  0.265939441366107     
 -4.869033593571825E-002
 -0.623647168510024     
  0.174620684462975     
  0.530718628351423     
 -0.264313360911168     
  0.198495482102844     
 -0.916026649717172     
  -1.32476496950777     
 -0.274657940977317     
  2.969712880368896E-002
 -3.250588471535633E-002
  0.147067409357922     
  0.359242817260543     
  0.669428888534074     
  0.433378837913745     
  0.201910741562895     
 -0.301865965405646     
 -0.577838935616294     
  0.267518435528703     
 -0.352628597916040     
 -0.485843268929026     
 -0.805485463278950     
 -7.043421207499825E-002
  0.431768522174673     
  0.282623041504356     
  0.326724498011541     
 -0.493457294521209     
  0.147294417884260     
  0.595946765215616     
 -8.053177019904151E-002
  -1.83311586192366     
 -0.173642675167164     
  3.080487493231815E-002
  0.462134329909656     
  0.138048538440320     
 -0.425507937926158     
  0.335963763982410     
 -0.414443251539375     
  0.147475284132176     
 -0.596317482605087     
  0.183780414931680     
  0.586199030551009     
  0.556884973532549     
 -9.911005214911120E-002
 -0.655440779248830     
  0.128242134208965     
  3.250122622482003E-002
 -2.527022157882860E-002
  0.359056757833640     
  0.198852211316732     
 -0.174838177795757     
 -4.196481343622593E-002
  9.551791395815339E-002
 -0.303806049802661     
  0.461698088133382     
  0.395096124733393     
  0.474307251924820     
  0.283528490641570     
 -0.793658315354294     
  0.570374147265290     
  0.703198847853892     
 -0.344184044812102     
 -9.661040481429067E-002
  7.506074670887813E-002
  5.843429043094080E-002
   1.09275279112404     
 -0.546140490733333     
 -0.439184628124815     
 -0.412658858487719     
  7.934531694002341E-002
  -1.59532328210436     
   1.06443985358197     
  0.503359088607362     
   1.34146025383291     
  0.140309367467904     
 -0.158613107810939     
 -0.473544505695715     
 -0.924140063532304     
 -0.476610482264414     
 -0.571326128203223     
  0.562285279797354     
  -1.05572489720740     
  0.200259475053776     
  0.836358801233647     
  0.320448736217884     
 -0.174819125311399     
   1.13713727974896     
 -0.420356746346704     
  2.469950893551674E-002
 -0.163753233508369     
 -0.233143668830022     
  0.343376674395286     
 -0.644049746317777     
 -0.382517070222058     
  0.167407045426130     
 -0.351074665468715     
  0.396900383211092     
   1.05694366508318     
   2.29181034561271     
   1.54875699816440     
 -0.312687131931464     
 -0.541725027196306     
 -7.090248933643174E-002
   1.20044407533871     
 -0.569169451008172     
  0.137936156845662     
   2.10083874853577     
 -0.575864489005877     
  0.649480497702152     
  0.102129161781808     
  0.129162133105168     
   1.66254916313556     
 -0.454508118727140     
 -0.650646981293193     
   1.06695263491055     
  0.148819350022316     
  0.279839384958746     
 -0.732193810845283     
 -0.369042694132669     
  0.688857655346499     
 -0.632658883193429     
  0.215657644954500     
 -1.452798845666228E-002
 -0.514810826941974     
  -1.50106493930712     
 -0.672186483456181     
   1.47825432508284     
  0.443884672197764     
  0.135391235823409     
  4.628557038422874E-002
  0.104509587971207     
 -0.364459566768689     
  6.453107387265969E-002
 -0.229546833469300     
 -0.589095347355231     
 -0.900862538431470     
  0.481063800609913     
 -0.220308815078723     
 -0.194804811820260     
  0.687078206246481     
  0.377957277212955     
  0.499371381583747     
  3.946691515955868E-002
 -0.225491660729167     
 -0.193867688848812     
 -0.615680508788648     
   1.36480669695842     
 -0.367555489931364     
 -0.556914305689002     
 -0.181457527113756     
  -1.91054426749503     
 -7.427567126419915E-002
  0.180219101396865     
 -0.110361580099274     
  1.002662379176192E-003
  0.791233887615624     
  9.119406532098730E-003
  0.513104318683560     
  0.341246735643994     
  7.928371035448624E-002
 -0.773615521789348     
  -1.18680586161300     
  0.191107621961580     
  1.617263350357018E-002
 -0.632641883669070     
  0.410219774469978     
  0.139271972327933     
 -0.215501539803510     
  0.494273573241647     
 -0.281220086756519     
 -0.164835830108684     
  -1.12483034582840     
 -0.170989397852129     
 -8.075613317580231E-002
 -0.113851565168454     
   1.24643672310271     
  0.275597782001562     
 -0.289547754934416     
  0.950985165277949     
  0.242894794285038     
 -0.792471356319962     
  9.406578560739268E-002
  0.154855892014239     
 -0.246790049725196     
  0.118253807432092     
  0.526215616352532     
  0.552198678109509     
  0.768857382014369     
  0.287292564104737     
  0.396685268831801     
 -0.583108559407367     
 -0.191342071726395     
  0.229073339520508     
 -0.372027214867571     
 -0.549130139344642     
 -4.298792943282299E-003
  0.228149059993813     
 -5.359171614379544E-003
 -0.216258793739369     
  0.322182311447666     
  0.302620066849220     
  -1.57083579335776     
 -0.601717144218420     
  0.166822835295123     
  0.650512564440777     
  1.459015702762810E-002
  9.975637799305700E-002
 -0.158962254424988     
  3.911252451975238E-002
  3.971938152992065E-002
 -0.716111333063800     
  0.279028981559472     
 -1.667774909115647E-002
 -7.465910302460389E-002
 -8.128956631708371E-002
  5.123489164838772E-003
  0.931536788944774     
  0.360034327477294     
  4.334517227971241E-002
 -0.381326324259098     
 -0.102412326460456     
  0.471010718915581     
  0.178020242847994     
 -0.692215046779379     
  0.141330950417430     
  0.585187016792803     
 -9.987181056808382E-002
 -0.603328842596296     
 -0.240514376609055     
  0.332503773188793     
  4.750968427408094E-002
  -1.32220858910088     
 -0.157968800728836     
 -0.159266754108400     
 -0.148948955930287     
 -0.800520881579241     
 -0.594958523665472     
 -0.267238333602431     
 -0.491921993835507     
  7.191984928266525E-002
 -0.842525464619307     
 -0.531053583035932     
  0.176727567496493     
 -0.922099024878415     
 -4.841018395765576E-002
  7.860086345165203E-002
 -9.865113825725211E-002
 -0.327910044940086     
 -0.724709077100690     
 -0.446622143262907     
   1.35971206911524     
 -0.524666699500863     
 -0.257332474420933     
  0.307287403327354     
  0.309669963801214     
  -1.11396650998747     
  0.273210087459893     
 -0.511240548247014     
  1.681558918676490E-002
 -0.178568980345996     
 -0.777995746575493     
  7.317086676842725E-002
  0.729304208658787     
 -0.262484308803669     
  -1.17108980852030     
 -0.200271776700481     
 -0.377033900662644     
  0.149651897059491     
 -0.448403928393623     
 -0.153003386845404     
 -0.860140187054912     
 -0.410321049465809     
  0.122990840821895     
  0.546046215208762     
  0.759660161639585     
 -0.303153983696269     
 -0.793059574574127     
  0.365735328620507     
  0.588450748928862     
 -0.247463789354064     
 -0.152387624568470     
 -8.759183261442932E-002
  0.149498425745952     
 -0.888577997249250     
   1.17675723799697     
  -1.51042727523355     
  8.256268391795206E-002
 -0.484968342586576     
  0.277723964618549     
 -0.440733212768771     
  3.229018029998969E-002
   1.03032003111034     
  0.542889988159486     
 -0.342244288584966     
  9.077561059507730E-002
  0.161887965007092     
  0.352608928034467     
 -0.126183496865185     
  0.227955214657797     
  0.111402863722968     
  0.214247296016311     
 -0.346251720632775     
 -0.243984326680218     
 -0.260221455460848     
  4.517620578161974E-002
 -0.265097789846924     
 -0.620607708061984     
 -0.524786702415646     
 -0.256424529180720     
 -0.392475240312299     
  0.521609405445571     
  0.566327264051042     
  0.285566396419833     
 -1.490360540570639E-002
  0.939633885923959     
 -5.643013881527872E-002
 -0.373451194760450     
  0.363002796228012     
 -0.202391680422347     
 -0.349917129059154     
  0.723538500617774     
  0.834438177433299     
  3.248905074918749E-002
  0.227054852576370     
  2.229167493687079E-002
 -0.495918038874711     
 -0.379334602611215     
 -5.295299037324192E-002
 -3.149827641889442E-002
 -5.258501382576627E-002
 -0.512778689509093     
 -0.248265623440625     
 -0.276971132590595     
 -0.201250525585053     
 -0.393173964299216     
  1.123556243310174E-002
 -1.222038823416340E-003
 -0.185811229268686     
 -0.325503516200894     
 -6.893826339551402E-002
  0.312350091263731     
  0.209067760812926     
 -0.410051998447299     
  0.225109354840885     
  0.300932312302522     
 -0.368333597912150     
 -0.310268340911825     
 -0.300642081689719     
 -0.359159648210334     
  2.462322999366838E-002
 -0.568722943188942     
 -0.391258796788210     
  0.406389548161871     
  0.126343048593717     
 -0.195698790556952     
 -0.785372763727873     
 -0.331265633827430     
 -2.131191309079412E-002
 -0.355587573533242     
  0.164342743100223     
 -0.909625432737012     
 -0.227387396186777     
  8.935889126223509E-002
  0.505712489575797     
  0.175748985205925     
   1.36289007851200     
 -0.633761560650302     
  2.529419855723957E-002
 -0.472060589641355     
 -0.152163966587086     
  2.704175927937018E-002
  0.567374051308247     
   1.07702291755088     
  0.596960183389061     
  0.403062499727033     
 -0.158614564103635     
   1.20953131777059     
 -0.147712593406023     
 -0.224518846327082     
  0.351643121752155     
  0.234513937309501     
 -0.508731035683951     
  0.528015804378992     
  0.131696446364435     
 -0.266112851307817     
 -0.949297778722188     
  0.582523463317858     
 -0.170708398580964     
  6.588116192657940E-002
  0.211506231420640     
 -0.712085689643669     
  7.109540105617908E-002
 -0.682168220740360     
 -0.474056315317074     
  0.130504763531228     
  0.195842020744950     
   1.26272740408395     
 -0.371843494958217     
 -0.637701677765392     
 -1.226107057579616E-002
 -0.738657639923792     
 -0.542264128005618     
 -5.397580299397252E-002
   1.12640659197563     
 -0.209715934281168     
 -8.888074445150117E-003
 -0.604093947364306     
 -0.338428050652876     
 -0.288610884935055     
 -0.334623570440629     
  0.541398748671426     
  9.433534145739123E-002
 -0.627692439120668     
  0.124940943256118     
  0.614891258684988     
  0.725386860547567     
  0.229025787821830     
 -4.600634697571300E-003
 -0.127040765747539     
 -0.108770831239528     
  0.495728185436330     
  0.650661841983125     
  6.605873833528099E-003
 -0.773698314292806     
 -7.173591638479453E-002
  -2.29941929185316     
 -0.193239065292636     
  0.523135469846419     
  -2.85113942269898     
  -3.27630900954237     
  -3.60516665258762     
   3.30484999357131     
   1.36769188310358     
  1.096643750595087E-002
 -0.105929574351902     
 -0.232643418264625     
  -1.49727381117686     
   1.57856076956291     
  4.396810318853804E-002
 -9.493256016934380E-002
  -1.04585952238035     
 -0.444222160662531     
  -1.10651054547444     
  -3.80886666936572     
  0.775153656247919     
 -0.372239629403518     
 -0.743782437066090     
   2.06114262299267     
 -0.202003062070071     
   3.26580594796358     
 -0.486838048899547     
  0.753234962776757     
   2.67014675118282     
  0.759066951990366     
  -1.46611466449270     
   1.26518488527297     
 -0.556488011762176     
 -0.225746420843341     
 -0.676557980584694     
  0.185397677466795     
 -1.644059086949849E-002
 -2.694136676619541E-002
 -0.324292485820801     
  0.790290451280762     
  0.312717255905834     
  0.967886443136366     
 -0.418181139470201     
  5.558896313699577E-002
 -6.711144534539745E-002
 -0.687113974672394     
 -0.240957499378322     
   1.40123188534539     
 -0.128138469221110     
  0.283434673926735     
  8.719289068315704E-002
  0.162433646409895     
  0.632333628610493     
  0.598962894952879     
 -0.299800980151890     
 -0.236666707097723     
  0.731370312365160     
  0.752198044961563     
 -0.218468692643316     
 -0.289600565126793     
  0.328063771571024     
 
  -1.27041122606875     
  0.467213871752506     
 -0.428269825540542     
 -0.715301686189533     
  0.463047446511866     
   1.22523807678220     
  0.224876787604077     
  0.962260753926629     
   1.42523603450097     
 -0.982034038042345     
 -0.543327455968492     
 -0.587709813864705     
  2.602369536922251E-002
  -1.02178595935980     
  0.280797623742195     
 -0.946395407129833     
  0.622347922260120     
  0.399027542173812     
 -0.360808795076097     
 -0.439761693072462     
 -0.247353141101892     
  -1.04134859659621     
 -0.682667353986363     
  0.832445168792191     
 -0.444549339127498     
 -0.389190075656867     
 -0.232655007665681     
 -0.535989517100483     
   2.77293501807190     
  0.743065900716791     
 
 -8.043860544313837E-002
  0.193690494337613     
   1.09480704817253     
 -0.192305898233713     
 -0.203276036720686     
  0.270022972652579     
 -7.412207796160361E-002
 -0.340540694529554     
   5.20936019590090     
 -0.332357457426677     
 -0.140596521746394     
 -0.148890703817927     
  0.345675922385621     
  0.224689038072641     
 -0.211027218015891     
  0.928569035786514     
 -9.919860226181104E-002
 -0.104020000287884     
  0.386760276258580     
  0.145558250727693     
  0.274494132007063     
 -0.386756364092376     
  0.315355317215057     
  0.266294540545170     
  0.289540946605828     
  0.689065853374938     
  0.132440406311362     
  0.300364245122746     
   2.15146778286104     
 -0.178048177748028     
 
 -5.867917611500750E-002
 
  tansig  tansig 
