     48 -    30 -    30 -     1 
rmse=  49.8567meV
 -6.945142285456048E-002
 -0.172756484687472     
  0.383377972424981     
 -0.715067957021205     
   1.48611918138283     
 -0.314218795538466     
 -0.741157666211765     
  0.519130587715268     
   1.57185851686726     
 -0.276990619974833     
 -0.253234362979663     
  0.918743622244396     
  0.327798169093055     
 -0.162881217090514     
 -0.790880280754572     
 -0.526085354215911     
  0.761669312558928     
  0.653431769222470     
 -0.205319330552468     
  0.463948189310919     
 -0.986418413449825     
 -0.133751715915955     
  0.418629711863367     
 -0.120302381614935     
  -1.13041940338158     
  8.958403830960594E-002
  0.531208653911646     
 -9.976975605310989E-002
 -0.806533376881875     
   1.06307726927962     
  0.634964377701051     
 -1.567995390707531E-002
 -0.622162830951969     
  0.107022115908801     
  0.486077179858352     
 -0.821166594090460     
   1.20965394567513     
 -0.965714332149527     
  0.273531583882695     
 -0.610931156367362     
  0.329114449584279     
  0.384197073359032     
  0.117568762467534     
 -0.416158732688543     
  0.863532656980649     
 -5.257159652944637E-003
  3.423363689383987E-002
  0.644567165299143     
  -1.68325943912455     
   1.55313347019504     
  -1.71308319207951     
  -1.31292797034128     
   1.06533990268277     
  3.097591866005248E-002
  0.634071089338634     
 -0.465386582719762     
  7.113227826388639E-002
  -1.13487383364432     
 -0.127937534186198     
 -0.648639705466486     
  8.193559190722001E-002
  0.199582639495478     
  0.397018424364290     
  -1.18949344582277     
  -1.88411233804643     
  0.439471406011992     
 -0.469922559695767     
   1.08112040066823     
 -0.400405731867568     
   1.09038031022829     
 -0.991568269790336     
  0.819286790558217     
 -0.209936990943463     
  0.879856284805272     
 -0.597511001472833     
  0.465530377730701     
  0.481583671677573     
 -0.435877761431936     
 -0.243296706726410     
 -0.389779520250033     
  0.366308141744890     
  0.568951047815524     
  -2.06466422582687     
 -0.204255213000502     
  0.356370472048350     
  0.434259187464756     
 -0.718256111041862     
  0.752644911020372     
  0.481368786372187     
 -0.230297062474309     
  0.966306769125088     
 -0.848840158188927     
 -0.338596836696504     
  0.439568868812077     
  0.165705002939544     
   1.15078702013218     
  0.228742268612194     
 -0.176363056005121     
  0.168713455029781     
  8.839065419420933E-002
  0.447044479733035     
  -1.42595922757615     
  0.814913338918107     
  -1.15890777629594     
  0.167974433712644     
  -1.17534795556646     
  0.240842065959452     
  -1.01901571142073     
 -7.980735297412135E-002
 -0.697981885518646     
  0.144128213610379     
 -0.165059196817045     
 -0.312424689941950     
 -0.357016222310667     
  0.347380058924897     
 -8.567397170200559E-002
  0.899348788984657     
  0.171038149152119     
 -0.578052052260703     
  0.939038325685993     
 -0.114559197048582     
   1.84451452701871     
  0.372036191961968     
  0.626861346763555     
  6.380975208628073E-002
  0.100257401690713     
 -4.320071771068482E-003
  1.177519085941081E-002
 -0.239470216801994     
 -0.311748881915126     
 -0.273856897340611     
 -0.436181074334147     
 -0.401197697580588     
   1.01222400350238     
  7.567354443051265E-002
  0.733709499653550     
 -2.936950026259931E-002
 -0.882788315881285     
 -0.136582895908617     
  7.509481507328396E-003
 -1.454596611753593E-002
 -3.720459850225101E-003
 -0.126440722346285     
  1.179095698953167E-002
  0.829525561518469     
 -0.392947309977483     
 -3.657340798024220E-002
 -0.537505125893025     
  0.853520070948546     
 -0.411873905806159     
  0.448858200975730     
  8.919937645171022E-002
  0.337064012830347     
  0.336245575783908     
 -0.636027931713753     
 -0.501822221823062     
  0.273503114055970     
 -0.177089463216730     
 -6.648626423929481E-002
 -0.434527323539571     
 -0.564741849605442     
  0.476104002898594     
  -1.07442538515387     
   1.28530806420608     
 -0.800680726057057     
  0.714784646231407     
 -0.263335348941655     
  0.176739773762620     
 -0.387341555636623     
  0.385867232721107     
 -0.721659209114558     
  0.682324477002058     
 -0.112269595457617     
  0.292644467719944     
 -0.252405492786229     
  0.430893166262761     
 -0.201983814959995     
  0.781187152846566     
  0.421331236324242     
 -0.506247717181082     
 -1.013907320673128E-002
  0.471295681950755     
 -0.421986691303508     
 -0.293683438279956     
 -0.215533717724868     
 -0.524950802638962     
  0.703992044971051     
 -0.674297760748470     
 -0.119102071264311     
 -2.427979995212360E-002
  0.305191889628699     
  0.450002610283591     
  9.938159329281966E-002
 -8.865979676951396E-003
 -0.379985790738911     
 -9.115446683318312E-002
   1.79037129918591     
  -1.04160007267069     
  0.213921020018880     
  0.876007364912762     
  0.335398343055620     
  0.154941414068436     
  0.216256976511072     
 -4.972241815712378E-002
 -3.317712584295741E-002
  3.602622647135319E-002
  0.189578358922687     
  6.415366855492274E-002
  9.986586401502873E-002
   1.26493139367272     
 -0.709968043862380     
 -0.104850229855401     
  0.359549703705475     
  5.693495222420832E-002
 -3.581651622873748E-002
 -0.191627004052346     
 -0.388167519330644     
  0.211596386450135     
 -0.196809997701163     
 -0.135709248338533     
 -1.250871789003885E-002
  3.647014312827962E-002
 -0.187528169773279     
  0.546348566369344     
  0.337713884113051     
  0.268691746688802     
  0.480881801179729     
  -1.22330326299879     
  0.418591545497116     
  0.171886754531190     
 -0.202456244335865     
 -0.662482196816343     
 -0.138187651133792     
 -0.221108084283806     
  0.169552374884567     
  0.133744118079080     
 -0.421834811780610     
  0.109254055117731     
 -0.257157253536188     
  7.177677960933510E-002
  0.789281962079414     
 -0.710034563084145     
  0.685857498234138     
 -0.186780482764197     
  0.343433344376661     
  0.134452644334868     
  0.435361543099277     
 -0.575362881282990     
  8.965771258519940E-002
  0.696751581283627     
 -0.105466954846606     
 -0.240923273186324     
  0.335530885941676     
  0.317910497192362     
 -3.689685012008416E-002
  0.197332666053898     
 -0.585867929120921     
  -1.82210474410377     
  0.961489760708236     
  0.363619042039415     
 -0.479087522691274     
  0.187120872952632     
 -0.632969670646656     
  0.650716666171332     
 -0.336834319161272     
  3.371588618140405E-003
  2.837086468509897E-002
  0.443632797946907     
 -0.116637931328586     
  4.969047106311833E-002
  4.550949363075919E-002
 -4.581684705898983E-002
  0.601161736809404     
  -1.01273315189657     
 -0.672245962330104     
 -0.550236352956923     
  3.339413683249606E-002
  0.279786942582325     
 -2.702853188588790E-002
  0.204473294741292     
  -1.20549662173996     
  0.156368308600309     
  2.215673911790039E-002
 -0.653430482973030     
 -0.118160033861425     
 -0.137947846765650     
 -0.104884907162694     
 -0.188396447883197     
 -0.619114514583876     
  0.214380600846462     
  5.757497886410239E-002
  0.228222922087973     
  -1.42919019678398     
   2.38004587862573     
 -8.413592828239173E-002
 -0.333510043976882     
 -7.586774781889186E-002
 -0.189732378743431     
 -0.224821194701973     
  0.108522384303658     
  0.221332677519343     
  0.161158518795051     
 -0.420513547780161     
  0.250157260053540     
  0.732483254221153     
  5.001599781682889E-002
 -7.552116696034149E-002
  0.266404016381086     
  9.575197099778294E-003
 -0.769139059195183     
  0.322195758197705     
  4.664463533782630E-002
  0.367257697707678     
  0.406036979438714     
 -7.041220346131476E-002
  0.215163333289792     
 -9.154644023170599E-002
 -8.491995581664177E-003
  0.248307773118209     
 -0.446619191529925     
 -0.437240092553014     
  0.234540759881599     
  4.733405179927845E-002
  9.478018872686768E-003
  -1.06111194078738     
  -1.26574528898705     
 -4.718409092316445E-002
  0.115948791501541     
  8.320677398410027E-002
 -8.427878983688501E-002
 -8.022459705277324E-002
 -0.229138852643553     
  0.197810823367958     
 -0.399892447387914     
  0.369090159219642     
 -0.344086038690891     
  3.787337166611517E-002
  0.156994310247384     
  9.749576234053359E-003
   1.33001969005248     
  -1.08751691245037     
  0.874498337218002     
 -0.317526994632000     
 -0.754645743571598     
  0.321358500949701     
 -0.388672644216011     
  0.123584960948471     
 -0.453616085534756     
  0.256433842024256     
  0.124273169966475     
  1.422261744586591E-002
 -0.175576284670250     
 -0.764840873159175     
 -0.102133870972844     
  -1.26416206977815     
  -1.08973974915149     
 -0.320162473624129     
  0.451757229922592     
 -0.345220475150161     
  0.870009113692019     
 -0.340546376581933     
   1.11005593477081     
 -6.559300416048026E-002
  0.264984739515784     
 -0.121405522692345     
  4.543530327675587E-002
 -3.860412158727709E-002
 -5.503421034973370E-002
  -1.21931884319006     
  0.719369891671159     
  0.145235405041275     
  0.178811579031461     
 -0.621439677685169     
 -0.540481576642357     
  0.443524853890728     
  0.340360157094860     
 -0.646821201330157     
 -0.309620967097302     
  1.140263427506173E-002
 -0.104006935345027     
 -0.112686231836071     
  1.188882898756895E-002
 -1.655375999872516E-002
  0.186992418366078     
   1.02838250769551     
 -0.918783661202903     
   1.01307085420171     
   1.40196519864670     
 -0.793758407021729     
 -0.941663593982006     
  0.299066018826651     
 -0.698930456846052     
  0.649473692406979     
  0.555578262130536     
 -0.717791607777374     
 -0.210585634697743     
 -0.114417006817839     
  0.116667720072204     
  0.268196213294323     
  0.461389464745584     
  0.761897867986346     
  0.265490898773590     
   1.29043151959366     
  -2.09563195707765     
   2.36806459949465     
 -0.160612740347898     
  0.902681155987612     
  -1.34531393701954     
  1.103157866106856E-002
  -1.37117558689526     
  0.163017439782427     
  0.130233642734965     
 -3.888035260872939E-002
 -0.478036386144793     
  0.145750956987444     
 -0.612633481249746     
 -0.156206146718957     
 -0.946264546346288     
   1.42671337670329     
  0.131418132903512     
  1.839577115794726E-003
  0.990871529883968     
  0.144643959930625     
  0.203180944558223     
   1.75914032247991     
 -0.720760456439454     
  0.911159042511994     
 -0.328662365573438     
 -0.742358274024438     
  0.969726750550707     
 -0.432057016721750     
 -0.246562171830265     
  0.531303598176505     
 -0.305728931160198     
  7.785771406599074E-002
 -0.627146286907489     
  0.301237469220281     
 -0.246756572078039     
  0.357001745769272     
  0.439016379397365     
 -0.177438032386512     
  0.297136147892704     
 -7.451728285122036E-002
 -9.203182556294350E-002
 -6.420000212338854E-002
  6.219356546473709E-002
  3.230057693202397E-002
  0.143515910174920     
 -0.551439833958379     
 -0.119799893321039     
  0.214019533569974     
  0.789724635655653     
  0.743614303627477     
 -2.531705005294404E-002
  8.530384647719001E-002
 -0.574094508380205     
  0.158010032936540     
 -0.504099474667441     
 -0.120400528266259     
  9.564791907472883E-002
  8.058367029935123E-002
 -3.039586078992731E-002
 -9.063853039693175E-002
  0.197295171338353     
  0.919325297017567     
 -1.330292986042975E-002
 -1.470614716122522E-002
 -0.118501129817277     
 -5.730328889333791E-002
 -4.454399758966405E-002
 -0.322490200795599     
 -7.391436619917140E-002
  0.287256866148400     
  9.002528308445917E-002
  0.196100564830579     
 -3.370533747974974E-002
 -2.662390460769047E-002
  9.288667097228451E-002
 -5.262044114819681E-002
 -7.923206747735898E-002
  0.944240089295582     
 -0.627202412715270     
  0.775461281378816     
  0.657675652265746     
 -0.352728092259277     
 -0.431310058676824     
 -0.696140615592512     
 -0.221734655916185     
 -0.310615462654391     
  0.828521834574476     
  0.656062010129457     
  -1.01737090385758     
  0.539194540843592     
 -0.118976044215016     
  1.081404237826625E-002
  0.328498749667448     
  0.416983518988241     
 -0.498801650014826     
  0.693787883429128     
  -1.12305962139241     
 -0.758864405373324     
 -0.995764617918690     
   1.28286551635586     
  -1.01058262275723     
  0.785758488527348     
 -0.924853288267907     
 -0.221849242345048     
   1.04968200067305     
  -1.38259988977221     
  0.960179056707408     
  0.334650907625849     
  0.176121110435042     
  0.204763864277444     
 -0.688201164409767     
 -0.427316980270124     
   1.02421831354983     
  0.810376901652806     
  0.293096199086304     
  0.253640994754903     
  0.290920732975287     
  0.367461106562397     
   1.03591216016916     
 -0.522901885337624     
  0.312001775866638     
  0.215380812660520     
  0.710731550890061     
  -1.11392964950418     
  0.383522042060510     
  5.807653211764300E-002
  0.117944050228108     
 -0.154582705500637     
 -5.595365183528651E-002
 -0.594680820125618     
 -0.269176428032554     
  2.597571254520841E-002
  0.471934415852815     
 -0.301048250100934     
  0.514602861678571     
  0.543493095736901     
  0.531633220483463     
  2.721283032261153E-002
  1.520519390332885E-002
  0.247203567378859     
  0.279660481915865     
 -6.860896134252968E-002
  0.488268688139870     
 -0.515962696340809     
 -2.717432493674966E-002
  0.438259319591704     
  0.266073823550296     
  0.819406197820503     
 -0.673472708928076     
  0.315017330488160     
  -1.13503783207066     
  0.358303619293994     
 -0.416866833931312     
  0.354991857130932     
 -0.506221101835974     
 -0.147709741781560     
  5.851001278026583E-002
 -1.876705820251951E-002
  0.439056448721586     
  0.370453392390733     
  0.763942935656368     
 -0.237164359014438     
 -2.310710714644418E-002
  0.194646901334853     
 -0.570685326866325     
  0.408669874714908     
  0.170422388468491     
 -0.465285299678647     
 -0.271875186365747     
 -0.299155654013030     
 -0.265802458725413     
 -3.605609356336593E-002
 -0.354983421274614     
 -0.435122260457715     
   1.09608058855693     
  -1.55547421922420     
  0.514631055663050     
  -1.52304221129819     
  0.295663453997853     
  0.801113008897659     
  0.124298423634388     
 -0.484669156994785     
  -2.53813214649264     
 -8.038290523936331E-002
  0.762266500642494     
  -1.11218846908743     
 -0.135875214666346     
 -0.111321049754447     
  -1.98944765615918     
  -1.51052060464834     
 -0.741368862896009     
  -1.67522801990474     
  0.249230470066798     
  0.383450089295611     
   2.17916926107240     
  -1.37407182422308     
  0.469095107593756     
  4.872425167253504E-002
  0.494793424889348     
   1.81975385515438     
  -1.64401976389388     
  0.849032091728872     
  0.276631589602335     
 -0.159923812943865     
 -0.259896449987159     
 -0.708361447635613     
   1.69830758439835     
  -2.91650003612247     
   1.27645840340087     
 -0.356762222470179     
 -0.116989374317292     
 -0.665860333865108     
   1.67701105456175     
 -0.317061992551759     
   1.73191197863598     
 -0.211496501860089     
   1.47340428654679     
  0.693745745720913     
 -0.363902314364917     
  0.892958716057565     
   1.42950265451164     
  0.495468389318057     
 -0.260952584818706     
 -8.635690037414512E-002
  8.401838529049327E-002
  0.553098867819683     
 -0.463521612167016     
   1.18114222912665     
   1.26289407083899     
  0.366221518383106     
 -0.700992925880068     
 -0.952363883036200     
 -0.227556706078546     
  1.479197135196489E-002
  0.295837277026985     
 -0.332039044527200     
 -1.632475837100240E-002
  0.330020848930225     
  0.791703998924656     
 -0.728167578895891     
  0.469188851454037     
  0.624910169283592     
  0.856385541107076     
  0.183275821353325     
  -1.38536770897140     
 -0.489948813697279     
  4.020817069341009E-002
  0.313870304775235     
 -0.274558664405349     
  0.108085637188645     
 -7.132218207736227E-002
  4.114212801635376E-002
  4.045084123457897E-002
 -0.867543623005877     
  0.630479526834628     
  0.476538375666003     
 -0.831165207393364     
 -8.159051800082165E-002
  0.349614589921979     
  -1.20461725712343     
  0.932393528571349     
 -0.127400025422912     
  0.909613806211073     
  0.740449393117734     
  0.597672483744018     
  0.573584754828380     
 -0.434684689255925     
  0.571815932052435     
  9.128628880330891E-003
 -0.593174092651738     
  0.307878624038317     
 -0.116681819947345     
 -1.055474574549256E-002
  0.597717617993334     
 -7.835638269841048E-002
 -4.980403051014289E-002
  0.649999396598768     
 -0.175989762458675     
  0.339528541035770     
  0.275790042598046     
   1.36082409049108     
  0.259138950969252     
  0.184623306679233     
 -0.188423953185560     
  0.876359943723192     
  0.139635136643885     
  0.739766135605948     
 -0.563087128237533     
 -0.214598542612685     
  0.520049690212917     
 -0.586353162885836     
  0.324186909745983     
  -1.01337949256628     
  0.240607315408530     
  -1.27420763799311     
 -6.731884663939799E-002
  -1.33081847462702     
 -0.561696095994874     
  9.432656236942236E-002
  0.205832648555328     
 -0.193109730935962     
  0.170418561558086     
  0.250756428060955     
  0.264758731849726     
 -0.412807221008910     
  0.138904609859600     
 -0.735146812209923     
 -7.895844780860406E-002
 -0.250103418696691     
  0.350607778975441     
  0.460474027306301     
 -0.546978563271555     
  0.778117702447462     
  9.820593633900773E-002
 -0.330328235941369     
 -0.157919499386530     
 -0.705386975193469     
 -0.186290682391858     
  8.431336322909087E-002
 -2.546034760709554E-002
 -0.343766884749466     
  0.181762065493519     
  0.658545152730116     
  6.526179510341762E-002
  0.947244604654526     
 -2.140842749897370E-002
  0.116898458688714     
  0.482351872372185     
 -0.471195136410306     
  0.233929375442244     
 -0.229019791506721     
 -0.209302269632166     
  0.187358568709231     
 -0.331384960389841     
  0.164977839361723     
 -0.379917386570690     
  0.701415416295294     
 -0.243121191894747     
 -0.115428275932633     
 -0.401410872107498     
 -4.005924752387281E-002
 -0.146732248355003     
  0.723656889549396     
 -0.363686733786743     
  0.201531625458464     
 -0.196631360501538     
  0.149372578701204     
  0.250704821034171     
  6.014280419524989E-003
 -3.189358765164759E-002
  0.307213861159723     
  4.734157674300300E-002
 -0.348960140233133     
 -0.369014284373963     
 -0.664597837606149     
 -0.397869757751320     
 -0.574402647922454     
 -0.325629692871535     
 -0.546757608771807     
 -0.151245745447555     
  2.033298571078788E-002
 -0.143131410544496     
 -0.169701588568181     
 -0.166903137402439     
 -8.690070234348567E-002
 -0.457188594700084     
  0.366520298839454     
 -0.171438219191118     
 -0.813303772409581     
  0.302452742103189     
 -0.203316773166048     
  0.176777901251557     
  0.123450764237415     
  0.112190883025286     
 -7.962419761118217E-002
  0.121937593966897     
  0.101078068176658     
  0.174603621665887     
  0.326405569415636     
 -0.179056398321187     
  0.319075732897586     
  7.999280677884903E-002
  0.724590803456603     
  -1.05631833601470     
   1.02487679783292     
  -1.04489335200725     
 -0.101147061600150     
 -7.224774870108554E-003
 -6.743606240232150E-002
 -5.840178489862803E-002
 -0.563326001391095     
  0.430592365919364     
 -0.869446629192427     
  2.157025309288913E-002
 -0.239672683424520     
  1.144822441655730E-002
 -2.748689101414985E-002
 -0.151449860043591     
  0.775059133580130     
  0.410296794641865     
  0.260945177323016     
  0.361616642766883     
 -0.318727594377525     
 -0.192176086864056     
 -7.116469632584094E-002
 -0.143715991421582     
  0.606067017755733     
 -0.118624997404567     
  0.549944911094684     
  0.357141249735449     
 -0.660948367448962     
  0.352859749522522     
 -0.392589994087601     
  0.725646266244596     
 -0.575659491944713     
  0.447149527575560     
  0.286067818648782     
 -8.565171797232031E-002
 -0.425509060251352     
   1.41764208010677     
 -0.798533386300586     
  5.160358200284968E-002
  0.900900065443273     
  0.317579116392986     
  5.013580795161509E-002
  0.542726617407494     
 -0.223899193354379     
  0.171751793049029     
 -0.208320121344059     
 -0.741498769489334     
  -1.24808590464356     
 -3.984958994189534E-002
  0.444366184916214     
   1.15089379279745     
  0.957693115669937     
 -0.881271628866478     
  0.289569281447778     
 -0.175384207213681     
 -0.549523253440911     
  0.277090714579589     
  0.401296444755386     
 -0.436602467443088     
  0.459287540555695     
 -0.263728198377221     
  0.472875203041602     
  0.645936443662850     
 -0.473142664835626     
 -0.446128055131298     
 -0.798956907064001     
  -1.21579866414764     
  0.265323546308448     
 -0.141990843653252     
  0.294346022684985     
  -1.48882076134841     
 -0.334559800506185     
 -0.605686616179773     
  -1.00220748251027     
 -0.782074767962843     
 -0.209970423048548     
 -0.205565002561395     
  7.037978500521139E-002
  0.656391837947134     
 -0.449967289739719     
 -0.178933551799521     
  0.544900438846445     
 -0.852079107300967     
  0.214224145869964     
 -0.497061292335534     
 -0.108081331985811     
 -0.236325272379105     
 -7.613157372104405E-002
  0.528779083865104     
  0.155130386168273     
 -0.565369544195907     
 -0.964078820564790     
  0.364971723744405     
  -1.09143026666731     
 -3.890205886625746E-002
  0.190734401900836     
  0.712796372767691     
  0.166866328701639     
 -6.670961181965385E-002
  0.787778998444238     
  0.588108656252572     
 -0.743081531366253     
  0.403805702380850     
  0.424409350666112     
  0.148912791778978     
  0.867065927884411     
  8.973811951963739E-003
  0.530433319637683     
 -0.254910115508924     
 -5.836009321516929E-002
  0.662567422237827     
 -0.589244901066107     
 -0.222305504803417     
  0.128873606979361     
 -0.363544891377527     
 -0.186451974333079     
  0.420744618015407     
 -0.294199273277288     
  3.880069667406227E-002
 -0.490332776074810     
  -1.07418266959325     
  0.157869925962582     
 -0.379763062416104     
  0.708730565739487     
 -0.288934679199907     
   1.16897995870089     
 -0.106764228175200     
  2.252423303659491E-003
 -0.277208143493998     
   1.60184438347785     
  -1.55039943697214     
 -0.252453854158638     
 -0.133047435928263     
  0.738142309898828     
 -0.192774338873045     
  8.854722486810917E-003
 -2.737836042208264E-002
 -1.115828576789922E-002
 -2.220046128350786E-002
  0.533004592632535     
 -0.178531450830981     
  0.581677418208054     
   1.04048448798578     
  0.344724178929602     
 -0.472077536220815     
 -0.361725247618585     
  8.395192492713296E-002
  0.714596262085234     
  -1.00310320359849     
  3.601265870294910E-002
  9.159473579277770E-002
 -0.611773142457583     
 -0.105848483695627     
 -0.495951703100169     
 -9.535377057677256E-002
 -0.129533565795176     
  0.168575583755229     
 -4.470785257315290E-003
  0.194485587069156     
 -0.319555004754427     
  0.239022946186314     
   1.06226472935067     
 -6.164485451467961E-004
   1.10172408923816     
 -0.259613793258165     
 -0.198368609728957     
  0.606329573860358     
  0.245828396679859     
  0.177247082193209     
  0.601189550306567     
  0.254685385635812     
 -0.272431200392599     
 -0.112426992620092     
 -0.476296275201847     
  0.475364853637356     
 -0.345442090706751     
  5.759010280026070E-002
 -0.219418660172507     
  0.554026870650233     
  0.207391820896604     
  0.244527028014497     
 -0.926110237716439     
  0.207264705075099     
 -0.351303418503612     
 -0.869755411252198     
 -0.477212095222223     
 -0.352843555542583     
 -6.647539158832505E-002
  8.501489127850648E-002
 -0.303181178499085     
  8.493318410825725E-002
 -7.721106056651370E-002
  0.638284275917255     
 -5.902572561652601E-002
  0.381738228665403     
 -0.427260686323709     
 -1.293045761974724E-002
 -6.748899814605365E-002
  0.152287543788228     
  0.476560508051635     
 -0.311315172192386     
  0.234930878092463     
  0.336987300445045     
 -6.470758532847627E-002
 -2.770443998393235E-002
  0.137566143845008     
  0.494578618806616     
 -0.420315538348710     
 -0.110242162662431     
 -0.229343234436449     
 -0.322157587635861     
  0.409858458424288     
  0.180568183783886     
  0.549850939929673     
  0.504556926667870     
 -0.538099190043505     
   1.08454359533572     
 -0.210865094919505     
  0.335914013345676     
  0.541051467493335     
  8.360090138656615E-002
  0.332144848095173     
  0.770985819024347     
 -0.732843690304250     
 -0.118248769192234     
   2.66893485227234     
 -0.118708206446951     
  -2.25123589794897     
  0.304668413368695     
  0.519702755552687     
   1.42931258026627     
 -0.231880275338518     
 -0.105588288948463     
  0.564705248394837     
  0.103503717300473     
  0.305820947805444     
  0.123007186527674     
 -0.493348234771755     
  0.607917282950722     
  0.856327497706947     
 -0.148055817171718     
 -0.483114101366291     
 -4.868625807275449E-002
   1.14589768310901     
  0.192047353048641     
 -0.571400698621406     
  -1.52916029791618     
  2.786504295054931E-002
   1.23483242838617     
 -0.340096074258617     
 -0.340025533138781     
  0.242911404107671     
 -0.330842341236198     
  7.480078600204077E-003
   1.64325711701952     
  -1.74969048166393     
  0.328472303308989     
  0.462424597230151     
  6.638326880183658E-002
   2.54276754187340     
   1.09230491130408     
  0.646870841270695     
  0.953284326944821     
 -0.967296688802607     
 -0.250869154748958     
 -2.554985250599445E-002
  0.540478483781239     
 -0.413292130032736     
  0.196923365047421     
  0.642514659995231     
  5.045975404562916E-002
 -3.515436535242812E-002
  1.336061173698762E-002
  0.451585994197091     
 -0.811886312884129     
  4.080271314192975E-002
 -0.178558381743367     
  0.173696354688522     
 -0.422937964413589     
  2.369947004086035E-002
   1.22325836424663     
  0.229452194087618     
 -0.132884517135504     
 -0.139111637245063     
  0.270456344233798     
  0.355861719293830     
  7.925741133904964E-002
 -0.322207279603577     
  0.190497982991424     
 -7.757409994324124E-002
  0.529404882852550     
  0.475741531785794     
 -0.210466969177063     
 -8.408032320620794E-002
  0.269894436379510     
 -0.540094642638532     
  0.471200395565779     
 -0.381278186115599     
 -0.175668471935803     
 -0.102074028789983     
 -0.114564030968810     
  3.779990722635259E-002
  0.545520408748453     
 -0.419982340259602     
 -7.361944533577346E-002
  0.235220245947303     
 -1.008779072843074E-002
  0.348026816172950     
  0.279492345256039     
  0.247400083774884     
  0.296800394812240     
  0.433075223256055     
  -1.04233211870566     
  0.726117409102847     
  3.878742908142224E-002
 -0.269691577571539     
 -0.346361512283058     
 -0.335049417948779     
 -0.174322510933224     
  6.167673041839281E-002
 -0.138170005920245     
 -0.321231815407143     
  0.190899495838069     
 -0.435357649923241     
  0.366551326743159     
  0.687509575960316     
  0.243611827640349     
  9.835048570559070E-002
  0.238410876203104     
 -0.299336037965167     
  0.100373913378327     
 -0.133105101374178     
 -0.115818498934629     
  0.136373082274088     
  8.983229053112986E-002
  0.484894520673731     
 -0.160749026199388     
  0.755405266886452     
 -0.742762901393772     
  4.599287538369197E-002
 -1.351176025677280E-002
 -0.279324239501855     
 -0.276594612311718     
  0.568243088924242     
 -0.334194253728155     
  6.876054457576478E-002
 -0.106864256390372     
  0.123154264863402     
  7.448305665464797E-002
  0.245911952733891     
  0.441882465811987     
 -0.267931945591871     
  0.255678782875915     
  0.155886669577352     
  3.208252902679194E-002
  0.106309448278268     
 -0.361436591160690     
 -0.244977733363684     
 -0.221489801424049     
 -0.465699148374493     
  0.130662352448702     
 -8.375412912898842E-003
 -0.262489853977209     
 -0.224639150892069     
 -4.234857601144860E-002
 -8.520115943694818E-002
 -0.531047498842873     
  0.754726721103276     
 -0.174440347201678     
  -1.76512385159039     
  0.921169641447669     
  0.577000817997720     
  0.950135498451685     
 -0.333097742175703     
  0.166521326025291     
 -0.340734027854186     
  0.150559275063967     
 -0.587473132368304     
 -0.702905671713954     
 -9.485324955972411E-002
 -0.512617069547390     
 -0.939084168424218     
 -0.775634879757441     
 -0.599302992514598     
 -0.310903388299028     
  0.672088783244947     
 -0.216737325925870     
  0.871893794709469     
  -1.43103971885523     
  0.480457603445393     
 -0.127857167875938     
  0.531503898551127     
 -0.517385340653536     
  0.536621947364533     
  0.796084390875647     
 -0.167474270141531     
  0.396898441956291     
 -0.428975348685105     
  -2.16552493153122     
   2.20225028787676     
 -0.447957460996549     
 -0.205963594790929     
  0.441089121998270     
  0.343824779254073     
  -1.26445683681347     
   1.07800647756777     
  0.152377335273550     
 -0.287748172976212     
  0.599067163959895     
 -5.463829088525955E-002
  0.335417922349058     
  0.193163416315706     
  0.920858611961336     
  0.510309738394032     
  0.308508129585839     
 -0.467467734429473     
  0.242736456686412     
  0.247157672877503     
  -1.04336970195615     
  0.582991437089777     
  0.333343263327290     
 -0.941974573608507     
  0.186743157169735     
  0.712151311334355     
 -0.443210453819237     
 -0.324269492745890     
  0.383018340002506     
 -0.695412276812449     
   1.10879771135578     
 -0.199055963818104     
 -0.134772381175087     
 -0.446190960036981     
  0.637560846176819     
  0.707429646002484     
  -1.06819205481704     
  0.292581558199845     
  0.173130212397367     
  0.166950135204224     
 -8.747936349781385E-002
 -5.762294017424810E-002
 -0.743564592659672     
   1.06635490705565     
  -1.00554136992189     
  0.878670858303751     
 -0.987941796625126     
   1.16752828820908     
   1.66802560719990     
  -1.51381444767611     
 -0.126563105347161     
  0.900680803950542     
  -2.11588096409783     
  0.642865969379181     
  0.633483307844267     
 -6.523609467835408E-002
  0.346766838193206     
 -0.117572004979329     
 -8.896461316231841E-002
 -0.229894041014438     
 -0.802961858103885     
  6.685340952385797E-002
  -1.26240282581403     
  0.431562279610798     
 -0.129572542954724     
  0.145325693918989     
 -0.169276785144814     
  0.152907621709915     
 -0.671568404056569     
 -5.730363887380188E-002
 -0.671335020364804     
  0.435852484207400     
 -0.796597499080966     
  0.711758344488646     
  0.333167979066785     
  0.121039803937787     
 -0.186518699754669     
 -0.358884920392115     
  0.497284071546325     
 -0.142729208847283     
 -0.354240576220555     
 -0.262658402936562     
  0.770747799699711     
 -0.414415897927269     
  0.431710094761407     
 -4.714236532613130E-002
 -0.301561093453478     
  0.976037482370073     
  0.431742208500783     
  0.387817213518769     
 -0.859376289108813     
  0.652910935633553     
  5.752083981967002E-002
  4.209981805239163E-002
 -0.231148818154012     
  5.048706848445079E-002
  0.503386781330948     
 -0.555428384125853     
 -0.421280892380818     
  0.630824521980488     
  1.081059744994244E-002
  0.264342307754865     
 -0.218878349699051     
  -1.03760335270284     
 -0.901712302792118     
 -0.290624479924298     
 -0.510738260856709     
 -0.243581750613038     
 -0.621973689800758     
  0.579313304838026     
 -0.618072176017527     
  0.277229789435123     
  0.739981478787560     
 -0.533279154689783     
  0.286545582703663     
 -3.158305485361446E-002
  4.203635729443666E-002
 -0.725497625705786     
  8.042083430452360E-002
 -0.824581642956205     
  4.972579142623302E-002
 -9.720720263583791E-003
  0.522647592247038     
 -0.182353076631966     
  0.113604078457166     
 -0.268050785738714     
  0.239807215854432     
 -0.390499800270403     
 -0.259696842811121     
 -0.637667049148531     
 -0.231381575782353     
  0.304044979386887     
 -0.385028643417747     
  0.417868127280421     
 -0.131987928616464     
  0.734764868483861     
 -0.191744667913818     
  0.726682352982009     
  0.168572490255930     
  0.547698745097381     
 -0.209489937040321     
  0.146156463652467     
 -3.965475913523159E-002
  7.484125853240768E-002
 -0.191900663029969     
  0.194873689542483     
 -0.246788785666813     
  0.207092729178777     
  0.318954923405005     
  0.453291062255705     
  0.296695725616458     
  0.369853478346728     
 -0.700238181839538     
 -0.147649899586484     
 -0.644749356388796     
 -0.290358815358380     
 -6.116913853242615E-002
  0.333883817132974     
 -0.374666940479852     
  0.512332369624053     
  0.453163106180172     
 -0.379214889205004     
  0.297177666595667     
  0.809593538963572     
  0.107061879644637     
  0.577295659276990     
  0.915147166760243     
   1.29638549365879     
 -0.317616393234281     
   1.19018279210131     
  -1.08523820320761     
 -0.937050625528902     
   2.48465237631171     
  -1.00644724773123     
 -0.218509167352456     
  0.500483929774211     
 -0.479738750687518     
  0.254246810399938     
 -0.305605538250168     
  0.517867040559706     
 -0.926671615797669     
 -0.279142656346714     
  -1.03650155111392     
  0.625105588308877     
  -1.12938971718281     
 -0.128582516428710     
 -0.396886637852815     
 -0.512495905269103     
  0.282504204143753     
 -0.316225787147436     
  0.457100290366038     
 -0.487686668881030     
  -1.25635619809569     
  0.916907004973802     
  0.334215327878885     
  -1.09605595098300     
 -0.518986818094923     
  0.372861153638396     
 -0.666501127906347     
  -1.63206626717971     
 -0.645970391255242     
 -0.437663461373127     
   1.44569421615030     
  -1.23971239045247     
  0.268332523281276     
  -1.54339183158295     
  0.259961224248474     
 -3.171315271847182E-002
  0.626767275843447     
 -0.473125305863533     
  0.164974281756861     
 -7.961094407286025E-002
  0.203696981948322     
 -0.148588988476934     
 -0.332959136736931     
  0.103002029248110     
 -3.178401177787851E-002
  1.099596948075410E-002
  0.338986461123907     
 -0.273682252557935     
 -4.869104714037226E-003
 -0.316209577939968     
  0.191962463516036     
 -0.254618952932064     
 -0.241871395493647     
 -0.356201685113014     
 -2.625946565828810E-002
  0.259318796635088     
 -0.233771867097932     
  0.188493357744409     
 -0.235733594758490     
  0.353465156100273     
 -0.216349385283616     
  0.968416024239839     
 -0.347277419755207     
  0.696596290158862     
 -0.152815563864080     
  0.201795878465061     
  7.304416926920509E-002
  1.265985463325780E-002
  5.219657689372244E-002
 -2.363632675245551E-002
 -0.162485713111917     
 -0.138335486356960     
  1.996465143190135E-002
  0.310566115720683     
  0.166599406973098     
 -0.191926040361524     
 -0.550882669522737     
 -0.448133849552942     
 -0.373372030593107     
 -0.142556877546467     
 -0.250257571988685     
  0.511997181332167     
 -0.497707756059267     
  0.433960648650229     
 
   1.23534597808824     
 -0.346237172170387     
 -0.336828764380994     
 -0.246559038454330     
 -0.529946295619474     
 -0.282473287170814     
 -1.501259232476442E-002
 -0.317286298452914     
  0.105879349160131     
  0.360379900096652     
  0.942321896769235     
  0.515732299159327     
 -0.978956184967939     
  0.157227835244428     
   1.03236872749238     
  0.133849140916426     
  0.821015687447803     
  0.319805711664171     
  0.845673598033471     
  6.634567832342356E-002
 -0.680733843949707     
  -1.19370641334283     
  8.751168677376371E-002
 -0.762984909082146     
  1.427727999732794E-002
 -0.939598130294566     
  9.804927076640686E-002
  0.140993941120113     
   1.42349008777409     
  0.301821769372138     
 
  0.220370804515537     
  -2.10122014060105     
 -0.571558072568164     
 -0.620086468663228     
 -0.126711924527745     
 -0.120575211945960     
 -0.138439253525496     
  -1.25957888633037     
  -2.90925962147131     
  0.548651780439959     
  0.944918217752100     
 -0.772077274703147     
   1.20598153919834     
   1.78313705399491     
  -2.18216657533071     
   2.66837175356741     
   4.05051759020387     
 -0.197508001453988     
  0.587188757460388     
  -1.21624665374003     
   1.92243294296693     
  0.503364740812680     
  0.539898728931249     
  -2.88298212249143     
 -0.344688152816487     
 -0.197540878479230     
  0.906931642159025     
 -0.787713725439210     
 -0.456601190109666     
 -9.958206208195450E-002
 -0.423121914937218     
   1.28495512464420     
  0.113577000445501     
  -1.08454737526052     
  0.322022090453750     
  2.525125571155623E-002
 -0.132951571925416     
   1.73939636678177     
  0.482375411014314     
   1.85146069420724     
  0.118333562946896     
   1.06274436720656     
  -2.05704946278054     
  0.800631396764754     
   1.23598603882785     
  -1.07400140669861     
  0.315901403673434     
  0.358788775993565     
  0.554398086237091     
  0.772128351066959     
   1.31230768461406     
 -0.314599734317697     
 -0.767214725849756     
  0.209885658352730     
  0.749541426922469     
 -0.468179443508258     
 -0.454359417401374     
 -0.222893138109413     
 -1.137812272321250E-002
   1.07521815183241     
  7.846840071389238E-002
 -0.841672948351854     
  0.510434081842943     
   1.97945362985119     
 -0.160106849404565     
 -0.145793814676369     
  0.891104359842387     
 -0.592198220780330     
   1.58237731652964     
 -0.981969524447107     
  0.351987453228475     
  -1.18924801670839     
  0.160675196908633     
  0.536018808174825     
   2.02155528234537     
 -0.570006865887000     
  -3.52568466678786     
  8.331434642713098E-002
 -0.648557364652188     
  0.432582559464835     
 -0.363956702630608     
  -1.82058340141302     
   1.71179768170020     
  0.680913236558660     
 -0.968421996840106     
 -0.126358646196706     
  2.440786447660072E-002
   1.15676503478070     
   1.28225667894819     
 -7.886202728054661E-002
 -0.773144750632901     
  -2.26087219014003     
  0.977675391545816     
   2.67835919298708     
  -2.79467595600997     
 -0.862460011667986     
  0.303489923330033     
  -1.16215264136204     
 -0.384977066223494     
  -1.25599891644923     
   1.76179079663089     
  0.897131201453604     
   2.44514881545396     
 -0.879110063813847     
  0.324915209840595     
  0.599194078229999     
  -1.04346259931098     
   1.21304575547038     
  -1.41941994333110     
 -0.261017658517549     
  0.117758325037221     
  -1.89825357101946     
  0.646453445143511     
   2.42190283289638     
 -0.190707721037193     
  -4.58058509271752     
 -0.838574204094754     
  -1.30852677441699     
 -0.507223848439433     
   2.45148726512528     
 -0.440804056652062     
  0.397210021133164     
 -0.216659893256675     
 -0.897176675779732     
   1.02006242305808     
  -1.16850665588767     
  0.943125414242841     
  0.334751009602733     
  0.484813420120524     
   1.66745434729058     
  0.441363872272253     
  0.339239522828834     
 -0.682675721063805     
  -1.60352391713442     
  -1.01674859042271     
  -1.22239882857306     
  0.456038893461319     
   1.24792703474606     
 -0.896547792001963     
  0.644540549614887     
  0.930017136742298     
 -0.141542374849624     
 -5.211921980105941E-002
 -0.873374117642827     
  0.363831144678630     
   1.60740407646119     
 -0.249657642964316     
  0.710751765772346     
   1.84362131005168     
  0.360903904202423     
  -1.17702043130697     
  -1.21469290020661     
   1.77085410929661     
   1.56266529568233     
  0.268869578174281     
  0.106385543727252     
   1.10027757802919     
  -3.68833870241471     
  0.103433226408184     
  -1.85375038876432     
 -0.345219819386638     
  0.410497868704656     
   3.05690360567337     
 -0.853425948589227     
   2.62290230375562     
  -1.16132438895530     
  0.109272789179574     
  -1.94817211963718     
 -0.172270803045797     
 -0.365529200984627     
  0.879886851765730     
   1.70485720772317     
  0.548864505671306     
 -0.598794675848852     
  -1.72784407884539     
   2.78023175122578     
 -0.418001722322555     
  0.580061888490033     
  1.269211144240462E-002
   1.86539168556696     
  0.599302259318227     
   1.14027668783369     
  0.922419015285961     
  0.166231464305037     
  -1.56169144232495     
 -0.575135775283964     
  -1.40785172937844     
  -1.10657238133672     
  0.276501636082485     
 -0.258532153872131     
 -0.702625252758613     
  0.922164731684977     
  0.434068133337251     
 -0.163645708939930     
  0.144103357995911     
 -0.284238427219087     
  -1.38196582086154     
  8.734368677067569E-002
  -1.43438434468849     
  0.102023510691052     
  -1.65726799086470     
  5.495150635580742E-003
  -1.10926923868753     
  0.269408193462084     
  0.206710584080700     
 -0.187757841183422     
 -0.107606810864255     
  -1.07357939571771     
  0.904178239213677     
  0.935783916422819     
 -7.564222711350392E-002
  0.139968592816373     
  -1.90051816804656     
 -0.215656496072307     
   1.24256690085033     
 -0.357302033563413     
  -1.07446053564160     
  -1.01318317919426     
  0.987611804273466     
  -1.63091760065895     
  0.840814612135375     
  -1.55272544458054     
  -1.90590397189065     
  0.611239932870925     
  -2.60810448310760     
   3.47961666647999     
   2.97202072213389     
   1.10441966937399     
  7.767724580895109E-002
  -1.09190343136137     
   1.41738197994474     
  0.589826291657263     
   1.05200606271698     
  -3.99988761365247     
 -0.419300476188106     
 -0.783650170329233     
  0.672812779410346     
  -1.37023539112790     
  -1.46006709643822     
 -0.441368129579865     
  9.411651371252348E-002
 -0.278807202722736     
  -1.10677785441490     
  -1.31903043595546     
 -0.640818021346961     
  0.287353225428188     
   2.34818232192295     
  -3.22558787200742     
  -1.74774553849173     
  -2.96497316430978     
  8.914993410684292E-002
   1.58769095856895     
  -1.14908328108870     
   2.89571845186693     
 -0.216448937484491     
  -2.59662866336093     
 -0.862247274762804     
  0.244297544527127     
 -0.269631129782167     
 -0.150242829218781     
  -1.23308562577213     
  0.750945110015154     
  -2.96722251945179     
   2.61791263706268     
  0.294734289021211     
 -0.839782202450350     
  0.758793350010610     
   2.18978908794075     
  0.978276637335339     
  -1.49206748381488     
 -0.318616878061529     
  0.927133345554050     
  0.488290449839108     
 -2.836901378228256E-002
   1.33361476580107     
 -0.286900932250892     
   1.45288647079444     
 -0.457221734951234     
  0.701063993991897     
 -0.159249432856455     
 -0.722373933490023     
  0.646360419678327     
  -1.17199371311742     
 -0.406387555320195     
   1.20757395497540     
  -2.77785677577072     
 -0.486444748040308     
 -0.253334976761480     
 -0.325074101958033     
   1.10855692210947     
  0.108029555383486     
 -0.622393113125332     
 -0.734373458486207     
  0.550609478819294     
   1.07786471854320     
   1.38476370624882     
  0.728231402792532     
   2.05682653404883     
  0.851339199830269     
 -0.570298274402648     
   1.41833680572995     
   1.03369511223820     
   1.65006822764088     
  0.193547853207008     
 -0.489177274919279     
  -1.43003753827858     
  0.427620522165695     
  0.828547705950363     
 -0.802386104990713     
   1.76504940803221     
 -0.720269701968605     
  0.349117080035972     
  1.977848716705687E-002
  0.344222070990422     
   2.05618743687413     
  -2.07304259315388     
  -2.24747711642773     
  0.322812845110851     
 -0.847402299570884     
   1.06619203721302     
 -0.759642679735985     
 -4.813651954149772E-003
 -0.496570301762547     
   2.08530463507731     
 -0.343199639395418     
  -1.41583000545294     
   1.60636709412306     
   1.89423112660408     
  0.352382031778527     
 -0.586037737938271     
  0.366038757596934     
  -1.48819163788928     
   1.37428020081522     
  -2.02261563159135     
  -1.23593848471553     
   1.94439394635605     
   1.00704822821011     
  0.138964390961449     
 -0.958174049762550     
   1.11853339406033     
   3.14851370859155     
  0.735057691385539     
 -0.857318802420878     
 -3.313412326933399E-002
 -6.577687112738863E-002
  -2.93807438817869     
  -1.23783722092083     
 -0.605538984342391     
   1.31026572016156     
   1.72437766151142     
 -0.226799949529194     
 -0.266086380412733     
  -3.18265251990738     
   4.97601207573733     
 -0.220808840068975     
  0.938403966598476     
 -0.833881606359366     
  0.861506217166253     
  0.155699935188095     
  -1.16968490784144     
  0.789523654733048     
  0.297633752820922     
   1.94871295545919     
 -0.754186597708068     
 -0.700037056634823     
 -0.255409440789606     
   1.10027874387665     
   1.08361495338121     
   1.22405651551528     
   2.09801640388911     
 -0.825083490478244     
   1.05088858193578     
  4.476008352691960E-002
  1.872223101078405E-002
  0.916215387174665     
  -4.41725467814667     
  -1.46159043895863     
  0.292555297003111     
  0.301901958214117     
   1.34957855485934     
 -0.237006426625182     
 -0.384827037705039     
  -1.81021253563315     
   4.21846988063944     
  1.158878390208463E-002
  0.105245051046108     
 -3.363880405219821E-003
   1.09272869640254     
   1.06652963237211     
  0.197798864963931     
  0.228846738195884     
 -0.269992467701839     
 -0.422348373838034     
  -1.16201768521660     
   2.41243766930214     
  0.761951912320360     
  0.137622849787644     
  -1.33429999653150     
 -0.875821869529053     
  0.331412370816211     
   1.43224488639956     
  -1.14021217868691     
  -2.11349884146394     
  0.379617440510158     
  -2.45616967104703     
   2.26823663289653     
  0.357613150610894     
  0.151250415984736     
  0.535659859728342     
  0.538147950413185     
  4.779137339423181E-002
 -0.511259394242022     
 -0.994240655477079     
  -2.74112775771067     
 -0.410951196110814     
   2.42207999735126     
 -0.589764470106697     
   1.28452319871973     
 -0.541037286392355     
  -2.02268108364286     
  0.156260512320885     
  0.831511502666197     
  -1.82882786750046     
   1.78101566644559     
  -1.08066382423620     
  0.738961953443494     
 -0.184549341084330     
 -7.426352851332993E-002
  0.849643307889171     
 -0.401654814328836     
 -0.898269489609820     
  0.660631246404572     
   2.14381778323750     
  7.632313545336871E-003
  0.891518729241215     
  0.688274679900469     
 -0.458377585161733     
 -0.365484516475623     
  0.117098027230561     
 -0.265789676818846     
 -0.114633624790637     
 -0.467438477928022     
  0.610114673933667     
 -0.640679190992819     
 -0.331560262892508     
 -0.693338036566567     
 -0.344959039990337     
  -1.19911392053108     
 -0.968153267673264     
   1.03399479062757     
  0.369304661631538     
  0.766880512097839     
  -1.34472752696622     
  0.401933058887419     
 -0.155556355508443     
  5.028562089160739E-002
  0.168262235262864     
 -0.423365697474992     
  0.231414608836296     
  -2.31308219729712     
 -6.258407381285747E-002
  0.336733941842267     
   1.05952624768538     
 -0.266260943752874     
 -0.142779776024018     
  0.460180605636404     
  0.602282539671229     
  3.992654868665484E-002
 -0.630416004507469     
  -1.82267707861004     
   1.00814551357588     
   1.65998446787845     
   1.62234512089461     
 -0.879522963289879     
  0.686873253406864     
  -1.67624933267422     
 -9.282179076252801E-003
  -2.60174912789280     
  -1.56735444325044     
   2.56245800247449     
  -2.18800824328099     
  -1.25661841319240     
  0.624232328196247     
 -0.469928299071941     
 -0.477012026658167     
 -0.418412339237234     
 -0.955911387679108     
 -0.959093193468499     
 -0.608836449238290     
  -2.14820649800208     
   1.41314680509792     
  0.302708815239230     
   1.21692146768054     
 -0.894005986592697     
  -1.64106214391923     
  -1.13233302311015     
 -3.590578324247355E-002
   1.75214316214509     
 -0.370985835349033     
  0.796215163062232     
  0.271954563724247     
  0.577409374761940     
 -8.366801499763998E-002
  0.332637355280913     
  0.885628002318364     
 -0.863416594550326     
  -3.75502084450946     
  -1.61991496839044     
   3.63790744024537     
   3.07120520129643     
  9.604543952247130E-002
 -0.593424923504978     
  -1.09818734210311     
  -1.52011577987579     
  -1.47788761866248     
 -0.406418688544094     
 -0.925222265704426     
  -1.36109318439462     
  -1.14229377821229     
 -0.709610857778152     
 -0.502943835609452     
   1.28503649136910     
   1.19555729541531     
   1.23121473551835     
  -1.25427839075930     
 -6.249938588900153E-002
  0.840631499894934     
  0.402011911942859     
 -0.831110488226383     
   1.98543199553569     
 -0.247621634408624     
  0.689535458653282     
  -1.47784471125003     
   1.20741620621660     
  0.189694521782072     
 -0.518781078694772     
  0.799580141446976     
   1.16025396466610     
 -0.966366609064272     
   1.37801523314067     
 -0.757578917754655     
  -1.18176615031861     
 -2.302510288051158E-002
  0.863254880323853     
   1.28531876305572     
 -0.146432081426189     
   1.18559699644189     
  0.913454012434799     
   1.47931487720860     
  0.363220112803745     
  0.480992394650564     
  -1.99799772447541     
 -0.837569468141281     
 -0.884966159570208     
  0.138013546696692     
  -2.05341001858391     
 -0.680951835448656     
  0.851086842173446     
  0.478190540686198     
 -0.832616067822943     
 -0.386966124866045     
 -0.287986796378257     
   1.35742477471654     
  3.910255815570245E-002
  0.257841440283157     
 -0.596937047839443     
 -0.184155381491198     
  -2.06434223430093     
  0.510884523693681     
   1.39327799754471     
  2.360970607890315E-002
 -0.242165270793459     
 -0.373386371835681     
 -0.188441434849443     
 -0.741362225623389     
   1.07516078766256     
  0.938239561983775     
 -0.496155731988665     
   1.49052850497868     
  8.874877336410092E-002
  0.174027969743024     
 -0.129492456051427     
 -0.532289400619906     
 -0.174725252404477     
 -0.898763882842284     
 -0.288698851674465     
   1.44252323487201     
 -0.366383918621373     
  0.665745719576498     
 -0.847907082992341     
   1.51789273963427     
  0.691795039858130     
  9.536467388875391E-002
   1.85673093521671     
 -0.849333775415284     
 -0.295356721726936     
  0.418606750756284     
  -1.14658026017508     
  -1.31106267730707     
   1.64004838588612     
 -0.631372457687204     
   1.74737597000339     
  0.208238784200882     
  0.662276590672038     
   1.03951894218232     
  -1.12828249318822     
  0.593062843071668     
 -2.540368432623536E-002
   1.31181246637086     
   1.03411963612740     
 -0.746617703415215     
 -0.198345388852432     
 -0.815246344458556     
  -1.10951559746155     
  0.246175512325330     
 -0.833767138045356     
  0.188451456350705     
 -0.826305436950581     
  0.425001925943149     
  0.599581999756548     
  -1.05017235071201     
  0.652558566280420     
 -0.545876094168656     
 -0.990309515663256     
  0.113867304651363     
   1.36201455121319     
 -0.716991719615839     
  0.663145814511067     
 -5.517019158449340E-002
  3.627588962971718E-002
  0.970023209242453     
   1.13855799281470     
   2.93170531939789     
   1.95385717339660     
  0.768874956994124     
   1.84545605747894     
 -0.911687438726866     
   2.55890330932069     
  0.894999340233766     
  0.927140309714921     
 -0.698216782666760     
  0.184813912075634     
 -0.865684543669111     
  0.478618558256047     
   1.34026562674035     
   2.05705465503781     
  0.778586212868081     
  -1.14146839801112     
   1.32611820991340     
  -1.89938462524524     
 -0.677131963068827     
  9.852583262709040E-002
  0.989165442383940     
  -1.71439679982068     
  0.101131596942888     
  -2.17834608681233     
  0.162501351153250     
  -2.40773551313631     
 -0.888556616867682     
  -1.05750551820848     
 -0.730726119217572     
  0.966680439348439     
   2.79219505766080     
  0.167149259109945     
 -0.916385998584981     
   1.01673623694371     
  0.928707888956697     
  -2.52685565081293     
 -0.862868827617313     
  0.874887406312949     
 -0.671544018049187     
   1.02925933554664     
 -0.254399302641630     
  0.621660422177919     
  0.816529571097091     
 -0.998750283353067     
  -1.23158178518957     
 -0.923337679054384     
 -0.132810250785431     
   1.55066131245950     
 -0.821455672047792     
   1.31694365763900     
  -1.16311799987142     
  0.899312546394121     
 -0.126875590977167     
   2.70309412727952     
 -0.358756199317353     
  0.683258982171489     
   1.91280016170017     
   1.09426117083041     
 -0.281049080803582     
  0.506720609993495     
 -0.205662273645472     
 -0.609728302530896     
 -0.424064192502012     
 -0.395851785763200     
 -0.111998472635167     
  1.737500046266802E-002
 -0.105213431132075     
 -0.335250927059098     
  0.237360611419682     
  0.831184146218570     
 -0.308123133297298     
 -0.270873450998008     
  -1.14779334518061     
  3.068519826220063E-002
 -0.741102737029386     
  0.625682387796865     
  0.628527911063126     
   1.05070757732329     
  0.233851011727280     
  0.466535644261373     
 -0.736110613143169     
  0.723392668816702     
 -0.458948152676082     
 -0.469324179021693     
  -1.42236191707042     
 -5.981447641744098E-002
   1.33831792216620     
 -0.212687564316473     
  0.305584688454081     
  -1.08222550903079     
  3.599860223204103E-002
 -8.398048380067050E-002
  0.788237372169448     
   1.27051817765279     
  0.835768145178180     
  0.623005613638206     
  -1.22002367312470     
  0.624118111349931     
  0.992475291322947     
   1.86420300322916     
  0.818919661746374     
   1.16277236667378     
 -0.440670782374463     
  0.546823376122466     
 -4.142924599089187E-003
 -0.508947463181325     
  9.928015892130487E-002
 -0.276567283969069     
  0.360671125503496     
  0.448901516779756     
 -0.955811515240499     
  -2.14286324116206     
  0.412836441293780     
 -0.133219928113697     
  0.636064232136794     
 -0.586457720816536     
  -2.06269931119305     
   1.00406379623865     
 -0.161792347848648     
   1.40625899235275     
  0.712445273020313     
  0.419927008243733     
 -4.427293166802685E-002
  0.392187710036286     
  0.562435543503819     
 -0.256881154617662     
  5.970540374259863E-002
 -0.859414539950919     
  0.137711356233233     
  0.573085637749484     
 -0.736817836778400     
 -0.921463911363096     
  0.189951628334423     
  -1.13006863405398     
 -0.904738482335955     
 -0.308493149563680     
 -0.150125307730874     
  0.666651583786162     
 -7.122611278404020E-002
 -0.740545942787945     
 -0.360208781385984     
  0.684105670454212     
  0.185379372651927     
  0.480007393714313     
 -0.626724669178345     
   1.08834470640550     
  0.453369095176314     
  -1.64986298865950     
  2.669598636660675E-002
  0.414957847665766     
 -9.498918795899687E-002
   1.29232863605451     
  0.213661342139161     
 -0.717612657898106     
  3.832544520831521E-002
  0.366153835641741     
  0.413112822580154     
 -0.980025538714697     
 -0.228574063099342     
 -6.840215590122936E-002
  -1.95109598050079     
 -0.273681900171817     
  0.979392669354791     
  0.595054662457152     
  0.169834968959542     
  0.262069135518592     
 -0.602886395345326     
 -0.753399039546842     
  0.494576531761444     
 -0.534965196818757     
   1.92097301413563     
 -0.771600852854177     
 -0.251499529951440     
 -0.704229831844523     
  0.370464234545797     
 -0.263227154565651     
  0.458728198434801     
  0.177669514769415     
  -1.45791260721176     
  -2.20907515384315     
 -0.990668879031124     
 -0.792130475984269     
  0.465114176295100     
  0.551640013315853     
 -0.839387519470227     
  -1.19938123504726     
  -1.35478928763564     
 -0.717284444229817     
   1.08078686268229     
  -2.18342471751425     
   1.77738357395311     
 -0.165428586177681     
  0.227892621526609     
   1.19175109059638     
  0.722670435801044     
   1.30389666372588     
  0.467936050789398     
 -0.953108437592103     
 -0.295358377505183     
   1.51444346425922     
  5.111986927618922E-003
  -1.13801589515550     
  0.657553283248705     
  -1.15468750778337     
 -0.527588314185853     
  -1.93652923925305     
  -1.33499548868541     
 -0.572470345857084     
  0.372494322181260     
   1.39018555566110     
  0.112897976284048     
 -0.100122248204065     
 -0.756186068256709     
  0.422716192718836     
  0.901165899619927     
 -6.909060809322132E-002
  -1.64453953527220     
   1.17513645892122     
   1.99995999942184     
 -2.931836208780678E-002
  -1.17170932370210     
   1.35276790280800     
 -0.554628369093622     
 -0.624855662838789     
  -1.60666109007826     
  0.209913494647260     
 -0.154418218598596     
  0.282755869257768     
  0.330679558307484     
 -0.200662421607883     
  0.443942297479626     
   1.47838734638469     
 -0.319077879176921     
  0.488371988863346     
 -0.311129729857654     
 -4.204545892376116E-002
  0.486660787926376     
  0.306817138048483     
  1.328849269548714E-002
  -1.01222722323716     
  0.130123976661394     
  0.110322956800956     
 -0.673572377270793     
   1.19290552905581     
 -0.151328879242363     
 -0.373208108976095     
  0.655843918751331     
  -1.42111368040790     
 -0.809900269694727     
   1.27743616778820     
  0.565260733747366     
  0.428383245415046     
  0.822486466489104     
  9.077649226409459E-002
 -0.330931533654567     
 -0.902388316431613     
  0.395413732459668     
  0.333724565231047     
  0.497489130216852     
 -0.779304134854761     
 -1.263496956829292E-004
   1.04410761079741     
 -0.109254092330149     
   2.12581800831339     
  7.635110317707142E-003
  0.164596016034886     
  0.900145867643945     
 -0.360331276850093     
 
 -0.353694041162922     
  -2.62569468187878     
  -2.53754549940808     
  -2.44305351138977     
  0.398797678185643     
  -1.47994514227810     
   2.40628153950977     
  -1.85403827957748     
 -0.496777692980941     
   1.89124781181867     
 -0.601771610900939     
  -1.75835111327071     
 -0.720552078934176     
 -0.275911392227603     
 -0.461863986341777     
   1.53569225677024     
  0.991057059768612     
   1.39088411169501     
 -0.855707116194428     
  -2.16088838062279     
  -1.37184162657763     
  -1.44128423632831     
  -1.39657580409532     
 -0.330859499765723     
 -0.706654204086994     
   2.79075220381055     
  -3.20444932468650     
   1.48787599844426     
  -1.44896852349134     
   1.15721042711152     
 
 -9.685230941624320E-002
  0.156500917629948     
  0.141146967668580     
  7.099532594232827E-002
 -0.350130972997198     
  0.134309577609305     
 -0.859096420860729     
  0.320936319995436     
  7.186562303059323E-002
 -0.217507737000113     
  0.385276644907340     
 -0.186742655316889     
 -0.217644662684756     
  0.120147121075943     
 -0.450755090143267     
  0.210624214396433     
 -0.946535306288379     
 -0.166162139023816     
  0.216161917366695     
 -0.321122162029791     
 -0.233946711252337     
 -8.671761153902428E-002
  0.140677607656142     
  0.696844038955599     
  0.194145127270915     
  0.678591037226292     
 -0.573205361788987     
 -5.225931439392472E-002
 -0.124946945048855     
  0.339507065771457     
 
 -5.867917611500750E-002
 
  tansig  tansig 
