     48 -    30 -    30 -     1 
rmse=  52.7287meV
   1.00583476360851     
 -0.704489893302043     
  -1.25774542933672     
  0.738992504679926     
   1.84924768465442     
 -0.113690850647553     
  0.224245698442021     
 -0.146451137499799     
  0.805134410733662     
 -9.571806804026083E-002
 -0.507449076830029     
 -0.111688723953749     
  0.101779747086459     
 -5.426133243604885E-002
 -0.522901312859204     
  0.535113606701954     
 -2.495570784758299E-002
   1.80507636839820     
  6.854528514532043E-002
  -2.31878827895767     
   1.50187977995836     
  0.224064586363829     
  -1.52179666361647     
  0.597613953589625     
  0.721436648325556     
  0.176450704036905     
  0.275974266248468     
  0.254899035361528     
  0.358053495452421     
 -0.460492809957152     
  5.263715773437589E-002
 -0.173970986802156     
  -1.06829476410347     
 -0.275397906624371     
  -1.05013257237572     
  -1.40954144514258     
 -0.657856182949981     
  0.748295422626734     
  0.103750878959600     
 -0.632148917609019     
 -0.762772795419546     
  0.290352892379739     
  0.615342632938150     
 -0.289843918523736     
  0.334914636421395     
  0.410358476134584     
  0.703598225913122     
 -0.464089045626156     
   1.14942957488466     
   1.02385739657386     
  -1.77852641736056     
 -0.576740360801072     
  -1.33191414912889     
  -1.72295241348479     
 -0.902987942309766     
  6.883583797661282E-002
 -0.426264971896231     
  0.188729631411255     
 -1.252837556023792E-002
  0.835256740717779     
 -2.690315725323978E-004
 -0.723201753102009     
  5.904569272561183E-002
 -0.386566408628835     
 -0.633112482948725     
  0.329735978791694     
 -0.427535071832390     
  0.170660640847148     
   1.31473041533854     
  0.488442382770631     
  0.240885588706061     
 -0.449729462053626     
  0.422153451523429     
  6.489044451020186E-002
 -0.820353969225938     
 -0.609000709869193     
  9.751958960844495E-002
  0.451541218781961     
  0.418537669942181     
  0.314718283750194     
  0.405335854539548     
 -0.846799822137183     
  0.635878888558832     
  0.178251608446433     
  0.409301545699191     
 -0.573941042050244     
  0.282361975484476     
  0.415546953569871     
  0.300297961026936     
 -0.200150277052567     
  0.221724312613246     
 -0.469674866700043     
 -0.183641997675710     
 -0.431014467716372     
 -7.563943995668165E-002
 -0.501528111408775     
  -1.05539842234461     
  0.594102197075585     
 -0.635029295350515     
 -0.214923468082870     
 -0.421859750026654     
  0.699637502586215     
 -0.617737748247444     
  0.119145486762048     
 -0.219452718084105     
  0.661429751817177     
 -0.922474980146834     
  0.131604941142991     
  0.844076454156426     
  0.175794505823986     
 -0.561519927168969     
  0.586781351446817     
 -0.841726408717850     
  -1.69378988651150     
  0.688253660166109     
  0.673914679329573     
  0.332395337996478     
   1.49585759073958     
  0.686753951434974     
 -0.282676701896427     
   2.05325047196047     
 -0.948137772282825     
 -0.996165647956178     
 -6.323008554515402E-002
  0.168165661986720     
  0.796172991185709     
  0.408677830747051     
 -0.418941909120867     
   1.85813869453161     
  -1.37146862226152     
  0.941525214819324     
 -0.683001812120686     
  5.931012618579840E-002
 -0.796106203885596     
   1.12553958212408     
 -0.474418457786764     
  -1.53001889525163     
   2.37413248831513     
  0.892515579600132     
 -0.748923300357632     
 -0.406257106558983     
 -0.530075132163672     
  0.772066725848202     
 -0.705318019345200     
  0.878934311299260     
 -0.811844679712962     
   1.15556702718387     
 -0.216257442049383     
  0.252394662356862     
  -1.73915168089287     
  0.719154521467739     
 -0.591904979097237     
 -0.166621165084707     
  9.373761711834759E-002
  8.944516298818653E-002
 -0.678078725118508     
 -0.385609773506384     
  0.118760386765720     
 -5.492830943739058E-002
 -0.467506818800876     
  0.712103040798817     
  0.468824614680204     
 -0.488953129885834     
  3.436816387514034E-002
  0.244352200649572     
  -1.19511666748190     
  0.360360889581572     
  0.657902015415904     
 -0.570904014837673     
  0.392574344485161     
 -0.383081786128942     
   1.13375618762862     
 -4.505855627491985E-002
 -0.174723494952383     
  6.126666857881859E-002
  0.442481763143838     
 -0.973145982621471     
   1.17389428456655     
  0.363923001045176     
 -0.480638354710867     
   1.03388451699928     
  0.462019372925983     
 -0.187896864210410     
  0.303790857550046     
  0.308878154363555     
 -6.944020452472137E-002
 -0.360884074370723     
  0.727108916779919     
  0.238142674770474     
 -6.652927539286559E-002
  3.456902511453371E-002
  0.846289282537435     
 -0.172932041159903     
  0.891453553379528     
 -0.135539838146195     
 -0.241603933556495     
  -1.68140197469893     
  0.468441582692559     
  -2.70303191349142     
  0.277400043857775     
 -0.780306873266669     
 -0.955072795549743     
 -0.392844475965280     
 -0.958927903917822     
 -3.927388224491511E-002
 -0.374966801850970     
  0.170156445800936     
  6.792329355561984E-002
 -0.238281626178147     
  -1.20525041472759     
  0.915997043038486     
  0.378350085749944     
 -0.128362978293390     
   1.63849373740323     
 -0.335611393266972     
  -1.02088555902877     
  0.719445977641945     
   1.26618695036203     
 -0.804526882203568     
  0.652447219096064     
  0.491160779649019     
 -0.415436650079014     
  0.356347303206676     
 -0.378425035533565     
  0.500787179397940     
  0.218712001302184     
   1.43412508889207     
  0.199585831325992     
 -4.692160291855316E-002
  -1.01415255383022     
  0.998653633882493     
  0.343385174433970     
 -0.708031547140989     
 -0.140615564979741     
  0.876076314157452     
  0.460039321347617     
  9.751585506172336E-002
  6.064923219356283E-002
 -0.151048864900388     
  0.940411031040904     
 -0.641026226683998     
  3.268011291114101E-002
 -0.210321870119515     
 -0.931782683641239     
   1.93003874682970     
  0.126926249563233     
 -3.061354853975337E-002
  -1.11285387114297     
 -0.327293010009468     
 -7.066755315498950E-002
  7.163503889639149E-002
 -0.313915235341200     
 -0.144292676574447     
  0.299822632911505     
 -0.120603187925879     
 -0.553188767001434     
  0.172056915656323     
 -0.531982496563671     
  0.120419195078927     
  0.753972354111306     
 -0.997131946307785     
  2.778763106459216E-002
 -0.967863237706177     
  0.232748424810328     
 -0.464711573010949     
   1.06891066596172     
 -1.322623909079545E-002
 -2.242531468222612E-002
 -0.450143631507248     
  0.167182118319452     
  0.288788084531495     
  0.325132883877900     
  0.828980880756080     
  0.338941732175230     
 -0.649668133135517     
  9.527649797061706E-002
 -0.643782066392065     
  0.199522976384715     
 -6.371842058546694E-002
  0.302042535604919     
  0.228377666551792     
  -1.67526940633729     
  0.292889655973783     
  0.330066758796863     
 -0.235637584256333     
  3.160361818615354E-002
 -0.420073336166300     
  6.171884760315405E-002
  0.114129247956470     
  0.261768969592769     
  7.960415141858460E-002
 -0.192521397202127     
  0.634947280540891     
  0.155827248313015     
  0.352741663549655     
  0.268851402591624     
 -0.232350881494455     
 -0.329502633156414     
 -0.268149897546624     
 -0.150011343089900     
 -1.555482258127792E-003
  0.385749897802094     
 -4.630122575552819E-002
 -0.112015429755767     
 -0.919970248799087     
 -0.370015754941096     
  0.547736442487985     
  0.166900446624699     
  0.685576817661972     
   1.57281959846212     
  2.685691271068368E-002
 -0.247339732825811     
  0.833504132377665     
  2.931254361178900E-002
 -0.261024068203168     
  0.462948619177803     
  0.153153275887386     
 -0.532166763199443     
  0.278050551339968     
  0.132234220811245     
 -0.219207611245503     
 -5.224087905570428E-002
  3.213870132674908E-002
 -0.966779151464309     
  0.107955019842563     
 -0.382223404497118     
  0.487492363109115     
 -2.700612107285729E-002
  0.305561413060404     
  0.396417343547198     
  7.068658107430847E-002
  8.541160721965016E-002
  0.184986703101026     
 -0.146485841573886     
 -0.126442605906223     
  0.315541907820611     
  0.879277848032137     
  0.336848211498011     
 -0.891490246926208     
  0.534422751055652     
  0.179442474973542     
  0.913127693744704     
 -0.851221634414487     
  0.211738199837949     
  0.299385129444741     
  4.836130150112479E-002
 -0.160356507708616     
  2.394425443100665E-002
  0.185167568698274     
 -0.621158207349583     
 -0.608592140494961     
  9.480839024422513E-002
 -0.768273358222093     
  0.871627755447177     
  0.843023099174425     
 -0.771396979766466     
  4.854342558049123E-002
  0.148042483125716     
 -0.361134904735704     
 -0.379213732806271     
  0.712564125964029     
  9.635657795290793E-002
  0.326059117780618     
 -0.394218095936942     
  0.135824409728208     
  9.877290864524012E-002
  0.216468692649717     
 -0.236648047617105     
  -1.27122526740026     
 -0.638146150812227     
 -7.991308036270882E-002
  -1.55319725600622     
   1.08603113578512     
  -1.92588873465220     
  0.642526191750421     
 -0.465210941375971     
  -1.01622172006713     
 -6.966921427939436E-002
  9.737342517505353E-002
 -0.194055350252227     
 -0.242607881885376     
   1.02326963226744     
 -1.878487970381973E-002
  0.774182805357101     
   1.49253054483196     
 -0.311721428765552     
 -0.164554464528510     
  0.533981697124456     
   1.20425563450612     
  0.858688256796949     
  0.162551178312983     
  0.898386509454073     
   1.83963029488815     
   1.02220302745263     
  0.184756672376591     
 -0.261925222571507     
  0.753113614534905     
  0.544686457294432     
 -0.274880018966857     
   1.23055815106142     
 -0.363351280849305     
  0.368976565126664     
  0.844593337495084     
  0.796907144421590     
  -2.44188485978728     
 -0.237928746660815     
  0.588128510150060     
 -0.829716356039867     
  -2.83684091643824     
 -0.486743213181241     
 -0.168104401827903     
  0.514543561021133     
 -0.269380960678521     
  0.273504632129173     
  0.105671498320898     
 -0.852751874825593     
  0.940804129112065     
  -1.31072550303258     
 -0.616953020717889     
   1.98889607829987     
  0.440713745305727     
  -1.27776699215904     
  0.461129243269996     
 -2.258675899690860E-002
  0.462409175042151     
 -0.126790737975758     
  7.203868498982396E-003
  0.476948033387397     
 -0.577623269511322     
 -0.532381459110917     
   1.36497719116801     
 -0.684085186520150     
  -1.75183990231415     
  0.432227039635588     
 -0.175385887149990     
 -0.700053844560403     
   2.19057831482860     
   2.59134738030463     
  0.520119829561026     
  -2.15266454410428     
   2.15253015626668     
  -2.79477958210950     
  -2.67443450628087     
 -0.853856078473375     
 -0.452393424623141     
  0.478075091362734     
 -0.371782527104367     
 -0.680214258296701     
  0.868757422360252     
  -1.47254233590542     
  -1.16995988081690     
   1.18681778295984     
  -2.62402737742593     
  -1.04752686456405     
  -2.87773543811888     
  0.774503262609067     
 -0.550330464223259     
   3.03024682968223     
  0.739998500714236     
 -0.143685247248577     
 -0.148955783870796     
  0.371696978510947     
  0.199790644234674     
  0.482689275419886     
   2.67995739884114     
 -0.471030084952654     
  -2.26315997188466     
   2.16395838279732     
  -3.97387204283058     
   1.97317393748760     
  -1.24125625566518     
  -1.72151954916356     
 -8.099654245826958E-002
  -1.35642683631136     
   1.90469091046304     
  0.602849293966015     
 -2.858251783469542E-002
 -0.160880839548482     
 -2.123370363031823E-002
  0.177538098003086     
  0.457803803272732     
  0.112299751758367     
 -0.320019129323958     
 -0.336717970274118     
   1.05078414674538     
  0.321016638720336     
  0.651894837570717     
 -2.294181134460278E-003
  0.370428012272950     
 -5.751923639449726E-002
 -0.440403611404169     
 -0.388233813811930     
 -0.853014847863212     
  0.454696674650609     
 -0.165430210714183     
  0.330678380102233     
 -0.142096206565361     
  0.366857514367437     
  0.517788700887332     
  0.545308989313588     
 -0.907323846211347     
 -0.121201313208780     
  1.889374443847020E-003
  0.249474455424187     
 -0.389323253592404     
  0.587223949436308     
 -0.529784738495984     
  0.486538655130765     
  0.629703674642674     
 -0.209103373109233     
 -0.499424966041946     
 -2.372262599246138E-002
  -1.16001825675810     
  0.198691138835846     
  0.491429036324662     
 -0.677855700499832     
 -0.123652691759334     
  5.139110857975206E-002
  2.987165985718526E-002
 -0.325554821789201     
 -0.892695738988968     
   1.08705484165751     
 -0.372486160938281     
  0.578260056753195     
   1.00433551053146     
 -0.506354863173200     
  0.681774474429368     
  0.398372757172898     
  5.722247876864198E-002
   1.36475079654373     
   2.48068700327926     
  -1.51390276847951     
   2.03293289476857     
  0.943358825871550     
  0.384540122773314     
  -1.33764349420275     
  0.192597248449401     
 -0.855249747465413     
  -2.30861834659438     
 -0.171071505748723     
  0.154277398226744     
 -0.121881818989295     
  -1.80104820296858     
  -1.66504760658861     
  0.574604536455129     
  -2.68713259266432     
 -0.762279500189344     
   1.96003771390740     
  -1.26083266610382     
   1.00651923184329     
  -2.20308921455337     
   2.02820276935960     
  0.670168026659311     
   1.01295064411304     
   1.84477145778287     
 -0.583584530946239     
 -0.324496038811828     
 -4.713059788789919E-002
   1.15128497393783     
   1.86585486287480     
   1.55655083132989     
  -1.07572505411173     
  0.846256833058488     
   1.13775369374449     
  -1.59284854638246     
   1.29602178757971     
 -8.982219019007748E-002
  7.733335274232717E-002
 -0.383112059197946     
   1.06389809492723     
   1.10752868928267     
 -7.045270893156139E-002
 -7.834161043031045E-002
   1.64428666495208     
 -0.332296005910084     
 -0.571452377799385     
 -0.607122073325979     
 -0.310116044988772     
   2.06908052515298     
   1.14414372468356     
  -1.56875134803981     
  0.254028052602023     
 -7.183734281392769E-002
  0.107455066199112     
  0.329405350947669     
  0.165702941257173     
  2.049865123484831E-002
 -0.215072755656741     
  0.377610480672924     
 -3.630179336918128E-002
 -0.467915683771693     
  0.645338323220290     
  0.117136654243587     
  -1.12289698441523     
  -1.98549786503916     
  0.331459614579185     
 -0.496614689314410     
 -0.493604722944822     
  5.747568382434228E-002
  6.721815222175992E-002
 -0.338775917550261     
  0.101285949464617     
 -0.156206004838181     
 -0.471991434808143     
   1.19640567964317     
  1.933345281613984E-002
 -0.473506683398569     
 -0.306446628594398     
   1.19789021250218     
  -1.07859346094695     
  -2.27422484751111     
  0.440967743718342     
  0.223233701236322     
 -3.332791095755488E-003
 -0.575673627287423     
  0.441202458546383     
 -0.314613973395291     
 -2.356808926268678E-002
  0.687131027601492     
 -0.710777298701280     
 -2.568119251691939E-002
  0.505072279501583     
  0.176443953827997     
  0.693532010583648     
 -9.356176806785571E-002
 -0.558602603003700     
  0.307575465001602     
 -0.874039697998500     
  0.465970919901324     
 -9.360073301158052E-002
  0.466594170403371     
  -1.66924816385838     
  -1.37123791215733     
 -9.097293627663730E-002
 -0.548403962251561     
 -0.331598279891755     
 -0.364633140320216     
  3.960582935348109E-002
 -0.207790649941597     
 -0.328491172915011     
 -0.302557476225625     
  0.338129011023513     
 -0.132745882190252     
  0.214205475300251     
  5.456636037891968E-002
 -0.725476102018828     
 -0.763743485924054     
   1.12785334793255     
  0.477174857309892     
 -9.879371907605673E-002
  0.483782823611146     
  0.275913741167312     
  4.770878953863950E-004
 -0.168964247987089     
 -0.111045194999422     
  0.479315071561072     
 -0.351940106036506     
   1.31476259996140     
  0.217115802051701     
  9.987059601342096E-002
 -5.591482935821742E-002
  0.767307469294388     
 -0.424914723306590     
  0.639155533135501     
  0.192799280035446     
  0.316749437563779     
  0.125910207095450     
  0.275928693670048     
  0.468307111229399     
  0.129140362350810     
  0.165879180506579     
  6.639947831422491E-002
 -0.213467630008010     
 -0.392403264803439     
  0.734612305626899     
  0.412780967126928     
 -0.807213368055480     
  -1.00836201584867     
 -8.607102002799140E-002
 -0.313955278902872     
 -8.107211322059348E-002
  0.316646573119146     
  1.317693041002963E-002
 -0.507237633859900     
  0.109402324040942     
  5.897200340910987E-002
 -0.291303119701256     
 -0.241587555652036     
  0.434298685339380     
 -0.273266599457438     
 -0.616144967400687     
 -0.484530326170406     
  0.305236693176088     
  -1.03044268843499     
  0.655280715082743     
 -0.444562813537014     
 -0.119825436287644     
  0.171799382726804     
 -3.963984562232424E-002
  0.212972189039397     
 -1.728173782597035E-002
 -2.124097061331844E-002
  0.342667093485379     
  0.272834021515654     
  0.479214772256025     
  0.605503523233689     
 -0.849853510261887     
  0.774783572821295     
  0.783553112417170     
 -0.255687619615809     
 -0.182731871891937     
  0.702454677755457     
  0.310330450812910     
 -0.497307261542520     
  0.365402722593753     
  0.100935389635949     
 -0.209708375038868     
  0.208641545271548     
  7.139045690142286E-002
 -5.982012711979399E-002
  0.138535436739811     
 -0.336694089580892     
  0.631128074764201     
 -0.214022250977497     
  0.708931192043202     
  -1.09526459828886     
  0.282537331114849     
 -0.135861547692019     
  0.559271598987639     
 -0.438926431526447     
  8.646621890709688E-002
 -0.503028031840303     
  0.393689704534377     
  0.264475023936788     
 -0.224433906762444     
  2.085652185633371E-002
  0.873614201151354     
 -1.616256295750985E-002
 -0.607247858088720     
 -0.617692544963035     
   1.30118754137520     
  -1.55225122818167     
 -2.657768197358511E-002
  0.214548340728133     
  0.241044830294081     
  0.539991089789485     
 -0.352587632393443     
  0.394861824532090     
  0.255195838250371     
 -0.171682652423648     
  0.201494193054300     
  0.139190228261910     
  0.290255734829382     
 -0.725979544906388     
  0.101791537091669     
 -0.395204658085291     
  0.762506310340278     
  0.834736056281715     
 -0.322829987510808     
 -7.670539678937245E-002
 -0.404007670462381     
 -0.355544089721156     
  0.680314562968898     
 -0.148966294769238     
 -0.179446297051755     
  2.965321336701261E-003
  0.298832201498223     
 -0.332402438279752     
 -0.292819290039512     
 -5.588278781757942E-002
  -1.54780171593209     
  0.167236475836448     
   1.90958471774651     
  -1.28443525168235     
 -0.329432105276379     
  5.187370010300671E-002
  3.994419963830603E-002
  0.409348567025317     
  0.905646504112502     
  0.567699159476308     
   1.04627696363728     
 -0.552200130846196     
  7.966774942649765E-002
  0.192461785340967     
  0.841606294319830     
  0.875142353544321     
  0.847720720082496     
  -1.65000412105275     
   1.05072856544311     
  -1.05725138304183     
  6.994578126618216E-002
 -0.184756801515087     
 -0.512758728326098     
 -0.748900876840331     
  0.224746476977903     
 -0.766766036833853     
 -5.778694384082934E-002
  0.283970915212412     
 -4.315456137108788E-002
 -0.130906729741884     
  0.117986969040558     
  6.690325646344907E-002
 -0.498321203548944     
  -1.49421741591602     
  0.828779483033422     
 -0.163913882048251     
 -0.109452717386233     
 -0.219393792539784     
  0.958703117756085     
  -1.11984999369227     
  0.138514830563065     
 -0.788621034111693     
 -0.896065858651027     
  0.422113253181703     
 -0.227058393140330     
 -0.273213175058356     
  -1.34291813115659     
  0.628508194250472     
  0.326539939071143     
   1.03245098142833     
  -1.14288670181389     
  0.414670363241624     
 -0.422008188952365     
  0.324660437403213     
   2.00980779903538     
  0.629191218477317     
  0.199036118831664     
 -0.927498229282475     
 -0.971253604973006     
  -1.18538045259215     
   1.52794179981786     
 -0.192675663363432     
 -0.583109847462888     
   1.59022395997523     
 -0.976033641867666     
 -0.956227045242070     
  0.331669579991286     
  -1.47552666363895     
   2.03425507621033     
 -0.693243303476351     
  -1.29075488807524     
 -0.162283625717196     
  4.500506159559564E-002
  0.208479254226475     
   1.48948877783505     
 -0.945013939566571     
  -1.39148851001148     
  0.174740264389381     
  -1.71978120231196     
 -0.894887947778592     
  3.256061613085853E-002
  0.603485107765267     
 -0.158975757980587     
 -0.569398830293036     
  -1.51879303086585     
 -0.682627398604191     
  -1.37391957460471     
  0.578445524335114     
 -0.470242475218273     
  0.880282524836577     
  0.872063948616995     
 -9.755452961970783E-002
 -0.646420346426358     
   1.19925305023166     
  0.399950003210035     
  3.853886292935209E-002
 -0.283795416038661     
  0.113309670487185     
  0.839855204798065     
  7.217589041548492E-002
  0.159535746687903     
 -0.652580903479248     
  0.262185918973717     
  0.326623307415920     
  0.347687809654551     
 -0.271767676444619     
 -0.265487152759590     
  9.108433627283165E-002
  0.104447349674270     
  0.332187167443501     
  0.513925866997067     
  0.517177708331958     
 -0.161668412835881     
 -0.628607229290856     
 -0.124688611303167     
 -0.276964186707793     
  3.709677804348199E-002
  0.325588556945874     
 -6.887181442048301E-003
  0.153254224235450     
 -0.346011184248599     
  0.372806426316958     
  7.492967045346610E-002
  0.110800957952143     
 -0.272468114988079     
 -0.255891765091652     
 -0.418669800634472     
 -0.294394506883407     
  0.442682012965768     
 -0.308356689515359     
 -0.517615966343785     
  0.719391862941197     
  0.373360549070525     
  0.222644219904370     
 -0.575874764131144     
 -0.133401812780656     
 -0.168972786479100     
  0.340299774832198     
  0.297842505107601     
 -0.411835878423737     
  0.404028085016867     
  0.153559195822096     
  0.890422419138852     
  7.201358844883553E-002
   1.24284858597238     
   1.83165541851043     
  0.861828974880888     
 -0.268897609410153     
  -1.30806440781590     
  0.271912027318320     
  0.570671673030274     
   1.28705935627836     
  0.611082136471871     
   1.37342238376061     
  0.177105974660888     
  0.313321393156672     
  0.633363682585320     
 -3.520157648192930E-002
  0.286978864454850     
  0.550521478010630     
   1.12199269253497     
 -9.811642309007874E-002
  0.746159852698726     
 -0.357535872509777     
  -2.04856602388605     
 -0.329333585587334     
 -0.439052684793621     
   1.06787220722367     
  9.231198785106251E-002
  0.325892889847873     
  -1.35153972764836     
  0.200196226010520     
 -0.495585135476321     
  4.920488505819387E-002
  4.913767043987357E-002
   1.03854169021685     
  0.931560245858603     
 -0.851823744710206     
 -0.150887837922291     
 -3.140862984449154E-002
   1.44493802904754     
  0.755045483868362     
  0.435721967008722     
  0.384930143436664     
 -0.910995739349035     
  -1.10786551208855     
 -0.224120200409254     
 -0.793951487130611     
 -0.543791670361442     
  0.414325836921136     
 -0.135448229234872     
  0.360722494767673     
 -3.018929001875541E-002
  0.216908993893135     
  -1.58687455820099     
  0.876617011782421     
  0.406799075874121     
  0.652017188569513     
 -0.318708524004810     
 -0.290355343817212     
  0.736195710300340     
 -9.022848954457086E-002
 -0.560744837360950     
  0.472446657006243     
  0.332001518041765     
  0.466798908817814     
 -0.134454661304588     
 -0.712267369993136     
 -0.597456282681717     
   1.17017669909918     
 -0.783411483742005     
  0.352190465068724     
  0.281975801263680     
 -0.304948811483299     
 -0.726991337087115     
  0.108283133870215     
 -0.156603896576868     
  0.774357293248228     
 -0.582966056316355     
 -0.641033971834667     
 -7.650766883455382E-002
 -0.332289464138242     
   1.21247968539797     
  -1.60741193242938     
  0.522370700989820     
   1.27049474593818     
 -0.575614165384289     
 -0.593345523915653     
  0.581363891031345     
  -1.01105734137524     
  9.190980553992856E-002
 -0.144562382301943     
  -1.28115391777061     
  0.695592378330949     
  0.562205137306563     
 -0.452399285732520     
  6.868680333470938E-002
 -0.108345813426465     
  2.287242625730781E-002
  0.508026752391387     
 -0.425120534415186     
  0.286593911032232     
   2.28048117732270     
  -1.09344028052372     
  0.201971210778320     
 -0.559993010795495     
   1.04106295907568     
   1.21571895994939     
   1.57270522834110     
 -0.967565207149283     
 -0.353486956337219     
   1.21045441366869     
  0.758325085118508     
  0.765129589789614     
  5.006089162397769E-002
 -0.404593252284126     
  0.446004558824541     
  -1.43645939974723     
  0.320319763100256     
 -0.393548083838088     
  0.428060244592206     
 -0.256910508450361     
  -1.17559690744926     
 -9.881233697127527E-002
  -1.14098594480847     
  0.768649955909962     
 -0.550791521602791     
  0.134365434316698     
 -0.326831496070274     
 -0.846874440804081     
 -7.568669532981347E-002
  -1.05600102585043     
  0.279790573362810     
  -1.37537061938743     
 -1.040182824158102E-002
  0.162264106027640     
   1.06252917563247     
 -0.699136840511847     
 -0.738767881431641     
 -0.960826471950278     
 -0.935876538622471     
   1.04140529358191     
  8.726477843680269E-002
  -1.35657084970421     
  0.459977712591046     
  1.286234326271691E-002
  0.229232700680059     
   1.01210754552418     
  -1.71445731625523     
  0.493237392042699     
  -1.01445066674329     
  7.673239563530805E-002
  -1.73095298657042     
  0.143797102582131     
  -1.05174818329783     
  0.857982030222475     
 -0.873898806792615     
  0.933636721819361     
  0.708217869384988     
  0.442295483545218     
 -0.196177137557254     
  0.944760392026960     
 -0.710649488318174     
  6.431518900237326E-002
   2.71162388424721     
 -5.034175522000832E-002
 -5.351303098843322E-002
  -1.08970128773460     
  -1.49294350885116     
   2.68303784803527     
   1.03263257829603     
 -0.597300068151217     
  0.658072957938260     
 -0.451536961336263     
  0.607057566981393     
 -0.193683829667903     
 -0.673454042041543     
 -0.322214848344425     
  -1.28892870811284     
  0.441460765407218     
  2.189722813675467E-002
  0.388478572625958     
  0.686838329953265     
  0.130236735361098     
 -0.727909981894391     
  0.651766940545161     
 -0.941527061881228     
   1.50537418220524     
 -0.567598895798684     
  8.619246288998986E-002
 -9.792418063960197E-002
 -0.328646567648099     
   1.07662172100840     
 -0.408986563872017     
 -7.744790780448167E-002
  5.543003431672621E-002
  0.511696128944807     
 -0.161545355298643     
  6.943407650202654E-002
 -0.467950251841805     
  0.331360818750502     
 -0.381899891730650     
  0.118258446913431     
  8.269480150308862E-002
  0.342094021561184     
 -0.396698337583337     
 -0.107556612052733     
 -3.553569386677034E-002
 -3.793290783021401E-002
 -0.211288509680959     
  0.598135065893713     
 -9.142499364240252E-002
 -0.155082447979649     
 -3.343589094676792E-002
  8.516085042180499E-002
 -0.520639552973992     
  0.246678936934752     
 -0.113169256685082     
 -0.724556765968267     
  0.153640585904633     
 -0.191309930544666     
  0.131454565933785     
  0.193195427443198     
 -0.132792820773308     
  1.267846816570181E-002
  0.289260606726657     
 -0.335527538569605     
  0.261249611715085     
 -2.125382535397969E-002
 -0.178477493964907     
  0.772190517535793     
  0.154613795358290     
 -0.474946746864626     
  0.535832751673674     
  0.523219449594688     
 -0.715429875347462     
  0.231442659134527     
  0.115249696813659     
  4.791955679521606E-002
  0.107235689792916     
 -0.176653280221437     
  0.120822839366310     
  0.219459175486786     
 -1.168737814046285E-002
  0.896853808122167     
   1.57103913357247     
  -2.29197889226514     
  0.892388160216484     
 -8.443067328751545E-002
 -0.583271694379844     
   1.11987557945167     
  0.148130300062627     
 -0.171210811720151     
 -0.439569529368167     
 -0.433096770290256     
  0.220303119970379     
 -6.811882368671290E-002
  0.159039455022511     
   1.50631860758490     
 -0.194319895181084     
  -1.22316368332008     
  -1.16591564827573     
  3.153906262543244E-003
 -0.512933791229466     
  0.685633020759978     
 -0.639651621836516     
  0.316425447769714     
  0.645606353066662     
 -0.667621339105211     
  0.768986973570287     
  0.514869108305105     
 -0.330430166733584     
 -0.310532194596559     
 -1.481165490500775E-002
  4.668460413270674E-002
  -1.90780459033423     
  -1.06275075748218     
  0.238870077613039     
 -0.255648601098981     
  0.838456754343311     
  0.735562053607130     
 -0.169736649869702     
  -1.14662579815097     
  0.197116655701106     
  0.214754284539083     
  0.363621417848719     
  0.692907192615979     
 -0.397224632889422     
  0.743569370093289     
  0.153888581294574     
 -0.383349276738838     
 -0.474011244538660     
  0.728415129031578     
   1.39827898339059     
 -0.929197773541755     
 -0.279335189381220     
  0.660397011109932     
  1.442149912672400E-002
 -3.808147420113995E-002
  4.774181674335289E-002
 -0.763050682056586     
 -0.209639103859721     
  0.109210626806274     
  0.113105752402393     
  3.635007743464617E-002
 -0.148782633451384     
   2.63422899621542     
  0.681862239292815     
 -0.823844102493496     
  -1.42227348989245     
  0.209373854359120     
 -0.694026745865695     
  0.836665308614366     
 -0.482179659136845     
  0.712456405858161     
  0.545710576777155     
  2.308533657318477E-002
  0.124472343969441     
 -6.149840965702937E-002
  0.706842450186896     
 -0.401303211091551     
  7.777699121073452E-002
 -0.652124719524736     
  0.714037121674434     
 -0.993923126483672     
  0.315120984418156     
 -7.133641111809405E-002
 -0.158536658455205     
  0.533286189604675     
  0.212643001428700     
 -0.652437759541802     
  0.365747071520955     
  0.832618287820085     
 -0.156040307424326     
 -0.189756009468530     
  4.655300325761135E-002
 -0.250001146580200     
  0.371754083332980     
 -0.280303290933535     
  0.859294597824269     
  0.262786099779348     
  -1.05036156137132     
  0.687782051264920     
  0.767690631404121     
 -0.930569044230477     
 -0.222392911868228     
  0.680486530162180     
 -0.446678698577591     
  0.283419688024534     
 -0.990650871037256     
 -0.837637998823628     
 -0.851872333368652     
  0.348932852417072     
 -0.389484035006833     
 -0.402550996382699     
  0.247721036315266     
 -7.155861183550051E-002
 -1.093862689241332E-002
  0.429312019418133     
  0.737727947959757     
  -1.69879352825702     
   1.18202664766176     
 -0.186370292595833     
  0.153363714617277     
 -0.318453137283369     
  -1.25741000148552     
   1.17655194162992     
 -0.940181002675642     
  4.657314175463210E-002
  0.416375498156819     
 -0.535727394807156     
  0.209786136614756     
  0.546068757023209     
  0.101415721550373     
  0.111155823877022     
  4.933469524053282E-002
 -0.764381781384386     
 -0.175695080529543     
  -1.12625722005765     
  0.546744221175554     
  1.975527893399163E-002
  0.813371729826609     
  0.574579290863721     
  0.480347766921779     
 -0.994042865018226     
  0.400329574108323     
  0.806188780909064     
 -0.734963814863496     
 -0.804122932126570     
  0.664998424044621     
 -0.695645853643712     
  0.372997685696770     
  -1.24575676402522     
  -1.42681506186294     
 -0.410810670105269     
  0.298571847562217     
  0.211362283829619     
 -7.483950746891704E-002
  0.596353426994072     
 -0.162735293280359     
  -1.07692346487246     
 -0.149633817211078     
 -0.179934266328917     
  0.740607532222120     
  0.350992379428590     
  -1.18636843003296     
  0.923551756057629     
  0.591021709669566     
  0.333334811220371     
 -0.283528758358125     
   2.00183188483534     
 -0.252325972451623     
 -0.187872913172906     
  -1.04709697108800     
  0.266793821040598     
  0.949464380825266     
  0.329884850742426     
  0.345990547869065     
 -0.106859462802408     
  0.293047006424823     
 -0.935055928587639     
  0.137098242751681     
 -0.498548586886108     
   1.47772658087865     
  0.357360039321676     
   1.63873605344574     
 -0.709253199591935     
 -0.364643747962315     
  0.926467166601878     
 -0.457135773371941     
 -0.507779583153814     
  0.458148586624457     
  0.411333090260100     
 -0.379722884747679     
  0.580447847892560     
  0.455275597396426     
 -0.529031338432099     
 -0.633614456638833     
  0.991284331916437     
  0.596503080628845     
  0.243171854542131     
  0.945099609834348     
 -8.371235458039909E-003
  3.707212027764376E-002
 -0.185432489839904     
  0.259279958537842     
  0.205335853628616     
  0.233522370125288     
  0.214758122992071     
  0.225784895229595     
 -0.910541194492964     
 -0.425720612064358     
  0.225599287235581     
   1.31696438672053     
 -0.690454777288647     
  0.785742017060962     
 -0.828320413402237     
 -4.580553840136266E-002
  0.145255392128990     
 -0.373527289584734     
  0.354168352659183     
 -0.362348191348210     
 -0.354330375199369     
  6.725308617248005E-003
 -0.101257762873266     
 -0.160227664446233     
  0.798615286594689     
 -0.676360823865239     
 -2.449431497317643E-002
  0.282070190991639     
 -0.611475562576948     
 -0.212196857601581     
  2.204051852231287E-002
 -0.937456870351249     
  8.260249471190571E-002
  0.155634893242235     
  0.236735217582528     
 -0.356894536556165     
 -0.200555122324039     
 -5.546392721615238E-002
 -0.292789660304538     
 -0.829700945694554     
  5.759180179852235E-002
 -0.970169557431287     
   1.19653284313030     
   1.62259109948055     
 -0.569925855119500     
 -0.119141261368438     
  0.240201554077394     
  -1.80037208155058     
   1.83141552571578     
   1.71867421842351     
  0.779926604493640     
   1.28399937793426     
  -1.02779891320973     
  0.661150058054097     
  0.572650011852568     
 -0.761852737592451     
   2.64484614838071     
   1.19230133293649     
  -1.26408793417791     
 -0.623368475317700     
 -0.299413214477238     
  0.276994026507009     
   1.06497449924554     
 -0.250250479061723     
  0.794071363338466     
 -0.987949516685839     
   1.16941702060680     
 -0.832991266487259     
 -0.617996196972498     
 -0.790330324313228     
  4.808301002190313E-002
  0.725272423368692     
  -1.39614839686977     
 -0.746838349322671     
   1.17126205234820     
 -0.483790854072530     
  0.564687535755429     
 -0.551137913270327     
  0.745861621898100     
   1.95834389953028     
  -1.67245456311965     
 -0.139775391359823     
  -1.21490131728364     
 -1.210528174973312E-002
  0.808239991089541     
 -0.311549238473335     
 -0.671401029350730     
  -1.09411984604062     
 
 -0.279266354870297     
 -0.175610570642339     
   2.10649876249201     
   1.11568562119489     
  0.163427381921548     
 -0.604129417501250     
  0.127448993126679     
  0.415815824220515     
 -0.411949277513154     
   1.06723979617454     
 -0.929356414206687     
  -1.84982723543438     
  -1.13697620943765     
  0.464394145791017     
  0.243847754538107     
  -1.50074053312049     
  0.933657980139088     
  0.613216321754047     
 -0.846976702597352     
  0.211491401557144     
   1.30603288390827     
   1.67317224520507     
 -0.387654811358259     
 -0.864830405321234     
  -1.58797901904351     
  0.739829327323809     
  -1.59755364656310     
  -2.52589798139058     
 -0.318515443620715     
 -0.213236496917273     
 
  0.178053669378665     
 -0.936222666796375     
 -0.562304156322274     
  -1.42257401410860     
 -0.269520212218192     
  -1.85265928620511     
  0.439036171422686     
 -0.778166744907078     
  0.150569152353682     
 -0.463514209875434     
  -3.30424941689005     
   1.71153196506047     
   3.46300822666155     
   1.58727268293113     
  0.647273092975283     
 -0.703822676790385     
 -0.768737931566821     
 -0.386739396935540     
   1.58234332450616     
 -0.384062298602598     
  0.488486257965580     
 -0.155141352268323     
 -0.922919910170144     
 -0.172016547126775     
 -0.272463575192310     
   3.22211420294179     
   3.19579457924543     
 -0.397193537448592     
  -1.69968018695749     
  0.262207711964030     
  0.625854465300262     
  -1.30247397170671     
  0.285300954401855     
  -2.78258575639193     
  0.924906995258223     
  -1.11113356069718     
 -0.683811111012636     
  -2.84828547575983     
 -0.614043709959204     
  -1.48528787462998     
  -2.22759905823682     
   1.71876396251058     
  0.957137014784687     
   1.64060037343309     
  0.819540600381170     
   1.46647327253334     
 -0.410084452817925     
   2.44814682171431     
   1.72431905850232     
   1.43315694690730     
   2.16870258223764     
  -2.07099249738843     
   1.33108265994274     
 -0.297160305053523     
   1.17830730968145     
 -0.433678648941263     
  -1.54946405605379     
   1.56664989277560     
 -0.784959319265150     
 -0.967932030595014     
  0.115654230488892     
 -0.458486166475714     
 -0.217538508486891     
  0.252882360687376     
 -5.390563331655424E-002
   1.13037232329535     
 -1.759217024778983E-002
 -6.430133744671691E-002
  0.167152370283993     
 -0.321322488643030     
  0.210655713547173     
 -0.389327490306051     
   1.37989032389114     
 -0.213739371457723     
  9.438114279032756E-003
 -4.997921206442651E-002
  0.109044809978633     
  -1.60892821866325     
   1.00666766794039     
  0.320470595660149     
 -8.445381926535604E-002
 -0.661285811489751     
 -0.995741097566274     
 -0.501182992460771     
 -0.660862207704437     
  -1.18231669912615     
 -0.576672008629159     
 -0.312616198368388     
 -0.478832269428203     
  0.481258670407545     
 -7.936169832092816E-003
   1.37235451590591     
  -1.39064232267239     
   2.37572759749074     
  9.355859430459430E-002
  0.182531331782507     
  -1.05433495784852     
   1.02780985896499     
  0.245177016313161     
 -0.951389894844561     
   1.71633907524967     
  0.588704449356822     
  -1.56939964181248     
 -0.873825700642225     
 -0.237580445904044     
   1.63979340861143     
 -0.100097124748581     
 -0.515683755082298     
  -1.86900656990456     
 -0.645805442465170     
  0.787451865479978     
 -0.540441133482056     
   1.80476452277348     
  -3.41744913139920     
  0.156741432692356     
 -0.942650429592874     
 -0.120662007336808     
   1.22431757202034     
   1.04289360124718     
  0.319721895560273     
  0.936998891847194     
   1.34069496286111     
 -0.783791801498204     
 -0.339402852616072     
 -0.137470334268677     
 -0.906397864851065     
  -1.21251338853470     
 -0.272951499766154     
 -0.451276362242271     
  0.182227522306765     
  0.709870973692713     
  -1.16457514037839     
   1.07369016687183     
  3.221902946667675E-002
   1.35746451826940     
 -0.720810300811529     
 -0.121359016228495     
  1.131323107751117E-002
  -2.42059577959810     
  0.791764822381470     
 -0.250922508202925     
 -0.857951930581241     
  5.444381426942328E-002
  -1.10175397271778     
   1.47492527795824     
  0.167041310251122     
 -0.462683153615918     
 -0.674319876352448     
  -1.22070508425348     
  0.619230126762807     
 -0.165826324037908     
  -1.67500253581082     
  0.131555209958798     
  -1.08204680548507     
 -0.785222535080641     
   3.13877810325725     
  0.338364202102092     
  0.517456727396347     
  -1.20576367685134     
  -1.51570804912773     
 -0.731943677668268     
  0.659853338998445     
  0.551112135047626     
  2.070134595166645E-002
  0.703375410468722     
  0.525494668899605     
 -0.176334858204707     
  0.887076168981306     
   2.25255047482371     
  0.860172234397276     
  0.684407640085893     
  0.428793362656939     
  0.348831304909259     
  0.191984819217379     
 -0.652065420261644     
 -0.188990709922916     
  0.205750036222677     
  3.963327150494982E-002
  -1.48620778065621     
  0.138044399385367     
 -0.179232884580286     
  0.456940002655943     
 -0.897535336280760     
   1.22196096734877     
  0.926094188925306     
   1.10147778261908     
   1.22702261824497     
 -0.191893998364135     
 -0.905113008831823     
   2.51939108362126     
   3.04973765483487     
  -2.04560320227657     
   1.34429998023472     
  -3.60076278662970     
  -2.37742632896196     
  -1.08032893966916     
   1.25016286130307     
  -1.10500276706712     
  -4.13612928363220     
  0.200504744222090     
  0.992812288007038     
  0.706523836920643     
   1.73173182975329     
  0.907955558300651     
  0.161468918906233     
   1.08432451951266     
  0.807637276465895     
  0.566878369680872     
  6.374177173753891E-003
  -1.18319238132810     
 -0.195256721235113     
  0.404633715167071     
 -0.570187460434812     
 -0.965470365940829     
 -7.853321074606286E-003
  0.663729341723363     
  -1.01430153245787     
 -0.229461679624460     
  6.388749720875433E-003
 -0.798192743754168     
   3.01020595156978     
  -2.26745711936155     
  -1.23332374447325     
 -0.831764985807627     
 -0.924969263110916     
   1.18775815419895     
  0.832372304658908     
 -0.612324156872229     
  -2.95379885025591     
 -0.958542111887592     
  0.146130111615890     
  0.627325231956491     
   1.59019855753851     
   1.37018096348047     
 -0.121414589665171     
  -1.50071606515987     
  -2.74139362453783     
 -8.415539215555773E-002
  -1.70330810684630     
 -0.656658906758657     
 -5.533219622490736E-002
  0.462647796068760     
 -0.562328074644685     
 -0.771867951418863     
  0.341509174055734     
  -3.09200469950779     
  -1.28107376385651     
  5.382040234730556E-002
  4.268011632973929E-002
   1.00988251942374     
  0.368566186925777     
 -0.801064572136354     
 -0.572741488741015     
 -0.370184023693401     
  0.328984725712589     
  0.248690540709424     
 -0.768646122509267     
  0.249167036946713     
 -0.400040050957590     
 -0.425172015573080     
  -1.30598407197803     
  0.217921923848360     
 -0.555714732577954     
  -2.15743285351543     
  0.689677685285926     
  -1.51647427011345     
 -9.855644434987687E-003
  -1.40778203339770     
 -0.132373237778493     
  0.814364260734076     
  -1.64046482525442     
  0.689973222960975     
  0.327328322600597     
  4.015160692270490E-002
 -0.152684618576410     
   1.35082274683090     
  -1.29388268426301     
  0.995486292033845     
   1.48470543168577     
 -0.686581670217406     
   1.19147631811218     
 -7.763978639505287E-002
  0.570864415393439     
   1.04233576262598     
   2.28486855017640     
  3.154082586763777E-002
  0.612246835517264     
   1.75025143571867     
 -0.670340395766857     
  4.332559975225821E-002
  0.278468922833342     
  4.250901097144015E-002
 -0.143735775434046     
  -2.17924854228740     
  0.459957135359788     
  -1.30479952129882     
   1.43901925827833     
  0.915543305691321     
 -0.434497323303291     
  0.512051266062870     
  0.625123412657300     
  0.118159381276499     
  0.997760542939307     
  0.841168056096337     
  0.352767398040327     
   1.51503418879229     
  0.394833614322795     
   1.22401964009938     
  0.687233103749627     
  0.191503583012030     
   1.81612219409660     
 -0.766778935974996     
  -1.29803432610567     
 -0.227836973544622     
   1.35845145349203     
   2.44624839098328     
  0.979415599151411     
   1.72395007573577     
   1.19951200252547     
 -0.300253138268782     
  0.158573093420549     
  -1.26813056244017     
  -1.75453199651462     
  -1.96509668671855     
  -2.28965142315129     
   1.11251176149468     
   1.37507211881873     
   1.77681014360596     
   2.14146885177770     
   1.76312046766419     
  -1.25104370606586     
 -0.349878861050955     
   2.21518126588234     
 -0.891455427068033     
   1.35442618387952     
  -2.00376213646184     
  -2.16535442513705     
 -0.429258666044571     
   3.44627466031384     
 -0.474167999918713     
   2.15333157942752     
   4.58642922016739     
  -2.45740043237131     
   2.01392013907630     
  -1.65428559966226     
 -0.592933741419512     
   2.90543683828806     
  0.630297713365672     
  -2.79272984952023     
  0.799508745396348     
  -2.79309149986323     
  -1.60566899122147     
  -2.40682425019995     
   1.05804348300126     
   1.32395885023569     
 -2.100828527232900E-002
 -0.298484899418745     
  -1.35278711351335     
  -2.39132890045771     
 -0.259603065419831     
  1.424791510477644E-002
 -0.920611110169624     
  0.681939685698988     
  8.532973367593191E-003
  0.522101386469911     
   2.29360881817502     
  -1.10916286662915     
  0.114703707703266     
 -0.462576416321394     
 -0.283772674983068     
   2.58879407389970     
  -1.68228000472138     
  -1.40013142762603     
  -1.22466218897738     
 -0.167469932170322     
   1.08867914895686     
  9.549164437682059E-002
  1.814351269111325E-002
 -0.561551861026649     
   1.20469922681539     
 -0.724869892060072     
  0.159079835251991     
   1.26787708656151     
  0.373519377160255     
  -1.20416707886116     
  -2.34067131245516     
  -1.89997934052882     
 -0.361961151067294     
   1.69917609866432     
 -0.302325012752452     
 -0.951445211285063     
  0.678137885945353     
 -0.150439752742788     
  8.715294562282895E-002
  0.582029632153036     
   1.28407909404521     
   1.10489484907768     
 -0.451886764207886     
  -1.13369349587688     
  -2.28183447055608     
  0.890039547117799     
   1.44408712226191     
 -0.440458823723244     
 -7.914934916121029E-002
   1.29751193261008     
 -0.403929882781826     
   1.47699380976842     
  0.555894851869954     
  0.154667748214181     
 -0.283779694014000     
  0.970865713805895     
 -0.416453667364637     
  0.761530484290116     
  -1.31104502601329     
  0.454268778517383     
 -0.309767793074869     
 -0.610527633814630     
  7.284913418971235E-002
   2.23381504826161     
  0.590208314166825     
  3.868960856862966E-002
 -0.775712543398164     
  0.680858269003379     
  0.640034566576348     
  0.242225941758278     
 -6.396638680855529E-002
  -1.25899320164437     
 -0.189253527715278     
  0.477799312064510     
  0.830269079478770     
  0.219183846949204     
  5.215769163715636E-002
 -0.767606861053741     
  9.456029705622829E-002
 -0.908048521836028     
   2.44070006596460     
  0.128785093655380     
  0.689129205062956     
  -2.21804864251761     
  0.763807936035171     
  0.247445340294059     
 -0.228925216105851     
  0.664098720103218     
   1.80280748479260     
  0.690198693270572     
   1.31794888243682     
 -0.747774454514464     
  0.718740115070376     
   1.14100244660817     
 -0.516550327344378     
   1.18921740827173     
 -0.260168487600813     
  0.632166455268690     
   1.44865449879905     
 -0.271610164980983     
   2.03367638349607     
 -0.576721853328193     
  0.937866137953751     
  6.067495748697126E-002
 -0.529599045992818     
  0.657489526082227     
  0.351611923224985     
  -1.60252068349361     
  -1.35444964108510     
 -0.296305520502953     
  0.813620977411677     
 -0.657453804283609     
 -0.810176814613845     
  -2.01488221690415     
  0.406013005676613     
  0.973927595825721     
  0.351882964005410     
 -2.742880986840608E-002
 -0.163270126322838     
  0.562327614923439     
 -0.362097282949219     
 -0.516061518888232     
   1.21100484648221     
  -1.05184719099816     
  -1.22070014011291     
  0.443809270470110     
  4.178836796651336E-002
 -0.431014806086452     
  0.712985168653977     
 -0.467184510520043     
  0.208393840444509     
  0.328876223095993     
 -0.936437121871897     
 -0.970392867673068     
 -0.815620403502504     
 -0.649036595555504     
   1.08735317367832     
  0.771963260026171     
 -5.028185065003281E-002
  0.993878612946856     
  -2.46054634027763     
 -0.353168853090913     
  2.746417965577324E-002
 -8.291395255328882E-002
  -2.82714287402540     
   1.49478608386963     
   1.17270626998910     
 -0.305248140765203     
  -1.69053931775207     
  0.176043004566824     
  -1.04110300666980     
   1.09183150814478     
  0.335986747119302     
  -1.76892483771267     
  0.951135652719554     
 -0.328439809443432     
 -0.797317945439213     
  -1.22254657064805     
  -2.09701815322151     
 -0.265088241977758     
  6.431529500743065E-002
   1.19415188397007     
  -1.30548052253328     
 -0.241984673732701     
 -0.840142430754224     
  -2.53492004227737     
  0.326319619875237     
   2.23298440527186     
  0.844693035724555     
  0.162579736307419     
 -0.815652980112800     
 -0.540775661399775     
 -0.479923869826825     
   2.40170324105574     
  0.906306258345644     
 -0.265683701434251     
  -1.01665157570018     
  0.640823690071970     
  0.502871393054369     
 -0.864393765168697     
  0.799106240742922     
  0.274490144658599     
 -0.198314046510534     
  -2.21174562026599     
  0.339022248483027     
   1.08177193825611     
  0.986295466653151     
  0.460553648773127     
 -0.358954873748934     
 -6.833386098161255E-002
  0.745471572593588     
   1.04704733297833     
   1.66755230214379     
 -0.250586753994475     
  0.888852114554949     
 -0.340814184034980     
  0.144972935878844     
   2.67520066843942     
 -0.183529568390608     
 -0.134102405315512     
  0.706864652393126     
  0.329188785357569     
   1.59172136648881     
  -1.35839424870096     
  0.478624603590560     
   1.04436247785971     
   1.86999464817390     
  0.350257456642371     
  0.480934368683271     
  -3.03461761414112     
   2.04643666935911     
  0.735228197466856     
  0.591260312262639     
 -0.342955499472572     
  0.687093384358459     
  -1.01514384666598     
  0.464404245678485     
  0.355403298401763     
 -0.353195663130328     
 -0.551441906367364     
  0.430626385004947     
 -0.759877506756857     
 -9.279720613390752E-002
  0.271165560819512     
  -1.36956021890928     
  0.835341096950697     
  -2.25449721448285     
  0.659115043303973     
 -0.471661108111584     
 -0.884223296380131     
  0.978031535288670     
 -2.005462681983924E-002
  6.601050760864255E-002
   1.32698582413590     
 -2.090064303943755E-002
  -1.96904589595192     
  0.195673569316000     
  0.754945686072481     
 -0.952684218023406     
 -0.430252352370182     
  -3.59350838231137     
  0.743561425378075     
  -2.78768765753126     
  0.522164116986934     
  0.113729647172855     
   1.65517058955023     
 -0.510695559635441     
 -0.186972540975176     
  8.216265926605588E-002
   1.63555627195475     
   1.74804467358886     
  0.632880207739110     
  0.263197994791093     
  0.480681093682068     
   1.78767981367262     
   2.53750041957460     
  -1.63737899177571     
  -1.75074169777967     
  -1.38275543651363     
 -0.980904546321661     
 -0.137743881898186     
 -8.923222446509788E-002
 -0.888892258364484     
   1.45750085512255     
  0.780829923574546     
  -1.42723118573356     
  2.819781086160523E-003
   2.39837357758306     
 -0.771094489951432     
  -1.16332728360320     
  -1.14026833738130     
 -0.537180549771039     
  -2.29106145463214     
   2.47584742207871     
  0.843783583708823     
  -1.60368066344348     
  -1.42732940350324     
  0.267714553915746     
  -2.30633097386029     
  -1.73487706886735     
  0.637522252878447     
 -0.455570225494319     
  0.397820274707756     
  0.575123539921525     
  0.290064179848241     
  0.294373371521864     
  0.251701748992089     
   1.23729295112767     
  0.476209677526520     
   1.94317315529895     
 -0.428910258319775     
  -1.56115324984428     
  0.785330165459289     
  0.532050372760521     
  -1.02482907576653     
   3.62832158372256     
  0.226494625624952     
  -1.51666884074493     
   1.05402311730702     
  0.662398919001359     
  0.511492086624696     
  0.218817542451975     
  0.494755131736906     
  -1.72555716971044     
  -1.35565231821380     
 -0.135375059249487     
   1.01456949096434     
  0.538399815151947     
  -1.02344959419504     
 -0.715340464697952     
   1.27344976441154     
  0.266000835948433     
 -0.145653708258647     
 -0.855847907630649     
 -0.468929620931280     
 -0.226792187158123     
   1.35613230735673     
  7.672395974371539E-003
 -0.147382130741702     
 -0.400445688184830     
  0.357093795059203     
  0.180926072396138     
 -0.152146896303156     
  0.367153399451556     
 -0.694705231834416     
  0.648571301273441     
  0.184345563907736     
  0.138899537021947     
  2.900705371647420E-002
  0.163447799496903     
  0.989466451421375     
  0.367977918803233     
  -1.09457710824519     
  -1.55418331586797     
 -0.513284683310655     
 -0.437932834058458     
  8.232166653913284E-002
  0.173892919179871     
 -0.953566883737174     
  1.398071706892071E-002
 -0.972219479927124     
  0.203920663792191     
  0.440829888204799     
  -1.15713721988101     
 -0.458649561872492     
  0.882180730107517     
 -0.533674586662703     
 -3.921547159980376E-002
 -0.128609285322259     
   1.94526480838469     
   1.08926174731160     
 -0.280968049096420     
  0.702702230462455     
   2.12967421242065     
 -0.884024352721064     
 -0.255041942852432     
 -0.223803332696097     
  0.723601166230004     
  -1.33060441426514     
 -0.303947207061540     
  -1.80673729068402     
 -0.779184698149314     
  -1.22748648361965     
   1.22210918583726     
  0.342065570878128     
 -6.340795665255743E-002
 -0.413943390646631     
  0.815870846687678     
 -0.791658908116434     
  0.143911417366043     
 -1.299743893534479E-002
  -1.09953575782188     
 -0.214921528735037     
 -0.642342407721849     
 -0.771892904492608     
   1.11841945538270     
 -8.353059898121327E-002
  0.717090722469695     
  0.271466273950421     
   1.50339692267690     
  -1.93971647659734     
  0.382247404523740     
 -0.997921670921123     
 -0.625770779534455     
 -8.451223386835757E-002
  0.752389545825855     
 -0.637956703758870     
  -1.12877341717199     
 -0.974705307635295     
   1.44729555965202     
  -2.19741687748274     
 -0.199015843140942     
 -0.928564650674200     
 -0.468534034290172     
   1.40428525784964     
 -6.992213543499627E-002
 -0.133712974253882     
 -0.231759540987447     
  0.125500969142698     
  0.194522249861068     
  0.984845843923259     
  -3.31326611812482     
 -0.730173138085044     
  0.560232289916793     
 -0.297943989784587     
   2.58768788056804     
  -1.96603039648097     
  -2.49230255114887     
  -2.73521975038371     
  -1.69413494280241     
   1.03797202344765     
  0.657312202172936     
  -1.22731919055904     
  0.115462469930093     
  0.857088245679380     
   2.43255364152358     
  0.350630125870047     
 -7.869453575541943E-002
  -2.11227079313244     
  0.280639414816988     
   1.02731746401077     
  4.542602399396608E-002
  0.109214696662795     
   1.31991917328516     
 -0.235727018206412     
   1.54304283594767     
  -1.31570865567865     
  -1.01347107506822     
  -1.81562320381226     
 -0.406092433449745     
 -5.063956591003723E-003
  0.313465390794585     
 -0.249478363490855     
  0.670852850984169     
  0.752217801471616     
  -1.22126964901010     
  0.992453430096168     
  0.384600589175758     
  0.160748071630681     
   1.74170606833525     
  -1.94349910533100     
  -1.94673056417957     
   2.60466847487226     
  0.236719629449895     
 -6.744135473235785E-003
  2.902998685348695E-002
   1.16418568962427     
  -1.56028295342131     
  0.957781297626951     
 -0.324517649773683     
  0.559558112757338     
   1.57985818902704     
 -0.266328237584273     
  0.562773238952236     
  0.217847470430419     
 -0.611399176528038     
  0.859386667319086     
   2.46637294107376     
   1.10920903163370     
  0.798614409751544     
  -3.06598938648108     
  2.252374718563623E-002
  0.827249871736588     
   1.76105330297500     
   2.21049532977930     
  0.613952299498948     
   1.12078689857374     
   2.53555535130961     
  0.181217795070942     
  -2.11585449239353     
   2.24603505996399     
  0.519021500331594     
 -0.202223209199113     
  -1.15674704597511     
 -0.242161271939613     
  -1.31240412619440     
 -0.187641965109932     
  -1.10777017509643     
  0.578279263203744     
 -0.363977869728654     
  0.790235259200761     
  -1.46020438109061     
 -0.745285872918178     
  0.478889423107521     
  -1.07995937786195     
   1.84211380989625     
  2.625433183765981E-002
  3.589957560037105E-003
  4.690006732041721E-002
  -1.03497507870427     
   1.11439779031459     
   1.97125599071868     
  -2.70914756915609     
 -0.370012081648673     
   1.45269385197260     
 -0.230274405462735     
 -0.913998592401505     
  0.113673679102193     
 -0.299166297846908     
 -0.177811510067395     
  -1.53492960795661     
   1.03315763185920     
  0.442655467254304     
   3.24084288435369     
 -0.366999618846846     
  0.879480954073225     
  -1.18545515184619     
   1.90066892117031     
   1.32781442527708     
 -7.985300711035985E-002
  3.185518481580053E-002
  0.747070163351297     
  0.787111699022728     
   1.08677203264991     
  0.159717989294477     
  0.778418087959095     
  -1.31299629993946     
 -0.888784938529033     
  -1.34077992837036     
 -0.441200979882395     
   1.68708004372120     
  0.545600519036154     
 -0.494048928188864     
 -0.735997678112087     
 -0.857573969683157     
  -1.35317536895330     
   1.00919061368397     
  7.561689169679889E-002
 -0.119338863245746     
  0.177043180863535     
 -0.131126923068283     
 -0.949786383906821     
 -0.251595502939561     
   1.45102490657227     
   1.48092474587993     
  4.920617280143694E-002
  4.973104637944152E-002
  -1.23048039355340     
 -0.346172230646610     
 -0.104967546642167     
   1.77500670153107     
   1.20254286146504     
 -0.778487736046312     
  -1.00335323551600     
 -0.767980661200953     
 
  0.917997189967338     
   1.41426028394256     
  0.301307452371371     
  -1.20026627335349     
  8.493961263248190E-002
   1.09821272326821     
 -0.951883978781388     
  -1.66022528254527     
 -0.138349475805607     
 -0.217790254517449     
   1.30248469498561     
  0.987081831234373     
 -0.180949559468681     
  0.635066803856806     
   1.32312103226163     
  0.405696839435676     
  -2.92520570830543     
  0.301618942564140     
   1.23066108581576     
  1.445609464029246E-002
 -7.443837372803588E-002
 -0.460616414187916     
 -0.249118593157185     
  0.147371784288853     
 -0.585174516582125     
  0.952701660621963     
  0.839975420703275     
 -3.547791201478496E-004
  -1.18873882007805     
   1.24158987744043     
 
 -0.205011438684441     
  2.961999808042383E-002
 -0.631919683989104     
 -0.126429634917866     
  0.134141441142803     
  0.248831128803518     
 -7.221046409861101E-002
 -0.145079991288111     
 -0.209118445390883     
  0.107272467774704     
 -5.972622831914496E-002
 -0.175295339517217     
  0.163764160695446     
 -0.180838859442306     
 -0.799853709930242     
 -0.104981122579843     
  -2.84347491973977     
  0.119737681259509     
 -0.103094564414217     
 -4.722111324533586E-002
  3.699142398093491E-002
 -0.120971551059163     
   1.08701639883683     
 -0.290374141936110     
  0.178981994499755     
  6.022932399781300E-002
  7.048878966576973E-002
  0.108926483876386     
  3.322633338059920E-002
  0.179727355320090     
 
 -5.867917611500750E-002
 
  tansig  tansig 
