     48 -    30 -    30 -     1 
rmse=  52.7287meV
 -0.388753417963162     
 -0.517828618927104     
  0.158801801653131     
 -0.521522599934360     
  0.872837332620248     
  0.445746361363942     
  -1.00577033066799     
  0.604973819572138     
  0.896989434324638     
  0.602617689883757     
   1.57297969128260     
  0.716512307384976     
  0.660866786868533     
  -1.44992630008017     
 -0.365141626248487     
  0.590216118194169     
  6.898186459236537E-002
 -0.709028173024019     
   1.71428197731120     
  5.235127892356224E-002
 -0.300582862658752     
  0.218574369242750     
  0.846934356822164     
   1.42839277376882     
  1.042378653523388E-002
   2.30639464589545     
 -0.669148621539579     
  -1.08922003260876     
 -5.748614913993653E-002
  0.218023778659171     
 -3.070330750326707E-003
  0.324697687910649     
 -3.644547624332712E-002
  0.415060312130443     
  -1.98253910294731     
 -0.172679696531351     
 -0.181731533965677     
 -8.387934958877612E-002
 -0.330349402193580     
   1.26546255307525     
  -1.09936396850996     
 -0.612484719267867     
  -1.37330733469373     
  2.473519979455898E-002
  0.831749669062893     
 -0.152266269899299     
  3.480902072687683E-002
   1.31327202360366     
 -0.113809160678191     
 -0.313543249745360     
 -0.472647785883086     
 -0.392682115097626     
  0.361685955008180     
  4.546074105216431E-003
 -0.464119091024655     
 -0.297355035116595     
  2.373198944113470E-002
  0.935836219500246     
  6.325778904566802E-002
 -4.630332793467395E-002
  0.558376981685728     
 -9.924884664483618E-003
  0.751015148277417     
 -6.497848055343793E-002
  0.357663054190808     
 -4.230813786480279E-002
  0.157469172065285     
 -0.223267014822110     
 -0.189961197259067     
  0.535653336011837     
  4.870407291549436E-002
  0.428298642268892     
 -0.427710571969290     
 -2.551268121391528E-002
  0.184460057483375     
 -0.106875488479480     
  -1.06969837530942     
  3.197152645248221E-002
 -0.534296457696509     
 -0.601349963832909     
  4.160833980591361E-002
   1.10977179790312     
 -0.269447522094556     
  0.636125837471095     
 -0.510420219550902     
  0.547169456269111     
 -0.142263256788090     
  0.898292356593640     
 -0.337852340642222     
 -0.641046637840793     
  1.780699958388916E-002
 -0.177082769160976     
 -6.678126207889190E-002
 -0.285141542569753     
 -0.695873681303181     
  0.582535321646269     
 -0.356817420888166     
 -0.819322519446526     
  0.463238618302429     
 -0.605333208019388     
  0.156899189863238     
 -0.679675633594842     
 -0.213862690060492     
 -0.225640888788407     
  0.222121715045237     
 -0.670256098331559     
  0.634547936283335     
 -0.746447993185884     
  0.366591744139207     
 -0.553123520999520     
  0.232111946200108     
 -0.613145775248609     
  0.118297736328406     
  0.384725878188419     
  6.134269739949974E-002
 -0.257723073720794     
  0.198681622698814     
 -0.402966694633545     
  0.170139781422378     
 -0.476481907627785     
  0.170691384673320     
 -5.100192415295665E-002
  7.598296119989260E-002
 -0.361322884374406     
  6.816284515393571E-002
  0.483182215032987     
  0.726310225804446     
  0.816268237486395     
  2.685427129730629E-002
   1.16395240561741     
 -0.281683675579383     
  6.222939527831643E-002
 -0.350812807971365     
  0.722391458905808     
  0.564835779199063     
 -0.254606024122437     
 -7.082196000111703E-002
   1.03919483593243     
 -0.275420791548564     
  0.198563076103175     
  0.219861230798264     
 -0.122188094943885     
 -0.250665932291029     
 -6.883499821689029E-002
 -0.386883335385099     
  3.735054435501017E-002
 -0.320547623522375     
  0.336734926902143     
 -0.230512363811292     
 -3.191249329301116E-002
  7.488456225199965E-002
 -2.000524169528621E-002
 -6.380136874230592E-002
 -0.806179348965671     
  0.107198938431598     
 -0.358266830083726     
 -0.231616193621613     
  0.708957602385313     
  0.361589394035344     
 -0.984630084276572     
  0.429147511812714     
  8.147732640437494E-002
 -0.318228913034643     
  0.122717013419450     
  0.280243650136864     
 -0.180686824915756     
 -0.669650375571737     
  0.353031167131217     
 -2.835537051344345E-003
  0.186519066700292     
  0.364493126525719     
 -0.698281117654002     
 -0.132117303157833     
 -0.126034468447391     
  0.637846159952351     
  0.884487972324424     
 -0.168647553557822     
  0.498897108942651     
  0.372947376517468     
  8.351538947800382E-003
 -8.863581174911804E-002
  0.232342985518579     
 -0.576224840752405     
 -1.043573821218162E-002
 -0.115484781800322     
  0.849845688891763     
 -0.280454525461385     
  0.891033306729595     
 -0.185655137757370     
 -0.756200659739140     
  0.164224576291522     
 -4.888552562750685E-002
  0.204892995717621     
 -0.113241684538878     
  0.206377896228149     
  0.224334625258420     
 -0.278744557875669     
 -0.224427495768624     
 -5.762956243245163E-002
 -0.376271397122032     
  0.334935266142405     
 -0.357026815381830     
 -8.047182675150627E-002
 -0.184145298003299     
 -2.135221878244248E-002
  0.181707535910435     
 -0.140768176789769     
 -0.286378924146702     
 -0.221284957225168     
 -0.189020840970773     
 -4.012268815224749E-002
 -0.371459201210785     
  0.267652513554017     
  9.273650593719673E-002
 -9.989827200485955E-002
 -0.344618868631653     
 -0.269562623103596     
  0.188643971540498     
  0.105251946575971     
 -0.251772899265945     
  0.141758695901833     
  3.245686157107196E-002
  0.319294636539860     
  0.567288368364090     
 -0.240170890095350     
  0.291236050427184     
 -0.121845455545163     
 -0.259021352753683     
  0.349354581065043     
 -0.226760966051339     
 -0.232902310832854     
 -0.143429612066631     
 -0.124356284341213     
 -0.157390390836357     
 -5.991314748835024E-002
  0.312033815600838     
 -0.227973849392691     
 -3.290622287828986E-002
  0.175689328917377     
 -0.304317543663812     
 -3.525396545846462E-002
 -0.321779879009996     
 -0.237777097755756     
  0.641011245855091     
  7.774952414357271E-003
 -7.013283256425121E-002
  9.355193108003189E-002
 -6.061274537531664E-002
 -0.457085764023855     
 -0.461743112140402     
  0.424321123897350     
  0.145980477501182     
  0.944509837299148     
  0.306816457363782     
 -0.180661176062749     
  -1.46770089225493     
 -0.157860284454841     
 -0.189311256510239     
  0.668066494005851     
  -1.32341470002628     
 -0.658931051940413     
 -0.213375040081290     
 -0.779774930960765     
  0.839906935316931     
  0.171173851471678     
  0.322890188675765     
  0.231275444597595     
 -0.359576891936763     
 -0.115549246433471     
  0.301855710474475     
  0.428916608307253     
  0.253685586220748     
 -0.227170158733550     
  0.284679736082606     
 -0.938467097240320     
 -0.263050270824774     
   1.45466473885788     
  -1.03653882077959     
  0.342844876034341     
  0.504697374519274     
  0.214601557171432     
  0.370534947092024     
 -0.280204218033540     
 -4.071539008729176E-002
 -0.257079300374349     
  0.655825078938767     
 -0.341549662219561     
  0.896406668216235     
 -0.526348238889245     
  0.346984248292790     
 -0.191289193393255     
 -0.632533761547568     
  0.238515946509159     
 -1.813221606777786E-002
  0.411994779684304     
  0.289735435788581     
 -0.661314872480981     
  0.248856007290710     
  0.417421645732427     
 -0.277245862322638     
 -1.135552050249439E-002
  0.730260161109801     
  4.912070333500256E-002
 -0.321952129807195     
  0.382560383395227     
 -0.357379053800724     
  0.109105984120107     
 -0.842209569770660     
 -0.427131479933325     
  0.120095669868952     
 -0.454250495404017     
  0.600583892370313     
 -0.284374184124260     
 -7.464358775488582E-003
  0.578241930168361     
 -0.959122147591119     
 -5.904255668154799E-002
  0.438637074817021     
  0.157926716757486     
 -0.356515531936921     
 -0.188118316133184     
 -0.629833940685044     
  0.246090969473617     
  0.401027674234632     
  9.026335476905772E-002
  1.921199822420469E-002
  -1.07897976803795     
  0.420493887644569     
 -1.903240990090499E-003
  0.304669453881368     
 -0.463987615834507     
  0.752153174038325     
 -0.514372139373929     
 -0.278418087373778     
  0.215766997253408     
  0.651942529866113     
  0.635687382517596     
  0.139545808939639     
 -0.258251659320838     
 -0.162917819590046     
 -7.692417162874320E-002
 -0.216358978430067     
  0.493313307879015     
  0.278720828485415     
 -0.531644191902000     
   1.44257207668702     
  0.334432521191407     
 -0.496312771945436     
   1.03588098087574     
  0.637480052426831     
  0.484434240196268     
 -0.159443257005010     
 -0.543265503103553     
  0.221139613091804     
  0.409372471774537     
  -1.37360698061384     
 -0.182555564234497     
  0.265086983173785     
 -0.304006510003362     
 -0.126426238538539     
  0.546010147554141     
 -0.180582495840439     
  0.336994411295547     
 -0.629409664809907     
  -1.20202148298850     
  0.258093483105838     
 -0.540221007083983     
 -0.388265318199584     
  0.350884226105038     
  0.493935897897843     
 -0.237711262606864     
  0.279445160753468     
 -6.725263502451927E-002
 -1.022194010476263E-003
 -0.443859803777469     
  8.592184151660942E-002
  0.117940353826755     
 -0.731099148855715     
 -0.225237926163763     
  0.523599493116793     
 -0.756779607387819     
 -0.488593078221705     
 -0.194703575880504     
  0.417006504949781     
  0.628965955345541     
 -0.416069886487480     
 -0.523572203479222     
  0.172936556211426     
  0.151481603234150     
 -0.348125421771040     
  0.320726046995150     
  0.630325445093432     
 -5.591322199175566E-002
 -0.105431821304815     
  6.888405206597688E-002
  5.641413849619797E-002
  0.450720598422850     
 -0.147473979711586     
 -0.407846048672535     
 -0.140512337297453     
 -0.230107845029650     
  0.111154996389718     
  0.394268532603236     
 -0.693858328106197     
 -2.442104649469546E-002
 -0.605819311759354     
 -0.207711203277533     
  0.576178998623613     
 -0.179154897091288     
  0.288603025718858     
  0.101636654684813     
 -6.786869689702879E-002
 -0.531498470678069     
  0.127403099739239     
 -0.167974170619702     
 -9.349730640893322E-002
  7.966254010118386E-002
  0.929549805381867     
 -0.454009275280252     
 -8.954275205576580E-002
  9.953819928889981E-002
 -0.205396310302992     
 -0.869667660389904     
 -0.489678428155812     
  0.603216438415983     
 -6.679327701464151E-002
 -0.411227226176840     
  0.239979023037616     
  2.448746171757848E-002
  2.897025077871997E-002
  0.148270905219077     
  0.380008986402347     
  0.258014978540409     
  0.319583058012914     
  0.551378078364571     
 -0.921407581192097     
 -0.242489075287001     
  0.270895568229669     
  0.158596978349754     
 -0.631599529295483     
  8.858227941820614E-002
  0.469204027382438     
 -0.189905300832268     
  0.818462330583876     
   1.42849473976322     
 -0.896050173881388     
  0.407399536460542     
   1.20936900797219     
 -0.500304040733285     
  0.563221595995969     
 -0.232600326787223     
 -0.620731495793809     
  0.203382660955576     
 -0.110900204219765     
 -0.564899391788890     
  0.451633133046751     
 -0.295866774980628     
  0.734375114391843     
 -0.397350836836882     
  0.102584267363297     
 -0.137793043751723     
  0.305074194297014     
 -0.343180317798985     
 -0.641904282737126     
  0.403254473778832     
   1.45190881592418     
 -0.453987400691628     
  0.727514891585208     
  5.029494155200740E-002
 -0.351845431632591     
  7.159103861252344E-002
  0.562453974820001     
 -0.218943698440632     
 -0.403390445941929     
  0.111626416009954     
 -0.738231758576408     
 -0.160494151089036     
  0.379930833482502     
 -0.724141694102440     
 -0.373334801504179     
  0.122392177539689     
 -7.827419573816308E-002
 -0.442522110886446     
 -9.434905046398857E-002
 -0.223168420886300     
 -0.437452104030719     
 -0.619584710635524     
 -0.773896323148982     
   1.02321720069526     
  0.309100074826368     
 -1.555619818822681E-002
 -0.245445541690120     
  0.504856874393441     
  0.134415359443493     
  0.399563145419808     
  0.236042654990319     
  1.712414081393748E-002
  0.210051658874468     
  6.566403489945148E-002
 -0.450457111279826     
  0.975270174545994     
  0.281057590782333     
 -0.488411176125545     
 -0.376639428540524     
  -1.97786921288924     
  0.702547713351574     
  1.845067161790722E-002
 -0.591817312959846     
 -0.253316529353879     
  0.478618018640893     
 -0.447928718614746     
 -9.210701804582140E-002
  1.170038999648238E-003
  0.886118637115695     
 -0.216595947292508     
 -0.145246070139827     
 -0.513038209751938     
  0.262494124100274     
  0.569179805353717     
  0.219102447035434     
 -0.821145486074476     
 -0.296825676970977     
  0.398014552927649     
  0.306742481451005     
 -0.334548008893448     
 -4.204737245093085E-002
 -0.106942233956473     
 -0.795021496967137     
  1.282721939683177E-002
 -3.153906884661276E-002
 -0.309723599310012     
   1.03783938725079     
  0.119713842440619     
  -1.02495523064620     
  -2.04930564669850     
 -0.443263969761581     
  -1.57583549413898     
 -0.471469383480639     
  -1.05539386197883     
   1.40215412989836     
 -0.505043302408769     
  0.245834733832679     
 -0.675027483539412     
 -7.662799771531149E-002
  0.299662352343288     
 -0.643907140019905     
 -0.349339048266660     
  0.625661332657481     
 -0.776091330379409     
  0.550919470071837     
   1.13974654223295     
  0.418434645250207     
  0.430841251762201     
 -6.506891308033798E-002
  0.482220794644271     
  0.909680675614361     
 -7.798174449313007E-002
 -0.123116085898321     
 -2.838229344663101E-002
 -0.554201033493712     
  7.275582788168809E-002
 -0.618033833774193     
  0.790471791349695     
 -0.308139671611804     
  0.909456565309460     
  0.502209559362074     
  0.425931249674359     
 -0.851855845568391     
 -0.175133303510618     
 -8.947750090953518E-002
  0.754772612993163     
  -1.58135069302300     
  0.196642542694754     
  0.151364368344024     
  0.675307422811000     
  -1.33218101257555     
  8.217562861396138E-002
  2.737120623695963E-002
 -8.249342652529319E-002
 -3.413539514502888E-002
  0.195503593497085     
  0.138921720313806     
 -0.315584581679149     
 -0.280266807484640     
 -0.434064294712830     
 -0.219766015099238     
  0.495862537860404     
  0.501553966989420     
  0.356967824717127     
  2.539928291792876E-002
  3.631283049517707E-002
  6.427319223031748E-002
 -0.177724830818507     
  8.037847443616838E-002
  0.290258483035220     
  0.303485401375175     
 -5.101728140297947E-002
  1.188148971348614E-002
 -0.640992597103160     
 -0.538980684532165     
 -0.610679381215466     
 -0.384466652389681     
 -0.264577395004689     
 -1.016580881132268E-002
  0.198656855522284     
  4.331276221420477E-002
  0.249337203032944     
  0.340432075762972     
 -0.171655569483903     
  0.325479677170802     
  0.367647052330240     
  0.225901284605877     
 -5.899104130712492E-002
  6.864964480495218E-002
  5.630239559242645E-002
  0.196376644554694     
  0.413415046189238     
  0.693218715208170     
  0.754513356166416     
  0.319476752838586     
  2.987527035522076E-003
  0.138492064818678     
  5.199566847360340E-002
 -5.049339982655342E-002
 -0.283383099057866     
   1.12316519185998     
 -0.141536190438054     
  0.160219176061636     
  0.685030850227831     
  0.421897429457074     
  0.484804660405364     
  0.118718084194584     
 -0.661636041457610     
  0.340863151616636     
  0.164551910007826     
 -0.463111988017067     
  0.446705780727950     
  0.566469635316156     
 -0.101397367870035     
 -0.306344001004374     
 -0.283654891339945     
  0.451136428017391     
 -8.048718600962736E-002
  0.933654470427491     
 -0.183429184339268     
 -0.132445813839510     
  9.598206294060949E-002
  0.548546581293593     
   1.02112145520986     
 -0.733600108191103     
 -0.216403951924294     
 -0.186594856940688     
 -4.721009130696255E-003
  0.191877307865684     
  0.520704815894310     
  0.685418994047384     
 -0.221021716042324     
  9.228637006266575E-002
  3.968905225055944E-002
  -1.40818135386977     
  0.832577535631418     
  -1.05776247426311     
  0.746111838160451     
  0.366797062065759     
  0.193177828053493     
  0.122163405072330     
  0.400244554757354     
  0.468356906841091     
 -0.474959687625728     
 -8.044153581125857E-002
  0.403583194052611     
 -0.256065632444233     
  0.180688704428189     
  8.800008457462336E-002
 -0.450965857826628     
 -0.489774109585456     
  0.737510746429448     
  0.262271151314537     
 -0.582259095281738     
  0.383485254843164     
 -4.112386265116787E-002
  0.111886072076227     
  0.340276852333576     
  0.406675300586881     
 -0.707526260051364     
 -0.800588847610228     
  0.215150803550595     
  0.179033359022162     
 -0.253315925478807     
  0.872266625047533     
  0.447620607989005     
  0.667530394091511     
  2.830324476503761E-003
  -1.37890253273331     
  0.465714911442410     
  1.789278949799612E-002
  0.154234321016848     
 -0.218816660312721     
  0.232681342222258     
 -0.172332513136563     
  0.609964522652981     
 -3.104694857452060E-002
 -0.411933744098127     
 -0.918271440480403     
 -3.043540846873016E-002
 -0.220302131938023     
 -0.591911886605439     
 -0.122771156387241     
 -8.613790647575241E-002
  0.472953828426441     
 -0.463835979768574     
  0.197469336141937     
  0.167316750526780     
 -7.455927561643343E-002
 -0.320141215583366     
 -0.431016948724268     
  0.767195244308053     
 -0.161103474383625     
  5.451821284386541E-002
  0.416467463632788     
  0.252162712618083     
  0.474517846925009     
  -1.37508245447219     
  0.177309540494578     
 -0.321054873747345     
 -0.877866896176713     
  0.663672018726528     
   1.22785321381792     
 -0.451343146765253     
  5.288870488337807E-002
  0.325187496014400     
 -0.289635022875968     
  6.445847654400222E-002
   1.00189025691385     
   1.06698312999494     
 -0.720356792257143     
  0.141039430782576     
 -0.380973615072701     
  0.686179180493395     
 -7.986074175947741E-002
  -1.63796741030033     
  0.268751281307254     
 -0.607982470689996     
  0.125101202468711     
 -0.360552228693083     
  0.547898098570481     
  0.341108331067378     
 -0.393984610484647     
 -0.828952273262109     
 -0.544432480621152     
  0.514676761285713     
 -0.293293340365416     
  1.321407089336992E-002
  2.670018486168920E-002
 -2.295890641430236E-002
   1.37745522540877     
   1.49865058083281     
 -0.939361361401436     
  -1.09984738321069     
 -0.712767061040743     
  0.594186301640586     
  0.879499361873556     
 -0.643067124545378     
  0.302637290505824     
  0.370095784543646     
 -0.571897605148249     
 -0.435934022171648     
  0.882150337521180     
 -0.594277819018188     
  0.411214635239166     
 -0.846015559162027     
  0.236899570328083     
  0.707868424224999     
 -0.103996573625280     
  0.171848175671079     
   1.53878258997099     
 -0.449779549997930     
  0.276288763000544     
  0.208205664510095     
 -0.697110102973093     
  0.201127575135723     
  0.285073881697665     
 -0.122401138468716     
 -0.109226944762825     
  0.814545895549598     
 -0.130040352493695     
 -0.345123746493163     
   1.50479882121106     
 -0.791353916039151     
  0.804969382670465     
 -0.117842675494571     
  0.924910157523260     
 -0.937436538043462     
  0.394895935889598     
 -0.640835298608469     
 -8.352042988764190E-002
 -0.497245161482435     
 -0.191637384816985     
 -0.781849193565902     
 -0.928642945229874     
 -0.183359470363898     
  -1.15465113581786     
  0.951287703610592     
 -0.256484695902603     
 -0.444451585779328     
  0.451231386416330     
  8.867830532688616E-003
 -0.353648635398488     
  0.563379945640390     
  0.166179100060665     
 -0.431740034982065     
  0.543744800692021     
 -0.202637938721388     
  5.076098267106091E-002
  0.148253021805517     
  0.671484126336936     
  0.242732631407786     
 -3.739057165956656E-004
 -9.840643068438747E-002
 -0.237949859895891     
  0.132204864558414     
 -0.425011321650510     
  0.369027666888599     
 -0.247332316452740     
 -0.238973306673888     
  0.214844811171147     
 -0.134557861892539     
 -0.457842225950715     
 -0.302071238967955     
  0.439843300672244     
  0.311682456910793     
 -0.131312193697732     
 -0.211122539929813     
 -0.312259815211913     
  8.004885212275262E-002
 -0.238828120460423     
 -0.421903184779350     
  0.465906307241983     
  0.574667655878785     
 -0.480601693768106     
  0.289373793149225     
 -0.279928063166667     
  0.690584675983061     
 -3.472472272506068E-002
 -0.775706613329098     
 -0.120727322883738     
  0.300830646179091     
  0.394536395568765     
  0.182938555784535     
   1.30237824771185     
 -2.280510173615304E-002
  0.229869179119526     
  0.257339168112905     
 -0.346525706562331     
  0.190384152464633     
 -0.167101844952332     
  0.299924589064968     
 -0.315183918277445     
  0.186081615694632     
  0.353892290553700     
 -0.108004413982130     
 -0.558389466016097     
  3.626709167373252E-002
 -0.230665936600759     
  0.316583235923758     
  2.899135804161743E-002
 -0.171719911997701     
 -2.767521388272305E-002
  7.317263869508427E-002
  1.284716868896701E-002
  0.202779234792038     
  6.534726754006267E-003
 -0.101191367680919     
 -0.162269992092442     
 -3.850546363003270E-003
 -4.404367980211790E-002
 -3.196608853806264E-002
 -0.305685022107904     
 -0.451356170276016     
 -0.449221124530238     
  0.175158833828214     
 -0.161798693533419     
  4.042523517627060E-002
  0.394218756809668     
  0.677651329073290     
  0.529774925587965     
  0.219997152413526     
  0.371345681673977     
  0.148391758193104     
 -0.394485668187321     
 -0.121248702496062     
 -0.156602906210783     
  0.257257116030839     
 -0.106690755167616     
 -0.131867052834994     
  0.246039140725628     
 -4.852506444594233E-002
  2.194876981592443E-002
 -3.677792344491333E-002
  5.900911768004116E-002
  0.692155511353810     
  0.510715428884351     
  0.161164447743537     
 -0.165510254595935     
  1.625946989759310E-002
  0.444188893490857     
  0.478371075407799     
  0.238943675363896     
  0.195821140491791     
  0.196689648959702     
 -1.578639132691995E-002
  0.299589395153289     
  0.533842010248441     
 -0.111745039524648     
  0.951526303538209     
   1.03696205170650     
  -1.04542600680750     
  0.719517977399377     
   1.82174220990634     
  4.693240052505768E-002
  0.175151961527387     
 -0.247573704411068     
 -0.135377068458083     
  4.906456942972175E-002
  0.458849529273055     
  0.523514845119138     
  0.722592831227135     
 -0.701782901498064     
 -0.912742414554522     
 -0.585581295978260     
  0.247252452001865     
 -0.370754572327332     
 -0.255014215661380     
 -0.429598228390886     
 -0.461470709159432     
 -0.626080517464334     
  0.520867155098852     
 -0.474684593973962     
 -0.365459419338586     
 -0.274407100703093     
 -1.380192075801779E-002
  0.377850945625328     
  0.776681809166685     
  3.782618985237744E-002
 -6.787949595651076E-002
  0.954952913821900     
 -0.602918572644060     
 -0.120148218450075     
   1.53311608764763     
  -1.64180561265114     
  0.334119051995100     
  0.557949718123403     
 -9.789315550605325E-002
  0.397649238852576     
   1.02056568748226     
  0.100404054777402     
 -0.493430974556864     
 -0.101094737102352     
 -0.362058743533723     
  0.651791942637731     
 -0.373109291254634     
  8.418938766087822E-003
 -0.250685434236795     
  1.800136893061644E-004
 -8.322062538173622E-002
  0.194572821005597     
 -0.334141425790227     
 -0.296589500612048     
  0.187831204696603     
 -0.992333151264003     
  0.282034648500918     
 -9.980752950918659E-002
 -0.416701216275538     
 -0.196208866586174     
  0.129732766993733     
 -0.541054425260703     
  0.445755352900051     
 -0.144742594408102     
  4.187832407219193E-003
  0.420675798059577     
 -1.564370146744418E-002
  0.133122618405429     
 -0.197448862764100     
  0.329130728427323     
  0.190761913845411     
 -0.138182366464419     
  0.228916924602836     
 -0.169652060170113     
  0.525917394608591     
  8.567074174029349E-002
  0.697747146666823     
  0.706711338913331     
  0.191416642088640     
 -0.776488649599605     
  0.372546471241359     
 -0.221282454804093     
  6.327948155945309E-002
  0.102584800576314     
  0.513248038018163     
  0.241776280876276     
 -0.349740284597142     
  0.890351375058893     
  4.033589532465628E-003
  2.394726916877360E-002
  0.325012710215462     
 -7.701353942823499E-002
 -0.128318254266292     
  7.647270668028704E-002
 -0.284738807246830     
  0.913824128564947     
 -0.803014341673038     
  -1.13128480695364     
  0.692504054545997     
  0.145625490493292     
 -0.549245629341909     
  8.757838294885190E-002
  0.162935917482268     
  0.190233845988052     
 -0.158740520736045     
  0.292887226485406     
  0.154062100520367     
 -0.695118070196053     
 -0.438479766666002     
  0.611495437740035     
  0.212535547120425     
  0.298982252093957     
  0.434363126046397     
  0.330675543665840     
 -0.239917125491867     
  2.293304596930202E-003
  0.521600762280408     
  0.130816071918566     
  0.319717718029824     
 -0.152445951898650     
 -0.277690596381122     
  0.476842920204078     
 -0.167704017598169     
 -0.171294213082276     
 -3.473500755870769E-002
 -0.175229130841077     
 -0.610456018324981     
  -1.47590581050306     
  4.457022401987027E-002
  0.180687618133708     
 -0.514407614644728     
  0.450720974387798     
  4.631456715828366E-003
  5.085763104610257E-002
  0.108360021637034     
 -0.613752254342018     
  6.293271710068925E-002
 -0.504961523257238     
  0.310532497440166     
  0.225213114672723     
  0.181071850467327     
 -0.203274089495965     
 -0.107202136990781     
  8.725837457535274E-002
 -0.362594121469673     
 -0.149924323326640     
  0.142635688867805     
 -0.280184988992623     
  0.319157321243207     
 -0.143508443164189     
 -0.158477549222785     
  0.690626780000570     
 -0.384550982681967     
  0.231648659809581     
 -0.258358070282240     
 -0.265313027717382     
  0.268304783310495     
  0.809496914873742     
  0.131967791461718     
  0.297784256354834     
  0.181051042397869     
  0.990341173957271     
 -5.489512461583934E-002
  0.130733542211624     
  0.729458071729299     
 -5.165172862058758E-002
 -0.378609837689061     
  0.239835486144123     
 -0.328054632673435     
  0.431430152680112     
 -0.208961762430366     
 -0.276423086526910     
 -0.154233115226767     
 -0.256764884469475     
 -0.172547688029214     
 -0.897292510879332     
 -3.239513855584429E-002
  0.238802888748143     
  8.601472646756547E-002
 -0.447420239341815     
  0.860791796457050     
 -5.441538073172614E-002
 -0.119885522031750     
 -0.257504941558262     
  0.411813538007057     
 -0.405514885874080     
  0.220247991375070     
 -0.128713568098387     
 -0.123293568514099     
 -0.351127121968617     
 -0.436048721245603     
 -9.961359386969203E-002
  0.488648826921298     
   2.12756840603316     
  0.946411702462860     
  -1.18748554933243     
 -0.426025047933144     
 -0.918947580625677     
 -0.505934949214056     
 -0.350002107922798     
 -0.582909738151567     
   1.09088846040894     
   1.01933857832667     
 -0.424889097125323     
  1.975905593229760E-003
  0.146590106418387     
  -1.04379186214652     
  8.477682585045254E-002
  -1.20656217325649     
 -5.416375098900478E-002
  0.690225245597873     
 -0.953971945525616     
 -0.636535713055875     
 -0.170349103366506     
  0.358549720171796     
 -0.414834533494340     
 -0.693065758547717     
  0.550711726312535     
  0.331186323841293     
  -1.38950201725010     
  7.772836227114599E-002
 -0.494997736733302     
  7.788455985560888E-002
  0.375235259551715     
 -2.439335570445797E-002
 -0.155072153539825     
 -0.526596118374191     
   1.62412575496835     
   1.17272447995507     
  0.180097866147081     
  -1.17472410934409     
  0.484526429236942     
 -0.970636443342123     
  4.934885624228192E-002
  -1.35744197954494     
   1.08380956190288     
 -0.837611584500108     
 -0.739690413503940     
 -0.164945934007439     
 -0.369926639768859     
 -0.433712329523553     
 -0.679651589450808     
  6.394447762934242E-002
  0.218394168248862     
 -0.469290758898305     
 -0.332455516453849     
  4.206597265999335E-002
 -3.995135448779720E-002
  0.434816492722258     
  1.322637632885374E-002
  0.259248404178580     
  4.183209833549249E-002
 -0.569044871280514     
 -0.124227823941986     
  9.186456628842546E-002
  7.252792994473634E-002
  0.569888261745532     
  0.755097357536848     
 -0.152629215927873     
 -0.372273445335655     
  0.451987866719429     
  0.271909687923607     
  0.627954305928188     
 -0.574757619177720     
 -0.815020267805092     
  0.597037804418980     
  0.641405171402713     
 -0.756714978079130     
  -1.10571392576818     
 -0.727525188584080     
 -0.227121195607032     
 -0.886753742171970     
 -0.615041410337554     
 -0.648644453846665     
  0.410424301701294     
  8.838116935360253E-002
  0.753318005519824     
 -1.991316809413867E-003
  1.478079271385052E-002
 -0.802980923064390     
 -0.166948942824304     
 -0.237946441886258     
  5.257855560293555E-002
  0.262792887947907     
  0.690129861864348     
  0.289749728360810     
  0.350884197877226     
 -0.201273814603252     
 -0.385101904075426     
  0.139757095500196     
  0.409273339670809     
  0.206989524066151     
 -0.270353996318891     
  0.201896848748064     
  0.156671644476886     
 -2.944454473898087E-002
  0.169066334274026     
 -0.135340249161859     
  0.403311505859683     
 -7.048777216595330E-002
 -0.261371225784687     
  0.159117881302139     
 -0.157884806349840     
  0.201241319659204     
  0.310631670223490     
 -2.256985367717448E-002
  -1.19728665308526     
  0.660641951153450     
  0.142913156683263     
   1.23880769881181     
 -0.598084361714209     
  0.428138063891797     
 -0.160007963965119     
 -0.560300444301379     
  0.183554750850320     
  0.462670502898418     
 -0.273075790883903     
  0.226646082140110     
  5.059721109344265E-002
  0.378312700300827     
  6.259235905864473E-002
 -0.391878287702759     
   1.12619712135597     
 -0.608699174980267     
  0.468261879160565     
  0.496411212900707     
 -0.489172264368851     
  0.125888074272555     
 -0.351521522811049     
  0.570012645987826     
 -0.309407855930499     
 -0.137768737132561     
  0.434217778649652     
 -0.250675909278775     
 -0.280189308077269     
 -3.146282906207647E-002
 -4.149301912282863E-002
 -0.319869740097136     
  0.158089735136336     
  0.182608433812701     
 -0.267617277138153     
 -0.183618504780595     
 -0.113880313989984     
  0.849676708577788     
 -0.176259638642253     
 -0.179287248387737     
  0.531372468084192     
  0.552897184865702     
 -3.733654289509745E-002
   1.18720705526891     
  0.217624085405879     
  0.404924343522408     
  8.405779950909550E-002
  1.340088631417091E-002
 -3.788481208038042E-003
 -0.305335671723123     
  0.715972977588297     
 -0.656348097349693     
  0.410234915604714     
 -0.371802747609832     
 -4.189069046076720E-002
  0.103856096372801     
 -0.989583997080574     
 -0.309387658653284     
 -0.801346065774723     
 -0.857892704709683     
 -0.157890228964680     
 -0.820943740187758     
 -4.090596167526182E-002
  8.307901646556282E-002
 -9.650686323643572E-002
  0.250899816727711     
 -0.184999085905608     
 -5.465267524054565E-002
  0.316703972653051     
 -0.889017644587829     
 -6.994766660313390E-002
  0.136387479743696     
 -0.768727348418285     
 -7.718473630798800E-002
  0.185662913753983     
 -0.268761392483804     
 -0.472470247348502     
  0.586267287734609     
  0.957647098778738     
  0.942832408814310     
 -0.684275887839520     
   1.07581116902700     
 -0.290645466266353     
 -0.639868867109949     
  0.416368212894046     
 -0.606363517884207     
 -7.883480661071805E-002
  0.595065173484355     
  0.175841430121526     
 -8.067227550380913E-002
  0.347234797591398     
  -1.55779269527338     
 -2.144838615682021E-002
 -0.185819755435693     
 -0.738853149764055     
  0.202232726151466     
  0.755525155291103     
 -0.236216021608380     
  -1.05799993544492     
 -0.161895825498823     
  0.930853334771379     
  0.135121563698340     
  9.453965737171942E-002
 -0.382889695116396     
 -0.636760270999699     
 -8.933064885961024E-003
  0.421918315803004     
  0.696357405538434     
  3.666995957184683E-002
  -1.00245696841950     
  0.991952718219094     
  -1.00006811719010     
 -0.390794510768654     
  0.803842657410646     
  1.229642435664656E-002
  0.525439001424823     
 -0.764223120112585     
  0.792809408022479     
 -5.325576226973371E-002
  0.146166075324906     
  0.344329653439790     
 -0.608831297891140     
 -0.124452984768810     
  0.324595985294096     
 -0.298910905947614     
 -0.240823810428344     
 -0.244159041122904     
 -2.139362779147357E-003
 -0.543894963240758     
 -0.188411542925297     
   1.04574653904355     
  0.712493011164935     
 -0.746109174528366     
  0.966115327970532     
 -0.173534494285505     
 -0.381709347138767     
  0.701445834903993     
   1.01272668601747     
  0.133832787383563     
  0.270393934778071     
  0.390840157811779     
  0.355223300860039     
 -5.446595805432326E-002
  -1.55064186014382     
  0.264810334680178     
 -0.221273627804512     
 -0.402751750285423     
  0.109743176031455     
 -0.430745203969032     
  0.400938957920310     
  3.770574742243440E-003
 -0.507531395265621     
  -1.11569182203458     
  3.016426942196347E-002
 -0.569302108528268     
 -0.472847221547746     
  0.153315407845931     
 -0.259943659380682     
  0.184357212964620     
  0.757383219870984     
 -0.267038692604215     
 -0.141604099259315     
  -1.02689847124308     
 -0.411990175982565     
  0.509950304547315     
 -0.273104222867686     
 -0.191396743691363     
  0.937029347755588     
 -0.929084646602206     
 -0.612693877928316     
  0.450628214640269     
 -0.170236355197574     
  0.183769525486102     
  0.297326738789686     
 -7.648517511284914E-002
 -0.123622995894069     
 -0.138124151771292     
 -0.357682419519898     
 -0.522182940266051     
 -0.752319211730293     
 -0.883280995978796     
 -0.102716749822685     
  0.202656453957952     
 -3.761527505754887E-002
 -0.807420985189869     
 -0.918009000883339     
 -0.366833344644246     
  0.199684998987895     
 -0.400377998523823     
  0.240940031618252     
  0.331899518525060     
 -0.777151816340702     
  0.400482043159284     
  0.178141269565973     
  9.237280781108818E-002
  9.494950898696061E-002
  0.816211510398885     
  0.107368759194203     
  0.284003779920917     
  0.290115374760215     
  0.406785487942519     
 -0.326526086278223     
 -0.283022607210561     
  0.371058068365854     
 -0.174328473895224     
  0.594661587737667     
 -0.873061065034727     
  0.469996968682789     
  0.103103444053299     
  0.107674838503304     
  1.812727934728301E-002
  6.219820134560654E-002
  0.345356274943494     
  0.872897984654574     
 -0.360011193392316     
 -0.987574402665760     
   1.02911891600221     
  0.573104349302391     
 -0.609191327935502     
 -0.208172085361003     
 
   2.55657600741096     
 -3.855223651480923E-002
  0.431568840199455     
 -0.404921244023982     
  0.658895168150041     
  0.862350446364211     
 -0.730525318309848     
  0.290506420049796     
   1.68728787474257     
 -0.402832525467526     
 -0.304499479853972     
 -0.176387819764855     
  0.698269091592696     
 -0.418592378748699     
 -4.452780549139281E-002
   1.02716567731089     
   1.32135025753825     
 -0.787471874680359     
  0.136243326307525     
  -1.60766335441155     
 -0.663279306781758     
  0.149561806544858     
 -0.505622259508943     
  0.702254821654358     
  0.775214531042641     
 -0.115391920483892     
  0.598554975409990     
  -1.25973713333007     
  0.415335186226499     
 -0.269606665210694     
 
 -0.340350693647819     
 -0.256381963345834     
  0.498680677756936     
  0.150428795723159     
 -0.375971961618899     
  8.750360226396058E-002
 -0.792731064624250     
  0.471591357908726     
 -0.213665069236019     
 -0.391476700696664     
 -5.945308183843117E-002
 -0.646281597098280     
  0.691176141763715     
  0.254658168072896     
 -9.838911337931053E-002
 -0.867793851729219     
 -0.447864720733784     
 -0.649295332585423     
  0.709793526774986     
 -1.783307945294701E-002
 -0.213978847795533     
 -5.659505045605400E-002
  0.364894967427097     
   1.37581792082310     
  -2.16476588147492     
 -2.869067133018104E-002
  0.472299540592392     
  0.163956623046838     
 -0.137328569264045     
   1.11767569693137     
   1.63564518154345     
 -5.392655133563685E-002
 -0.830848244038670     
  0.319693897573560     
  0.191309444514336     
  2.742533005900786E-002
 -0.917482443099134     
  0.284251864110071     
  0.701831789054282     
  0.398883676810709     
  0.377445373271896     
 -0.501226987667031     
  2.054110337279252E-002
  0.594025599760965     
  0.407814148694810     
 -0.660622648603754     
  0.483148246476101     
   1.09274793213837     
 -0.297245331643282     
 -0.200683984269669     
 -0.285154243316212     
 -0.375742236852231     
  0.179688170947153     
  0.719141487523295     
 -0.279740513759329     
  0.777772320358545     
 -0.213204629301515     
 -0.515491929465979     
 -0.433102246967817     
  0.968125889243111     
   1.13403963037042     
 -0.216454865836709     
  6.916724985686466E-003
  4.782864757803752E-002
 -0.544814579344193     
  0.343792046326392     
  0.220975712023037     
  0.184262169713108     
 -0.533877472538252     
  0.121726533297955     
  5.364714740224169E-002
  0.416055006781257     
 -0.464245109346322     
 -0.337454678012262     
 -0.137783254800115     
  0.430044232656059     
  0.251585726992709     
  0.188367916723734     
 -0.867880612589878     
 -8.242969185860166E-002
  0.308759899447180     
 -0.116020227870812     
 -0.193417658284787     
 -0.871228490172940     
   1.44004144622073     
  0.205835409133717     
  0.310012544458309     
  0.258919448990338     
 -0.125366029361063     
 -0.830318600764540     
 -0.563126903714439     
  1.598770078340542E-002
  0.299318121508045     
 -0.598273260626020     
 -0.387035681918737     
 -0.745708428700195     
 -0.475201814563624     
   1.16634729162853     
  -1.19077277638142     
  0.204137689888607     
 -0.353630566657312     
  -1.49019871349973     
  0.476099981987442     
 -0.434720067984568     
 -0.628034609578932     
  0.216602335419642     
 -0.679093378059482     
 -0.100374856471775     
  0.122487727601814     
  0.791519804673582     
  -1.15837189876423     
  0.798763561046506     
  -1.53590872242345     
  0.148166104555383     
   1.20990189557039     
 -0.239432441121553     
 -0.353360087990169     
  0.725682294067695     
   1.06947234063242     
  0.327179144129632     
  -2.74223600307406     
  7.586843515861674E-002
  0.567413881046279     
  6.645002210381985E-002
 -1.379088946322796E-002
 -0.386366384622456     
 -0.216248315665448     
  4.282473306722869E-002
  0.767579770112481     
 -4.268264652148951E-002
   1.10880778237600     
  0.283348425928420     
  0.120042398423581     
  0.899678951451193     
 -0.378072404711000     
  0.598511110814519     
 -0.109530591569467     
 -0.362419482385599     
  9.154924832420774E-002
 -0.855598570569439     
  -1.07269606321680     
   1.13223387773913     
  0.211558687045938     
  0.880977544089040     
 -0.795463549774601     
  -1.44948069207420     
 -0.622889135797977     
 -0.133703253256568     
 -0.581009032281471     
  -1.89725019245893     
 -9.010622480670502E-002
  0.121117033532260     
 -2.609651538531714E-003
 -0.809866687079268     
  3.953329301061331E-002
 -0.511151989777083     
  0.337833891518223     
 -0.682929147340168     
  0.456932537473675     
  0.133978803467132     
 -9.592783956680138E-002
 -0.576422234887940     
  0.566491944069299     
  0.160600497804417     
 -0.125072414429233     
 -6.264432529746747E-002
 -0.580546190023429     
  5.383771071326548E-002
  0.276806360274998     
  0.533819721943193     
  0.147077669457479     
 -0.250004295052546     
  0.194397591182927     
 -0.147224536015245     
 -0.631671217316895     
  -1.02268857783174     
  -1.08713403723761     
 -0.740589393170574     
  0.462200958216530     
 -6.724125685451718E-002
 -9.745161270538125E-002
 -8.116160877176845E-002
 -0.360392636144990     
   1.68023023220434     
  0.163635684335335     
  0.217038617366704     
  0.793898258353542     
  5.551363647985481E-002
  4.906796118842972E-002
  0.486099005855946     
 -0.103044185826181     
  0.682742469689506     
  0.945434711247325     
 -0.253668842933801     
 -0.325513713445406     
 -0.903704542825522     
  0.338593087030238     
 -6.487967419526924E-002
   1.00497131451743     
 -0.726065197121554     
  0.499337042529876     
  0.303949809109936     
  0.588418240787139     
   1.91586746281898     
 -0.811863457039441     
  0.449795243988107     
  0.356583615970669     
  0.160830695306762     
 -0.799215642453174     
 -0.723726714189047     
  -1.29686432487028     
  0.180883544877999     
  4.778877654638114E-002
  0.541944440973472     
  0.406384076609298     
 -1.832469306609342E-002
  0.309150131119182     
 -4.817203978628226E-002
 -0.169360615963351     
 -0.138673258361433     
  4.829211665905205E-002
  -1.41274677372446     
  9.921221235385841E-002
  0.328457327943223     
 -0.421915343980298     
  0.279908786753671     
 -0.331914347930096     
 -0.362432360403416     
 -0.624145842373354     
 -0.747116047248541     
  0.378923383069388     
  0.512996487650248     
 -0.750023447718609     
  0.196603552353473     
 -0.630314126851686     
  0.105192013363385     
  0.440405690935962     
  0.799375412886248     
  3.963954476847792E-002
 -0.334172500897116     
 -0.144787658015406     
  0.191624876628990     
 -0.124389779850397     
  0.101736798454322     
 -0.119978278941871     
  0.295813460350385     
  -1.06518373426266     
  0.182089545234718     
 -6.463555716445878E-002
 -0.100536745511170     
 -0.105865367100948     
 -0.915081829284140     
 -0.754988310769145     
 -0.126305397254303     
  0.514442100569828     
   1.61641863633976     
 -0.312012693290486     
  0.319978793364448     
 -0.407803942325887     
 -0.658280609737820     
 -0.494852182065237     
 -4.590017226670214E-002
 -0.124331885007730     
 -0.624919437341965     
  0.650765182196491     
  0.677152984694325     
 -0.174633724454115     
  0.351299902771501     
 -0.229825444648325     
  0.666402361129981     
 -0.517174305089009     
  0.730934058063476     
 -0.954634084981709     
  0.132781626815026     
  0.119018529227844     
  -2.38274903723052     
 -0.806775708760504     
 -0.145325691184016     
   1.49112978866392     
 -0.322826077098757     
   2.77350925909357     
  0.226232568540528     
 -0.978118489791841     
   1.27764145035354     
  0.265348509006660     
 -0.950323344285777     
  -1.66523640640919     
 -0.652038227821816     
 -0.861944494864205     
 -0.477778183902578     
  0.194554270256552     
  0.489814361325751     
 -0.889894869157312     
  0.746138257753508     
  0.668564200290817     
  0.336373714876494     
  -2.40744740708536     
 -0.112840118426738     
 -0.115604040003306     
  0.468897973511431     
 -0.788302091472913     
  0.185300102508392     
  0.377432843650431     
  0.355485692946530     
 -0.284575583289561     
 -7.228175668383244E-002
  0.131976652893676     
 -0.212192661318638     
 -8.815739562948222E-002
  7.775684587749304E-003
  0.127103682228740     
  0.498336163764352     
  0.282007592770615     
  9.734813032362784E-002
  0.292148723727282     
 -0.891731892934441     
  0.419686934732446     
 -0.249295223645571     
  0.690779315072453     
  8.711628675341840E-002
  0.178504868778561     
 -0.282707448185506     
 -0.169514424934178     
 -0.326927597851644     
  -1.47301001025457     
  0.228237928063010     
  0.707403603004262     
  8.842923155060349E-002
  6.417011159516994E-002
  0.123222198351473     
  0.884139955433167     
 -0.505744982962689     
  0.752897183317804     
  0.307451621214000     
  0.226226093226160     
  0.218921580194559     
  8.189053200079607E-002
  0.676046930663385     
  -1.76797015867317     
  1.449323470907170E-002
 -1.812746805924055E-002
  0.313222167100660     
 -0.182483683931174     
  2.721303342639375E-002
 -0.280004418859014     
 -0.721844098089662     
  0.670951633438446     
  7.727149126034155E-002
  -1.05496269424574     
  7.880405471764787E-002
  -1.12692839365886     
  0.377229792572721     
  4.655133702455022E-002
  0.199135405405748     
 -0.262934032814877     
   1.23855264633189     
  0.184034564355175     
  0.328347145823598     
  0.310474398532243     
  0.375503074895070     
  0.542641571244250     
 -0.193879535026428     
  0.841263040417729     
 -3.116820185679705E-002
  0.515365773849500     
  0.286327616554154     
  0.538612649176665     
  2.009905351342458E-002
 -0.925218834463494     
 -0.641814097283229     
 -9.402514592284632E-002
  0.834612165303889     
  0.136974970486056     
 -0.419484143671899     
 -0.364822813625624     
  0.595277135594763     
 -0.973734979172399     
 -0.804795178304882     
  8.886356802764447E-002
  0.307918450892020     
 -0.915783580909315     
  0.485381693654560     
 -0.133672348727404     
 -0.843503658394596     
  0.944465736635980     
  1.351022490159362E-002
 -3.697629455512226E-002
  0.571237245697206     
 -0.337384158837915     
  -1.00448682314820     
 -0.417630560543111     
  -1.90012616578647     
  -1.08282336997616     
 -0.862420647144447     
 -0.535620551213052     
 -0.857195968557001     
  0.440990330153218     
  0.231757396663896     
   1.37853471578848     
  0.514071057920847     
  0.735369949627175     
  -1.01928576656679     
  0.189990819856017     
 -0.794959364509523     
  0.226246225836450     
  0.371484605661484     
 -0.244988643635808     
   1.16600482200666     
  0.178253815386206     
  0.306575267853145     
   1.11464834894570     
  -1.56387593680062     
 -0.962915562744294     
 -0.447973848512206     
 -0.862181634522333     
   2.73633683913415     
  0.427699888370480     
 -0.369076484934664     
 -0.369224586967795     
  0.705122321788760     
 -0.950081845348376     
  0.295575024144148     
  9.667135266035312E-002
 -8.296964345484592E-002
  0.841706278137222     
  0.234921242716035     
  0.557105054590008     
 -4.639870008098707E-002
  0.484344451771136     
 -2.347963604795704E-002
 -6.176700740192326E-002
  0.975364972281333     
  0.365458975874639     
  0.167450107850595     
 -0.426232658702617     
  0.273378167453781     
  1.870307153665028E-002
 -0.333071737410532     
  0.700512779997571     
 -0.698740299028106     
  0.671065364238879     
  0.258147517576577     
  0.383207248722176     
  5.593471540745575E-002
  0.251458038370081     
  0.181270620265800     
  0.283138392269116     
  0.452139854434818     
 -0.231125693414543     
 -0.799640348150575     
  0.469574160129174     
 -0.581019321242496     
 -0.680893521437904     
  0.302281964982826     
 -0.273907777001797     
 -0.524986343318824     
 -0.968335121345880     
  0.303562936766515     
  0.319109592212450     
  0.236565019182575     
  0.114676505481815     
 -0.373178075919053     
 -0.901835215846708     
 -0.836861275612785     
  0.196501653896854     
  0.837282266493666     
 -6.225988646704583E-002
  0.497082726225017     
 -0.541664399865516     
   1.09376457244819     
 -8.979227039238948E-003
 -0.789190804074851     
  0.498858678152039     
  5.789302075127088E-003
 -0.174898264612783     
  0.328287614528256     
 -0.756522734039143     
 -0.913526356740934     
 -8.098657352443150E-002
 -0.382146576377621     
   1.65180774264671     
 -0.663169861493411     
 -0.292054850709048     
  0.469544083102117     
  5.386250008933870E-002
  0.685270432417582     
 -0.736218480808151     
  0.960700015966712     
 -0.575233949318458     
 -0.382634917328274     
  0.352690401053184     
 -7.125326025852247E-002
 -0.369531707026076     
 -0.313860178555928     
  0.332272401957947     
  0.880507392326490     
 -0.611728832072149     
  0.336228160290738     
 -0.357511514443993     
  0.295189039164929     
 -1.421937698134373E-002
  0.236705474485458     
 -0.183358749541384     
  5.356093306997817E-002
  0.393564729638978     
  0.563324598117808     
   1.42227089613511     
  0.576503142633920     
 -0.582428348715367     
  0.783586643499095     
   1.83575697432614     
 -0.926766226394293     
 -0.320925249485962     
  0.452296862506904     
 -0.416330941989330     
 -0.173617179013069     
 -0.599360065799348     
   1.09430570639961     
  -1.13453838343938     
  0.259893551685425     
  7.470068658829358E-002
 -0.605556778136024     
 -0.657592807055825     
 -0.410635991150993     
 -0.389215493816537     
 -0.424922166788345     
  0.844973134266138     
  0.556348674408858     
 -0.860617140508419     
  0.263443040784535     
 -0.554681937798678     
  0.795840566072284     
  -1.09415633428093     
 -0.771803715002607     
 -0.380723669027611     
 -0.240814118335750     
  6.358386983945395E-002
  0.731929946720634     
 -0.159246813074911     
  0.879593686034462     
 -0.204698233415360     
  0.165449641013161     
 -0.303661020441914     
 -0.797709438144098     
  0.272212995637905     
 -0.257691369810431     
 -0.818869305087163     
  0.108242776235343     
  0.401764826275380     
  0.175681220932219     
  0.219038373356253     
  0.424692479059606     
  0.135942695601449     
  0.500771745165879     
  0.560774952522188     
   1.12602745487333     
  0.150940609515802     
  0.952210273995140     
  7.903623070500014E-002
  0.507277036783903     
 -0.814292029411801     
 -0.302795371591800     
 -0.436965598217735     
 -0.585597651023995     
  0.210128433694636     
  0.232997537260167     
 -0.481882915209789     
 -0.772054942957836     
  0.322736495316835     
  0.529239067176114     
  -1.44179023598703     
  0.575551862865669     
  0.666060319794493     
  0.493164653652811     
  0.249755007418384     
 -0.151127188427378     
 -0.519223966055275     
 -0.782833381043126     
 -0.999795288292195     
  0.598321844337142     
  0.435296658207787     
 -0.547544195899733     
 -0.321491732384120     
   1.15075582908483     
 -0.249105724035611     
   1.36473406763523     
   1.09863796910964     
  0.328145119921872     
 -0.341545735948794     
 -0.669261865904163     
  -1.54963105749570     
  0.361429886408270     
  -1.63768827876859     
 -0.719286239500337     
  2.134566929491686E-002
  0.772688316504392     
   1.01739959036315     
  0.776196547182288     
  7.958415561195728E-002
 -0.420363825391747     
   1.34694526935136     
 -0.102908311739112     
 -0.507305229134012     
   1.54573477762617     
  -1.14828541106732     
 -0.254501498827861     
   1.83062652447222     
  -1.39324474361252     
 -0.100448486055982     
  0.811310748506242     
 -0.155800411450554     
 -0.336710731150392     
  0.417456884398276     
 -0.552530677452989     
  -1.25853434535750     
 -0.651122679708864     
  0.954287740817858     
  0.314256851964814     
  8.894756185034119E-002
 -0.891877821037460     
 -0.249221999995501     
  0.373574558819809     
  0.103681808720701     
   2.26048204200788     
  0.728690082855651     
 -0.376097648870543     
 -0.844798070541119     
  0.120754059201396     
 -0.447061589773661     
  -1.04875696938795     
   1.17255713419652     
  0.413050415149830     
 -0.328172006863677     
 -0.693826825736238     
  0.449102426000519     
 -0.337158768884905     
  0.313666697201901     
 -0.135586192140473     
  0.292760718147774     
  0.661332493523011     
 -0.283831832029236     
 -8.501105403540050E-002
  0.339330030284950     
 -0.519369686736593     
  0.121399838622969     
  -2.55929937616143     
  4.632555565851100E-002
  0.397112974866306     
  0.366469027362657     
  0.579256816857717     
   1.00107399873707     
 -0.968268044665924     
  0.561410994415581     
   1.11108500599301     
 -0.734493484821606     
 -0.385016196747053     
 -0.762994450868319     
 -0.973780782935523     
 -0.495668513961877     
 -0.272194388430492     
 -0.821692564129686     
 -0.543295649138987     
  8.660368188871100E-002
 -1.610094661727348E-002
 -0.422209090028547     
  0.128943018165208     
  0.766783379565601     
  0.529440914080219     
 -0.119911801506174     
 -0.212157320678367     
 -0.111308144576305     
 -0.469701821121496     
 -3.890298728161967E-002
 -0.156829353651594     
  -1.08712870702479     
 -0.944974374150426     
 -0.311025755250344     
 -0.900032833517245     
 -6.098509295410098E-002
 -0.550270448415649     
  0.689649746228560     
  0.236502823762352     
 -8.433057366966371E-003
 -0.278607847261319     
  0.497101826975644     
  0.106487668346485     
  0.555232860709485     
  0.828424778815342     
 -0.482082369336231     
 -0.622023022014700     
 -0.295190733118545     
 -1.387446067605002E-002
 -0.163346335970084     
  0.148507127496129     
  0.127330744167217     
 -1.151599498598715E-002
 -0.337930140124078     
 -0.192941424075303     
  0.331993260736985     
  4.130523175978353E-002
 -5.488290485948920E-002
  -1.23288231599842     
  0.386240025619852     
  0.211737991454460     
 -0.104095461167004     
   1.13879936283458     
 -0.196654172280091     
  0.305189809111253     
  0.431566309398178     
 -0.255455325703618     
 -0.330742684450838     
  0.122953123305880     
 -9.389887754815544E-002
  0.258276875472440     
  0.646923285637267     
 -0.226607817446495     
 -0.428076125353140     
 -0.321544883453447     
 -0.155979629868718     
  0.492278518096403     
 -0.768304666753526     
 -0.165015061615043     
 -0.754400687205741     
  0.831547887045923     
  0.117313930569753     
 -0.646329357192199     
  -1.60365156405009     
  0.620378809946508     
  0.237495380765102     
  0.198417411592044     
 -4.297432988724846E-002
 -0.288204457700032     
  0.388658718430512     
  -1.05139155153823     
 -4.102765845879065E-002
  0.910498975022717     
 -0.162752080081233     
  0.647404726636418     
 -0.129255872859899     
  0.899852202455239     
 -0.741087655490597     
 -0.961561971143560     
  0.823201943348833     
  0.976835133888739     
  0.217723268092469     
  0.287511498005070     
  -1.57374228725223     
  -1.28088320810140     
 -0.871943042676541     
 -0.985718769609136     
   1.99006491293942     
 -0.676654220323562     
  0.268528648299146     
  0.842818800613087     
 -0.814919703623550     
  0.325434144358098     
  -1.20268834336458     
  0.471959270856058     
 -0.725522995120200     
 -0.464334177930043     
  0.228993179167949     
  -1.85357022324523     
  0.280630206101139     
  0.138739425124248     
 -0.305044855045093     
  0.376060159156662     
 -0.153069019337577     
 -0.120407595051402     
  3.577109355769392E-002
 -0.608097607094369     
 -0.513484736530011     
   1.39416708348274     
 -0.572523378569864     
   1.49448139737290     
  0.730359444258918     
 -0.238905881853409     
  0.151008391127754     
  0.506948694311228     
  0.100432306823543     
   1.04006332913901     
 -0.350142886317085     
  0.394626958108144     
 -0.543953176913265     
  0.342981619035555     
 -7.656362552168577E-002
  0.139754834083745     
 -0.706704058607619     
 -0.313561731149839     
   1.19010906791473     
 -8.902092233737505E-002
 -0.185343405908057     
  -1.71840699028158     
 -0.256331996973674     
 -1.006635435527891E-002
  0.459678116347525     
   2.13963712658620     
 -0.576644979231209     
  0.442562798779715     
 -0.492785096871663     
 -0.212781450635390     
 -0.447274650388353     
 -0.192970194998131     
 -0.110926040463427     
 -0.750880721162453     
  0.169890443328800     
 -0.528343132099469     
 -0.823922665638573     
 -0.964224301607851     
 -0.219585674566749     
  0.963868837814820     
  -1.84510881294160     
 -0.208812938325412     
 -0.302717794912947     
 -0.833506487603958     
 -9.693688226572104E-002
 -0.634591543588452     
  0.487414028234686     
  3.831540587019207E-002
  0.551811276856138     
 -0.287621623377896     
  0.183351786036332     
 -9.111718948792813E-002
  0.139481705076235     
 -0.275471907957169     
  0.252694150395124     
 -0.118372680205125     
 -0.477950753704681     
 -8.228466771557572E-002
  0.115968127136588     
  0.471510502954182     
 -0.226242903884117     
  0.251636539267265     
 -0.620795204781148     
  -1.33619293683676     
 -0.920288476076022     
  0.649870575439418     
 -0.807032960831228     
 -0.405932769507207     
  0.142695515569484     
  0.645831125399359     
  0.177613106943974     
  8.402789751617779E-002
 -3.992778904338446E-002
  0.640426464155270     
 -0.822043318208508     
  0.258991098064838     
 -8.739638079008734E-002
 -0.357402547790003     
  7.452750595216724E-002
 -0.251575011042090     
  0.177588890835693     
  0.819353047567670     
  0.159538298937844     
 -0.227087387118284     
  0.271652182332558     
  8.235189883248654E-002
  0.376682380685211     
 -0.287844823703199     
 -0.241444572809559     
  0.613254923601703     
  0.430299773687504     
  0.186711662728759     
 -0.312907328361123     
 -0.876564651210100     
 -0.406252488395113     
  0.318092053864345     
   1.30685975658091     
  0.233272837918067     
  0.425916938679187     
  8.907720159090118E-002
  -2.16414058619057     
 -0.967386830613373     
   2.08670581190503     
 -0.607201591910789     
 -0.497414711231998     
 -0.655269823095223     
 -0.294918322722230     
 -0.840311748846091     
 -0.177479629988581     
   1.05558978896590     
  2.900624127248341E-002
   1.27241108878523     
  0.261138414534976     
 -0.733352437421496     
  -1.42185364137418     
   1.30736245852504     
 -0.582451959124841     
  0.293373655834519     
 -1.780881264000151E-002
  0.901333220472364     
 -0.775970932944413     
 -0.899319190297316     
 -0.406108242522753     
   1.26286710431037     
 -0.191287562877790     
  0.714343336711087     
   1.17228903318860     
   1.34906149434231     
  -1.36632169496552     
 -0.946301226549179     
 
  0.250993722273876     
 -0.385942365655179     
 -0.608371476122111     
  0.520609745692684     
 -0.237024612845109     
  0.139047469544435     
  0.979364293342043     
 -0.424918068539196     
 -0.312460995318930     
  -1.10398965583431     
  0.298074475511139     
 -0.498802395061234     
  3.190338817814631E-002
  9.171830380830893E-002
  0.746059703874307     
 -0.647801200612499     
 -0.814735229814182     
 -0.505815848432865     
 -0.212223219871162     
 -0.191296303060787     
  0.652778525335486     
  0.866464107465416     
 -6.339869021570418E-002
  0.168688740105921     
  0.406017513173291     
  0.505429532210162     
  0.156303607690205     
 -0.150413301791869     
 -0.117346410304405     
 -0.121053841395916     
 
  0.387780111082554     
  0.226582088682896     
  0.535588107095995     
  8.319664920591917E-002
  0.471776938362120     
 -0.373340008121712     
  0.612927019544114     
 -0.317285396676871     
 -0.368592306909535     
  0.684621401574321     
  -1.68580246469075     
 -0.192749332684036     
  0.147394081836553     
   1.00120500030355     
 -0.908279082745568     
 -0.344959921429029     
 -0.168144611559034     
  0.120492353387191     
 -0.488068906942892     
  9.625315252370810E-002
 -0.149772329744197     
 -0.175797665022037     
 -0.449014524238946     
   1.44401594681652     
  0.149459599999679     
 -0.353129840923153     
 -0.325597916383082     
  0.290129953194849     
  0.473037069954015     
  6.981187210905057E-002
 
 -5.867917611500750E-002
 
  tansig  tansig 
