     48 -    30 -    30 -     1 
rmse=  38.7021meV
 -0.140263573678563     
   1.13422845379880     
   1.48223638610023     
 -0.127010835378081     
  0.285466320238007     
 -0.665979802494433     
 -4.656869352458300E-002
  0.418987861324372     
 -0.198953139451850     
  0.299839064381369     
  3.444318461037052E-002
 -0.469490592082196     
  4.604194477725612E-002
 -6.630260451319085E-002
 -5.292781833859055E-002
  0.168153429792526     
 -0.397525976832502     
 -2.378952694360726E-002
  0.332269588438087     
 -0.114285418546636     
  4.200003369888076E-002
  0.230172257290536     
 -0.507981039400963     
 -4.991485717023747E-002
 -0.731573665104005     
  0.573647461501305     
 -0.420051048544440     
  0.429648858396003     
  0.123372828791044     
  6.791145902068234E-002
  2.777980883625156E-002
 -0.332084480275350     
  -1.10425635832238     
  6.667919798074397E-002
 -0.896236545386138     
 -0.345486848155223     
  0.779236574000479     
 -0.566994785095783     
 -1.379645799741868E-002
  0.177221747276754     
 -0.379842905137070     
 -0.323842770819711     
  0.353788071243899     
  0.135735062043016     
 -0.149929370805551     
  3.494606185463211E-002
 -0.122683639695027     
  0.282085615927101     
 -0.394780686942463     
  0.201291129899501     
 -0.284000159604980     
 -0.204684932970914     
 -0.108129374647327     
  0.806132657299839     
 -0.669129777640170     
  0.837262248017543     
  7.343937027595693E-002
 -0.210871803594996     
 -8.589325758249439E-002
  0.190096063418781     
  0.176517824693686     
 -0.323196742521234     
 -8.181926175461217E-002
 -0.289746163127224     
  0.344936564103257     
 -0.217731151006756     
 -0.388763898718359     
  3.219048641575919E-003
 -2.936346311245904E-002
 -0.265084751258212     
 -9.850540485838162E-002
  2.643139364974002E-002
 -4.863579140695418E-003
 -0.285207126563749     
  0.189032395208535     
 -0.345850917658941     
  5.869699354415864E-002
  2.820435682377522E-003
  3.883284462051475E-002
 -0.186262058148706     
 -0.113199101895785     
   1.00776053994331     
 -0.471118633365515     
  0.302942874623565     
 -0.261087168314625     
  0.537222133943309     
  2.764190384735657E-002
 -0.891374042370196     
  0.230995078571116     
  0.444098274408873     
 -0.362843817987949     
 -0.216452919820465     
  0.246970697438135     
 -0.158239868202354     
  0.111807149005915     
  0.141100092279308     
  0.127012159185797     
 -5.050444525103055E-002
 -7.721475775525163E-002
  0.401244779496293     
 -0.124281320966704     
  6.901788905449238E-002
  0.339762322855337     
  7.813835189131074E-002
  0.663967958609896     
 -0.535889497257053     
  0.220095288258887     
 -0.537696006504961     
  0.253056712552995     
 -0.259477869166886     
  0.164946129263812     
 -0.369290074748322     
 -8.478240743563517E-002
  1.296297564921981E-002
 -5.156456476710735E-002
  0.230933332122104     
 -0.237315808934359     
 -0.593159092101211     
  8.524030940435214E-002
 -0.230339839727488     
  -1.09737398611743     
  0.729776356081658     
 -0.202283890940736     
  4.988327015113100E-002
  0.260413251319957     
 -0.313874560728594     
 -0.223978688674297     
 -0.165590843783081     
  0.104434829681636     
 -0.444665836723690     
 -9.088630050828153E-002
  7.385469472493296E-002
  0.316325482805694     
  0.271624443980713     
  -1.22871115911869     
  0.603586881165148     
 -0.532067245865777     
  0.227777566865391     
  0.122349547474268     
  4.255743412962326E-003
 -0.152103352239037     
  0.178734200748497     
  3.072199543245580E-002
  9.983767153346226E-002
  0.775496337114850     
 -7.913833733896442E-002
  -1.17548769824587     
 -0.964718255094526     
  0.359289149278107     
  0.114623903746964     
 -5.727635691522282E-002
  4.176822206346950E-003
  0.122505805837043     
  1.513179711748585E-002
  0.173128915828309     
 -0.539332393012511     
 -0.236279929292950     
  0.168301394263116     
  0.220336034061688     
  0.208685090303580     
 -0.429682941937825     
  0.400321890463909     
  0.180912596667054     
 -9.928269265912691E-002
 -2.934945370906664E-002
 -9.224980771681865E-002
  3.199419867845477E-002
  0.179263101084637     
 -0.700901012132898     
 -5.301848659231700E-002
 -0.102970359949955     
  0.406467216147997     
 -0.321167220321903     
  0.224311701828430     
  3.586767748112346E-002
 -8.742054325962766E-002
 -0.385135134154276     
  0.522487754830908     
  0.855599024266637     
 -0.386616340745374     
  2.660768174922784E-002
 -0.173535872340297     
  0.315336105552209     
 -0.261920325950505     
  0.144435849607719     
 -0.298987498459754     
  0.370118618240647     
  0.418523143499241     
 -1.205275108248190E-002
 -0.303551335518414     
 -0.231956732717050     
 -0.132034318761757     
  0.238146312714470     
 -0.529982205209093     
 -0.613917373829599     
 -7.619265818715820E-002
 -0.399943157909682     
  -2.88725757392375     
  -1.18891072280052     
 -0.331405025429668     
  0.217508907296921     
  2.510252768665455E-002
 -9.773773252362707E-002
 -0.408489128682079     
 -0.178328358068439     
  0.150771754933806     
 -0.401493935913612     
  0.295542613867861     
 -0.277011135437669     
  0.217830542561443     
  0.241798509320950     
 -0.192105068698698     
  0.603746524316796     
   2.06430622919054     
  4.334043731719230E-002
  0.195572957477682     
 -0.583374281637072     
  0.479218831751931     
 -0.213038189581604     
  0.146417254125914     
 -0.104021213583096     
  0.359015267394007     
 -0.283409483463326     
 -0.480807979114559     
  0.222213416935604     
   1.24753679235521     
 -0.388285539738178     
  5.941200871975429E-003
  0.893336877153627     
   1.10826888256509     
 -0.191428830304283     
 -1.104219242166518E-003
  7.894580677890589E-002
 -0.172230175877882     
  0.201559511639471     
  0.200816530797948     
  3.136829307739496E-002
 -0.225392298161990     
 -0.177030199767888     
  0.667550430207805     
  0.324716799483289     
 -0.515032195651701     
  -1.10541430733069     
  -1.22921674104771     
  6.583590287655861E-002
  0.645374381097209     
  0.194588342981961     
  -1.14617547303897     
 -0.450361793577971     
  0.117030599558561     
  9.601526475007165E-003
 -0.588375919990209     
 -0.394772456554666     
  0.299732001928693     
 -2.720930416350908E-002
  0.112754929402745     
 -0.305872704605798     
 -0.498108047938063     
  0.192129585413969     
 -3.657855606654852E-002
 -1.035321396848706E-002
 -0.631377877296425     
   1.05069749324641     
 -0.264908787638661     
  0.686946284688360     
  5.723360129654946E-002
  0.135033924764425     
  0.151920816805187     
  5.068639443427283E-002
  0.138228366780072     
 -0.166866384034924     
 -0.197576767052932     
  0.697143362061289     
  0.532202036812443     
  0.260442429093224     
 -0.260222317143302     
 -0.509014151852979     
  2.440168438513687E-002
  2.453134836088710E-002
  0.555512561747759     
 -0.437070566765142     
 -0.250243402874904     
  0.304995188580417     
  0.319714430273160     
 -8.253608631955939E-002
  8.227555124904384E-002
 -0.327518893182513     
  0.257475194778681     
  4.748604533720767E-002
  0.129292403859633     
 -0.111512640599638     
 -0.770740492574693     
  0.474521155068708     
 -0.785665850580868     
 -9.336581683122172E-002
   1.62756951844334     
  0.188807439035073     
 -0.131159054986664     
  0.215626440823600     
  0.411114203171302     
  0.119695461520943     
 -0.125105105666048     
 -0.229982022945613     
  0.632412810443781     
  9.149045651827860E-002
  0.375798892824559     
  0.273884414956147     
 -0.414253644383990     
  0.242123705989008     
  0.373171138320913     
 -0.339606058005547     
  0.427890687678316     
  0.325462138448421     
  0.215559531861027     
 -0.295257733676376     
  0.397392917643970     
 -1.025284033502801E-002
  0.412574405888345     
 -0.114848626325967     
 -3.579420455896773E-002
 -0.532749549133159     
  0.315027924693399     
  0.605342636485683     
 -0.411578679212074     
  0.498654695967731     
 -5.589902550147963E-002
  -1.04872136948243     
 -0.108739962530243     
 -1.271571910194926E-002
 -0.195224994638220     
 -0.336720704060024     
 -0.247448899735199     
  0.106346165686554     
 -0.174272833975279     
  0.355869827208136     
 -0.198171344821318     
 -0.840498377422929     
  0.482885937784596     
  0.415292112176488     
  0.272261332141377     
  4.914711961836760E-002
  0.228029500223595     
 -0.606653842174389     
   1.22343664365972     
   1.32097431399895     
 -0.203492142218736     
 -7.463163688149164E-002
  0.162896654487872     
 -0.142657607058461     
 -3.971816733185905E-003
  0.838819551522952     
 -0.418224104718892     
  0.342303187290784     
 -5.524206794541091E-002
  5.897485315222527E-002
  -1.41741488210244     
 -0.107955483891488     
  0.510688376114156     
 -0.307714343163427     
 -1.342760223359532E-002
 -0.284292434169866     
  -1.23579906851636     
  0.801009599841891     
 -0.686785829853161     
  0.220021797364311     
 -0.866187185410097     
  0.313400020554410     
  0.233022403922342     
  0.492282451527530     
 -0.984966625895074     
 -6.858342281712809E-002
   1.66585894511726     
 -0.759075843831154     
   1.11100345709830     
  -1.79693940987750     
  -1.02016725418658     
  0.606609448817332     
  0.713681501517605     
 -0.258706676372548     
  6.867610420716722E-003
  0.829587373694488     
 -0.990407879897915     
 -0.585036292137786     
  9.699889261326781E-002
 -0.836419207057606     
  0.261487625597914     
  0.459124668814752     
  0.703879333671949     
  0.304208886063346     
 -0.127570113295709     
 -9.883120058524142E-002
   1.20503018732891     
  0.140615736492692     
 -5.660501321970678E-002
 -0.107448400576895     
  0.305083660180326     
  0.595915328603539     
 -0.768737074061117     
  0.326821294310664     
 -0.483408213871235     
  0.370159177020933     
 -0.571822873329658     
 -0.646409174704575     
  0.215807380576754     
  0.130582154561083     
  2.142031732901583E-002
  0.526669912591112     
 -0.395325127270406     
 -0.615322282165527     
 -0.166209002879974     
  0.235131856080741     
 -0.846576392722290     
 -0.220598708230239     
  0.297713468581695     
  7.393219215928470E-002
 -0.167535898216700     
  0.397333418442688     
  7.921971898644510E-002
 -0.788222910311235     
 -0.158218116600274     
 -1.644153005225609E-002
  0.424365346247948     
 -0.955881835066644     
  -1.37924260152212     
  0.147290759771989     
  7.184448751448862E-002
 -0.102835174936154     
 -0.205857574886531     
  0.224816980002054     
 -0.268683082404883     
  0.239584797268602     
 -0.423328833591839     
  7.176074346902446E-002
 -6.022113634413652E-003
 -9.584693108444267E-002
  0.214215254317835     
  0.401356559338147     
  0.216103066467502     
 -0.439433034913558     
   1.35746543754125     
  9.829622789435874E-004
  0.231419181191714     
  0.238316864895049     
 -0.565175423172975     
 -7.109675015451598E-003
 -0.193911959806341     
  0.339003651663970     
 -0.186610495526658     
 -8.694975459719761E-002
 -0.108558751201456     
 -0.626436864835880     
  0.693667422432377     
 -0.131974776449982     
  0.564502755921421     
  -1.10237972162327     
 -7.724546215091878E-002
  0.231432818487167     
  0.260707497479134     
 -0.365476957695776     
  0.246472377820645     
  0.479981558564631     
 -0.327489338774058     
 -0.400905333336365     
  0.499245853745897     
  0.420329154914745     
 -2.570624936054225E-002
 -0.320173859054691     
 -0.136259737635394     
  0.142163022327122     
 -0.863733824495021     
 -0.254880167552030     
  0.272746338721150     
 -0.764973456077672     
 -0.458073377040134     
  0.563067418712905     
  0.155361928180704     
 -0.107275571266360     
  0.434334300859844     
  0.351516240922366     
 -0.349048536927033     
 -0.484714488649179     
  8.401619534066387E-002
 -5.717254678491764E-003
 -0.497815696954112     
  0.215620798979547     
  0.663338515829938     
  0.836250541091067     
  0.227560829159927     
  0.401625929187468     
 -0.345262607487681     
  0.111030169262226     
  5.072163529355544E-002
  0.139905446758329     
 -0.151938628356990     
  0.281195763279621     
 -0.371016557924928     
  0.448763164498793     
  0.287077919640987     
 -0.578441907419106     
  0.356250655238672     
 -0.570786615846912     
  0.604138489889131     
 -0.598374186452810     
  0.504245068772706     
 -0.327968796253049     
 -0.329779194883447     
  0.471454931551491     
 -0.466338744324698     
  0.127692392882581     
 -0.268927078321784     
 -9.821881891129096E-002
  0.136192777836427     
  0.181557961718422     
 -0.128759093527087     
  0.457170973827745     
  9.501284766045632E-003
 -0.725624250936617     
  -1.06637836050271     
 -0.589017132028096     
 -0.250279659718483     
 -0.308028938123870     
  0.419526701541225     
 -0.444154879471887     
 -0.114220524246900     
 -5.775500005695951E-003
  0.329881291619033     
 -2.234830790401382E-003
 -0.280568349059459     
 -0.187360196221147     
  0.397497934265107     
 -3.865678795545327E-002
  0.178955628425777     
 -0.473700317166818     
 -0.382894894364149     
  0.396784550227994     
  0.901634808387415     
  0.449588195648362     
 -0.405371308586032     
  3.811265063018177E-002
  0.866375580788826     
 -0.189979113630357     
 -6.308688946074524E-002
  9.575006488721513E-002
 -0.478134876784063     
  0.405837140892959     
  0.440335599450615     
  1.319544854354839E-002
  4.623548760245379E-002
 -0.611875763611185     
  0.449480217857368     
  0.405940988536523     
  0.948371533270215     
 -4.141964646341111E-002
  -1.11016105226766     
  0.361764919974808     
 -0.289610727926371     
 -0.106324007484151     
 -0.283048737209329     
  0.141839621467573     
  0.588520155621867     
 -0.860310745748860     
  0.107014313050349     
  0.198306578789815     
  0.366675757402403     
  8.159706777188655E-002
  1.816620128602799E-002
 -0.496398673601075     
 -0.771116660587954     
  0.309584416183328     
  0.657828627949345     
 -0.304138232346495     
 -0.318656945436760     
  0.411444936406719     
  0.617428887376947     
  0.169989727458808     
 -0.532606114569523     
  0.382424898652860     
 -0.507519572894216     
  -1.06473217245897     
 -0.170446778053269     
  0.325157698556786     
   1.60456045878606     
  0.824886118137036     
  -1.53845086436830     
 -0.142032990478617     
  9.903320354671311E-002
 -0.359094315753818     
  0.133572435152025     
  4.942442656363055E-002
  1.176455044185976E-002
 -9.898120737040408E-002
  0.319103671648275     
 -0.108956329131556     
  0.655453067170814     
  0.365329298596730     
 -9.614617798430256E-002
 -5.795368310092631E-002
  0.362335784068486     
  0.262843216348606     
  0.127544553379682     
 -0.402747536344408     
 -4.397367060720295E-002
  4.278990617849355E-002
  0.134857350811594     
 -0.531827398198397     
  0.338906632625733     
  0.180273492010851     
 -0.235416907863010     
  0.252217841674972     
 -0.395983474122996     
  0.972593226854287     
 -0.320678229407911     
  -2.01540923643863     
 -0.212261578464393     
  0.305926223838823     
  0.189418631172227     
  0.247475373479756     
  0.328185490669526     
 -0.465962267483440     
  8.294759335653090E-002
  0.196015320992723     
 -0.175716280064220     
 -0.133892078870409     
  0.120791974148898     
 -6.057121888756377E-002
 -0.299417230769127     
  0.362593735666309     
 -0.564657645378535     
  0.233666135283683     
  0.786606062563742     
  0.275256806932558     
 -0.884942185545631     
 -0.767653761818326     
   1.13923877698543     
  0.244055130327318     
 -0.888043912081246     
  0.502217850449687     
 -0.437109469852530     
  0.589741184306655     
 -0.503184510992899     
 -0.150291469989772     
  0.786388893029237     
 -0.767506480928385     
   1.88259007917785     
  -1.62995823197601     
 -0.806379906645380     
  2.605869336300026E-003
  -1.27520871187582     
  0.784808736950929     
  0.238856456282331     
 -0.240581174310690     
  0.223010457109559     
  4.295753898038385E-002
 -1.546619313436791E-003
 -0.770666482627177     
  0.114966441209841     
  0.627993819832391     
 -0.765370399838616     
  6.405807516138474E-002
 -0.336572325558081     
  0.560252144647325     
 -0.407082338384310     
  0.511844236658416     
  0.767430186921444     
  -1.39320608120675     
  -1.36996188523706     
  0.787544624077806     
 -0.226279928517494     
 -0.147024228669091     
  0.130755917850837     
 -0.216745124497211     
  3.826827722560880E-002
 -0.295334457018144     
  0.320634742195353     
   1.25505380268955     
 -0.955201749878614     
  0.225331151492413     
  1.394245221307128E-002
  0.466523789272457     
  0.279203452377920     
  0.477495495972500     
 -0.392938091674469     
  0.160021210104786     
  0.308052718922627     
  9.579451134009230E-002
 -0.149985851575893     
  0.198292664760691     
 -0.651900896770299     
  0.133599928086967     
 -0.303244087008452     
  0.162061269513938     
 -0.346782508122858     
 -0.668396592136986     
  0.262280142349891     
 -0.183370442754171     
 -0.148148903772501     
  0.404335913767806     
 -0.538013867492238     
  0.511696187787587     
 -0.506361954713739     
  0.217119965022200     
 -0.145563951637376     
 -0.119946859267062     
  0.132649931358495     
 -0.549194603680223     
 -0.139255237756143     
  0.441213515761800     
  6.402556026963276E-002
  7.703519401248540E-002
 -0.750438268293397     
 -0.532302443071966     
  1.646302866144098E-002
 -0.783948887001357     
  0.449119417863430     
 -0.488189867315013     
 -0.443423128853238     
  0.217841797751241     
  0.258549390663115     
 -0.206623816084364     
  7.958538669269309E-002
  3.766825023258656E-002
  0.182111427066516     
  0.168146166863217     
  0.843029351094267     
 -0.450424338816765     
 -0.833645893960472     
  0.130868868319527     
  0.417253366577482     
  2.085459095323885E-002
 -0.131093316454125     
  8.492971051223404E-002
 -0.233966603812909     
 -0.234464028341408     
  3.183221611808461E-002
  0.318310920411989     
 -0.162114356764909     
  8.915127157438163E-002
 -0.385480818793977     
  2.154247218125462E-002
 -5.284024611142699E-003
  0.287958609716450     
  0.259537944811827     
 -0.363113796839214     
  0.217093862780084     
  8.163165787801224E-003
 -0.300043856958244     
  6.759777854451207E-002
  0.266086602144224     
 -0.325879161900492     
  0.235347773325086     
  0.101465622014232     
  9.246796343852103E-002
 -0.248782631370394     
 -0.300674601799464     
 -0.370171135450426     
  0.223524802853868     
  0.492255587020144     
 -9.559923109703561E-002
  0.390155357916415     
 -0.487076826874860     
  0.268695515300737     
  3.494792406436908E-002
 -3.782124887700710E-002
  0.170700755268065     
  0.237081466475102     
 -0.219260960099175     
 -0.333158272816229     
 -4.663582607845997E-002
  0.465772120728383     
 -0.521695256302663     
  -2.05647140961528     
 -3.822649745608002E-002
 -3.024965805103326E-002
 -0.119069559650801     
 -6.181875532850854E-002
 -0.300213978628299     
 -0.322236730793465     
  5.440094319830575E-002
  2.449798312910184E-002
 -0.757876279048806     
 -0.138490576527271     
  4.912936943132723E-003
 -1.948000695106052E-002
  0.222378453409221     
 -0.303578769081552     
 -0.982030805419358     
 -0.204004062242611     
  0.219242939137622     
  0.153417681401927     
 -0.754869175701408     
  0.527767915586789     
 -0.193982570567212     
 -9.754188109097180E-002
  0.442938297270829     
 -0.251625086647978     
  0.376879301074431     
 -5.021190625589222E-002
  0.209851807620199     
 -9.418701439704902E-002
  2.852678904813092E-003
   1.02608367821740     
  0.854091102377505     
  0.277511230477639     
 -3.906789148429686E-002
  0.278315418816535     
  0.251983779079197     
  0.127355263039943     
  0.281470774699404     
  5.747532526850458E-002
 -0.238119940720941     
  0.473927794137598     
  0.316719223295908     
 -4.763163430298249E-002
  7.368620920240504E-002
  5.507101370132889E-002
  3.440559329550607E-002
  0.851665360623695     
 -0.581258705936218     
 -0.403775730337056     
 -8.921765707673930E-002
  0.528595547145849     
 -6.522637830842269E-002
  -2.12271630197217     
 -0.215416604491525     
 -0.439578861113699     
  0.902692230077461     
  0.205215562654325     
  -1.02506220194561     
 -0.461067490960942     
  0.112594803000712     
  8.066972969127334E-002
  0.467418228320637     
 -0.683868320085657     
  0.511119898602592     
  0.597094525109206     
 -0.452186066094948     
  4.135993988894540E-002
  -1.49100922298584     
   1.13900169810289     
 -0.622148857797492     
 -0.136435311892040     
 -0.223983612001245     
 -0.442816438607245     
  0.994082661745863     
 -9.132552668821722E-003
  0.318611523114326     
 -0.749801960297217     
  0.116272609150282     
  0.208060248234851     
  0.641707574114335     
 -0.781824900355311     
 -0.176911612765050     
  0.905671398683366     
   1.17343930109227     
 -3.285166938910524E-002
  0.625782942899030     
  0.175692571007622     
 -0.803971749660047     
  0.650624836229570     
  0.411194624234673     
  0.245350627092299     
 -5.445344038488279E-002
 -0.146465492042792     
  0.643896031015924     
 -0.132250786183266     
  0.545540820739062     
  0.726477123054004     
 -0.907473724277650     
  7.560203497970201E-003
 -0.423612289959025     
  0.267533404638607     
 -2.607314038564832E-002
  8.090368961187441E-002
 -0.277715189404638     
  0.264321351496099     
 -0.487036425059460     
 -0.723790257318820     
  0.142294407511602     
  5.077883682713769E-003
  0.217482681633116     
  6.779825975387701E-003
  0.480944852645974     
 -5.917057922325926E-002
  0.107286785774519     
  0.433129685285075     
  0.158147850070352     
  0.914521149956514     
  0.113452649345936     
  0.445265459332534     
  0.609051996186094     
 -0.607501401075629     
  0.985033845309879     
  0.964102987944645     
 -0.374856914178194     
 -0.587531060482755     
  0.434921944279592     
 -0.569990942651825     
 -5.762447969578312E-002
 -0.222905962880509     
 -0.324315702032430     
  0.359448819814825     
 -0.605327157097495     
 -0.286527988711657     
  5.736916009713099E-002
 -0.256478620505192     
 -0.353754124545703     
  0.869454596906168     
  0.311513837826722     
  0.343019523163479     
  5.129463516436310E-002
 -4.995641113192602E-002
 -4.989838544164567E-002
 -0.455569805957467     
  0.122865151715708     
  0.249166883551675     
 -0.145809398844824     
  0.584717779634550     
 -0.399387924480316     
  0.377352528143325     
 -0.122186158568529     
  9.618027363568553E-002
  0.353170203749137     
  0.200864553605030     
  0.388626331671172     
  7.996219899104914E-002
 -0.187154159248410     
  0.230700999437813     
 -0.293201347557382     
  0.434096886524033     
  6.301999134345768E-002
 -5.442542504199128E-002
 -0.253698632026117     
 -0.115351415467057     
  0.483479463189921     
 -0.211708987132750     
  0.457155346978667     
  0.231374859805293     
 -0.479314873005148     
  0.247046528239116     
 -0.194387412769242     
  0.166816187334461     
  4.583919320972820E-003
 -0.265344170285430     
 -8.967173572680687E-002
 -0.188324131731861     
 -0.123230129772212     
  0.264953735926640     
 -0.177181913494852     
 -6.567702533834355E-002
  0.153285401336962     
 -0.308890036834530     
  0.617273729664498     
 -0.385909155762766     
 -8.255782387067899E-002
 -0.280637723206839     
 -0.251955319210915     
  0.131385641883679     
 -1.260661803801699E-002
 -0.167892183397134     
  0.191819401335628     
  0.303286164552984     
  0.307194438150059     
 -0.456212635518294     
  -1.54159777772290     
 -0.816451275016860     
  -1.20034517602078     
  -1.80893826048918     
  0.726184032031541     
 -0.382822365086443     
 -0.295045920184543     
 -0.495271903403377     
 -0.348298243953848     
 -7.712621745221972E-002
 -6.380696861390998E-002
 -0.491308597522755     
  0.833396977575827     
 -0.351413781081699     
  3.649912805908463E-002
 -1.839891914946047E-002
  0.299292658205610     
  0.988341696172687     
  0.543324437528746     
 -0.440163171515219     
  2.138852813106031E-002
 -0.463985153349804     
  0.517723779289751     
 -0.248192196692046     
  0.225265696602687     
 -0.235117962551147     
  0.378677483929186     
  3.208516191438820E-002
  0.129512109219400     
  9.044531669349662E-002
 -0.493731282232862     
   1.40306780785346     
 -0.114252711292398     
  0.310691524334672     
  0.481112868437854     
  0.150065382783542     
 -0.301189417332993     
  0.427197158946005     
  0.369100693012363     
 -0.117402221325647     
  0.338959737486322     
  0.148553805624477     
  4.551619615782702E-002
  0.725113368668041     
 -0.348337827899725     
  -1.41050943424126     
  -1.42965021062542     
  -2.25636984773321     
   1.19753356439257     
  -1.13827603701318     
  -2.22401989174342     
  0.744325737502099     
 -0.125368468002198     
 -8.656909566563564E-002
  0.150046539763953     
 -0.215658732217623     
  0.262949010176987     
  0.222127418198100     
 -0.186579400632052     
 -0.199578113651105     
  0.219663814247621     
   1.53641723603073     
 -0.255621875862119     
 -0.547153979368499     
  0.208567749679739     
 -5.094180058888355E-002
 -0.127016952222768     
  9.491356831804520E-002
  0.137819072862417     
  1.113451968135885E-004
  0.177004893776524     
 -0.216990400702203     
 -5.223554217325076E-003
  1.014733416185659E-002
 -4.000743555150228E-002
  0.192101505987779     
  2.575126570303396E-002
   1.28585983506992     
   1.13195289680312     
 -0.383207367203166     
  0.201724931083119     
   1.62093903670421     
 -0.392559749906798     
  0.118559309229642     
 -0.131520411906537     
  0.240698011554898     
  1.298950677448587E-002
 -7.719729161906556E-002
 -0.177701526289615     
  3.075014865404857E-002
  0.154098748554999     
  0.343872422038678     
 -0.158763497139346     
 -0.465086268904125     
  0.429701381906182     
  0.139578327729567     
 -0.580645233658459     
 -0.292912350320508     
 -8.727816332966759E-002
  0.177890527890357     
 -0.639138980332481     
  0.157799693077019     
 -0.414552486009651     
  4.873369704496566E-002
 -0.736569260128357     
 -0.404642668891389     
  0.283797902534025     
 -8.670333019812261E-002
 -4.428687860159741E-002
  0.273266414370609     
  0.839700821734904     
  0.302857110386749     
 -0.463435709025941     
 -0.253351362182169     
 -0.625302272990117     
  0.936605170991213     
 -0.355065823732273     
  0.741841916448353     
  0.331988558525800     
  5.302649140464644E-002
 -4.414437177159686E-002
  0.291362332071143     
  0.348615685908631     
 -0.430964747431379     
 -2.424421177520153E-002
 -0.572400227430061     
 -2.293707980110507E-002
  0.432117390143299     
  0.101059102824211     
 -3.288677537633420E-002
  0.600420147685082     
 -0.303530615085263     
 -0.111495932694653     
 -0.191538285965367     
 -1.518728763921830E-002
  0.311599814730314     
  0.196114661391667     
  1.171583884378321E-002
 -0.130936470662161     
 -0.319913247866428     
  0.322953049230474     
  0.201656007877039     
 -0.243655746279713     
  3.701654693817860E-002
   1.74906344563357     
 -0.569736055623873     
  -2.30926148100871     
  0.180912674479342     
 -5.571058279772623E-002
  0.593022800664131     
 -0.531744790997577     
  6.884719172710074E-002
 -1.055893000950937E-002
 -8.503023480411787E-002
  0.187914289328440     
 -0.331477132267330     
 -0.122190267143784     
 -0.131336248501228     
  0.697006383136860     
  9.329329184448598E-002
  9.813624398744603E-002
  0.731836608023414     
  0.269275688614626     
 -0.854568740454204     
  0.272494348070900     
 -0.209396036428226     
 -8.280599318034118E-002
  0.362260972644759     
 -0.615449123653178     
  6.556670989904744E-003
 -6.184027965088257E-002
  2.737375898694812E-002
  0.327109823790296     
  0.214282103453877     
 -0.375289074508663     
  -1.66584269379362     
  0.237735637942843     
   1.46866477400756     
  0.557289426656654     
 -0.533319809562227     
 -0.370687563224327     
  0.571830740950940     
  0.200306615116569     
  1.273592154993339E-002
 -3.675576474844511E-002
  3.700384143079220E-002
 -0.240354082881867     
  0.458343628081070     
 -0.351222676243999     
  5.763244943209203E-002
  0.539989251280502     
  0.460616965912443     
 -0.267744295431948     
 -0.510742087983648     
 -0.671730751878529     
  0.317858348111003     
  0.710493413500522     
  5.674390161440743E-002
  0.127957675927821     
  4.755401556408386E-002
  0.530827314866722     
 -0.324857955220087     
  0.701687477026188     
 -0.501836893131057     
  0.774304528752784     
  5.608658421163162E-004
  0.226745706488827     
  0.326288060415080     
 -0.182783193021578     
 -0.356392615657081     
  0.132366713604791     
 -0.168315086411605     
  0.181046449987623     
  0.521013747098240     
 -0.695625393134533     
  0.314122599738008     
 -5.554653745222943E-002
 -0.314733767265033     
  0.416658833148283     
  4.543933868540045E-003
  0.192293169768153     
 -0.654604626456803     
 -0.638685321841616     
  0.555392269928304     
  4.126557351334734E-003
  0.322312181184951     
 -2.905607653757783E-002
 -0.932812916303205     
  0.430377429269327     
 -0.225057597808013     
 -8.564013331176319E-002
 -0.129233418274789     
  0.119484696607921     
 -0.208301522323297     
  2.784081798847652E-002
  0.149070855813699     
 -0.151885543414030     
  0.168072186470463     
 -0.238739689237986     
 -0.101730247387981     
   1.36905200641852     
  0.430725342098422     
 -0.154360317046334     
  5.332163309585852E-002
 -0.720944170035356     
 -7.521725734143850E-002
  0.286408588411767     
 -8.416505646268813E-002
  0.140472303273139     
  0.154380603932817     
 -2.089441714186923E-002
 -0.291642395260478     
  0.357081617689914     
 -0.150626266518058     
 -0.302404959141176     
  0.328089018783497     
 -0.410336318253097     
 -0.433336778042350     
 -0.222301144279739     
  0.460272051445099     
  0.219625677786122     
 -5.230926500751478E-002
 -5.702638392334582E-002
 -6.226148230545456E-002
  0.177227864817445     
 -0.216344940585592     
  0.330401733713017     
 -0.239902681367282     
 -0.145201972301513     
  0.110738978403861     
  0.233546207948305     
 -0.872166140987552     
 -0.151089870839872     
  0.247706313922615     
  0.204621375694559     
 -0.291462763071731     
  0.840149782074202     
 -0.177988674645033     
 -6.048265945823127E-002
 -0.241478368424852     
 -4.021912140039127E-002
 -6.540390346965494E-002
  0.136578736406854     
  0.178407690167255     
  0.273603015208330     
  0.174550398757870     
  0.140910042894835     
 -0.153384454695437     
  4.213544966873874E-002
  0.658094436632717     
  0.227444909003400     
  5.475744323890416E-003
 -0.267439882590879     
 -0.339894056858909     
  0.175245864451653     
 -0.344619635677243     
  0.182244407528255     
  0.331029612620391     
 -0.542671451304028     
  0.521107490981457     
 -0.401524832599303     
 -7.776906103980531E-002
 -2.589229304579942E-002
 -0.313203810083428     
  0.197591353717168     
 -0.270951616080718     
  7.570911059570090E-002
 -0.169881214251165     
  0.245453801175230     
  0.391629274605668     
 -0.120440244936410     
 -0.338762051457151     
  0.722669425608681     
 -0.358149101909279     
  0.223024403894123     
 -9.858147048358262E-002
 -0.101737498150685     
 -0.199166428422838     
  0.734449215209371     
 -0.336328961515936     
 -0.268557306763442     
  0.174553920702496     
 -0.549485616264024     
  0.316534228376324     
  0.308865260480461     
 -6.305718660976700E-002
  0.391696401528788     
 -0.811823919811694     
 -6.018976112301202E-002
  0.301578671419354     
 -6.190944099688848E-002
 -0.342570725717803     
  0.295389056589391     
  0.272219679499421     
  0.592335156917564     
  0.869269531153377     
  0.805341721558257     
 -0.145481748672998     
  0.160680672073831     
 -0.368001580749840     
  0.795843912494532     
  0.413991287687421     
 -0.756734262683360     
  0.266405026638673     
 -0.101082733235187     
 -4.920188484217975E-002
  0.152285110122510     
 -0.256079022997826     
  0.445299904398498     
 -0.570608516410941     
  0.495640238651670     
  0.954347294083600     
  5.113474516146685E-002
  -1.10944310941481     
  0.136681768142522     
  0.350058480116968     
 -4.339710482852525E-004
 -0.262062979252576     
 -0.183216464024604     
 -0.127730375061304     
  0.511440318785988     
 -9.321730468682320E-002
 -0.123984218881263     
  6.616732898122504E-002
  0.109215322545161     
 -0.630508202959347     
  -1.19821689631852     
 -0.602370863464281     
 -0.351334026158624     
  -1.63497795690633     
 -0.648891211018367     
  0.234429072541325     
  -1.53936872797193     
  9.771408829067843E-002
 -5.849575591718690E-002
  0.250356058097624     
 -8.220361525632085E-002
 -0.249836419261548     
  0.394011090324485     
  0.193033839792021     
 -0.191194367171026     
 -5.006142928043725E-002
 -0.175208578324805     
  0.359579868303453     
 -0.719200599330200     
  0.292717724343807     
   1.02112359523199     
 -0.189188093877355     
  0.354857541817372     
 -7.621950284571097E-002
  0.510133873975685     
 -5.219407070909021E-002
  0.438247251953547     
  0.501787453499873     
 -0.640743033175461     
  0.460857022719553     
 -0.518280933159858     
  1.126161737943743E-002
  0.678679525534412     
 -0.818956231887001     
  0.267862011228646     
  5.789559593484776E-002
 -4.672769099092555E-002
 -0.366581550329405     
  8.648881123812674E-002
 -0.359187565390126     
  0.266002013488053     
 -0.211362424967621     
 -0.237586632234513     
  0.346845622235705     
 -0.340814646730503     
 -1.352924498361899E-002
  0.282221207612738     
  0.445642465363516     
  0.582566420696073     
 -0.974670299351574     
  0.513971848834471     
 -0.229295849327433     
  2.765256911623128E-002
  0.283102870311534     
  0.178284962512752     
  0.580792048795954     
  2.800306677668884E-002
 -0.148070767119690     
 -0.341194024945855     
  0.178886310308741     
  4.225184327672131E-003
  0.161744710639400     
 -0.120120946702937     
 -0.131646080840040     
  0.117561339982060     
  1.044348692454946E-002
  4.630847056679310E-002
  8.918346825598288E-002
  0.363459099890194     
  -1.16334308857865     
  0.363191028620392     
 -3.411533746962556E-002
 -0.257433254033290     
  0.491035989134679     
  -1.04049948291162     
 -6.238482024077970E-002
 -0.131114986137032     
  0.414773384879348     
 -0.483375539530938     
  0.170046177907449     
 -0.287157166868682     
 -0.490307659112958     
  0.233365441913254     
  0.226416764274907     
  0.570697531502229     
  6.170667069796305E-004
 -8.889230034437481E-002
 -0.358293332365415     
  0.185884054201239     
 -2.026432554156347E-002
  0.245808184713861     
  0.258037974573891     
 -0.354004932621636     
 -0.270276746998644     
  0.421628261670241     
  0.160831635271887     
 -0.101671551528623     
 -0.349648042054810     
 -0.120894348716395     
 -0.198114146887823     
  0.780423814207869     
  0.189150790351348     
  0.548960181578266     
 -0.662507168763680     
 -3.876322250863325E-002
  0.547377879061472     
  0.240624543296019     
 -0.159938757427524     
  0.249453830479913     
  1.294526566731310E-002
 -0.158953439075654     
 
  0.621566068489156     
  0.523730336263243     
 -0.416083973980468     
  1.802977773774019E-002
 -0.253465103902285     
 -0.405180004758024     
 -0.422906326335497     
  0.279997746235633     
  0.926671812283849     
 -0.805798563824746     
  0.595683390199514     
  0.229458296884470     
  0.300920562846263     
  0.781299852459865     
  0.936446693595935     
 -0.267400247687413     
 -0.548905919419987     
  -1.80664004630707     
   1.63836432824179     
 -0.376943964233923     
  0.613719073841527     
 -0.829688246083117     
   1.36581843221951     
  0.370834949450393     
  0.316465330803156     
 -0.412278011359480     
 -0.821671046582938     
  0.171006109289173     
 -0.568910147540966     
 -4.115508704292575E-002
 
  0.130592004871391     
 -0.673046975984184     
  -1.22588054003186     
   1.58251839907976     
   1.60753851702413     
 -0.916673273676966     
  0.520898406553156     
  0.230583234337009     
 -0.757078782890264     
 -0.857305575749187     
  0.888647418894548     
 -0.858475688887449     
 -0.952141372923741     
 -0.426983701874773     
   1.90638802050279     
  -1.25988718933837     
  0.255936541110745     
 -5.868883091703349E-002
  0.673422698478495     
 -0.504108493967313     
   1.34909068617451     
   1.78777193207400     
  -1.49473551487180     
  -1.20354958461347     
 -0.697540256895472     
  0.347033022188628     
 -0.451865877528752     
  0.254277372083388     
  0.795556106624449     
  0.787685977697295     
  -2.21740238325342     
  0.805051058116866     
 -0.421471424249808     
   1.75316440809501     
  0.408877472987808     
  0.949758902291171     
  0.204383416378794     
 -0.537637425443410     
  -1.14620403709820     
  0.568079279139016     
  7.902048288527569E-002
  0.173576101524897     
  0.708891727523844     
  0.474110722937981     
  0.586540451154035     
 -0.986167174756353     
 -0.926028937666774     
 -2.800642346763681E-002
   1.31602705308198     
  0.149661221293088     
  9.784327648857502E-002
  0.872588010790121     
  0.488797672219414     
 -0.631264804138765     
  -1.53544880209518     
  0.404645916920526     
  0.581170355996172     
 -0.885549445009052     
 -0.856351326288766     
  0.692800342438187     
   1.37770689122026     
 -8.998917645164059E-002
 -0.783968749748499     
 -0.609598975879085     
 -0.148181173434331     
  0.601078439671619     
 -0.637840538765165     
  0.165904581296319     
  0.837510894263888     
  0.795104101173527     
  0.474662699223371     
 -0.451224637475135     
 -0.398029276249358     
  -1.26345811867923     
  -1.07240058248220     
 -0.228578563096942     
  -1.41313576964829     
 -0.390543923087096     
 -0.430148379791882     
 -0.335903468237089     
  0.133616435952578     
  -1.18345955749803     
  0.761718243633337     
 -0.178309903596702     
 -0.234175763197441     
 -0.136991589641869     
  0.495093900472758     
   1.47312482830898     
  0.204624177315042     
  0.195282716811886     
   1.12246246812646     
 -0.326852989760400     
  0.336029959830891     
  4.481725775200524E-002
  0.330326409749844     
  0.771859829486990     
 -0.283930358637630     
  0.343391084650132     
  0.546780274344201     
  -1.09441327973116     
  4.366341320073287E-002
 -0.271672440015939     
  -1.07739036950686     
  0.274759203739192     
  4.843740665055779E-002
  0.265260606972306     
  0.135246276166365     
 -0.790673976182626     
 -0.323032489139878     
  0.922192336529283     
   1.15651484306556     
  0.219266936872708     
  0.353804201150831     
  1.569256835850716E-002
  0.639864922645237     
  0.596119023129285     
   1.03977155566430     
  2.866741508273003E-002
  0.425287065142436     
  0.206651749557173     
  -1.63804583699099     
   1.00435469177408     
   1.20670155540826     
   1.12207917167354     
   1.26530855992957     
  0.592050796852901     
  0.935869662550539     
  -1.41223944643476     
 -0.238747395098502     
  -1.61584252276362     
  0.776890001143274     
  0.642225098325130     
  -1.17400614115685     
  0.293173897654312     
 -0.618210366119702     
 -7.189164174399187E-002
  -1.16693953381952     
  -1.13074567736785     
 -0.171669340392081     
   2.68382757626218     
   2.18845974120130     
 -0.577395498665463     
 -0.292792711557173     
  -2.22635469196635     
  6.160468753107352E-002
  -1.70494192854260     
 -0.898038440729092     
 -0.733536242396023     
  2.688599292813515E-002
  -1.33969687810492     
  0.421848324702749     
   1.46187617243261     
 -0.556026454336169     
 -0.767437110314670     
  0.334060177252681     
   1.50102204572004     
 -0.156349362938805     
  0.460455278804886     
  2.107792998481197E-002
  0.955230758761497     
 -0.385716367667828     
 -0.654938684673138     
 -0.663815835852950     
 -0.366034172043142     
  -1.77826389022189     
  0.764863730799702     
  -1.51111528667833     
 -0.642084439396530     
 -0.948385121678579     
   1.40730788688826     
  0.693203775852199     
  -2.04567135344641     
  0.581970202897675     
   1.00594483289538     
  0.123556717953671     
  0.172183354221565     
  0.250088533420678     
  0.323672840138293     
 -0.247024138185985     
  0.387657386324160     
 -0.623285525416236     
  -1.72775912174148     
  0.413561184175638     
  -1.01376447044474     
 -0.368799629325648     
  -1.10916850358673     
  0.883180411299706     
  0.964143804031805     
  0.211044457513513     
 -0.873198731905305     
  0.814057252078975     
 -0.367162459276529     
 -0.691991781111258     
  -1.78104671727764     
 -0.352191004030709     
   1.37078425597947     
 -0.769561608030803     
  0.283042268658069     
 -0.113066850881766     
  0.352578908006574     
  0.696693565734165     
 -0.609570980830313     
  0.516674531205474     
  -1.16128094647089     
  -1.74251635983280     
 -0.340221000195386     
  3.856024568824415E-002
 -0.381725945595788     
  8.472001640203754E-002
  0.239481476761999     
 -0.233852053196172     
 -9.461593686057725E-002
 -0.260095820037677     
  -1.17335768597637     
 -8.963884223462899E-003
  -1.38019899745008     
  5.141682689379157E-002
 -8.842263653904270E-002
  7.437575438580303E-002
  0.576160595286898     
 -4.369472388090711E-002
 -7.932594088613104E-002
  0.527562988308042     
 -0.718902072531649     
  0.740850856320769     
 -1.248550478172187E-003
   1.39724539107486     
  -1.08751822122467     
  0.887101379435490     
  7.495043512302794E-002
  -1.44346892267391     
 -0.356436876081029     
  0.452644017916987     
  0.708148459531619     
  0.869425681375597     
  0.530350528613713     
  0.611178700408608     
 -4.920550658603456E-002
 -0.861286333266838     
 -9.860802630136527E-002
 -1.848985537297022E-002
  0.176777464651724     
  0.493007985642794     
  -1.12712062089617     
  0.642311362196324     
   1.10545202340483     
  0.302159885390511     
  0.311615070057869     
 -7.002748821761209E-002
 -0.753896835478741     
  0.805113336827692     
 -0.538493436072940     
  0.563688528157766     
 -0.219706142843666     
  0.463739791329838     
   1.88162385816578     
  -2.63811163003892     
  0.110647627309483     
  0.180463657124677     
  -2.24591617282367     
 -0.122094325617866     
 -0.610369631093439     
 -0.317999988977535     
  -1.54613576313609     
  0.483246905401990     
   1.00414214617505     
 -0.208165874516341     
 -0.111304704344937     
   1.52354029261929     
  0.838523621280965     
 -0.116920755839667     
  7.706549115592357E-002
  -1.72142542624735     
 -0.994173000649769     
 -0.480588698827339     
 -0.287472670418740     
  3.815319101938582E-002
  0.240503418966542     
  0.696443662663922     
  0.219601781036338     
 -0.255248295161793     
  -2.39607953231995     
  0.595810458164137     
 -4.150402549705492E-002
 -0.957472035196402     
 -2.652680863314352E-003
  -2.72393734516502     
 -0.107023995506755     
   1.59663360058725     
 -0.720227072473576     
  0.569987868351990     
 -0.754548644864530     
  -1.34855796177427     
  0.505331988425419     
  0.123919755235858     
   1.28886751554106     
 -0.801062086456305     
  0.711140601676521     
 -0.181856291474637     
  0.895806089809348     
  -1.43051842810703     
   1.17111747552833     
  0.359739747731361     
  0.637359805115138     
   1.12453074998727     
  -1.52932777193217     
  0.404314102484788     
 -0.228280821128694     
 -0.393959008850471     
  0.110017314418302     
  0.421438501444282     
 -0.304371820365815     
  -1.45289535054765     
 -0.231331966276183     
  0.329664763106498     
 -0.335612712582053     
   2.24849428794546     
  -1.00779082675488     
  0.239794227524748     
 -0.248614232503962     
 -2.983976569859643E-002
  0.727644991621529     
  -1.02619623986207     
 -0.153067839238071     
  0.634465272157401     
 -0.363508217804507     
  0.175992112988376     
  0.402471711686595     
 -0.594750400354444     
 -0.666837258930089     
 -0.743211296603845     
  0.161930486249294     
  0.265304779775170     
 -5.433866853609071E-002
 -0.282433765271698     
 -0.731413806846546     
  0.622421713626202     
   1.44376066568513     
  0.146140252196682     
 -0.695708310097975     
  0.777462797291705     
  0.388919820688631     
  -1.49948060948399     
  0.576346892803545     
 -0.621192356030568     
  0.417078796887748     
   1.18863307123474     
  6.130246496771131E-002
  0.871478400129837     
 -0.739625914488479     
 -0.705289350848069     
  0.978253167982898     
  3.724563635354974E-002
 -0.232423519063316     
 -0.197462926355839     
  0.965574316254223     
  9.654372543582636E-002
 -1.402120720859120E-002
 -0.634432615419406     
 -0.492981220767299     
 -0.441421368503594     
  -1.07910229822405     
 -0.204829473008466     
  0.310631822729723     
  0.557775153773840     
  5.510771114573022E-002
   1.15838874530162     
  0.703679517217445     
  0.645025079802511     
  -1.21638265641250     
  0.290221962723744     
  0.656384298071166     
  -1.99790926520824     
  0.431453691404422     
  0.551682188882708     
 -0.482707224209803     
 -0.476147974600804     
 -0.278633494255412     
  0.378660137438429     
  -1.09182137823726     
  0.138260775992693     
   1.11219359986358     
 -0.561043372841065     
  7.969322424220829E-002
 -0.156773547946587     
  0.482308825784086     
  0.166064865572217     
 -0.982346739109552     
 -0.400794134806003     
 -3.899860808739332E-002
 -0.176027517859796     
 -7.965501378148460E-002
 -0.418792319569326     
 -0.509202471542595     
  -1.24356203745341     
  0.389821588962131     
 -0.123993059874354     
  0.542983001292588     
  2.895023635749346E-002
  0.855059380594068     
 -0.549992701410655     
 -0.254065346508381     
  0.354165658471406     
 -7.506394172676334E-002
 -0.322062015826989     
 -0.118838424802303     
 -0.686747842627940     
 -0.584538308444567     
 -0.221611964115856     
  -1.22663574391303     
 -0.471623590096769     
  0.128970620862325     
 -0.120366672212787     
  0.799757211171549     
 -0.405705889079667     
   1.06109162104754     
 -0.819096369701175     
  0.486130825338926     
 -0.155970547395564     
 -6.152590704504916E-002
 -0.901336648372366     
 -0.963319758045357     
   1.37020792117792     
 -3.834971567214973E-002
  0.567409296883349     
 -0.596449622655491     
  0.413056459521345     
   1.49025330603915     
  0.173513212017676     
 -0.812741882910703     
  -1.64272186597193     
  0.332498191379008     
  -1.01313029720763     
  0.126348918140783     
 -0.413064657578606     
 -0.286363716478796     
  -1.10256021882192     
  -1.20813817208645     
 -0.350437481398010     
  -1.78787651699754     
  0.166364267293657     
 -0.841238926345912     
 -0.344330011275410     
 -0.676271483909730     
  0.892142159694020     
  0.691595921049660     
  0.557891748758872     
 -0.408233646864283     
  0.639144850216726     
 -0.220407576096056     
 -0.767214047770283     
  0.132959410614574     
 -7.701269972351944E-002
  0.109929867152414     
  -2.51218364412394     
  0.411743841177314     
  -1.83084683341469     
   1.51738783203583     
 -0.279934353251707     
 -0.250203697409689     
 -0.479527628032314     
  0.200182787679820     
  -1.14214798694789     
  0.343442693303643     
  -1.56718076798863     
 -0.329551007345729     
 -0.270412621346791     
  0.310998402750729     
  -1.61726755866014     
 -0.311853432411462     
  0.211734685037888     
 -0.185146827870337     
   1.03106263700770     
  -1.26817081661031     
  -1.19035910308939     
 -0.175030758425385     
  -1.57822340323236     
  0.127313560391806     
  -1.41324734916963     
  -1.31990346040883     
  0.178877162319377     
   1.41867031159926     
  0.217193344001164     
  -1.66805251736581     
  0.692214442572299     
 -0.684868220862820     
   1.68508612987570     
  0.554081717149826     
 -0.206351872040459     
  0.401695059022178     
 -0.376298420332714     
  0.653481397980368     
   2.20667659304242     
   1.04271798019458     
   1.24977551768999     
  0.974077947924032     
   1.98447620172699     
  -1.07039660260730     
  -1.54753470527537     
  0.507522364378690     
 -0.738898422844546     
 -0.157088737234702     
 -0.719558308822652     
  5.048477317199558E-002
  0.278711341163945     
  0.211644564337383     
 -0.534923666069473     
 -0.813556229794581     
  -1.55660253432007     
  0.208363258720898     
  0.328287414102775     
  0.303915989381697     
  -1.10890739989299     
 -0.199205023969240     
   1.47119973847420     
  0.797558394278946     
 -0.674860970886410     
 -0.750614748288116     
  3.086054815530904E-002
   1.25457665807150     
   1.32618929367652     
 -0.119633675207089     
 -0.325316234355859     
 -2.194459299118410E-002
   1.84818917373195     
  -1.28683296901641     
 -0.981851577464515     
  0.770291063802304     
  0.352325227101225     
  0.758279477437821     
  2.647042383706726E-002
   2.28411780849053     
  0.436552206061081     
 -0.559233929831264     
  0.961842576002969     
  0.482247606086827     
  7.527066635612790E-002
 -7.897101450407783E-002
 -0.429970861480553     
  0.608167358880628     
   1.13509869876887     
   1.36076561421985     
 -0.405822797551821     
  0.813861966914121     
  0.911819911019314     
   1.79067803902471     
 -5.455001410980363E-002
  -1.34665553804610     
 -0.223201664297049     
 -0.729950743097220     
  0.223093206950169     
  0.684025457878463     
 -2.687951612896948E-002
  0.692349128627635     
  0.512626861572893     
 -0.251266170022731     
 -0.328368399791037     
 -1.257317430821368E-002
  -1.58772527107867     
 -0.149378217964233     
  0.419662626478260     
  0.300404685416979     
 -0.146308187605509     
  0.961452444233974     
   1.34032719602965     
 -0.292032136665336     
  3.209495714301912E-002
  0.575587084183853     
   1.38223950814745     
  0.818283039362057     
 -0.454494034391107     
 -0.288532410580395     
 -0.334221285041042     
 -0.149413541900491     
  0.566298534011235     
   1.06644028142624     
 -0.232133273527349     
  -1.26039870422429     
 -0.393017056027835     
  0.402837290450490     
  0.653845392852636     
  0.961773447008627     
 -0.110151636883711     
 -0.235739626477453     
  -1.11557008903016     
   1.01983436728155     
  -1.58977111932798     
  0.591567249597791     
   2.22278506326978     
  0.183181538581117     
 -0.307693087351254     
  0.362543931528711     
 -0.197408515319325     
 -0.298187112108656     
 -0.247933126797404     
 -0.478746494843020     
  0.181420068970339     
 -0.104475603493700     
  0.943755108853582     
  0.341642792184360     
  0.460331460700747     
 -0.554091807647166     
  0.437338467437980     
 -0.281036797247937     
   1.14466203987728     
   1.56989038635632     
 -0.477465869846201     
 -0.166565996243041     
  0.671279812717340     
   1.38797807794264     
 -0.274941110867988     
  0.510063163047044     
 -6.616743367360578E-002
  0.550490587275766     
  1.630917977164735E-002
  0.447763781076890     
 -0.490081204722440     
  0.192032113430550     
  -1.28302987074317     
 -0.295484756071827     
 -0.150026496670259     
  1.772183447048427E-002
   1.61465365023060     
 -4.946751369995601E-002
  0.434361195214802     
  0.394113516197386     
  0.614088547181241     
  0.135855585717922     
  0.291739973416588     
 -1.936896294291744E-002
   1.47219285714004     
  -1.08658638569524     
 -0.468140054901162     
  4.395645487812513E-002
 -0.472206540674559     
   1.49181325507839     
  0.173087073302457     
  0.367409415211504     
  0.807343912943049     
   1.09986235690280     
 -0.185428859633949     
  1.027474728314276E-002
  0.119175329320909     
  0.319277117268350     
 -0.504926703363279     
  0.350946093155651     
 -0.405357517573390     
  0.680833263236383     
   1.16141932570276     
 -0.282343065822143     
  -1.26799915430134     
 -0.579983019219921     
 -9.466923876301354E-002
   2.19549346588471     
 -0.178578923619599     
   1.68984739810077     
 -8.515703079179570E-003
 -0.325596214284105     
  0.195689235630706     
 -6.188662955890380E-002
 -0.428263940164599     
  0.280304986269302     
  0.665869219206865     
 -0.667609626074810     
 -0.518806730372715     
  5.027675197153879E-002
  0.833030846667605     
  -1.71553510227205     
  0.164445886744632     
   1.88846484321516     
  -1.55959410242018     
 -0.282192826575976     
   2.71765560120058     
 -0.752509645343398     
  -1.10069769133956     
  0.961344806954008     
 -0.936937448809041     
 -0.544035874509550     
 -0.326009780563422     
   2.64459229859173     
 -0.611026706491261     
  -3.19267100773282     
   1.10288502858682     
  0.470976725446835     
 -0.512543155707553     
  -1.25449470087083     
 -0.832480942828126     
  5.475797859575744E-002
  0.105562492059452     
 -0.141151556015039     
 -0.468049300752300     
 -0.849946356763194     
 -6.417620473787582E-002
  0.737079021703272     
  0.463610492736847     
  -1.18931191691297     
  -1.04770053938630     
  0.821373573680143     
  0.273588345564672     
 -0.206280427107395     
  0.266011742143191     
 -0.436667568690720     
  -1.69325630291248     
 -0.520811437585518     
  0.963003684343637     
 -0.284447188676890     
  -1.52464068314221     
 -0.324930215120347     
 -0.835627877507427     
 -0.880907546592946     
 -0.629076464985760     
  0.972719261640504     
 -0.731422333617508     
  -1.33563121871441     
   1.17141350913586     
 -0.581373493892471     
 -0.460636320092754     
  0.156687099279392     
  -1.21466956159026     
 -0.612107722561634     
  0.246958965402283     
  0.199274386075005     
  0.338236809438618     
 -0.468268608305772     
   1.19413817887414     
  -2.34657503811537     
  0.788338540529092     
  -2.58348332595886     
 -0.821442699058134     
 -0.213758994391658     
  0.463598633280747     
  0.703834308410520     
  0.354433672543757     
 -0.820931787057447     
 -7.262999343307233E-002
   1.16612198423610     
   1.41284414457869     
  -1.27685610550945     
   1.51662894451003     
 -4.797469165519160E-002
 -0.689875988966241     
   1.16540207671174     
 -4.610455055810574E-002
   1.23867490897054     
  0.218491625860104     
 -0.546223679557503     
   1.43934531439537     
  0.531084676548665     
  0.411569205906195     
  0.562697286080097     
  -1.70222741715471     
  -1.71896014524040     
  0.716168948112294     
  0.544769687405146     
  0.357899304455437     
 -0.739206700281804     
  8.477486002601424E-002
  0.845653034470174     
 -0.561587258782415     
  0.295118064965259     
 -0.138744738572456     
  0.553104793283362     
  0.181534970572142     
  2.040442331947786E-002
  0.817224844333493     
  0.835817633866734     
  -1.40389646581808     
  6.649291898704516E-003
   1.20035748769422     
  -1.32211841972249     
  0.328331388230665     
  0.772138464246489     
 -0.413558984262072     
 -0.748914961216179     
  0.191916965186585     
  -1.21112204154844     
 -0.651993088974398     
 -0.149194373879580     
 -0.322605160894023     
 -0.614165193283164     
  0.348999482101815     
   2.55619445587561     
  -1.35858222319533     
  1.944788422483992E-003
   1.06823707496278     
   2.23918045533916     
  0.251632498534280     
  0.906315754463278     
   1.20008570153611     
  0.611776122474054     
   1.15845947377365     
 -0.609073287189822     
  -1.04084208030983     
 -0.210929516592430     
 -0.986498698336847     
   1.66780769937082     
 -0.234525319399552     
 -0.326997065991940     
 -0.385801264696069     
 -0.379488379421394     
 -0.677017314138711     
  0.116542754378808     
 -0.134737484229092     
 -0.323594972175400     
 -4.683916055736224E-002
 -0.790361197155731     
  0.108736997018242     
 -0.769348297476703     
   1.08568500996721     
 -0.570391952275327     
  7.508492433380082E-002
  -1.68272508799048     
  0.164475820976265     
 -0.947295278998568     
 -0.648339310460349     
  0.294877739920592     
  5.523525973836076E-002
 -0.860836484933765     
 -0.116875466780853     
 -2.711658844877996E-003
  -1.52078001332023     
  0.653555154165920     
  0.942967820703633     
 -0.164196257715179     
 -0.192236291342631     
 -0.503989299498022     
  -1.02008555028630     
 -0.739765485933508     
 -0.386933148968718     
  0.930819433762928     
  -1.08410727720891     
 -0.701780472350346     
  0.253205140745658     
   1.55853420545179     
 -0.735268172378727     
 -0.863016239523264     
   1.32980320068819     
 -0.589338629869414     
  -1.14794202223462     
  0.900734183138303     
 -0.910444681395625     
  0.281808956438257     
 -0.503446620698740     
  0.205541436859226     
  0.322406309335660     
 -0.862682937129477     
 -0.302830417075547     
  0.730040910182476     
 -6.986139571302832E-002
 -0.480725429273536     
  8.485966659079403E-002
 -0.639956154805393     
 -0.613632342951475     
  0.392361736535153     
   1.40943263121218     
  0.110795433109310     
  0.440931548963539     
 -7.741200230798002E-002
 -0.414701899753724     
  0.382817598317765     
   1.18480633797398     
   1.81682358906348     
 -0.465817102651934     
  -1.08040753819150     
 -8.083486486236006E-002
 -0.630497611283844     
 -0.651829005631360     
  0.619430989233569     
  0.413067709377146     
 -5.557665313719742E-002
  0.527386068423216     
  0.270029623923205     
  -1.45215640890622     
  0.578745027531612     
   1.48554855034292     
 -0.999631273626485     
 -6.723494939157638E-002
 -0.522839344103127     
 -0.163051814952021     
  0.357185789165411     
 -0.298692062420536     
  0.174167461407246     
  0.356489456169823     
 -0.241665997584547     
 -0.508131583232382     
 -0.955854173578675     
  0.576312673278583     
  1.860273977612344E-002
  0.100876412575730     
  0.486366885358308     
 -0.416665105748307     
  0.461783393824383     
 -0.363183083159767     
 -2.492168264584328E-002
  0.802182673622456     
 -0.881094272978395     
  0.488386733264347     
 -0.464833154770936     
  -1.24174528179637     
  0.884719303673532     
 
  0.259011903588830     
  0.111040815804530     
 -0.860440179732918     
   1.44725290858689     
 -0.214315953576022     
 -0.608407440711194     
  0.779342167933198     
  -1.44196608899699     
 -0.243845262153452     
 -0.377781926483670     
   1.05796364964962     
 -0.266476318044809     
 -0.276520504160914     
 -0.419589559424267     
  0.588744670991720     
 -0.621245799738858     
   1.15872309378156     
 -0.946073461396417     
 -0.766566026791959     
 -0.830480887129228     
   1.17831558363266     
 -0.238223530761683     
  0.910381083467754     
  -1.50570219553204     
   1.52738741505265     
  0.158445840481877     
  0.637499334071920     
  0.366857891549658     
  0.262622008488628     
 -0.505851593015848     
 
 -0.234035998762125     
  0.185432893115820     
  0.193805017975431     
  -1.36047799761360     
 -0.109665219167379     
 -0.325410550648056     
  0.286953186525560     
  0.253724846713694     
 -0.438166222691511     
 -0.225670546039062     
  0.609377738437213     
 -0.610038045091333     
  0.419866740838597     
 -0.831409957356255     
  -1.30115167981935     
 -8.536101211989700E-002
 -0.342196547644212     
  0.333102904787777     
  -1.12993539990535     
 -0.447368959466774     
 -0.350859528810872     
  0.316908848457301     
 -0.380040665797066     
 -0.140810866150326     
 -0.136204267567765     
 -0.101472063253017     
 -0.106279249032292     
  0.446289347891026     
   1.24354384212010     
  0.671536658843028     
 
 -4.823588598161625E-003
 
  tansig  tansig 
