     48 -    30 -    30 -     1 
rmse=  42.5396meV
 -0.815915639295814     
  0.242657334168143     
  0.730323149435982     
 -0.929444450699771     
  0.306876802305616     
  0.229500665408142     
 -0.713134464707480     
  0.154145891444955     
 -0.960551631281472     
 -0.485922641471180     
  0.610785102268365     
 -0.107246407047346     
 -0.198046978846694     
  0.253182006208259     
  0.205283855345032     
 -9.538638164268004E-002
 -0.437037084811421     
  0.343283787960304     
  0.426521073523918     
 -0.119888899560384     
 -0.477784713477835     
 -0.229547758079985     
   1.06305168454300     
  0.646677289450419     
  0.261737096823623     
  0.487650701297253     
  0.407751877332766     
  0.474524325075117     
 -1.212491910365738E-002
  0.160879233722122     
  5.326347991960619E-002
 -0.309636236050752     
  0.521456720761971     
  -1.57731405124969     
 -0.726939504074636     
  0.283561008464304     
  8.229602004213032E-002
  0.119911182961190     
 -0.355166998675718     
 -0.156716119365185     
  0.588011187101713     
  0.277292249099972     
 -0.350960060483813     
  1.700495633649207E-002
 -0.358514651500433     
 -0.259131081576954     
 -0.132513764750383     
 -5.866475922413157E-002
 -0.294512883160849     
  5.043326475859304E-003
  8.220458208147358E-002
 -0.160263566723399     
 -0.282935399927378     
  0.166337118919395     
  0.120038838577116     
 -8.342804633936711E-002
 -0.349990726631085     
 -6.175504269075810E-002
  0.486006204313037     
 -4.137805884337570E-002
  9.798913007768963E-002
  0.215730733434416     
 -0.138245371249345     
 -8.954457090314226E-002
 -0.149829528672540     
 -0.238427830424269     
  0.278853774867942     
  5.435755373349634E-002
 -0.265965467180718     
  0.315043277867172     
 -0.516971836784522     
  0.507715451064701     
  0.101632606954981     
 -2.350696162752356E-002
  0.151665333096367     
 -0.124053189510721     
  5.335298931010719E-002
 -5.935072075239961E-002
  0.170499736809522     
  3.646966704596002E-002
  0.290751742565808     
 -0.377391814604253     
 -0.620952397283668     
 -0.100821095187557     
 -0.117765005611533     
  0.345191276034287     
 -1.413590898116240E-003
 -0.422707504349914     
  2.251919950383910E-002
 -7.905133222065797E-002
  5.036565154240643E-002
 -0.107319921298258     
 -0.169428804673892     
 -0.147288323517768     
 -2.658482121706075E-002
 -9.479605408610919E-002
  1.677010960766144E-002
 -0.792744976284523     
  0.954205332572448     
  6.757536420541245E-002
 -7.915775711213234E-002
  -1.10630295083436     
   1.28175988429105     
  0.397726613151867     
  0.935214078385268     
  0.465465847162815     
 -1.950358897604822E-002
 -0.880775092923687     
 -0.832521328964008     
  4.626799247844363E-002
  0.103755099191113     
 -0.483142911581208     
  0.666405683873716     
  2.146948089249073E-003
 -0.190655597644405     
 -3.802943411960432E-002
  0.310053915820264     
 -0.695615188468011     
  0.652584481703563     
  -1.27925545082467     
 -0.783184407349539     
  0.169411224412907     
  0.131823698937772     
 -0.290377189394652     
 -0.139424807452346     
 -0.302277483490939     
  0.185541515168663     
  0.160041400897070     
  0.144910931095957     
 -0.402245338064545     
 -0.150809833555673     
  1.546080546879972E-002
  0.564103380481718     
  -1.28808490144314     
 -0.109428238861803     
  0.604361456960165     
 -0.584198002669617     
 -0.619105810667565     
  0.470821809423676     
  0.772477189476929     
  0.250953916658298     
  0.283930526195854     
 -1.570390979633264E-002
  0.386625377585817     
  -2.06642511842638     
  0.451018561550552     
  0.198740566009086     
   1.82611606059745     
  0.658710750810581     
   1.16691742916783     
 -3.393163952723667E-002
  0.857674970444175     
   1.14852731761417     
  9.427584290948136E-002
   1.40398238958516     
 -7.333091801591353E-002
  0.154891270241917     
  0.679261714477728     
 -6.274598008884090E-002
  0.556166144572794     
  0.729218441861974     
  0.423334677003117     
  0.326824484579958     
  0.615399170244367     
 -0.663486660420158     
 -0.324869264901615     
 -0.827190276509004     
  0.657321716732872     
 -0.658691716273174     
  0.371960564474289     
  8.447649882691680E-002
 -0.113950250154564     
  0.397090116747078     
  0.197402209485095     
 -7.992571850068964E-002
 -0.816969656609594     
  0.273931342848378     
  6.576191532822047E-002
 -0.749060365153641     
 -0.223238495664074     
  -1.06211779721532     
  0.359351579298522     
 -0.206221311893043     
   1.07901533072950     
 -0.924045151743294     
  -1.26121622753141     
 -5.610878753533773E-002
 -7.635992449603131E-002
  0.148361176122077     
 -0.958696203424337     
  8.987925335950969E-002
  0.215269608035226     
 -0.255033219214678     
  3.102120925607938E-002
  9.939616500839205E-002
  0.730469902652123     
  0.470625379697303     
  -1.06094946068605     
  0.717482442999828     
  0.174691428837703     
  7.027517544223401E-002
 -6.705321119555134E-002
 -0.217616803401487     
 -2.614072638488764E-002
  0.109403136982933     
 -0.282735377674501     
  0.122421281788668     
 -0.481119671843976     
  0.252630399482705     
  0.696791969062622     
 -0.643702592551043     
  0.282366068939674     
 -5.623373769676568E-002
 -0.361921327427780     
   1.09368085571016     
 -0.411803205577861     
 -0.115243095145317     
  0.113403361568896     
 -1.457370478274542E-002
  0.148279854939153     
  0.180114378234126     
  0.723972843821669     
 -0.104545635328156     
 -0.355962791102759     
 -0.204469698369819     
  0.822669374179010     
  0.832140573010079     
 -0.157621866991052     
  0.518332697921874     
 -0.240147973805200     
  0.146372777945007     
   1.49263265797570     
  1.995883353644463E-002
  0.593942755631347     
  0.144892984321799     
 -0.141224313839132     
 -0.226852331576753     
  0.309176602210174     
 -5.903379315972925E-003
  0.739636934426489     
  0.690604158277699     
  0.130280482035329     
 -7.858338747798918E-002
 -0.151533567387495     
 -0.658977526948278     
 -0.366507236237104     
 -0.368248721802198     
 -0.188933070842926     
  0.231016345633662     
  0.504830934652103     
  0.435319499372651     
  1.038950408690575E-002
  0.470198445720882     
  0.449944557564147     
  0.208788187712677     
  0.293996693098952     
 -6.542018973253735E-002
  0.310743646753395     
 -0.340420360684019     
  0.470705371660728     
  4.386265574106103E-002
  8.161833066542883E-002
  0.230334791043064     
  5.156831614481625E-002
  0.469319386926046     
 -0.604306919051148     
 -0.506157335089194     
 -2.900517029018656E-002
  9.580732460729739E-002
  6.648184690774644E-003
 -0.795608356227785     
  0.800984833982245     
 -0.436715185754214     
  0.258917833722527     
  0.462423257137193     
  0.528590850923513     
   1.18003445136397     
  0.153922543490922     
 -0.102441840747101     
  0.634103098804713     
 -0.184026160775031     
 -0.507467939160278     
  0.105518591831477     
 -0.173484520553798     
 -0.443161354293909     
 -7.609913466074782E-002
  0.343732891658418     
 -0.420478119010461     
  -1.10139099052103     
   2.16144644695486     
   1.45965349538974     
  0.925997711101147     
 -0.300684838723363     
 -0.878180665162843     
  0.362992165342433     
  0.333788203663165     
  0.472367894879716     
  0.905419258065492     
 -0.589590805130913     
  0.842268614147570     
 -5.741339789648114E-002
  -1.33730711626037     
  0.206498962650934     
 -0.665778758422047     
  -2.14996438498183     
   1.48546436370029     
  -1.04876208273780     
 -0.993507301783386     
   1.19302160249807     
  -1.24516733270697     
   1.79050677097877     
  -1.12869732472206     
  0.134831123019138     
 -0.895112100066609     
 -0.192016968275272     
   1.02730458695959     
 -0.527473537048775     
   1.22789290640356     
 -0.189170725794075     
  0.409621122292515     
  -1.14412610052952     
   1.14197546182527     
  0.427055656161523     
 -0.989476621064948     
   1.19277012945255     
  -1.63336928868824     
  0.661203830724993     
  0.818474661028667     
 -0.820344307636780     
  0.740600116295465     
 -0.873742300244939     
 -0.139994282109322     
  0.563276748627614     
  0.893168738075615     
  2.166370192276327E-002
  0.619295022929214     
 -6.201391011816425E-002
 -0.678823103650011     
   1.20520203889717     
  -1.58891040619086     
  0.554526621251710     
  0.105247804295619     
   1.16178060355052     
  0.275266412337779     
  0.155651162669545     
  0.143635849504928     
  9.132169980466837E-002
  0.352459757003639     
 -0.146169564973417     
 -0.158964038411117     
  0.335531955247377     
 -7.822521297534663E-002
  0.420166055924198     
 -0.526362817653016     
  0.267258201005030     
  0.590537598300140     
 -0.196358441689249     
  0.305824012213669     
 -0.905131280569387     
  0.322586934806119     
  0.164196720245559     
 -0.951992926376995     
  0.352854689113667     
  0.506690316494460     
 -0.268082521327819     
 -8.127619324354357E-002
 -0.162424488888491     
  0.371195396319602     
  0.530415546096042     
  -1.44176992377675     
  0.565221094758443     
  0.553278416907845     
  8.306530945310096E-002
 -0.251284860223116     
 -0.775829891942697     
  2.889988105128585E-002
 -0.491292206368744     
  0.366964244359988     
 -0.749278198894628     
 -5.632551953567781E-002
 -0.124811888274480     
  7.650090198893407E-002
  0.102910974540828     
 -0.309178217872543     
   1.22411858546767     
 -0.127050233368366     
  7.008813896364705E-002
 -0.590512084932161     
   1.24326595008969     
  0.333722255595519     
  0.244053167678660     
 -0.315206105738677     
 -4.162899179574729E-002
 -2.776220579682592E-002
  0.112794165858311     
 -0.395369349424223     
 -0.404175322090025     
  0.321432757029349     
 -0.321177846476548     
 -0.829312211419209     
 -8.026811030143471E-003
  0.378795665358519     
  -2.32444029411767     
   1.87785281748484     
  -1.81974819252989     
 -0.202413532540335     
 -0.775450353615888     
   1.55810130709048     
 -0.780477588429772     
  0.982744277754975     
 -0.290667026873079     
  0.889390409009490     
 -0.134987489226236     
  0.340181851785012     
  0.579427879034816     
  3.077570777520941E-002
 -0.794096434829615     
   1.91008863352537     
  -1.36278569427308     
  0.808834794353351     
 -0.512392560421152     
  0.687184820685114     
  -1.53602491849787     
 -0.190179462960513     
 -0.318005719916438     
  0.596919842659164     
 -0.331520727946272     
  0.421821709101694     
 -0.110022479421630     
 -0.251109074726973     
  0.141791918719218     
  0.536136340025024     
  0.837673368011187     
 -8.564079882023520E-002
 -0.155308273671593     
 -2.365281265016090E-002
  0.659354147930630     
  -1.52394380971613     
 -0.518435403103440     
 -0.430993230397833     
 -0.825214909996032     
  0.755197425349806     
  0.602713910098743     
 -0.313726479774835     
 -0.120583161267377     
 -0.318158415552582     
 -2.206555892253052E-002
  0.338567846648182     
  1.861382100118467E-002
  0.239847267870618     
  0.151147453525327     
 -0.893802257865464     
  0.541710476498322     
   2.00697595628103     
 -1.163367130186277E-002
   1.14211912595488     
 -7.776281193579233E-002
  0.332202183786717     
 -0.204355060572600     
  0.537570216859724     
 -0.176076233040513     
 -8.440287688351773E-002
 -9.489182455547152E-002
  0.342339554638077     
  0.381579517859067     
 -0.235303948333144     
  0.682388367867992     
 -0.418848437661031     
 -5.028312963282785E-002
 -0.579865172439142     
  -1.12364926701718     
  0.399332031166951     
 -0.163893418191994     
 -0.572568020411595     
 -0.962697736096110     
  0.224913662768769     
  7.045316750672438E-002
  0.189670829370740     
 -0.401150362433692     
 -0.660286804134619     
 -0.647557165443203     
  3.565812559433974E-002
  0.320123556650820     
   1.08630343337595     
  0.184905665794787     
 -0.450822651501545     
 -0.961043889970297     
  0.240820413875337     
  0.303424934229763     
 -0.454622067253577     
 -0.123116283178441     
  0.430018951025522     
  6.252798429577880E-002
 -0.139479831040963     
  3.652757037332617E-002
  0.649307754987460     
 -0.126587997668479     
  0.348312912866482     
 -0.135320134428284     
 -0.912517761947280     
  0.575466268001811     
 -0.138839848502085     
  0.514306263440375     
  0.471884495557053     
 -0.439499692822347     
  4.580861648706124E-002
  0.143874828979385     
  0.825905870545807     
 -0.499410064809150     
  0.691618878384323     
 -0.210754708896629     
 -0.371020238780930     
  0.268161001598644     
 -0.319891726981102     
  0.520019317236549     
 -0.959270864462363     
  0.284555330450598     
  0.121200256116893     
  0.619696668961076     
 -0.447099196100717     
  0.104810993847684     
  0.570301154833543     
 -0.968944629782602     
 -0.269570610881589     
 -0.789889901099277     
  0.217564230590290     
 -0.354092940208405     
 -0.391165520073876     
 -0.599019808495907     
  0.639809059436312     
  0.482298412679539     
 -2.665657478468102E-002
 -0.760978091721431     
 -6.587804040625708E-002
 -0.153591770319086     
  0.689043107161213     
 -0.203463368895848     
  0.447133413908118     
   1.11878649958206     
 -7.838356257367340E-002
  0.461142219019555     
  0.238475788995387     
 -6.027026402729817E-002
 -0.125711167957032     
 -0.821577089740389     
   1.18471451090267     
 -0.531276632346663     
 -7.558865600470664E-002
  6.337585746381143E-002
 -2.129676332625188E-002
   1.12865752771043     
 -0.900106157858390     
  0.246324342970302     
  -1.16657852081672     
  0.618408573549275     
 -2.180686655317061E-002
 -0.177005202095802     
  7.537527421921073E-002
  0.239601018472947     
 -0.388155431951231     
 -9.493361290134662E-002
  0.586177142420324     
  0.284797773040146     
  0.161459841376571     
 -7.253046117613995E-002
 -0.426476492655619     
   1.02305699185806     
  0.335193537690500     
 -0.263823255576142     
 -0.333320163404449     
 -0.197134790165138     
 -0.463947763886071     
 -0.251972363038092     
 -0.217261138110592     
 -0.140175216685156     
  0.259342215396577     
 -0.269584508048465     
  0.342578795047717     
  -1.07442715015883     
  0.223679922308900     
 -0.372897012902474     
  0.317242694657112     
 -0.694860670769226     
 -0.960127208096834     
  0.337768970036135     
 -0.206480795647314     
 -0.352412175295661     
  0.530363232411393     
  0.251069274236133     
 -0.628955791832489     
 -0.603680969469423     
 -0.469651672970597     
 -0.438082129828202     
 -0.292232011213186     
  0.578790824450383     
 -0.434482009035636     
  0.104046169078751     
  0.589763126621216     
 -4.838587855875658E-002
  0.183008328498422     
 -0.476450526399532     
  0.512700777868043     
 -0.245974396050852     
 -0.535267596784852     
  0.800700155894661     
 -0.139659212234555     
  0.416398545674608     
 -1.375415221365731E-002
 -0.338886896689120     
 -0.357278338782274     
 -0.176067973886392     
  0.274655101699612     
 -0.161081577391197     
 -4.180699819568730E-002
  0.309333573037331     
  0.271262333372906     
  0.122085267165159     
  0.130516176791268     
 -0.221484276028981     
 -0.382140814832876     
  0.472171193081913     
  0.573835824229625     
  1.490669715313690E-002
  0.502225440236749     
  0.161167107004510     
  1.742229113005260E-002
 -0.404357621251012     
 -5.499371023135775E-002
 -0.593434413862354     
 -0.570826430433170     
 -0.113532763993786     
 -0.306444864863997     
  0.762246735818921     
 -0.623204845974844     
 -6.544245901650309E-002
  0.529800574039589     
  0.212887241947348     
  0.196009731678507     
 -0.425381506981772     
 -0.390815193859119     
 -2.397033879090863E-002
 -0.365419749682328     
 -3.495980310252600E-002
  0.140587473231737     
  0.654683512997430     
  0.687121165533692     
  1.712594721120865E-002
 -0.577809158567126     
 -0.658625711312233     
  0.471868651251589     
 -6.836802309054378E-002
   1.20934616682899     
 -0.331569132279407     
   1.03840323522990     
  0.284488772771617     
  0.418937545180893     
  0.153220952617824     
  0.126490820704329     
   1.29554210756016     
 -2.989917746762441E-002
  0.469942987941069     
  1.761944345050902E-002
  0.861241122834698     
  0.336957606228533     
  0.443997019756290     
 -0.128634924507356     
  0.533404149291872     
 -0.137811575264618     
 -0.250643770940659     
 -7.090570243474276E-002
  0.401067142089834     
  0.294051077841013     
  0.107497068346805     
 -1.176041033972137E-002
  0.188306956009169     
 -5.531129775479156E-002
 -0.262228567334010     
  9.908056020115685E-002
  -2.20175878149372     
 -0.123857245237437     
 -0.189393804345536     
 -0.378864095676092     
 -0.403926408311826     
 -0.417031956529994     
 -1.169846503297162E-002
 -0.184924754517615     
 -0.258991222731411     
  5.188233812275318E-002
 -1.806330317920661E-002
  2.367273963466532E-002
 -0.212414985717688     
 -0.109604621465792     
  0.312266517564236     
  0.458160457239259     
  0.352526092339499     
 -0.559265667490055     
   1.07642982230856     
  4.134067578512272E-002
 -0.117162796916003     
 -0.353772893182496     
  0.491641502207420     
 -0.636583775841184     
  0.129375685444599     
 -3.376565627837745E-002
 -4.026915214404943E-002
  0.188103716756767     
  0.258839394264830     
 -0.128160774204756     
  0.120813230322539     
  0.876793647585678     
 -9.225244286664150E-002
  1.578073362772134E-002
  0.463897674970702     
 -4.108316455013400E-002
  0.220932383923384     
  0.211836602995103     
  0.384738122156293     
  0.202500595179880     
 -1.569087430708187E-002
 -2.732498915912731E-002
 -9.729696753992047E-002
 -4.799605554074485E-002
  0.376615618194623     
 -0.549932461727394     
  1.346840391254185E-002
  -1.06385512150795     
  0.234760828754148     
  0.460445988180311     
   1.15020131152277     
  -1.12967686027615     
 -0.248283391160764     
 -0.269695341506082     
 -0.884626656300855     
 -0.651433638452790     
  0.172658617473259     
  0.147827251792782     
 -0.118202277961546     
  0.258127817408299     
 -0.421988668409165     
  0.163832315171086     
 -0.253113068175382     
  7.638517355850782E-002
 -0.171105174073301     
 -0.162667632954828     
  0.763560029346588     
 -0.314989322168305     
  0.731773230798151     
  0.154175665063527     
 -0.657861724348580     
  2.284197962095765E-002
  0.126795362910395     
 -0.139135548560864     
 -1.764040694207569E-002
  0.780500038243027     
  0.184731867009726     
 -3.081676480544084E-002
  0.811308635672207     
 -0.308514584781220     
  3.946438551157159E-002
 -0.483669151297561     
 -0.913848747581615     
  0.614537122497767     
 -0.221009720076640     
  0.594654599509354     
  0.448896384672273     
  0.298089738966536     
 -0.167845239644265     
 -0.428790128446943     
 -0.278793317554881     
 -0.156662498554920     
 -0.300747782031058     
  0.491628605988785     
  4.923621520434313E-002
 -0.815402104045320     
  0.250414581322538     
  0.181277121288848     
 -8.673902615400544E-002
 -0.458971497687278     
  0.467052845300745     
  0.233219062966352     
  0.264388814377699     
  0.156602223007709     
  9.883518187210151E-002
  0.526622325669609     
  0.205907803423324     
  0.472587549053587     
 -0.334857130710812     
 -0.235233085257210     
  0.462886287818436     
  0.238705077421874     
 -0.133328460692524     
 -0.392040653204563     
  0.543744704292094     
 -0.174649733364577     
  0.188347417720208     
  0.107580817014943     
 -0.370091300013047     
 -0.133637121657147     
 -0.302208855733857     
  0.168390233275171     
  1.240816748393292E-002
  0.535090633924100     
  0.106479934995045     
 -0.120676131290682     
  1.467960201974473E-004
  0.265142435733166     
  0.621348898177355     
 -0.499116012174395     
  0.209233419582233     
 -0.241662607710554     
 -0.332545047271069     
 -0.281519846448220     
 -9.996040662868100E-002
 -0.127661118370205     
  0.107636860289180     
 -0.633548528429789     
  5.040485404768642E-002
  0.368897968260683     
 -0.939786518734596     
  0.890742770011886     
 -0.387063969996967     
 -0.154506519475807     
 -0.792475730072668     
 -0.122241393241053     
  0.154659254372943     
  2.810000262292565E-002
  0.484590704935382     
 -0.762088327092780     
 -0.299512554110175     
  0.230295478205051     
 -3.006705081767295E-002
 -0.354090557619823     
 -0.223915038561359     
  0.756670868171502     
 -0.278815978601822     
 -0.346114431224174     
  1.512505302821436E-002
 -0.743123144403907     
  0.761835006594382     
 -0.933276514284006     
  0.921721218234790     
 -7.714785296726259E-002
  3.389272766342889E-002
 -0.552780861444162     
 -2.898999902517299E-002
 -0.163965078118540     
  0.348860175342782     
 -0.215502353010515     
 -0.241120695540196     
   1.02615248196958     
  0.206630657488109     
 -0.288260620026851     
  0.415918265822608     
 -0.217227288241953     
  0.520498846363141     
  9.333244778018372E-002
  0.131472566240720     
 -0.939126538943460     
   1.16255956007547     
  0.419377021335950     
  0.287595523000550     
 -0.261928888424971     
 -4.380955833722651E-002
  0.381647469301681     
 -0.112447457644439     
  0.475582597475493     
  0.781489778195407     
   1.19284151109229     
  0.351803131761718     
 -8.125494616800519E-002
   1.49016689390896     
  0.213610364342155     
 -0.673464160015191     
 -0.184396866563607     
  0.703554449034353     
  -1.03554536050338     
 -0.178999816904846     
   1.00288736866954     
  2.877829197375695E-002
  0.163755362704911     
 -0.221936169618574     
   1.24391141906083     
 -0.773858032111949     
 -0.569322674959653     
 -0.254839888641129     
  -1.07860429568415     
  0.644569546723183     
 -0.161993449023958     
 -0.854684016947747     
   1.10179674881362     
  0.526017166536209     
  0.284165865728914     
  0.195574283910161     
 -0.564445221652320     
 -0.226720691913819     
  0.363384619092220     
  -1.36346076734821     
   1.24102650384742     
 -0.427852051745241     
 -0.326965854057258     
  5.920987156298733E-003
 -0.993728102427465     
  0.618580982803333     
   1.15887091412408     
  0.379128886151835     
 -0.200254197630993     
  0.404522743190886     
  0.195393143610493     
 -1.956353948285743E-003
 -0.118954381343353     
 -0.237502252478638     
 -0.216048389501753     
 -0.209034610182926     
 -0.783431928663227     
   1.30469149481103     
 -0.480140515094970     
 -0.376063655293356     
  -1.10737505473892     
 -0.358995314317196     
 -0.304677244588049     
  0.126107876372473     
  4.628701495822337E-003
 -0.644699869635399     
 -0.266289341204545     
 -0.132613424906052     
  6.473597058030903E-002
 -0.273877098434338     
  1.605445471098640E-002
  0.572551294387525     
  0.658096692597800     
 -0.848352183298043     
  0.703505779703688     
 -0.502052092218493     
 -0.199863939471350     
  0.339148248027671     
 -0.159637058714316     
 -0.137618492345337     
 -0.247142842549916     
  0.122701693818929     
 -0.122449950442977     
  7.390511019891700E-002
 -8.482956446249226E-002
  0.270328749707458     
 -0.144957903896304     
  0.208964828832805     
 -0.936202747382667     
 -5.793890878904798E-002
  0.278047956253092     
  0.533418272516878     
  0.422720109659381     
  4.084870494761369E-002
  7.587943722244747E-002
  0.154170750564133     
  5.855752741198276E-002
  0.427081925661741     
  0.175455800881978     
 -9.433884188319501E-002
  0.129555635106859     
 -0.225424771318047     
  0.126375150440458     
 -0.385455152512268     
  9.546677709970990E-002
  0.314217633678248     
  0.434886310455319     
  0.699875158091279     
 -0.566170949398312     
  0.537481584961736     
  0.315935189166805     
 -0.607940406208967     
 -0.618166915545790     
 -0.205141164328650     
  0.283179213826885     
 -0.783116512661753     
  0.232971461668026     
 -0.398630578686347     
  0.497869381432697     
 -0.136380320983486     
  0.279558201929432     
 -0.562276723704662     
 -8.070269298584351E-002
 -0.486967679824558     
  0.140016266392751     
  0.447822534531858     
  0.676339654310926     
 -5.241550744368807E-002
  0.670864329039420     
  9.232215783102304E-002
  0.949368004010354     
 -0.784894503632683     
  0.227672617708121     
  0.642145599644376     
 -0.416085958940502     
 -0.149183886058719     
  5.511408889489751E-002
  -1.11715775759864     
 -0.395743608810797     
  0.402262683619176     
 -0.767907552196308     
 -0.172495954203241     
 -0.667213983051159     
  0.296772633110461     
  0.878143006571912     
 -0.786333754065495     
  0.334357183333482     
 -0.849976286070860     
 -0.382328393509569     
 -0.241682939024284     
 -0.545054504817125     
 -0.102286509026297     
 -0.333039455819621     
  0.201460835342862     
  0.185049606013944     
 -0.784309514747114     
  0.132763729319192     
 -0.328499337167927     
  0.338049538776699     
 -0.427700682227035     
  0.356169155087297     
  0.702160414915832     
  0.130159431472127     
  0.346001988250032     
  0.251125544858024     
  0.212527443106165     
  0.314717241133478     
  0.321632491424771     
  0.515972979965047     
 -0.231452707969239     
 -0.113088551760346     
  0.115113632200713     
  0.421980716560040     
  8.898760813753924E-002
 -0.125751855726043     
  4.554752621995165E-002
 -0.217065060991811     
 -0.102023187492290     
 -0.245832837308750     
 -0.121376980218811     
 -0.198702121710658     
 -0.337579945779603     
  6.897226248144021E-002
 -8.771993076841178E-002
  0.446155191209986     
  3.408685956094706E-002
 -0.119275511093944     
 -0.120175899382457     
  9.359804524815424E-002
  0.740279297430842     
  0.185975312883506     
 -0.101686549246165     
 -0.596546066028945     
 -2.124460528759328E-002
 -0.261253145066766     
 -1.731075973648330E-002
 -0.156817062448995     
  1.886417694043109E-002
 -0.311585717386230     
  4.102042046512493E-002
 -0.344715876741591     
  0.231360295120086     
  0.443513120751901     
   1.69245181480113     
 -0.596691874188371     
   1.66718516226916     
 -0.326452566531769     
  0.350147285398677     
  0.881046444577159     
 -0.899696079727855     
  0.687402343841313     
 -0.238962189405674     
 -2.121398858216935E-002
  0.484262033235765     
 -0.349028958582115     
  0.406400852698639     
  0.175463361409005     
 -4.266698624435257E-002
  3.990044977534483E-002
 -9.964833707147909E-002
  0.328332667632955     
 -0.527851232290800     
  0.604444040947674     
 -0.972099437837076     
  0.431373164413829     
 -0.887656386198844     
 -0.675981460120135     
  8.945793437816320E-002
  0.263966859233633     
 -3.736861061342600E-002
 -0.535068506270100     
 -0.371513971104638     
 -0.356838531038946     
  0.432365242090762     
  0.247298199245388     
 -0.376542127939031     
 -3.944785838512507E-002
 -0.444302932891933     
 -0.644253611558849     
 -0.654855056737206     
  0.138846262394965     
  0.197729720896625     
  3.033180193980389E-002
 -0.612564566827891     
 -0.158189611492444     
 -0.110080573586513     
  0.559862295205363     
 -0.197983952002448     
 -0.602235060523239     
   1.28509366921083     
  -1.00968884368750     
  -1.67757087405564     
  0.849018414344064     
 -0.427756579435155     
  0.676572832868538     
 -3.185319735322263E-002
  0.490846466206689     
  0.257454018426173     
  0.589398391411992     
  0.220255132649642     
 -0.338677726802115     
 -1.352575903708561E-003
  0.219569367550308     
  0.321692620881547     
  0.279093587540214     
 -0.161704536553315     
  3.720199715575979E-002
  7.425988241657938E-002
 -4.558844090264393E-002
  0.183586389370980     
 -0.324130833012227     
  9.991571818999950E-002
 -0.559765999340604     
 -1.862535483502917E-002
 -0.385708463024307     
 -5.774299847869552E-002
 -0.428567676552878     
  3.927595520374331E-002
  5.029143075196015E-002
  0.382358183010747     
 -0.266898326412072     
  0.136361429829935     
  0.132282624868972     
  0.274753855229168     
 -0.776068531048389     
   1.13398449306797     
 -0.531232992563124     
 -0.490662055713285     
 -0.287938897001996     
 -0.782827828952759     
 -0.167689654024574     
 -4.026019764747524E-002
  0.128775872746840     
 -5.763197208971617E-002
 -0.166454689190737     
 -0.657164478093816     
 -7.406150000276923E-002
  0.894923632020035     
 -0.277703179810121     
  0.574073103789137     
   1.43078258339662     
  0.215756687690342     
  0.211960187208574     
 -0.927838785537542     
  0.340071414719169     
  0.585966693725197     
 -0.113501742130034     
  3.236989316046199E-002
  2.298534708275346E-002
  4.499272688744500E-002
 -8.077421298527104E-003
  6.793246507829381E-002
  0.411570029970680     
 -0.133146803464159     
 -0.342049755402090     
 -0.397140231787824     
  0.820340988471969     
 -0.311676967272086     
  0.716625945281205     
  4.966035848325225E-002
  0.309653482613083     
 -1.264108357824605E-002
  0.161965682951027     
  0.297924432352372     
 -0.242755324641034     
  5.536119248052284E-002
 -0.464189015530350     
  6.274246345175830E-002
 -0.292310222676434     
  0.358418627231095     
  0.132998316848434     
  -1.68576146159522     
  0.636157544945510     
 -9.198572321270242E-002
 -1.073160303795955E-002
 -0.145509304701680     
 -0.229972740041536     
 -4.845131722351667E-003
 -0.149859166656864     
 -0.207720858543741     
  0.253487764099854     
 -0.262580918468726     
  1.211454140102889E-002
 -0.491104060215539     
  4.317546693660224E-002
 -0.442645942461059     
  0.422056409574434     
  -1.44166214242533     
 -0.813367625578123     
 -0.298055744673914     
 -2.158321787366414E-002
  0.265528112165003     
 -0.407534853366481     
   1.21152812634163     
  4.665183772797588E-002
  0.222773911876348     
  0.157529160369293     
  0.456337101883908     
  0.352072400253330     
 -0.154837271698657     
 -0.466528142928107     
  0.432388054280948     
 -0.376265871883466     
  0.474005044092318     
  0.411525642727865     
  0.168913933330113     
 -0.161509568834173     
  0.434870164939085     
 -0.125600157160125     
  0.611012197920894     
  0.502117623907273     
 -0.465611142615868     
 -0.199135251364289     
 -0.498553854702499     
  0.279611663487713     
  0.785208185356257     
 -0.955235642967369     
  0.842982340978179     
 -0.676596265985432     
  0.236620379398400     
  0.432292383967740     
  0.343383929995016     
 -9.544457937922121E-002
  4.348007034739555E-002
 -0.425573936711237     
 -0.740519405552243     
 -0.334559141223419     
 -1.753495331010844E-003
  0.314150239224643     
 -0.135016108634820     
 -0.692043288064610     
  1.075406806010078E-002
 -0.312732812707443     
  0.308560504732238     
 -7.060351134771842E-002
 -0.291261397701058     
  0.990627236879981     
 -5.447400975518767E-002
 -0.386573670511417     
 -0.100879033919874     
 -0.294811162848627     
 -0.291411291941395     
  0.230421080908226     
 -0.178339330773806     
  0.148137743762438     
 -0.210888083723354     
  0.567467890341249     
  0.348130005821173     
  0.489059696725734     
 -0.285702916270554     
  0.233060447187403     
  9.248059473447781E-002
  0.436100162569810     
 -0.845380570370556     
  3.875547255145185E-003
  0.613808395564899     
 -0.310401526077131     
  0.280105417094991     
  3.379695371188462E-003
 -0.608771414896333     
 -5.708495313830422E-002
  0.334292316263339     
 -8.711059847376428E-002
 -0.251157879936521     
 -4.171766433966718E-002
  7.003242140814273E-003
  0.141920097888232     
  -1.19509633665227     
  0.716297912420172     
 -2.545101361632437E-002
  -1.13990980169872     
  0.187904904019031     
  0.251503594824443     
 -0.139644070759148     
  9.910901535269297E-002
 -0.164493004844775     
 -0.422461301528270     
 -7.526275011475515E-002
 -0.600731708062134     
  0.156801353596636     
  0.551790738217951     
 -0.784302248266117     
  0.231625566110542     
 -0.808316983778285     
  0.566531762246844     
  0.235631453926496     
 -0.102988859367188     
 -0.686362047790014     
 -0.621743040504454     
 -0.654978722531782     
  0.345605681054020     
  0.182279191422722     
 -0.535364746978811     
 -0.485636019698954     
 -7.743899443091010E-002
 -0.517171677508134     
 -0.784947239034306     
  0.374990076927286     
 -0.225419892106612     
  0.240146698875291     
 -0.319440216507113     
  0.202836332673408     
  0.753590233453135     
  0.357714650596233     
  0.422389158601796     
 -0.311821534340759     
  0.326737006922106     
  0.477061810205876     
  9.980776211643212E-002
  0.390186900327474     
 -0.362431797964756     
  0.347060632357011     
 -0.166966568641251     
 -8.545794076045031E-002
 -0.276322118149586     
  7.982822741662889E-002
 -0.902369135193834     
 -0.558054441678073     
 -0.823992985230443     
  0.864332596406671     
  0.578255443849533     
 -0.204655470639088     
 -0.116168889468649     
  9.266585326890324E-002
  0.281732726468764     
 -5.533963086029496E-002
  0.307156247028647     
  0.211687701681604     
 -0.134043207498979     
  2.674882123005285E-002
 -0.445798368130842     
  0.146134067404181     
 -4.638609241469012E-002
 -0.321492458243438     
  0.572074672965584     
 -0.167554152769733     
  1.971906565949054E-002
  0.469276687390769     
 -0.482620136520057     
 -0.170091286287222     
  7.841473926530279E-002
  6.047523856436689E-002
  4.239310334940547E-002
  6.703215445468348E-002
  0.323457403569801     
 -0.501559634178057     
  0.290334784786516     
 -0.166746995933165     
 -0.723714949099504     
   1.20889143519550     
 -0.535424248702814     
 -0.207929109158484     
 -6.021228346293260E-002
  0.272260041256211     
  0.295332670043383     
 -0.449412759314743     
  0.332392593360227     
 -0.126725742990762     
  0.144634069622791     
 -0.155204312402413     
   1.16023400195180     
 -0.480554181787904     
 -9.625247770795939E-002
  0.666708317065784     
 -0.759004699674784     
  0.248486610291232     
  0.107507688729427     
  1.337369328570189E-002
 -0.411523747928819     
 -0.106194903956487     
  0.230462808610737     
  0.138310877711853     
 -7.571565010981063E-002
  4.241695402835403E-002
 -9.555254202088564E-002
 -0.411231257817572     
 -4.688839453831720E-002
  0.652781214835794     
 -0.149521291593537     
 -0.380941350732906     
 -0.569175368127305     
  0.376973278447309     
  0.950331444680982     
 -0.284767371606349     
 -0.346106865878118     
 -0.110281382057542     
  3.166521697259335E-002
  0.254192442929011     
 -0.305223818795260     
  0.286384776525599     
  0.213526974765326     
 -5.059892720359807E-002
 -0.336375954257185     
  0.201408617719666     
 -0.125194504777148     
 -0.187617667959330     
 -0.550562020199789     
  0.426192071916165     
  0.340489675388618     
 -0.450317012584549     
  0.298443916522261     
 -0.188226619959326     
  0.619289219639536     
  0.135294787679083     
  0.395672713846837     
 -0.851081874362597     
  0.189018951391195     
  0.299649818640191     
 -0.132146073231187     
 -0.192488605180720     
 -0.150873814285057     
  0.703972194389355     
 -0.413508611031209     
  0.196598529424994     
   1.58976020998754     
  0.217724979830259     
  0.519212894491365     
 -2.916881134692866E-002
 -0.213296872464839     
 -0.144185196863639     
  0.719058640232430     
  0.138391672936222     
 -7.427210912659479E-004
 
 -0.722984244946017     
 -0.721026103939387     
  0.903222969415591     
  -1.36913964560193     
 -0.186282891162107     
  -1.19577367465327     
  0.935314186433459     
  0.387350034404245     
  -1.19376243727472     
  0.168326545763424     
  0.152622556023828     
   1.13391666143247     
  -1.36628834623461     
 -0.329765630155794     
 -4.995011395465195E-002
   1.22842667797412     
 -0.269999650965668     
  0.886313332887609     
 -0.424569829948539     
 -0.283329551671973     
  0.110889977976827     
 -0.275004121395444     
  0.318999210699600     
   1.11263969812250     
 -0.940385345277138     
  9.924053128772413E-002
  0.691997040334652     
 -0.460865243795061     
   1.15879945592104     
 -0.774869759198649     
 
 -0.312837597719899     
 -0.518516198557794     
 -0.253629990526281     
  0.118569924967229     
 -0.300768830432604     
 -0.608240917123356     
 -0.113878237449212     
 -0.395941974183474     
  0.277940001826283     
  8.330485485894781E-002
 -0.366779767468778     
 -9.569000479805750E-002
 -0.911407118149277     
  0.398569120785773     
  8.847383043271101E-002
  0.698851225207773     
 -0.450892459259030     
  2.373098194631653E-002
 -7.594607902131392E-002
 -0.447043088629629     
 -0.124358932859937     
 -0.194007659545038     
  0.463931529523104     
  0.356059977121838     
 -0.335034706252018     
  0.637511616064761     
  0.533484014012794     
  0.238424803322611     
  0.918448915240308     
  0.484168787728203     
 -0.122389170928688     
 -0.217495347515751     
 -0.531663867052697     
   1.24618786203686     
  0.118757859893399     
  0.366984311914639     
 -0.770676774543782     
 -0.269820583497673     
  7.472224837425605E-002
 -0.418352659332281     
  0.316201959178999     
   1.14647742472738     
  5.956463997928378E-002
  0.357188586591771     
  0.734397273509483     
 -2.800218148474579E-002
  0.400217953501203     
 -0.615825587764536     
 -0.663343671073604     
  0.262112870499546     
 -5.946497991633200E-002
  0.760369094223439     
 -5.640628888409029E-002
  -1.70667940368853     
  0.140961989301482     
  0.249699814157036     
  -1.07047112942910     
  0.120418298293695     
  0.820010016928587     
 -0.497506459611184     
  0.560867078906049     
  0.852965014038663     
 -0.467223852066953     
  0.935955636114314     
 -0.920360287775590     
 -0.666848915245905     
  -1.14248537238988     
  1.184677943759568E-002
 -0.857487250728994     
  0.783381520837248     
   1.36087184956183     
 -0.920968665190729     
  0.119664302944426     
  0.206415831608863     
  0.147298892993425     
 -0.870744836103507     
  -1.13122005272328     
 -0.131819576578156     
  0.886773116556775     
 -0.809638293475616     
 -0.370125856093622     
 -0.527578374915758     
  0.477837604470739     
  0.572642224992635     
 -0.402259022684179     
  0.328237971688114     
  4.528405500449923E-002
 -0.306004321175544     
  0.356662921037101     
   1.16602325988248     
 -0.530641421865617     
  0.165422297682737     
  0.163251840361961     
  0.347552125962840     
  9.674078802446942E-002
  0.365309168967201     
  0.706015859767377     
  0.973442557910887     
  0.429235372650003     
 -0.359467128407417     
 -0.424389336419084     
  -1.01396465880017     
 -0.438228386002734     
 -0.319279824951409     
   1.02935282500183     
  0.327398755466998     
  6.551178103584485E-002
  0.598608389318044     
 -0.209198562027470     
  9.704873751358092E-002
 -0.199230640915186     
  -1.21868876358300     
  0.147438212232334     
 -0.214731634561014     
 -0.236196746131183     
  0.413377754396775     
  0.701794314300818     
 -0.633105277012560     
 -9.482318524445592E-002
  0.105295122488065     
 -0.194339584119075     
 -0.526954134206696     
  0.336410380669438     
   1.01180477129399     
 -0.396207521292695     
  -1.11573602327186     
  0.115271324039959     
 -0.158113671675792     
   1.16706900808882     
 -3.469215379693698E-002
 -0.197096083514675     
 -0.476156201805250     
 -0.307947969057492     
  9.732996540768110E-002
 -0.338818078459233     
 -9.578676306707529E-002
  0.754872649019440     
 -0.923282705040313     
  0.110961915408919     
 -0.361839336274225     
 -0.140767048814983     
  3.450419720824017E-002
 -0.954324830586229     
  0.654391590848212     
  2.585862571008550E-002
 -0.459676003287091     
 -9.838050321947900E-002
 -0.411310344549256     
 -0.376606280115314     
 -0.427284532129223     
  0.204764310473986     
  0.260274551769466     
 -0.449839029844120     
  8.061380674822541E-002
  0.644202039617955     
 -0.250726821313098     
  0.650222022688891     
  -1.42000752199518     
 -0.545174876414268     
 -0.603320812767441     
  4.449095145860057E-002
  0.111922698039993     
  0.369771794288743     
  0.659250049441295     
  5.609901601585293E-002
  0.321022551130243     
  0.386245013704147     
  0.577472583860917     
  4.965673707640653E-002
  0.130138395913427     
  0.125721395520773     
  0.485393661724665     
 -0.162995894573788     
 -0.401592497416242     
  3.594736192299586E-002
  0.575362376003254     
 -0.407542300717770     
 -0.169123187087162     
 -0.238817401365758     
 -0.150570609933785     
 -0.237994267295122     
  -1.13031655955492     
 -0.517567426963988     
  -1.09046825824720     
 -0.460086790328607     
  0.709915391088971     
  -1.32461974783331     
  -1.00703386559712     
 -0.842764116063963     
   2.20575277848029     
  8.313901683288688E-002
  0.278385193703433     
  0.274944703387164     
   1.01122912253175     
  0.423217534943244     
 -1.580373390228552E-002
  -1.31125746690770     
 -0.328449122290933     
 -0.247525039079426     
 -0.388789090543198     
  0.853156418380997     
 -0.579179810139626     
  0.820157304388033     
  0.571910012552562     
 -0.449650383850992     
   1.06667364908039     
  0.539171301424784     
 -0.716797469703772     
 -5.037459820741164E-004
  0.685076935976463     
 -0.496820183225818     
 -0.553382887764413     
  0.692599917751256     
  0.490859159291629     
   1.11761495389676     
 -0.197569115450878     
 -1.172964456222659E-003
  -1.31045506464967     
  -1.54545183057428     
 -0.166233298681836     
  -1.36333875015141     
  0.542367744865739     
 -0.926973463086513     
  -1.33599834087096     
 -0.589996510142011     
  0.454065483822062     
 -0.749645470553733     
  0.704282714695202     
 -0.653390045040235     
  0.267108338081075     
   1.05012798072822     
 -0.315019034936885     
  -1.09015634292857     
 -0.232520350876358     
  0.571253045531813     
  0.493927195435432     
 -0.854175737621896     
  0.605627885504638     
  -1.07393456896711     
  -1.40076466305524     
 -0.128167000234195     
  -1.60163843325709     
 -0.989015362730690     
 -0.206898131609030     
 -0.126264012047377     
  0.875773731751406     
   1.02510928094958     
 -4.196562660563505E-002
  0.373489872599278     
 -0.901414753686446     
  0.577728746511580     
 -0.399961975245716     
  0.208659695227520     
  3.898797505974910E-003
  0.872577545919258     
 -0.439752948942487     
  0.205517039855851     
  -1.81303228627829     
  0.710845288906385     
  2.458617557009414E-002
  1.478260437374622E-002
  0.453233811421093     
  1.345202684934108E-002
 -0.586619807070487     
 -0.227300064325672     
 -3.903624398969028E-002
 -0.655191534218311     
 -0.157582252694446     
 -0.931280890480534     
 -7.104834375885416E-002
  0.712889542683967     
   1.24266327583621     
  0.433900305683744     
 -2.064431122965002E-002
 -0.934133348058969     
 -0.686395555967242     
   1.01504884672443     
  0.131586427073406     
   1.95523692775941     
  0.419609425371852     
  0.100349214038117     
  0.504427518427887     
  6.743846575225801E-002
  0.166674173767258     
   1.25264196567603     
 -0.412716899726899     
  -1.36160712467524     
   1.10364436400135     
  0.385381049817625     
 -0.608078492233719     
  -2.47529062795182     
  0.722982863314937     
 -0.233515874376131     
 -0.467983701459688     
  0.474479364393270     
 -5.445974970419681E-002
  0.408049115149457     
 -0.993320086541082     
 -0.384571460308028     
  0.171370623762117     
 -0.580009881973853     
 -0.373232442885023     
  0.733362448420223     
  0.500091092518537     
  0.126144400754304     
   1.04964469199196     
 -0.866612420766350     
  -1.04884331867317     
  0.902422188818031     
  -1.53398979447140     
  2.852591417201175E-002
  0.166102561291227     
 -0.108507335929656     
 -0.277025510528343     
 -0.364006641727373     
   2.01140455334334     
  4.492725001677706E-002
  -1.91835684118942     
 -0.467945256787247     
  0.379748997303593     
  0.213260062248371     
 -0.210665184278426     
  -1.04375318804222     
 -0.974989327141103     
 -0.619150486509536     
 -0.367265858357903     
  7.322317953047747E-002
 -0.762164148990167     
  -1.05399605367483     
  0.101942103041798     
  -2.00617830074768     
 -9.335119807682682E-002
 -0.104166666194131     
 -0.406927055013978     
   1.13845497118083     
 -0.604618715843991     
  0.953300618437992     
  0.352720787118985     
 -0.164469005229871     
 -0.405213074366844     
  7.504896044433954E-002
  0.505892336061807     
   1.20112257976306     
 -0.967629301198494     
  0.733502878237763     
 -0.147381302097777     
 -0.759595966465008     
  0.131142647657030     
 -0.896664918529346     
 -0.198716042737626     
   1.00283155090006     
 -0.170195430235834     
 -0.556329019150174     
 -0.995435369070300     
  8.828307370729907E-002
 -0.282609265551437     
  0.214384735240967     
  0.291732697419417     
 -0.929249352976662     
  0.428213948304361     
  -1.47539024569781     
 -0.241737955806331     
 -0.624030312602909     
   1.09317280870944     
  -1.29743375702319     
  0.305603825312049     
  -1.09907620496221     
 -0.816761715308340     
  0.507113088618439     
  0.213290407077022     
 -0.230020499616656     
  0.765331146626937     
 -0.508718787908521     
 -0.386474997204932     
  8.569642429228054E-002
 -0.239750267346736     
  0.563878823930780     
  -2.00442994638249     
  0.513217479580925     
  0.611324535070780     
   1.14020842270514     
 -0.530253465432966     
  0.216975606846657     
  0.343944076518954     
 -0.722354418935512     
  7.005245257257121E-002
  -1.11366171054456     
  -1.07212810338963     
 -6.229477228845197E-002
 -0.374504973408034     
  0.529830669238072     
  0.493012787419602     
  0.230893960192742     
   1.11946702153337     
  1.944959715974290E-002
  0.433545850184644     
  -1.00385904696350     
 -0.567738829985171     
 -0.975254725165843     
  8.930606852961966E-002
 -0.116004954857690     
   1.20593357779751     
 -1.798383231476703E-002
  0.589930823665909     
 -0.460581326117555     
  0.470488189818262     
   1.33929805813527     
 -0.758361009798043     
 -0.177778601649965     
 -0.156301608804934     
  0.259710129402161     
 -0.976308928923562     
 -4.271516145762302E-002
  0.650016995804968     
 -0.651828901871465     
 -0.496489713678955     
 -0.791457402099621     
  0.673794822879657     
  0.403006335168402     
 -0.547004436319189     
 -7.075942247603019E-002
 -0.157024904563009     
 -6.403365174675896E-002
  -1.57989398948546     
 -0.365797405108370     
  0.905488179266651     
  -1.71115526788690     
  0.499705634393793     
 -3.265308455188746E-002
  0.322095431844094     
 -0.271125801504796     
  0.580871347430881     
 -3.720720946669429E-002
  0.436853682784952     
  -2.16154366311295     
 -0.497679562093370     
  1.206351820451463E-002
  0.150953757482610     
 -0.687179147353939     
 -0.695531444755024     
 -2.135554252536746E-002
 -0.869649035823197     
 -0.374399193953497     
  -1.06009711747511     
  0.160039166348674     
  0.271425708548133     
  0.408697101179021     
 -0.403035344954086     
 -0.252943649676420     
  0.849615478195547     
 -0.137053218595840     
 -0.573074128671566     
  0.605253476967471     
 -0.296035838444165     
 -0.496479399083268     
 -0.298061215638540     
  0.902736383263343     
  0.720657765295695     
   1.48523388851399     
 -0.707402927332959     
 -0.398707410127592     
  0.691864658742852     
  0.762217773405892     
  0.346212049273684     
  0.479450642328706     
  0.305934706024193     
 -0.329778942887026     
  1.951216422636623E-002
  0.308148391506758     
 -0.270821105129791     
 -5.978685621501919E-002
   1.56811643331243     
 -0.552122952508842     
 -6.305935669913831E-003
 -0.507165355565593     
 -3.197970381650121E-002
  0.694880924520445     
  0.534685184018215     
 -3.105372127082450E-002
 -0.278932667764866     
  -1.54338866545550     
   1.38221889480703     
 -0.761930260201934     
 -0.201471805118131     
  0.275698132549604     
  -2.12288336074958     
  0.444245972256467     
  0.946071729250005     
  7.671153062388819E-002
  0.528252663008625     
  0.159385991645311     
 -0.623596901507284     
  0.273706926725851     
  0.487821143128564     
   1.52969176214919     
  -1.06609721341932     
  -1.30531022834123     
  0.731961003929995     
 -0.583735717252564     
  0.656684928007116     
  0.270264969060289     
   1.04360338308312     
  0.279191850182201     
 -0.856368780194451     
  0.768796647804576     
 -8.534692260315005E-002
  0.739830304732953     
  3.425756558101718E-002
   1.46412932629739     
  0.807826613733000     
 -0.414315371398978     
  0.789739022925995     
   1.23747140152361     
  0.199110800541122     
 -0.773864832786326     
  0.766551319366580     
  0.119123111196970     
  0.771122343814928     
   1.08669794252371     
  7.019779225288311E-002
 -0.192794894370058     
 -1.285253998755754E-002
 -5.920325597498971E-002
  6.757978863423171E-002
  0.182194364118992     
  0.924364641651566     
  0.571019023678590     
   1.17633502953260     
 -4.063208162035629E-002
 -0.357427947983592     
 -0.232647033789302     
 -0.617367703801485     
  0.146744840793067     
 -0.304944826476186     
   1.04441051562185     
  0.266438985818302     
  0.638594478666041     
 -0.398448628454986     
  0.404523828526725     
  0.546314808672154     
 -9.361897580050095E-002
   1.45687317963865     
   1.48635226128499     
  0.747328282406947     
 -0.954667649653455     
   1.64702879093887     
 -0.120049756913365     
 -0.643513971234795     
  -1.65299249255888     
 -2.391063558936621E-002
 -0.765291675730601     
  0.605457686778028     
  0.153195674761742     
  0.579791065714923     
  -1.17053412270946     
   1.01900367882406     
  0.221902521865459     
 -0.140942053515549     
   1.00178787983097     
 -0.361396469438084     
  -1.07018962776352     
  -1.78293604142757     
  0.479254671029954     
  0.114870303911089     
   2.02058897540217     
  0.713415977698760     
  0.106875532084950     
  0.718716076481630     
  1.708974559559410E-002
 -4.909444021256090E-003
  0.596509991398526     
 -0.267719131207585     
 -0.414641348165606     
  0.409689725880586     
  0.547476793672914     
  -1.15003558725717     
   1.08473145191170     
  0.248806689056377     
 -0.568753506589000     
  0.286426521952223     
   1.29942391763387     
 -0.153420712471672     
   1.04425359553000     
  0.705494117125475     
  0.338164687421275     
 -0.240377839023628     
  -1.62623698731681     
  -1.03257417596107     
  0.666980848393262     
  0.752225505325940     
  -1.34951608069148     
   2.12005321438621     
 -0.588549254223851     
 -0.345276432174234     
 -0.747404353345166     
  8.942349002520501E-002
 -1.883427048130574E-002
  -1.27426591292234     
 -0.149780822210482     
 -0.650872262098601     
   1.18584688874633     
   1.32092822529876     
   2.15801229582616     
  -1.11383451036959     
  0.246325293399852     
 -0.574277955299583     
 -0.364865751945939     
   1.02367551336765     
 -0.494135259643902     
  0.845700356037530     
 -7.349283215794365E-002
  0.659812743530343     
  -1.65570769209663     
 -0.233533508162900     
 -8.000501446454367E-002
  0.962180553606302     
  0.299197461881844     
  0.478661496621246     
  0.150180071339399     
 -0.480415101896836     
  0.679160214610801     
   1.00144662271024     
 -0.416735243080381     
  -1.31907217646757     
  2.659518607074622E-002
  -2.12258256556173     
  4.026552942620213E-002
 -0.659390119461388     
  0.307788521507315     
  5.604363635860525E-002
   1.41605818744739     
 -0.287124934422676     
   1.09405058489400     
 -0.468590445301583     
  0.693007706363262     
  0.141818929038081     
  0.272373466085146     
  3.029970550648500E-002
 -0.446510945888555     
  0.354363211552616     
 -0.309879920518381     
  0.718032962985491     
  0.141195955402988     
  0.903977155110975     
  0.541700291021021     
  0.173125490615697     
  7.792689694403859E-002
  1.902506257879365E-002
 -6.483914633346810E-002
  0.132716883397152     
 -0.639952740471635     
  0.915042470035949     
  0.123730592157641     
 -0.128090392678168     
  0.480870664927368     
 -6.431146096619339E-002
 -0.754773914923405     
 -0.110042254378379     
 -0.472679343367225     
  0.126900860588639     
  -1.32923103324938     
  0.477962272574643     
 -0.179842738998380     
  0.160815761216780     
 -0.782118102637402     
 -0.126514603105823     
  0.891450545064504     
  0.169651085256548     
   2.10280876373920     
 -0.377045069566944     
 -0.159274704443619     
 -0.416614865691224     
 -0.296926127430463     
  0.450565199810408     
  -1.40757078045283     
   1.14690502226288     
   1.01444153710154     
  0.190387050145056     
  0.317100273566076     
 -0.939759136696414     
   1.32239533183809     
 -0.575676734301358     
  0.580013048371966     
   1.77646309696087     
 -0.692735310530058     
  4.061477517048705E-002
 -0.171349841294037     
   1.38995069598650     
   1.03173212969152     
 -0.418463531292205     
  0.451587887856128     
 -0.377221406204466     
  0.255433853423719     
  0.180005268708722     
 -0.507162245765994     
   1.39367242578099     
   1.35936611312068     
  0.213904083399346     
 -0.614218443287687     
 -0.448062779313538     
 -0.451905168862766     
  -1.64572622267839     
  0.334347734763727     
  -1.23383045028873     
 -0.942890666376486     
  0.295187600718244     
  0.461762696004415     
 -0.389222330179921     
  0.215066108309935     
 -0.637582326976884     
 -2.380220416851033E-002
 -0.226295417703919     
 -0.672006935012043     
 -0.786760405836167     
  0.518915975725936     
 -0.258771701576673     
  0.116724162643295     
 -0.378002094836045     
  0.209180024607113     
 -0.185276907203134     
   1.60819871972781     
  0.163159350880348     
  0.344823304690077     
 -0.795254773065442     
  0.939436856456934     
 -0.258452825312239     
 -0.315096040126499     
 -0.575362334448908     
  -1.31116756443565     
 -0.116874372295166     
 -0.613956324256872     
  -1.12592983145329     
 -0.921724531348752     
  0.785258950012086     
 -0.322585926897982     
 -0.181580547851797     
   1.22052987653168     
  0.262856086794264     
 -0.276714606407899     
  0.400095724569690     
   1.62524972954870     
  -1.05007995712094     
 -0.957751358302170     
 -0.826556636933744     
  -1.59224679399794     
 -0.564904301749426     
 -0.619368415965663     
  0.600492767988293     
   1.50491624784439     
 -0.604272665470505     
   1.38119501613053     
  0.746090298217912     
  0.594868380415736     
 -0.633668544097561     
  1.829540342905305E-003
  0.523615009037403     
  6.826641034002631E-002
  0.688109382870299     
  0.461674325417938     
 -0.865299906830898     
  0.596113812766505     
 -0.963479902541078     
 -0.380726016431788     
 -0.793066173163380     
 -0.930211290916588     
  4.741568824174585E-002
  0.224751437074782     
  0.319277832248762     
  0.593073448920761     
  0.351686664202752     
  -1.43742987525672     
 -9.440890389046039E-002
 -0.226442471739256     
  0.244496875169453     
 -0.523512689354273     
 -0.816236003522845     
 -0.191609025195738     
  0.933173329336919     
 -0.749445591673957     
  -1.03089625230181     
 -0.409675955213543     
   1.39856627223516     
   1.20071339175610     
 -0.690271070901688     
 -0.726198808635095     
  0.762550985481467     
   1.39876435405694     
   1.05894411821827     
 -0.732067226004919     
 -0.546418273186267     
  0.363057392747515     
  0.245891989685835     
 -0.997264225206458     
  0.127085161168596     
  0.586452784831597     
 -0.628030477622320     
 -0.606578998161148     
 -0.249348863355140     
 -0.257003328226782     
 -0.637456044823863     
   2.23889953028080     
  0.320131022655996     
 -0.484969102166255     
 -0.591299061796675     
   1.46217374535563     
 -0.444083700143513     
  6.897040554221651E-002
  0.507094058046096     
  0.405702779393134     
  0.155777189209030     
  0.676069898374123     
  0.866683484411403     
  0.102529147323937     
 -0.706669043318903     
  0.435908608371658     
 -6.031304648899211E-002
  0.734814618744104     
 -0.276846081006090     
 -0.253036148561550     
 -0.909392729047278     
 -0.846250817831839     
  0.445976238956785     
   1.96871486635286     
  0.123782042400269     
  0.348148052468712     
 -0.404730566609976     
  0.730562166442205     
 -0.678221051708440     
 -0.113514966329061     
 -0.333611569987047     
  -1.16703678902277     
  0.464930332658711     
  0.143828080613320     
 -0.898647838000357     
 -0.619645871740131     
  0.291318685631991     
  0.638122185968383     
 -0.386313146758792     
  0.145834159431317     
   1.39451470869753     
 -0.153877557395154     
 -0.512366328269069     
 -0.482501114639359     
  0.182581202949435     
   1.08169415699325     
  0.605172602406221     
 -0.879180410289921     
  0.704231590211019     
  0.228432791587413     
  0.832897674587695     
  0.465091039323769     
 -1.124176459158865E-002
  0.330766233492892     
 -0.803927300109783     
  0.164247853657631     
  0.495816946099316     
 -0.421555675614715     
   1.00444558375028     
  0.123685385234899     
  2.102708679496148E-003
 -0.266062302279819     
   1.08752253996490     
  0.161067842625779     
 -0.594187902307358     
  0.348418738027395     
  0.180095766996277     
 -0.125430805810142     
  0.557017859696909     
  3.579146310225860E-002
 -0.724747699716598     
  0.225616914489381     
   1.94202824944298     
  0.733784353827944     
 -0.865793005059877     
  0.582769043839527     
 -5.080229707847202E-002
  0.683404300065171     
  0.126916797585140     
 -0.647387675669784     
 -0.125434542256736     
  0.632695122773533     
  0.241689921283594     
 -0.305585506358903     
  0.916319099375860     
  0.577259356201679     
 -0.230736845953757     
 -0.267242682205059     
  4.414134280340341E-003
 -0.252433707756983     
 -0.900342260872663     
  0.363974107129745     
  0.896024970464255     
  0.103989814472197     
  0.194035074366020     
 -0.461237214457411     
 -0.950115509274332     
 -0.345433264235828     
  0.731102132153191     
  -1.04232422695921     
  0.202413731242982     
 
  -1.39412168375002     
 -4.805003846128360E-002
  4.969328572921039E-002
 -0.780461042656415     
   1.36168300305726     
  0.517710530503393     
 -0.477736892419272     
  0.531347943801833     
   1.14295181138100     
  0.220427792488833     
  0.695232304680151     
 -0.423861083499825     
  0.814917988273541     
  -1.88936127894851     
 -0.421149438030122     
  0.111204163188550     
   1.00970621730104     
  0.863510496094208     
  0.416098897102584     
  0.234390042791253     
 -0.592750519023768     
 -0.297680068770654     
  0.911258851312464     
 -0.749225224418098     
  0.227910966951919     
  0.705636871818199     
   1.31803332186780     
  0.618566377344507     
 -0.497034216615097     
  0.580770126354728     
 
 -0.492312059077501     
 -0.167333403416372     
  6.474211179383593E-002
 -8.991773096504477E-002
 -0.323688492803485     
  2.368915999627610E-002
 -0.420450776925229     
 -0.196068795423742     
  0.178768428213422     
  0.156239531317881     
 -4.355422581366841E-002
 -0.219099263268660     
 -0.219174155756120     
  0.255754901696334     
 -0.426445003010680     
  0.184875111397453     
  0.211719410936260     
  0.176657000476233     
  0.278513724774477     
 -0.137343159323253     
  0.279974213896686     
 -0.192469710523522     
  8.495113519672601E-002
 -0.433482879660273     
 -5.088277583852387E-002
 -0.369753497072113     
 -0.120309165480567     
 -0.154126286211227     
 -0.248549863411654     
 -0.175148119778681     
 
 -4.823588598161625E-003
 
  tansig  tansig 
