     48 -    30 -    30 -     1 
rmse=  43.2160meV
 -6.089937368204860E-002
 -0.403740753954712     
  0.316929451514713     
 -0.213607647838831     
  0.783650463467605     
 -0.227140108650547     
 -0.422331656751492     
 -0.483146447351443     
 -0.266295395397605     
  4.485144471818720E-002
  0.540644847687554     
 -0.242701612516159     
 -0.269369111762952     
 -2.702462576864417E-002
  0.351417389751291     
  0.137675605580700     
 -9.777120159349083E-002
  0.225730269457372     
 -0.607389944191683     
 -0.525738557513740     
 -0.202186680037712     
  0.237254474475109     
 -0.345703960229156     
  0.586260119164010     
 -0.161721623708464     
 -0.173967891210440     
  0.450734090446271     
 -0.395770298764825     
  0.120765927794244     
  8.750331357220649E-002
  8.894342132435670E-002
  0.545004868530690     
  0.124382625265863     
 -5.612856349811749E-002
  6.890472632299152E-002
 -0.482738705241684     
 -0.170353122714655     
  0.690878795664739     
  0.261235055580609     
  0.257975242662830     
  0.238804704316931     
 -0.399886228512854     
 -0.332644934006349     
 -0.130471512688475     
  0.524863136398638     
 -0.148919500847753     
 -0.117363619005092     
  0.382447730909601     
 -0.168043735094201     
 -0.324108772763029     
  0.623947691266224     
 -0.223293432530123     
 -0.122138897219897     
  0.334578845305722     
 -0.627072323519116     
 -0.247791514970348     
  1.815187330555627E-004
 -0.249643096390137     
 -5.938168909805559E-003
  0.275456683384728     
 -0.739201959844491     
  0.447821192903780     
 -0.130739648862804     
 -0.484955514540319     
 -0.223144429780462     
  7.070257954374690E-002
  1.600505874653006E-002
  0.338338121259252     
  0.175783542574271     
 -0.166691581255222     
 -0.181170136579502     
  0.406743855992932     
  0.381840977713455     
 -5.522397410783608E-002
  0.143838327949312     
 -0.141020608157318     
 -0.171453893935642     
  0.639692031971019     
  0.864553919568596     
 -4.056761611133002E-002
 -6.484849007322947E-002
  5.994807602437766E-002
 -0.661722122591664     
  0.281622812733820     
  0.135730436075301     
 -0.148682311393221     
  0.811483174037909     
 -0.115460228288716     
  6.722512140573687E-002
 -0.252579115494632     
 -0.295073859124628     
  0.114209017548879     
  0.306624867774612     
 -0.723097338602626     
  0.334255384825510     
 -7.258525397858419E-002
  0.220612766560833     
  7.733762922303689E-002
  0.538256683613678     
 -0.521668012359624     
 -9.429755703012339E-002
 -2.391144170976935E-002
 -0.921214006249811     
 -0.576309533390295     
  0.155900932716945     
 -0.367715604127714     
 -0.200175784345187     
  0.225673475559024     
 -5.500189874696201E-002
  0.421283320369674     
  0.732835396655341     
  0.410766934642938     
 -0.197011645972750     
 -4.710596221858765E-003
 -0.630034905671308     
  0.155298244652585     
 -0.401173238710600     
  0.617836548683059     
 -0.968698660289748     
  0.511282140835597     
 -0.260230217997927     
  0.713894564747447     
 -0.271396440652684     
 -0.328494419669890     
  0.162887474431795     
 -0.522241551768713     
 -0.147122471095350     
 -0.688276626561198     
 -4.733678645412163E-002
  0.527031619040880     
 -0.143575972115651     
  0.240431585113291     
 -4.578017730882947E-002
  0.526811176594365     
  0.768722339195580     
 -0.387458528094713     
 -0.981287980994163     
 -0.196873712621031     
  0.107415986914585     
  0.106190444545052     
 -0.325684709108848     
 -0.325128227890403     
 -0.247697900341974     
 -0.546911515923333     
  0.305510272867765     
  0.510316499301103     
  0.166444817554479     
 -0.504829986189147     
  0.155564589123525     
  0.467019820508513     
  0.132927586546407     
  0.139299976949259     
 -0.503548681248514     
 -0.574998556762902     
 -0.715788547521299     
 -0.451906261290555     
 -0.416531477016130     
  0.187334210097976     
 -0.177419459296202     
 -0.412831888483073     
 -0.445121142141298     
 -0.389765432599797     
 -0.573502044902061     
  0.457489887560079     
  0.358786518926194     
 -0.903509804198585     
 -0.339358286196721     
  0.566598662587297     
 -0.442386382641968     
  0.253621566314593     
  0.450836461072561     
  9.316438494494438E-002
 -0.507703834715308     
  0.214166573461171     
  0.110093831496232     
 -0.206796169134004     
  1.431381881393407E-002
  0.848188568983562     
 -0.410518294792619     
 -0.263616888032911     
  0.201466610647632     
 -0.615204361235868     
  0.164446792864587     
  1.908505215770424E-002
  0.468251203022067     
  0.430964502232296     
 -0.755926685855983     
  0.581020861042436     
  0.224391193696121     
 -0.535769431172399     
  0.481068081918808     
 -0.266708957600941     
  6.996166904786426E-002
 -5.068026436923518E-002
 -5.390367037280238E-002
 -0.816559358891841     
 -4.836189284063851E-002
  6.571439972678272E-002
  0.383768946532129     
  0.996189421544082     
 -0.216268702955217     
 -0.797725306115392     
 -0.812805915839125     
  0.374487999222453     
  0.310755736232508     
  2.820927421793567E-002
 -0.321765027558304     
 -0.632133376199687     
  0.364610329307282     
  0.321013205087403     
  0.314426443006552     
  0.464208412697713     
 -0.117481780315819     
  0.114750476660681     
  0.575080420329755     
 -0.306058491961807     
 -0.199152788532636     
  0.450166508067163     
 -0.457439208995376     
  0.125691299013218     
 -0.219368832923752     
  0.427611709648362     
 -8.971716415961653E-002
 -0.710770081723222     
 -5.456811560446023E-002
  0.347037716575475     
  9.834720420842431E-002
  2.605323760349712E-002
  0.529422141266548     
 -0.405040066469296     
 -0.233492050935968     
  9.124570385847247E-002
  7.007014110459150E-002
  0.252434246807131     
  0.234890675212626     
  0.458199176855180     
 -0.683449378302521     
 -0.496475679980975     
  0.738224960765992     
  0.768568716855417     
 -4.810546379303147E-002
  0.143813893987819     
 -2.065927035583565E-002
 -0.107068768281067     
 -2.645968858948858E-002
 -2.067131934320902E-002
  0.335768457186356     
   1.40314084198296     
 -0.890501807996145     
 -0.296861979946491     
  0.298322467308822     
 -0.122576707334329     
 -0.259269635424857     
  0.659185411481000     
 -0.273188966826873     
  0.319198295702059     
 -0.229454843716169     
 -0.377330852228768     
  0.177476163081577     
  0.679001787666875     
 -0.872138425941161     
  0.467786370508085     
  0.777603243273235     
 -0.280860657776571     
 -4.149589458052028E-002
  0.399058902904594     
 -0.611754113788201     
 -0.186330070483708     
 -0.204324167328017     
  0.378290927682383     
 -0.129781847682672     
  0.247759200702556     
  0.127643999257021     
  0.118853291578733     
 -0.291342067770269     
  0.172422030161692     
  0.658845241789607     
 -0.241251085699462     
 -0.486598661539031     
  0.265448525721584     
  0.371115336347803     
  5.390341756696510E-002
 -5.263532403809583E-002
  0.235142736842154     
 -0.235352431066828     
 -0.541903976025851     
 -0.228304246169415     
 -0.546305413482731     
  0.167885692202951     
  5.021399617297750E-002
 -0.120708569225709     
  0.184064293613754     
 -0.454671570926586     
  0.498404071014646     
 -0.489819972864775     
  0.192852819569854     
  0.162283546171437     
 -4.040785058023293E-002
 -0.215121482162190     
  1.235730975752589E-002
  0.155476155280846     
  -1.08059145249730     
  0.376618615512831     
  0.766624895035562     
  4.572572532913524E-002
 -3.310427138566061E-002
 -0.130844080322770     
 -0.546484769949214     
  0.449768346089766     
 -0.346108604620943     
  0.544952109796345     
 -0.691575594279679     
 -0.750650963177553     
 -0.446731175635623     
 -0.276884691539487     
  0.222555649177730     
  0.116114644187690     
  0.746023286650143     
  0.434031804824908     
 -0.709501575349503     
  0.264882805428834     
  0.302945490703176     
  4.001679217223771E-002
 -0.208137334927580     
  0.131929628909946     
  0.147699588404761     
  1.934082289584033E-002
  0.417837337314302     
  0.362939089776384     
 -0.356169985676483     
  0.261155277065815     
 -0.291312236599060     
  0.336967120551497     
 -0.311666810072260     
  0.118230514874402     
 -0.145081888078748     
 -0.282988008139765     
 -0.143910193337213     
 -7.231949759487222E-002
  7.587433796959357E-002
 -0.369164934943975     
  0.140016573331393     
 -7.902539856407129E-002
 -0.218939807105732     
  0.178822226857266     
 -0.549284234431599     
 -0.239205948403634     
 -3.663652039861841E-002
  0.470309259503626     
 -0.679676937362883     
  0.394878614632942     
 -0.372854751671788     
  0.129140861100448     
  0.354390644483558     
  0.745105467758830     
  -1.04488500464151     
 -0.153657152032771     
  0.483899721063720     
 -0.314726294423975     
 -0.454741820521141     
  0.151113794178853     
  0.233768559512784     
 -0.348559758664935     
 -0.300049408352304     
 -9.877049832602236E-002
 -0.192932196694667     
  0.127730309710604     
  0.545498687657905     
  0.239745135870835     
 -0.230001161665502     
 -0.777358315341219     
  0.321105818212519     
  0.455607537312600     
 -5.301109947637644E-002
  0.135275277277419     
  0.104821024763555     
 -6.983897985181604E-002
  0.106209272404626     
  0.301551464494818     
  0.120010652309021     
 -0.381372616099798     
  0.368539808991063     
 -0.194351667654143     
 -0.398966604156672     
  0.606885310043158     
  0.166713676270932     
 -8.040213088865260E-002
 -2.850570610288846E-002
 -0.443272364392650     
  0.523008850440804     
  0.112006515911738     
  7.728094833631274E-002
 -0.229660214805564     
  0.152628084094582     
  9.664709071488357E-002
 -0.527073662805215     
 -0.136852992304311     
 -8.566962377064202E-002
  0.237421108728408     
  9.229683892125251E-002
 -0.170830999448410     
  2.168636318771276E-002
  4.519174395185750E-002
  0.110547037541176     
  0.565887597805196     
 -7.349351999693125E-002
 -0.131055163029703     
 -0.330373284645480     
  0.343929535374147     
  7.718867142015362E-002
 -0.197380009131970     
 -1.696935821539489E-002
  0.211840409481904     
 -1.618759842032584E-002
  0.535901370520569     
 -7.443889513829859E-002
  0.153452261266379     
  0.562545733375662     
  5.615096679955201E-002
  0.195900342862985     
  0.577194295107533     
 -0.538116412061691     
  0.221677558876715     
 -0.174194008661443     
 -3.513346227668598E-002
  9.520759668724807E-002
  0.272227401669167     
 -0.231843391784195     
  0.176275354010541     
  7.816282626892850E-002
 -0.263018065266995     
  0.389357504786734     
  8.931324260892970E-002
  0.457347075087839     
 -0.451842482512602     
  0.178176272982461     
 -0.343225937831864     
 -1.615948900495401E-002
  0.269065010280893     
 -0.224233967726723     
  0.293045006948631     
  0.300335046571491     
 -5.525288095227777E-002
 -0.357522921326728     
 -0.564136526797456     
 -0.345730632328915     
  -1.07861402354423     
 -0.415209122481710     
  0.273649991306699     
 -0.204704708343359     
  0.298374853528464     
 -0.284268089180627     
  0.414971038785798     
 -0.186882442093558     
  0.372549603134121     
 -0.149205648537710     
 -0.742109535692900     
  8.466119900925453E-002
  0.204013873273466     
  0.440788751169084     
  0.571181236176394     
  0.432626790136622     
 -0.250795061830735     
  6.052678156763470E-002
  0.208202980484848     
  0.303703115221113     
  0.226487199946281     
  5.635018781578850E-002
 -2.952211616237240E-002
 -0.459863196645219     
  0.374872321270079     
 -0.619512055826044     
 -0.400567515124831     
  0.164628793587644     
  0.107327991414440     
 -0.101860275749176     
  0.168705487712486     
  0.310139386567266     
  0.453175777695730     
  0.512802976291628     
  0.387066236402984     
  0.261642416589216     
 -0.114285223545348     
  0.757176289047996     
 -0.347480457035380     
  0.203893713862117     
 -6.072390284518864E-002
 -0.105019372940896     
  0.683065863350089     
  5.074049674729576E-002
  0.461904491505635     
 -0.236790595725206     
  0.183065741788378     
 -1.911414888136988E-003
 -0.131903231009901     
  1.478526722657741E-003
 -0.205413180198036     
 -8.918839823707225E-003
 -0.249169277542149     
 -0.452264308623928     
  0.237883382879198     
 -0.633846049867170     
 -1.889183940905893E-002
  0.986349197897146     
 -0.535245578452570     
 -0.448921277203157     
  0.159745851765117     
  0.164766079950703     
 -0.196876709202743     
  0.262142908139816     
  0.168456220524853     
 -0.279773651492082     
 -0.146601041785434     
 -5.504337724585990E-002
  0.680729147975608     
 -0.145424180009176     
 -5.133077367539587E-002
  0.106272350040326     
 -0.251353875181419     
  0.888257420700394     
  0.189720395476688     
 -0.698273585438757     
 -0.532382323787288     
 -0.183573149059491     
  5.676350251223145E-002
 -0.548766277316568     
  0.112231110590317     
 -0.404821554501725     
  0.413430580971112     
  0.368203176590294     
 -0.548424920564725     
  0.491829397127996     
 -0.536533475876966     
  0.285524121299463     
 -7.499481512742863E-003
 -2.420212035989998E-002
  0.150570690023204     
 -0.276338899595364     
 -0.127141258786450     
  0.153484576188730     
  4.367545178750727E-002
  1.946789153458865E-002
 -4.648193818933421E-002
 -1.781216135535118E-002
  0.130689873812012     
 -0.594588470185491     
  0.538274428283813     
  0.212406048861620     
  0.186726130881634     
  7.449453911954160E-002
 -0.104092445823910     
  4.555356207833083E-002
 -6.405029773454701E-003
  0.167870572723371     
 -0.152319261296445     
  7.645453633747834E-002
 -1.278277703958110E-002
  0.114749032819763     
 -0.206376444257747     
 -0.162685670364742     
 -8.328011013263355E-002
  0.452919246917266     
  2.904489368077697E-002
 -0.476973983684495     
  0.541575908099341     
 -0.194423059372604     
  0.132072604536851     
 -5.252560748403353E-002
 -0.204802888317471     
  0.120898283499690     
 -2.615601621574448E-002
  9.220092272859602E-002
 -0.182634570504502     
  2.246628713150564E-002
  3.482545186337569E-002
  0.360873993987417     
  5.046868432766454E-003
 -0.312319686540765     
  2.305794456928432E-002
 -8.447636749576770E-002
 -0.251211569619131     
  0.260125773784328     
  0.793487875231588     
  0.187903306314482     
  0.157787788916604     
 -0.727715532851869     
 -0.522883835536070     
  0.174696923321661     
  0.663902683327087     
 -0.470308633318903     
   1.10713993243749     
  0.551292558212158     
  0.368682314084866     
  0.309779014062827     
  0.500522062841706     
  0.139146178910086     
  0.602708524680409     
 -0.469899792312544     
 -0.259765173348042     
  0.531855941259939     
  -1.16774996815551     
  0.188205543319828     
  7.364967764047371E-002
 -0.777815274354870     
  0.317776034341720     
  0.860136855462487     
 -0.520407780996276     
 -0.177906552332787     
 -3.193696658296968E-002
 -0.750137111419017     
  0.855725841635922     
 -0.200305583525270     
  0.614059882083898     
  -1.20078946423754     
 -0.315134215531148     
  8.060719506030860E-002
 -5.267013525618744E-002
  0.627231762671998     
 -0.143464669696336     
 -0.375712836598457     
 -0.239940606516819     
  -1.32173626971535     
 -0.763305896928589     
 -0.410721513127048     
 -0.253190510251406     
 -0.273008756727680     
  0.590235378396257     
 -7.057734460221564E-002
 -0.274072912321674     
  0.521492243783544     
  0.180103893437081     
 -6.052553155714803E-002
  0.363405086238629     
  0.460900051651835     
  4.467924525436159E-002
  0.201379726766363     
  0.711767152964126     
  0.911189582832458     
 -0.299042782628774     
  0.394415554900912     
 -0.261604833488300     
 -8.353860469942363E-002
 -0.430888148005817     
  0.470370359326659     
 -4.925378329282500E-002
 -0.371005793994906     
 -0.179985233712298     
 -0.145540504935389     
  6.094577352138204E-002
 -0.561526802006299     
 -0.236238775750079     
 -0.474022894705956     
  0.445494251142459     
 -3.091322989476051E-002
 -0.651524282343441     
 -0.279585890664121     
 -0.176227338358349     
 -0.295465603039813     
  8.790993296805424E-002
  0.182881855229839     
 -0.652851159015180     
  0.268890417678967     
 -0.536806270735311     
  0.185332294629188     
 -0.270666546934044     
 -8.318737681563065E-002
 -2.867151035323766E-002
  0.191250088560761     
 -0.810690456865709     
  0.268375691526466     
  0.228125165363236     
  0.558851505502572     
  2.716238901818677E-002
  0.259469052856041     
  0.355070501753331     
 -0.328621741980021     
 -0.597252696541966     
  0.241725757836956     
 -0.103598011973421     
  0.145623645333755     
  0.400039555021442     
  0.543507319803664     
  0.224263730610420     
  4.283888499297711E-002
 -0.138424930578443     
 -5.258176120912370E-002
 -0.363596480622584     
  0.338130971788633     
  0.222898077399633     
 -9.042160796662573E-003
 -2.015090579488593E-002
  0.555505919507521     
 -0.181033362861095     
 -4.406553398888954E-002
  0.114473646541752     
 -0.497083105200262     
 -0.335240346915826     
  0.135202500582898     
 -0.260874889756027     
  0.396716187895661     
 -0.588386360670227     
  0.521159819306831     
 -0.365686768937762     
 -0.119109118761260     
  0.457747492198482     
  1.404581626539484E-002
  0.693341666804509     
  0.225986980141467     
  0.140687897652237     
 -8.589468714753330E-002
 -0.146892909093211     
 -0.271867702428569     
 -0.139900918613399     
 -0.153502360676095     
  0.375149456436724     
 -0.476564597960801     
  0.134332522335630     
  0.148416586790407     
 -6.429393575374538E-002
 -0.236266724239134     
  0.240413571419975     
 -0.172601136078413     
 -0.277486796150590     
  8.151389070812662E-002
  0.591440593624908     
 -0.255712175650372     
  0.179961766944289     
 -0.318271555868174     
 -0.374404283513980     
  5.396038911728521E-003
  0.104213463595261     
  0.305601133713817     
  0.199347932132555     
  9.779530249982615E-002
 -0.942427092278018     
 -0.590078311468423     
 -0.334715690838414     
 -4.601071166750332E-003
  2.086078598691177E-002
 -4.626119622350746E-002
 -0.960445116063173     
 -0.393741560354432     
  4.460865896547504E-002
  0.166868694603168     
  0.235109711713804     
 -0.744998666619173     
  0.359242513497620     
 -0.215835910336301     
  0.254349362122614     
 -0.463315664402739     
 -0.485221504457680     
  0.252342256356601     
 -0.299710626504004     
  9.676176302106472E-002
 -0.508027489685790     
  0.403897867092571     
 -0.392442367221384     
  0.679859606995431     
 -0.518394939461527     
  0.632034869789503     
  0.814808995029572     
  0.732020809664559     
 -0.359485738475799     
  2.380124750913731E-002
 -2.519237614046420E-002
  0.197193440120445     
  0.760129322609250     
 -0.178735956936346     
 -0.156216663004058     
 -0.185523055285664     
  0.712980958254530     
 -0.171529820741695     
  0.164433927391676     
 -0.658084270437369     
  0.421177791205624     
 -2.988312870484906E-003
 -4.019534357932479E-003
  0.857177068964567     
  0.194946110011084     
 -0.400634153897666     
  0.521303980339354     
 -6.917637263259954E-002
  0.192203210286244     
  0.316718906727153     
 -0.359849909408870     
 -0.118430747892012     
  6.167514972901511E-002
 -2.365862836897697E-003
  0.131545967585086     
  0.329024125774474     
  9.637679313466160E-002
 -0.171463070875009     
 -0.167205006680850     
 -0.397424223831585     
 -5.941148590041149E-002
 -0.644077671877084     
  0.209486050673092     
  9.801592388989976E-002
 -6.454533062217917E-002
  0.158115324530809     
 -0.288858250299676     
 -0.360950960977579     
  0.313992227600730     
 -3.740067772549235E-002
 -0.299242184094531     
 -5.348189979303039E-002
 -0.244938967273172     
 -0.168154040740454     
  0.219853038863769     
  2.040429732429756E-002
 -0.120762517390526     
 -8.317263025870786E-002
 -1.658608175905799E-002
 -0.156683610173937     
 -6.537414913257747E-002
 -0.391562754161176     
 -4.019101516114103E-002
  0.278730431346911     
 -0.236958594062526     
  0.352169924574053     
 -0.130290248033750     
  0.317502279054394     
 -0.299662527061185     
 -0.444079418976329     
  9.312341807950510E-002
  0.360883910349268     
 -0.108084785320599     
  0.600211652291092     
 -0.292238641041115     
  1.540889829064722E-002
  6.205667615121403E-002
 -4.913147171826311E-002
  8.105205291628477E-002
  0.120230924666128     
 -0.122363600903568     
 -0.442101536085109     
 -9.427153758686276E-002
 -0.252218843187719     
 -0.746433855387951     
  0.234504449154132     
  0.265243857306861     
 -0.490221460658092     
 -0.218713802277462     
 -0.464020356346055     
 -0.329163041802718     
 -0.393562526013932     
 -0.266237259037771     
 -0.909793915799844     
  0.206170140036177     
 -0.241256572459864     
  0.347052067399186     
 -8.062500519154744E-002
  0.636038161303165     
  4.900219441094327E-002
 -3.653667671736863E-003
  0.315850685556535     
  0.535805990356987     
 -0.452678167350688     
  0.447947930174584     
  0.614445114686423     
  0.594914242036853     
 -7.011891278077616E-002
  0.619794848577635     
   1.01428583633339     
 -0.359929851844677     
 -0.159643107417186     
  0.445533906060144     
  0.739814755883870     
 -0.527002939921255     
  0.226940415203506     
  8.292372280417036E-002
  0.285800993550077     
  5.117247712729553E-003
  0.154138356576756     
 -0.218310759854400     
  0.200060473941377     
  0.323861739922575     
  0.527728287878446     
 -0.428526829562477     
  0.184508780684645     
 -0.554305965255594     
 -0.364316416267900     
  5.533937847253102E-002
  0.493804819230229     
 -0.404198326991265     
 -6.312866413913792E-002
 -0.113560524081604     
  0.238074358304013     
  0.188143574083392     
  9.487541475208017E-002
  0.363838231171214     
 -0.209145640257789     
  0.429284100050281     
 -3.673619271086809E-002
  3.534936385913279E-002
 -0.609438405050240     
 -0.733703599840080     
 -0.486499612916521     
 -0.288523300347107     
  0.174352510066838     
 -0.243872384577350     
 -8.471005421211560E-002
  4.092207874507928E-002
 -0.120300451569805     
  0.261343946037553     
  0.449203602906393     
 -0.436314767295700     
  0.762262625801457     
 -0.911655654916688     
  3.084541783747245E-002
  0.148485297695067     
  0.934208953307616     
 -0.266835816635890     
  7.341945308282467E-002
  0.229333882348115     
 -0.150704594584703     
 -0.278810747442805     
  0.489116888404146     
 -0.320730891617664     
 -0.700828395345065     
  0.459943788481629     
  0.350827488098795     
  0.436026069042087     
  0.825961536133846     
 -0.397948206703646     
  7.460991511717266E-002
  0.230940049900416     
  0.967532486800475     
  0.298479569617290     
  0.193255678775217     
  4.516449271666720E-002
 -0.781671649371619     
 -0.485770647622131     
  5.060163395745320E-002
 -0.534976225173845     
  2.399428017789189E-003
 -0.258151350567012     
 -0.428869200635389     
 -0.187498529005773     
  0.343207337370153     
  0.171670408478667     
  0.101509210513791     
 -0.138465567989220     
 -7.531210643418116E-003
  0.279829206568180     
 -2.941914163100441E-002
  0.255969387784920     
  0.539709750171480     
  0.318722664965604     
  0.133001911110289     
  0.559307525686963     
 -0.162909426692039     
 -0.378585888433412     
 -0.476233711733674     
  0.138151109851878     
 -0.808894154178091     
  0.364118192970451     
  0.126882979303281     
 -0.750915512388332     
  0.207381363300248     
  0.353563100377064     
 -0.245248750316205     
  0.586273679826908     
 -0.769791368182901     
  0.111442469016487     
 -0.495689485999181     
  0.117913450602510     
  2.366854073440347E-002
  0.250340697754184     
 -0.253372543545914     
 -9.946074346268897E-002
 -0.292960933930005     
 -4.282956687367129E-002
 -8.688160094155227E-002
  3.042844228095927E-002
 -7.423329774015540E-002
 -0.349899741196686     
  2.322762903954663E-002
  0.518839467061091     
 -0.241586622858755     
 -1.352339259328302E-002
  0.216959515336050     
  4.178638913108897E-003
 -5.389679998750561E-002
  8.678924806892901E-002
  0.299122144387795     
 -0.300654289063453     
  5.105424544095584E-003
  0.142046197473486     
  5.598379468032861E-002
 -0.755773143205890     
 -0.138659195960860     
 -8.235462279960787E-002
  0.470408426870869     
 -5.052135264498707E-002
  2.066497209502646E-002
  0.362089544221160     
  4.573256456498735E-002
 -0.110560312248181     
  9.842949646280956E-002
 -0.371348361178421     
  0.172096470878490     
  3.393601087079755E-002
  9.262961246577396E-002
 -6.419447763591545E-002
 -4.434729294312403E-002
  0.157884970329369     
 -4.047227564215721E-002
  0.276734594549448     
 -0.305705709700520     
  0.209325483577417     
 -0.551890276630500     
  0.402415819225540     
 -0.172657264614865     
  0.177459036580668     
  0.297229322891043     
 -0.507503842986245     
  0.140574275935077     
  3.432155421290712E-003
 -0.333854695824231     
  0.297415574253242     
 -0.301281834056519     
 -0.334224497104147     
  0.469728403438300     
 -0.345596323306389     
  0.291267121240358     
  0.349835979885276     
 -0.203712600635830     
  5.867166396122533E-003
  0.217531308784821     
  0.211982718650570     
  0.159456643994412     
 -0.603750899654601     
 -0.116768529910056     
  0.291141987820126     
 -0.288458309809043     
  0.230545061164997     
  0.282025989526532     
  0.224249746006514     
 -8.637244634974042E-002
 -0.237418306981610     
  0.414833724497382     
 -0.221251678062203     
 -0.451870659942132     
  0.152294853412773     
 -0.137506041540604     
  9.955734906974412E-002
 -0.181579652830454     
  0.289836245562754     
 -8.752500405992332E-002
 -0.400934096071376     
  0.578493340185186     
 -0.356418740823892     
  0.423952072707241     
 -0.162470584970264     
  0.799632182338291     
 -8.275528691333589E-002
  0.310790915102432     
 -0.681097969046748     
  0.182704534235809     
  1.904030757588117E-002
  0.187185199226223     
  0.829717604872826     
  6.651493336070748E-002
 -0.126800044453652     
 -0.741821306549690     
  5.158567516678471E-002
 -1.765436329878147E-002
 -6.823309603596421E-002
 -0.400900130319842     
  0.517203010912888     
  -1.41853006327608     
  0.175730865208575     
 -0.137636692452957     
  0.228819224359461     
  0.510608324371858     
 -0.261057377945486     
  0.664088452498371     
 -0.425046830634727     
  4.402679008672977E-002
  0.274044347081879     
  0.276529680342537     
 -0.316452059034928     
 -0.355101967904973     
 -0.528930589047231     
 -0.561279800983595     
  8.901482727381874E-002
  0.393941938774632     
  0.592106317864738     
  0.155736410983332     
 -0.332420214394622     
 -0.353097239522247     
  0.218544503258952     
 -0.400258536624136     
 -0.100706175214047     
  5.954737521610543E-002
 -4.191487990341993E-002
 -0.389538186729478     
  0.511388542337455     
  0.290715816151142     
 -1.541753800589312E-002
  4.463119480624413E-002
  0.687597240883882     
  0.187047324492926     
  0.688859637513554     
  0.147636579502284     
 -0.747319719108524     
  0.361163444467667     
  0.107511196731197     
 -0.359195061188454     
  7.397747762839005E-002
 -0.409316279551981     
  0.108780906049328     
  0.852357696594601     
  0.292299624618888     
 -8.118956615638842E-002
  0.406768631415378     
 -0.701683345605951     
  0.330502225581008     
  0.325770655227336     
  6.024965626804893E-002
 -0.108911431674385     
 -0.167007456563512     
 -4.760878333497805E-002
  0.671022248448171     
 -0.179042110830319     
  0.207944958941628     
  5.685102895349366E-002
 -0.224385116407209     
 -0.915233095161164     
  9.414244572371257E-002
 -0.260623113814366     
  0.332196572895495     
 -0.227501733123833     
 -0.581011637389335     
  0.200983612136149     
 -7.525379679702217E-002
  0.304406670051334     
  0.184817828230559     
 -0.358252232144387     
 -0.183764569117721     
  0.228258667303464     
 -7.661724590153668E-003
 -0.431154578255365     
  0.814563272707976     
 -0.461519162237314     
  0.310742941723179     
 -0.120646201348405     
 -2.380359788094778E-002
  0.526753046414665     
 -0.595487489246775     
  0.295160625715592     
 -0.113789413123976     
 -0.271178627418106     
  0.181903118869410     
  0.268921309706141     
  0.567978107218306     
 -0.747864969078218     
  0.172088335479857     
  0.425357331904668     
 -2.167246280420258E-002
 -0.598560828176411     
  1.162339760735838E-002
  0.419836635473776     
 -0.610207131877134     
  9.032333274141492E-002
  0.455538328940662     
 -0.212016795690198     
 -9.261797093793088E-002
  1.606488415350257E-002
  0.274057415084886     
 -0.775526872954936     
 -0.818906337334553     
 -0.490638975847266     
  0.731616920627012     
 -0.923044116525688     
 -0.262707009604792     
 -0.166994164172231     
 -0.101001184000298     
 -0.207319406982036     
  0.530223627930748     
 -0.369983445189075     
 -9.008748575411687E-003
  0.300701606138922     
 -0.452453173343653     
 -0.796367027170365     
  0.498671842406321     
  0.410151297139442     
 -0.483035515602386     
 -0.100627590599785     
 -0.125125221635487     
  0.413737823897626     
  6.227289771658485E-002
  0.173741251917015     
  0.483509603535673     
 -0.648026147340562     
  0.668546396532333     
 -0.255496174799177     
 -0.189886333507178     
 -0.504963426598884     
  3.062970475172488E-002
  0.146451265746862     
 -0.198801577594310     
  0.141042025239263     
 -0.654496643268415     
  0.763930759332260     
  0.278820781352904     
 -0.103002340679329     
  8.114281727040500E-002
 -0.377093497710931     
  0.142793343263504     
  0.392746524748013     
 -0.414313421807402     
 -0.189148824334862     
 -0.144979602121283     
  0.388034064869265     
  0.132936272234119     
  8.371884406716734E-002
  0.747148324456111     
 -0.349462823648908     
  4.972250083929935E-002
 -0.785525143002542     
 -0.317918402238095     
  6.488817812201111E-002
 -0.658862225423604     
  0.131993468635986     
 -3.329154854295395E-002
  0.209353620570749     
 -0.282037820653879     
  0.657916239136442     
 -2.074551990318892E-002
 -0.673328855598066     
  7.728606240028045E-002
 -1.213110850706087E-002
 -3.861933030063981E-002
  0.665836292570021     
  5.324738261752658E-003
 -0.837164214015847     
 -0.215054039971648     
  0.160659414741040     
 -0.159108889073388     
  8.859043675151665E-002
 -0.171429786990395     
 -0.130661220565265     
  0.651746552551608     
 -0.616496014162427     
  0.309880044741763     
 -0.417113360752383     
 -0.225539227132242     
  1.527093568933700E-002
  0.226201039514889     
  0.412297194733389     
 -0.423425318776842     
  0.118334080701501     
  0.246069306170302     
 -0.215575550861429     
  0.142575739737721     
 -6.064135043207352E-002
 -0.370003941453624     
  0.164040280107075     
  0.275667809368877     
  0.520267988179134     
  0.325187559413036     
  0.318563244565418     
 -0.154896149780622     
  3.822408951339639E-002
 -0.300731868959320     
  0.330641937940014     
  0.359545369619278     
  0.151398558528713     
 -0.702490585400604     
  0.645687718490921     
 -0.202242738953042     
 -8.026835132558047E-002
 -0.103361392064225     
 -0.272201491504095     
 -0.154037304478381     
 -0.135417811460767     
 -0.190818553274318     
 -3.723061601653244E-003
 -0.600714652555840     
 -0.150820641843952     
 -0.163746019032644     
 -0.183928701868160     
  0.323695312688905     
 -0.425422367500171     
  0.100053948287880     
 -0.356592686243799     
 -0.114293441914618     
 -9.734412463134362E-002
  0.400150642883342     
 -6.929624985284555E-002
 -0.599119867641276     
  0.109930305132335     
 -0.582857849227180     
  0.130184224032017     
 -0.165618458243603     
 -0.259572399214068     
  0.322561616363079     
 -0.384604894192190     
  0.557322198852666     
  0.258403063085057     
 -3.404744458683741E-002
 -0.313933860136013     
  0.660396617526244     
  0.115110578164898     
 -1.525396312922280E-002
 -0.399879424832431     
 -0.146076405672141     
  0.313586030395090     
  0.333010935222922     
 -3.492497783793048E-003
 -4.573295453996545E-002
  0.135014390334085     
  0.384823668534144     
  6.877990016771005E-002
 -0.474257808148977     
  0.104038014578835     
  0.433191244544189     
  4.276107844040494E-002
 -0.394014257926629     
  0.307067099807085     
 -0.267750000845974     
  4.252507599229678E-002
  0.396905699895283     
 -0.495959753264528     
 -0.715891948903355     
 -0.245302343753185     
 -0.488980753191959     
 -0.550187003274217     
  0.400540407941532     
 -0.282578627016379     
 -0.557774419789945     
  6.848885238715985E-002
 -0.249612156532868     
  0.208242749463854     
 -0.531216749795396     
 -0.177770876835797     
  0.149119868021299     
  0.109875465412990     
  9.448995709268065E-002
 -4.602737411714151E-002
 -2.195553583209425E-003
  7.109665801920771E-003
  0.105100612671599     
 -0.171889528593395     
 -0.318417413424120     
  0.554797168275270     
 -0.124071538268110     
  0.629184814651620     
 -0.176828354213219     
  0.120307568540163     
 -0.441625716521922     
  6.769200594585137E-002
  0.108135380135815     
  0.466574417362712     
  0.140418823373949     
  4.872612417102086E-002
  4.357289643646595E-002
  0.185336215505684     
  8.870715739689951E-002
 -0.139576732023723     
 -0.692849222144586     
  5.122365511399540E-002
 -0.128164071146102     
 -0.459121494916496     
  1.257615533477363E-002
 -6.346364974452645E-002
  5.876707999098318E-002
 -0.410866179866358     
  0.331167209728088     
  0.327145491101199     
 -0.394227416276547     
 -0.149202616176526     
  0.543872839596898     
  0.232073391874613     
  0.261876069276408     
  9.382797440093950E-002
 -0.147396238992027     
  1.347847219354105E-002
 -0.489886905669490     
  4.297513295659224E-002
  7.873502620538472E-002
  5.217713224103350E-002
  0.243433340967539     
 -0.184869362359524     
 -9.480790875498640E-002
 -0.237874554889049     
  1.913124576254791E-003
  0.210832324850149     
 -0.325831639239967     
 -5.704996887972444E-002
 -0.405537281544327     
 -0.222535540421888     
  0.264772670120581     
 -4.399043096173552E-003
  0.286285172972781     
 -0.980933656658360     
  0.789471588212846     
  9.087051007556168E-002
  0.188551243943359     
  0.293065322180310     
 -0.461669871280246     
  0.291748044798271     
 -3.932615227910220E-002
 -0.901989325864466     
 -0.105734446542569     
 -4.061098861833342E-002
  1.596000745276689E-002
 -8.228761377591075E-002
 -0.184186842522196     
  0.323539086261744     
  0.885554299247599     
 -0.227917401100943     
  0.423578455295437     
  0.130283378604061     
 -0.448297769583766     
 -0.406112168669240     
 -0.118943156179321     
 -5.501113206976369E-002
 -0.253516684249005     
  0.183814527504282     
 -0.324683392072470     
 -0.226266288612468     
 -0.279892927077090     
 -0.341540130754336     
  0.144158959621435     
 -0.684365167016210     
  0.714578843554293     
  0.495027119135047     
  -1.11220319449150     
 -0.143930178760416     
 -0.146652589099422     
  0.600419847335316     
  0.318253314393895     
 -7.399874999062526E-003
  0.422918055869574     
 -9.948977103115660E-002
  0.269118966398922     
   1.25596975225028     
 
 -0.557009321493526     
  0.473944702807147     
  0.633925351510141     
  0.400202388606175     
  0.192387483000192     
  0.395211766215628     
  4.674388219798425E-004
  0.461675425077678     
  -1.25408753701527     
  -1.00294060201826     
  0.665401723682035     
 -0.618052345259391     
 -1.051054927538778E-002
 -0.759379335739386     
  0.653377280360926     
 -0.230249167047788     
 -0.419337836038182     
 -0.540261338169263     
  -1.41749060319443     
  0.173459532983570     
 -0.231387194952186     
 -0.694771270132126     
  0.731969719839531     
  -1.05155411526593     
  5.986487334106089E-002
  0.318274975156883     
  0.369002148701406     
 -0.179579855339436     
  0.738023442634920     
 -0.486810909322186     
 
 -0.548157900865295     
 -0.410074660107252     
  -1.04464410584048     
 -2.816996148505108E-002
 -0.822289484449997     
 -4.319527682789469E-002
 -6.475617489070271E-002
 -0.573957501383727     
 -0.369975196728918     
  5.791233697812966E-002
 -0.763853455957926     
  0.286482305963158     
 -0.206444909649098     
 -7.387230852725019E-003
 -0.584705463740722     
  0.603457899804277     
 -0.305941411661791     
 -0.281608647959220     
  -1.40170455657428     
 -0.695521515180717     
 -0.518001900086107     
  0.779468395015186     
 -0.454299422362813     
 -0.333088530942862     
  0.435257965517785     
 -0.350210684278515     
   1.10375329431084     
 -0.181710127437370     
  -1.07672159887408     
 -0.445508688393479     
  0.449145044925435     
 -0.353361105930331     
  -1.07200653894615     
  0.326004763717288     
 -0.120332714545794     
  0.777747946138030     
  0.782220478453732     
 -0.733008138652418     
 -0.431435323046327     
  0.154414299885546     
 -0.874179295660805     
  0.773916548353845     
  0.760214216798888     
  0.702473956615791     
  0.733596114931566     
 -0.657688394503764     
   1.42662713356446     
  -1.14399769347536     
  0.346438127136478     
  0.123728162091642     
 -4.097705082790030E-002
 -0.918655210610291     
 -0.845196369496641     
  0.177521510342227     
 -0.281091915888672     
 -0.389881416122231     
  1.146330138257402E-002
 -0.610813436611650     
  0.736977286121336     
 -0.366594894780265     
  3.128205903968717E-002
 -0.587810996594581     
 -0.475087093777155     
 -0.214586691910944     
  0.375916596901815     
 -0.638196664329523     
 -0.206424331283556     
  0.240655080790826     
 -0.149217472932280     
 -0.419869471940790     
  0.522619289693020     
  -1.02841165904214     
  0.693917612823526     
  7.241407509742320E-003
 -0.676262464739896     
  0.284374930538689     
 -0.592713405651272     
 -4.519510664257522E-002
 -0.117129785182450     
 -0.453315355897578     
  2.797345069602021E-002
   1.25055022613083     
 -0.512591699604511     
  -1.03189548517943     
 -0.798992312015300     
  0.437502064444999     
   1.36370189051756     
 -0.464766323687778     
  0.274153299767408     
  3.634475373653180E-002
 -0.588734407389479     
  0.505850113353856     
 -0.189099266123835     
 -0.324453401688203     
  0.315572631230446     
 -0.321982084061668     
 -8.129647377391874E-002
  7.258326334059246E-003
  0.216639834213105     
  0.451687441626118     
 -0.238097864146058     
  0.174914861625040     
 -0.257748914685392     
 -0.539202660000029     
  0.263807164722663     
 -1.780244537797501E-002
 -3.145598325140692E-003
  0.101715136833498     
 -0.194628788750463     
 -0.682163752344709     
  0.461809368308071     
  0.252564155208991     
 -8.833316459814484E-002
 -0.139122569384321     
 -3.152417219568897E-002
  0.305867777161462     
  0.225077394935029     
  0.355746133265376     
 -0.633353799157316     
  0.542897849747127     
 -0.194336438772493     
   1.32650701484972     
 -0.766982744344700     
   1.22706621813622     
   1.20264744666475     
 -0.790495559919019     
  -1.01308545723948     
 -0.271763360246762     
  -1.47796367766626     
  0.509137434799694     
  0.673976477560402     
 -0.807570321787014     
 -0.449874146979983     
  3.706857205901710E-003
  0.565391358548451     
  0.196139703231346     
 -0.490055166150210     
  5.846555274307223E-002
 -0.508862237688909     
  0.256714347412833     
  1.685465651498562E-002
  0.497071869193979     
 -0.120479420222922     
  0.696869139644427     
   1.19931612039804     
  0.287716096973441     
 -7.045571846915545E-002
  0.903440318089331     
  0.203248616795767     
 -0.599195422012843     
 -0.415709496329868     
  0.234632234675448     
 -0.132080097587834     
 -0.449468020532762     
 -0.156199649235672     
 -8.294224582246529E-002
  0.247962043110594     
 -0.326185207021060     
 -9.024552950375908E-002
 -8.144919220578092E-002
  4.839103290463179E-002
  0.938386296903819     
  7.084492096154738E-002
  6.783350201848952E-002
 -0.157366959590619     
 -0.397936949200438     
 -0.397079771460743     
  0.336661936701168     
  0.640560747931450     
  0.223165781513345     
 -0.155718372956089     
 -6.447257525078803E-002
  0.337231792294752     
  0.288427003385163     
 -0.156831415524621     
  0.169432785519186     
 -0.182728202694928     
  0.147127226351119     
  0.648434916609700     
 -7.215414744860472E-002
 -0.719863525529225     
  0.268155994386575     
  1.921754882380475E-002
 -0.103503239010224     
  0.177767626693566     
 -0.141681937871764     
  0.214994519911925     
 -3.782654296384794E-002
 -0.560737820082935     
 -0.432181525255739     
  0.345917204521485     
  0.707228003297561     
  0.476091017007042     
  0.430015171539112     
  6.402679151439558E-002
 -2.478924720212432E-002
  4.214007839300995E-002
 -0.419129650664410     
 -0.135641496484407     
  9.396449731727256E-002
 -0.539629333672777     
  0.557523318584804     
 -0.115658115490415     
 -0.131933143124299     
 -0.369220393541559     
 -0.345164605307350     
 -0.480286730790642     
 -0.611205729216438     
  9.535084965705125E-002
  0.374182802262445     
  0.490788478254455     
 -0.713703372979473     
 -0.914750762002565     
  0.373553962805254     
  0.118426221406342     
   1.00855738533277     
 -0.261005473337367     
  0.439618800314169     
  0.216777893444172     
  0.840154034962042     
 -3.065666566335727E-002
 -2.134335589245234E-002
 -0.540945316565279     
  0.283206777933754     
  0.823705185303921     
   1.57598577497250     
  0.232064233763473     
 -0.447784642763779     
  -1.24898926982413     
 -4.713430318676928E-002
 -0.390462963680988     
  0.562832949536087     
   1.58945736961141     
  0.524542319004259     
  0.510897948227462     
  5.092997340815680E-002
  0.783968201259660     
  0.763030594698541     
  9.190732606254909E-003
  0.758110068719627     
 -0.170461311308533     
  0.716937351441662     
  0.149784563004305     
  4.262547240207441E-002
  0.342496944290732     
 -0.415357414355733     
  0.173161085998529     
  0.408653341673410     
  0.430348898362804     
 -0.426436660345436     
  0.262760177644758     
 -0.353047132710247     
  0.115547045161797     
 -0.159097335532206     
 -0.152196696482489     
  0.142606530271121     
 -0.561517768432512     
  0.434867659823845     
  1.264814232911369E-002
  0.248451893718237     
 -6.516514548824360E-003
  0.275977283086154     
 -0.666212010971849     
 -0.716238038093051     
 -0.876067809968119     
  0.326863584148752     
  0.151289234445458     
  0.111047818036189     
 -0.209163531500972     
  0.151029354436389     
 -0.618168646525656     
  0.269327234333861     
  0.220035730235185     
  0.460375280274142     
 -0.820972632291046     
  0.443829868150002     
  0.276845774764772     
 -0.336477524488001     
  -1.03889343582086     
  0.692128813599628     
 -0.425832226012111     
  0.719339493167280     
  0.658509601684152     
 -0.238807927654442     
 -0.524826418226785     
 -0.411503408227371     
 -0.375200849407702     
  0.749083351823202     
 -0.382606650052405     
  0.585340040323056     
 -0.447069594258770     
 -0.655948007767143     
  0.726664234729007     
 -0.324103062587596     
  1.505819942977867E-003
 -0.644445061395442     
 -0.599964086069532     
  0.255222960992367     
  0.154959335829220     
  0.509205282540165     
 -0.353985925934978     
 -0.481578314180542     
  0.350837150695912     
 -0.141527721727458     
 -0.976839086034593     
 -0.122881043032692     
 -0.116491357321594     
  0.320757900030580     
 -0.472549246416001     
  0.394531242547426     
 -0.521924832208568     
 -0.329064610371111     
 -0.488233913162991     
 -0.696162798628494     
  6.133579704527922E-002
 -0.141255292475914     
  0.512117462864566     
  0.187844097650403     
 -0.193761223954611     
 -3.208312925347124E-002
  0.619454155992898     
  0.942845920493684     
  0.456703787008817     
 -0.402789728249523     
  0.325398845730198     
 -0.383787099499098     
 -0.258386496175663     
  0.461911890105607     
 -0.143312427523583     
 -8.564126066429130E-002
 -0.278918061136345     
  0.399306403419199     
 -0.264406174131417     
  0.355153944297832     
 -0.519581004970951     
  0.980437895575632     
  0.105649304424951     
 -0.615334111655029     
  0.293229951434167     
  0.460512558995625     
  0.773295236001444     
  0.140872079298599     
 -0.379320887798314     
  0.413406139330142     
  -1.25337706641019     
 -0.679681749123180     
  4.043344554903379E-002
 -7.071852367796747E-002
 -0.374309163192545     
 -0.835028023584149     
  8.993699204298797E-003
 -0.564150784480032     
  0.102656456856131     
  0.332984237926067     
 -0.110478746243867     
 -0.181039446433666     
 -8.061608235623885E-002
  4.507638041257789E-002
  0.340890010154759     
  0.556604182585610     
  0.541630597523281     
 -0.555912602876918     
 -0.500860942584604     
  0.219389314049188     
 -0.331584507669288     
  0.949571122332768     
  0.216295502720179     
 -0.749883306869147     
  0.273554731581436     
  0.624410303617777     
  0.521482004128959     
  0.638374044238376     
  0.330290301378921     
   1.09321193562110     
  3.995182659419201E-002
 -0.334288765237016     
  0.429092092073921     
  0.196741732616867     
  2.494842629209089E-002
 -0.123364087797025     
 -0.651813158320531     
  -1.13791662464351     
  0.260481851844589     
  0.162638456303659     
 -7.354454327540202E-002
 -5.525317038255626E-002
 -0.100796153858612     
 -0.458549801113752     
 -9.241491072970039E-002
  0.260979416881838     
 -0.377638869755158     
 -0.506316808389219     
 -2.205901124588383E-002
 -0.215377540422593     
  0.324246302073015     
 -0.133108019450033     
  0.336794266448082     
  0.180562721999420     
 -0.353550111632536     
 -0.380472661219638     
 -0.259237625258300     
  0.797066759853592     
  0.100865399372562     
  0.290222585652372     
 -0.283773685305919     
  0.237169818618528     
  0.148825929438186     
  4.168890804209517E-002
 -0.193215710563058     
 -4.427687116616769E-003
 -0.268780094854285     
  6.585340174582115E-002
  1.519569765486309E-002
  0.299315358371109     
 -0.161802057576055     
  0.162547888410062     
  0.179386312531450     
 -0.241780441284827     
  0.603562333371442     
 -0.543956138312916     
  2.312933977872383E-002
 -0.174689177556306     
  0.818780079804430     
 -0.345032135082953     
 -0.279538315302881     
  0.360736062414951     
  0.224214453059739     
  0.118605198675778     
 -0.176614403700634     
  0.245390720049476     
  0.572897157053220     
 -0.498802192385919     
  0.227305745793462     
 -0.253553854614295     
 -0.668980791076906     
  0.219669873508983     
  1.374253953368812E-002
  0.344511487945270     
 -0.134571989485674     
 -0.262851365244661     
 -0.323828855705963     
 -0.573573110134545     
  0.282915572940403     
 -8.102631640876748E-002
 -0.396432745349211     
 -0.450595862842693     
  0.515444620232242     
  0.235400867609060     
  0.320326642975544     
 -0.203046266779460     
  5.002434454073749E-002
 -1.957704604499816E-002
  0.179176227431105     
  0.110059080628455     
 -0.292758824923943     
 -0.264356956973356     
 -0.118253697623781     
 -9.476335335691427E-002
 -0.173530068463177     
  4.701310041400767E-002
 -0.646525956753979     
 -0.172706459005735     
  0.209388186299167     
  0.559018732198933     
 -8.491344803052399E-002
 -0.269225953253219     
  -1.25251696166377     
 -6.155226664031559E-002
 -7.003510389881897E-002
  0.127524218559664     
  0.239748101171842     
  0.246079093096292     
 -0.638808187558949     
  0.651483278138817     
 -0.605250445215103     
  0.274897508838489     
 -0.128345871799641     
 -5.498555594480530E-002
 -0.972352387840402     
 -0.129066114478255     
 -0.309019117301358     
  9.068944724144774E-002
  0.445532436865885     
 -0.305354655289354     
 -0.690214551564737     
  0.411429056629274     
  0.186088819959598     
  0.427459164654364     
  0.172813472195172     
  0.318039888086308     
  6.914663735008905E-002
 -0.648340357234524     
  0.151048604446561     
  0.652864354375826     
  1.573100247699883E-002
  7.881493414803030E-003
 -0.566741326923675     
  0.245146343602913     
 -0.145560267583484     
 -0.286207555347228     
  0.790441724084713     
 -9.782602702419414E-002
 -0.293339347446715     
  8.612706514846127E-002
  3.820175262642752E-003
 -0.376340724108089     
 -0.489151958447105     
 -1.447109701717791E-002
  0.422067494179444     
  0.305569689555749     
   1.88697191347979     
 -0.145617369218041     
   1.16957909797105     
  -1.52076445989734     
 -0.198047957577507     
  0.151142246972350     
 -0.399698286739149     
 -0.517415090403886     
  0.458531434290412     
   1.40265387550829     
  0.602936039416586     
  0.149267552489024     
  0.838417178368782     
  0.500053023768336     
  0.227452708147450     
  0.583669371999918     
 -4.488621049667733E-002
   1.14162509338511     
 -0.854240792088691     
  -2.07371252827075     
 -0.728130516587767     
  0.318777520201750     
  6.183636272144613E-002
 -0.387201882246133     
 -0.923197476807979     
 -0.435178560457580     
 -9.900360379781895E-002
  -1.05596477446401     
 -0.447864632415561     
 -0.989932629944945     
 -0.255047902222451     
  0.363267725119431     
 -0.234216108294984     
 -0.805014967674085     
  0.768697244283673     
  0.291972431757408     
  0.282473494732345     
  0.318959706933473     
 -0.330828363394639     
 -9.197352630382513E-002
  0.346005223896774     
  5.329519062502137E-002
 -0.270579689400780     
 -7.496200611989405E-002
  0.171723203395926     
 -0.494070010316807     
  0.862003682568021     
  2.122819459786984E-002
  5.248928790042321E-002
 -0.568410799619172     
 -0.388297379672442     
 -0.561286553424235     
  0.582427807388625     
  0.102172050233095     
 -0.593840626473754     
 -0.130916062926228     
  0.580573541500947     
 -0.459254655082898     
  8.721391270523006E-002
  0.107041141243975     
  0.260249265705467     
 -0.642016523491944     
  0.621149193311891     
   1.02380500064544     
 -8.823528693224240E-002
  7.757334293425166E-003
 -0.238124746982183     
 -0.865790661903364     
  -1.50249856076225     
  0.475761059666588     
  -1.47247634101586     
   2.04626077345754     
  4.160695907052354E-002
 -0.157297957712057     
  0.704972084462817     
  0.164510108745408     
  0.654181657535168     
  0.799424533183310     
  0.152922758746176     
  0.220062746212746     
  -1.04458200328607     
  0.122148843854393     
  0.175260462981194     
  0.619000447448430     
  0.331100826124754     
  0.359917492637936     
 -1.675007214228073E-002
 -0.127999060965506     
 -0.232828803742097     
  5.194486038883555E-002
 -7.747679159678518E-002
  0.163812809399068     
  0.228477847190706     
  4.843242732736795E-002
 -2.574538956406307E-002
  2.518624108883162E-003
  0.258067549082171     
  3.912290520688334E-002
  1.951317674767630E-002
  0.199289971287021     
 -0.516725273371955     
  0.162855222446654     
  3.020999655047795E-002
 -0.204878118641396     
 -0.358312109250049     
 -0.312098204584992     
  0.169408277800435     
 -9.921517793767168E-002
  6.934574486034700E-002
  0.276603911309023     
 -0.157031517995002     
 -4.994014764081955E-002
 -0.437795217596018     
 -0.145383387888335     
 -0.598420544064281     
 -0.512125727985930     
  0.651626923166134     
 -0.209874222903672     
  0.191232879820096     
 -3.643901746665582E-002
  0.132047477799295     
  0.556847390103937     
   1.02116663346300     
  -1.39156209746754     
  0.327205790012740     
 -0.176955648229935     
 -6.623751878856733E-002
  0.342286252845981     
  0.314571143794588     
  0.107644334093475     
 -0.899455031601044     
  0.928707438860541     
  0.654469550129323     
 -0.549493591603291     
  0.661405934525395     
  0.514647208812472     
  0.355617057838676     
  0.529397709952939     
  0.377165808002984     
 -0.372581849784069     
 -0.659921355837299     
 -1.777701563500160E-002
 -0.146470837974945     
 -0.303107987609415     
  0.755844974438418     
 -0.322129361767079     
  0.134588872268072     
 -0.555468346450067     
  0.835495163521775     
 -0.991435044951973     
 -9.987561250350739E-003
  0.376584414983478     
  0.328335036225579     
  8.343375702043873E-002
 -0.322384673207783     
  0.842862444111451     
 -0.154717991439565     
  5.025440842690729E-002
 -0.885400365432334     
 -9.668460467506054E-002
  0.452733982237671     
 -0.534717763107752     
  0.182286813283908     
  0.893889325764851     
 -7.759190187497997E-003
 -0.291660339758773     
  0.518890402704616     
 -0.592795201796354     
 -0.183672206036845     
 -0.439813472122945     
  5.690805462012191E-002
 -5.764740766257783E-003
 -0.989811376125350     
   1.39136790984273     
 -5.001198521655999E-002
  0.687592585227796     
  8.986350878135432E-002
 -0.904331668004816     
  0.332755205583993     
 -0.906111945144397     
 -0.149330028037606     
  0.193262190391652     
  0.866348332237505     
  0.551862303866078     
  0.166247342677249     
 -8.278250183331824E-002
 -3.209175333339823E-002
 -0.433761720049168     
 -0.206059524269169     
 -0.237937360088447     
  0.609510600282213     
  0.605232584647659     
  0.136017879739602     
  0.511387653218237     
  -1.65760084878079     
  0.579475714375259     
 -0.177810427239808     
 -0.156719823371678     
  0.222263964110098     
 -0.401593819528508     
 -0.549270359408976     
  0.293681104683783     
 -0.404424393219842     
 -2.405153343490168E-002
 -0.561556804361282     
  0.124997514139929     
 -0.292409467036369     
 -8.697194734489071E-002
  0.157450928907832     
  0.430619167729144     
 -0.979236483906022     
  5.960715787138064E-002
 -0.657784361604557     
  0.524562522630915     
  9.831082672244620E-002
 -0.518543155539581     
  0.801317128096189     
  0.444791344295399     
  8.836934718068498E-002
 -0.826821601412066     
 -0.449214262734366     
  0.486313266494561     
 -0.461229626926835     
 -0.708143668612470     
  0.431681914710175     
 -8.292777176868342E-002
 -0.275759797900945     
 -0.481076261074164     
  0.574007317680147     
 -0.320620694356840     
  0.179822158132003     
  0.277515653419197     
  0.190144335128728     
 -0.318606634923910     
 -0.683201158785292     
  0.156335674790836     
 -8.679081361493410E-002
  9.100117783371961E-002
 -0.547324069488158     
  0.629345568313908     
  0.330999685660277     
  0.235979715051720     
  0.608066298504275     
 -0.108801678362705     
 -4.166500476346924E-002
 -5.709164902421730E-002
 -0.278990300352445     
 -0.611796980578148     
  0.440996790459866     
  4.873617401789952E-002
  0.324502637502325     
 -0.311039095049468     
  0.615423498841510     
 -0.279738160737406     
 -0.264375029710875     
  0.279262677698664     
 -0.131966018845189     
 -0.185551734658343     
  0.272213704289507     
 -5.066484268810578E-002
  0.546281287145940     
  0.428091788585659     
 -0.349997596627963     
  0.255669835053342     
  4.755897616664157E-003
  0.394588748506857     
   1.37964482525898     
 -0.238827874545924     
  0.423964778958874     
 -0.117520185776854     
  0.224912144592388     
   1.23688781169865     
 -0.920226094975035     
  0.528439801122286     
 -0.547578818004665     
  0.131637444907730     
 -0.575270829654004     
   1.06690927789511     
  0.129717541585743     
  0.450678409457823     
 -0.210742379219403     
  -1.10998109423980     
 -0.396775916106654     
 -0.159585477292912     
  0.773647059724271     
 -0.733177000284234     
 -0.821609205100075     
 -0.192749423574631     
  0.661705638021512     
  0.427743644154014     
  0.295174783315072     
  3.339204826979768E-002
  0.604299228727256     
  0.279837854526344     
 -0.106686573543733     
  0.512834227598713     
 -3.700868277359774E-002
  0.394190180341834     
  -1.40657352246079     
  0.718539753760203     
 -0.328745213683138     
  0.484907208670616     
  0.585391214139465     
 -0.780909330592337     
 -0.781510502690301     
 -0.234408498731688     
 -1.438390789135727E-002
 -0.153363960607980     
 -3.157075032422263E-002
 -0.179557763201207     
  0.434097912159971     
 -0.252038463662594     
  0.150061565193314     
 -0.478490826662200     
  0.328528112772541     
  5.235259034105873E-002
  0.352845826131048     
 -0.103448810246930     
 -0.289336336434910     
 -0.339141375877663     
  0.671115652414465     
  0.284837264545982     
  0.381937086607971     
 -0.167496326325916     
  0.240766063694704     
 -6.143519367146430E-002
 -2.406696961217272E-002
  0.470287782778235     
  0.412460146492591     
  0.150418307889059     
 -0.460782129109324     
 -0.112344691231651     
  0.436459052875726     
 -0.741194030107536     
  0.508275337942203     
 -0.336727050550990     
 -0.536399055239297     
 -0.247677433963054     
  0.317838980646216     
  0.269593517768111     
 -4.561404959735313E-002
 -0.589830829127087     
 -0.673961579609765     
 -1.765763362484928E-002
 -0.159204204217168     
  0.849090036785513     
 -0.274903639214952     
  0.127751235049592     
  2.163266149659989E-002
 -8.801899296652518E-002
 -0.931710496175112     
  0.472707847879082     
 -0.164121525758557     
  6.968056547929960E-002
  0.545967421581461     
   1.00790610247896     
  0.242542440169799     
  0.234555655253183     
  0.569068579301625     
 -8.166832810524043E-002
 -3.268423612434724E-002
  0.467765638759434     
 -0.778974205674461     
 -0.307842264281751     
 -3.069327213389948E-002
  0.217694896796310     
  0.140791216605947     
  0.236843436862602     
  8.659643320198020E-002
 -0.199932405481620     
  0.435252218452412     
 -0.386593870886259     
 -1.749909398685913E-002
  0.270206325550451     
  0.161512537499702     
  0.214715550187808     
 -0.544409656736476     
 -0.344966454176008     
  1.934189568371285E-002
 -0.230901669156259     
  0.394161847864498     
 -9.916264813988138E-002
  0.275445067289372     
  0.506121326593079     
  0.447776237331856     
  3.883892788558919E-002
 -0.191818923298605     
  0.293549939194381     
 -4.164160993794677E-002
 -8.588204902990303E-003
 
   1.08021402400411     
 -0.420069789951836     
  0.142941480266615     
 -0.175638846286365     
 -0.136481352685124     
 -0.436983097814796     
  0.428684057658226     
 -0.546708066090375     
  9.995540451093471E-002
 -3.691722538603728E-002
  0.269801893414542     
  0.426239323342095     
 -0.225439671567814     
   1.05280738313286     
 -6.549277646715597E-003
  0.332328883958196     
 -0.634003246656914     
   1.04741329470898     
  0.189536234777717     
  0.426421313294098     
  0.837541819664103     
  0.198153185836767     
  0.348295479028521     
 -1.078665066798901E-002
  0.339833439144735     
 -5.729980171248695E-002
  7.222903763245241E-002
  0.343407422141869     
  0.176401239170981     
 -0.199051104224127     
 
  0.148362660030516     
  3.262723227319639E-002
 -9.864933096648167E-002
 -5.179870550501448E-002
 -2.168359325656430E-002
  0.196985994432405     
  0.204033775157451     
 -2.213601321734882E-002
 -0.128574893712643     
  0.157703311574803     
 -0.107942878808654     
  8.640485316477989E-002
  0.103677510146559     
 -0.230400813748204     
  0.192423430968519     
  0.209724497754223     
 -0.287842889822749     
   1.36682286733635     
 -6.420628281813176E-002
  0.271514017869219     
 -0.231645079228403     
  9.540507272970214E-002
 -3.860150946907501E-002
 -8.725183089380475E-002
  6.882534575316877E-002
 -0.120518117337899     
 -7.404189107539821E-002
 -0.148684904611224     
 -3.728190505221926E-002
 -0.240792377151551     
 
 -5.099142396373572E-002
 
  tansig  tansig 
