     48 -    30 -    30 -     1 
rmse=  43.2160meV
 -0.319218042890244     
  0.263936078052953     
 -0.795466244749358     
  7.872502850534176E-002
  0.866225570040160     
  0.290569354308319     
  0.697951976249148     
 -0.348151107573388     
 -6.262999245450275E-002
  0.287527864403733     
  0.826338140261931     
 -0.374904699057396     
  0.204907825913599     
 -0.507513775201210     
  0.566298834324798     
  0.569735244990390     
  5.768267514950592E-002
 -0.172400461180905     
  0.211926994056449     
 -0.614200950663836     
  0.561918339654732     
 -0.197178984730230     
 -0.532557359039782     
 -0.618785541239136     
 -3.748113173812505E-002
  0.298087573069557     
  0.766422619025831     
  6.004493985226109E-002
   1.02191554148499     
 -0.183903100341407     
  4.845979624216177E-002
  0.198677256402614     
  7.738314172730028E-002
  6.279889557990882E-002
 -0.680826745612910     
  0.187119496680742     
 -0.423990443471053     
 -0.164637785566045     
  0.551898464280010     
  4.754391571496946E-002
 -0.502133230984317     
 -0.475050886128798     
 -0.209044125332026     
 -0.342308171094940     
 -1.303510130928246E-002
 -0.478763968841674     
 -0.406990283228474     
  0.263217405862701     
 -0.495052214322988     
  0.153081372843193     
 -0.254398030864815     
 -3.198142315967387E-002
 -8.654415300885461E-002
 -0.535629373547177     
  0.267890937964827     
  0.203025857161366     
 -0.556777159709418     
  0.596941858309772     
 -0.495090540455803     
  0.302451572338560     
  0.606905979389549     
 -0.175210600193473     
 -0.307417245870285     
  5.859699073444725E-002
 -0.217170838326512     
 -0.527321420340703     
  0.274729300660968     
 -0.453947469066148     
 -0.251296805391489     
  0.319860811032739     
 -0.251059848958505     
 -0.154653453103332     
 -0.238224250812068     
 -2.517526531345338E-003
  0.195061814195837     
  0.507649140485270     
 -0.838072631300421     
 -0.179638135876238     
  8.166378318842423E-003
  -1.10164644356829     
 -4.640199159055662E-004
  0.738551755337502     
 -0.422373148104197     
  0.449184020860311     
 -0.246889598494496     
 -0.369326829067235     
  5.443238494951885E-003
 -0.119777655854702     
  0.220678578672881     
 -5.942189835929491E-002
 -1.305894531610252E-003
 -0.503790686448542     
 -0.899161736699518     
  0.755104505297533     
  0.289639207114386     
  0.505914127817483     
  0.355886442130659     
 -0.606715910506817     
  0.674060251869397     
  0.149872233586715     
  0.263808536165847     
 -8.797005859781024E-002
  7.455398038068688E-002
 -4.381250069678042E-002
 -6.728121145274193E-002
  0.111846867303647     
  4.128394162127325E-002
 -0.383831172865225     
 -0.186550475268374     
  0.129825837597257     
 -0.239750878588048     
 -0.204846011361095     
 -0.186145452191329     
  0.500483569980456     
  0.868628753361242     
 -0.205744113774709     
  0.245913582596318     
  0.100283800611294     
  0.133902219203531     
 -0.316826419139692     
  5.912355672005527E-002
  0.153571811618281     
  0.223197636050717     
 -0.751889961666341     
 -1.461869837401627E-002
 -0.460733101434984     
  0.420908589663337     
  4.013036050228917E-002
 -7.073989265985961E-002
  0.350701135048136     
  -1.19015186591821     
  0.414168359647721     
 -0.326780717267353     
  0.133463143082242     
  0.241895159421901     
  0.100164951690653     
  0.303239170857024     
  0.242194649634457     
  0.464926171596934     
  0.186187440127254     
  0.437711539352745     
  0.390635281088516     
 -7.545462668146019E-002
   1.01350011700240     
  0.205576227749671     
 -0.168550481687707     
  0.137587647702795     
  0.946545440673489     
  0.202104819595934     
 -0.299072600850356     
 -0.181165717063237     
 -0.187416833560603     
  9.109395676001107E-002
 -0.505634392732927     
 -0.532019729963905     
  0.346841961873070     
 -1.490622331967910E-002
 -0.720772347346923     
 -0.250612335149898     
 -0.335397492433990     
  -1.04467631848285     
 -6.526514741635372E-004
  5.643230714606834E-002
  0.328084804419619     
  6.985751426808609E-002
 -0.221066890691431     
 -0.402416595556572     
 -0.172278003159938     
  0.329622044587072     
 -0.352237205034745     
 -0.119861599222132     
  0.230143842722082     
  0.230636862441933     
  0.163806601759305     
  0.239056299688802     
  0.305486536460505     
  0.341006527403013     
 -0.556272477361685     
 -2.675792386043365E-002
  0.288698393676812     
 -0.115346578185134     
  0.269546292924297     
  0.347484190329100     
  0.194510142243391     
 -0.568965852056165     
  0.649586478957757     
  0.390079678641432     
 -0.288948590113798     
 -0.871506306669641     
 -0.120837154236343     
  0.289502595682048     
 -0.402606614097328     
 -0.295685923221792     
  0.264290423745070     
  6.154877138820736E-002
  0.202680377259513     
 -9.612537971516651E-002
  0.366760466019400     
  0.192410897821936     
  0.207394768815322     
  1.134275717498260E-003
 -0.165740062288486     
  0.490758764657168     
 -0.394361611843021     
  0.232154887817905     
 -0.834998828907253     
  0.740685316052244     
  0.245924710272109     
  0.134969363678385     
 -0.339558840227416     
 -0.584974697897687     
  0.279374684048595     
 -0.271966350210466     
 -0.696854665287762     
 -0.402560427926132     
 -0.123710565053097     
  0.302800895841573     
  0.298332724303008     
  0.110261810804807     
 -0.214234381533339     
  0.367527485828840     
  0.179923227788382     
 -0.439628609861970     
  7.219659414659035E-002
 -6.245571661814459E-002
 -4.956783070418673E-003
  0.303081399378577     
  0.444918807886393     
 -0.387046708365679     
  0.181559667876022     
  0.238292659077507     
 -0.195812024012358     
 -0.543422304896786     
 -7.376047478265817E-002
 -0.288404440330580     
 -7.725045547658806E-003
 -0.389837787556135     
 -0.463600907812176     
 -9.964299712645988E-002
 -0.756825937494237     
  7.348587850317416E-002
  0.370707567900665     
 -4.500069744578240E-002
 -0.514656512068168     
  0.123258203387186     
 -0.350425185514976     
 -0.178736974171439     
 -0.645420992745857     
 -0.675088008866233     
 -0.106856246302495     
 -1.981986279504902E-002
 -2.500238933114005E-002
 -0.101388418096079     
 -0.389287040340812     
 -0.594301452957774     
  0.451971859671689     
 -0.196241800700440     
  0.519475435761968     
  9.188909611826271E-002
 -0.976025852134756     
 -0.611479040130721     
 -0.129921525194237     
 -0.145790744334301     
  0.344067518051700     
  0.111396658271992     
  0.226972379571139     
 -3.823066161980294E-002
  0.465915488209786     
 -3.221876528817649E-002
 -0.325860652555497     
 -0.235948003900999     
  0.368046817731595     
  0.453002330435825     
  0.310918626327492     
 -0.246067699036311     
 -0.671801784562523     
  0.614450582957950     
  0.216887700853058     
  0.202551859877077     
  0.300816395674177     
  0.513905588286079     
  0.294250245016097     
 -0.113277871500556     
  0.418083748573949     
  0.745844394335512     
  0.298322806148368     
   1.23073859467836     
  0.614764074057691     
 -7.825805399101933E-002
 -6.061691608739135E-002
 -0.511391181783523     
   1.27164412471057     
  0.248297994131990     
  0.162038082083106     
 -0.730365646957043     
  7.987105419604255E-002
  0.113889016080758     
  0.453407780064804     
 -0.618692931269607     
  0.148313048877613     
  0.176156584751846     
 -8.513858893440582E-002
  0.266997584349442     
 -0.375868203517128     
  0.768359992352211     
  0.678763675153135     
  0.377391266939506     
 -0.884104866677290     
  0.908682788655272     
  9.194162203764884E-002
 -0.221832692198247     
 -0.469933991413909     
 -0.271213870052273     
 -0.249799588790116     
 -6.923322289983271E-002
 -0.205321147876965     
 -0.387561313895518     
 -0.157133831596919     
  0.614394952427024     
  6.874392975017043E-002
 -0.720579305443023     
 -0.197646360475256     
  0.308483108423384     
  0.361009565874696     
 -0.307241498687504     
  0.456824549688213     
  0.298547618181415     
  0.229152285278496     
 -0.567564950949037     
  0.737953773354402     
  0.847074085431451     
  0.565670148395419     
  2.765803169972165E-002
  0.280534910910939     
 -0.401651264908932     
  0.468583988153783     
  0.267913891520799     
 -0.649578216903284     
 -0.876862104064618     
  -1.84944457352028     
  0.536381368524119     
  0.433911070610291     
  0.432330630438602     
 -1.443324985318886E-002
  8.702347195827678E-002
  0.154094386716115     
  2.721321238665410E-002
 -0.761235218824837     
  0.499729200499316     
 -0.145201967770516     
 -0.146169901820321     
 -0.105107405151142     
 -2.207713869003892E-002
 -0.293851295492964     
  0.906167312500368     
  0.522706868018265     
   1.62535613446100     
  0.175280870461117     
 -0.365741086810127     
  0.294841139109087     
 -0.216178417951092     
 -0.409591964470430     
  0.803257364343267     
  0.224816871479656     
 -0.334192321748851     
 -0.802839306370853     
 -0.556280324844720     
 -0.238827842452490     
  0.159103963711421     
  0.585380902610880     
  -1.08881941242055     
 -0.130997134906836     
 -0.343958396818527     
 -0.630930461054713     
 -0.198747252998370     
  0.238377232014481     
  0.151484791698126     
 -0.417389662019233     
  0.272868117883601     
 -0.305463716258015     
  0.469097652610463     
 -0.519994391968522     
  0.215743251222211     
  0.242663009319787     
 -0.351088295734683     
  0.424110559325001     
 -0.505622990536212     
  0.646465269842779     
 -0.622272279785083     
 -6.307989823033540E-002
 -4.356778057063757E-002
 -0.367745178225725     
 -0.429079489275221     
  0.493097011073901     
 -0.605890873780675     
 -0.418723331650748     
  0.328291372557696     
  0.645230312387961     
 -0.128473603731030     
  0.285641076404876     
 -0.108825738035037     
 -0.328225837759614     
 -0.248517458602733     
  0.247024930479406     
 -0.243362260231589     
 -0.784467689323318     
   1.04700067066546     
 -0.201007094798706     
 -0.516163658641244     
  0.111973163864133     
  0.333768309200732     
  -1.04470948904682     
 -0.621611402414355     
  3.559124337686173E-002
 -0.788535178562289     
 -5.731093493212343E-002
  0.194872439619798     
 -8.480615299585842E-002
  0.396644879770851     
 -0.202571451577835     
  1.149068443795235E-003
  0.564168102322997     
  6.090598221541924E-002
  0.699425876950443     
  0.594362918111904     
  0.866596205715064     
  0.191154641892723     
  0.688425210709652     
  0.189830434107848     
  0.726235024525532     
  0.441574126595239     
  0.569340767535438     
  -1.10833035559631     
  0.949684893128393     
 -9.987216674737807E-002
 -0.377649229761922     
 -0.572083646952270     
  0.367221218918878     
 -0.373677452959441     
 -0.313955781775408     
  5.496508399183678E-002
  0.190998334855405     
  0.384828120919805     
  0.998087860204630     
  0.561778410443294     
  -1.19052639723613     
  0.578674109645880     
  1.770481827763742E-002
 -0.150311521395919     
 -0.580714307995445     
  4.536201022875106E-002
  0.147913074727961     
 -0.591582179463073     
  0.604221681216885     
 -0.252290425600840     
  0.114062129052876     
 -0.439154190661466     
 -0.482384673465491     
  0.105984465878886     
 -0.491761480646097     
  0.127140709740548     
  0.486923975832250     
  -1.60709102107507     
 -0.317729464632210     
  0.699986643169541     
  -1.05463753739775     
  0.272974092991025     
  0.879102484275142     
 -0.552244258563805     
  0.497986231166874     
  0.714494991064306     
 -0.168349983224122     
 -0.709271185790662     
 -0.178704775906178     
 -0.922814259516199     
  0.544384619864397     
 -0.211034123435887     
 -0.907691158520671     
   1.15428054163205     
 -0.560991832625223     
 -0.474629338941415     
  0.293848379576235     
 -0.852701113559422     
  0.603883758669883     
 -0.167267002646335     
 -0.311346272886428     
  0.140281064254939     
 -0.236349784664925     
  9.543768360747998E-002
 -9.008102142960789E-002
  0.131156647435969     
 -0.231745309005077     
 -6.949025560120800E-002
  2.428453656648173E-002
 -5.531084404318468E-002
  1.177903003020458E-002
  0.462242767906374     
  6.943702285700334E-003
 -0.385486428191706     
 -8.829121781855991E-002
 -3.398509438408171E-003
 -8.575654342441305E-002
  0.257368593803833     
  0.390900483088630     
  3.676046657148650E-002
 -0.221101665113907     
 -0.129781738499406     
  0.161008853144253     
  0.242801832014488     
  6.853327017362786E-002
  1.914604980707933E-002
 -0.314733715436384     
 -4.589189089867859E-003
  0.176195960808821     
   1.09096345452837     
 -0.136707109712789     
 -0.100303866686940     
  6.260995380887058E-003
  0.169386106568092     
  3.052100272361199E-002
  9.082093044372928E-002
  0.254623154975690     
  5.275197170493368E-002
 -0.253471781601627     
 -0.394145820900349     
  0.593996751676960     
  2.056588145295813E-002
  0.115673840083847     
  8.590219531418374E-002
 -0.196922334747716     
 -0.267191653821164     
  0.146038052286285     
 -0.356222856840220     
 -0.125177028059385     
 -0.746377160271688     
  0.197146996137864     
 -0.171832661678471     
 -0.146865675904254     
 -0.503273109143571     
  0.328169021398789     
  0.252498047482147     
 -0.454705575768904     
  7.707151854033467E-002
 -8.857294321894651E-002
  0.124536282895246     
  0.121703212017709     
 -5.514793235920479E-002
 -0.326504164754081     
 -0.478603095720742     
  2.223706937496515E-002
 -4.191026519896141E-002
  0.273623848257245     
  0.153263507555721     
 -5.406034316284283E-002
 -0.510616664522403     
 -0.256218417233895     
 -0.256703295669398     
  6.339268836263776E-002
  9.233979947967989E-003
 -0.263234099631770     
  0.410729150606305     
  0.262924947425169     
  0.610878553153783     
  3.128506237845044E-002
  8.083123509525494E-002
  0.116448068786991     
  0.429301894567401     
 -0.137638354952288     
  0.264638453941170     
  0.309969762482077     
 -1.848964968692323E-002
  0.290859994720277     
 -0.517331548915614     
  0.459456667951840     
 -3.147736581705946E-002
  0.234877084413230     
 -0.450239947138087     
  0.354600136985998     
 -0.317092816031138     
 -0.571669106261554     
  0.990218017947120     
 -0.340405563684726     
  9.718115897569604E-002
  0.470542923156397     
 -1.188031875242895E-002
  0.205775669537532     
 -6.777768746813458E-002
 -0.865559655979249     
  0.157926010087721     
  6.819836794200879E-002
 -0.282153438851419     
 -8.711033625379692E-002
 -0.156636537146116     
 -0.275327621949917     
 -0.426773697316841     
  0.212946097634639     
  0.283071099264912     
  0.145246226853545     
 -8.102430313764333E-002
 -0.134905940493513     
  0.176988822222186     
  0.306546653460516     
 -0.533102557520854     
 -0.277003226674282     
 -0.123529708286530     
 -0.181295204301506     
  0.341310007537117     
 -0.777586139415888     
  2.335100877818757E-002
  0.417750669100526     
 -0.196677056053632     
 -0.176475245099499     
  6.141058720162300E-002
 -7.140238386550518E-002
  0.323959037050097     
 -0.490216006165057     
 -0.281650349777290     
 -0.367353231883593     
 -7.125308643878141E-002
  0.623896101869269     
  5.099990652752371E-002
 -0.132311746107208     
 -5.189744941853228E-002
  0.921486957596000     
  0.186610231975888     
  9.738561680050975E-002
  0.128724910181054     
  0.371031958961400     
   1.05098840950017     
  0.652978196605249     
 -0.659743955400074     
 -0.685226152038230     
 -0.200809814132249     
 -9.219294960392921E-002
  0.126029619370740     
  8.881933248808813E-002
 -5.752278133997184E-002
  0.181569221017025     
 -0.757338489799077     
  0.124573583179977     
 -0.162054671244017     
  0.269759519675730     
 -0.221990503688538     
 -0.574214442997294     
 -0.392549073300838     
  0.896270699763118     
   1.11130898690103     
 -6.289911381559335E-004
  0.617023038876735     
 -0.415427892682173     
  0.153480731705228     
 -0.845401250941196     
   1.09428294992243     
  0.612638139616343     
  0.406498268291879     
 -0.317959172926562     
 -0.390199981749367     
  0.150425813095826     
 -0.148786460314103     
  0.833689483631717     
 -0.891693789286186     
 -0.524612706318075     
  0.136381754173683     
  0.941576836197353     
 -0.874692145140816     
 -0.231406448804603     
  5.717565852430398E-002
  0.319244173320028     
 -0.247540362798561     
 -0.307068668571045     
  0.159142718061766     
  0.100214006413367     
 -0.220342631354190     
  0.422380445069725     
   1.09595135057972     
  -1.17921033405775     
 -0.479382263590249     
  0.496349832200438     
 -0.295450065063438     
  0.200575350330651     
  0.197857945472100     
  0.316518114951206     
   1.03142548571779     
  0.266682006323255     
  8.731188785023329E-002
 -0.903942357977865     
  0.444014381675972     
  0.361833445779551     
  0.303763925098328     
 -0.627487197234779     
 -0.374467565197840     
  2.272995526502651E-002
  0.290063063220935     
 -0.679884690763558     
 -0.114466668455349     
  0.109522802844463     
 -0.481501094872434     
  0.227961141470170     
  0.229578754207594     
 -0.962392706450376     
 -0.565016430483465     
  0.371593566519158     
 -0.657304912209045     
  4.007324484084472E-002
 -0.356975788070189     
 -4.370438943053076E-003
  0.658252897437305     
  0.392270435612157     
 -0.204232613975007     
 -0.101088376283911     
 -0.103272711930516     
 -0.229404642800788     
  0.292174494428659     
  -1.14660742329206     
 -0.542279224548999     
  0.776645066283008     
  0.433294829318417     
  0.244130556460211     
  0.131243641264794     
 -7.548613297098077E-002
  0.454342070849543     
  0.348354405722926     
 -0.571278855709517     
   1.14420892122883     
 -0.913013766162539     
 -0.613118852445726     
  4.006159895506713E-002
  0.122841696782905     
 -0.577077797157833     
  9.574268949304973E-002
 -0.254901466433055     
 -0.197641225129770     
  0.111301621701378     
  0.553771551606478     
 -8.017790805328667E-002
 -0.129689200658959     
  0.360055302342865     
 -0.380387787214061     
 -0.719048004947941     
 -0.764281630814503     
 -7.029903680093517E-002
  0.215487826641685     
  0.478014327770939     
  0.311656838656792     
  4.953581630887923E-002
 -7.458251382330648E-002
  7.899955470117533E-002
   1.36761981993360     
 -0.703766636826482     
 -4.689090283353305E-002
 -0.147755945647988     
  0.334351175032270     
 -0.874965584809828     
 -0.232002120985842     
  0.922636827107764     
  7.584031282282054E-002
  0.361063698226616     
  2.088880658317894E-002
 -0.158544391978997     
 -0.127734816006893     
  0.869194737799493     
  0.350001253311143     
  0.255645348717040     
 -0.525917388718928     
  0.228901396919656     
  4.128070088913385E-002
 -6.532857669614296E-002
  0.792001851080419     
 -0.161224600198871     
  0.646327107716428     
  0.365206690862186     
  0.278946020332262     
  0.525946187201264     
 -0.389850850060470     
 -0.411699162830594     
  0.310427950522430     
 -0.328889367027097     
  1.609820413230059E-003
  0.540054814586604     
 -0.329312062508683     
 -0.486873522271246     
  0.236543899910797     
 -0.255378574626283     
 -0.444133787753972     
 -0.865764312989285     
 -0.606165656420244     
 -0.870320185409472     
 -8.763489875029497E-002
 -0.497218685337736     
  0.245549934763851     
  0.684236097007805     
 -0.341572760791805     
  0.156424557300334     
 -0.110237412483100     
  0.135106131603460     
  0.261232234607284     
  0.288796237329936     
  0.145182028644874     
  4.517910398806445E-003
  0.446796367953499     
  0.353492516199835     
  1.525379093415555E-002
   1.00346335492093     
 -0.156326760301941     
 -3.389358370016878E-002
  0.456594614280693     
  0.295926799319494     
 -8.655352443539896E-003
 -0.170847055894137     
 -0.195435367281915     
 -0.154981096849611     
  0.187292996564744     
 -0.142301088222826     
 -0.345921812175371     
  0.347717461419065     
 -0.621010753854810     
  -1.26341718791621     
  0.946258888297978     
  0.397929533483149     
   1.00657106717057     
 -0.148353798003859     
 -0.914117563510333     
 -0.798412888546612     
  0.346816178077617     
 -0.226263881533375     
 -4.603020137839288E-002
 -0.460791946173193     
 -0.308905949861204     
  0.246187365212413     
  0.123745617641395     
  0.352966884376022     
  0.256069167990890     
   1.09628063640828     
 -0.257925342703093     
 -0.270437977732844     
 -0.786834912881871     
  0.766444421728342     
  -1.10556264021472     
  0.942843449671352     
 -5.041970701568017E-002
 -0.200875631353979     
  5.893635588274931E-002
  0.435409282824722     
  0.604436234468812     
 -0.533560811124286     
 -2.180041494873061E-002
 -4.057152115755153E-002
  0.176331846371221     
 -2.652780413827019E-002
 -0.306959932705577     
   1.08089092459798     
 -0.398131780806789     
  0.419271308316361     
  0.813601758954081     
  0.163961722801378     
  0.109027995956209     
  0.476660728991245     
  0.696722607348393     
  0.326326554444860     
  8.343883126320648E-002
 -0.195392371124519     
  0.447691402283293     
 -0.186871457719714     
 -0.257688199753538     
 -0.451951783167374     
  0.226861721849099     
 -0.214440408482548     
   1.90741428737205     
 -0.362043820176369     
 -0.487970812489193     
 -0.458951777545706     
  0.100035050911301     
 -0.599764435137805     
  0.437964643606453     
 -0.459360403049273     
  0.346329374346972     
  6.232107960303581E-002
 -0.704063390056887     
 -0.420182015822295     
 -0.225615688500711     
  0.662120746773739     
  2.062174133509557E-002
 -0.270655275905089     
 -0.546845647880391     
 -0.372215826444548     
  0.174767244598403     
 -0.670632304869963     
 -0.627271004314365     
 -4.824349140523458E-002
 -5.402310697182605E-002
  0.355558663610033     
 -0.357123884813409     
  0.384168280924274     
 -0.322254196236056     
 -5.436004646389358E-002
 -0.167817921788408     
 -9.158242428117831E-002
 -0.123178205089093     
  0.239782311665270     
  0.695868359815777     
 -0.382866394173481     
  0.665234634812020     
   1.16622131892282     
 -0.813499093607010     
 -1.421565879505383E-002
   1.03384278735421     
  0.490530533533289     
  0.437004096075346     
  0.177770594079598     
 -0.121114776958202     
 -0.148861317351078     
  0.125130976202300     
  0.605782759621309     
 -0.640881784637527     
  0.220042143686651     
  0.157411793166041     
 -0.448320572028254     
  0.457372517093192     
  0.129651553612354     
 -0.665734319023875     
 -0.196163755538316     
  0.281246589795181     
 -0.328135989161176     
 -0.413552049909324     
 -0.295357647529036     
  1.293824156816143E-002
 -0.820130904784816     
  0.999121007271618     
 -0.197714617087706     
  4.285499544776880E-002
 -0.399378271957728     
  0.330162788827553     
  2.940931938854310E-002
 -0.154195299081808     
  0.306811278652346     
  -1.47172929189148     
 -0.155376833959244     
  -1.07812526072193     
 -0.918993973514635     
  0.395536815618914     
  5.634473036196189E-002
  0.154893894874918     
  0.931255266954377     
  0.419541955765287     
  0.533313440549626     
 -0.217366415174340     
  0.248073878124199     
   1.31400584701015     
 -0.962325031727181     
  0.189579510701745     
  0.377357844092200     
  0.520557402236841     
 -0.147955510663269     
  6.983386245202533E-002
  0.258446104611986     
 -0.527050524136418     
 -0.357847355030169     
  0.445018993596475     
 -0.389410487598966     
 -0.607635012051518     
  0.140025824149351     
 -0.179740223423903     
 -0.500693667637599     
  -1.65009273890315     
  0.324663075901206     
 -0.490816559793678     
 -0.101596130313298     
 -0.677564967418704     
 -0.302008568984925     
  -1.01798973978488     
  0.551050547884270     
 -0.389672173536795     
  7.769065346304198E-002
 -0.126318686600631     
 -0.607737968762526     
  0.588177336417913     
  0.637234108277744     
 -0.278481190838139     
 -0.614167064875399     
  0.651970807041019     
 -0.308838957586940     
  0.139995707355192     
 -7.970039731953878E-002
  0.946875117433488     
  0.528715427562281     
 -7.341055488841676E-002
 -0.791051990542641     
 -2.518798096534777E-002
 -0.523974466065514     
 -8.807556241119394E-002
  0.305186247466782     
  0.216434822882407     
  0.522310703063153     
  0.564493833776755     
  0.368311171235433     
 -6.737262417766995E-002
  0.281684494172599     
 -0.381194759210567     
 -0.114587332814246     
  0.374850414134576     
  0.134871740230550     
 -6.815965373490965E-002
 -0.409831049312735     
 -0.343177108727864     
  0.248850573703640     
   1.01564654498998     
 -0.258931540461830     
  0.630773677444662     
 -0.280513149768277     
 -4.401065665784984E-002
  0.232505609473993     
 -0.880604179735360     
 -0.119447445905403     
  0.104692852719754     
  0.723378993169054     
  -1.53108603450658     
 -0.392304441759767     
  0.319329795410985     
  0.386999645080561     
  7.902872289795887E-003
 -0.330773939124589     
  0.921581310579192     
  0.586770708606117     
  4.286490145081119E-002
  0.647552077229338     
 -0.421316621153917     
  0.821684539526720     
   1.25782016133144     
 -0.134477651856459     
 -0.441986054653125     
 -0.543371199695030     
 -0.393369493347657     
  -1.05634887201569     
  0.595297237449713     
 -0.674587206621983     
  7.625744112600194E-002
  0.868491981668826     
 -0.170107237612185     
  0.102254477055884     
   1.46793832560508     
 -0.677164740821543     
  0.672361384334312     
 -0.923691047272096     
  2.983681720928540E-002
  6.750812516908240E-003
 -0.262254871338353     
  0.617753226494829     
   1.21617674534525     
  0.648919215149003     
  0.374602353781605     
  -1.20953587388049     
  0.305463606149065     
 -0.198359916663507     
  2.152456316355804E-002
 -0.266065306190332     
  0.474820132372607     
  0.409230372955655     
 -0.261549589816910     
 -5.908517276424495E-002
  0.268540826584890     
 -0.225506342208225     
 -0.128187720110426     
 -3.762523970474640E-002
  6.732881623767364E-002
  0.208636352758578     
 -0.240992038823271     
 -0.208982421231332     
  0.190196571085484     
 -8.234222383850909E-002
 -0.979715769916487     
  0.480043466214387     
 -0.229473224657223     
 -0.699095441901572     
  3.627308000961510E-002
  0.192327854691493     
 -0.343827169516193     
  0.124444782174073     
  0.241428916186400     
 -0.491206239136204     
 -0.120076909851650     
  5.479584211084592E-002
 -0.382446344660203     
 -0.161628988608642     
  7.250627211773986E-002
  0.129935859829969     
 -8.562681894819159E-003
 -0.263113616257413     
  0.172060948376409     
  0.631224445273796     
 -1.241084184702411E-003
 -7.949159947019369E-002
 -6.114390074589330E-002
  0.287056502104759     
 -4.900013920097696E-002
 -1.809441681378356E-002
 -0.239790150819245     
 -9.369274712532429E-003
 -0.181066464368223     
  9.711941813654655E-002
 -0.200780295169213     
  0.252979878167856     
 -7.390307764254672E-002
  3.458453134075322E-002
  0.340796667652817     
 -0.149557643602720     
  0.130511355577734     
   1.35822507984968     
 -4.018751374262947E-002
   2.08523586443914     
 -0.777618637036392     
  0.592829439447580     
 -0.651999392016896     
 -0.330852118658224     
  0.597065184964330     
 -0.363624673146596     
 -0.805592092744155     
 -0.551535798899174     
 -0.599823539770351     
   1.06953286279718     
  0.283449933808544     
 -0.883462239433045     
 -0.138477842710073     
 -0.360322744652175     
 -3.901284219472502E-002
   1.59081174010634     
 -0.560156791862793     
  0.180278846652499     
 -0.709042739032958     
 -0.794734582353234     
  0.930951873189383     
  0.105065513704932     
 -0.100776463544525     
  0.845667825897881     
  0.247892381039150     
 -0.321939516583480     
 -7.855166994701218E-002
  0.674563592854644     
 -0.232520788584024     
  7.129022214682000E-002
 -0.513143663213145     
  0.183549414479108     
   1.30913908026712     
  0.249523040967753     
   1.26278584921166     
  0.456714980893555     
 -0.225463721768330     
  0.393715280798036     
  0.190610289351365     
  0.806263205354083     
 -0.134634557985118     
 -0.135907073555345     
 -0.229590090470457     
 -0.294275239374293     
  0.457694563528935     
  -1.98574215048177     
 -0.426802776892907     
  0.441882481595664     
  0.510281679864603     
  0.327806209858331     
  5.591924657788516E-002
  0.271321439167937     
 -8.468369370411337E-002
  0.302769494888678     
 -0.369143956182569     
 -0.360205160025586     
 -5.220837526660695E-002
  4.343521803999955E-002
 -0.147445541542965     
  0.289208109579673     
 -0.155159160495271     
  6.024932071746348E-002
 -1.470668322640175E-002
  0.258740601416322     
 -0.267898868966974     
  0.445677109316471     
 -0.143685152730527     
  9.876896300942269E-002
 -0.106150468929156     
 -2.499850179255424E-003
 -6.847989669650381E-003
  0.298626139807537     
  0.420885056090933     
 -0.286904583366293     
  0.522339078825717     
  0.393371660753740     
  3.045141872732273E-002
 -8.521378152786260E-002
  2.794202069680845E-002
 -0.318462556839161     
  0.102325394440175     
 -0.136515195181330     
 -4.974425930296061E-002
 -0.219741235961831     
 -3.267928823327703E-002
  6.611486942679404E-002
  0.312919917097806     
  0.262387747349887     
 -0.181652096019657     
  0.148479926472127     
 -0.512589270890556     
  0.823355228189720     
 -0.337363364604612     
 -0.163247490471573     
  0.226935683623243     
  0.809994005738965     
 -0.628555237834649     
 -0.854868770466754     
  0.316244478153543     
 -0.427280658139971     
  0.224565544965118     
  0.128726653420307     
  0.607221190723912     
 -0.187396966544633     
  -1.33827304583718     
 -0.675992789709140     
  2.580303050567736E-002
 -3.862584262243621E-002
 -8.272297266161863E-002
  0.208888859138629     
  5.879573498001621E-002
  0.121338876515539     
  0.783931977111819     
  0.554311404198438     
 -3.783739470788125E-002
 -0.747932317630850     
 -8.228372815361483E-002
   1.15312759186810     
  0.188130526031004     
 -0.267952809299495     
   1.04271763607709     
 -0.299052328766475     
 -0.211465236889948     
  0.179557656711995     
 -0.450417883177555     
 -0.123532681407800     
  0.252225143239126     
 -9.202846808094632E-002
 -0.414216093808874     
  0.158359345579583     
  0.109251760985130     
  0.753763154548052     
 -0.168883318139114     
  0.333594867486403     
 -0.910615020494231     
  0.190581707379596     
  0.345329863877458     
  0.433359103349834     
  0.206418014313357     
  0.238435804083902     
 -5.611010963918714E-002
  0.169392676197427     
  0.643754395847322     
 -0.568152275056312     
  0.912035995461877     
  0.249815277137199     
 -0.558109987508781     
  0.626209354287193     
 -0.347695270406796     
   1.06560100480255     
  0.441154759518756     
 -0.123818167657248     
  0.182497180542531     
  0.317269581163750     
  4.375087626433324E-002
  0.151487418094715     
  0.438087963618342     
 -0.255780008724236     
  -1.07008590617437     
 -0.199236316960167     
  -1.38376854625132     
  0.225739500374040     
 -8.717267267529832E-002
 -6.015290201461515E-003
 -0.129805745335427     
  4.839741153023647E-002
  -1.02942791082432     
  0.289054305023700     
  -1.14096045373383     
 -0.298560878029633     
 -0.291987516736355     
  0.221075669673020     
 -0.211409892595916     
   1.11926191278338     
 -0.362313113137747     
 -4.526678366072424E-002
  0.138567769616621     
  0.567798950938316     
  0.107123372394055     
  0.512625713731636     
 -0.570912468563270     
  9.521972876029161E-002
  0.609430208789151     
 -0.326002423209536     
   1.62380173517513     
  0.350660920621448     
  -1.03866159522741     
  0.564424350647427     
 -0.198793377384013     
 -0.166469943962774     
  0.610504914696195     
  0.367624897587939     
 -0.967190882446450     
 -0.344421522061504     
  0.259114960311938     
 -0.379933512075462     
  0.129171988169491     
 -1.296986064607061E-003
 -0.149716856079047     
   1.08001637854783     
 -0.181595634092364     
  0.190198528013388     
  0.307698778772791     
  0.240728042997604     
  0.213656352779434     
 -0.438718095645832     
 -0.491332813113598     
  0.904944444011962     
 -0.341293997787460     
 -0.399978076193754     
  0.107792468527978     
  0.669509370122107     
 -0.284974926402293     
 -0.238428390601367     
   1.04412111894885     
 -4.830793566431556E-002
  -1.14017423168815     
  0.163883766650807     
 -0.343041734227726     
  0.393686318962248     
 -0.546253599134302     
  0.212735629295968     
  0.679267908981497     
  1.455888339393170E-003
   1.37978856662156     
  6.416574338554640E-002
 -0.218084159713207     
  0.353288968325940     
 -0.387751077473726     
  4.881065785536077E-002
  0.268547753267707     
  0.653123425702965     
  0.306534277349148     
 -0.673144673552070     
 -0.335167750727261     
 -0.416840785495276     
  0.433755453419675     
  0.511926741128649     
 -0.130076841133660     
  0.810591682067299     
  0.457804517389439     
 -0.761100301098474     
   1.01314903433678     
 -8.115748082395283E-002
 -0.576260727259068     
  0.280544792089534     
  1.627102210741223E-002
 -0.221712082124334     
 -5.596287895562930E-003
  0.462180776210769     
  0.633483806180428     
 -0.520527249355778     
 -0.102724249622447     
 -0.107265835257464     
  0.138334247536755     
 -0.247732780488573     
 -4.031888937578815E-002
  4.122901397253861E-002
  0.175887303439423     
 -0.546673017360411     
   1.08948957914609     
 -0.216271054930472     
 -0.901649900304894     
  0.701175772435136     
 -0.325877199713311     
  0.129104274964593     
 -0.558862677105854     
  0.682718142729283     
 -0.958092615499651     
 -0.274212759520831     
  0.223396498895013     
  1.021774072623173E-002
  -1.07837056012977     
   1.41053963938070     
  5.300725894516974E-002
  2.574301596931357E-002
 -0.518304079999215     
 -0.280539638453820     
  0.554332202825599     
  0.262461304684986     
 -0.376694272553444     
 -0.256017044267713     
 -0.922592124503380     
  0.603166776372696     
 -0.457845752957569     
   1.07545653383882     
 -0.554061355642131     
  0.699142149892194     
  0.298600081030859     
 -0.295191997670755     
  0.117387770982735     
  1.234567022085012E-002
  8.390495372698807E-002
 -0.724111195728173     
  9.626562063611289E-002
  0.122031592198816     
 -0.756260099897850     
  0.298553508939872     
 -3.640180464218903E-002
  0.779722459307061     
  0.183927737851316     
  0.284225813265446     
 -0.314706488773537     
  8.017606653481135E-002
  0.523189160204907     
 -0.217519677633337     
 -0.228156538667035     
  7.051822865636176E-002
  0.382377007061390     
 -0.559435110216121     
 -0.120200798165811     
 -8.042167696053605E-002
  0.541467649575515     
 -0.269276125787613     
  0.272687736852739     
 -0.495964236347627     
  0.663988214742772     
 -9.643340333659897E-002
 -0.602273976215498     
  8.517079975999195E-002
 -0.419291229908183     
  0.192680603834010     
 -2.403018458234979E-003
  3.764989247801957E-002
  0.303106688473233     
  0.192640979078146     
  0.624978125023632     
 -4.293178320095474E-002
 -0.169443971112203     
 -8.203300220720158E-002
 -0.207634938315870     
 
 -6.761613921298266E-002
 -0.432988947928186     
  -1.01714148734426     
   1.26619219332875     
  0.361614936440677     
  0.619916853272025     
 -0.645408748923100     
  0.288499221830059     
 -0.768518054826615     
   1.35355964363879     
  -1.90538030822966     
 -0.314671577408066     
 -0.356434096449979     
 -0.820595010365803     
 -0.377178456489011     
  -1.03998496173019     
  0.367196839871513     
 -0.784506182096142     
  0.345288185469188     
  0.432686349503236     
 -0.412429277438164     
 -0.612889598469947     
  0.759035844177107     
 -0.189700470407044     
 -0.539509388021001     
 -7.943758731267211E-002
  -1.35025993156543     
 -0.157631110300554     
 -0.463836591620748     
  0.297323868116489     
 
  0.404495509545698     
 -0.158942094478386     
  0.100309148656495     
  0.202641694758229     
  0.710864133573794     
  0.104303307297609     
 -0.118598154642483     
 -0.424522672573253     
  5.951813629801993E-003
 -0.777200667988186     
 -0.235024397323236     
 -0.360859748012378     
 -0.758659201731066     
 -3.299091312468420E-002
 -0.178205709366071     
 -0.595902867933126     
  0.365590686388245     
 -0.275873325485557     
  0.478161231659469     
  0.146613139699763     
  0.129879603448088     
  0.741105006544600     
  0.833444614450081     
 -6.137596949343516E-002
 -3.014270799503674E-002
 -0.498284545246888     
 -0.299177093616395     
  9.089097036003937E-002
 -0.168631163240734     
  5.733926744819614E-003
 -0.135162768333871     
 -4.085420649057773E-002
 -8.508493866646918E-002
 -0.423217018089388     
  0.210111035860003     
  0.277759278952543     
  5.774211231680177E-002
 -3.846500044680592E-002
 -0.757026627943115     
 -0.587245298226061     
  6.239289596348323E-002
 -0.596268211070927     
 -0.548648206956854     
  0.394085929176494     
 -0.246901917974685     
 -0.210055417483051     
  2.583536330541012E-002
  5.574434728084311E-002
  0.232055600431843     
 -4.332193610958381E-002
  0.294611978736932     
  0.255948943700566     
  0.237793692935498     
 -0.226950553337148     
  0.876984609953147     
 -1.327980126423813E-002
  0.803350977278011     
  0.293413821207832     
 -0.205098006053294     
 -0.402700364520357     
  0.686019185304145     
  0.446782547128864     
  0.455480109783228     
 -1.434884759222982E-002
 -0.322755121690374     
  0.133100830285238     
 -0.763560198220178     
 -0.394217877595045     
 -0.164657049804917     
 -0.466809125363506     
 -0.860960129013772     
   1.29296985023759     
  0.665947549376606     
 -0.153671162076435     
 -0.465392286005973     
 -0.605969987990944     
  0.274828365850435     
  0.334525064019687     
  5.996209437877609E-002
 -0.915095074283172     
  0.516548756499296     
 -0.140207933198367     
  0.180681482361483     
 -0.965083580834248     
 -0.275633460599071     
 -0.438731855551815     
 -0.185970606903029     
 -0.469535806571422     
 -0.424360637192497     
  0.369909214975674     
  0.440774004377026     
 -0.190138433128016     
  0.267480167320707     
  0.497050824832305     
  0.155871896193461     
 -0.298948293440267     
  0.197331871281168     
 -9.982344172022439E-002
  0.716050696239378     
  0.515421006401253     
  0.757471160375486     
  0.424056188962457     
  0.324012903960149     
 -0.449414766713752     
  0.549735906213393     
  0.626632682575140     
 -0.565717482100881     
 -0.410027610930061     
 -0.492710245313726     
  0.150460684904633     
  0.135091109558921     
 -0.347568728920060     
  0.427258507733208     
 -0.173195318216733     
 -8.011094226197818E-002
  0.402382619254034     
 -0.383552106375596     
  0.166235657747205     
  6.758044972603265E-002
  0.380219000052614     
 -0.218074248944218     
  0.759758118620187     
   1.13823159231072     
 -4.918925198488346E-002
  0.351877974646901     
  4.967037878855123E-002
 -0.448782524716943     
 -0.528500713050014     
 -0.457459277771643     
 -2.474235081534750E-002
  9.641727094298540E-002
 -0.906115540863087     
 -0.669996996401289     
  2.552303154270046E-002
  0.305239630074431     
  0.625988493772505     
  0.293543152906032     
  -1.12095096122542     
 -0.154223271761916     
  7.175929925390587E-002
 -0.517212136929165     
  0.340708177123262     
  0.386980002518800     
 -4.490040694598793E-002
 -0.672441104306553     
  0.599665451986868     
 -0.308755054816284     
  0.279319110569891     
  0.350892252432014     
   1.12608667179653     
 -0.267192654597237     
 -0.817826434454007     
 -0.655485470086635     
 -5.729856549807399E-002
  0.248951451594357     
  0.486647060050813     
  0.416401359707067     
  0.246756098970782     
  0.206830538022261     
 -0.479839079219854     
  0.541091825838891     
 -0.442419209666365     
  0.321031904922771     
 -0.764130979008475     
  0.570423883095382     
 -0.975205154219112     
  0.884013159494029     
 -0.427342747548226     
  6.452125668624813E-002
 -0.700974991182129     
 -7.586830137857131E-002
 -0.386655339628505     
 -1.540268460095273E-002
  -1.59573022181246     
  0.283898377377769     
  1.061727234784787E-002
  6.534550041742690E-002
 -0.251483373139263     
 -0.402237041103993     
 -0.626312401090677     
 -0.153837796882573     
  -1.00359816408338     
 -0.443719575975402     
  0.191664834152600     
 -0.214591324999271     
 -0.340307665234429     
 -0.939334009037591     
  0.464924467797160     
  0.123148561767144     
 -0.405088836813052     
 -6.661683714267871E-003
 -0.119362904631085     
   1.86338642771830     
  0.338795397082285     
 -0.205753067284322     
 -0.908680922848944     
   1.71861785963546     
  0.146412801132865     
 -1.331736792979424E-002
  0.342842632172184     
 -6.795357495357270E-002
  0.974406846363852     
  0.161977052858017     
  3.268336979854146E-002
  -1.47656923703601     
   1.25326885616646     
  0.361318869294696     
   1.11746286699862     
 -0.553312523537899     
 -0.339409495860846     
 -0.600906517219155     
  0.955486410696905     
 -0.175726168382754     
   1.09315548861339     
  0.443242945552537     
 -7.255728957362144E-003
 -0.373893803715933     
  0.522609543623348     
 -0.285148771112037     
  0.225439007656655     
 -0.680485267359780     
  0.648830937165555     
  0.644128326301633     
 -0.158274390489970     
  -1.03617731715598     
  0.587115134504558     
 -0.619071274295753     
 -0.332042918431811     
  0.648145444707416     
  -1.37452838230525     
  0.186776273233558     
  2.591907010819578E-002
 -0.243936429042765     
 -5.506906770808417E-002
  0.481684905643835     
 -0.141326600067704     
  0.118318020107932     
 -0.166148750790163     
 -0.168116229023064     
 -0.795339878399981     
 -5.423005069160776E-002
  0.313380807644404     
 -0.345415380638558     
  0.932295608407408     
 -0.499897389402068     
 -0.147103702709023     
 -0.310513385358332     
 -9.202664138120671E-002
  0.752232266630509     
  0.177548319554456     
  0.220815865070163     
 -0.907083582848096     
  0.368732876242636     
 -0.351525973096211     
  7.986412990097128E-002
 -0.777708482002100     
  0.521852300887908     
  0.159931852709546     
  0.281966774976811     
  0.147587777095402     
 -1.586045812641769E-002
 -1.836808957947478E-002
 -0.321788062632480     
 -0.187312221539592     
  -1.57808517859485     
 -0.290966212652124     
 -0.603344540852630     
  0.215618461041055     
  0.370667550993388     
   1.30720141598850     
 -0.646090203500934     
 -0.900375795524266     
 -0.116698405440277     
   1.03737505724832     
  -1.05703813567384     
  0.622210946555591     
  -1.03542615634230     
  0.279558807503245     
  -1.58368480568557     
  0.160557717453062     
 -0.568117533902469     
   1.63394189147984     
 -0.809254337657299     
 -0.676806750024538     
  0.243726114301082     
  0.978938138796866     
  0.556761630711664     
  -1.06893317724250     
 -0.810029922159357     
  0.733470773224296     
 -0.822581036031436     
 -0.654897577002037     
  0.191642298003417     
 -6.949207145234736E-002
  0.557777743420275     
 -0.576065900522677     
  0.360013280960126     
  0.394300377186098     
  -1.48253867630365     
  0.372625049340001     
  0.768807124167822     
  0.423339376206306     
   1.07949160498828     
 -4.714799748638390E-002
 -0.199876678767940     
 -0.819496491813429     
  -2.52267212615891     
  0.540081125862334     
  0.406767832823070     
  4.315726924373289E-002
 -0.278464577029029     
  -1.70104939116396     
 -0.515404207139586     
 -0.136323100045952     
  -1.43036508322597     
 -0.223748602787710     
   1.44073627795971     
  0.867804329248732     
 -0.119687143229763     
  -1.50851560870411     
 -0.217930531959439     
 -0.576232049119947     
  0.902133381450428     
  -2.33844530326300     
 -0.681619490444911     
 -0.306843640961240     
  0.218375248184189     
 -0.207891578634763     
 -6.115624117809267E-002
  6.811767517305677E-002
  0.705184872610824     
  0.514256739792115     
  0.150509246268013     
  0.629872535840917     
 -0.460957994243904     
  1.726350067387815E-002
 -0.184951120822617     
 -3.759597837670890E-002
 -0.478269822876658     
  4.213834773577970E-002
 -0.290781134545804     
  0.917249280024047     
 -0.376669138102053     
 -0.222804536678812     
  0.689730908780408     
  4.763286874851179E-002
 -0.262748915045945     
 -0.211494935362603     
 -0.128983871121638     
 -0.287367017473790     
  0.264516119780388     
 -8.612371371578408E-002
 -9.636881119051162E-002
  0.245751097995980     
  0.602213133650697     
 -9.605439648382751E-002
 -6.099590930582933E-002
  0.187981473657234     
 -9.320472179228942E-003
 -2.237838456374259E-005
  0.858161052554650     
 -0.973767251352176     
  -1.35085078251969     
  0.537881446461883     
  0.199073170797918     
  0.620784873652103     
  0.952749443081267     
   1.46542500926075     
   1.06423748408770     
 -0.776800314429625     
  3.221953423127614E-002
 -0.913476981778806     
 -0.553121210117103     
  0.888047986028106     
 -0.792601238108218     
 -0.168105066059456     
  0.298175180671742     
 -0.385623904385568     
  0.175547011237131     
   1.22688720670818     
 -0.717793479076710     
  0.936042545010972     
 -0.538987348633203     
 -0.440695278095122     
 -0.656752918114991     
 -0.138013025728519     
 -5.821278241705830E-002
  0.676749283271538     
 -0.351254985145318     
 -1.184122072431504E-003
  0.523718838620453     
  0.136209424612863     
 -0.511458687808751     
 -0.258954921993615     
  0.536031137451330     
  0.262616905296726     
 -0.527790046728999     
  0.704892160102340     
  0.447577547814467     
 -3.185152319524091E-002
 -5.263738410938579E-004
 -3.775812440772693E-002
 -0.877223009494158     
 -0.589031796460414     
  0.446486672186664     
  0.734143478909158     
 -0.850835724136701     
  9.640622665761581E-002
  -1.32103646587007     
 -6.595235226144175E-002
  -1.05549493380121     
 -0.766383161873878     
  0.421140481522488     
  0.941300684901390     
 -0.153226554232458     
  0.864440318311985     
  0.636510261000759     
 -0.178191215227022     
  0.572138479688851     
  0.145747226281042     
 -0.152646693412217     
  0.260306625685991     
  0.596475816163445     
  0.149628103193044     
  0.316715404546653     
  0.272848714617250     
  2.384936619154095E-002
 -0.498479733965492     
  0.246818829476448     
  0.406467794750243     
 -0.533127130772414     
  -1.14590558340759     
  5.233624241414137E-002
  6.782012506809096E-002
  0.457881319308817     
  0.176160921796846     
 -0.310475715094024     
  6.993449251950018E-002
 -0.308486927383033     
  6.568868184903690E-004
  0.145776045163805     
  0.283191746407268     
 -9.734066778401662E-003
  0.306932940721953     
 -0.758477637152057     
  0.201517248146147     
 -0.708181126782765     
 -0.278257503525666     
  0.173998743995149     
  0.728417581141483     
 -0.513473414273643     
 -0.164786809935624     
 -0.143710341984871     
 -0.207478053414053     
  0.643902704543516     
  0.166939964894703     
  0.673605306146508     
 -0.396648962721062     
  1.384267614851728E-002
 -0.156819342320257     
 -0.758230613800177     
  0.623793672888986     
  0.305426117746848     
  0.187115141027932     
  0.688328907299301     
 -0.261833515739323     
 -0.168012421615345     
  9.810723251371951E-002
  0.127665320770449     
  0.166560112276413     
  -1.08189110338176     
 -0.280127481444413     
  0.441625913725263     
  0.152288634454662     
  0.581074418790933     
  0.297777691019304     
 -0.363480506919269     
 -0.425101939307007     
  4.899008148566885E-002
 -0.707159177513433     
 -0.570683970231865     
 -0.337359667723296     
 -0.426758902641061     
   1.14534683896797     
  0.178822167872019     
 -0.467080835647225     
 -0.989376983441804     
 -0.705151302568857     
 -0.128064047339396     
   1.22584473186472     
 -3.873816986423767E-002
 -0.415922752557605     
  0.305537133117026     
 -0.358050936305310     
  -1.15564799768906     
 -4.058967113416782E-002
 -0.533614370577258     
  0.600523204881882     
 -0.460421170694314     
  0.632235295877925     
 -0.312048088223993     
  0.398446723015884     
 -0.849143311647941     
   1.33723150259667     
  0.878051416992613     
   1.15922325750449     
  0.133523719875469     
   1.13397630468585     
  -1.35059041891327     
 -0.967747914879300     
  -1.05743733864138     
 -0.695967220065532     
 -0.233628715998571     
 -4.315927481130367E-002
   2.19309936915291     
 -0.242854085312631     
  0.617444910051660     
  0.921418334197737     
 -0.223001145345541     
 -0.588209875325245     
  0.246155871177012     
 -0.203531104417199     
 -0.156211332439241     
  0.628584967653448     
 -0.723449369579977     
 -0.823281992347871     
 -0.617644585380840     
   1.50073811282752     
 -0.129699540105407     
 -0.219623003587520     
  0.120018370435306     
 -0.211622095384092     
  3.509499749012156E-002
 -0.579636015516640     
   1.24270075659599     
  0.926569142936643     
  0.115134129255637     
  -1.05955001812318     
 -0.818492586625825     
 -0.956335771136704     
 -8.607119935168973E-002
  0.132070998017692     
 -0.246298532578931     
   1.26008234872639     
  -1.04091197441477     
  0.242971130673103     
 -0.250251428047760     
 -0.286508690593059     
  0.827979550407987     
   1.42110890706439     
 -0.412120298248029     
  0.247187714572122     
 -0.878775060671483     
  0.706319143919821     
  0.139446241921420     
  0.800520300654751     
 -0.747175630362417     
  0.333071479158851     
 -0.209352749945330     
  0.188597297609732     
  0.480095028409089     
  0.600167209418761     
 -0.744914738707021     
  0.517139179831066     
 -0.481511488958147     
 -0.327893540611993     
 -4.850108760020445E-003
 -0.834781451937472     
  0.809677463534870     
 -0.326872406011584     
 -0.433100242049659     
  5.843259606298275E-002
  0.295630168048055     
 -0.172179455928547     
  0.887827806680818     
 -0.130633189395916     
  0.195223218300433     
  0.192842331410168     
 -0.816448811159996     
  0.218785306717793     
  1.506105773335639E-003
 -0.438638813799347     
  0.933856614445542     
  0.337647052842864     
  0.289618044824569     
 -0.468676988491890     
 -0.764505171325759     
   1.19488151465379     
  0.287186455888310     
 -0.770102388312868     
  0.215355831985281     
  9.120768114213867E-002
  0.572702706610570     
  0.300587171645530     
 -0.109823188838844     
  0.107230821334236     
  0.128367685733559     
 -0.385638561098290     
 -0.483169858078991     
  -1.04689810334380     
 -0.198246713342139     
 -0.189158274541079     
  -1.57266111279777     
  0.364251498151330     
  -1.41120132118491     
 -6.511515373846527E-002
 -0.405024731744823     
  0.553964904394062     
 -0.800940829410834     
  -1.19060447785813     
  0.561227391167276     
  0.131945068971478     
  0.468757571458641     
  2.824315977790787E-002
  0.845574432630773     
 -0.634421757114270     
 -0.280456413862927     
  0.220961307466568     
  0.907321042946171     
  0.160727271280060     
 -4.688717118093136E-002
  0.505961602257993     
 -9.709203390282874E-002
  -1.24207319290426     
  1.347614000616513E-002
 -0.188299470463219     
  0.323242356085085     
 -0.701604322881993     
  0.491883229049687     
 -0.597419021399908     
  -1.15989002959194     
  8.663155856351630E-002
  0.248044020308846     
  0.689586405748767     
 -0.455338753843187     
  0.469729304997190     
  0.259703321680404     
  9.757775322880957E-002
  -1.60279376582822     
 -0.277615142609506     
   1.23980875997341     
  -1.61854934586650     
  0.904569091448044     
 -0.233427824886970     
  0.231919405057550     
  0.876315925183675     
  6.196222527696821E-002
  0.633244113810310     
  0.113645491467124     
 -0.342075169044762     
   1.09266731409263     
  0.168409472809285     
 -3.519413743394573E-002
  0.180312192925944     
 -0.766290718102044     
 -0.192232621645546     
   1.49406379752851     
 -0.213869881363720     
 -0.178754136364341     
 -2.016891298083205E-002
  0.770211559056647     
   1.27517822019504     
  0.368459966150401     
  0.773285640128847     
 -0.160152320386332     
 -0.120653134180534     
  0.102316794731911     
 -7.535409617008115E-003
  8.516389130180513E-002
  0.505260728078939     
 -0.193245024914113     
  0.810242053143843     
  0.139698407462630     
 -0.174823559280981     
  5.296230736834576E-002
  0.354097297629927     
  0.314847788036631     
 -5.207231302814193E-002
 -0.307695700564225     
  4.642915945517571E-002
  0.237110473462070     
  0.230139936381483     
 -0.624088719055346     
  0.432679312392358     
  0.372011895831181     
  0.703486237646679     
  0.758736396251861     
  8.832470710101091E-002
  0.294914277679817     
 -0.703481426963901     
 -0.354463323064235     
 -0.373531284045218     
  0.345783818680616     
 -0.322991713773936     
 -0.366889556585062     
  -1.00707167054617     
 -0.631346024243373     
  0.212813813536509     
  0.322334458343722     
 -0.595515255896019     
 -0.690401006328414     
  -1.70725261960691     
  0.133521422357649     
 -5.352691271994769E-002
 -0.209459428511598     
  0.607502169738880     
 -0.813840292443688     
 -9.119700343343497E-003
  0.437617748769776     
 -0.696202288265852     
 -0.259997416370291     
  0.353899660396971     
  0.119430642374663     
 -0.445590567895166     
  0.627691168873422     
  0.561858681641832     
  0.143921145102916     
  6.153864195654260E-002
  0.748623996328550     
 -0.362189549756490     
   1.79899148411980     
 -0.282396027434696     
 -8.734850896974107E-002
  0.489049354748380     
 -1.466292710478191E-002
  0.231274370235066     
 -0.567575021115623     
 -0.627527381006942     
  0.368478120270526     
  0.756003991468401     
 -0.577809827804713     
  0.531515258221069     
 -0.810825500092804     
 -0.538624601231158     
  0.892783571461806     
 -0.625216410341538     
 -0.436793938122812     
  0.718085315314896     
  0.142602180909416     
   1.26939901052773     
  9.993312817100071E-002
 -0.975759467607655     
  0.639762610089591     
  0.570171614638843     
  0.438444183370214     
 -0.133508704618531     
 -0.747183322952149     
 -0.349183511862508     
 -0.668698571582167     
  -1.41397349771000     
 -0.417080776360683     
 -0.245398528744056     
 -7.106498719007229E-002
  0.283373822978960     
  0.208068833399594     
  0.222192537005397     
 -0.297735407691506     
  0.184085747239879     
 -0.205742742199612     
 -0.226798802363667     
  0.770984642606533     
 -0.288117981814535     
 -0.179686332203917     
  1.218156897937371E-002
  0.374695574435526     
 -0.337757598085230     
  0.437094379717693     
  0.268699584233025     
  7.226120754864350E-002
 -0.182301560693746     
 -0.724426913210193     
 -0.193877876787948     
  0.296060950698457     
 -1.834031449807658E-002
 -0.824065162781847     
 -0.390610859487688     
 -0.168653043916583     
 -0.112590513444098     
 -0.136556113909340     
  0.572709564023344     
 -1.591414457647027E-003
  0.552953127569216     
  0.141605327094355     
  0.486902818518431     
  8.411487975871965E-002
 -0.291413603771547     
  0.106986193374771     
 -0.735242501098438     
  0.323726480433577     
  3.344295801958806E-002
   1.62763643293213     
  -2.15827783628216     
  0.557077858261122     
  0.342169554199958     
 -7.868943235980855E-002
 -0.419750702726950     
  0.623092020949025     
   1.29304908780486     
  0.230634628423363     
 -0.535736454243696     
  0.119770695054556     
  2.535423818964880E-002
   1.87389018232447     
 -5.790565531078223E-002
 -0.190273424742880     
  0.395108617661534     
  0.145551279051564     
  0.199028444037891     
  0.320842700882220     
   1.02002074653211     
 -0.697289742485691     
 -0.620037538475002     
 -0.761526513771667     
 -0.299809270190638     
 -0.597381370437232     
 -1.439086523652883E-002
   1.40329145354305     
 -0.213399766587892     
 -0.514773776092798     
 -0.906737437787683     
  5.688423794102630E-002
 -0.238552160857771     
 -6.038540777801603E-002
 -4.966723451887643E-002
 -0.297114863351848     
 -3.944053136547612E-002
  6.033346041202548E-002
  0.394902517320353     
  0.169961924466521     
  0.755385140088917     
 -0.511157820708305     
  0.841759849491153     
 -0.508783192765268     
  0.421973373668108     
  5.580043967142015E-002
  0.952660754529451     
  -1.17408385326378     
 -0.832018206495085     
  0.579179033013099     
  9.364723374090307E-002
  -1.65857680528722     
  0.612939986790713     
 -0.879274059852049     
   1.46059042838190     
  0.408582305396442     
 -0.956313717655797     
 -0.463954807139624     
   1.07169604200297     
  0.143030416816141     
  4.482454960941218E-002
 -0.563579761225920     
  0.193540552819816     
  0.156863304585632     
  2.793492627035148E-002
 -0.737625155194191     
 -1.080465934036155E-002
  -1.17170717537704     
 -0.909424547587405     
  0.789013382423241     
  -1.98099820257611     
   1.39301320491085     
 -0.419450406663424     
 -0.189463150956891     
  0.718473341452255     
   1.06736287009793     
 -7.703227578597741E-002
  0.347638107381502     
  3.916260181486637E-002
 -0.525182663964623     
  0.589302749392415     
  0.936898907456677     
 -4.368395912027706E-002
  0.585091393479194     
 -0.229064508462088     
 -0.467192599608595     
 -3.750508173992191E-002
  0.537691106788006     
 -0.402439640740369     
 -0.845301886689034     
 -0.514231688735846     
 -0.835234006117493     
   1.33538572704210     
  0.340731078388436     
 -8.085217605749992E-002
   1.23613551346632     
  0.609329831664657     
 -0.159709332665098     
 -0.578589758696192     
 -2.617935039190014E-002
 -0.199417926718854     
  0.101402932002652     
 -1.287964071957117E-002
 -0.375666918575661     
  -1.12523259818764     
   1.67875710300035     
  0.105373482808042     
  4.046611757354011E-002
 -0.349396225773104     
  0.284224384813462     
  -1.43659005235074     
 
 -8.775572357349645E-002
  0.387108682780588     
  0.980661826990634     
  0.464841963409367     
  0.191524545610130     
  0.530761037100135     
 -0.797349024868633     
 -7.368726926547949E-003
 -0.133398467444600     
  0.678703757484168     
  0.336508259666794     
  0.779674641232779     
  0.611263592614167     
  9.681779384051185E-002
  0.124790691616395     
 -0.948604248403541     
 -3.228062715613899E-002
  0.539413995124436     
  0.334958896034821     
  0.326777254224890     
 -0.158105517426942     
   1.32569222819100     
 -0.686819504587081     
 -0.335123367894444     
 -0.482744535190766     
 -9.356741731875004E-002
   1.08639574664831     
  3.557076970909705E-002
 -0.368509612182540     
  0.495735942473750     
 
 -2.546407908284268E-003
  0.185903397935061     
 -3.976423726388165E-002
  0.282498366908535     
  9.298117060568029E-002
 -7.139996202351284E-002
  0.103389628649009     
 -5.440862618592349E-002
  0.175256138274051     
 -1.818702021644378E-002
  4.523840711366349E-002
 -0.400404173668337     
 -4.876011127566764E-002
  1.901893442725264E-002
 -9.535367400208783E-002
 -0.161866288132491     
  3.579582212280000E-002
 -2.429886795507029E-002
 -1.970506204229568E-004
  0.157087913932559     
  0.769438842053709     
  8.358848899929183E-002
  3.723464178174762E-002
 -3.099117671705377E-002
 -2.245351842963968E-002
  0.362676458776666     
  0.372992682174636     
  3.458562059730289E-003
 -6.133932618770502E-002
  0.173784576558537     
 
 -5.099142396373572E-002
 
  tansig  tansig 
