     48 -    30 -    30 -     1 
rmse=  55.9416meV
  0.571275327260150     
  0.368800361099284     
  0.378559649638594     
  -1.23577104580155     
  -1.51959871729153     
  0.126597520224689     
  0.296502531899481     
  -2.97406835741145     
   2.16730565612036     
  -1.84575167170358     
   2.77864824548372     
 -0.167485094319194     
   3.38411386302589     
   1.11358791991664     
 -0.159463748722658     
 -0.903964572311997     
  0.525639474062730     
 -0.275124872460822     
 -0.130474435764485     
  6.927293962447345E-002
   1.46438011842794     
  -1.94280087474576     
 -0.846221369986952     
  0.259461175720219     
 -0.241565798251641     
  -1.35185241014052     
 -6.096273992338852E-002
  -1.27340033207890     
  0.339291383596545     
   2.04563323933216     
 -0.797799046157525     
   1.70414571378971     
 -0.130734170304747     
   1.54993873922069     
   2.35243387771688     
   1.52409592180034     
   1.15721961668674     
  0.693034880878544     
   1.92575302559814     
 -0.813039640771825     
 -0.324462779481087     
  0.913103952767038     
  0.784355799823267     
  -2.28060296640877     
  -2.62428673498008     
  -2.25823433964799     
   2.20343962954299     
 -0.468237465258033     
  0.742612436205270     
  9.667026828942223E-003
  -1.30059855894257     
   1.37969272404600     
 -0.174398066277438     
  0.869336363777846     
  0.450637768288808     
 -0.400794487525997     
   1.35175935599265     
   1.05662588539011     
  9.991698181931365E-002
  0.314209940160927     
 -0.162472391074075     
  0.696779328699886     
 -0.143931005380079     
  0.994125412745241     
  0.670366861876750     
  0.550338837722626     
 -0.862753844795677     
  -1.06520889856822     
  0.621083628448062     
 -0.173210355660733     
 -0.871222586147130     
  3.497051034802590E-002
  0.168777264656109     
  0.485608586083865     
 -0.770968630030999     
  0.257450080438393     
  7.822478576800054E-002
 -0.216278987741763     
 -0.322211346534874     
  0.453854892514597     
 -1.352103241506246E-002
  -1.61380474034438     
  0.119209095185858     
 -0.453185672041403     
  0.602200481498188     
 -0.435704526001944     
   1.26035421631277     
 -0.501356237506632     
 -0.196296289411047     
 -0.684438237676538     
 -0.229812449948234     
  0.474435455810073     
 -0.118962708945036     
 -0.141768282541122     
  0.173145000985674     
  4.079338088786036E-002
  0.569456858566492     
  0.391679158288351     
  5.118660948554704E-005
  0.294253267671163     
  -1.59601207430281     
 -0.480712241124624     
  0.174282907230223     
   1.44988005702913     
  0.241013439474252     
 -0.469363647050996     
  -1.02050379146561     
  -1.24801672328040     
 -0.110518234194557     
 -0.285953836283736     
  -1.87423510240282     
 -0.240420715052380     
  0.536409608873410     
 -1.487714982745934E-002
  0.317838727569624     
 -0.423099840798275     
  7.331666752151116E-004
  0.854424137927397     
 -0.865177393375855     
  0.166475094966857     
   1.18511056875913     
   2.09553370078633     
  -2.46591903540693     
 -0.730116485496117     
 -0.658033871481913     
  -1.52073002049146     
  -1.92881811638177     
 -0.391115376635150     
 -0.239718614036810     
  -1.45609584912862     
  -1.15560223296732     
  -2.06382646835965     
   1.55334829046173     
  0.825312894428842     
   1.22016937452537     
  0.158085848405493     
   1.04146421312554     
 -0.822638704444126     
   1.37592241019185     
  0.934594509368731     
  0.518300996151988     
  0.437541410741726     
   1.54799895152014     
  0.571153607334025     
   1.13588179865520     
  0.527614975463163     
  8.119777579750492E-003
  0.139629777514915     
  -2.20807200540786     
  -1.09782569459017     
 -0.367263590804860     
  -2.95593940067196     
  0.903545966589687     
  -2.33008917678001     
  -1.69586064328298     
 -0.499943419788930     
 -0.695644131588543     
  0.556344169281393     
  1.493379321950238E-002
 -9.624233220259393E-002
   1.08141308219155     
  0.272325682873358     
 -0.958940895130062     
 -0.853828737944845     
  0.231792057031807     
  0.247347741459610     
  -1.10514353492602     
   1.42447580983268     
 -4.354170844903594E-002
   1.85329954773118     
 -0.843037630689360     
   1.92937225010944     
 -0.210512748859566     
  -1.45274462849718     
  -1.31638627183406     
  0.177069226417051     
   1.00893828084776     
 -0.168464961359353     
 -0.317359677496055     
  0.481576469769854     
  0.207498110058112     
 -0.463236996855077     
   2.86084216604632     
  -1.13941242121465     
  0.979694343653063     
   2.02117423050737     
 -0.364690965066372     
  3.224137268988716E-002
 -0.581852889247656     
   2.46806400957473     
   1.68518048693343     
 -0.153121565534805     
  0.184852054354025     
 -1.517134031706007E-002
  6.345401026425007E-002
  5.681479074287959E-002
  3.395060669580122E-002
 -0.616111263278386     
 -0.416434818682468     
  -1.54489287287575     
 -0.192678721790163     
  0.258669849389597     
 -3.314063940402921E-002
  0.867255603268725     
  7.088210796602351E-002
  0.814952131114621     
   1.41859802615786     
  -1.62447541699524     
 -4.389131466881332E-002
 -0.152938282239308     
 -0.689534133482895     
  0.154737982928477     
  0.760651384624037     
  0.542287659474407     
  0.633476116130703     
   1.61345572834297     
  -1.47506509865077     
   1.83434402733668     
   1.07696892886645     
  -1.27957798389231     
  0.642666938813825     
  0.797651570848252     
 -0.327659045396341     
  -1.10949805199361     
 -0.233077075908994     
  0.603652036296849     
 -0.941908958495456     
  0.194323012143819     
  0.144059154980342     
 -0.317953005371829     
  0.817357618745216     
  -2.62212970661129     
 -0.374055781679173     
 -6.808994256691073E-002
  0.143894557635402     
 -0.248610564950558     
 -0.514963982368352     
  -1.73736545478074     
   1.51181002183069     
  0.108157250011627     
 -0.788362572001266     
  0.127716931363847     
  0.817446153212569     
  0.507684031226819     
  4.127292069782364E-002
 -0.488491301566105     
 -0.354993894730932     
   1.16919523540565     
 -3.177011568521292E-002
  8.642849341494852E-002
  0.208534378189346     
  0.537080071568301     
  -2.88709062384268     
 -0.641096262079511     
  -3.31437635952785     
  -1.25246365864264     
  0.183809070175785     
  0.148382561303367     
 -0.681485188082802     
 -0.391701621419641     
 -0.548750913609109     
 -0.281883386025970     
 -0.301809957043522     
  0.575664769731092     
  -1.14159795444022     
 -0.916821570176502     
  0.507254906016512     
   1.21907887051463     
 -0.831404813489631     
  -1.78743932931662     
  -1.38548597494318     
  -1.61992998326234     
  0.374125825440807     
  0.205788041948078     
 -0.191061942968973     
  0.172682921878005     
  0.378732178663414     
   1.63676028817779     
 -0.387914707898393     
  0.540572458425738     
 -0.522869710862330     
  0.282400228573385     
 -0.580129847225072     
   1.01314819644938     
   2.13341234567462     
  0.476239989389728     
   1.59690321967680     
   1.83013651315034     
  -1.13099629198992     
 -0.584547976026634     
 -9.211378510396651E-002
  0.526969330827052     
  -1.00840917374364     
  0.129050914544433     
   2.35776559808840     
  0.309113808011334     
 -0.554363843068324     
 -0.722093106447848     
  -1.23187684274110     
  0.236951958025278     
  7.469502412835198E-002
  -1.79470820747045     
 -0.821759090815401     
 -0.405940269309217     
  -1.11982288430342     
 -0.399520235614488     
 -0.621837623090507     
  0.293152048526360     
 -0.295403202940821     
  -2.13544233135161     
  0.333787244530765     
   1.47750860616293     
   1.16724774358797     
 -4.912911587884931E-002
  0.699896347654489     
 -0.885538472743055     
   1.09111540185790     
   1.28526141901014     
  0.308031756170896     
 -0.994579834171392     
 -0.342057809481477     
 -0.829283890607803     
  1.356536344989930E-002
   1.05302803302792     
  0.166229683523656     
 -2.957344628629368E-002
  0.259097789539924     
  -1.00446348938499     
   1.12712568358761     
 -0.703619428173807     
 -0.165493781219151     
  -1.90824780821666     
  4.378870898351636E-003
 -0.126041455420250     
  0.389695967841675     
  0.391221026616417     
 -8.429314103168625E-002
 -0.491586835901717     
 -0.274326326785868     
  0.802134527211936     
 -0.995245725081516     
  0.523116709575541     
  0.655906776953453     
 -0.431789850490507     
  0.152556188163363     
 -0.694127132793092     
  0.141964305231023     
  0.400676041472492     
 -0.820898361818297     
 -0.756646545298773     
 -0.425617960626906     
  -1.04808961027372     
 -0.891171604887070     
 -8.984101957708919E-002
  9.216218770788917E-003
 -3.284243752030805E-003
  0.164393779587040     
 -0.414416681539949     
   1.99305174781248     
   1.22931947035763     
 -0.802496476478265     
  -1.46576792607749     
  0.699388834409056     
  0.743012733701324     
  0.675286527907132     
  -1.15261806387265     
   1.08905385098731     
  0.944582618585430     
 -0.448279858079995     
  -1.07579733230176     
  -1.45858633329749     
  -1.11199166578373     
  2.482376247092001E-002
   1.49736702316737     
  0.405125823174827     
 -0.122376774470289     
 -0.321196216042472     
 -3.426784561465645E-002
  0.428138511684318     
 -0.628190533596968     
  0.483400613556995     
   1.60000273626841     
 -0.604388057956538     
 -0.320237093490708     
  0.658575445978342     
  0.211606222543169     
 -0.445975705611248     
   1.04719567173932     
  -1.82707761207053     
 -0.779246066827423     
 -0.531965469597024     
  0.573106029967326     
 -0.590187653024783     
  -2.16247117253564     
   1.19387170492611     
 -0.113420552186442     
 -5.225046141202057E-002
  0.469028635385949     
 -0.181015377747289     
  -1.10535420925830     
  0.681199039993144     
  0.206857516985287     
  0.373021062044302     
  1.087708676167976E-002
  0.593085707001894     
  0.588235925516515     
   3.01933173348209     
 -0.548408373760216     
  0.765692709735957     
  0.323335868658783     
  0.157906839300860     
 -0.249914010970919     
 -0.149357613486454     
  -1.21780123878941     
  0.569777534107173     
   1.27278567737961     
  0.833573863268068     
  -2.41043169019675     
  -1.92711077184876     
  -1.51622164184834     
   1.38468141179631     
  -1.73619128010415     
 -0.642356594927898     
   1.25041133692077     
 -3.622966013516243E-002
   1.86069738831624     
  -1.30143797548934     
  -1.14594820862880     
 -5.353377245243925E-002
   2.02624089888216     
  0.472512125829175     
 -0.617195985647109     
 -8.938492023099523E-002
 -7.208899652516917E-002
  0.580877653177905     
 -0.863224446405960     
  -2.10499391255358     
   1.24822732370289     
  0.200903539059415     
 -4.519416069924158E-002
 -0.619286355050431     
 -0.934215716582454     
 -0.547450200213319     
  4.603718275326462E-002
   2.41016980984028     
  0.772552392818036     
 -0.774233310430553     
 -0.227056775614408     
  1.799188052125968E-002
  0.109881971006098     
  0.425178680351780     
  0.953023519056993     
 -0.373340366433085     
 -0.107123240993405     
  7.413924844006010E-002
  5.664228502221194E-002
 -0.143697670503974     
  0.411168387317713     
  0.669568812538139     
   2.32593693988513     
   1.96176880469981     
   1.05495980995076     
  -1.31651172006785     
  0.277100520458182     
  0.206537270607123     
  0.806905779036040     
   1.14707384351121     
  -1.66341896768648     
 -0.498775610687779     
 -0.817770381832418     
  0.390957729355309     
  0.723212436200209     
   1.40767562176374     
  0.532723074623368     
  0.429080134946369     
  -2.05741704522415     
  -1.41486029066119     
  0.534983707808498     
 -0.431623311539616     
   1.00906015796977     
  0.229186586175698     
 -0.141080564941397     
 -4.273665204269543E-002
  0.937784061291610     
 -0.952628438284698     
   2.56482259273035     
 -0.576699304195950     
 -0.255528085261134     
 -0.513935993707046     
  -1.10388101541473     
 -3.488809667104506E-003
  0.207099444689297     
   1.47620691700123     
 -0.119862698741914     
 -0.306506495454525     
  0.112696222010290     
  0.133919206292376     
  0.328910856397330     
 -8.562532810350003E-002
  -1.11903876637288     
   1.34031412653623     
 -9.963595289958135E-002
  4.409513894644385E-002
  0.477669926665737     
 -0.831361609606080     
 -0.368876695518739     
 -0.849384284576528     
   1.00013215457662     
 -4.963753988548276E-002
 -2.091609878231752E-002
  -1.56361077681837     
  0.354083885725266     
 -0.237848448708529     
 -0.588113463305472     
  -2.22161967523397     
   1.15345474483708     
  -2.29604228119654     
 -8.330929832815735E-002
   1.59310434225293     
 -0.240253974585551     
  0.731683781380493     
 -0.145264754915883     
 -7.798728020600429E-002
  0.156788933916693     
  -1.38725118682287     
  0.397312247149753     
  0.872809333300065     
  -1.02430060221386     
  0.785004486303601     
 -0.494391859191327     
 -0.757060508013412     
  0.559322007226277     
  0.480508515942003     
  0.239145202831477     
  -1.20379878245964     
   1.63731892579429     
  0.267923888925721     
  5.545513860935482E-002
  0.134466332629492     
 -0.738404976648417     
 -0.538666927887716     
 -0.974205603993320     
   1.36534695953888     
   2.45212819227262     
 -0.520044811847445     
  8.247082239516852E-002
  0.288025455637826     
   1.02547802840520     
 -0.681368219746799     
  2.751370794785530E-002
   1.25749658821107     
 -0.974492879735352     
  0.197428691932421     
  8.166369790132348E-003
 -0.832825758754171     
 -0.321847440344476     
 -5.271752440112536E-002
 -0.525273930016184     
  0.406835473399467     
  -1.16710618739801     
  0.236776867669254     
 -0.544054857083168     
 -0.258524412978954     
  -1.04292257622771     
  0.300815863068733     
  0.910493416075276     
   1.10335626983396     
  0.570523555873030     
 -0.531903249142659     
 -0.400866822547465     
  -1.10045126856894     
 -7.967937527627215E-002
  0.870147995881124     
  -1.15305736116112     
  0.320413806653020     
 -0.781401959328917     
   1.11376854381952     
  0.487515075406922     
 -0.127285570019049     
  -1.83141647062812     
  0.903252742788019     
  5.407995614407622E-002
  -1.18519144066268     
 -4.918336868227322E-002
   1.01218436318295     
  0.148295591823206     
  9.101998743799530E-002
   1.07649538896043     
  6.614433720425025E-002
 -0.115730731504177     
 -0.869198277342617     
  -2.29737492878385     
  0.391572531739957     
 -0.237357363128996     
  0.408683662881998     
  0.313433205716906     
  3.270068830130640E-002
  0.468130212613371     
  -1.94329320516067     
   1.89832399001729     
  0.778346321696903     
  0.711076434758288     
  -1.69815618118860     
   1.61700220936077     
  -2.23456592496569     
 -0.508211111503517     
  0.893201424880567     
  -2.54768048710818     
  0.377718270195395     
 -3.739136621374210E-002
   1.27957862846717     
   1.07123688106963     
   2.08271283416935     
  0.709911541280607     
 -1.607243847013606E-002
  -2.11359176585927     
 -0.552991208281486     
 -0.307596442468737     
  -1.21399505812372     
  0.445702849894454     
  0.861836959262441     
  0.939774038368118     
  -1.17324884150953     
   3.26744088113802     
 -0.713602588726334     
 -8.566842864353698E-003
  0.316759258108015     
  0.268689918169618     
  0.513249802373915     
  0.560173421552731     
  -1.89975206415814     
 -0.385883831297571     
  0.583294717222646     
  0.393279729639876     
  -1.20856487448518     
   1.89239838185904     
  -2.98445018055028     
  -2.57613419864747     
  -1.71732663742285     
 -0.451642048245108     
  0.101904220305109     
 -8.870488889557533E-002
 -0.445540119167631     
 -0.789285729011026     
 -0.506819565319408     
  0.681181001017934     
 -9.246371982897152E-003
  -1.33340216439255     
   1.36529666271234     
 -0.740802370471612     
 -9.512191218237653E-002
   1.46334534751243     
  -3.28564216781579     
 -0.764078225024971     
 -0.928371631926548     
  -1.54800897722871     
 -0.209322590919167     
  -1.18885804187775     
 -0.416609671166029     
  -1.75375207422427     
  0.423181058248867     
   2.09138386855990     
 -0.612005798350087     
   1.20011597253284     
 -0.840812180609117     
   1.44630813627702     
  -1.00068640074344     
  0.114746495327849     
   4.06967522171292     
   2.24068147544463     
 -0.737835053099060     
   4.01071055224261     
  0.161429893557179     
 -0.258984915766287     
  -1.08989197489291     
   1.61848166883972     
  -2.16440738113760     
 -0.228508123031521     
  0.396361321627297     
  0.577999559384172     
 -0.633561522603283     
 -0.362877825740613     
  0.837190516989805     
  0.206619982304876     
 -0.800184991720145     
  0.535155176823689     
 -0.251301086206371     
 -0.376636271710243     
  0.388407961844668     
 -0.247418936290558     
 -0.926987046004393     
  -1.47228018020460     
 -0.530129003901160     
 -0.242514805997523     
  0.131808004859998     
  0.672664140269777     
  -1.19832907093201     
  -1.01334384121304     
 -0.466440701474008     
  7.932589487491470E-002
  0.432220482207733     
 -8.000178458023266E-002
  -1.10366466680208     
  2.009573603887808E-003
  2.108719486804842E-002
 -0.692762454381875     
 -0.774897182643908     
  0.787747143154574     
  0.480808675203545     
  0.428040200003437     
 -0.529782943608618     
  3.193434374909025E-002
 -0.513767295659159     
   1.18740825192356     
 -0.738835646610226     
 -6.693813527316818E-002
  6.503197284040280E-002
 -5.060014338414943E-003
 -0.421546828051017     
  0.632716272591928     
 -0.210224144082511     
 -3.715637031895722E-002
 -0.117648527159131     
 -0.239959154260665     
  -2.22303481859820     
  0.422957179625777     
  -2.70082082352220     
 -0.834104401618037     
 -0.356695854241951     
 -0.306045588545141     
  0.440019461099275     
 -8.247118402602845E-002
 -0.829167921932838     
  0.385045349699523     
   1.07481210747301     
  0.126769858330611     
 -0.181159388370115     
 -0.295983366419368     
 -0.204528222482746     
  0.522934438437306     
   1.38768212142760     
   1.06093105055409     
 -0.177052068280274     
  -1.53481023776688     
  0.108407462346248     
 -0.669146716265498     
  0.559465290766445     
  0.219519498931543     
  0.670863795058238     
  -1.04350476178311     
 -0.793513044386742     
 -0.413755999525403     
 -0.777389101802334     
  -1.18461005214391     
  -1.01456210739621     
   1.16304839111607     
   1.95818125616511     
  -1.26860369240352     
 -0.458764253485537     
   2.07522083557775     
  0.668671489860766     
   1.16107639852315     
   1.81630659363495     
  0.306731907135244     
 -0.215787521521182     
  -1.16771944784316     
   1.50913911422826     
 -0.363393036171327     
  0.930281610075905     
   1.04072200257102     
  0.842423605702301     
 -0.797077018113613     
  0.291450210204608     
  -1.68867376081229     
  0.916228205800254     
  0.310455448734426     
 -0.861706402988123     
 -4.379958810463121E-002
  -1.81146026878468     
   1.47352643523393     
 -0.696185383070586     
  0.199435738427479     
 -0.494221133914764     
  0.842082480354196     
   1.07663743785210     
  6.085649731129329E-002
 -0.750124597567149     
   1.31345718857137     
  0.673693184075240     
 -0.806833389655313     
 -8.662372916311825E-002
 -0.219892693359720     
   1.23924447183976     
 -0.680246951900474     
 -0.360919193561034     
   1.25028696572496     
  -1.44417970568748     
 -0.422538401721164     
   1.62209051696525     
  -2.34040944055617     
  0.913084457009145     
  0.420655912225249     
  0.954069821474685     
 -0.285031587914830     
 -0.331117958065347     
 -0.138983948203633     
  0.121241604990212     
 -0.357934362227849     
   1.29033992020667     
   1.12502298230622     
  -2.74588283535753     
  0.153858607792630     
   1.04159246708400     
  0.284259007031370     
  -1.91803416822437     
 -0.290347829275458     
 -0.471513382304607     
 -0.639886880490791     
  -1.07971056742771     
   1.58814771704226     
   1.24912061279224     
 -0.242887764658436     
 -0.581192941033581     
  0.581105871341761     
  0.280392354974034     
 -0.570907125260791     
   1.57995525411847     
 -0.476788436071262     
 -0.647745609887125     
  -1.87182545156488     
 -0.797090454026815     
 -0.385513705757214     
  -1.15357809253339     
  0.100881482774638     
 -0.247397723181103     
  0.570661528293727     
 -0.292787317210075     
  0.299810910191862     
  0.538048695409227     
  0.569779824115834     
 -0.218924111576406     
  0.123676733816174     
  0.414169687594221     
   1.09880508621046     
 -0.818691843658350     
  0.466615266405368     
 -0.243043971045379     
 -0.897574849854799     
 -0.381230610058537     
 -8.949900014477828E-002
 -0.491530871349258     
  9.372960052296803E-002
 -0.732071996839294     
   2.46487017507376     
   1.06208457166249     
  8.860119266173627E-002
   1.20856540788683     
  1.834014321068644E-002
 -0.261085076599566     
 -0.908884215786639     
  0.680332482361963     
   1.20927543019743     
 -0.233621502576458     
 -0.205391981784549     
 -0.405057024517212     
  0.508216839589961     
  0.350294810534173     
 -0.567860689618966     
 -1.084922864864573E-002
  -1.04429000633601     
  5.156514819376064E-002
  0.611422081887406     
 -0.939223776978427     
  0.899456883951766     
  0.176543347115886     
  0.742866052011147     
  0.271663014443971     
 -0.550880661070422     
  0.466689988026994     
  0.805403571103932     
  0.633388509313222     
  8.137541743288831E-003
  0.794711127892830     
  0.827297563111991     
  6.142986112250710E-002
 -0.722337538399426     
  0.201719127814743     
  0.195825026654970     
 -0.422833270847234     
   1.07080752933870     
   1.39085628701318     
 -0.137825381552742     
  0.377677538689988     
  0.216180892068120     
  6.682511990279814E-002
 -0.728358812878590     
  0.267240374257090     
   1.28299936275015     
  0.112157324384061     
  0.487470245897831     
 -0.497776463214607     
   1.57560313407460     
 -0.973261159036969     
 -0.460624944418566     
  0.583898418035648     
  -1.27337130319024     
  7.962294761497042E-002
 -0.871600746620419     
 -0.289325538225379     
 -0.224609223082188     
 -0.393792178834186     
 -6.414169575862518E-002
  9.541821159403058E-002
 -0.424120909952853     
   1.43565843388052     
  0.397153168704494     
  0.752829716019553     
  0.166689833323292     
  -1.58436488352544     
 -6.033884438779051E-002
  -1.80636555976394     
 -0.281627912907081     
 -1.944692552670505E-002
   2.20081971034269     
  0.865346393529548     
 -0.380126738892015     
  0.334056447597635     
   1.59360438589313     
 -0.667288966164972     
 -0.254938738560287     
 -0.645836450504807     
 -0.616751726351733     
  0.313572256874361     
  -1.18644523117156     
  9.780708830167731E-002
  0.257460776790645     
  0.323217383689172     
  0.523837293581404     
 -2.976369355460549E-002
 -0.472731910916747     
   1.02815356654034     
  0.351484367886591     
  -1.78849235439086     
  -1.29777172999854     
 -6.801766747107077E-002
 -4.299409340817623E-002
 -5.060162419922928E-002
 -0.200764651269071     
  -1.86587229666474     
   2.39283507946954     
 -0.560336444551052     
  0.148558503275815     
  0.682645188852749     
 -0.686838139589940     
 -0.696983929791570     
 -0.820762229521547     
 -0.826872399256064     
  0.591186180839261     
  -1.72904208876798     
  0.584700901594734     
   2.16432629310480     
  0.479520379228681     
  -1.69724193365672     
   1.24479121957353     
  -1.12297571988168     
   1.81225243186465     
 -0.349151039416921     
  0.254820042461459     
  0.486407921487720     
  0.326393397975363     
   1.55173932286256     
  0.496700491596753     
   1.06675194795478     
  0.932547479895237     
  3.563370010039484E-002
 -0.663094249970012     
   1.25351541720448     
  0.550550692160288     
  0.751904047366812     
 -0.229594207084748     
 -0.148618265024039     
  -1.04602951266620     
  0.232331923121605     
 -0.254388913706397     
 -0.216810869252247     
  0.864769825653003     
 -0.868486391860702     
  0.981082807587025     
 -0.203885047601166     
  0.415691915435087     
   2.36254374683871     
  2.648666151354330E-002
  0.351827953792738     
  -2.50178685029737     
  -1.69569094787019     
  -2.14726086834130     
   1.93325992644595     
  0.164313898318000     
   1.56579508088394     
  6.728175855825339E-002
   2.58272457869026     
  0.262772094543454     
  0.467875713285317     
  8.998333797446949E-002
  -1.03085764384490     
  0.940865732935273     
  9.439067791113454E-002
 -0.871006775181877     
 -0.743471889792595     
  0.115227940513750     
  0.980573927821232     
  -1.51826622917187     
  0.576562426524580     
   1.32727262403062     
 -0.616940353983765     
 -0.565609345203684     
 -0.607515566542752     
  0.333321420411874     
  0.208748979351075     
  0.966768369114949     
  0.595080211899893     
  -1.07404121496383     
  -1.84361966574811     
  -1.28878116301928     
 -0.137161827949843     
 -0.149194937455419     
  0.661053833939503     
 -0.502869266568242     
  0.701968289253955     
  -1.81586305111980     
   1.36348254147852     
   1.11046842938584     
  7.303599192080135E-002
  0.348206860224270     
  0.246993527845166     
   1.09877434016011     
 -0.334072910935087     
  0.990782576642043     
  0.190657212871223     
 -0.955247999249186     
  0.272214860704643     
   1.40083725293371     
  0.860723270327254     
   1.19404068869504     
  0.365978385109129     
  0.660190702205093     
  -1.30556597048715     
 -0.596835096314195     
  0.587278578096519     
 -3.709180753379117E-002
  -1.69427734741960     
  -1.41061746924655     
  3.318707300708203E-002
   2.07290675876537     
  0.703606397675008     
  0.775138555871101     
 -0.907615992770649     
 -0.698844230050247     
 -7.329294607095571E-002
   1.18326574167746     
  -2.32216293373170     
  -1.14520218806753     
  2.894483169264932E-002
 -4.555839757285627E-002
  0.443864087178371     
  0.377102248650597     
  0.456128094786381     
  0.315435478086781     
  0.170696446093373     
 -0.761749522019768     
 -0.470419840752290     
  -1.04861256264550     
 -0.649709997128101     
  5.370153547470616E-002
   1.07467873155172     
  0.304702659362542     
  0.920144233554371     
  -1.75784588457994     
 -0.121255211884154     
  -2.18109853872011     
  -1.16836464232765     
  -1.61879476341503     
  0.475527092576942     
   1.18501132835713     
 -0.751511212053632     
  0.814849496548000     
  0.384753026341307     
  0.721947247683991     
 -0.307312462203869     
  0.101170811375451     
  0.225615240846792     
 -0.726934684507686     
   1.18889353155984     
  -1.65884295490514     
  0.336073861461655     
  0.439905579749819     
  0.771844689947813     
   1.04734892588280     
 -0.771658595189772     
  -1.60570928362427     
 -0.791806806026223     
  0.384642678139260     
  0.539791046548357     
 -0.716861873607250     
 -0.468595208625007     
 -0.603621654571829     
 -0.614428603736770     
  0.500346956335335     
  -2.84995024780264     
 -0.259698651081799     
 -0.549408758266037     
  0.788576460178868     
  -2.12154157585325     
   1.24166161639150     
  -1.11385946988160     
  0.481661461799363     
 -5.777437052722164E-002
 -0.293661615484560     
 -0.473787481380560     
  9.412938107816163E-002
  -1.16818060386329     
  3.248760374970983E-003
 -0.889183934512627     
 -0.642199383190664     
 -0.691221810133853     
 -0.271445140886647     
  0.459095350859815     
  6.419535532994673E-003
  -1.50543432086846     
 -0.239180666533645     
   1.51910572388545     
  0.374301169867168     
 -0.178722403564381     
 -0.283536456544938     
  -1.40427572940949     
 -0.451619269472964     
 -0.232460288706700     
  -1.05173117959357     
  0.683510695615193     
 -0.740091615998622     
 -0.512407393446573     
 -0.708406706885643     
  0.751338908735195     
   1.56793740885603     
 -0.289197389575747     
  -1.20024967733174     
  -1.34836968637765     
 -0.236452331317058     
  0.206564863287259     
  0.975879848842390     
   1.46462410751753     
 -0.191535882708506     
  0.301910373910264     
 -4.000228723253501E-002
  0.415421909768881     
 -0.759312430291828     
  0.465325561541727     
 -0.157083107183282     
   1.75210929389867     
  -1.00870320820929     
  -1.39403222179887     
  -3.28741088120848     
  0.255401743099534     
 -0.592564702805849     
  -1.50692146599002     
 -0.156055011966780     
  9.853702206037329E-002
 -0.461251137568504     
 -0.265126456531524     
 -0.318204400108252     
  -1.53707604496562     
  6.362846244895337E-002
 -0.308739334884736     
  -1.17467176509421     
  0.356830355173363     
   1.42850611903524     
  0.692841297483792     
 -0.401828141477327     
   1.65035031236513     
   2.24923971944366     
  0.537043309344730     
 -0.795025994118492     
 -0.488098647190275     
 -0.121420117758744     
 -0.911171046840929     
  -1.45220793773267     
  0.426209359060737     
   2.40986580172294     
  0.329804870600768     
  4.093120766377073E-002
  6.744838514834656E-002
 -0.113421762556815     
   3.05579812061024     
   2.75132645709326     
  -1.74153979384922     
  -1.24291785004201     
  0.418882230776109     
  0.772612041186516     
  -1.97696632346357     
  0.860035573181171     
   1.55713921646233     
 -4.101813536128589E-002
  0.141982220000101     
  -2.11153379051090     
   1.02151712672204     
  0.213270552595218     
  2.613182782458859E-002
   1.00277151720007     
 -0.463920241428743     
  0.809682445293711     
   1.91359537184823     
  0.978603780207917     
 -0.109756241982674     
  0.100442576610334     
  -1.00170115098832     
 -0.384323460938384     
  0.415477510800548     
 -0.289905130375979     
  0.391829721692911     
  0.978556470651919     
  0.661396927965813     
  -1.16267551095843     
  0.198573396420617     
  0.875551622757935     
   1.19709236902898     
  -1.14879968305805     
   2.52428595492071     
 -0.200718967343247     
 -0.503519661055498     
   1.35819634559991     
  0.886102517707873     
 -0.565559576144440     
 -0.725229567435110     
 -0.284105585975914     
  0.417139170481328     
  0.576084417932441     
  0.944281711814949     
  0.169309920667635     
   1.58530251739260     
  -1.00153254028873     
  0.343887317869140     
 -2.600814386888443E-002
 -0.663176723630336     
   1.43959599987139     
 -7.321702689492804E-002
 -0.248957373814884     
 -0.279678366124333     
  0.963406736659347     
 -0.299240308794191     
 -0.100978395369833     
 -0.201373967832042     
 -0.479492915658635     
   2.03258691953402     
   1.03075563991115     
  -1.19255761491628     
   2.01730724585819     
  -1.34838754760645     
  0.968534551694748     
   1.30294845717144     
 -0.764259890310638     
 -0.817222736467542     
  -1.37662048199770     
 -0.327007140022448     
 -0.107736660464244     
 -2.914513996780311E-002
 -1.201190988685985E-003
  0.309065060562641     
 -0.761822608761346     
  -1.93314632406522     
  0.351124082365560     
 -0.639542747172976     
 -0.962719329315889     
   1.59022692760023     
 -0.393118568511501     
 -0.707891599066436     
   1.23232119877605     
  0.111286313381729     
  0.683733882148684     
 -1.294004532112792E-002
 -0.639129598093936     
  0.211321009720548     
  0.359885742118574     
   2.53350455532134     
  0.698711403639437     
  0.259360698364158     
 -9.460784595144002E-002
  3.279868297362615E-002
  0.419546777967852     
   1.73527985428233     
  -1.10721739339334     
 -0.647643303897752     
  -1.25094154535851     
  0.576254124772609     
  5.413438528098695E-002
  3.382430186359857E-003
  0.263875305943864     
 -0.516930820991879     
  0.256859975219357     
 -0.163768048297331     
   1.18567958266669     
 -0.718142027208622     
  0.854468887001870     
  0.497258286862038     
 -0.513147274219348     
  -1.58337822335629     
 -0.480636708407124     
 -0.631809021643463     
 -9.634664093438956E-002
  0.749013588665950     
 -2.108024101736518E-002
  0.685107783443364     
  0.642426666683165     
  0.366933879630953     
  0.474909945636522     
  0.520637672383668     
 -0.963848806168826     
 -0.828768669172064     
  0.703890403470308     
 -5.164215693870241E-002
  0.580184921008547     
  0.137131455007301     
  0.412343929024287     
  -1.11859258065503     
  0.274048547130194     
  0.523305728879533     
  0.995810159573009     
  0.325505350069911     
  0.229440245244311     
  0.659613921704980     
  0.264401367154776     
  -2.01987293083762     
  -1.21061443343328     
 -8.253241017422758E-002
 -0.192025413842924     
  6.540898206593765E-002
 -0.247350792366447     
  0.267184285718337     
   1.73814238790176     
 -0.353707326604107     
   1.01384253202145     
 -0.577060408051487     
  -1.03341812658549     
 -0.654248717067175     
 -9.756844891227660E-003
  6.413513208033360E-002
  5.470359558597617E-002
 -0.204553849506277     
  0.218301488358244     
  0.262985205764762     
 -0.522696728563150     
 -0.809016464185690     
 -0.673781952222530     
  -1.23159574381894     
  0.233545602966477     
  0.163041204913690     
  0.217002945126473     
   2.12944439252413     
   1.19980240031230     
 -0.262679868816324     
 -0.336436512280492     
  6.601444054404221E-003
  0.104016275937520     
   1.99426451770537     
  0.655810575651406     
  0.436733522615762     
 -0.686621956132704     
  0.208943049086948     
 -0.748895379746576     
  0.988581573426737     
 -0.361964988914345     
  -1.45196869104235     
  -1.22443190963023     
  0.451919909365864     
  0.758494669061749     
 -0.354467949496471     
 -0.368099271753408     
  0.181661272760028     
 -4.026684991950592E-002
  0.192365925625987     
  0.622401878543234     
  0.493314948094014     
   1.24349746902891     
 -0.332057694527319     
   1.42055476907904     
 -0.172371142891953     
  0.515404757647553     
  0.222252090366905     
   1.16020757497106     
  0.493352292755239     
  0.578612528040459     
  0.776315401654794     
  3.711022560385241E-002
  0.127128599213292     
  0.256313015951370     
 -3.516032041037954E-002
 -3.653319801828683E-002
   1.34254454870735     
 -0.426656569659084     
 -0.785602080494780     
 -0.820863666560579     
  0.632542905960695     
  0.163021932408839     
  0.103717666328800     
   1.08416186279848     
 -0.230534796509635     
 -0.530326353396135     
 -0.420772044196563     
  0.554019235017553     
  0.414805713011763     
  0.146772259698154     
  0.212561174865976     
  0.392265964449123     
  -1.20372292073702     
  0.559853645679013     
  0.702248050456104     
 -0.343063039691058     
 -7.261755653423443E-002
  -1.41621754700722     
 -0.245983975166506     
 -2.678861653086866E-002
 -7.382005699500281E-002
 -9.335368450358901E-002
   1.85629329012647     
  -1.16361867937181     
  0.638090998610027     
 -0.240975283366135     
  -1.21113498715296     
  0.329831706000631     
   1.94332336313445     
  -1.00745512648023     
 -0.407394816142166     
 -0.822162264944200     
 -3.312173542199491E-002
  8.429848076473132E-002
 -0.221124760392188     
 -0.202963261526763     
  0.369102218645376     
  0.931730881983683     
 -0.535599296940502     
  0.728557661645619     
 
  0.168182248166617     
  0.521955655434913     
  -2.16832450466281     
  0.388435045328809     
 -0.368198300549917     
 -0.650095546270212     
 -0.834096909023330     
 -0.413165454094600     
  0.399210900216404     
  -1.97520050033886     
  0.553761795517609     
   1.04932606044192     
 -0.359407293420561     
   1.40127298427194     
  0.866637334899654     
 -0.143276016363519     
   1.36064586336537     
 -6.634822013839296E-002
  0.364647672228931     
  -1.65582124147452     
  -1.42794393147755     
  0.294687355066677     
 -0.422603347122869     
  0.190718350698855     
  0.274735805816942     
 -0.907863662388070     
 -0.189816426182311     
  0.719349215977582     
 -0.225404546883151     
  0.304013159890482     
 
   1.35968561470191     
   1.24495836703660     
 -0.463504750373862     
 -0.247472225113644     
   2.83673358567826     
  -4.37059122918509     
 -0.466748801672428     
  0.777015756029703     
 -0.319309135032187     
   3.10071570704143     
   2.84971997858252     
   2.11416713517550     
  -4.59403678157886     
  -8.23759158472768     
 -0.806040562400835     
   2.18503823020136     
  -3.23609549150750     
 -4.245681637039302E-002
  0.805357254765984     
 -0.230667105473796     
   2.44061749247551     
  -2.70315891231653     
   1.10735809816305     
   1.51545949034510     
   1.19121286064388     
  -1.69086744787157     
  0.597321829666895     
   1.10147072645410     
  9.106417067481717E-003
  -1.42566687508989     
   2.38804205172149     
  -1.03509041448784     
 -0.124934196757725     
  -1.14810172714785     
  3.328835255304380E-002
 -0.179591779203598     
 -0.301840679631974     
 -0.874293055744023     
  0.314318151153994     
 -0.409290704260858     
 -0.170970271910415     
  -1.46432360446636     
 -0.212549599946823     
 -0.403034651605080     
   1.66475604957397     
  0.134926724228270     
 -0.885999350250115     
  -1.31650177641351     
 -0.444016783896031     
 -0.120243804210543     
  0.747846937382127     
  0.923593758110551     
 -0.212358663125386     
  0.578596846108177     
  8.351938030980673E-003
  0.470989736599966     
  0.537282116054803     
 -0.668365848570822     
  -1.15712222949020     
  -1.25786697002857     
  0.243273890893151     
 -5.573849200565094E-002
  0.825477823104341     
 -0.403126479126904     
  0.103371679360830     
  -1.55071354210563     
   1.04669802835545     
  0.390044494698177     
 -0.502887524404983     
 -0.340479895297855     
   1.39344871728690     
  5.945500162624680E-002
 -0.190013790490248     
 -0.302976222857951     
 -0.854086703293824     
  0.380112392454339     
  6.120387972642591E-002
  1.329604752508836E-002
 -0.104115618609208     
  7.867411618341028E-002
  0.715736173293736     
 -0.587566944190217     
  1.431109441735835E-002
  7.582057806181422E-002
  -1.74244292089932     
  -1.22509995721384     
 -0.999373272806205     
   1.41313374544951     
  0.347075370654280     
  0.290743807822551     
 -0.658373394259650     
  0.468140412266208     
  0.629261924095370     
 -0.403269069856099     
 -0.413074900185981     
 -0.157128193644923     
 -0.231615597547123     
  0.898504134126535     
 -0.192995157789641     
  0.517736747554328     
  0.139846547160378     
 -0.363001345792810     
 -0.610299886487314     
 -0.633687606338097     
  0.326348645338483     
 -6.931206466522996E-002
  0.765031102475817     
 -0.491203635851072     
  0.452523026224795     
  0.541014064143006     
  0.234868268750345     
 -0.824742291490409     
  0.735277017751800     
 -0.483400465603797     
  -1.68737952851323     
   1.31775755156444     
  -1.00604413790453     
 -0.159522353693290     
  0.472293349498826     
  0.471967395787865     
 -0.716366630954591     
   1.00568942193840     
   1.27083794531519     
   1.48134739762718     
  0.718452536565024     
 -0.907842055987381     
  0.257406659365995     
  0.224566838425575     
  0.838177355767326     
  0.383263311506304     
 -0.691369218187007     
  0.808963996356278     
 -0.271041137352196     
  0.332495798314872     
 -0.390656328131906     
  4.219694531474028E-002
 -0.155613854572516     
  0.286104715216050     
 -0.947390566410546     
  0.342910099030469     
 -0.147839861560554     
 -0.857568529644962     
 -0.428974168651166     
   1.34231700442613     
   1.26156666287760     
  0.181472975656420     
  0.442552259182476     
  0.638481997669208     
 -0.544986596431992     
 -0.242027855372950     
  0.249756935304609     
  -1.76174365758823     
 -0.809677668567209     
  0.762638873879817     
 -0.431035712879407     
  0.437443264974716     
 -0.662165009732623     
 -0.388174913689265     
 -0.240975141093236     
  6.114713029984463E-002
 -0.123296407205866     
 -0.726194145357422     
  0.840496120344116     
 -0.429943408508987     
  0.747482405981120     
  8.396363871507823E-002
  0.293446645521397     
  0.188236250503128     
  0.736597060756468     
  0.151122695686247     
  0.930654150138606     
 -0.929236119181280     
 -0.140932351168108     
  -1.86655491343531     
  -1.00965550812384     
  -1.24367998015001     
 -0.210691367925171     
 -0.668581388497384     
  0.980340789911914     
  0.747490365846085     
 -0.285208758178522     
  -1.48749929757871     
   2.20588993323405     
   1.07183771341177     
  -1.66079305259783     
 -0.479256964262524     
  0.160197575808139     
  5.218767130299505E-002
 -0.872649780390693     
  0.109039678651844     
  0.179731362915663     
 -0.170069739380152     
  0.461195790603268     
 -0.466858428479893     
  9.205590437586551E-002
   1.41783117131036     
 -0.784907776326965     
 -0.820566843913798     
 -0.400018920831758     
 -0.869286736217607     
 -0.850893531987229     
   1.16083929272125     
  0.725532965837799     
  0.374302123452156     
   1.15274919861602     
 -0.719206575522541     
  -1.76994956484474     
  0.225611699144379     
  -1.70424859338550     
   1.99336907723060     
  0.168193661658294     
  -1.62040741707050     
  -2.34621741018727     
 -0.527946925847328     
   1.13657148411685     
  -1.19034903234286     
 -0.190199811291583     
 -0.506281977026385     
   2.12055712577079     
 -0.635594145769663     
  -1.45814336622879     
  0.969458723687947     
  0.435793466069698     
  1.856994438471903E-002
  -1.63690340951400     
 -0.399541058945083     
  0.649372091106832     
   1.23412639633334     
  -1.00058329878676     
 -0.691235117965094     
 -0.904782180096803     
  0.310825206559115     
 -0.522264042149248     
 -0.386135261270193     
  0.486939084644541     
  0.266266120939223     
  0.767676913573634     
   1.14531245265665     
 -0.700966183257650     
  0.843844647773386     
  -1.96872250671680     
  -2.10566417883531     
  -2.22706075940687     
   1.28650728048743     
   1.07903154296243     
  0.851884627453841     
   1.21118645583715     
   1.51861966001781     
 -0.267807855298602     
 -0.776473150884651     
 -0.467104714066791     
  7.610690666187990E-003
   1.07519675050756     
   1.23538498452716     
 -0.862402529209543     
 -0.519593683761419     
  0.486330188068042     
  0.147984981934171     
 -0.541982637192727     
  0.627767179712274     
 -0.754324455380740     
 -0.522814392555268     
  0.789627276077408     
  -1.35058371960835     
 -0.797459048670712     
  0.840506135465051     
 -0.254178559214828     
 -0.685343226835198     
  0.496490687880172     
  8.048032165248456E-002
   1.25543340599137     
  0.118820920344504     
  -1.98437905063303     
 -0.608159822746902     
  -1.11629156993103     
  2.211896218462514E-002
  -1.82904393283788     
 -0.175491253171752     
  -1.27616460493205     
 -0.954745659678762     
  4.022375037998571E-002
  -1.07122716016578     
 -0.813603903137193     
  0.198102792046353     
 -0.538943330711322     
 -0.234114304032775     
 -0.993549093102744     
 -0.578797968201555     
 -0.417459859981296     
 -9.896190041195291E-002
  -2.02693664777851     
 -0.551737772959864     
 -0.917150582008477     
  0.605573071602210     
  0.410481533761704     
  0.450977011161302     
  0.406631767325375     
  -1.17786708627248     
 -0.491811116190041     
  0.732806333462437     
  0.372728956117572     
   1.73439958365772     
  -1.02895016761387     
  1.247034012628061E-002
 -4.960295388736318E-002
 -0.739336143655668     
 -0.225931169165839     
  8.046222069446939E-002
  2.768251058911125E-003
 -0.944373576605961     
   1.57236529970495     
 -0.360081486057687     
  0.493861307929006     
  0.590990934914898     
   1.42443311142417     
  3.256059025581417E-002
  -1.64882938778162     
 -0.736614070969642     
  9.645144499442050E-002
  0.231327499904847     
  0.242407726932280     
   1.19551935557198     
  5.469458052008474E-002
   1.65782283447925     
 -0.189436084263290     
 -4.012469143585856E-002
  0.115346634671090     
 -0.970877810501560     
  -1.08566803414787     
 -0.345574898329038     
   1.70153576093198     
   1.76577845580635     
   1.50847084984554     
  -1.00325973290863     
  -1.92247739582824     
  0.573927803071873     
  0.698386520627851     
  -1.73796072968770     
 -0.884073867483005     
   1.62368769812980     
  -1.07276585955107     
   2.55866433820856     
  -1.24547340515059     
  -1.85556861764898     
  0.755631498602853     
  0.977337749219885     
 -0.346100683494259     
  0.765648283879099     
  -1.15388473615161     
  6.815224877077358E-002
   1.52747864651346     
   1.71293798352386     
 -0.217346887699166     
  0.880863909561184     
   1.34573776833201     
  -1.22218995161631     
  -2.67087358790887     
  -1.59195782305959     
  -1.52892897273310     
  7.686527748557889E-002
  0.184927400121225     
  -1.71458734011240     
  0.703849674022130     
 -0.237343754983574     
 -0.657562590224362     
   1.08244649420021     
  0.534494096217378     
 -0.334236793520450     
  0.437045051839525     
 -0.383834972120022     
 -0.334780258348480     
 -0.979345685246957     
 -8.745651493248095E-002
   1.42354344515837     
  0.801788525436990     
  0.276552738537762     
  0.917680037364090     
 -0.855330986154358     
 -0.370288175686254     
 -0.235713253191716     
 -0.544870102399132     
  0.833916754209097     
 -0.571779245068263     
  0.272980685521682     
 -0.193448435472677     
  0.828012494745072     
 -2.916778096333044E-003
  5.665929437332137E-002
   2.01514944986909     
 -0.147730831063745     
   1.78957659993051     
 -0.535256639487919     
 -3.542780514342461E-002
  0.199995962216575     
  0.142266458368449     
   1.00397243786026     
  0.635699783566388     
 -0.710967376131421     
  0.465728055758835     
  0.238771995592239     
  0.101236716926860     
 -0.226299150659816     
 -0.576412964929329     
 -0.182701415702454     
  2.719417977616372E-002
  0.870092687790206     
 -0.635484014543374     
 -0.741905101563743     
 -0.406213359913763     
  8.301477783292339E-002
   1.30529220406190     
   1.23972441189299     
  0.298151025123817     
  0.256663599869465     
  0.395972732008495     
 -0.474814928058687     
  0.492029223145649     
  0.312561042343677     
 -0.861312767742944     
 -0.954705966214112     
  -2.72624965772935     
 -0.544822028054442     
   2.32592341086574     
  0.816754816390053     
 -0.286367953171565     
 -0.137521520004665     
  8.646108253637125E-002
 -0.432889128456614     
 -0.112278292803190     
  0.428198647643275     
 -0.644382561196050     
 -0.491256429571081     
 -0.473688362282150     
  0.701652804846384     
 -0.707196590522893     
 -0.287512077501789     
 -0.887123008695736     
 -0.259902851608156     
 -0.187002269435653     
  -1.10455231652687     
 -0.176550617274202     
   1.17846624002703     
 -0.209301426079819     
  0.130735437571133     
  0.221879669431080     
 -0.774010113721148     
  -1.35641220898960     
  -1.23449009856156     
  -1.28909344394455     
   1.10353907918153     
 -0.832018152811437     
  -1.70444553627525     
  6.034741205427984E-002
  1.352529519592068E-002
 -0.161878618135028     
 -0.236067216430219     
  0.434588977533850     
  6.326174930086147E-002
 -0.751765541324031     
   1.37541032184956     
  -1.77477175664303     
 -0.985139709149037     
 -0.226619547371286     
   2.23480059215783     
  -2.34789963466241     
  0.594672287340802     
  0.808819348036347     
 -2.683299837060481E-002
  -1.18691329035902     
  8.526294708877044E-002
  3.922471990208378E-002
 -0.541522753244990     
   1.16625977393070     
 -0.994438160226671     
 -0.491467202337397     
 -0.974034385225780     
  0.759663273565617     
  8.681915888749875E-002
 -0.662180073394871     
  0.726620855649766     
  0.286861020942108     
  -1.51951956871624     
  0.298253807411142     
 -0.300220529467412     
   1.29375066558803     
  0.212502942177648     
  0.835651721796529     
 -5.824607344579795E-002
  0.762361638212144     
  0.609824808627493     
 -0.265340238130809     
 -0.678806321394480     
  -1.80064568603458     
 -0.162993907656938     
   2.40022247320760     
  0.614123551937603     
 -0.892372558165381     
 -0.346455342434750     
  0.201471864780463     
  3.487416430436510E-002
  8.593058318522329E-002
 -0.650953143063296     
 -0.344306834106428     
  0.376574020930686     
  -1.01838260814995     
 -0.800702482968572     
  0.909483967579501     
  -1.04382304633528     
 -0.498193673733922     
 -0.179550900096291     
  -1.82276268572081     
   1.50957643585451     
   2.32649747838200     
   1.23376794214726     
  0.363768322649453     
   1.03379318746358     
  0.458391445768237     
 -0.779296409763365     
 -0.285249493502623     
  -1.61172094352453     
  0.457193246001268     
  0.424771852146199     
 -0.342878646917994     
  -1.27739631333084     
   2.14679773491612     
 -0.730206733130050     
  2.933861570668948E-002
 -0.741886030100609     
 -0.625590597574741     
  -1.71758857517810     
  0.610743423416978     
 -0.441066322102838     
  0.680117386516032     
  0.172413823381291     
 -0.290295666782817     
 -0.506099822967905     
  -2.89170541091391     
  0.239808293287014     
  0.317360313117476     
   1.60552236287673     
 -0.926895797804641     
  4.983141924758504E-002
 -0.104063121299211     
  8.908729126563726E-002
 -0.746529981894202     
  0.423005955493306     
  0.597244865934906     
  0.655085330846467     
  0.182343739117388     
  -1.29843575924500     
  0.285196327337709     
  0.464206641048797     
 -0.180626970158333     
 -0.432498482574750     
  -1.17873624416661     
  0.365954686508341     
  0.180925060925613     
 -0.312009850594255     
  0.461392494524149     
   1.09855386594009     
  0.337250986175225     
   1.37405847937261     
  6.246619877784879E-002
  -1.19616880734362     
  -1.31752895739243     
 -9.728376054006491E-002
 -0.715132994075745     
   2.08629047954994     
  -1.04785541070466     
 -0.308401673650622     
 -0.159979104265277     
  0.880724045466080     
  -1.06000361169104     
  0.985973286914921     
  0.602700690799078     
  0.587399307866036     
  0.429643130143842     
  8.023603604392150E-002
 -0.436419102432355     
 -0.208697195832761     
  0.275888490684358     
 -7.602004406627562E-002
  0.840376878973231     
 -0.495347322725857     
 -0.651756605252558     
 -0.450951998770562     
  0.209517278194338     
 -0.477414143048257     
  -1.39541626956291     
 -9.206449471201757E-002
 -0.126901510627851     
   1.61424068956485     
  0.188711782640419     
 -0.217062313140259     
 -0.203579058906129     
  -1.25543928772122     
 -0.268641945439400     
   1.04148536132502     
 -0.750811190490659     
  0.603908927732478     
   1.05106145820096     
  0.141627125136228     
  0.858358135331010     
 -0.870941414049045     
 -0.368055434693585     
  0.592516752435798     
 -0.483624342845742     
 -0.298589885325882     
  0.754731094752291     
  0.401261062629928     
  0.222257497869023     
 -0.287896758611828     
 -0.287084701737965     
  0.920020279415622     
  -2.60814254036840     
 -0.166049491389517     
  0.127263669578145     
  0.132906988214348     
   1.17601860858344     
  -1.04884280496434     
 -0.394982404557227     
  6.581179862188355E-002
  -1.13701236403754     
  0.943185276715905     
  0.230169514519577     
   1.26460931331216     
   1.38600657272092     
 -0.717453655164323     
  0.386769376068576     
  -1.07497310781212     
 -0.711375462226409     
  0.779861451226635     
 -0.825988355679362     
  0.378925098078887     
 -0.173607457846165     
  0.408380851859154     
 -0.395236459087004     
  0.212543165510881     
 -8.002574174938626E-002
 -0.340660973102481     
   1.42511894836673     
  0.155352381941311     
  0.523014814297435     
 -0.942134967159646     
 -0.325740295950226     
 -0.305629506976720     
   2.13561154118679     
 -0.810360784599738     
   1.56817863079817     
  -2.57736926796629     
 -0.266584522893758     
  0.378342838928848     
 -0.232108434209867     
  -1.00376800324685     
  0.391659608359390     
   1.83360147040007     
  0.635404607517853     
 -0.337919069316220     
  0.471846874337533     
 -0.204434311328525     
   1.44544827584290     
 -0.318992044214961     
   1.81336120862262     
 -0.969966702713985     
  -1.62390229087000     
   2.05500537041020     
 -0.276832653362117     
 -0.452794874581211     
   1.39576934930089     
  0.647731001338230     
   1.11669771342209     
 -0.150877487801114     
  0.206892669690738     
  -1.19492471714571     
  0.143226427231844     
 -0.680277605991141     
  -1.60090754434806     
   1.14270164943028     
 -0.645638185771516     
  0.694529962095906     
 -5.272108066106801E-002
  0.454989638100971     
  0.237364619795163     
  0.189366938179576     
  0.651655564306199     
  -1.70933776715607     
  0.365214361389434     
  0.831655689394397     
  0.635456947399749     
   1.89462808058474     
  0.842859813021189     
  0.293087406342277     
 -0.559501863094114     
 -0.732624896756212     
 -0.149598059893426     
 -0.989373040530121     
  0.685423194340687     
 -0.637331453474346     
  -1.38116583962557     
  0.764536299630608     
  0.872051921026301     
 -0.184092710545255     
  -1.40393897609623     
  0.483910591813744     
   1.82650161570495     
  0.146927931654557     
  0.504033756099879     
  2.427366836539058E-002
   2.52499580535179     
  0.228759590114311     
 -0.921537407671088     
  0.122535366892042     
  0.258400629816979     
  -1.33276199137879     
  -1.17906315542956     
   1.02913834812944     
 -0.606528485099952     
 -0.612025222071116     
  -1.04678239380671     
  0.809013475390827     
  0.446811357283038     
   1.13044597210564     
  0.195510393756389     
 -0.179970243067576     
 -0.242265248254355     
 -0.151180910329663     
 -9.489703879343109E-002
 -0.198550651811290     
 -0.115343867977414     
  0.491105871504806     
 -0.397125762341787     
  0.191761547776768     
  3.796578142412525E-002
 -0.296555045658083     
   1.18707648464856     
 -0.125090772909495     
 -2.758792750787424E-002
  0.398970757677525     
 -0.357176224796723     
 -0.197384533649511     
  3.442226914568643E-002
  1.582579113576262E-002
  0.927982515878170     
  0.374923002877146     
 -1.582195416313933E-002
  0.284675540207752     
 -0.340870182189945     
  1.249981267575825E-002
  0.634034967266393     
  0.126025576344151     
 -0.888401100605792     
  0.622018191639375     
  -1.27829384151391     
 -0.408259886259856     
   1.10033631960192     
 -0.119537811094209     
  0.354647771908888     
   1.71783216465336     
  0.413791322888469     
 -0.850712438395739     
  0.486430583481305     
  -1.50839267576795     
  0.444153344506058     
 -0.917217817206557     
 -0.370686304847016     
  0.425776109342466     
  0.567674513196577     
 -0.574668824476668     
  0.841802625746783     
 -0.351050595049164     
 -7.174362585164780E-002
 -0.722236803175521     
  0.727415851775598     
 -1.537785334622543E-002
 -0.967204609168407     
  0.331189424489434     
  0.564640654046708     
  0.893612291541581     
  -1.55367390739280     
  0.429734447307756     
   1.33666654454707     
 -0.778278821109388     
   1.87351500015482     
 -0.514288304498830     
 -0.138236106673008     
  8.470774678957509E-003
  -1.35707074922954     
  -1.22360975858440     
  0.982815179243381     
 -7.477675745180204E-002
  0.548980147113077     
 -0.750822549357907     
 -0.402455111405161     
  -1.18921704509911     
  0.334124817409072     
  0.293483880491030     
   1.61068916174924     
  0.879283216899701     
  -1.02977756725933     
  0.728203618121233     
  0.450288545462077     
  0.745765997052552     
  0.954077943524665     
 -0.656131568256294     
  0.134536322430962     
  0.164884697778404     
 -0.180958171705740     
 -0.105179104213690     
  0.338802588493606     
  -1.59173271567785     
 -0.481937321085642     
 -0.296524042584222     
  0.661758728752208     
 -2.645427507801094E-002
  4.478984166026179E-002
  0.245539005831963     
 -0.935187974298249     
  0.214672039300485     
  0.337049247472250     
 -0.120267305171231     
 -0.152891065364336     
  2.480099946253825E-004
 -0.304376254139076     
  0.772550594360150     
  -1.62286467259448     
 -0.388418052879492     
 -5.363329463028926E-002
 -0.366824714943272     
  -1.23359458537068     
 -0.242455978965617     
  0.630802274472559     
 -0.242521977418162     
  7.641446269496029E-002
  0.759863510739985     
  0.699451941081110     
  0.904662144909671     
  0.621933158659021     
 -0.467376187009291     
  0.432492081685434     
 -0.304693407320625     
   1.98499346750320     
  0.802609136107405     
   1.85777614993554     
 -0.743903822253957     
 -0.116004188293671     
  0.714977998459610     
  0.597704821727132     
  3.671394926742844E-003
 -0.935879704625923     
   1.85477520856227     
  0.935971029538287     
  0.938095091725965     
  0.402987903271734     
 -0.350451937929294     
  0.422587947542928     
 -3.583365095334208E-002
 -0.955014243175910     
  0.448174045805032     
 -0.144425379532717     
  0.918859788138417     
   1.01968243910645     
  0.360889246087071     
 -0.845296414057516     
  0.516258876007672     
  0.571357572146690     
  -1.51218944369644     
  -1.24368556274332     
   1.83803609703019     
  0.478523203744104     
  0.951587624674818     
  0.813834807125374     
  0.230447689921042     
  0.837761753383957     
  0.835230049101675     
 -4.670965474520473E-002
   1.78407644810305     
  0.700251175849007     
  -1.06109063543154     
  0.848581282480616     
 -0.402146458675056     
  -1.01704822588096     
  0.644300698448055     
 -0.981626138352824     
 -0.608372403731494     
   1.28576572199284     
 -0.152073570135576     
  0.636123219584722     
   1.42401257918781     
 -0.234356144125813     
  0.440199535054845     
  0.417632765573393     
 -0.308869870388813     
 -0.218192853098171     
  -1.39547486924054     
 -0.174075964365200     
 -0.566691738039879     
   1.23562479754987     
 -0.229159163358930     
 -0.838805256010083     
 -0.223134161125547     
 
 -0.114536734261179     
  0.541910370903250     
  0.431137547627044     
  0.754758244861020     
  0.968284114212361     
 -0.346089240220940     
  -1.34136579562836     
   1.01402371557317     
   1.39997169557450     
  0.155069210649413     
 -8.795531611258216E-002
 -0.889162752988963     
 -0.638575254481440     
 -0.384116727403149     
 -0.271334572789646     
  0.444395107471707     
 -0.454345417044023     
  -1.25582836397721     
 -0.501622565959658     
  0.816846100627411     
   1.06218266071845     
  0.605752993955093     
  0.232642451816629     
 -0.213627711542488     
  0.508269762882438     
  0.576826757592143     
 -0.431693235827435     
  0.275906956823754     
 -0.371265911884742     
  0.554262531852331     
 
 -0.420296543420783     
  7.016232527490887E-002
 -1.911530545916957E-002
  3.137119667803396E-002
 -3.295915436861126E-002
  6.968873553946597E-002
  1.888963267849048E-002
 -2.101516299784664E-002
  0.183962675948565     
  5.142931627477687E-002
 -0.126313818597707     
 -0.120486078444783     
 -2.923115658515200E-002
  0.173933117712444     
 -2.532507087025382E-002
 -9.644808575730460E-002
 -9.285502834823875E-002
  3.153170301017361E-002
 -1.841924559409315E-002
 -0.164148895567851     
  9.741540945417596E-002
 -0.102148687628243     
  4.587205262958875E-002
  3.150560837932848E-002
 -0.243638173282367     
 -4.608015571765456E-002
  4.907334936055324E-002
 -0.144641503212787     
 -5.797457265349807E-002
 -3.891376421228252E-002
 
 -5.099142396373572E-002
 
  tansig  tansig 
