     48 -    50 -    50 -     1 
rmse=  17.9218meV
  0.139604344751988     
  5.311937898802105E-002
  0.241670049390027     
  0.367732643131442     
  0.303556556247650     
 -0.575027007357155     
  0.326769248197889     
  3.243826257022608E-002
  0.688700948075583     
 -0.947093218810804     
  0.802893207909296     
  6.012913200127183E-002
  6.199696649183649E-002
 -6.224063902443621E-003
 -2.681470920006477E-002
 -7.348711116712486E-002
 -0.241188464693491     
 -5.128033487121646E-002
 -0.480164517903790     
 -0.147479728057542     
 -0.269739255789337     
  0.449300651827468     
  0.275634302768687     
 -0.673340539765322     
  0.463830641387134     
 -0.308895370204465     
 -4.560668618570642E-002
  0.330388990749199     
  0.399757431090516     
  6.975570653540861E-002
  0.371372624501828     
  0.389092035492230     
 -0.427259560633654     
  0.280039601859863     
 -0.476958556373410     
  0.289828456605087     
  1.885770880855525E-002
 -0.456831047475756     
  0.100111375899846     
 -0.664995209573452     
  0.184182582479283     
  8.938506939107334E-002
 -0.350255912962714     
 -0.268923982477549     
 -0.485187432335639     
 -5.290565328572169E-002
 -0.100915776611329     
 -0.333195137287858     
  0.198060560567024     
  3.845572813272938E-002
  0.149072213276465     
 -1.408211482980168E-002
  4.960939699099758E-002
  0.292148631200895     
 -6.742032608732988E-003
  0.108492949893152     
  0.315085869802003     
 -0.628021654348337     
  0.555945944696570     
  0.275004843547090     
 -0.122288768740543     
  0.216277401987331     
  0.386803212273410     
 -0.104741914251465     
 -0.511346308426688     
 -0.187568747502584     
 -0.187047035855523     
  1.281384514051391E-002
 -0.126278195727533     
  0.182118163081965     
 -3.050390187704559E-002
 -0.109251547611651     
  0.113178567147861     
 -0.401007863875347     
 -0.441785316772389     
 -0.262436981437926     
 -0.347873302756570     
  5.678135333951178E-002
 -4.084649223415213E-002
  0.258160932178965     
  0.122349868664592     
  0.308439764520192     
 -0.214449778056259     
 -1.839300745454118E-002
 -5.005272160421778E-003
 -0.384979133030239     
  0.289940743744443     
 -0.509580109914243     
  0.283375394377058     
  0.324584248929378     
  0.301090497919926     
  0.170407736211762     
  0.236348027516210     
 -0.336251884376885     
 -0.153645699103237     
 -4.451901514229080E-002
 -0.208460127224479     
 -0.284551054365238     
 -2.281159907923833E-002
  0.178766644363176     
 -0.344902197283412     
 -0.151545167834762     
  0.232946610740206     
  0.763752097113291     
 -0.250629648331947     
 -0.342809152815991     
 -5.554686453967177E-002
  0.759480406228447     
  -1.30358661945943     
  0.654641808634680     
  0.149201070988124     
 -6.737474956824829E-002
  0.131808394590820     
  0.459198391621384     
  0.387421593209398     
   1.00189677114873     
  0.497937135071925     
 -0.234146447437955     
  0.246573150398319     
 -0.419804396965357     
  0.737504889886326     
  0.921544610141123     
  0.106641010209912     
 -0.556767041145818     
 -0.212517889290021     
  0.314118489312974     
 -0.378971191004417     
 -0.265643914123084     
 -0.553890713264276     
  0.137198120318537     
 -0.222923850997913     
 -0.464948187168714     
  0.212628334419652     
  7.701417455779026E-002
 -0.440252533264737     
 -0.129978272921732     
 -0.816867193381679     
 -0.215151067771942     
 -0.740785724620804     
   1.28280911696709     
 -0.646523074266235     
 -1.779339202517620E-002
 -0.567127922017010     
  0.250775818065343     
  0.118981463719447     
 -5.421809497886757E-002
 -7.272543966379669E-002
 -0.435993924041108     
  0.742760774540768     
 -0.545995831853979     
 -0.241855671493763     
 -0.312622561313412     
  4.383153982543504E-002
 -0.466505047317316     
 -0.319840323002264     
 -5.609062863075998E-003
  0.491662637161900     
 -0.391374363142871     
 -0.413907130242451     
  0.357544711749715     
  0.128599479244221     
 -0.132028569668543     
  0.512809772719889     
  0.266936620026924     
 -0.112106046211756     
  0.517377824971376     
  0.198379337913348     
  0.350553139252472     
  4.655411367745357E-002
  0.945178892298705     
  3.955859057636987E-002
  0.578369336289290     
 -0.313560200806711     
  0.401333222881015     
 -9.278984456154854E-005
  0.208412808146627     
  3.641116187031321E-002
 -2.007425211364061E-002
  7.173917499814039E-002
 -4.584678579755227E-002
 -0.264055892011068     
 -6.449044848221878E-002
 -0.130173936970203     
 -3.385050055461414E-002
 -0.217572581708587     
 -0.689141404809898     
  8.082291736907424E-002
 -0.979318393617691     
  0.445218984047530     
 -0.465440520949864     
 -2.779093653923308E-002
 -0.162362034312379     
  0.160266931665960     
  2.744942231768183E-002
 -0.323375161355117     
 -0.255942515086998     
  0.392983408003120     
  0.214323819269583     
 -0.435456363204086     
  2.387579960169458E-002
  0.315879983321258     
 -0.217913546626349     
  0.201755069168955     
 -0.164177533704375     
  0.374558810609541     
  3.246338931242330E-002
 -0.348635606318412     
  0.247147901226569     
 -2.421442880333331E-002
  7.551942359799114E-002
  0.633962120422318     
  0.158819574688865     
  0.354863575679923     
 -1.839434589654198E-003
  0.314924173887349     
 -1.495996114913304E-002
  0.443982134993381     
 -1.792143827686296E-002
 -4.983657471116947E-002
 -0.117438648686884     
  7.822425344238360E-002
  8.199159949740306E-002
 -6.857120126696992E-002
 -0.511877619696989     
 -0.149676732412915     
 -0.197894919957060     
  0.170200406057238     
 -0.421232442193322     
 -0.333663656865159     
 -5.128269320847553E-002
 -8.972016038407511E-002
 -0.545835135365180     
 -0.254810030887702     
  0.132988733704695     
 -5.886990649435658E-002
  4.797618380140848E-002
 -2.750784015626888E-002
 -0.199873620841672     
  0.560487572681661     
  0.157951646990746     
  0.104879168650096     
  1.292206907764919E-002
  0.381976095542233     
  0.640311318493953     
 -0.367070410276477     
 -3.025316917478374E-002
  0.277384075218206     
  0.385136503876292     
  0.103334296185269     
  0.133889124965218     
  0.288127971366452     
  0.140367761926968     
 -0.318023748836941     
  2.879431230831506E-002
  0.429527153983544     
 -0.283590496052571     
 -5.314359863343102E-002
 -0.761853020144027     
 -0.156476487193663     
  9.245610649039553E-003
 -2.524391454562393E-002
  0.130892890030639     
 -0.143787034787010     
 -0.193669603302531     
 -0.614105254434469     
  9.163338847427571E-002
 -0.251857991550180     
 -0.351369942260857     
 -0.270271228601117     
  0.202044987855409     
 -7.686486429366733E-002
  4.144292476315801E-002
  0.478870925628831     
 -0.195866739406035     
  5.560860686340071E-002
 -7.612811503911767E-003
  0.171482807224399     
 -0.359183626155344     
 -5.526330144101381E-002
  0.522947717405426     
  0.269532243595719     
 -0.368973519778790     
  0.202791010364554     
  0.412628849019596     
  0.123515102146392     
 -0.388087586416484     
 -0.154352409496132     
  0.270600317792431     
  0.415964155588414     
 -0.496490077274297     
  0.159643599445305     
 -6.619735348123722E-002
  5.813698274090098E-002
  1.896579341290840E-002
  8.009514795170952E-002
 -0.456730907000699     
  0.318590179605450     
 -0.603159147016954     
  4.954666850614129E-002
 -0.185828469370727     
 -0.414379246752702     
  -1.00422261047138     
 -0.531561654628894     
  0.313011315208437     
 -8.824301462917344E-002
 -7.224264757451043E-002
  7.315600660470260E-002
  0.228064506620713     
  5.068819364251622E-002
 -0.339258933029176     
  0.186198409827310     
  0.547685825661296     
  6.416232424702784E-002
  0.355552464479516     
  0.307167091867205     
  0.536045831093983     
 -3.395783916477083E-002
  0.860493886477254     
 -0.462271210317289     
 -0.128673119441224     
  6.429883102577905E-002
  0.178487424800795     
 -3.645102073348816E-002
 -6.329520392899249E-002
  8.065753168912421E-002
  0.234545988448598     
 -0.318330183663401     
 -0.142500123117747     
 -0.256263854558749     
  0.213857712609591     
 -0.502381165144818     
 -0.307617674698649     
  3.073263320101870E-002
 -5.077774725499769E-002
 -5.593444456652443E-002
 -0.219074382769980     
 -1.558350740036369E-003
 -0.255092377948055     
  0.166044332622186     
 -0.200145407506993     
  0.521121864536329     
  0.925338782930901     
 -0.181858954693140     
 -0.635109202138880     
  0.463769691425811     
 -0.401922308583640     
  0.816330303005096     
  6.054619941751746E-002
 -0.322036595298851     
 -0.541720641224398     
 -0.273383517330268     
  0.228190359865909     
 -4.541027808409270E-002
 -1.288315448185716E-002
 -0.176330075364297     
  0.588765257710067     
  -1.21781431278970     
  2.702840497020078E-003
  0.474516880358599     
  6.507331888353148E-002
  5.866183691509000E-002
  0.193540141108017     
 -0.920631630205064     
  0.241169760347414     
 -0.115782221933865     
  0.366996490322534     
 -0.278907762758515     
 -0.169497977307294     
 -0.282988097794992     
  0.366506094429307     
 -0.474363611546123     
  0.750587730215873     
  0.344640890728727     
  0.174565707885049     
 -0.114951086454553     
 -0.426591809419193     
  0.192291371088726     
 -0.605336482529225     
  0.293607134939704     
 -0.196054293681797     
  1.949959634956694E-002
  9.084326610490327E-002
  0.249204190080850     
 -0.223857565328428     
  0.324198287469057     
  0.275647826504816     
  1.171038503373977E-003
 -0.232711838607282     
  2.511422335724781E-002
  0.356411702906104     
 -0.298309980921434     
  0.418347357103102     
  0.446099004144754     
 -0.776324629563680     
 -0.156806003373165     
 -0.570522501400980     
 -1.801703361032320E-002
 -0.334778432177003     
 -0.568369370461719     
  0.269135067037699     
 -0.430576324410607     
  2.752978307458338E-002
 -3.384762168133330E-002
 -4.069067370072996E-002
  7.272950521859137E-002
 -0.348641358765049     
  4.782838666140275E-002
 -0.429783449364545     
  4.275745054075611E-002
  0.628987912477661     
  0.869586029820810     
  0.746641010011971     
  0.642002252436025     
  0.158441520703793     
 -0.169376714551101     
  0.208350023569367     
 -0.583782362046074     
  0.874802820950723     
 -0.712000138105649     
  4.044701017354876E-002
  6.863238953660318E-002
  0.121372455934241     
  0.243725756391424     
 -0.232883461387507     
 -4.837231281647661E-002
 -7.388819329412284E-002
 -0.999219661308513     
 -0.142012687293591     
 -0.758230283328734     
  0.471901524446382     
  0.159801398137677     
  9.615941754013292E-003
  8.643594924881290E-002
  8.116918807644154E-002
 -0.350097601049720     
 -0.243969634652828     
 -0.169392012081433     
 -0.180735648142501     
 -0.345761340477490     
  3.438848261390260E-002
 -0.125767809706317     
  0.409033796193506     
 -0.472919601124234     
 -0.558747745070875     
  0.356236068841616     
 -0.356980323970147     
  0.283692066890774     
  9.838636267388161E-002
 -8.061932697207351E-002
 -2.213215189413525E-002
  0.186402350552691     
  0.251610671931224     
  0.640044811698449     
 -0.180086312744691     
  0.216939426344224     
  0.540575739838457     
 -0.512565947322310     
  0.435068936938675     
 -0.242837185203026     
  0.645945233328137     
  3.775462567809089E-002
  2.170954735784726E-002
 -0.231946277222618     
 -0.129045049893904     
 -1.029699930034827E-003
  6.086643585711081E-002
  0.125222121940286     
 -0.378118923412200     
  5.087167469480365E-002
 -6.603552876347529E-002
 -7.454809654491300E-002
 -0.140318083274837     
  0.238471947419522     
 -0.519624565010583     
  0.466848403418898     
 -0.646540415217053     
  0.107865912459255     
  6.552729590756234E-002
  0.233246767395609     
 -2.562007599825498E-002
  1.699446870094178E-002
  0.225657774238698     
  2.183370181697429E-002
 -1.665467684326385E-002
 -0.391143461094753     
  7.884709654329547E-002
  0.335410358479285     
 -0.544664491854895     
  0.549390315156429     
  5.108702566583038E-002
 -0.604394917347302     
 -6.405412082376807E-002
 -0.208734124450072     
  0.405534152290034     
  5.229360165298698E-003
  0.565323577327593     
 -0.114610380942043     
 -0.416373959661204     
 -0.139288758579694     
 -7.613029060646326E-002
  0.181746098200987     
 -0.675235044185372     
  0.392921225071219     
  7.034661052711776E-002
 -0.664241087098069     
  1.673172472563333E-003
  8.929363889746014E-002
  0.546029440618057     
 -0.241609950152733     
 -0.606530910157866     
  0.564755580992596     
 -1.637169253802328E-002
  0.401884035414540     
 -6.344429841637050E-002
  0.400572906993324     
  0.102035053669456     
  0.251695299381514     
  0.470647376406935     
 -0.511368249205120     
  0.241079663286299     
  0.516582357586628     
  9.501313644190555E-002
 -3.848565889044437E-002
 -0.526884744252827     
  0.414566313130686     
  0.176874013251959     
 -0.298919583706732     
  -1.09844379182388     
 -7.615735661991815E-002
  0.234899196267622     
  5.239119481496829E-002
  0.104311712054678     
  2.159777130676942E-002
  0.261970179261097     
  5.008849177040414E-002
  0.291694571314561     
  0.207568655014504     
 -0.784163773039150     
 -0.188888281367712     
 -0.763674443417778     
  0.352133600305374     
  0.105118519011002     
  0.677189214914252     
 -0.817400016072005     
  0.142340990458760     
  3.831401949837482E-002
 -0.185946930174142     
 -0.563752286332698     
  1.582383246117434E-002
 -0.361167102428419     
  0.256707656376373     
 -0.382137868463769     
  0.502054810639565     
 -0.539816833235734     
  0.243123480690749     
  4.206030384937786E-002
  0.532859826615601     
  0.162014910339990     
 -0.455210787112710     
  0.776477532404932     
  0.331257507924421     
 -0.491408782222026     
  0.168561117491470     
  0.294813594355572     
 -5.931690576489876E-002
 -5.676995457482180E-002
  7.054772817271697E-002
 -3.194699935489199E-002
 -0.157258277596009     
  0.470953545012588     
  0.341868071120649     
  3.736274758173061E-002
 -0.503870380608796     
 -0.258224123333988     
  0.263102775923985     
 -1.793328714379480E-002
  0.182022526190130     
  0.231770314107574     
 -0.475432781345534     
 -0.163265572772437     
 -0.305724631880152     
  0.194414925326582     
 -0.523392402600839     
  0.346998832349765     
 -0.973566536790047     
  0.937847735010286     
 -0.467052088383807     
  0.404689147988715     
  0.752754320426420     
  0.220693007482779     
  6.183040872246059E-002
  0.113458759443048     
 -0.105498507880428     
 -0.115600243313143     
  0.354555964257950     
  0.135486031357219     
  0.147841207879314     
  0.449063527939493     
  0.464168360276643     
  3.252478583405052E-002
  0.648908735692213     
 -0.108669822602451     
 -8.812322952721290E-002
 -0.420333055372415     
 -4.089763958808380E-002
 -0.503115180706887     
  0.422578714446824     
 -0.423182889446902     
 -0.101178399289933     
 -3.529311402568063E-002
  0.406692173967033     
 -0.428298184936816     
  0.273267096633704     
 -0.601117664400293     
 -0.230317372076384     
  0.126008647910586     
 -0.621930912342881     
  0.177179157031515     
  0.163192961759600     
 -3.014579725151692E-002
  0.195584347520711     
  0.120692582018430     
  0.141062447892689     
 -0.192583028875841     
  0.203896496980110     
 -0.171395764376436     
  0.518710748376788     
  0.309785555865882     
  0.273363850147894     
 -0.500455815379182     
 -9.120175385940268E-002
  0.476823859312707     
 -2.987856704119879E-002
 -0.189171422160747     
 -0.378881237680233     
 -0.116814049770555     
  0.220447330214031     
 -6.740787308319252E-002
  0.229551239150063     
 -0.914180491603398     
  0.108561051403612     
 -1.229356918901906E-003
 -0.572675059602498     
  0.184234931356619     
  0.318061886114533     
 -0.597103064222356     
 -0.169513581825316     
 -0.309169896655930     
  0.597038870358023     
  0.494845812184142     
  0.175768409654566     
 -0.397919613318092     
 -0.125416406275629     
 -4.417887556487909E-002
 -0.209051774873218     
  0.258551619885661     
 -8.143077620471750E-002
  7.513313844020122E-002
 -0.480613827906488     
  0.273633649511162     
  0.113943067704869     
  0.642446952564674     
 -6.208535578668229E-002
  0.285466237020440     
  -1.32392235660479     
  0.258315943093013     
  0.472292987606457     
  9.944140345029518E-003
  0.361222116893775     
 -2.992259488878686E-002
  0.301653658318473     
  0.634416509260383     
  0.515660468740870     
 -0.578036619865127     
  0.384398808311451     
 -0.343088185203521     
 -0.106968052740538     
 -0.547734629999341     
  0.333926780315024     
  5.988289759009463E-002
  0.740258853493685     
 -0.359439690766914     
 -0.567979310248023     
 -0.324486432755199     
  0.498993297276323     
 -6.366410215050559E-002
  2.351685035123820E-002
 -0.146067488096168     
  1.145008789167595E-002
 -9.911765108646248E-002
  8.397328679737177E-002
 -7.486739267422751E-002
  0.788407884993978     
 -0.645584717011424     
 -0.451421832401036     
 -0.340002010889002     
 -0.405113011669019     
  0.576494457023106     
  0.298803839642593     
  3.813516321468725E-002
 -0.245010905430778     
 -0.181987182642460     
  0.172931780599915     
  6.156546857931157E-003
  0.105732745394748     
  0.136112801463596     
  8.224391631547595E-002
 -0.260223698799791     
  0.104049879595593     
  0.407424764733122     
  9.361877251581496E-003
  2.975592082340350E-002
  0.207486155491999     
 -0.338525998575683     
  0.385543759585445     
 -0.508848207760608     
  0.745370546462722     
 -0.231501476864311     
  5.209508989783224E-002
  0.125444110749266     
 -7.767777355670791E-002
 -0.154695655128998     
  0.257641148694214     
  0.459632903112652     
 -3.949398290362133E-002
 -1.043081860060930E-002
 -3.684120502359761E-002
 -0.111707557493589     
  0.455869275579757     
 -0.250447197856134     
 -9.647874652807439E-003
 -0.502100877887829     
 -0.243899222200630     
  0.473635105361812     
  0.281414333265458     
  0.128384431931881     
  0.301661371227248     
 -0.214541899183798     
 -0.331420025243141     
 -0.162136399639407     
 -0.413519029967742     
  0.516515340447436     
 -0.295430375113215     
  5.411831993471402E-002
 -0.461031244736883     
  0.612283536415991     
  0.156655023254300     
  0.631266836129787     
 -0.644949647890488     
 -0.900673281660266     
  0.347245967614823     
 -0.180353662707328     
  0.142296633830169     
 -1.795518418075596E-002
 -0.272065969048407     
  0.415485503198609     
 -0.310077093009317     
 -9.008292339015428E-002
  0.167882074143892     
 -0.191240568634569     
  0.212066677792890     
 -0.426782887377550     
 -0.110226425181264     
 -0.467402865721028     
  0.850724460814847     
  0.286561208057961     
  3.161873821351410E-002
 -0.108786344803983     
  5.906179959596465E-002
 -0.748988886904014     
  0.430525825821560     
 -0.402626218304089     
  0.851592489759438     
 -0.411916766178931     
 -0.116509736259381     
 -0.164970372263202     
   1.24884804265095     
 -0.317974135386731     
 -0.793959690596181     
  0.797090664629041     
  0.109742484478567     
  0.862175571215791     
  0.183411350980438     
 -7.651499251527474E-002
  2.612131351249895E-002
  0.125128704778672     
  0.267967414567587     
 -9.633323221239636E-002
 -0.380082026620838     
  0.316883501183408     
 -0.599148920350721     
 -0.494654907604981     
 -0.297704197936825     
  6.284629437041360E-002
 -6.612227097556275E-002
 -0.709640335573471     
 -0.697286745770928     
 -0.391864385091690     
  0.142408788566316     
 -7.775902530043602E-003
  0.360168169774537     
 -6.574108431372584E-002
 -9.242341733347201E-002
  0.224804949506451     
 -0.243183816500422     
  0.232957098574763     
  0.486862629099821     
 -0.552513633925796     
  3.810787346613735E-002
  0.419813903942227     
  0.398734481958077     
  0.248465918014555     
  0.510431009011385     
 -0.333836651189506     
 -0.256086181395252     
  0.154129693010219     
 -0.510429815410507     
  0.201744271598136     
  7.032854878778191E-003
  0.300971954879463     
 -0.673665846773367     
  0.428908139980602     
  0.120086009447640     
  0.315306468756941     
  0.525151196435641     
 -0.738659047712736     
  0.200137054649133     
  0.491313985473378     
 -0.597588174543395     
  0.111146229893671     
 -2.351839691186912E-002
  0.107527219111709     
  0.383593737456042     
  0.535239030770027     
 -0.264376632681973     
 -2.299975874338768E-002
 -0.790685501259955     
 -0.233326844514569     
 -0.294206100485321     
 -0.864523819361412     
  0.618565026504924     
  0.154653055400294     
 -6.548252254490655E-002
 -0.426617250492691     
 -0.162764606064461     
  0.324702989593319     
  0.180572632324912     
 -7.064590079141604E-002
  0.170529914026981     
 -0.626602138862514     
  0.528074585947307     
  0.736791745678506     
   1.02459444770288     
  8.326283347309631E-002
  0.291549570068635     
 -0.151132488989618     
 -0.555716184409451     
  0.370406096507431     
 -0.143558278886831     
  0.518794787980682     
  2.446311473174467E-002
 -0.424862117940054     
 -0.283183315656602     
 -7.508237429983296E-002
 -3.802594327161160E-002
  0.430013880864393     
 -8.797552586166077E-002
 -0.160984522856671     
 -0.100410399462845     
  0.427149725050468     
  6.134300823090139E-002
 -0.210740061976970     
 -0.618670131125544     
 -0.116686696905311     
  0.392476779981235     
  0.127227682281406     
  0.537700359027493     
 -0.290965303132745     
 -0.206299370306517     
  0.317681348530559     
  0.261356289208352     
 -0.300533189080530     
 -0.123570291127636     
  7.993755240996907E-002
 -0.176666241160943     
  9.208860104480415E-003
  0.405104414446923     
  0.103176795830428     
   1.06217431406746     
 -0.570865999007430     
 -0.157031072078693     
 -0.328610689678350     
  0.508610134554023     
  0.193901262198443     
  5.909379441179682E-002
  5.369981749413017E-002
 -0.357617335676365     
  0.576726355711919     
 -0.167627604464721     
  8.146729374985676E-002
  0.280068867494899     
 -0.444208025660878     
 -8.910857453242650E-002
 -7.576961978052676E-002
 -0.539060937207147     
  0.478675326929367     
  0.115433181350495     
  0.110136480362027     
 -0.434450837152986     
  7.240534927813185E-003
  5.952676497558978E-002
 -0.332616513649006     
  0.216184598248694     
 -0.195508994311004     
  4.677679964883794E-002
  0.347851565292956     
 -0.301571008025079     
  0.115439972150183     
  0.126611280521368     
 -2.268078657430685E-002
  2.184192051333929E-002
 -0.195094698140848     
  0.622742927522992     
  0.497224645833423     
 -0.287736526876581     
  0.175178905877509     
  0.186529846457960     
  0.217698402151164     
 -0.400995418970014     
  0.304570136682375     
 -5.431032691693297E-002
  9.670752554417590E-002
 -0.485153173068094     
  0.331495909332816     
 -5.236068124143521E-002
 -6.459900097991356E-003
 -0.407584100949909     
  5.924835723879812E-002
 -0.547436692391685     
 -0.679579233024543     
 -0.274098651418057     
 -5.714742143029639E-002
  0.185244583812758     
 -0.363274654910252     
  0.111425888461643     
 -0.228158191110303     
 -8.799794980657539E-003
  0.390021069651717     
  0.348365491405824     
 -0.357290429478946     
  8.868304997771892E-003
  0.253703148003164     
  0.427388970909402     
 -0.296289234058612     
  0.433368530250086     
  0.420978073554117     
  0.417465516550345     
 -0.285398051393466     
 -1.830514024570501E-002
 -0.229300468362594     
 -0.370106236676584     
 -3.443541634917063E-002
  0.162831887744013     
  2.895162516306962E-003
  0.123478952451535     
  0.205938685642694     
 -0.631759555273062     
  0.677069290530631     
 -0.670785757435603     
  1.260744679674617E-002
 -0.122900490724674     
 -0.224938796257708     
 -7.668466846006784E-003
  0.143041884330641     
  0.462623658974335     
 -6.087074971414472E-002
 -0.288619216224403     
 -6.026335739266189E-002
 -2.563257372459252E-002
  0.260377138477792     
 -0.322202135203309     
  0.211849168409743     
  0.865599949712995     
  6.326763579147110E-002
  0.697072249505083     
  0.364508920838404     
  0.673079900836890     
  7.477141891475043E-002
 -0.261737428793904     
  0.437116355447965     
 -0.507053503336477     
 -0.502177869564930     
  0.288089832851160     
  0.148583705572662     
 -0.549063286327888     
  0.541641810418510     
 -0.381130556188251     
 -0.181881208927749     
 -0.729807467729518     
 -6.819307337614747E-002
 -0.678090089896127     
 -0.213454725089537     
 -0.622556928128789     
  0.139737906021634     
 -6.954772767963645E-002
 -0.605951026707959     
  0.248334327944412     
  0.282400715486404     
  0.437211041201984     
 -2.205386877675070E-002
  7.990276297170837E-002
  0.544291266597821     
  0.201811207623887     
 -0.207528369745215     
 -0.141475070964803     
  0.240736884449384     
  0.199995458145928     
 -0.197537347792678     
  0.310048702457573     
 -0.368612660611579     
 -0.424771339121898     
  0.380828828762903     
  0.153835497733033     
 -0.322554146655350     
  5.512730548493337E-002
 -0.496483009220474     
 -2.480300244178395E-002
  0.185895302640075     
 -0.166628404661485     
  0.423365135382784     
  0.225277797407575     
 -0.375835678395202     
  0.323396273584949     
 -0.123657234883920     
  0.280470343254386     
  0.895812912492103     
 -0.597427508768427     
 -0.491165650073086     
  7.714235372480360E-002
  0.266474657546887     
 -0.819931987575036     
  0.715487635348531     
 -0.814997357873949     
  1.338450615042364E-002
  6.062806222438567E-002
 -0.349051785303671     
  0.202166630066996     
 -0.389981176992138     
 -7.668253916287943E-002
 -6.522841107254903E-003
 -0.754273545334673     
 -0.350808093095342     
  0.298221847484199     
  0.220433555886938     
 -0.338669912048111     
  0.292049333559059     
  0.183193097251509     
 -0.189195118539585     
  0.256142585292603     
 -6.599108989218162E-002
 -2.788043562458589E-003
 -0.247854172448550     
  0.162233987768431     
 -8.729183438700677E-002
  0.105470592347709     
 -4.623304316709685E-002
 -3.909815755477234E-002
  0.562059372452503     
  0.276157703171291     
  0.179132663491975     
  6.382502119721042E-002
  5.288151820263889E-002
  0.148139768312928     
  3.643758504026588E-002
 -9.768676845448265E-002
  0.454953890828051     
  0.148228300504645     
 -3.002091916517379E-002
 -0.267349788221327     
 -0.655507170789983     
  0.114512168673009     
 -0.201757726301588     
  0.252366979350075     
 -0.900551932597325     
  0.230029193704738     
 -0.261019299868449     
  5.944219124611892E-002
  8.562824150179967E-002
 -0.438784506621118     
  0.392584454402397     
 -0.163037418618655     
 -0.216011025454422     
  0.188427133007756     
  0.394309309468746     
 -2.062231994861370E-002
  4.362683138994200E-002
  5.909224953095765E-002
  0.292168757048796     
 -0.293050127978293     
  0.707058665786226     
 -0.160137384493839     
  0.110418750486143     
 -0.116848249151589     
 -0.117220244015682     
 -0.379896431895207     
  0.165579398676500     
 -0.207529438329288     
  0.151838650153785     
 -7.760768173162245E-002
 -3.228220873121832E-002
  0.355095076190524     
 -0.327298262107966     
  0.195020513029526     
  5.258433174162926E-004
 -0.162643110807608     
  0.165882858469977     
 -0.279181943847740     
  0.146426910525623     
  0.323893535664155     
 -0.348842068289024     
  0.254181776663494     
  0.108161314851978     
  5.930072684334813E-002
  0.302298466479702     
  0.101717770981224     
 -0.440341378244329     
  0.178652182919112     
  0.101769505232699     
 -0.329512463191840     
  3.086822348770628E-002
  0.191594450647897     
 -6.360298611910219E-003
  0.161238980014820     
 -0.197342905839598     
 -0.355307887563397     
  0.125500581126148     
  2.633063387932899E-002
 -0.322193356840487     
  0.174494651787524     
 -4.478851246076859E-002
  8.634862346059460E-002
  0.305711471899597     
 -0.402544452663280     
  0.238538897365047     
  5.188363340309221E-002
  0.261267976951658     
 -0.387834716940178     
  0.264457072374557     
 -0.324534948184335     
  0.489696704896031     
 -9.295403374175792E-002
  7.377281019330797E-002
  0.302031853878417     
 -0.493275289050798     
  0.474108243055953     
  0.257778220245926     
 -0.342553704474043     
  0.341583257733116     
 -0.101386478347179     
 -0.221375913345792     
  0.800523213147672     
 -0.706340389879278     
  0.290300915845590     
  0.539196955759294     
  0.151138225570563     
  0.410903438722822     
  0.427521187000497     
 -0.270605032834402     
 -0.140413430856566     
 -0.470056481390732     
 -0.172105896705294     
  9.349272977346033E-002
 -0.172853878219852     
 -0.101250292254214     
 -0.247636577090513     
 -2.837291344460495E-002
 -0.276102766204828     
  0.554520751033350     
 -0.263784580778105     
 -0.847860521797205     
 -0.120859355838168     
 -0.103661808714086     
 -0.244967854781400     
  0.169956973717189     
  0.478278107808789     
  0.136674904775582     
 -0.108623600094958     
  0.146940910953521     
  0.273414115179326     
  9.954863400896988E-002
  0.135264138371176     
 -0.200240040260767     
  5.484210140855428E-002
 -7.028450606252692E-002
  0.136675388075534     
  0.804507466334721     
 -0.248599045116806     
 -0.112780149974814     
 -8.115417425902820E-002
  0.376347744748042     
  5.366001875445892E-002
 -0.102459117863264     
  0.219109505182668     
 -0.432074528725922     
 -0.310525581002727     
  0.270035958640290     
 -0.508265092314723     
 -0.251106512911938     
 -5.547957609572732E-002
  0.423404988331830     
 -0.387632916699163     
  0.616347708239894     
  2.125849905540180E-002
 -4.671973681281637E-002
 -0.447577282677558     
  3.083302079071471E-002
  0.228444722650127     
 -0.152249144632799     
 -6.411458675762526E-002
  0.285469570869397     
  0.204359826271962     
 -9.811230791214318E-002
  0.161264750559752     
  0.289757116663599     
 -0.351738680162999     
 -0.193528671777685     
 -4.074821211359189E-002
 -0.379465651186540     
  6.206526671609321E-002
  0.298597700400015     
  0.283500326286029     
  0.307182554864048     
  0.272113645378372     
  9.195582598638458E-002
  0.262943562764724     
  0.197432077008058     
 -0.221366364463897     
 -0.431140752909207     
  0.467034348631657     
 -7.261575924143079E-002
  0.510980952374953     
 -0.792577951786534     
  0.215751464446530     
  0.159070692086009     
  3.290855121590621E-002
 -0.285287178303983     
 -7.280281242420972E-002
  9.908952557034809E-002
  0.358734306650768     
  0.254582108097540     
 -0.436086822863239     
  0.171058579277431     
 -0.235456923236512     
 -0.470937852147915     
  0.555383191535429     
 -3.215594710690173E-002
 -8.701333052064512E-002
 -4.228621774300716E-002
  0.280273657757943     
 -0.434571443697488     
 -0.215911862134368     
 -0.469312671213230     
  0.384347069061517     
 -0.438664167949367     
 -0.111150833394944     
 -0.517155673713064     
  0.170181624014008     
 -0.377031669708959     
  0.328655857809996     
  0.428284442665203     
 -0.383785123258889     
  6.707004190185099E-002
 -7.575129524406368E-002
  0.522364777213093     
  7.525904591797179E-002
  0.298868261187987     
  0.117777578974015     
   1.11449052381546     
  0.161714323447571     
 -0.332283918513033     
 -0.130104478715054     
  4.626727808947602E-004
  0.593073554238160     
 -0.543695155331126     
 -0.233181850306071     
 -0.295102405676542     
 -0.176607799719941     
  0.311679615718559     
 -7.067323119011604E-002
 -0.481437263191963     
 -6.857584250645374E-002
 -0.100531520473382     
 -0.111137669270097     
  -1.06141436742477     
 -0.223433688842344     
 -0.136576079284172     
  0.455444332235551     
 -0.177601792910184     
  0.101982127605615     
 -0.404969287865099     
 -2.432784757862592E-002
  0.511500665414553     
  -1.60106063938329     
 -0.942107341929636     
  0.390918827453603     
 -6.597025367605228E-002
  9.854456627318822E-002
 -0.309691879575415     
  0.150961776074663     
 -0.580332333291227     
 -0.496046130615221     
  0.288581302576991     
  5.848697747505438E-002
 -0.559622964648113     
  0.755882111713692     
 -0.250905120349791     
  8.826668778560962E-002
  0.599688229877366     
  0.264321987698678     
   1.11874618118728     
  9.107922681789336E-002
 -7.309379818472765E-002
 -0.590293614729650     
  0.493573955999623     
  0.145180230124919     
  0.428255196827676     
 -0.202162980737773     
  0.163790189232378     
 -9.290612640385319E-002
  0.489302184645038     
  7.761147606827129E-002
 -0.513873351539959     
  6.157139023309234E-002
 -0.415218449125680     
  0.670551572915270     
 -0.984127146866045     
 -0.107131431627224     
 -4.728370768702893E-002
  0.617380711445341     
 -0.647822865782814     
  3.612048358484331E-002
 -3.082417065440398E-003
  0.124239857880723     
 -9.492664701792108E-002
 -0.336578563331184     
 -7.887159944574609E-002
  0.106220694101842     
 -0.586751382104483     
  0.457968382473807     
 -9.155121239486831E-002
 -0.651068145779097     
  0.743259386773096     
 -0.133917766322436     
  1.129307038952595E-003
  0.228499495440148     
  0.328112711867121     
  0.190742685067796     
  0.583188424182289     
  0.489000366575922     
 -0.462127020434089     
  0.138082714035277     
  0.457703625703869     
  0.166569996746747     
 -0.281117762784466     
  0.176952898870567     
 -0.483931023926326     
 -0.206633510246535     
 -0.365350449843518     
  0.331384315124671     
 -0.434458065327289     
 -0.226703630595186     
 -4.688409965102160E-002
 -0.283197688026045     
 -0.612132534923888     
 -0.245654351756327     
  0.486476558152598     
  0.253254965191662     
 -0.118574587226219     
 -0.144136564409737     
  0.310803435467629     
 -0.465233653632014     
  0.526687814119662     
  0.506884408342938     
 -0.439646069144169     
 -4.913660046906304E-002
  0.482906058350903     
 -0.113357477970589     
  6.646536979383182E-002
  7.740819594610426E-002
  0.216166412439135     
  0.107058011747874     
  0.523576112473220     
 -0.462119756214842     
  5.214304999874682E-002
  0.155430378814997     
 -0.347716602986652     
  0.354178513594450     
  0.142693726465568     
 -0.172815707138760     
 -0.471010287066676     
  0.391687229297660     
 -0.162017104578648     
  0.399965317696698     
  0.290592059830952     
 -0.466399844157522     
 -4.282404544122894E-003
 -0.195251317273669     
 -2.319825462160223E-002
  0.139377416326129     
 -7.863173379452279E-002
  0.153625821174713     
 -8.743104654518050E-002
  0.456367692315456     
 -0.581207995430319     
  3.747901137540264E-002
  8.336838375177072E-002
 -3.823643437317559E-002
 -0.480749450981483     
 -0.157904029449782     
 -9.763830079279151E-002
 -0.226253616827057     
 -0.239464055892131     
  4.611494553334919E-003
  0.157090095339572     
  0.486498670468383     
 -0.258548462043441     
  6.790466059215090E-002
 -0.382810633845979     
 -0.100225481336893     
  0.545206615947146     
  0.225427156503143     
 -0.207939885984472     
  9.072484823869564E-002
  0.214061908828758     
 -0.120259998880474     
  0.244655134884120     
  0.171768996976557     
  0.318790859244887     
  6.062087911333787E-002
 -0.284706118987909     
 -1.469297796659083E-002
  0.233101248917373     
  1.420704997199940E-002
 -0.606894560566834     
  0.788809959400191     
  0.435160536687315     
 -0.419671504030986     
 -0.185504343636770     
 -0.743693736646393     
  0.467260013292326     
  0.366078794434360     
  0.357020311375307     
  0.169627851306538     
 -0.433513988441303     
 -0.358297784851286     
  0.542125848114678     
  2.772639320023514E-003
 -0.243805270639513     
 -0.140530062498473     
  0.234504485410567     
 -0.934048188201967     
  0.513612282390911     
  0.369591432079481     
  0.766403171103040     
 -0.262861094903428     
 -0.243297126041858     
  -1.05130595539984     
  3.331366622611806E-003
 -0.364093000014108     
  0.475966487290002     
  0.225416179998845     
 -0.542933030980242     
  1.592491574966089E-002
  0.408555439456898     
 -0.317373604982710     
  0.560577974590200     
 -0.136654421124098     
 -0.415748781919651     
  0.130715882042808     
 -2.522644927256230E-002
  0.522328046759318     
 -0.403644730898168     
  0.804126975616103     
 -0.509200630847165     
  0.373899382949919     
 -0.484710994401362     
 -0.205123849098903     
 -0.222787462719979     
  0.183178856914614     
 -1.441028783362483E-002
  0.183369633368868     
  0.215977847318177     
 -0.140956299466765     
 -0.171263754427436     
  0.197846062231843     
  0.415274079342428     
 -0.323656664736987     
  0.478105899427328     
  7.702895094884996E-002
  0.320667189605226     
  0.487949418224680     
 -6.309940479717148E-002
  9.305939229025122E-002
  1.096449495013568E-002
 -0.245349086428426     
 -4.845573652147726E-002
 -0.398269903478937     
  0.256700353395276     
 -3.299984004961504E-002
 -9.733381204811416E-002
  0.293865711409178     
  0.128437951873404     
 -0.111715898198889     
 -0.533775746638341     
  0.132964761611912     
 -0.942460649733407     
  0.650651726383179     
  0.153620270021536     
 -0.450537196951439     
 -0.127025505618032     
  1.687921186503751E-002
  0.290975017140242     
 -0.545260296114565     
  0.315395859568840     
  0.309359329670986     
 -0.240156759251302     
 -0.298219625743783     
  0.696353663329412     
 -0.423301235874979     
  0.543221612944512     
  6.147287045504013E-002
  0.881055545624715     
 -0.961008528096839     
  0.320633950820474     
  0.262720776459048     
  0.149179279410871     
 -0.136199708685423     
  0.115291073943314     
 -0.289758433916710     
  0.168428186313828     
 -0.360122929392776     
 -1.223859539695739E-002
 -0.135104291622266     
 -0.157203965960316     
  0.322794936008911     
  8.058653276429038E-002
  0.237845757682557     
 -0.242743737165787     
  5.656112265377233E-002
  0.333234008986234     
  0.263467400091960     
 -0.105933792596068     
 -0.523492772180504     
  0.241659968610836     
  0.269183539008861     
 -0.332134649078401     
   1.07823162561341     
 -0.796964611710543     
  7.948512282312167E-002
 -8.938638435558763E-002
  3.069875994164053E-002
 -0.347740014672430     
 -0.136940479934281     
  0.477797540295094     
 -0.316175950699464     
 -0.526646695506828     
  0.386766250693838     
  0.171825838586543     
  0.570064182554921     
 -0.715451938109541     
  0.573252099517046     
 -0.935566461427173     
 -0.105682927736329     
  0.500887737764501     
  0.161772257273806     
 -0.363377642804146     
  0.211938334110633     
 -0.148641505907004     
  8.858446143831968E-002
 -0.538085788681701     
  0.498046846814653     
  6.041206369129971E-002
 -0.153423481553477     
 -0.128501979615771     
  0.185170431953853     
  0.123084685415258     
  0.194252785563534     
  0.100395398613256     
  0.100354679562232     
 -0.259868768050112     
  0.118431513695822     
 -0.362057875895400     
 -0.280985376550820     
  0.107982536861197     
  0.158609121973998     
 -0.170764699905684     
  0.236849531491234     
 -0.127354925298998     
  3.889098252739694E-002
 -0.156191492119279     
  0.380405126507065     
  0.135845134402514     
 -0.607870300824254     
 -0.257568343690455     
 -2.402812698743402E-002
 -0.318357321445842     
  5.226931784502974E-003
 -0.251356717982209     
  0.566117697710354     
 -0.230567786630370     
  0.130183338986332     
  8.180467083426181E-002
  0.364178939412741     
 -7.490315394562706E-002
  3.984093900595929E-002
  0.188830405821917     
 -0.150502699555088     
 -0.187157994934704     
 -2.853956999209186E-003
  0.366836784458439     
 -0.163427874341142     
  0.294022305986689     
  0.366090427125469     
  0.285952067543956     
  4.990870544339820E-002
 -0.100173201695965     
  0.163518028268359     
 -0.243233142859784     
 -5.010009709497637E-002
  3.464347665793730E-002
  0.228037167539840     
  5.109798913280292E-002
 -0.172297725126507     
  0.206423628247734     
 -8.763910971711332E-002
  1.152017650845925E-002
 -0.500352407146787     
  0.243879588833396     
 -0.119167450875937     
  0.129793898898443     
  0.121767429782377     
 -0.301223354645096     
  0.141160179665254     
  0.175255939693325     
  0.286237149214034     
 -0.130271111268286     
 -1.860371271703315E-002
 -0.285285565553836     
  9.736132118047200E-002
 -5.484049551126725E-002
 -0.120508743204801     
 -9.434415665373755E-002
 -8.008321035944783E-002
  0.310592671923723     
 -0.179183396493760     
 -0.331691253047568     
  8.823533880607386E-002
  1.122866594256313E-002
 -0.132601113337477     
 -0.259428796327198     
  0.541996304755633     
  0.250717056537203     
 -0.132226606898609     
 -8.892590792624775E-005
 -0.108411614789453     
  0.126967024163542     
  0.111728318754525     
  2.655109453520434E-003
  0.278759425639470     
 -0.321313265634373     
  0.234084085484286     
 -0.485938816638242     
  0.447870993882927     
 -0.208043938389195     
  0.165015478750129     
  0.158516607209573     
 -0.681031991587987     
 -2.577340941103333E-002
  0.267305705493839     
  0.340493643667822     
  0.626149355795075     
 -6.515467078918567E-002
  0.139635176934843     
  0.714784115432017     
 -7.031733039448157E-002
 -0.317982940227933     
  0.220358706659199     
 -0.263762827404354     
 -0.440543529282139     
  0.173256110561270     
 -0.388179553007760     
  0.292914248353728     
  4.258800058360936E-002
  0.474237626748912     
  0.999337080006856     
 -0.555152439750967     
  0.215556094769154     
 -2.019440662943088E-002
  0.150486672596843     
 -0.240672872587646     
 -0.115870963058419     
  0.209007612425918     
 -0.171533274667026     
  0.856411906770182     
 -0.247679034692938     
  2.957135764635880E-002
  0.232086528927385     
 -0.149664683237774     
 -0.189167923423192     
 -0.183892849081967     
  0.369298989619353     
 -0.218158419913239     
 -0.637713473068165     
  0.158370703940373     
 -0.275013778649079     
  0.144251508991594     
 -8.952074707701144E-002
 -0.228798161774237     
  0.119943817886765     
  0.363355491039395     
 -0.203968051261014     
  0.481878584190746     
 -0.234283835282541     
  4.115836641011176E-002
  8.425076085162408E-002
 -0.446388186146107     
  0.117899470190165     
  0.230478653226085     
  6.591596034580699E-003
  0.183459159624894     
 -9.938753570594552E-002
 -0.203158275235794     
  0.737043474040678     
  6.483933825761670E-002
 -0.145672665013583     
 -0.257386411780551     
  0.188654589802682     
  9.047830581853424E-002
 -0.324736723984802     
 -0.194416159324911     
  0.125218045666279     
 -0.323402356454978     
 -0.466697633471935     
  5.564142826170898E-002
  0.111347880597903     
  8.531940590091222E-002
  2.775046248801492E-002
  0.366392065005565     
 -0.857734440006136     
  0.460332539091416     
  0.349839209419583     
  0.149269822349920     
 -0.257105129875830     
  0.183146967967059     
  0.168875900501434     
  0.245184640770460     
  0.219010132295467     
  0.164971926870501     
 -0.290781437502350     
  0.191756103169016     
 -0.263633167442135     
  0.426536578265509     
 -0.573873624207256     
  0.754484547892325     
 -0.149135347827900     
 -0.110284582880244     
 -0.249344257331073     
  3.195563418546531E-002
  0.135756602112947     
 -0.188221522530389     
 -4.207584920921715E-002
 -0.184108151546177     
 -0.274617165655701     
  0.298679552378685     
  1.243275247198263E-002
  0.139688635718558     
  9.213718941815216E-002
  0.124168822014111     
 -0.322359815803048     
 -0.240784067791648     
  0.568379111865585     
 -0.120460147006301     
 -0.189057650998366     
  0.170583999409903     
 -0.341847976756329     
  0.231095469408064     
 -0.364040142702187     
 -0.368423107909609     
 -0.565777814473671     
 -0.172098840752681     
  0.104811554941308     
  0.202940424537373     
  0.251416249200924     
 -4.408990496258114E-004
  0.320725810500457     
 -0.104992788618205     
 -0.272494979248324     
  0.100340797723319     
 -0.149726362640372     
 -0.189118774111725     
  0.442010553491590     
 -0.356811737875336     
  0.275965248864760     
  0.744447197490014     
 -0.447281329777410     
  0.852449436774042     
  9.161881736965362E-002
  3.072048871228394E-002
 -0.431647365504395     
  0.255447888844552     
 -0.173858229489769     
  0.184603470816418     
 -0.358847166707755     
  0.147030158026742     
  0.243970349078186     
 -0.198062636131405     
 -0.344616369564415     
  0.668216480802883     
 -0.388550841187601     
 -0.476866745395738     
  0.470708248734276     
  -1.08878115037290     
 -0.214437219833561     
 -3.525836231315976E-002
 -5.581983483806641E-002
  0.227602015145994     
 -0.373691710784279     
  0.305768776880270     
 -7.145464485167475E-003
 -0.344089966281794     
  4.171513332333122E-002
  0.693644228259885     
 -3.193059075753060E-002
  6.878275713414338E-002
 -0.104559982098095     
 -0.191636200829554     
 -0.192932684428288     
  0.303250693095024     
  0.486446318373030     
 -0.737901546874604     
  4.806581157592212E-002
 -8.328423747206566E-002
 -5.730822546829471E-002
  5.347765063249700E-003
  0.558662910931182     
  0.214423309216452     
 -0.819986435592972     
 -0.286761772675377     
 -5.802357935913814E-002
 -7.484111722646618E-002
  0.336487771007412     
 -0.383086710977513     
  9.106040299528358E-003
 -0.360024739797008     
 -0.142474548756636     
  8.479240947054455E-002
 -0.514705063835548     
  0.295822935582056     
 -0.278111817447976     
 -0.669005974219630     
 -3.267258955977484E-002
 -0.343819868977885     
  0.699818520506150     
  0.122670947589282     
 -0.205423768946680     
  0.319824315147761     
 -0.182237035668119     
  0.660337169650337     
 -0.201702156330452     
  0.309303381600619     
 -7.366838683009395E-002
  0.487049672012967     
  0.149439369818035     
 -0.253401815816466     
  0.233831011507952     
  6.514341194926646E-002
  0.570595088268828     
 -0.382092813714989     
  0.361936400582658     
 -0.814782855687414     
  0.676664847678093     
  0.105076803671375     
  0.106479409656863     
  0.235510594937503     
 -0.179062006646746     
  6.049841118874493E-002
  0.159248737902749     
  0.230141693315468     
  0.165505437621035     
  0.142096636837634     
 -0.129966388800523     
  6.278959593155009E-002
  5.452423164638420E-002
 -0.122867462752352     
 -0.113474026333051     
 -9.647693471810603E-002
  5.169808504468217E-002
 -0.456049569936223     
  0.155469052776920     
 -0.360281088261405     
  0.228730084937940     
  0.243081382035078     
  0.473679987780486     
 -0.163790744969578     
 -0.370371158329886     
  0.130323399530836     
 -0.330794332886826     
 -0.139939971732248     
 -0.247856849584879     
  0.480871361095216     
  8.014122385724026E-002
 -1.905746190857505E-002
 -0.329756772327402     
  0.566960344793500     
 -0.298738920405778     
  0.471160961324351     
 -0.180112141966839     
 -0.283652377338751     
 -0.353276982706444     
 -0.362721343377791     
  3.258340335521156E-002
  0.218056343450356     
 -2.976438678062945E-002
 -0.724213027061349     
  0.438164750772959     
  0.132266194524117     
 -0.232838095863679     
  0.130491579427075     
  3.229345053079831E-002
 -0.176201364670161     
  0.287820814094202     
 -4.809967315840671E-002
 -0.300363890527289     
  0.159423058295144     
  2.889271969721145E-002
 -0.195609263426456     
  8.396681020058332E-002
 -0.293781362175374     
  0.398131904978746     
 -0.213427502658786     
  0.192560937629631     
  2.924936047734202E-002
 -0.178733851800154     
 -0.238260769471000     
  0.551730486173591     
 -0.242735336011723     
  0.186522125028960     
 -9.467739826748005E-002
  0.342925388576060     
 -0.152175943514171     
 -7.103539575731795E-002
  5.870586348710283E-002
  0.131160337067546     
  0.182367758003723     
  0.280962348298268     
 -0.264962747496925     
 -0.478221089947023     
  0.220671784348551     
  0.338756520426249     
 -0.549849068926538     
  7.471322673066738E-002
 -0.109337317790307     
 -0.343800798271369     
  0.294847759216794     
 -0.311263015218305     
  0.329039476281503     
 -0.212124168301975     
 -2.639302994116642E-002
 -0.252090428283357     
  0.216982605840569     
  3.926920667746692E-002
 -3.703877981108634E-002
 -2.745924606827186E-002
  -1.18517894602284     
 -0.394054283154325     
  9.778432228167647E-002
  8.067251939022857E-003
 -9.367228491866617E-002
  0.386956365663627     
 -0.223920419429430     
 -0.309307669473388     
 -0.391814957926850     
 -0.227914897620669     
  0.139539650306165     
 -4.304976091077824E-002
 -0.155070851458139     
  0.521755907580956     
 -0.235623446232952     
  0.191104289802982     
   1.02795328170111     
  9.473093149133739E-002
 -4.631017733638967E-002
 -0.237691785553602     
  0.131923953834351     
 -0.161824662993017     
  0.146107925114529     
  7.534980278874540E-002
  0.490932277784690     
  0.119189483171316     
  0.165240956648149     
  0.308975591019254     
 -0.383917838010163     
  0.409394894063021     
 -0.284894787807228     
  0.123014033529452     
 -0.624185748365977     
  0.284458298718610     
  2.814997665883334E-002
  0.298948908126613     
 -0.551481842214061     
  0.177773300728336     
 -9.592050881821536E-002
  0.120034631676902     
 -0.347895566462541     
 -0.185514124640288     
 -6.281046094173394E-002
 -0.204452414402535     
 -5.973766458368533E-002
  0.171883658720592     
 -0.161000526925537     
 -0.518375661026921     
  0.915752053119854     
 -0.650565733089796     
  0.126431257497163     
  0.453868957845941     
 -0.375057395826974     
 -4.360325283643213E-002
  0.625520953740710     
 -0.302258465976887     
  0.132548192045962     
 -0.420274755064389     
  0.131732844533125     
  0.172935352034576     
  0.825550811603552     
  0.307077516802686     
  0.120873561106381     
 -0.271376056841913     
  0.516463724122103     
  2.340502748281544E-002
  0.500220282468062     
  -1.00670691149435     
  0.713192739423767     
 -0.408955638302403     
  0.106312925409277     
 -0.283647707243650     
  0.231695527594764     
 -0.475525250060670     
 -0.152972165077660     
 -0.236858357808357     
 -0.343707705152632     
  0.446687664131851     
 -0.121071449865054     
  0.621178877479871     
 -0.729172794357196     
  0.154166193361841     
 -0.139431233562276     
  0.896823015405333     
 -0.671276540729934     
  1.560346749070650E-002
 -2.838160877683545E-002
 -0.208375775473192     
  0.216348437548739     
  0.278350712681873     
  0.453618996281622     
 -0.310456655470873     
 -0.360075745811392     
  0.285577385596564     
  0.605799699588775     
 -0.614640047052358     
  0.657750611680712     
 -1.020592352421259E-002
  0.570232966930332     
  3.820619411308569E-002
  5.408468420495557E-002
 -9.698529327059949E-002
 -0.635535962045259     
 -0.776884971590612     
  0.100652407725546     
  0.388578521220513     
  0.268558421968691     
  0.127700292038797     
  8.973316571567226E-002
 -0.277920722303237     
  0.281461120800731     
 -0.676849267483342     
  0.189156077425181     
 -0.431949062353324     
 -0.190568968289301     
 -3.626710740675217E-002
  9.966540008440833E-002
  0.664700938610408     
  0.309072230375233     
 -0.237618706766238     
 -0.184910431934187     
 -5.119535282384870E-002
 -0.237169038993629     
  0.504815533177762     
 -0.518141877651982     
  9.307995627151024E-002
  0.629865180188666     
  0.524384856967994     
 -0.402936272555861     
  0.362125394322740     
 -5.910222052388321E-002
 -0.337910389315775     
  0.343926431195749     
 -0.734990435865310     
  0.427032356150762     
  0.139689221901470     
  8.928601211996084E-002
  2.481213223356281E-003
 -0.253944246852530     
 -0.241746135190879     
 -0.452871887725048     
 -0.159737068744330     
  0.766002019320523     
 -0.286717640584050     
 -0.528311557976644     
  0.337721004606997     
  9.089033750259848E-002
 -0.414660778325528     
  0.706110413066604     
 -0.803560073564537     
  0.294582874217082     
  3.881739553822413E-003
  0.227113194294461     
 -0.199971663591148     
  0.349303893510566     
  5.884800928378743E-002
  0.164661912407096     
 -0.132170301907358     
  0.170228540835703     
  0.521759205873737     
 -6.018177984773941E-002
 -0.140691324492101     
  0.129262360795308     
 -3.740092794357321E-002
  8.770244493374577E-002
 -4.818047441442980E-002
 -0.463387065207283     
 -0.407090969258157     
 -0.365998785904511     
 -5.923578443533148E-002
  3.381269779208421E-002
  0.440216281548094     
 -0.792780735997455     
  0.420694449147521     
 -0.432930941198006     
 -0.496336580641800     
  0.406910573053621     
 -0.387187109389416     
  0.125408843439906     
 -0.189451051544628     
  0.165446866814584     
  0.354158562165193     
  0.165400641454446     
  0.452641809633975     
  0.255393966285996     
 -9.075673171968510E-002
 -0.101688105759351     
  7.118621454488501E-002
  0.138692384352257     
  0.394334332815128     
  0.872601966935344     
 -0.374523486041148     
 -4.425965711684896E-002
  0.203402169013144     
  0.464281716279240     
  5.894795795559581E-002
 -0.339974732915484     
 -0.271891927010423     
 -0.116430413159712     
  0.204648624725150     
 -0.118346260344504     
 -4.706153347558097E-002
  2.330738865471821E-002
 -0.153124836244114     
 -0.198223228626654     
 -0.195979637118176     
  0.109955734525759     
  0.192522248653514     
 -0.696012236377241     
  0.317188192211617     
 -0.322013289715915     
  0.209165315571794     
  0.317863249548602     
  4.438444863633213E-002
 -8.470201391254573E-002
 -2.583746151473063E-002
  4.312112243230581E-002
 -0.130349010341989     
  4.189679886500445E-002
  0.190546667990504     
 -0.304664981447637     
 -0.147490708860764     
  5.770649390850494E-002
  0.129435736254288     
  0.555666911670623     
 -0.448867628432474     
 -0.118533016534713     
 -0.120170353682105     
 -0.115004428854870     
  0.304550492609552     
 -0.106480009356660     
  0.103549548236566     
  7.327005783118912E-002
  3.871352308685701E-002
 -1.077126996688940E-002
  2.706853895921397E-002
 -0.292175399465646     
  1.940519287021546E-002
  0.117714717668014     
 -2.048045915856025E-002
  8.479547743084956E-002
 -0.314794627079568     
 -0.187429772190950     
  3.546095684386301E-002
  0.177302003228202     
  0.548469257388136     
  0.154332507836583     
 -7.775853872154205E-002
  0.106052762608999     
  0.302043645443710     
 -4.056255847852804E-002
  0.150413641146040     
  0.388798081292212     
  9.096214713577429E-002
  0.247127379917139     
 -0.869646460842265     
  0.757237073650034     
  0.114171723793254     
  0.540382301417231     
 -0.823340018789162     
 -9.837595113990817E-002
 -0.712017749983414     
  0.127586862008600     
 -0.148983900847582     
 -2.560914209779092E-002
 -1.830609076908600E-002
 -4.140797412000263E-002
 -0.111021894823439     
 -0.141288125836973     
 -0.127928171210153     
  0.732824635916697     
  0.136741666581677     
 -0.651511902851811     
  1.552741821686559E-002
 -0.228849308991802     
  0.899011785077452     
 -0.470856991669900     
  0.367022472830248     
 -0.246355745511673     
  0.267004104239900     
 -0.193738945754136     
  0.182825275887184     
  0.164771789612786     
  7.854193015853905E-002
  0.184919285757631     
 -2.891056938874694E-002
 -0.462804322319348     
  0.448209025531651     
  4.292272150935690E-002
 -0.296671648789093     
 -0.196718351147682     
 -0.240293536439876     
  0.424428230371401     
  5.566594597088181E-002
 -0.242204605948746     
 -0.141696799987145     
 -0.377436099525024     
  8.857474650513154E-002
 -0.447219124695124     
  0.137069940856635     
 -0.370087390363700     
 -4.437482210686014E-002
 -0.315477083279722     
  0.609637735684475     
 -0.394728202876126     
 -0.236975700832629     
  0.124201748436732     
  0.425827102699495     
 -0.833883893515718     
 -0.319230726007895     
 -0.250921002000402     
 -8.766884604177183E-002
  0.160393606968380     
 -0.274475140852416     
  4.063176545840828E-002
 -5.008555068861735E-002
  0.450072107566828     
 -5.710200385234168E-002
 -0.574440979085617     
 -0.619201060728010     
  0.659655958634072     
  0.331567652838867     
 -0.184532743771104     
 -0.325677694978309     
  0.621932089966695     
  0.543819926667139     
  0.163458104002816     
  0.353795641715683     
  7.824525379779035E-003
  7.515150402332717E-002
  0.312921391076816     
 -8.251180362384324E-002
  0.397646766090794     
 -0.268939346486678     
 -6.640968364885663E-002
  0.264575563696774     
 -0.188089198468237     
  0.262049395850750     
 -6.627858930617356E-002
 -0.417904963827720     
  0.594684833552229     
 -0.297700563502406     
 -3.973864190322331E-002
 -0.202474700122092     
  8.919472328694315E-002
  4.854296661581567E-002
 -9.867380189692862E-002
 -0.130712838290356     
 -0.360236166933185     
  0.175354747869016     
 -0.170771622847462     
  0.355709453867391     
  0.182160293445485     
 -0.233670137717727     
  0.596696327281938     
 -0.398416486349001     
 -0.139588966248619     
  0.156482164789622     
  0.302442190540687     
 -0.212103209860174     
 -0.199378041908054     
  1.809491222697465E-002
  3.856410690173292E-002
  0.264070277055756     
 -0.182397921183003     
  0.397652932514940     
 -0.553982293521346     
 -0.469938917602423     
 -0.184028449458264     
 -5.815559079202792E-002
  0.426205194244735     
  2.551711206701856E-002
  0.246720559299502     
 -0.295277322772515     
 -0.130859240571090     
  0.147489016352897     
  0.186439221194090     
 -0.154934134567151     
 -5.175951816986443E-002
 -0.294311690278753     
  0.338676979909480     
 -0.565918559580828     
  2.698604517435967E-002
 -2.582798296531733E-003
  0.231128046409285     
 -0.148454729019528     
 -0.111618520871093     
 -0.197384344745964     
 -8.689054732021982E-002
 -0.231496410663186     
 -0.569004875327644     
 -0.177298813520456     
 -0.478385293092567     
 -0.199396924557567     
  9.228761597368110E-003
 -0.138496442607242     
  0.352322924516768     
  0.142794086798317     
  9.843185715212076E-002
  0.196708720829133     
 -0.548779296586040     
  0.327044700328762     
  0.109311482906427     
  0.188215017874446     
 -0.344695199584992     
  0.259632630218935     
  0.535534317812216     
  0.303602325718160     
  0.336870670362920     
 -5.799715430623009E-002
  0.128700433313220     
 -5.147667228944818E-002
 -0.304172147638677     
  0.202969736186434     
 -0.281448195678634     
  0.143100115745073     
  0.370421847309658     
 -8.658746736082305E-002
 -2.797319660161585E-002
 -3.891167761442201E-002
  0.507045173300444     
 -0.120925227734618     
 -0.297924784289836     
 -0.153670671798010     
  8.780577609480765E-002
 -2.052729282390336E-002
 -0.150193706462978     
 
  0.228662031388186     
 -0.112103179718277     
   1.11060402281817     
  0.689705858516214     
  0.308228372145497     
  0.551700441972921     
 -0.222904291434071     
  0.380285225774144     
  0.724482431646345     
 -0.330357201589841     
 -0.589360841772366     
  -1.44741922865157     
  0.272563132973557     
  0.500483362739501     
  0.530010521412151     
 -0.891760892443145     
  0.816407258909243     
  9.587525758289277E-002
 -0.910766995577436     
 -0.174610475286171     
  0.794199020297481     
  -1.11074305664186     
   1.17141545932545     
 -2.884016920764437E-002
 -0.919310818335422     
  0.213734601412129     
 -0.783963870230887     
 -0.138235121828989     
  -1.39112845513770     
  0.569051020499284     
  0.792299979449804     
  -1.77329905995126     
 -0.163205377483642     
 -0.338950471845998     
  0.751668275955343     
  0.761357151670920     
 -0.328070055080497     
  0.615961844742066     
  0.424197760486549     
  -1.31508295709316     
  0.627599597255500     
  3.381991460818863E-002
 -0.686370365074068     
 -0.427766766876630     
 -0.340180151545707     
  4.626193075805151E-002
  0.550358776925842     
 -0.131997978150730     
 -0.627484978078755     
   1.09280148614255     
 
 -0.522232112477405     
  5.384410117783093E-002
  0.717470640473168     
 -0.356228512012375     
  0.269778003366488     
 -8.631804248084253E-002
 -0.130356817455233     
 -0.354737488283715     
  0.471832738992673     
 -0.993273922216945     
  0.143113365153890     
 -0.368350192195612     
  5.921512686639333E-002
  0.311246576786200     
  0.337825908896156     
  1.535963419435476E-002
  1.522815470656751E-002
  0.490961952553246     
 -0.138358463961744     
 -0.245809520646368     
  0.698693835928473     
  0.290750844061369     
 -0.386987922753385     
  0.612983800170862     
  0.379359629901570     
  0.603564431824693     
 -0.719936327357249     
  0.884782016079181     
  0.723819961749786     
  0.668570936492962     
  -1.40185393915895     
  6.331880257459786E-003
 -0.806252808491271     
 -8.147137870871179E-002
  0.284833341610732     
  0.493696640337876     
 -0.572540833046994     
 -0.154372060369704     
 -0.335621823947706     
 -0.121958795974735     
 -0.139133727380695     
 -0.162036304900459     
 -0.529071729781098     
 -0.475533167174243     
 -0.155667791855440     
 -0.406034449644794     
  0.141448522103995     
 -4.319236913022591E-002
  0.134574135101579     
  0.686035321067941     
  0.562374881162203     
 -0.299036107722052     
 -1.218030078982712E-002
  0.616921865839992     
   1.31699277952383     
 -0.475251636857717     
 -0.419291178146461     
  0.224903670639827     
 -0.479420451025874     
  0.323802682689175     
 -0.400606180694653     
 -0.127619114449744     
 -0.455888261135797     
  -1.00066275875641     
  4.215420009584544E-002
 -5.079313181909970E-002
 -0.908550636393410     
 -0.894315763862727     
  0.313439780179080     
  0.549659909511509     
 -0.129278560043438     
 -6.123011059333892E-002
 -0.570955400736231     
  0.302160471962625     
  0.469552191328131     
  0.361784991976815     
 -0.718329077358848     
 -0.928797639142497     
  0.606633216717554     
 -0.225209504492127     
  0.189354934528491     
  0.360148354558906     
  0.454103225491097     
 -0.760980607108044     
  0.215497167268931     
 -0.367172629415392     
  0.739438386512733     
  3.147017098967196E-002
  0.670544632921934     
   1.04626677055502     
  0.283051385379131     
 -0.436152120792575     
  0.390750464960856     
 -6.999614555560027E-002
  0.315260718975873     
   1.28421140057616     
   1.05870751350808     
 -0.135039767606162     
  0.944828880805279     
 -0.186390218264697     
 -0.103078829324916     
  0.305031783816272     
 -0.401497274829744     
 -0.139658666197556     
  0.238994108090096     
  0.352033208028754     
  0.159509200320950     
  3.349199751955800E-002
  0.280687188773226     
  0.332280100605038     
 -0.562749204383739     
 -6.870289430088003E-002
  0.638520618017845     
 -0.644339270243025     
 -0.687000237817349     
  9.868546689597013E-002
  0.505284653069149     
  0.818816662901053     
 -9.075559291466120E-002
 -0.372944439062018     
  4.548321795997223E-002
  2.330026540414570E-002
  4.254276588533358E-002
  0.239658622856840     
 -0.750837546924007     
  0.173390815664224     
  6.785491171999465E-002
 -0.276405949226542     
  0.114488812827839     
  0.383163671434299     
  8.321379999190735E-002
 -0.386944740806911     
 -0.747873843642500     
 -0.454140495184117     
  0.542785185443288     
  0.435866045525366     
 -0.836002038577143     
  0.145856912238828     
 -0.136500999948357     
  9.288059666584729E-002
  0.122813697746081     
 -0.208941932809858     
 -0.291656620846265     
 -4.972937088266135E-002
  7.320698041406348E-003
  0.470645836273238     
 -0.270581518828921     
  0.317035019413779     
 -0.717529339813887     
 -1.271278308888979E-002
  0.162523413130966     
  0.418136254311203     
  0.482854132931950     
  0.496748974520329     
  0.116546954640498     
  0.557306269326770     
  5.087449985489506E-002
 -0.139554714408006     
  0.793413341677972     
 -0.944720160516546     
  0.713899046425727     
 -0.173476342774336     
  0.660253170939369     
 -0.210238849036327     
  0.339864197450989     
  0.362855209589057     
 -0.799441606769808     
 -9.131385074845419E-002
  0.191945787492933     
  0.321442556743100     
 -5.126040907371997E-002
  0.219477852348478     
  6.011533623020054E-002
  0.138045804559020     
  0.170261673524961     
 -0.197046870368757     
 -0.483728917051112     
 -0.697570415995123     
  0.773156695939132     
 -0.377071002645688     
  0.441271713764271     
 -0.657935179768468     
 -0.220465430826180     
 -0.911422512237897     
 -0.844599278733791     
 -0.323750753368896     
  0.225834108955927     
 -0.268412350538093     
  0.832151094128633     
  0.713440571438261     
 -0.113290611390506     
  0.146538197846809     
  0.972084605665465     
 -0.398135337798645     
  1.214861988331299E-002
 -0.816359450462182     
 -0.193814981368339     
  0.530299651284521     
 -0.714053328682494     
  0.456246188917326     
  0.157816438506098     
  0.503111327659502     
  0.800212672621496     
  0.660255790437526     
  0.366822573777496     
  4.029560909676407E-002
  0.914537526198576     
  0.644619181250217     
  0.814420961833949     
  5.749403379246001E-003
  0.184086133885532     
  0.490050210421718     
 -6.395488692440636E-002
  7.181668248617884E-002
  0.103992849359729     
  0.327840608518626     
 -1.002551043695995E-002
  0.325349674247443     
  0.207403566122185     
  8.482806151652880E-002
 -7.024299485072104E-002
  -1.26838206092255     
 -0.542321803065401     
 -0.149737570257268     
 -0.778655973156017     
 -0.439028961585213     
  0.137956041418587     
 -0.173810061004394     
  0.490538781164554     
  0.267645982737831     
  0.543955999144850     
 -0.840472057801516     
  0.440837525673256     
 -0.415624007676380     
 -8.759337643500312E-002
 -8.556666335833057E-002
 -0.219273810761925     
 -7.646229982599814E-002
  0.601867668375659     
  0.181624426104190     
  0.699445602330245     
 -0.590400800619409     
  0.704847597921597     
 -0.103796970892282     
 -0.188361874277446     
 -0.318058700752679     
  0.462128685769262     
 -0.298453677691304     
 -0.925701688919985     
 -0.129559257574286     
 -8.669877682502310E-002
 -0.315856785055364     
  0.218986711136468     
  0.802120727958591     
  0.467863149192185     
  3.670806027348000E-002
 -0.120847035228794     
  0.407072205350754     
  0.559429121206631     
  0.108634479264338     
  0.207100598096556     
  0.399964862255974     
 -0.615176270399674     
  0.686336396257115     
  1.159254348583712E-002
 -0.448557864175156     
 -0.270834413596471     
  6.192202511705623E-002
 -0.203418948904247     
  7.248419369400216E-002
 -5.713376245278757E-003
  0.370514839810135     
 -0.546745699040297     
 -0.385447213297970     
  0.471835139709006     
  0.525431591204062     
 -0.264062263960748     
  0.433013883308936     
  0.268111205731706     
 -0.459313173133766     
 -0.193862427830074     
  0.537062581196129     
 -0.238121000640838     
 -0.241022400239497     
   1.34777214653401     
 -0.293511348973168     
 -0.387497900116048     
 -0.740528778627888     
 -0.373949857301598     
   1.25782233274964     
 -0.666566284588281     
  -1.09849767059173     
 -0.369398689342878     
 -0.389333029848554     
  0.703023565534741     
  0.352884574656581     
 -3.121147926275179E-002
  0.770148501051365     
  4.544922914260120E-002
  0.145637520244697     
  0.468414976673256     
 -6.611118213248511E-002
  0.625532671644208     
  6.512693310859945E-002
 -4.567444026855969E-002
  0.820208079804999     
 -0.318758017007908     
  0.127803389568496     
  0.899671254647704     
  0.623657431094171     
  0.199192571572437     
 -0.128228579359633     
  0.416553970523013     
 -0.233767290406034     
 -0.321156934217189     
 -0.123129205421062     
  9.313815106286363E-002
  0.313084425564881     
 -0.324366421392419     
  0.884493911440993     
 -0.113724209467784     
 -0.724055416332674     
 -2.418685287841594E-002
 -0.696681525739468     
 -0.379553914744614     
 -0.161750912368343     
  0.472162719179839     
  0.241090489147643     
  0.314854144199988     
  8.946331911737170E-002
 -0.502028979451278     
  0.549384978504667     
  0.441836285332538     
  0.375099759620160     
  0.154413779201835     
  9.616840522378242E-002
  0.453656585258864     
  0.404027258675764     
 -0.205240061144377     
 -0.369933447940073     
 -8.878014454410109E-002
 -0.302290836081602     
 -0.618893365503425     
 -0.429124589826373     
  0.654118316245915     
  0.270069913147459     
  0.603638504173878     
  1.823232526567311E-002
  7.539910724233094E-002
  2.671244965133582E-002
  0.156897154787653     
 -0.199214681567179     
 -0.580889129034720     
  -1.01503084225755     
 -0.676650551388297     
   1.71861801340875     
  0.552630956547864     
 -0.981042923718546     
 -0.623307826460470     
 -0.541163473461356     
  -1.02270961107402     
  0.416127339916903     
 -2.728735106179444E-002
 -6.865444791497795E-002
  0.433124201578538     
 -0.894359524242484     
 -0.209298622057075     
 -0.503926389229702     
  2.574504193237339E-002
  0.240179888954212     
 -0.231827477849139     
  3.404229484756688E-002
 -6.364518654482972E-002
  0.360437299018281     
   1.05224821807018     
 -0.827288034693772     
 -0.307875758979412     
 -0.940387227496572     
 -0.766578839469743     
  0.510449123854415     
 -0.135510874446811     
 -0.255137586249021     
 -0.861808076979845     
 -0.205292819532614     
 -0.789384852345279     
   1.06185670480810     
  -1.29603418903834     
 -0.257341212068246     
 -0.823244918440342     
 -0.424809526613109     
  0.380326552519491     
  0.372854373352690     
 -0.871680729216233     
  0.110328692086996     
 -0.111108377072943     
 -0.481165943647327     
 -0.408243890613016     
 -0.577929804900839     
 -0.395456569360133     
  0.235696680923424     
  0.175218129373503     
 -0.212531781680685     
  0.569551810614117     
 -0.133993577220138     
  -1.41486288429608     
 -9.209215732614340E-002
 -0.482644915796121     
 -8.846014219019312E-002
  0.336180057895502     
 -0.112114119000620     
  5.712951708206747E-002
 -3.358340657899299E-002
 -0.962005633434555     
 -4.473600862827638E-002
  0.426949708695580     
  0.773131024931564     
  0.204862719471768     
  0.553993783492918     
  -1.85170529768055     
  0.273926124359325     
  2.625783342276013E-002
 -0.272276301077334     
 -0.202518539077156     
  0.759248796246779     
  0.140680016179198     
 -8.056864450725924E-002
  0.441952619957831     
 -0.362478823736189     
  0.383055432071013     
  0.144428185406614     
  0.495296049742510     
 -0.251201711945084     
 -8.505386345577398E-002
 -0.208407916390340     
  1.120658820368530E-003
 -0.132409871596363     
 -0.616299872239971     
  0.110842382501530     
 -0.648957057872810     
 -0.134671511396156     
 -4.355682076152878E-002
  0.204228907351011     
 -2.802816868875101E-002
 -0.493530614331873     
 -0.288730377821168     
  0.954985319422160     
 -0.227980479133557     
 -0.330220501785210     
  -1.02140573601484     
 -0.947383921988297     
  0.327610018869827     
 -0.283689128402018     
  0.989828435814578     
 -8.047920907248813E-003
 -0.300713295875369     
 -0.109052254670656     
  0.937744455920913     
  0.489469398879396     
  0.161170766850844     
 -0.390490747367872     
 -0.152712870382902     
 -0.147038816449505     
  0.495491184902049     
 -0.150881234438495     
  0.362641463954764     
  0.617571330178385     
  0.170266933761002     
 -0.652290918802195     
  0.262241165106547     
  0.842211406061088     
 -3.258026124064690E-002
 -0.322874796178055     
  0.323515749984157     
  5.747352779103834E-002
  0.228132774872082     
  0.614781885052560     
  0.524697008815614     
  0.366520540038315     
  0.656528878520489     
  0.525238462266738     
 -0.995046542554886     
  2.220372869250974E-002
 -0.884503622343287     
 -2.553738064453360E-002
 -0.420062519149166     
 -0.520463575838416     
  0.517645979603464     
 -0.102000493412325     
  0.233670383376330     
  3.697789760430924E-002
 -0.152490872348524     
  0.348895703965225     
  0.145829883918889     
  0.435995793910033     
 -0.556394711373242     
  0.506963519208906     
  0.434106616563765     
 -0.484962932726201     
  0.149709150397623     
  0.539303720019259     
 -0.525792523917537     
  -1.05861842635369     
 -0.337989685675877     
  0.218162972327130     
  0.432486020292552     
 -0.801784091157018     
 -0.134819674583954     
 -1.363451012256146E-002
 -0.982000720489105     
  8.962913784942848E-002
 -0.370255868450400     
  0.221636776941153     
 -0.575997532562564     
  0.146827032833584     
 -0.686771551535610     
  0.219644535144628     
 -5.172277447845679E-004
 -0.337552874287902     
  0.435827292971952     
  -1.22341533306187     
  0.147894547159174     
  0.225124033091148     
 -7.903100415672007E-002
  0.442165251477419     
  0.415718211987501     
 -0.460595310365236     
 -0.136586236995050     
 -0.446434516903216     
  9.331709960476983E-002
 -0.192454259013978     
  0.137344265803567     
 -0.178986098422511     
  0.609997381643859     
 -0.659484684227639     
  0.330719829469331     
 -0.232974797184273     
  5.802979767233553E-003
  0.480640226931887     
  0.293427885775945     
  0.378981533245151     
 -0.716898014041051     
  0.458904387436183     
  0.284116312169994     
  9.810392584116209E-002
  -1.06799917030497     
  0.959750766254277     
 -1.463178766087124E-002
 -0.591483173478819     
  0.383806461579075     
 -1.742110164737953E-002
  0.270621729520244     
  0.121899188967713     
 -0.679920586560844     
  0.335494439134516     
 -2.850778808050350E-002
 -0.281876538064351     
  0.379894099586894     
  0.346524851556329     
  0.454023322167801     
  0.889370248641847     
 -0.357238828332940     
  0.172111806922591     
 -0.144971513470518     
 -0.398568751427329     
 -0.353903320970006     
 -0.617332640443822     
 -0.337160136913625     
  0.228953044168583     
 -0.574026487166811     
  8.693752494135690E-002
 -0.533173526162562     
 -0.832930014126155     
  0.142276601232486     
 -0.517143477159295     
 -8.123344186814530E-003
  0.602500909366518     
 -2.741043299084773E-002
  0.197647384667939     
  0.147484161848310     
 -3.660682500575013E-002
 -0.469905645397703     
 -0.375903877990351     
 -9.903042283203836E-002
 -0.187654483529196     
  0.357422999567658     
 -2.097989228896088E-002
  0.238560092039479     
 -5.195231344892404E-002
  0.746491380555324     
  0.640236608811736     
 -0.335575078914332     
  -1.75640828298700     
  0.439464146472037     
 -6.649514179474950E-002
  0.783291798118690     
  0.166634904121710     
 -0.246943801905283     
 -0.313673173043687     
 -0.469237667034033     
 -0.147683201473830     
 -0.375746978618851     
  0.674259738957580     
 -0.411924515934541     
  0.554606915761454     
  0.406538055159867     
  0.634331248013577     
  0.115178861489886     
 -4.019806963066039E-002
  0.705583002437142     
 -0.279843604266311     
  0.318141020463667     
 -5.732999822658438E-002
  0.192784493716565     
 -0.120327233680187     
 -0.549436754792925     
  0.104493590245666     
 -0.394618179964674     
  0.400516977133927     
 -0.315324097156844     
 -0.827419182333348     
 -3.773949387424985E-002
 -0.431325579241850     
  9.175783522281276E-002
  0.244854316755513     
  -1.14116133703022     
  5.787136578893174E-002
  0.416648599612334     
 -0.325873753108736     
  0.231270164533783     
  7.460943257294535E-002
 -0.148223187054367     
  0.143296428130189     
  0.878311929866374     
 -0.507490808792478     
  0.772638411948560     
  0.561081031518278     
  0.327319126420026     
  0.703393684930807     
  0.337255928540213     
  0.639162127785093     
  0.384337151290457     
 -8.549659678054215E-002
  0.423000713221734     
 -0.293509781257276     
  8.856799551823713E-002
 -0.291196929483015     
  0.291319067884518     
 -0.281110724176612     
 -0.226489611292142     
 -0.116424259172975     
 -0.102675099957150     
  0.170471299456314     
  0.948448878284901     
 -0.329381860230283     
 -0.743254846592773     
  0.348598630163997     
 -0.174565126191354     
 -0.625240385741244     
  0.104976659118091     
 -0.349883431433424     
 -0.185596977969449     
  0.190031158540329     
  0.213821363301138     
  0.550808802847755     
 -3.358213078097502E-002
 -0.195658533234085     
 -0.150277162591184     
 -0.122454283854678     
 -0.351453836313430     
  0.211829998909760     
 -3.714534056695407E-002
  0.809245568590283     
  3.171413405829544E-002
  0.427189646458258     
 -1.230872190750482E-002
  0.297503825656871     
  0.141192092438249     
  0.109387224610698     
 -6.320383176406923E-002
 -0.333980599464706     
  0.500784460026676     
 -0.207301798399794     
  0.296502400611246     
  2.991150080812564E-002
 -7.886139677017320E-002
  3.348582832605627E-002
  0.785252737020355     
 -0.120816340710441     
 -0.324523304792444     
 -2.412718500548815E-002
 -3.824657581745958E-002
  0.150911365098440     
 -0.122707055400811     
 -8.165424173036834E-002
 -0.214583009138195     
  0.256423907254867     
 -0.366562483794233     
 -0.211002860590916     
 -0.614024491330584     
  0.262166650100500     
 -0.745556467379123     
 -0.219284956213154     
 -0.346517089674249     
  0.361418477828580     
 -0.213225942162069     
 -0.188883443646151     
 -0.334706295918842     
  0.259404738856466     
  0.157323680062290     
 -0.367485668827661     
  0.624666777581701     
 -0.159022982343593     
  3.730889857561955E-002
 -0.536579222663763     
  7.637566503658497E-002
 -0.357627716378098     
 -0.130268516617985     
  0.404837316696387     
 -0.216374693097419     
 -0.213684702815695     
  0.114021684298788     
  0.273786812659778     
 -2.644393183467076E-002
 -0.391596598009950     
 -0.676498198666573     
 -0.368028004490881     
 -1.338908943972958E-002
 -0.378293907196744     
  0.155484355616496     
  0.260976368244901     
 -0.394350966842785     
  0.150367394159899     
 -0.227503370138048     
  0.208663822799774     
  0.248386312822909     
 -0.667500061880326     
  4.486144131659719E-004
 -0.136825221966880     
  0.476392617320665     
  7.979912071199208E-002
  9.718286513222937E-002
 -0.166669965153018     
 -0.650061576378140     
 -0.193459997134476     
 -0.203764864692432     
  0.434950505359363     
 -0.244811471254443     
 -0.409654729093714     
  0.594316625873938     
  0.224686194600797     
  9.887561948931346E-003
  0.339776216386956     
  0.186395338441707     
 -0.156649451233679     
 -5.029190464174354E-002
  3.870704973987406E-002
  0.215080598078739     
  2.796356848224487E-002
 -2.686977534028726E-002
 -1.363072412732685E-002
  0.201109215395668     
 -3.092561922088846E-002
  5.492383729663323E-002
  0.114707499711783     
  0.543330954891486     
  0.167704753698440     
 -1.733748056785661E-002
 -0.509072267637768     
  0.170945572787968     
 -0.144622132786908     
 -6.207785498912707E-002
 -0.112953297884533     
 -0.199759004296215     
 -0.177053027621759     
  0.178104279041461     
 -0.258235952079371     
 -3.239382546054118E-002
 -0.212441241609858     
  3.055689307831315E-003
 -0.120301670140450     
 -0.189859091478265     
  0.220736377097552     
 -6.646395623234583E-002
  0.798527869103164     
 -0.275457942395870     
 -0.146393140026397     
  0.510476234157796     
 -4.844550344388427E-002
 -0.179669116616622     
 -1.720108411024029E-002
  0.104497386626444     
  0.727133928250092     
 -0.116946946270186     
 -0.316641132148281     
 -1.578353663046822E-002
 -0.335853488570113     
  0.133259675479584     
 -0.298685759324615     
  0.264452803526064     
 -9.444324506308739E-002
  0.229126819841519     
  0.241248935273474     
  0.736949521249016     
 -0.504654148090060     
 -0.458386069296335     
 -0.245947304294326     
  0.406476074379086     
 -0.417628881792745     
 -6.254010011188833E-002
  0.111366063838469     
  6.719503609812975E-002
 -0.582560782207837     
 -4.786258094375632E-002
  0.447183164138141     
  5.360494023750275E-002
 -1.118149631433925E-002
   1.49099941299833     
 -0.395148582111854     
 -0.246921013980612     
 -0.717906278426117     
 -0.315545522085867     
  0.892416822650389     
  0.214767641350938     
 -0.152577687872130     
 -0.658617311634608     
 -0.226690150433311     
  0.806718149593774     
 -0.424254971582908     
  4.872859031999547E-002
  0.561886126065522     
 -0.264207879314586     
 -0.135908987539852     
 -0.405799814889194     
  0.100077443004084     
  0.391646667108706     
 -0.120617369042775     
 -0.551325796456782     
  0.665385034022143     
 -0.704071645611060     
  0.148660571573363     
 -0.291516424024978     
  2.106518568495693E-002
  0.226856997919869     
 -0.259364237393845     
  0.225498699869869     
  0.173159406245115     
  5.969800916837822E-002
 -0.161201958063774     
 -0.354483539084123     
  0.175335143217005     
  0.316140220199988     
 -0.442623209284906     
 -0.273835691878828     
 -0.397558612323440     
  0.490989200613947     
  6.010118745561308E-002
  0.374584913515358     
  2.852936912519746E-002
  4.506526310890313E-002
 -0.169930366397603     
  0.750994891006223     
 -0.742293355124173     
  0.837591155476838     
  0.367027353133158     
 -0.734256263142119     
 -6.778186582415949E-002
  0.595586361127452     
  0.271428040434797     
 -0.471622551619876     
  0.713919425422367     
  0.310363502547767     
 -3.682686161973671E-002
  0.475476689152343     
 -0.180842183281864     
 -0.703463800074813     
 -0.368956813776757     
 -0.474550201145206     
 -0.462357135094018     
  0.838854855145977     
  0.166216171022230     
  0.105009245114485     
 -0.187904748617485     
  0.345383590211688     
 -0.186392346758940     
 -7.553030378363272E-002
  7.626387575360376E-002
  0.319618837540304     
  0.275206951145441     
  0.458972812312131     
  0.298701474865555     
  0.326805556282424     
  0.647993882206234     
  0.120327358441568     
 -0.360486411827703     
  2.455595563399438E-002
 -6.839315618416260E-002
  0.383899939955582     
  0.735070941444862     
 -0.166109493745813     
  5.572379750703613E-002
 -0.372530485935429     
  3.662619204282971E-002
 -0.791071070669033     
 -6.455024040763867E-002
 -0.317315978764426     
 -7.329926306207936E-002
   1.12036839947976     
  -1.03803459853610     
  0.374538027826912     
 -0.207745519602375     
  0.331831078652449     
 -0.466300051200241     
  0.522614668137362     
 -0.158534494103808     
 -0.293079748350419     
  -1.32245229999269     
 -0.393769936257156     
 -0.165418266495157     
 -0.691263551032942     
 -0.739891089912664     
 -0.733732694015363     
   1.01799167153882     
  0.503904116358914     
 -0.253881575213700     
  0.663899777123497     
  1.840985390674404E-003
  0.165734499054206     
  0.889247512764390     
  0.739201155208584     
 -9.921744964845811E-002
  0.194253885650613     
 -0.176900288418929     
  -1.40399181986808     
  0.228724211243748     
  4.498854422571909E-004
  0.746084816240054     
  0.333558386714687     
 -6.371829024018831E-002
 -1.389386765284284E-002
  0.556177030936450     
 -0.542102499400944     
  0.802631242757701     
  0.578846405843373     
  0.605541057025824     
  0.399611287998458     
  0.223675136531744     
 -0.577069477436141     
 -1.130383037092665E-002
 -2.673289646354141E-002
  0.168348011024907     
  0.322307563347548     
 -0.345387614397662     
  0.124192865672758     
  0.189601593617741     
 -0.791668169890357     
 -9.272685347751236E-002
 -0.463793442390016     
 -0.266659974980280     
 -8.810175212536958E-002
 -0.343279636146532     
 -0.256094303166227     
 -3.883400487726619E-003
 -0.116163445217960     
 -8.902690417604295E-002
   1.09572972014745     
 -0.167887618227436     
 -0.420858822386752     
  0.124981977965708     
  1.911568206203879E-002
  0.183854561368196     
  0.399890403935207     
  0.152522850264346     
 -0.126195159206103     
 -0.663785375860434     
  0.604042985155684     
 -0.412118142319331     
 -0.173060057987248     
  0.511922939312932     
 -0.266942600817010     
  0.378480826644211     
  3.627228935029594E-002
  0.374508248390197     
 -0.441900107021585     
 -0.561046587816600     
  0.309765151965551     
  0.320647129584473     
 -0.580816142176731     
  0.224225903468972     
 -0.540848638890382     
 -6.510852167894909E-002
  0.476365780249433     
 -0.210050678709706     
 -0.167130524498197     
  0.128400404524616     
 -1.844753538281503E-002
  0.269096870564569     
 -0.476803781884537     
  0.223365124394747     
  0.535952164707001     
  0.271894465691935     
  0.286781661991541     
 -0.116605178245141     
 -0.344887907101601     
  0.876090308556114     
  0.483784203685418     
 -5.155052743083635E-002
 -0.519167304734255     
 -9.124914152922654E-002
 -0.298066902447321     
 -0.327831540712720     
 -5.444945544858369E-002
  -1.21627486425809     
 -0.258185946827137     
 -0.586019253730369     
 -7.644505180165159E-002
 -0.791492682307652     
 -0.783546594980653     
 -2.436105213513305E-002
 -0.676652708543569     
  0.138908483842283     
  0.255512404098901     
 -0.406975447086052     
 -0.162473575360192     
   1.03108238511823     
 -0.931359316191100     
  0.193705066120802     
 -0.277969190347222     
  0.440043838087729     
 -0.551117293212223     
  0.718012697399843     
 -0.133084415331665     
  1.859902694871760E-002
 -0.499433030583053     
  0.517114825554736     
  0.520997465357168     
  0.873358854916777     
  9.420584111207296E-002
 -0.113310145782126     
  0.147200919352677     
  0.235222870657901     
  0.286842686555265     
 -0.108180191311297     
 -0.123916235976208     
  0.202905697304354     
  6.072964156958334E-002
 -0.114205822932236     
 -0.485061128384637     
 -0.123740122065607     
  0.512866617920049     
 -0.301763851514261     
 -0.119468420469323     
 -0.708884672218770     
  0.459592135017720     
 -0.557229908455206     
  0.147587511787607     
 -0.126056093185022     
 -0.235390629622138     
 -0.225669953009967     
 -0.176062850386776     
 -0.248611021690515     
 -0.167927522833291     
  0.657284839450178     
 -0.127897794026584     
 -0.367330174392136     
 -9.571480203526611E-002
 -0.747800464517318     
  0.245343286309384     
 -0.857119178543636     
 -0.427454422479607     
  0.417878038992964     
  0.338251952533247     
  0.228263705591810     
 -0.490773016333810     
 -0.310066167065999     
 -9.412272964615248E-002
  2.635368004921046E-002
  0.565872603545709     
  6.949958801443860E-003
  0.472507215248227     
 -0.106425056932344     
 -8.091289043737306E-002
  0.502396509591796     
  3.933352968938900E-002
  0.116008148543486     
 -0.144173737619351     
 -5.767784095288626E-002
 -0.217293274438715     
  0.507109881802403     
 -0.473337813969280     
   1.22393300876897     
  -1.24155450699748     
 -0.703047856687572     
 -4.434060409352528E-002
  0.221214491369223     
 -0.543891923707490     
  0.954132261496994     
  0.778994764649368     
  0.208331046127361     
  0.319950032195459     
  5.674154739055149E-002
  0.308710650441588     
 -0.605353129232943     
 -0.372900519588823     
  5.298135735784397E-002
  0.265434995392934     
 -5.606197127579891E-002
  0.457492975238142     
  6.213004688976014E-002
 -0.417324299611388     
  0.200639586188796     
  0.374830882118148     
  0.105312097957134     
 -0.561302214927133     
  0.612644481443457     
 -0.300119636148063     
  0.472125751734402     
 -3.542963928782670E-002
  6.648035125432686E-002
  2.726459287965861E-002
 -0.332924817556447     
  0.195551206789693     
 -0.317578912692190     
  0.288352701313351     
 -0.174053876086295     
 -5.230251316881723E-002
 -0.907934894890161     
 -0.169425308453234     
  0.220227178820492     
 -0.428870904060536     
 -0.284089451367654     
  9.188840761897626E-002
  0.341165034118989     
 -7.260256450743389E-002
 -0.136457900119035     
 -0.186529507031403     
  0.821346241583143     
  0.283024644360042     
  0.882429314877496     
  0.168930517044188     
  0.299500535897408     
  0.118362328835706     
  0.873587590343912     
  2.218123912580741E-002
 -0.393236051042454     
  7.092332261272083E-002
  0.325557778585024     
  0.621197369103923     
 -0.575596204269774     
  0.539892644866366     
  0.181980930694226     
 -3.492057382489203E-002
  0.232589954160791     
 -0.338825122124836     
 -0.430777478514769     
  0.126639371113388     
 -0.430945179819259     
  9.498966969215081E-002
 -0.343773972285155     
 -0.559291312978833     
 -0.315374235519897     
 -6.146371662433357E-002
 -0.288034563840564     
  0.296927062806251     
  0.401534661452012     
 -3.500420541608530E-002
  0.111401591245402     
  6.665591855721445E-002
 -0.716383355543556     
  0.424416232312345     
  0.267244779713888     
  0.341489126257794     
  0.647896073408703     
  0.316914657292506     
  0.611914693453779     
  7.631384725931999E-002
  1.181675605801177E-003
 -0.765105581333719     
 -0.473757374800467     
 -0.329817293921224     
  4.084939542408829E-002
   1.00402468953591     
 -0.322307644097475     
  0.533140868590840     
  0.467458805880957     
 -0.985559079488152     
 -3.761989739536448E-002
  0.751786297218590     
  0.461592112906490     
 -3.585857716128555E-002
 -0.916985496632111     
  0.336569446501137     
 -0.321033719140066     
  0.273871255169710     
 -0.195723122270809     
 -0.399914826149650     
 -0.621410473501409     
 -2.363441623798072E-002
 -0.220952374903492     
  0.708509325050552     
 -0.837085452023990     
 -5.678004272945080E-002
  0.583559044299081     
  0.395298858423355     
  0.310559118587107     
  0.860509479839197     
 -2.615700927986005E-002
 -0.253712531309914     
 -0.951975097611272     
  0.388420494613707     
  5.394366370931249E-002
  0.411199723191812     
  0.222747683392577     
 -0.942019549077008     
  0.337057787606813     
  0.144862086443250     
 -0.994330909097439     
  2.916061030945744E-003
  0.308912338658781     
 -0.537697420357374     
 -0.809404263243559     
 -0.320541837657416     
 -0.582400675242055     
  0.522654760377247     
  0.147521207890717     
 -0.229693976329122     
  0.370120985781396     
  0.385000527574529     
 -0.211891798913797     
 -0.245696322536005     
  0.538073500029202     
  0.244192434029538     
  9.420642348750456E-002
   1.53600709640199     
 -0.299518911416470     
 -0.559245912003544     
 -0.623611522126106     
  0.145431121077458     
 -3.650237062138693E-002
  -1.33362987605499     
 -8.761495518236631E-002
 -0.451218231988370     
  0.422697683001835     
  0.160073176998613     
 -0.934336154470226     
 -0.963871745014964     
  0.201733656649423     
 -4.808867201854568E-002
 -0.944511089927716     
  0.174104842555521     
 -0.501043651792934     
  0.473691300154137     
 -0.737503522129195     
  0.241830624753378     
 -5.262258668794109E-002
  0.302741475826745     
 -7.158286804009548E-002
  0.140120730899165     
 -0.104326213631852     
 -0.116228479863556     
  0.607693417438413     
  0.332677477711157     
 -0.231534996107964     
  0.426813523998300     
 -0.430547051270833     
  0.178288362187501     
  0.772709068459355     
  5.537900626231191E-002
 -6.049369046234336E-003
  0.521885715982035     
  0.280873426221434     
 -0.253068307670574     
  0.532435057791784     
  1.887782518928489E-002
  8.349397190785007E-002
 -0.362406961599180     
  0.263028081967624     
 -0.229130666138107     
  0.459161540180248     
  0.376781951701869     
  0.558763546887261     
  -1.01317668991163     
  0.798464404619377     
 -0.701321911612297     
 -0.525560451254816     
  2.300121582427710E-002
  0.180200063638943     
 -0.322634247697904     
  0.301434765569954     
 -0.243049411528893     
 -5.143314254567235E-003
 -0.309387473744240     
 -0.369831342105267     
  0.200341327720699     
  0.219906113177627     
  1.898700899503780E-002
   1.14527870373357     
  0.532259544706147     
  0.411613116162985     
  7.160921494139761E-003
  0.279048654383873     
  0.321451327689859     
  -1.62080882304552     
 -5.695381250760137E-002
 -0.318922213871193     
 -0.533341267134436     
  0.241816144950784     
  0.481903790097278     
  0.994841762152289     
  0.222203387946838     
  0.747961522590783     
 -0.961083045047015     
  0.469177485318302     
 -0.448595079530083     
 -0.572173159219490     
  3.943288169528515E-003
  -1.39515252541664     
 -0.159706907683717     
 -2.922130998932489E-002
   1.16799407297584     
  0.473787041751255     
  0.148273629962571     
  -1.28363920499430     
  3.911770482648415E-002
  -1.54250809458796     
 -0.172393738927791     
  0.370548035646225     
  0.737658255817679     
  8.363531313050039E-002
 -4.380429625467593E-002
  0.315218284898170     
 -0.701370053743319     
  2.589713272926198E-002
 -0.702672965381069     
  0.291238380497768     
  0.206424961405470     
  0.634401077036547     
  0.604069534898540     
 -0.149150622797853     
 -0.561487495337249     
  0.988987096154889     
  0.711320779229730     
  0.339328752864807     
 -0.208592722252283     
  0.390552102975797     
  4.882335785278810E-002
 -0.745737694185358     
 -0.688666887071645     
  0.579574155677602     
 -0.372271445729978     
 -0.582514963059523     
  0.147279921034259     
 -0.112706595827292     
  0.242655358346910     
 -0.313572084353815     
 -0.444189793460560     
 -0.340289942577807     
 -5.741095922781885E-002
 -0.198899012043248     
  0.303935153227972     
  0.108227462589241     
  0.621073771942565     
  0.127893765848594     
  4.787884398118530E-002
  0.147394912911020     
 -2.771604234824545E-002
 -0.229170210784930     
 -0.278233379621084     
  4.421669691556922E-003
 -0.764132194252954     
  0.348098419075316     
  2.582723953894189E-002
  0.214373229724268     
  0.569630039478883     
 -9.689886583431660E-002
  0.285254061676369     
 -6.190952815814775E-002
  0.188585581764330     
  0.598665806404795     
 -7.700488556440292E-002
  0.226305717017983     
  0.717521673485162     
  5.893561754828168E-002
  0.419479659853602     
  0.720468520322333     
 -0.111667343228658     
  0.183971683911935     
  0.308735909302174     
 -0.105356321711322     
  0.320918377917128     
 -0.550683382893087     
 -0.340604195610003     
  0.191851974943254     
 -0.170934014537914     
 -6.473600899062434E-002
 -0.202641684129531     
  0.430026481980331     
  0.479165448937003     
  0.205296920684902     
 -0.462547253502283     
 -0.380533639811849     
 -8.299897498078472E-002
  0.439464444404677     
 -9.825518761659409E-002
 -0.686624239388506     
  0.288603165249831     
  0.315319101151034     
  0.121558472142146     
 -3.006265215566494E-002
 -0.299649649278184     
 -2.586297392132469E-002
 -0.221021905723698     
 -3.922709547298040E-002
  0.110852771589305     
  0.287881932358604     
 -0.420406051363180     
 -0.456739346095465     
  1.303437055076949E-002
 -0.346226224862578     
 -0.463888205769138     
 -0.225948810037972     
  8.787529959082059E-002
 -0.472223575056943     
 -0.183037368045607     
 -0.143500041754772     
 -0.171413880078722     
  0.125832159935139     
 -3.925419490868293E-003
  0.269977077982125     
  7.766852945880284E-003
  0.170331998988439     
 -0.806320745032940     
 -0.102345631927102     
  0.255403257150060     
 -0.265636500808022     
  7.693938722943390E-002
  0.215949846163599     
  0.636727471980793     
  0.194502801161028     
 -0.197592490343160     
 -0.192565447222329     
  0.406692842450682     
  6.943107163744636E-002
 -0.189289984257217     
 -0.513967242047239     
 -0.388417624580664     
 -0.375845671241802     
  0.414467331884835     
  3.079500351549377E-003
  0.253632218610567     
 -0.186849205087874     
 -9.724674026045359E-003
 -0.113024842395560     
 -0.564397975989553     
 -1.188731891762455E-002
 -0.128059955352176     
 -0.412017882617866     
  0.238090755154523     
  0.306900976366331     
  7.739438031900735E-002
 -1.292504727017869E-002
 -9.625251474043878E-002
 -0.403957364183486     
 -0.346361477442723     
 -0.104257100371779     
 -0.297404629019123     
 -0.242845148024967     
  0.381655984672366     
 -7.986417650274250E-002
 -0.194571292916785     
   1.09640981607678     
 -0.109430515897221     
 -0.610321475618959     
 -0.202428975261499     
 -2.674695241404387E-002
  0.843364499947239     
  4.520038782040888E-002
  0.206671451268369     
  0.141152335313016     
 -0.737544404957311     
  0.541345234468782     
 -5.577686605516954E-002
 -0.600718392805263     
  0.698030243074792     
   1.25793043759554     
 -3.243151320932257E-002
 -0.358208876075937     
   1.51424589291218     
 -0.210693463929060     
  0.811293935436810     
 -0.638963951743699     
  1.262431907524417E-003
 -0.276944090213915     
 -0.429211275521537     
 -0.385788881153930     
  0.132639057411346     
  0.294707976230297     
  0.827226401848218     
 -0.482939793442986     
 -0.204417981799562     
 -0.457866930503437     
 -0.367724352423439     
 -0.249546663429610     
 -0.315421702967366     
 -0.244533715228903     
  0.227548682975657     
  0.505189640012373     
 -0.951285573395752     
 -0.593302966280194     
 -0.672289666238083     
  0.241951339576315     
  0.507941651626818     
  0.403941953388460     
 -0.420592084476987     
 -5.480252971832362E-002
  0.101715701525491     
 -0.300635248805755     
 -0.608641685787469     
  0.226691546902681     
  0.629343279856158     
 -0.113380526431592     
  0.658099300898186     
  9.525998871768179E-002
 -0.439118459854212     
 -0.411111656326339     
  0.409821794097129     
 -0.663660384815932     
 -0.751519290392180     
  0.106616241140237     
 -0.599522734542746     
 -9.261731277097826E-002
  0.293565188462891     
  9.392435166052127E-002
 -7.205221102194174E-002
  3.292301379740157E-004
  4.217120718555832E-002
 -5.245889272132882E-002
 -0.903639596749711     
 -0.540244931438582     
 -0.224066116746205     
  0.309243157355742     
 -0.291814454467415     
  1.450037024309776E-002
 -0.279717308627315     
  0.285889766746110     
  8.894825330966032E-002
 -0.182236739126577     
 -0.404045914623697     
