     48 -    30 -    30 -     1 
rmse=  31.7622meV
  0.183245635421284     
  8.853037101347987E-002
 -5.169147781229972E-002
 -4.805606304682890E-002
  0.243823239197125     
  0.230733042202525     
  6.563704837844168E-002
  0.417898984471153     
 -5.584886550589826E-002
 -9.011729406776442E-002
  0.594086618899018     
 -2.877884113673502E-002
  0.677441141274078     
  0.351917227390342     
 -0.687959507752059     
 -0.511951255234975     
 -0.110013902032340     
  5.372035138546896E-002
 -7.854709299628855E-002
  0.163826026725802     
 -0.288267607126564     
  9.801835058508895E-002
  0.131455688426893     
 -0.177178268814975     
 -5.039722964187752E-002
 -0.366782302399723     
 -0.462771620554812     
  0.270569051949027     
 -0.260123260272594     
  0.254257215461020     
  0.336143060522186     
  0.559465917705463     
 -0.394127005965673     
  0.166176772858633     
  4.685470896192769E-002
  6.413313503164771E-002
  2.069177471896284E-002
 -4.523624644363301E-002
  2.203250114837065E-002
 -5.957896434443107E-002
 -0.239671279097370     
 -0.132118711775537     
 -0.178909521814282     
 -0.118396236238872     
 -0.232683604031444     
  0.268073888904969     
  0.299049119787492     
 -2.710023096477977E-002
  0.508955516975252     
 -2.620293568967775E-002
  0.245872596022471     
  0.346780680505124     
  0.286504182606178     
  0.547756570590338     
  9.949394284717751E-002
  0.889938844619415     
 -2.310001692030765E-002
  0.434677019580626     
  0.163973957816951     
  0.162762430305846     
 -0.146086538892101     
  0.331608980348769     
  0.622185226414530     
 -0.122597516823169     
 -0.140413499798684     
 -0.156533133190230     
  3.570244609581587E-003
  0.381091799976442     
  0.471316201764897     
  0.522796707926240     
 -0.209344854881983     
 -0.627021672326360     
  0.643435390219196     
  0.576908793712887     
 -0.362076615301722     
 -0.775205463368938     
 -0.312039149335007     
 -1.318601103668476E-002
 -0.584011393938030     
  0.274569768577698     
 -0.461800215465132     
 -0.468854804133900     
 -0.273230761505146     
 -0.131819436082620     
  0.199972352973673     
 -0.170794800808327     
  -1.26601711580232     
 -0.943740529787859     
 -9.495220003870333E-002
 -0.713343503166835     
 -5.539068028764522E-002
 -6.359893403663722E-002
  0.248481253847227     
 -0.171727368034722     
 -0.624003658366771     
  0.301373684958935     
 -0.110639448674682     
 -0.198780636184308     
  0.242284993818870     
  6.873035773835733E-002
 -0.582413461142526     
  1.043861277343836E-002
  0.209426022114267     
  0.448542964918240     
 -0.100277734518926     
 -0.619824581032537     
 -0.379197158095962     
  0.127976808281156     
 -0.152376779060087     
 -0.358901180318864     
 -0.627245673480561     
  0.101028326792203     
 -0.155437854662442     
  0.224609055231085     
  0.265556952160024     
 -2.813156648045319E-002
 -0.731450305833397     
  -1.14230468540693     
  2.615456937866698E-002
 -0.170923412516050     
  0.518878743971511     
  4.736559666731462E-002
  0.341925493183412     
 -6.612997588546723E-002
  0.518073857802378     
 -0.739163805043594     
 -0.224811269812797     
  0.143543812783794     
  1.310214995391283E-002
  0.189600391475043     
 -7.763616242790077E-002
  0.158493147223083     
  0.491996450054211     
 -0.182568024613567     
  4.472900590687527E-002
  9.598356760897467E-002
  0.285168666265559     
  0.660282167560861     
 -0.205439787382912     
 -0.275239815060188     
 -0.366093491366978     
  0.631779018252227     
  0.127519406420574     
  0.931979372382261     
  0.126584250067206     
  2.123434898106730E-002
  0.157049864367793     
 -7.805349018932865E-002
 -0.299355907826073     
  7.002119231507736E-002
 -0.607325024570914     
 -0.542765537460819     
 -0.677107797897432     
  2.235032346591396E-002
  0.268485553731732     
 -0.161205256416381     
 -0.163582780132772     
  0.281595526267148     
 -0.161878772015386     
  0.173218910056886     
  4.841808765176048E-002
  0.130269955270184     
  0.231388846254031     
 -0.262686769683951     
 -0.461771726766017     
 -0.577494553666754     
 -0.822484996015768     
 -6.787948235370304E-002
  6.020076186006000E-003
  0.518631392479444     
  0.218510015570343     
 -0.142168299552549     
 -0.664382876836803     
 -0.316251156393359     
 -0.446570564642149     
  0.132570733570097     
  0.154780663842770     
  1.573951049192990E-002
 -0.131550423884255     
 -0.311693997921697     
 -0.437087900630354     
 -0.453025581063189     
 -0.636978368767324     
 -0.794699047916335     
  0.219325484884476     
  0.473269349266387     
  0.197670325344590     
 -4.092472475816101E-002
 -0.324791591464414     
  0.306942521742200     
 -0.371900872584572     
  0.564369326189354     
 -0.455719648173714     
 -8.002355321069891E-002
 -0.143993756975000     
 -0.226099323149445     
 -0.487105105201068     
  9.539912026966071E-002
 -0.754063257744443     
  0.203444210700665     
 -0.358470886695705     
 -0.173705474280012     
  0.183171055906629     
  0.265464946317139     
  6.147798384852447E-002
 -1.965307807395194E-002
  5.373755686415205E-003
  0.161283235435684     
 -0.335005926494717     
 -0.253009284721042     
 -9.728457847611487E-003
  0.304624852679521     
  6.793245585666298E-002
 -0.669088035954491     
 -0.289773390631891     
 -0.268930690864984     
 -0.144490585809066     
  0.390644069263090     
 -0.920534408795417     
 -0.301919114800997     
 -0.428114958187682     
  0.844337994265608     
  0.232740141323119     
 -0.448345972513279     
 -0.646656876003954     
 -0.613432772577129     
 -0.239179511054279     
  0.254992601994183     
  0.266539038069348     
  0.398554654698269     
  2.636655661522282E-002
 -8.309573860070738E-003
 -0.680548775917617     
  0.310340191728185     
 -0.137853141319412     
  0.580185901138164     
 -0.455134400377118     
  0.822036473955355     
 -0.230611747660987     
 -0.872933936051302     
 -0.692833711426371     
  0.155883104359304     
 -0.125748357538131     
 -0.208761626474161     
  0.592820725206175     
  0.213438038937320     
  1.497592451846043E-002
 -0.411812026755720     
  0.141717477151831     
 -0.285889723626284     
 -2.224569022397018E-002
   1.19044185718792     
 -0.381252090513246     
 -5.289755763338173E-002
  1.151066107661046E-002
  0.801371670453289     
 -3.967137362960337E-002
  0.171115382044695     
 -0.162158108812293     
  0.177987518314251     
 -0.529076989540388     
 -0.671485201502064     
 -6.674713545824486E-002
  -1.24118776442522     
 -0.325477163819400     
 -0.709261640770196     
  0.240950489954543     
 -0.181904490570542     
 -0.953431547715692     
 -0.402156768073161     
 -0.252129744663223     
   1.02223671425226     
  0.247597485409066     
  0.106362827931757     
  0.479093866550021     
  0.211417868257141     
 -0.254498352335464     
  0.583953052117714     
  0.575252931959831     
  0.463433583473690     
  0.939080734189063     
 -0.217828399481465     
 -0.879089171507932     
 -6.319964961257978E-003
 -0.805570893115951     
  0.145033707758853     
  0.275114125905139     
  0.417898886237280     
 -3.419095824271248E-002
 -4.429239568942443E-002
 -0.163684276342344     
 -0.428461494817453     
 -9.672383487719666E-004
 -0.331347956373401     
  0.136558833002886     
 -0.235792237562761     
 -0.504037186883594     
 -0.541972552080286     
  1.955175816695954E-003
 -0.230370686420513     
 -0.646820885357199     
  0.138005706308374     
 -0.319013657437182     
  0.339206544415738     
  0.212521314995456     
  0.269319502177472     
  0.418408737327288     
  0.286671804843231     
  0.492624391795237     
 -0.176612630730535     
 -0.236246884310627     
  8.614809822896873E-002
 -0.173096427885992     
  8.723604761746470E-002
 -1.508067967562506E-002
  8.537012937518307E-002
 -7.414463215906768E-003
 -0.232672401714001     
 -0.167706759381036     
 -0.604162383355529     
  8.816146843476802E-002
  0.120536683076813     
  0.134852372001464     
 -0.557655181404391     
  0.233858623073435     
  0.594063117462450     
 -8.707290295639109E-002
 -0.131701832848403     
 -5.701603711663698E-002
  0.849691431037742     
 -0.260821657515813     
  0.469876016757975     
  0.282169590315250     
 -6.081853056379080E-002
  0.828348001649715     
 -0.906316149389666     
  0.326843375817891     
 -5.733939572349525E-002
  0.156944421553960     
  8.190021146243706E-002
  0.505340632062187     
 -0.615974751606755     
  0.499885639798715     
  0.395057029421245     
 -0.359126652588526     
 -0.425943460044382     
 -0.377276043244068     
  0.351545675687991     
  0.317840815694301     
 -0.647450265364658     
  5.628443843361329E-002
 -0.261945160434989     
 -0.243864163297278     
  8.176644540395589E-002
 -0.306905621082622     
  1.068102198982556E-002
  0.590517871757683     
 -0.473892930516890     
 -0.403152252117353     
 -0.392995076547411     
  0.766826686198986     
 -9.264275730697936E-002
 -0.114100028604113     
 -0.223074160721324     
  0.433520938842150     
  0.187439878648800     
 -5.650849949038463E-002
 -0.460621796580053     
 -0.303097574318819     
 -8.373197556420439E-002
  1.996015825364335E-002
  0.189653046083190     
  5.014325481901693E-002
  0.181533326413216     
  0.147433250735701     
 -0.171403560255183     
  0.125638945463995     
  0.258510572257294     
  0.310939359978751     
 -0.410412376017585     
  6.593739108193163E-002
  0.560020530129172     
 -0.239781625238219     
  0.829048183452106     
 -0.693386078293171     
  1.622140486176136E-002
 -0.228364767117610     
 -0.426483508235185     
 -0.763587326640009     
  0.228958768593918     
 -0.679886866412947     
 -4.627011260099647E-002
 -0.256740938989474     
  0.489880258901679     
  2.420631341964612E-002
  0.521134842568525     
  2.993949649144145E-002
 -6.395619301032526E-002
  0.217347118870071     
 -0.893389966665615     
 -1.061346541209184E-002
 -7.467033452952417E-002
 -0.131201793239431     
  0.218670350316054     
  0.604474255595687     
  0.751092185911339     
 -0.383619070235618     
  0.404419433835392     
  0.871618000418167     
  0.992164754917878     
 -0.111999642919365     
 -0.782524943529256     
  0.269063689181357     
 -0.270507219218195     
 -0.408215160429130     
  -1.09110154098788     
 -0.114435253770817     
  1.814204674340800E-002
  0.955057503248688     
  0.572500043231756     
 -0.331985902108731     
 -0.489267525618684     
  0.357928255463371     
 -0.338863444436434     
 -0.236326243482571     
  0.118417077467687     
 -1.056156299746244E-002
  0.109860133862435     
  8.495415570749253E-002
 -0.102196695453135     
 -0.147148969825136     
 -0.497297837296712     
 -7.746662314900869E-002
 -0.168196237344167     
 -3.162602507263185E-002
 -0.609052111997436     
 -0.366847938466464     
 -0.366990046555757     
 -5.289124063272863E-002
 -0.459846189242392     
  0.659519571406124     
  0.171660863862053     
  0.737536873147757     
 -0.142804956415060     
  0.693567413951308     
  0.378431696388187     
 -0.455428136403060     
  -1.23758865937170     
 -0.114768192243281     
  0.226499347267964     
  0.488282226498727     
  0.182264872184444     
 -0.687019086399483     
 -1.558169557715013E-002
   1.04361400284148     
  0.536513920527694     
 -0.489502769625992     
 -0.141832244590388     
 -0.834404882885842     
 -8.206814679293950E-002
  0.396770794111594     
 -0.430661671518505     
 -6.714787244348702E-002
 -0.744594066951488     
 -0.152395364215281     
  0.133837218880458     
  0.157717816189988     
 -0.190097419309018     
  0.102803059544439     
 -0.446465066709176     
  0.131965299138458     
 -0.507373712704456     
  0.100915443753768     
  0.587924366810928     
 -0.124969341463605     
 -0.209681148845215     
 -0.139456954174203     
  9.173389557447938E-002
  0.157402109516936     
 -0.551943562024401     
 -0.351321331750043     
 -0.129618010958613     
  0.214326068248312     
  1.381986584179803E-002
  7.695054176631676E-002
 -9.704067589169309E-002
  0.115294810661878     
  0.545410912040746     
  0.120402931666704     
 -0.203819172164808     
 -0.567136695049194     
 -0.407000307073405     
  0.404586988832456     
  0.364779202906611     
  0.130436846926716     
  0.438194054085711     
 -0.153493253283192     
  0.298000334529984     
  0.201285326605172     
  0.233320545063556     
  0.404687379697249     
  0.149773897011776     
  0.575228904740025     
  0.618378283434044     
 -0.126017892643300     
 -4.805783025883568E-002
  0.421066853639496     
  9.116467936155437E-002
 -0.288895501419978     
 -0.440066118185581     
 -0.408400916545873     
  0.301001765363935     
  0.332707045314436     
  8.887027711147502E-002
 -0.328260312825645     
 -7.328136061826396E-002
  1.591167086162678E-002
 -0.521142341953712     
 -0.211706827221372     
 -0.390154508746842     
 -0.181658467010599     
  0.102637458630352     
  0.357397032167206     
 -0.124011525740643     
  0.182607311060935     
 -0.172120408012665     
  0.631797521378684     
  0.639684105009898     
 -5.643603870140588E-002
 -2.412459757988589E-002
  9.367364099752747E-002
  0.189468498624534     
 -0.441930324034097     
 -7.025745630686042E-002
  0.502333265003223     
 -0.131094553980851     
 -9.937934865895683E-002
 -0.122238816558160     
  8.247039414360602E-002
 -5.803103094203475E-002
 -0.176880286143346     
  0.136263335327851     
 -0.165271573703010     
  9.766615155996659E-002
  8.734887508114771E-003
  4.302937554281278E-002
  0.466158373106317     
  0.255347597739126     
  4.237010493005344E-002
 -0.212516295675061     
 -0.197692835005945     
  6.845101145702785E-002
  2.834453446194268E-002
  1.357480541608941E-002
  1.137140823207027E-003
  5.930842698588487E-002
  2.443820326062584E-002
 -0.111271533242190     
  4.516132378290085E-003
 -0.125251185675332     
 -0.531975810846758     
 -2.619619344362027E-002
 -0.676411621356348     
  0.314957643175272     
  3.975064597096460E-002
  2.782177905727014E-002
  4.184845440696187E-002
  2.086609644157442E-002
  6.220416410136952E-002
  9.630861615794546E-002
 -7.924373846838759E-002
  0.130760484793446     
 -4.882245512328583E-002
  0.107990761473010     
 -6.828594699771014E-003
  0.441165388352877     
 -0.198919681892348     
 -2.272730504112203E-002
  0.338145209238529     
  2.642618331842968E-002
  1.654089804821667E-002
 -1.469997856175499E-002
 -0.409932020447599     
 -0.111475342932742     
  0.240513601643255     
  0.246681539952735     
 -0.154242775570499     
 -0.392155176665627     
 -4.938503061945868E-002
 -1.032018084255543E-002
  0.341581065778544     
  0.227190130276815     
  0.271576416745402     
  6.743686845842016E-002
 -0.204855627114552     
 -0.824540253407768     
 -0.558132498548814     
 -3.270948992366828E-002
  0.607629350028400     
  0.300811853289309     
  -1.08150097766839     
  0.571729505856330     
 -0.353274796847306     
  0.484353495979474     
 -0.494435152294415     
  0.398386404347511     
  0.492202106248082     
  0.400926153624473     
  8.837040015220751E-002
  0.357179711682643     
  0.670392346907063     
  0.571457055001140     
 -0.466365486506563     
 -0.145061602362390     
 -0.349671975298823     
 -0.299563044984339     
  0.595953529895864     
  0.133437873613671     
  2.987118343005817E-002
  0.643564782548509     
 -0.119601752925201     
  0.251612173502653     
 -0.768553769783845     
  0.856218917603214     
 -0.293718467050622     
  6.588099857866211E-002
  0.286688872003802     
  0.888211220737474     
  0.962016668140429     
 -3.353440864902133E-002
 -9.804460306223065E-003
 -0.648306412067542     
  0.232679749415167     
  0.828807198625043     
  0.263633082907345     
 -0.240434528705509     
 -8.141799107551710E-002
  0.429692342931941     
 -0.276853920334897     
 -0.392970395185710     
  1.326768294077165E-002
  0.150855232938765     
  0.441954417906666     
 -0.642053783706959     
 -0.722798455942216     
 -0.540515998012265     
   1.20639958242595     
  0.296263795486668     
 -2.907539752201160E-002
  0.234493463841870     
  0.209321283525648     
  9.685130542806581E-003
  4.600252966399176E-002
 -0.225110340758158     
  0.168150769506227     
  0.499120492062678     
 -0.140143842925387     
  6.552166275133593E-002
  0.143367271022137     
 -0.318664827011219     
 -0.290213518058681     
  0.529216386398942     
  0.416523344021871     
 -0.697372409330471     
  0.482984144751424     
 -0.581724416346692     
 -0.142497443177590     
  1.425301088940785E-002
  0.198902800480948     
 -0.451336719858402     
  0.257878490311066     
 -2.314496104592500E-002
  0.105154407834605     
  0.184010200929436     
  0.161710493931739     
 -0.802957460457193     
 -0.170948119290814     
  0.579631703116511     
 -0.261446732989612     
  0.213570359387928     
  0.489025082680608     
 -2.036341935184393E-002
 -4.970275178522071E-002
  4.711690200050070E-002
  0.246276491792859     
 -0.217794612339768     
  0.152258874191198     
 -0.389703810283131     
  1.432981791480274E-002
  0.113841540724224     
  0.793526972978822     
  0.464446450184262     
 -0.265653719668958     
 -0.747726655371359     
 -1.985041195959401E-002
  0.258039677127343     
  0.307711913852030     
  2.064863481100412E-002
  3.059692393195090E-002
  0.186693772653196     
  8.013354219955421E-003
  0.515053402751020     
  0.327146786210397     
 -0.822274225551774     
 -6.499905361375025E-002
 -0.175178861719520     
 -0.553031327040331     
  0.454687047564573     
  0.277582936919109     
  9.669620348465048E-002
 -0.178018343768525     
 -0.496865433926178     
  0.138127860678100     
  0.374685652247204     
  3.556951688045708E-002
 -0.279250694769477     
  0.105153670787488     
 -0.347394556672307     
  0.176854384242830     
 -0.771129478668358     
 -0.375960286527485     
  9.880295634293620E-002
  0.109571787949722     
  0.279033177345014     
 -0.199466605079280     
 -0.198607317288660     
 -0.516171102626320     
 -0.690392908505008     
  0.538226046618488     
  0.577575249496149     
 -3.513600552466303E-002
 -0.287238706772242     
 -3.049270925649062E-002
  0.420785031331357     
  0.182583395073516     
 -0.569429976172075     
  8.407173822361454E-002
 -8.116285225616728E-002
  0.168750700951290     
 -0.257713203213673     
  0.289235032997086     
  0.404435182948955     
  0.517031889059733     
 -0.122089397033594     
 -0.256480761119804     
  0.155699882506542     
  0.538419977695487     
 -0.325363375459137     
  0.384132212743662     
  0.204673139088880     
 -0.137184999204313     
 -0.766951736295796     
 -0.196241831457008     
  0.104067000465377     
 -0.546220694924585     
 -0.426894492630451     
 -1.621057032502463E-002
  0.666685448644819     
 -0.647414795801101     
 -0.403623838530949     
 -9.058401120399188E-002
 -0.815405987015959     
  0.121936306912719     
 -0.108777967943276     
  0.613181770178511     
 -0.927760087244448     
  0.486770440520215     
  -1.70820814206245     
 -4.301822143558895E-002
 -0.157105650130188     
  0.385212058701274     
  0.625032939152870     
  0.555064850966635     
  0.658599284085816     
  0.849087932596632     
 -0.134677758444634     
 -0.275394561034219     
 -0.321794290107163     
 -0.114772148478081     
  0.444419399529173     
 -0.100271390134176     
 -0.316166345479141     
 -0.314218127520782     
  -1.15267822005078     
 -0.227420068530288     
 -4.091882889549606E-002
 -0.298714130070575     
  0.363673965622981     
  0.253318484430457     
 -6.813204853635746E-002
  0.367240608351481     
  1.395284305196962E-002
  0.729205442387088     
  4.818900605082603E-003
  3.368240682077694E-002
  0.225912574483036     
 -0.178313472836337     
 -9.743112968327521E-002
 -0.180013297949805     
 -0.633867892471972     
 -0.219341842497641     
 -0.154673998228365     
 -0.264038794788946     
  0.359516959207422     
 -0.881081596230541     
  2.077649216119283E-002
  0.659530667151241     
 -0.168708924201425     
  0.594087768959183     
 -0.177311072953261     
  0.195545299219209     
 -0.666991068160530     
 -0.277218709701679     
  0.809440566391888     
  0.385363114719277     
  5.517061832273321E-002
 -0.329154538737392     
 -0.121366261855529     
 -0.233588871967927     
  0.144106474744181     
 -0.692332310889707     
  0.315582787591617     
 -0.752004780520518     
 -0.521613808644677     
 -0.124575810147935     
  0.612209156081071     
 -0.202887129966681     
  7.617483761116671E-002
  0.108306721261341     
 -0.540190252074808     
 -0.164444266103229     
 -0.302405112027591     
 -8.824756395321284E-002
  7.511628609350686E-002
 -0.265243918657434     
 -0.589356648732209     
 -0.277277701206883     
  9.263809255277766E-002
 -0.727236164002954     
  0.694424970037888     
 -0.725156911639571     
  0.633607616368055     
 -0.210004818853830     
 -3.970227304614332E-002
  0.229174571478985     
  0.680480172955471     
  0.219354349403499     
 -0.658164479061880     
  4.459801005504799E-002
 -3.783492875914557E-002
  5.095828472008464E-002
 -0.253339478770125     
  0.445470774492875     
  0.548529006025016     
 -3.046753452728616E-002
  9.115632137553589E-002
  0.371226699146786     
 -3.843274748778826E-002
  0.177579390682531     
 -0.157809480106581     
  0.231326552913431     
 -0.159119710892384     
  0.120228995617033     
 -0.356751769732210     
 -0.484130337514273     
  5.173698692067931E-002
 -0.145312225843983     
 -6.004090943511028E-002
  0.425812479285618     
  0.236247954977575     
  0.257248230796214     
  0.102693081205304     
  0.818997422643271     
  7.077772070620009E-002
 -0.232827413396626     
  0.140606285493544     
  0.167247509076576     
 -0.347573898425342     
  0.452120271096878     
 -1.551817881959372E-002
 -0.138642305770962     
  0.107002904654761     
  0.237003550435526     
  0.578584193487218     
 -0.896742300750910     
  0.182547669729380     
  0.217230941092352     
 -0.524306310054911     
 -5.502935422660386E-003
 -0.416466425291059     
  0.116218829093677     
 -1.812293606212531E-002
  0.227515525183763     
 -0.472416299771534     
  0.418761057274114     
   1.55415426227747     
 -4.655435523584340E-003
  0.139863816700240     
 -0.359397936537776     
 -0.256263747152841     
  7.186380655408178E-002
 -0.200136880929729     
  0.180600353359243     
 -0.646672737849960     
  0.182192710119023     
  0.318665172908189     
 -3.667335125543820E-003
 -0.123940483334293     
 -1.579631524095942E-002
  7.823026976206646E-002
 -0.517315093148701     
 -0.330434029690930     
 -0.149105868139544     
 -8.344910563392045E-002
  2.030380291438688E-003
  0.386310347816665     
  0.379803138633481     
  0.401037635358536     
 -0.291412281032736     
  2.065650504362838E-002
  0.862986058489062     
  0.420827221737311     
 -3.426296882875082E-002
  0.166573936714251     
  0.625003496878288     
  0.552435543650292     
  2.508503819367071E-002
  0.316061095063762     
  0.152331935870137     
 -3.865206503932141E-002
  9.912362359281810E-003
  0.291075408112479     
  0.177124977107637     
  0.395730021936802     
  0.496790752674355     
  0.226836780257762     
  7.410713246871861E-002
 -0.278156954107664     
  1.760990804175804E-002
  0.159503875905465     
 -0.481496622316997     
  3.121739419170625E-002
  0.907737113965221     
  0.706359065735439     
 -0.130697645606358     
 -0.162018187248769     
 -0.332109272707613     
  0.287015973035884     
 -0.517735689292303     
  0.167643446957090     
  4.422735979190752E-002
 -0.873963109475107     
  9.905070741227953E-002
 -0.243005016166716     
  0.146543278405913     
 -0.389380492130381     
  2.382217065487475E-003
 -0.207454998543141     
 -0.431581607760319     
  0.823935133845580     
 -0.108109152637292     
 -0.117341657667682     
  0.167588996726184     
  7.041423877256273E-002
 -0.207093477351540     
  0.467842753929333     
  0.337610479427821     
 -0.435463690809755     
  0.394293597708972     
 -0.440251329265662     
 -0.840162720496112     
  0.712257936520835     
  -1.08363264112305     
 -0.273029656888238     
  0.401494514052850     
 -0.193195104274571     
  0.105369089547940     
  7.414428459807325E-002
 -0.245938183098660     
 -4.071280607691113E-002
  0.944353232888752     
  0.129844088632247     
 -9.173960499291503E-002
 -0.251494620343283     
 -1.530291082073247E-002
  0.220236786826691     
 -0.680477256057499     
 -0.172810297523965     
 -0.319218588656469     
  0.113883123304573     
 -0.296892739898272     
 -0.686814978582067     
  0.113873235839720     
 -0.259000763840796     
 -0.121005441080290     
 -0.220801854204342     
  3.226875266855421E-002
 -0.464504912848731     
  0.202888432068059     
  9.627494399679264E-002
  0.198986068092431     
  0.656717297066559     
  0.233889114802172     
  0.340008502161081     
 -5.443426097698455E-002
  0.670622081512662     
 -6.560159240019263E-002
 -0.195679756380487     
 -0.275844177576523     
  4.965798816171299E-003
 -4.585886482451868E-002
 -0.467040298739066     
 -0.830880353329671     
  0.144716105833343     
  0.279664599947727     
  5.818532639124796E-003
 -0.799770740532782     
 -0.376067026781629     
  0.225368046152545     
  9.250459870667382E-002
  0.449837520878409     
 -0.403670513408243     
  0.664212800481772     
  0.131422632760666     
  0.218735193141437     
  0.592579502620641     
  0.153683688834328     
 -0.292693938092563     
 -0.228959728710022     
 -0.170362387505219     
 -5.874778782335946E-002
 -6.046987571328983E-003
 -0.134781361593802     
  0.492699741373396     
 -0.193791421641136     
 -0.226438478622766     
  0.185469258359510     
 -0.147622979696259     
  0.188171307068228     
  0.638539737768535     
  0.902550584461456     
  0.183101742337539     
 -0.903810209214195     
 -0.213736249139717     
   1.18670836463335     
 -0.263253654270542     
  0.296140749461637     
  0.480950643418101     
 -0.711879864410110     
  0.125339109120032     
 -0.188487579251806     
 -0.339862192239505     
  0.234337873291156     
  0.396348548784203     
  -1.15006982190848     
   1.16840553462141     
  0.776759449236873     
  0.125572906374948     
  0.360239682541916     
  0.120256507587608     
  0.607583175710206     
  0.546464514254741     
  7.830351644995835E-002
 -6.304855334407490E-002
 -0.652651000132324     
 -0.289638549999532     
  0.680041862449149     
  0.496376126131118     
  0.115304789016640     
  0.196281418147583     
 -7.025444438351792E-002
 -5.209302516576777E-002
  0.237398916393439     
  0.140178809469317     
  0.163991583774059     
 -3.755317350317215E-002
  0.300726815437667     
  0.605533588008234     
  0.535338761122082     
 -0.391628329209274     
 -0.154346540213284     
  -1.05917772423861     
  2.134090046945326E-002
 -0.538441159395526     
 -0.260366269462995     
  0.508677128287120     
  0.320930779617208     
 -0.190086599956461     
 -6.381209004204215E-002
 -0.178206174252716     
  0.136439924288320     
 -8.985623672311083E-002
 -0.659184397298742     
  5.798708205996899E-002
 -0.128296881471929     
 -0.488222281020877     
 -0.831181666140524     
  0.432008834072818     
  0.830057127954606     
 -0.110988950774127     
  0.796088522350545     
  0.328795802654532     
 -0.309362832927159     
  -1.11232716253328     
  0.182598593131121     
  0.121007130835888     
 -9.763961718180341E-003
  -1.04034641536663     
  0.636703713339285     
  4.449166558183796E-002
 -0.484357519136059     
  0.180451000628047     
 -8.093211496792996E-002
  0.130617975509574     
 -5.072893882888464E-002
 -3.148471647939330E-002
 -6.014706130993810E-002
 -0.153788408944512     
  0.246848732119370     
  9.089846706106261E-002
  9.365298713580954E-002
  8.102694305115636E-002
  0.555129143655609     
  0.166979471032936     
  -1.03221992231449     
  0.242906828574169     
  0.290290138040221     
  2.266016723836526E-003
 -0.175965287530254     
  8.731389953607267E-002
 -0.115202715309673     
  6.357959084313736E-002
 -8.913832324154825E-002
  0.270088407317401     
 -0.123242135576302     
  9.429728792115047E-002
 -0.259094358040782     
  0.180442177178987     
 -0.468893146364629     
  0.132068277956271     
  0.323092556641902     
 -0.251759421085512     
 -0.218843851232834     
  0.139852952269773     
 -0.306957442221296     
  0.229633063610939     
 -2.039325396560334E-002
  0.165337301623444     
  5.437087192424837E-002
 -5.100518556272035E-002
 -5.755802211431980E-002
 -0.212706147645897     
  0.803115346303286     
  0.322779150173852     
 -0.270331926944781     
 -0.678001240211066     
 -0.145664025334002     
  0.553214512413194     
 -0.169807516508077     
 -0.219664437748551     
  0.689576117968708     
 -7.153945902661422E-002
  0.594751476896043     
 -0.609424475630836     
  0.145574408001931     
 -0.578275972099910     
 -0.541666617679639     
 -0.337475741895621     
  0.291819630967577     
 -0.132426415005911     
 -0.140911997622470     
  0.150414999783759     
 -0.260605883063142     
 -0.340373529446660     
  0.717138741289756     
  1.380762624257674E-002
  0.574905121772382     
  0.410024691378445     
 -0.243561892236239     
  0.395577981093432     
  0.309081837088677     
 -0.336957275930106     
  0.856836115327278     
  4.249895223580649E-002
 -0.302995675581130     
 -0.238424565478501     
  0.169133698232256     
  0.393065253393943     
  0.221304515184323     
 -0.426325390069672     
 -0.100437208922060     
 -0.919676896817829     
  0.307128889834611     
  6.730287533524862E-002
 -0.260957485529195     
  0.177854539924488     
  0.690021424468464     
  0.426574429998497     
  8.757373536297439E-002
  0.169466949558444     
 -0.156353587634242     
 -6.830108821555593E-002
 -0.296357769794775     
 -0.431630449814899     
 -0.446371356711792     
 -0.534169107609977     
  0.270053210738772     
 -0.592614649730579     
  0.253804016939204     
 -0.165465847723087     
 -0.120166220210197     
 -4.517812033672336E-002
 -0.117298077056552     
 -0.570070111802414     
  0.423484278008631     
  0.115432148475213     
 -2.650019533972267E-002
 -3.182024932491364E-002
 -0.211655994744884     
 -0.315951838377391     
 -0.740524739461349     
 -0.362141200018936     
 -0.150208687360297     
  0.198705065055553     
  0.387425250681449     
  0.356306375284180     
 -0.212904002795592     
  0.768653315089940     
   1.18652843639824     
  0.247804260441646     
  0.928281164755813     
   1.06587518338639     
 -8.643727349120647E-002
  5.631648839119252E-002
 -9.860755173597527E-002
  0.157400481571776     
  0.176100316073541     
 -0.441936755882486     
  0.805540510369304     
  0.337588285497289     
  0.442087145365409     
 -0.286884565355372     
 -0.522650522367078     
  0.396864278108439     
 -4.506482280049578E-003
 -5.132043548181429E-002
  9.759272955339848E-002
   2.44624343753939     
 -0.245081364603464     
 -8.632187920598240E-004
 -3.873793460116270E-003
 -0.240390743459887     
  0.170134259113604     
  0.359571549684224     
  8.879231941813526E-002
  0.324501266847591     
 -0.695384485331793     
  0.423104265459459     
  0.501092075373694     
 -0.709534982344306     
 -0.229641568239223     
 -0.458219953847551     
  -1.33974663542146     
 -0.616221591178176     
  0.102609596053333     
  1.604650248600757E-002
 -0.142875385420194     
  1.242896579338923E-002
 -0.109112555690551     
  0.122168877219744     
 -0.431554121047027     
  6.517495048420928E-002
  0.361002197629524     
 -0.834574397220076     
 -0.899207883604374     
 -0.222089499103231     
 -0.110495937255408     
 -0.481533719079913     
 -0.489861747753855     
  0.446017605166562     
  0.300769284513137     
  4.840248339703387E-002
  0.255117977752263     
  0.498011284784817     
 -0.261007572064383     
  0.575797924499561     
  0.844518126193299     
 -3.530960184339130E-002
 -0.317519236347864     
  0.421985419303388     
 -0.531505155502239     
  0.583015316715118     
  0.506073199196702     
 -0.298629627993547     
 -0.283166610590214     
 -0.472863438255578     
  0.189418030533879     
  0.161092189122811     
 -0.223667679162892     
 -0.410211728915547     
 -9.709325445645224E-002
  0.185567697816696     
 -0.706407217656747     
 -0.202600525684599     
  -1.28131958696134     
 -0.152793018528349     
  0.387668155770704     
 -0.472271767105011     
  0.280619702189479     
  3.902646928357702E-002
  0.332233902648602     
 -0.794542981196148     
 -0.305504080986840     
 -0.318952547842315     
 -0.111676621479138     
  0.398504373503517     
  0.426814190786300     
  0.392544285862165     
 -0.512966357540734     
  0.809008086801774     
 -0.518469999226057     
  0.728300859332160     
  0.227422334066477     
  9.385147294427505E-002
 -0.495698760684994     
 -0.363742053038469     
  0.535589950385978     
   1.75823319632893     
 -0.615789006103057     
  0.311104826461585     
   1.16462704378055     
  3.897678291947496E-002
 -0.346798559545063     
  6.251027065773644E-002
 -0.506001947073105     
   1.17944290106069     
 -0.736481531716158     
  0.376313863985394     
 -0.681331373212408     
  0.253020155505522     
  0.575950085036234     
 -0.400916120874367     
 -0.544786148704275     
 -0.937418753407631     
  0.601640760252890     
  0.144051042945445     
  0.184201762274585     
 -0.280439858128748     
  9.097668744559989E-002
 -4.356663556727841E-002
  0.289763876308923     
 -0.802169407590705     
 -0.257159246317045     
  8.148536471411526E-002
 -8.239599385102077E-003
 -0.363520253701037     
 -0.588047166644046     
  0.307919213962881     
 -0.248806104831369     
 -0.179418794031775     
  0.234345728017525     
  0.107691773031559     
 -0.214677886739603     
  0.300325726788542     
 -4.296793864775278E-002
 -0.165622974709886     
  4.084163012699264E-002
 -0.168637822797911     
  8.507843747848672E-002
  6.137065597384499E-002
 -6.539529063581469E-003
  0.314389438330432     
 -0.215023177236796     
  5.616335176964897E-002
  0.113230220949889     
  0.505763724330071     
  0.193220892455074     
 -0.218361863722638     
 -0.510352172898265     
 -0.392505411277933     
  3.707700997953652E-002
  0.317577313661675     
  0.531145428360718     
  9.331829175977290E-002
  0.496304713160393     
 -0.248890986037670     
  0.386902555666410     
  0.458069502369521     
  2.423820028695120E-003
 -2.935683097769947E-002
  0.297245323153111     
  0.482930921502727     
 -0.545635467720509     
 -4.745107802122045E-002
 -0.356834154280889     
 -0.640106627880522     
  0.364428485955071     
  9.728676207862406E-002
  0.105612042846414     
 -0.308668585901339     
 -0.439481953927289     
 -5.027533255443793E-002
 -0.317672119955333     
 -0.105616265150040     
  2.066647133702084E-002
 -0.367433101435994     
  0.615924713903841     
  0.214479741958647     
 -0.255017120744837     
  6.449933232115654E-002
  0.394311898039360     
  4.034484228636405E-002
 -7.899086473184408E-002
  0.193436034787551     
  0.180434632394553     
  0.558963379895089     
 -6.910486616355473E-002
  0.100520431295530     
  6.437663616460840E-002
 -0.177041093526310     
 -0.194366959840205     
 -2.551465843677239E-002
  0.135143966811084     
  0.594081354526580     
  0.112236002229195     
  0.231743414543332     
  0.129482757229329     
  0.242980869076374     
  0.112277222630370     
 -0.300000887121749     
  0.273613363871640     
  0.453513830750042     
 -6.657517018215210E-002
 -0.156126508781833     
  0.184976619535322     
 -4.737738532783239E-002
  0.627831114371741     
 -0.714508458030351     
  0.260433723240686     
  -2.01450992228900     
 
 -0.972084457373162     
 -0.192191106609228     
 -2.755141016383294E-002
 -0.375942430858173     
 -0.182321677859920     
  0.447275738112798     
 -0.561815063007094     
 -0.599314683101639     
  0.470014947270746     
 -4.950773140089919E-002
  0.465733368946446     
  0.809555143802550     
  0.927865659609852     
  1.108206638702530E-002
 -0.254190739395233     
 -0.266257780362507     
 -0.427734221521694     
  0.798908187643279     
  0.652384915614331     
 -0.223825137981939     
  0.948228541799397     
  -1.24502352013617     
  0.464123225570802     
  -1.18150182915672     
 -0.660978287092959     
  0.554768344555554     
  5.144110402860114E-002
  0.438710086921108     
 -0.474293725755842     
  0.703183079285759     
 
 -0.295476086767867     
 -0.134064971444662     
  0.406829787688192     
 -0.493318583264611     
 -0.182723416378400     
  0.162709934612844     
  2.072267762363016E-002
 -1.593562074365345E-002
 -0.213447831660866     
  0.179056339019415     
  2.036363524034750E-002
  0.405151821035507     
 -9.794351838348132E-002
  0.153509167311054     
  0.383968371492972     
 -8.460706788069110E-003
  0.284320565450991     
  9.605409205942933E-002
  6.662664288879022E-002
  0.560052570506789     
  0.251411222897492     
  0.696877847900578     
  6.856871201421195E-002
   1.31918810447696     
 -0.326137454898702     
  9.637531328433054E-002
 -3.429917272111266E-002
  0.205144386162969     
 -0.276274208974911     
  0.327076165604881     
 -0.812521917866097     
 -0.163631914517930     
 -0.524029319177030     
 -0.289598506817136     
  0.590581593538458     
  3.414620558572307E-002
   1.00368172912176     
  0.165044231200379     
 -0.267116784320893     
  5.874110244532541E-002
  2.037424353244851E-002
  -1.12957779684090     
  0.145853681030777     
 -0.213650575641259     
 -0.118454286479508     
  0.367393967591424     
  0.468614251683554     
  0.472947112476446     
 -0.582879799715110     
  0.886234305535944     
  0.234398692370108     
  0.405609326030513     
 -0.243409167048045     
 -0.218545179804965     
 -0.968496201564609     
  0.830997870908453     
  0.236864778494167     
 -0.503443328370227     
 -0.657884383171367     
  0.320963916126260     
  -1.00471356600342     
  -1.25048969743242     
   2.25525125990210     
 -0.860011728708223     
 -0.587827942684932     
  -1.03946922120648     
  0.427071379060124     
   1.05565739690703     
 -0.519690027481324     
 -0.491513472365893     
  0.502890804617417     
 -2.417588979457556E-002
   1.73430215105220     
 -0.726882124894169     
 -0.428751358661211     
   1.05392759913026     
   1.67439316055167     
  0.471485014253192     
   1.21773689219472     
   1.64268227887257     
  0.107610358889242     
  0.410075849401494     
   1.51895030488370     
 -0.396788096615573     
 -0.997040855662462     
  0.256614208011779     
  3.588572806106085E-002
  -1.68595051809058     
  -1.05088406663121     
 -0.395995082816013     
  0.189079109708314     
 -0.474299163618285     
   1.58303222561200     
 -0.491131659964403     
  -1.05564346158082     
  2.186397196617712E-002
  -1.01926532006122     
 -0.112128669276356     
  0.634617656863335     
  0.400113648744419     
  0.207048488371990     
 -0.741647823898987     
  0.408464064789922     
 -0.342984143010744     
 -0.878906402306050     
  0.377218424804556     
 -0.672123737503366     
  0.407188209789653     
  0.396946231869181     
  5.170789527112023E-004
 -0.349624482551598     
   1.30209973383673     
  0.153472422209298     
  0.376695182635608     
  0.278945158677678     
 -0.658670852048518     
  1.680584898800503E-003
 -0.226162717982528     
  0.489972918353380     
 -0.754219630013129     
  0.346156466677054     
  0.327024116932043     
  0.905637313916140     
 -5.427830072020847E-002
 -0.157796230057187     
 -0.232118086735596     
 -0.977338647757091     
  0.170641971625878     
  -1.05132314803707     
  0.309972105997433     
  0.808882990016245     
  6.221064389964587E-002
 -9.415601614472552E-002
 -0.212745507959073     
 -0.350383819273218     
  0.933187473555250     
  0.344502396362378     
  0.868735664734534     
  0.439991170839409     
 -9.677737309617077E-002
  0.337503937770797     
  0.634281236171942     
  0.214654982735429     
 -0.330627506816669     
 -0.318985981991025     
 -0.238571545714240     
  0.166328633219567     
 -2.267176672008726E-002
  -1.16713987416612     
  0.101721609560903     
 -0.575862477232286     
 -0.247464174384630     
  0.327686942635444     
  0.826569256051831     
  0.346887627134249     
 -0.451287345932390     
  6.368916926091060E-002
 -0.552025374725605     
 -0.218016334082637     
  0.561017635705189     
  0.117615620772255     
 -0.252850235653349     
 -0.640109944542866     
 -0.907177495612737     
  0.329221079541739     
  0.123705714857720     
  0.572959140640063     
  9.943616763986328E-002
  0.830409394859135     
 -0.142658708187851     
  6.720242789074576E-002
  0.650737593484665     
  2.002605940141888E-002
 -0.167344551167206     
  0.364667417807219     
 -0.446165783679537     
  0.188755597798784     
  0.344319330815722     
  0.452827660763134     
  0.712969367208184     
 -6.012288003138832E-002
 -0.643969829679468     
  0.443415477511526     
  6.193616994902251E-002
 -0.177039206896477     
 -0.239633268422436     
   1.28223207172418     
  8.800058900836945E-002
 -0.912623489390893     
 -0.332046685919343     
   1.09721048014483     
  1.052845250662587E-002
  3.113838535973222E-002
  0.968398115241112     
 -0.241952531156160     
  0.630945717750098     
 -0.448376457157423     
  0.206581963004168     
  0.400245414763169     
 -4.696144045848608E-002
 -4.831335474002022E-002
  0.637357793514244     
  0.369612294646216     
  0.389788100670310     
 -0.370650418327726     
 -0.115320398625082     
 -0.597897472143012     
 -0.476667725706175     
  0.330619197398826     
 -3.078701143211898E-002
  0.625937926798922     
 -0.149773049868751     
 -0.440548075807331     
  0.412822125154561     
  0.309713851714049     
  3.484895833960568E-002
  9.699248633370207E-002
 -0.304713171851520     
  0.245178740327459     
 -0.172147566223009     
 -0.105076682935229     
  0.234167564243528     
 -0.591654255033667     
 -0.352730054905496     
 -2.893191408767585E-002
  0.436850549391900     
 -7.058328881941392E-002
 -0.320527299687385     
  0.486503981891164     
  0.386826707445855     
  0.230952488790710     
 -0.404246547594813     
  0.112557493728799     
 -0.749212997331275     
  0.135731817327292     
 -4.247312976274818E-003
 -0.338187492755274     
 -3.811489915291469E-002
 -8.994759710381711E-002
 -0.313126558340065     
  0.154971354459142     
  0.310802670919661     
 -0.129464993681656     
  0.177988554762838     
  2.957385177559738E-002
 -3.262938426030696E-002
  8.445882118073575E-002
  0.721549903872497     
 -0.531832702946702     
 -0.301557428494381     
 -5.434754630696226E-002
 -0.227348415828147     
  6.488488112105117E-002
  9.864128669503934E-002
  0.402352220929775     
  0.156821165712043     
 -0.711445508437123     
 -0.290405956846639     
  0.152915528238205     
 -0.424913890315054     
 -0.259996572267106     
 -0.671254819431509     
 -0.150937150430982     
  0.185640816502807     
  -1.01916797406725     
  0.337578027415109     
  9.849953852429712E-002
 -0.623776773697763     
  0.397480736104434     
  0.769392635692514     
 -0.170630881348521     
  0.149866162082701     
  0.169733422312164     
 -0.739452923385908     
  0.492973081708406     
  0.616544901044924     
 -0.537149824056683     
  0.382605150820056     
  0.237419030547073     
 -4.955545441084683E-002
 -0.230779690367427     
 -0.280701533319349     
 -0.116592110398490     
  9.502503066185337E-002
 -0.518979338752928     
 -0.236239173667171     
 -0.558472094025243     
  -1.07540551099541     
  0.369634127888227     
 -0.339863059923047     
  0.259002733965152     
  0.134068104870728     
 -3.538187278549059E-002
  0.887797108292341     
  0.688336056251967     
  9.414308540850720E-002
  0.201993861132634     
  0.125644126333405     
  0.106357279809531     
  0.209234103466739     
 -0.753254605651851     
  0.522066165904928     
  0.458819256137917     
 -0.331051262339713     
 -0.367851204132354     
 -0.129596164799138     
  0.281565507105428     
  6.201820145975377E-002
 -0.637499206185625     
  0.400594062071072     
 -0.116178631121245     
 -0.147034969212290     
 -0.628362252304717     
 -0.229089821491758     
 -0.449969897181557     
  0.169818112526072     
  0.188508598505547     
 -3.928576591254784E-002
  5.493735094916802E-002
  0.500533582842812     
 -0.511453374054766     
  4.403369102569483E-002
 -5.311608299904328E-002
 -0.185319781287223     
 -0.343775609126740     
 -4.886015038428090E-002
 -0.350950147995388     
 -6.962927436529753E-002
 -0.239050013554013     
 -0.265709973393953     
  0.502737909895829     
 -0.193709838341967     
  0.333165116627418     
 -3.243092621210093E-002
 -8.837935499040656E-002
 -0.319218564189409     
  0.328540856593350     
 -0.666636028988048     
 -0.571244540276110     
 -0.175191537038445     
 -0.187918483968285     
 -0.579732687694379     
 -0.393115419298622     
 -0.195227069932519     
  0.466611506112256     
  4.500154047713713E-002
 -0.269469853682270     
  0.228628986791127     
  0.101453903775192     
  0.419607051223343     
  0.175570944950426     
 -0.469159248680566     
  2.757734872773331E-002
  -1.34607234947527     
 -0.343267357692587     
  0.132754607720791     
 -5.192455650423121E-002
  5.775459045613673E-002
  2.344919134911254E-002
 -0.485055545522879     
 -0.691569317004814     
 -0.548223921640079     
 -0.322774155323564     
 -0.135876003093023     
 -0.702963208670499     
  0.388131042975639     
 -0.306125960183250     
  0.312271617315342     
 -8.481028587544459E-002
  2.300727981637871E-002
  0.576506483694176     
 -0.535179607360225     
  0.466368445534597     
  -1.09718689104383     
  6.926802485874611E-002
  0.361386127109408     
  7.672738383561110E-003
 -0.120268973011383     
 -0.601150594742906     
  0.549512940723379     
  6.195955067564052E-003
  0.935866713917844     
 -3.247973571717361E-002
  0.267297333147214     
  5.604161077964277E-002
 -5.863753501820232E-003
 -5.287510952238381E-003
 -8.610543546447477E-002
 -3.667284794145028E-003
  0.328994282916894     
 -0.149347627120285     
  0.784197712848322     
  0.338220475043307     
 -0.499941518360120     
 -0.779836836817615     
 -0.320046094254344     
 -0.263692791885667     
 -2.104936711147071E-002
  -1.19710823991767     
  0.501989374573895     
 -0.187499694403853     
  0.468147823155906     
 -0.562405421047956     
  0.569619685659655     
  0.661357496885653     
 -0.254752754342544     
 -0.577112498322157     
 -0.231910760018572     
 -2.099771043285628E-002
  0.255753523394386     
  0.188064549152976     
  0.143342966175183     
 -0.100041837525741     
   1.28262650010439     
 -0.789668703180064     
  0.151468791003570     
 -0.363044343509403     
  0.105298235481205     
 -7.760459383712738E-002
 -0.324064596181632     
 -0.429191132731576     
  0.757094415342257     
 -0.481766549978415     
  0.286674295908787     
 -0.438531858002515     
  0.758493151165587     
  4.946739566612852E-002
 -7.095757705581561E-002
 -0.116184666200103     
  0.469621896295718     
  0.247725730311908     
  0.226144612199140     
 -0.238013460277342     
 -0.178579368197774     
 -1.355349080810367E-002
  0.177200079949174     
  0.144895379259554     
 -7.685888192548855E-002
  0.615638155284187     
  0.510777765420576     
  0.598160958193113     
 -1.126573766985103E-002
  0.116249064756489     
 -5.079827584636321E-003
 -4.451598388818638E-002
  0.170583408752423     
  6.009297951563436E-002
  0.271802726346359     
 -3.654079737142117E-002
  1.017258203168065E-002
  0.508862737142205     
  0.979670621014595     
  0.288087266773199     
 -0.398932755941582     
 -0.527227789882884     
 -2.979476794241927E-003
  0.187125180930690     
 -0.160728590606272     
 -0.654287767477050     
  0.647006420946619     
 -0.389033143363794     
  0.144447992770688     
 -0.508531770452262     
  0.103249243053524     
  9.155725137127396E-002
  0.438509207713001     
  0.334406989252539     
 -0.608530990894229     
 -0.170158656354084     
  0.524513807449366     
  -1.16217856830540     
 -0.374013436837993     
  0.199407540134514     
  0.484285678312562     
  0.169917548909854     
 -0.356488093239505     
  0.596080711642378     
 -0.368053116299748     
 -0.139977793450275     
  0.546984400817749     
  0.307479535259055     
  0.642046327457497     
  2.126587587131461E-002
  0.115592311405641     
  3.204988735913859E-002
  0.570082929403852     
  0.519949982233045     
  0.215425781490185     
  1.917586092040314E-002
 -7.063357046620676E-002
  0.217432425388894     
  0.296022169590244     
 -0.269205291266267     
  0.189738558039713     
  0.728030280820327     
 -0.621620691864434     
  0.995254713654919     
 -0.666866812802344     
  0.258867724010301     
 -0.516428583337961     
  1.527742975002822E-002
 -1.910757828884579E-002
  0.971548907948744     
  7.509170805576736E-004
  0.489590148831246     
  0.136773305954838     
  0.395293509500318     
  0.647901480735148     
 -0.457719451892558     
  0.274826081565328     
 -0.379233919558595     
  0.159354172638962     
  7.968794645421601E-002
  -1.06854423146480     
  0.344399132357147     
 -0.744180604058348     
  0.517778840542119     
 -0.828358512827775     
  0.642074326001035     
 -0.112996528241151     
 -0.708137791180085     
 -0.508473995518431     
  0.436984516610037     
 -0.151696049780226     
  0.149435800268874     
  0.473234038329141     
 -5.016313089185643E-002
 -0.404529912312555     
 -0.232241828940702     
   1.76144274457637     
 -0.696575968459068     
   1.19170201935377     
  6.499238495668679E-002
  0.892711612114960     
 -0.492193401294496     
 -0.147821383862897     
 -0.663148259990911     
 -0.364961009614881     
  0.480064170618277     
 -0.645356160832839     
  0.201743396289298     
 -3.075621221945992E-002
  0.911340540159896     
 -0.226999849398659     
 -0.706840438205580     
 -0.162591806666225     
 -7.731832120091965E-002
  0.345221479670107     
 -0.676788813536972     
 -0.163735572973331     
  7.361030830717857E-004
 -0.487610394363651     
  0.130504731565610     
 -0.723706129745820     
 -0.986505760211187     
 -0.873906549879985     
 -0.395461381676972     
  0.998336477158314     
 -0.423142433702519     
  0.118038347229273     
   1.10397130903579     
  0.419939578576901     
 -0.322010359877601     
 -0.265567850153245     
  0.897465621844982     
  0.562411727428337     
 -0.154502946276746     
 -0.797189814244562     
  -1.82903400919440     
  0.413973731402821     
  0.137574701494560     
 -0.691591978085107     
 -0.587833408231457     
   1.58436759620132     
 -0.460680634655307     
 -0.833418139558330     
  0.873726231145076     
  -1.01525578528941     
  -1.52293050072509     
 -0.155130192007810     
  0.140136337218497     
 -0.962016155280540     
  0.989062529949123     
  0.171824912203592     
  0.600721826432619     
  0.444618579332522     
  0.374665850514691     
  0.951869606860126     
  0.384201517720242     
  0.341961302978316     
  0.254040128099519     
  0.694998899470894     
 -2.421320765743571E-002
  0.140644046031972     
 -0.359130264425847     
  0.214206069820452     
  0.286903429229546     
 -0.384805861709724     
 -0.251238183432752     
  9.701769865763125E-002
  0.584974814515633     
  0.607408163591879     
 -3.667983101844211E-002
  0.206222004200290     
 -0.280491490138838     
  0.153588172974580     
 -0.507916144973185     
  0.306225733761499     
 -4.168998833576512E-002
  0.415671883049217     
  0.211624384936512     
 -0.360423184990521     
 -0.137367924235359     
  0.852168187893986     
  7.982277227779293E-002
  0.338209282624301     
 -8.066076049820917E-002
  0.258828344643129     
 -0.516775753381448     
 -4.231462855158538E-003
  0.389117542826099     
  0.242938572949700     
 -0.389981193466999     
 -0.281207792359736     
 -2.985022365711153E-003
 -0.182119914727111     
  0.220667493287828     
  0.260219421197716     
  0.779083086018615     
  0.945396982175243     
 -9.028345853401071E-002
  8.723231187119511E-002
  0.499624378904297     
  0.435232469212806     
  0.432049655483430     
 -1.796180454615962E-002
 -2.026335714907454E-002
 -0.350318782118472     
 -0.355942599201065     
  0.347416731688662     
  0.149576298146316     
  0.621586962691478     
 -0.455250733303386     
   1.15373246753412     
  0.177870767710606     
  7.126617866185755E-002
  0.139283657865185     
 -5.556945306568844E-002
  0.506684324660552     
  0.482584182850957     
 -0.272394892422982     
  0.384778389780962     
 -2.018646096074081E-002
 -0.119256785742685     
  2.661268596213167E-002
 -3.452691797928688E-002
 -7.546673995824149E-002
  0.208045958557964     
  0.375161993918324     
 -0.417809300149884     
  -1.22173132532008     
 -0.597361331834516     
  0.139047150501926     
  5.063996498472609E-002
  0.824335638306125     
  0.464010374347838     
  0.479432227724043     
  0.535557576481643     
  0.254979900205289     
  0.355496179173444     
  0.786149558898111     
  -1.79432097441881     
  0.526836986517684     
 -0.329972618515081     
 -0.314936151706607     
  3.245632612365876E-002
  0.707210605511739     
  0.172326033485365     
 -0.274286506713767     
 -0.519736914355035     
 -0.345604301710751     
  0.342643518115381     
  0.354881548901738     
 -0.202528650541636     
  0.559704316247519     
  0.186524864766092     
 -0.106494382170238     
 -0.678890554744796     
 -0.553943066037388     
 -0.293338167905977     
 -0.568059728888237     
  0.728555054422912     
  0.291218205610445     
 -0.163153924942423     
  0.315666658005506     
  4.265806401446819E-002
 -0.515644756205411     
  0.295012811301941     
  0.367675136389851     
 -9.088304224878321E-002
  0.335797392240132     
 -0.280069053619897     
  0.395693014507699     
  0.730412472490783     
 -7.760220707038998E-002
  0.216243671316179     
  0.333539394749180     
  0.590914272000891     
 -0.568905890341303     
  0.284552178828197     
 -0.600034623957753     
 -0.771996159698558     
 -0.222201311709259     
 -0.796158074080289     
  -1.15365858502969     
  0.395995130641353     
 -0.224873083806487     
  0.339206953854974     
 -0.366705704044422     
 -0.710002342931328     
 -0.833874508056140     
 -0.517927818511875     
  0.170069178277275     
 -0.112152974328860     
  0.873487298499053     
 -0.584092664485448     
 -0.292043768148373     
 -0.711496266652741     
  0.796439285851263     
 -0.589600349542964     
  0.659126032092611     
  -1.76387414432236     
  0.201086312343170     
 -0.392944628705732     
  0.199031833402633     
 -0.253977217248128     
 -0.524768087712636     
 -9.809505595279903E-002
 -0.672387938169560     
  5.077750366156050E-002
  0.613737334593616     
   1.10344099675362     
 -0.142895491658639     
 -0.249132989913164     
 -0.201827089897187     
  0.511445922252873     
 -0.353881765491907     
 -0.379844318584801     
 -0.401827948580985     
 -0.620527169008719     
 -7.116777838612393E-002
  0.342583771645202     
 -0.772799193035036     
 -1.354339738526905E-002
  3.505357277563836E-002
  0.367880097736286     
  0.863475364449395     
 -0.552910061541667     
 -0.618845308517189     
 -0.649592035710049     
 -0.583223830850398     
  0.439829385099556     
  9.385075726576550E-002
 -0.499484392282332     
  0.448107834201529     
  0.162980275614008     
  0.241495031405012     
 -0.313193061827086     
 -0.523533774646459     
  0.413669693804856     
  0.154894184840291     
 -0.348281528651737     
 -0.416747171550310     
  0.587410066314357     
 -0.407500010847133     
  0.957079963487169     
  0.228845962287530     
  0.893561655405162     
  0.161838299492064     
  0.551935394293285     
 -0.516358746027109     
 -0.516117187421350     
 -2.593901628898550E-002
   2.46283130672294     
 -0.514707398296635     
  0.749939637151179     
 -0.295904224353429     
 -0.132132920043119     
 -0.533311787299474     
  0.286560161771199     
 -0.867359052272203     
  8.934579597864173E-002
  0.221823036230062     
   1.08297589136856     
 -0.398369473702572     
  0.220830591722063     
 -0.568937887590379     
  0.747084570289261     
 -0.149478374403425     
 -0.115006330200235     
 -0.605153100258094     
  0.171971020174233     
 -0.358016120522232     
 -5.052341140016153E-002
  0.324425254227357     
  0.299696141725512     
  0.166515447931412     
 -2.764877517997657E-002
  7.900669029089449E-002
   1.74597498742321     
 -0.370739892828559     
  0.617710945055414     
 -0.460221350679993     
 -7.692292945731594E-002
 -0.278269621600876     
  0.596172866780096     
  -1.29792965030453     
 -0.151075161432712     
  0.155500237112548     
  0.742978694977070     
  0.937955585416935     
  0.815189463624199     
  0.112216751064277     
  0.866647062610574     
  0.300358542471386     
  0.825362914798078     
 -0.323859783751694     
  0.821528959753313     
 -0.507586544329591     
  7.588078414921387E-002
 -0.217169017165179     
  0.564255709051329     
 -0.299296723152444     
  0.283039545024994     
 -0.189922012944682     
  0.150286496558401     
 -7.199982603371934E-002
 -0.302703654671514     
  -1.16861612059318     
  0.259634731924869     
 -0.826069684482805     
  0.238341766775686     
 -0.811473417964058     
 -3.159899941778455E-002
 -1.153895759443449E-002
  0.728031114395603     
  0.251243821346632     
  0.415109131911688     
  9.824756879491804E-002
  0.498921835252010     
  0.101868515672312     
 -5.133344157665022E-002
 -8.016162672185709E-002
  0.278734891750025     
  0.103704267374150     
  1.516056745829109E-002
 -0.459579778698114     
  0.319419000078973     
 -0.304055476631486     
 -0.138858618861836     
  0.202761493946420     
  0.508607365547605     
 -0.502332413223857     
 -0.596922529479785     
  0.493106216967139     
  0.842308986062451     
 -0.704509613900574     
 -0.194258508502485     
  0.597576399038587     
  7.224698232120372E-002
 -0.253537454757276     
 -0.534577515124077     
  0.767633022832799     
 -1.551758863057259E-002
 -0.485353820752155     
 -0.431006272844789     
  0.119725733757390     
  0.257483384249471     
  -1.06825875355099     
 -3.659415220244273E-003
  0.188013380245096     
  0.514505853336942     
  0.321967712912595     
  9.785792969119822E-002
 -0.497795527764552     
  0.161716615623669     
 -0.216740852358448     
  0.690923930283725     
  6.860926552586094E-002
  -1.09720956878704     
  0.258899932394133     
 -0.271540355429722     
 -0.251238395834491     
 -0.257816739946774     
 -0.337175268899415     
  9.965523522987429E-004
  0.106923535926780     
 -8.116490241638120E-003
 -9.161417111815562E-002
  0.266586801349577     
 
  0.517100421568148     
  0.812010043445150     
   1.11464807991565     
  0.313350845358014     
 -0.451055641709608     
  0.494639394794293     
 -2.467780273198576E-002
 -0.408835082813663     
 -0.192205737909692     
  0.769709365055697     
  0.348637357898420     
  0.228435337244228     
  0.261004051980045     
  0.500794623023706     
 -0.315696655565168     
 -6.479518992701509E-002
 -0.551933005768001     
  0.544628599836286     
 -0.378417307110295     
 -0.225227067347522     
 -0.255956271973797     
 -0.378682778645804     
 -0.214690031627949     
  2.678993937527472E-002
 -0.311028840565280     
  0.162613676417744     
 -0.170016942180902     
  0.220076787803659     
  0.433190491360734     
  0.467864921619233     
 
 -0.321299102750146     
  0.120395820762338     
  0.925462764652570     
  0.128503050041257     
 -0.113347230127409     
  0.809428135632980     
 -2.455205195054086E-002
 -0.202943228893010     
 -8.371302351931147E-002
  0.138170581152499     
  0.174910821419438     
  0.454494391862720     
  0.155181923813916     
 -0.147906218257935     
  9.523915755332329E-002
 -5.827449156988215E-002
 -3.036623698135875E-002
  6.967764734712928E-002
  6.013814571115982E-002
  0.173334805601358     
  0.143628249066083     
 -0.338756156904301     
  0.111086190936769     
  0.130306435211197     
  3.001898198149677E-002
 -6.638527762161764E-002
 -3.396720864315850E-002
 -6.512528760889968E-002
 -3.370615365946728E-002
 -0.175537862498973     
 
 -5.328444962806446E-002
 
  tansig  tansig 
