     48 -    30 -    30 -     1 
rmse=  31.7622meV
  0.136717370040017     
 -8.443854474253119E-002
  -1.13033196702002     
 -0.110063172161420     
 -0.778864866030044     
  0.245770447506691     
  0.315064461076554     
  0.584396111460665     
 -4.295449212822172E-002
 -7.233302939882748E-002
 -6.058854289659114E-002
  0.575493899989524     
  4.557879926941528E-002
 -0.400390065433664     
 -0.400579006713971     
  5.446170539808511E-003
  0.112268757859299     
  0.204220456290121     
  0.373183080894087     
  0.310360931547292     
  0.143796611048752     
 -0.652734628651871     
 -0.634114091539386     
  0.409810421662177     
 -0.113188252917208     
  6.758210164971939E-002
  0.481927783282458     
 -0.156728332523945     
 -0.477811702307157     
  0.201909256842453     
 -0.330438356215475     
 -4.294963045139769E-003
  8.394646514313786E-002
  0.138269333061131     
 -8.476538856361841E-002
  0.270846017631232     
  0.449859042718385     
  0.398056390634617     
  0.502737789567788     
 -0.238541724431248     
  0.146412635055485     
  4.212073576483040E-003
 -0.447406195960529     
  0.148163317566907     
  0.422332111932617     
  0.117657599799621     
  0.357994797431042     
 -0.304668849752980     
 -0.108420082857430     
  0.103210521900385     
  0.439557591112399     
  0.176323652584462     
  0.359620381038434     
  0.975018076224602     
  0.227666234461159     
  0.524563392598789     
  0.398803396220096     
  5.545639878621493E-002
  -1.23265201409338     
 -0.652277121627535     
  0.225343429658820     
  0.163691437019504     
 -0.681013889700981     
 -0.731828516989669     
 -0.342501126343167     
 -0.355165120242090     
  0.334177917920807     
 -0.346653816326128     
  0.148001967343441     
  0.656804839395890     
  0.107584155047910     
 -0.800835889045842     
  0.424254201390167     
  0.423157976826776     
  0.334508921591780     
  0.625473826789659     
  0.282413317571174     
  5.831678046204861E-002
 -0.520015037593572     
  0.831894387750076     
 -7.563159819091363E-002
 -0.247470855045131     
 -0.292719998688442     
  0.333133604497790     
  -1.01089776748365     
 -0.884286966318939     
  0.635175842414806     
 -0.419158315074994     
 -8.163511615006254E-002
  0.586994806342423     
  0.238708471933471     
 -0.280868722963305     
 -0.385904067610715     
  0.446295835893267     
  0.207862935817993     
 -0.153287455209882     
 -0.125396642133199     
  0.205139238323178     
 -8.546592796676983E-002
 -5.130293314214471E-004
 -0.139040438072039     
 -5.524153736452973E-002
 -0.345401870960127     
 -0.514816550000674     
 -0.261019063947226     
 -0.160705574546099     
 -0.102541564564392     
 -0.371505195047533     
 -0.188318202886497     
  9.313309579362523E-002
 -3.514174294383467E-002
  0.170605963804488     
 -9.015974954928700E-002
 -3.993810179886726E-003
  0.472269944168539     
 -0.315788796612266     
 -5.235068861610189E-002
  0.277202089047568     
  0.157348854481151     
 -0.253752787483464     
  0.238552007398921     
 -7.253369089750876E-002
 -1.736077430263401E-002
  5.358158753809438E-002
  6.136749889032891E-002
  1.256135267472323E-002
 -5.390388394065626E-002
 -0.115441905390047     
  0.256567094194587     
 -0.348620487497694     
 -6.422433381417347E-002
  0.263093075989052     
  3.212690259683815E-002
 -0.242230072428631     
  0.392069726717737     
  0.372229250941405     
 -0.221117581296054     
  0.275870748797424     
  3.238839506216400E-002
  0.189449244877530     
 -0.159109192096411     
  6.318834079887850E-002
 -0.142604340856589     
 -9.006491754678741E-004
 -3.075409715392115E-002
 -3.867280441425971E-002
 -0.568043547901282     
  0.427759414371892     
  0.448706174695540     
 -0.547467076368122     
  0.585392114090124     
 -0.231596797141477     
  0.149336878718421     
 -0.222299483957343     
 -0.207122431908153     
  0.651692665314994     
 -0.263218526095980     
 -6.123149490869139E-002
 -0.202938082923020     
  0.331290549446459     
 -7.264070394091300E-002
 -8.573848995029769E-003
  2.698260188250528E-002
  -1.05500399099668     
 -3.262976647461655E-002
 -0.354967531593549     
  0.223215397319939     
  0.602292712841842     
 -0.435324252459403     
  2.855104860536646E-002
  0.338739990233621     
 -0.189289646265736     
  0.461031723178830     
 -0.333609334176499     
  0.248150900498228     
 -7.089734541179750E-002
  0.173297779519256     
 -0.106665337196055     
 -0.639108432948594     
  0.732300437491891     
 -8.228989551701005E-002
  0.106025846115691     
  0.129492081283019     
 -0.103561116606645     
  0.104827579143296     
 -0.132694287589812     
  5.003314381496604E-002
 -0.249769796190709     
 -0.109264049618170     
  0.147888316200936     
 -0.122776200123912     
  0.145767981845284     
 -7.905305435867874E-002
  0.226193446163402     
  0.209207887666594     
 -0.851319380148711     
  0.248914482298398     
 -0.143049552672214     
 -4.300818367397624E-003
  0.392686173869739     
 -0.430726363920651     
  0.461806691251935     
  0.113239120686955     
  0.339136218380725     
  0.694463282619608     
 -0.214667144963225     
 -0.216487547196296     
 -0.259176039005118     
  3.926879345673246E-002
 -0.428151311777733     
  0.334593383159832     
  0.584751240514660     
  7.422926067175400E-002
  0.339722804368202     
 -0.268110733755310     
 -0.367874659313938     
  0.203939254942059     
 -9.680828681181355E-002
  5.019133957047099E-003
 -0.242475528365918     
 -0.239480275665552     
  0.453460558798607     
 -5.587557290262943E-002
 -0.112881953321413     
 -0.103330406913761     
  0.345333982857326     
   1.08628343997620     
 -0.920604972136875     
  0.940226703204492     
  0.319997813942152     
  0.150428383725232     
 -9.181384516974307E-002
  0.293210362009236     
  7.907201068130930E-002
 -0.382069382007842     
  0.124820684709398     
 -0.321675587399526     
  0.134186488970072     
  0.289827359737862     
 -0.124526882893119     
  0.253606066531098     
 -0.385727107338300     
 -9.238863351116296E-002
 -1.203404697290324E-002
  0.597769449768957     
 -0.493424547375682     
  0.302399558575672     
 -9.125954317482614E-002
  0.129535088476953     
 -0.150065288023798     
 -0.334266263484979     
  8.650772746833443E-002
  7.818989801440616E-002
  0.173277805278628     
 -0.344079430272914     
 -0.719068105909673     
 -0.231174053917251     
  8.571192135312303E-002
  0.176828860512083     
 -8.587001910099769E-002
 -0.416759433658241     
  0.543941911123422     
  0.475634680256980     
 -0.259679615568758     
  0.329225002960702     
 -0.217746636730821     
  7.001999516781740E-002
  0.334255173818740     
 -0.399626974806504     
  0.263734904738417     
  0.498002395218799     
  0.206777189083150     
  4.662409577003496E-003
 -5.577628283440492E-002
  0.679512287325176     
 -0.296720801641541     
  4.006994374194327E-002
  0.434692026050426     
 -0.390109680598050     
 -0.199209131759901     
  0.144444313642832     
  0.100489139762467     
 -9.051653433722626E-002
  0.240843416893332     
  0.122004559562249     
 -0.431030716439939     
  0.869186798105606     
 -0.242507909077535     
 -0.198478170762983     
  0.471811760959234     
 -6.238060136950789E-002
  0.836958806496960     
  0.236075824805472     
 -0.208847463576704     
 -7.772151055384258E-002
 -7.518234499312551E-002
  0.480598761571223     
 -0.217055820280564     
 -0.138041637631017     
 -0.290103231255582     
 -0.698707018605045     
 -7.855029485759972E-002
 -0.450026186312344     
 -0.278974706484476     
  0.139435047559115     
 -7.484215129372904E-002
 -0.139291841422218     
 -0.469529675394305     
 -0.479443738682719     
  0.459682128789408     
  0.141308334593746     
 -7.351780811251499E-002
 -4.115627595507865E-002
  0.111355812495074     
 -0.194283320999219     
  0.349741866100989     
  0.207238954050519     
 -0.197736928913927     
  0.215734612199993     
 -0.183595177615969     
 -0.122345185855044     
 -0.629400182650772     
 -0.241779062001865     
 -0.119951929160989     
  0.255101301900419     
  9.450269221544634E-002
 -0.127869955826548     
 -6.483115577262200E-002
 -0.218782171334937     
  0.159568887478170     
  7.316774065279906E-002
  0.434208541935514     
 -0.106810702704280     
  5.547493268958088E-002
  0.363905790590773     
  0.231498508910176     
  0.132452454421226     
 -0.476248630230591     
 -0.101415592717738     
 -0.489622941667151     
  0.226797222868530     
 -0.431269471274368     
  0.821204982172479     
  0.905133022211839     
  0.315630309882595     
  0.510925992369619     
  0.241693654198005     
 -0.861596014331287     
 -0.694547621470501     
  0.344637473365439     
  0.345556462272508     
 -0.416059378150690     
  5.244925279995782E-002
 -2.077585251519327E-002
  0.228306855282341     
 -0.537628078892316     
  0.238309232472269     
  0.165991700566854     
 -0.361505721970256     
 -0.486194684996192     
  0.224040027467422     
  0.195951050965721     
 -3.736250434380772E-002
  0.478571969518766     
  0.723138317396974     
 -4.358824727304442E-002
 -0.223186730682348     
   1.18258606183014     
 -2.188404417038560E-002
  0.588253275020445     
 -0.129170161941560     
  0.491240337771010     
 -0.803319593884154     
  0.281675150182501     
 -0.323095632209309     
 -0.722389029448484     
  0.324735110578564     
 -0.453525208797604     
 -0.185234429317854     
  0.176679166749263     
 -8.676815644290437E-002
 -0.710235060643178     
  0.360655357054871     
  -1.21740008812809     
  0.314549331023475     
 -4.490842458535110E-002
  0.266806972647364     
 -0.503998185390172     
  0.344155606520043     
  0.326153141550533     
 -0.200462093556832     
  0.176141956109727     
  0.446469298174388     
  4.887909080433519E-002
 -0.585065188184361     
  0.659932842024338     
 -0.493450993498475     
  3.971248664823838E-003
  0.109825717119699     
  0.843551617240015     
  0.239932962781193     
 -0.222659483779219     
  0.184389262133018     
  0.313169168086118     
  0.620615642217431     
 -0.752094033402013     
 -0.207559635555128     
  0.815956831637373     
 -0.556099353082537     
  0.124493707405341     
  0.517546423990624     
 -0.169442575389341     
  0.399324483074568     
 -0.309014136933893     
  0.239749634537568     
 -0.193774412375661     
 -0.148984364840456     
 -5.204623449614620E-002
  0.762567103629503     
  -1.02853011065073     
 -0.373838935612754     
  0.205693269959225     
  0.163611405680285     
 -0.112825762873359     
 -0.192105900888287     
  0.239299523125742     
 -0.297994920298403     
 -3.595465276300534E-002
 -1.673003200744428E-002
  0.258734196634136     
 -0.685856097966443     
  2.629659940230798E-002
  0.138706023909166     
 -0.530496301054696     
  0.170110700255396     
 -0.539338849421667     
 -0.178619721102086     
  0.235699486550755     
 -0.137091201065118     
  0.235626310684835     
 -0.271038003969089     
  0.151614628302792     
  2.347687018645895E-002
  0.244001283722027     
  0.561316680791129     
 -0.360984125180480     
  0.218305891021237     
 -0.254391167776071     
 -0.241244930557068     
  0.255327061129048     
  7.703571128323200E-003
  0.402370580298668     
  0.241564476315339     
 -0.127941897252994     
  7.643005685672964E-003
  9.722489885304378E-003
  0.162801360748051     
  6.764737084633046E-002
  5.420667013115907E-002
 -0.117714783778281     
 -0.411519784544173     
  3.500150272706289E-003
 -0.112709916157842     
 -0.102348915263760     
  0.319947379302744     
  0.478660640145007     
  0.145165225295336     
  7.878549265039025E-002
 -6.445172255127030E-002
 -0.172069519722745     
  9.800775840060422E-002
 -6.113501682179695E-002
  0.111091935072100     
  2.731229098958091E-002
 -0.218058850741970     
 -4.867192849833055E-002
  0.183508603850766     
  0.116850728075036     
 -4.093604496778855E-002
  9.745099532732555E-002
 -2.742010244649162E-002
 -0.179324625290467     
  0.467047417997157     
 -2.777983221854760E-003
 -1.767721005767346E-002
 -0.362375242892866     
 -4.577197031114277E-002
  0.180986726666714     
  0.192148401115217     
 -0.410486161229444     
 -5.191804814912535E-003
  5.750203597902291E-002
 -0.337804725206996     
 -0.186716633617982     
 -0.223521966211255     
  1.193344388999763E-002
  0.119356902038021     
  0.148643410442200     
 -0.683177933036798     
  0.717307635371317     
 -8.349080182808262E-003
  5.888846241510847E-002
  3.034327821243871E-005
  7.642465357755156E-002
  0.413740447894308     
  0.324988056708050     
 -0.278258631543969     
  8.199700807945871E-002
  0.635774743918009     
 -0.340617466960510     
  9.220475910238166E-002
 -0.113472969236053     
  0.117883578704778     
  0.190835920325549     
  0.293721972826374     
 -0.454717252332091     
  7.359102966644934E-002
  0.294372117181530     
 -0.388014968291110     
  2.124475813525107E-002
 -0.287641095351006     
  2.739015927996226E-002
  0.300540053732553     
 -2.466703899930481E-002
 -0.350177297202385     
  0.246108123808904     
  0.190355119286371     
 -9.175870527912681E-002
 -0.163664248731944     
  0.156981295537799     
 -0.929229072465402     
 -0.283797355693829     
  0.109880093763222     
 -0.663600535427409     
  9.370482043893752E-002
  0.510810199261998     
 -0.808540958113403     
 -0.254998491780749     
  0.512618112647929     
 -0.129813924023807     
  0.577750088713288     
 -0.199315742046129     
  0.548934743047542     
  0.702427693725806     
 -0.237979429800026     
  0.191940056931429     
  0.271650727333408     
 -0.120423709930207     
  0.351684746326173     
 -0.435885238896499     
 -0.763449759292963     
 -0.268682217481041     
  0.813610024516546     
 -5.139253969874803E-002
 -0.482555360201060     
 -0.216512584516741     
  0.383696262467852     
  0.221707360817323     
 -0.495285270383312     
 -0.658179672627013     
  0.156891202746006     
  8.476706890340183E-002
 -1.692890214825765E-002
  0.511504851892801     
 -0.550465591755323     
  0.254311124585177     
 -0.496618105860152     
  0.231922023341338     
 -0.258365608296112     
 -6.996788616080377E-002
  0.538233565619608     
 -0.536419201043360     
 -0.422490929220520     
  0.465461842854999     
 -0.758075132617265     
  0.222726459345746     
  0.151155143339354     
 -0.322740548096643     
 -0.254440740202629     
  7.945921004285411E-002
  0.257477711955834     
 -0.201745145488155     
  2.037839215621213E-002
  0.197971946563961     
  0.474896029414258     
 -0.463649909020944     
 -0.369581191432303     
  0.315815280881978     
  6.696129937654809E-002
 -7.206960546456749E-002
 -6.288975250020569E-002
 -0.110685023690454     
  6.843264358051700E-003
 -0.110249472160388     
 -0.198670244987686     
  0.605602952850614     
 -0.284404334839552     
  0.105091968463937     
 -0.101353445465558     
  0.387593901985403     
 -0.302965624582879     
  0.294906200031754     
  0.393432426696894     
 -0.341749366038522     
 -0.150132071914440     
  4.095012403610548E-002
  0.539718593071289     
 -7.833232908570617E-002
  4.440105823806901E-002
  0.180157226064637     
  2.357648492443741E-003
 -0.256362283876962     
  2.671646077315140E-002
  0.726955903491574     
 -4.761487964095721E-002
 -0.224232659361261     
 -1.789445466426818E-002
  0.252132356411305     
 -2.731702827814244E-002
 -0.156662954249359     
  0.402818645564920     
 -0.580889762043690     
  0.215838882443258     
 -0.274468419585135     
 -0.461314579427532     
  0.190093929190354     
  0.419716946943149     
 -0.488916635467579     
 -0.445158815576154     
 -0.393907406075404     
  0.217842171062505     
 -7.017034480608964E-002
 -0.604716414404328     
  0.386468136419745     
 -3.313390360176813E-002
  2.422029097422265E-002
  1.431428769324501E-002
  3.309041918971332E-003
  0.173908674736619     
  0.397437556329797     
 -2.776574122982901E-002
  1.819663972817404E-002
  5.310007523758778E-002
 -0.356254023401395     
  0.365091324337439     
 -0.128477691374362     
 -0.218565794166721     
  1.414433209083039E-002
  1.927576282883781E-003
 -6.560223089964023E-002
 -0.294579050499061     
  9.389203336568386E-002
 -0.168461140917804     
 -1.867522994405661E-002
 -0.140643860713999     
 -7.078113456462927E-002
  0.235912911216727     
  0.390570301923724     
 -0.288960213803776     
  0.330790764552724     
 -0.126844234352025     
  0.212505789401995     
  0.165625901658848     
  1.485882882116159E-002
  0.361846066486241     
 -6.491681493685160E-002
  1.459087766461528E-002
  0.218268542499072     
  8.607677101218834E-002
 -5.512446190492384E-002
 -5.241829362145399E-002
 -0.200604218966427     
  8.605834382522069E-003
 -0.210806041740631     
  0.110360221085432     
  0.129194315849990     
  0.155265403338030     
 -9.641416661799584E-002
 -8.043051722054352E-002
 -0.177083393758479     
  0.182821688100419     
 -0.296185594566746     
 -1.994159655845141E-002
 -7.043876362148695E-002
  0.169067344364703     
 -2.825846750351611E-003
 -6.571667321513294E-002
  3.332791279105120E-002
 -2.734376396485201E-002
  0.569312264897396     
  0.581371838215163     
 -9.756834201723399E-002
 -0.471420632157495     
  0.195248308284254     
  8.313669500123473E-002
  4.845185570514603E-002
  1.392713191654553E-002
 -0.165662520405280     
 -4.175581245388667E-002
  5.106688348334921E-002
 -0.229980635178931     
 -7.189629051597417E-002
  8.217891249465716E-002
  4.580847747701117E-002
  0.461397304315407     
 -0.523916869856031     
  0.442847807623890     
 -0.144881944933069     
  0.406553487449245     
  0.226337566596811     
 -1.338906817241800E-002
  0.140274970721635     
 -0.112099364797067     
  4.532817469393183E-002
  0.177234951166577     
 -0.105587817830320     
  0.159002401954133     
 -3.268822231246323E-002
  1.655293751894130E-002
 -5.674301663305175E-002
  3.443580880285668E-002
 -0.127757812476741     
 -0.920643806936838     
  0.391230471189951     
 -0.290065007893731     
 -8.611541167531850E-002
  0.634541017892122     
 -0.900072670658860     
  0.233578199880937     
 -0.589886113814857     
 -1.585610872979252E-002
  0.339775991926465     
  0.370177625677036     
  0.440958649307437     
 -0.206793102247386     
  0.211257796186672     
 -2.100188005501856E-002
  0.299761682503656     
  0.312379819293140     
  0.515403947872036     
 -0.738522549168816     
  0.603184814597591     
  0.391522937130430     
  9.226356536759665E-002
  0.243665370730862     
 -0.483457788315548     
  0.431713367233595     
 -5.578421151049753E-002
 -0.116655565697724     
 -0.343318321091764     
  3.974566186080356E-002
 -0.232437237724987     
  0.109137057653828     
 -0.323618423677724     
  0.528563408905368     
  0.299222143071614     
  0.368928795164808     
  0.118962379965457     
  0.132312062336123     
  0.189264896196562     
  0.137927556724262     
 -0.472142837443555     
  1.679412535286835E-002
 -0.217745062257017     
 -0.151560766687696     
  6.098833820365896E-002
 -4.781353399535640E-003
  3.714111174474275E-002
 -0.179370701777376     
  0.393379780475295     
 -0.459445492124923     
  0.247309000086144     
 -0.407549711655871     
 -0.636241692398132     
  0.215499271091467     
 -0.654900563298158     
  0.296290976178941     
  0.388750839507868     
 -0.104787332369050     
 -0.250043754525618     
  0.231385525593713     
  0.410819578402163     
 -5.365903571323770E-002
  0.324638606803398     
  4.130123621956700E-002
  0.264316036474822     
  0.101297519770347     
  1.931176962739548E-003
  7.118049087907526E-002
 -0.175082700874209     
  0.412550770732383     
  0.284267903475559     
 -0.234225573164156     
 -0.350191451647435     
 -0.687993032031578     
 -0.206235049021432     
  6.285455866312462E-002
 -9.170065042015121E-002
 -0.178515575415848     
  0.281764802928724     
  0.265436104046310     
 -0.549953830688641     
  0.279173497648458     
  0.402990848754504     
 -5.481609330410784E-003
  0.318115420357303     
 -0.555818348695535     
  0.256291561962036     
 -3.480081840341019E-002
  0.137778344894046     
  0.275448953448978     
  0.227299853817542     
 -0.266035771490946     
 -0.150768218773116     
  4.384317841414815E-003
 -0.237848757961113     
  0.314611553332426     
 -0.384738375024348     
 -2.172859788727482E-002
 -3.636674420525751E-003
  0.122864060814857     
   1.22302462212849     
 -5.057359074016788E-002
  0.822095564703061     
  2.445556140913708E-003
  0.181858565327534     
  0.392972867035508     
  0.260050273437438     
  0.572383003090096     
  3.349275578267839E-002
 -4.431253517110591E-002
  4.876263806103166E-002
  0.124231906707137     
 -0.210678676760625     
  0.195892449451198     
  2.814381696428163E-002
  9.221258342557417E-002
 -0.239103927122169     
  0.429713481140070     
  0.196307049112709     
 -0.113371691127416     
  0.206868322479461     
  8.410003027024068E-002
 -0.279280929149366     
 -0.351517545845607     
  0.143334038086275     
 -0.148903936585675     
  0.143546913015846     
  5.446451429491776E-002
  0.136236513665639     
  5.414603221491346E-002
 -0.256124753266809     
 -2.834462622559822E-003
  4.019221913821047E-002
 -5.997438420024724E-002
 -0.321785505456223     
  0.478310965677637     
 -0.617683719933188     
 -8.077170526625926E-002
 -6.275436208532871E-002
  4.942981857552967E-002
  8.260780115374431E-003
  0.155310145538145     
 -5.661521285494915E-002
 -0.278728816357459     
 -8.238023055703247E-002
  0.697363854310900     
 -0.356029090056556     
  0.203067317720477     
 -0.714266637257908     
  0.127035934899389     
 -0.939180670869289     
 -7.447081668993727E-002
 -0.101603341099772     
 -0.121199116499050     
  4.295840160324115E-002
 -6.243204771633562E-002
  7.978340122560770E-002
  0.163620440516000     
  0.210601900134669     
 -6.974755103970724E-002
 -0.269426144112964     
 -1.651804015414087E-002
  0.464785300595447     
  0.281095604217130     
 -0.452253747506936     
  0.227410525073382     
  0.373390801617837     
 -0.336961091289286     
 -0.623071210483755     
 -0.269908550429100     
  0.162244351190874     
 -0.222623131083572     
 -0.175675153071997     
  4.947347069388779E-002
 -0.235923945911001     
  0.124115278019202     
  0.499777816515295     
 -0.833305104734113     
 -0.500762430862368     
  6.058305102971395E-003
  0.603808250518970     
 -0.300012262232385     
  0.311017533592519     
  8.050511415676612E-002
 -9.960738970701752E-002
  0.312697186387213     
  1.591017926035056E-002
  0.214462616056883     
 -0.304808123509160     
  0.100534163708037     
 -0.143643928931916     
  8.565549312753659E-002
  3.513560290663247E-002
 -1.598081318517096E-002
  0.415555995698602     
 -1.294983181334827E-002
  0.336382882818021     
  0.318650332737398     
  0.186223127363924     
  -1.26865913135523     
   1.22069485335273     
 -0.890562386836051     
  0.635573108960669     
  0.270610105171387     
  0.480513542858623     
 -3.611660529870891E-002
 -1.824589217071258E-002
 -0.143647097261573     
  8.636834774641579E-002
 -0.426932775096571     
  0.304985159675229     
  0.274321735342429     
 -0.415890290574932     
 -0.477965701400236     
   1.08697386559998     
 -0.744076396841696     
  7.809771247969639E-002
 -0.605056133749988     
 -0.149366221522973     
 -0.805199517569155     
  2.387981776527141E-002
  0.215321740295041     
  0.218330808607451     
 -0.320166953759678     
 -0.200578009257006     
 -0.125432750744514     
 -7.536827154509700E-002
 -0.486204779388669     
 -0.172784634671228     
  0.405819807720718     
 -0.173707702844091     
  0.889233893897424     
 -7.798398200023486E-002
  0.280326958616133     
  0.151534761641837     
  0.376663926118221     
 -0.232152882842648     
 -0.223464222614540     
  4.511589731162641E-002
 -1.939181700880426E-002
  0.189914418463622     
 -0.599096168917778     
  0.250570654374495     
  0.489976053457323     
 -0.340697595718968     
  -1.03271089933263     
  0.164410993360291     
 -5.749336230147652E-002
  0.117635987005696     
 -0.787063169309583     
 -0.340927581603313     
  0.178987586173595     
 -0.233963618681660     
  0.283166901444127     
 -0.663218778082668     
  0.197179152901475     
 -4.730423322106308E-002
 -4.686214859765524E-002
  0.426381799983675     
 -0.170056626506431     
 -4.597042412671426E-002
 -0.195010949144974     
  0.391549220473519     
  0.109448971429011     
 -0.203989030338237     
 -0.351350714660286     
  0.141474942036997     
 -0.259362383020322     
 -0.839031246759663     
 -0.126467828120125     
  0.410156366878650     
 -2.555641214694182E-002
 -0.118262790116917     
 -0.676747216471860     
 -0.272745570093977     
  0.246866404810157     
  0.263562566377012     
 -0.820119610905292     
  0.431200314717918     
 -0.390874444577743     
  0.892436635033284     
 -0.205805290885570     
  0.526458136580595     
  0.140516452359537     
 -0.356010414243882     
  0.618936501470562     
 -0.652861538741636     
 -0.350838044198712     
  0.104639043248524     
  0.401184514571323     
 -0.503997779349588     
 -0.269461779238692     
  0.188847766300011     
  0.616996465109163     
 -0.472063671391154     
 -0.185970211649626     
  0.248795228630833     
 -4.106913288203303E-003
 -6.027242448926706E-002
  0.945813620746989     
 -0.392600911662199     
  0.597373950627540     
  0.172986076759349     
 -0.160877771551791     
  2.936226912002511E-002
 -5.360466335603107E-002
 -0.114930804490015     
  0.330123983355520     
 -0.254724959665207     
  9.341373642443121E-002
 -6.414724854478068E-002
  7.329069273379804E-002
 -0.855979691670060     
  0.151345922774037     
 -0.122532884300592     
 -0.320006930359887     
 -0.534995135712934     
 -0.364265365943863     
  0.338022998526157     
 -0.109961291419552     
  0.608859119262451     
 -0.536700290798236     
  0.203343951602061     
  9.956526180395964E-002
  0.734935212856145     
 -7.513210248575328E-002
  0.184313346745808     
  8.052597100149776E-005
  0.273129374097392     
 -0.697615526673030     
  0.277698960193036     
 -0.286230871547747     
  0.496500358410788     
 -0.591950688927385     
  7.625339216233962E-002
 -0.691277980176373     
  0.644229390700671     
 -0.655266765978163     
  0.150230735152605     
  0.155071193624601     
 -0.224086782986453     
  0.186497487920876     
  4.071351901205480E-002
 -0.470331083383622     
 -0.104606742904194     
  8.057036103151902E-002
  1.778541341750924E-002
  0.581209001598115     
 -0.281681792044705     
  0.179785125510489     
  0.108907075167173     
  0.388179953321309     
  0.465077869025365     
 -0.533180236860862     
  0.162542138367259     
 -0.285637250639060     
  5.988314562869189E-003
 -7.828452942138837E-002
  4.339694964510811E-002
  0.146992222355309     
 -0.181610682324491     
  0.101895969608708     
 -0.148919331233784     
 -0.527827856004212     
  7.057749513425537E-002
  0.125282856258777     
 -6.215614440146306E-003
 -6.987684371961884E-002
 -3.233577874041312E-002
 -0.209719813483592     
 -0.102206455409369     
  0.212512505304559     
  0.169824826596824     
  0.440412286830201     
  4.444675412886540E-002
  0.221732169760807     
 -2.689383062708483E-002
 -3.155478904615625E-002
 -0.158535720229993     
  0.265009639527170     
  0.103853057640361     
 -0.302161202004115     
 -2.275983603211565E-002
 -0.266805524320552     
  3.971687256257328E-002
  0.149558567120496     
  0.228445917951819     
 -2.929176988429045E-002
  7.930945411567458E-002
  0.506278116302530     
 -0.215243472071563     
  0.331345781328794     
  0.217417102076023     
 -4.432124292759750E-002
  0.161045886179986     
  0.576481679263643     
  -1.05627790944847     
  0.684130511931380     
 -0.457743859357449     
  9.172437776912974E-002
  2.870670217005557E-002
  0.156137513411896     
  6.011728579206176E-002
 -0.133229525451531     
  0.351233047553571     
  0.441071053761794     
  0.322373180848932     
 -0.895481726987985     
  0.116768775850375     
  0.138972540693329     
 -0.145385756309205     
 -0.401697369628493     
 -0.139445786045169     
 -0.508552089206633     
 -0.484599274991964     
  0.174152838214139     
 -0.102513433482337     
 -0.402100648006603     
 -5.345397273883076E-002
 -4.574053269842729E-002
  0.369651934734507     
  0.146372422969510     
 -0.744972147796296     
  0.524816133052506     
 -0.540469042589460     
  0.557658130805988     
 -0.585505421360362     
  0.440945560998276     
  0.336796558862585     
  7.432632822645606E-002
  0.175480262810575     
  0.144373003544883     
 -2.920749601576798E-002
 -5.327792643879951E-002
  0.338206488898644     
  0.238854235740642     
  0.108070608589231     
 -0.191950632590805     
  7.213135564969646E-003
 -0.385110224124345     
  5.161547145614988E-002
 -1.277200400417376E-002
 -2.016327934809114E-002
  4.597075187920137E-002
  0.247782509343663     
 -6.637811198220189E-002
 -0.185876841934590     
 -5.189945646575198E-002
 -0.201545644236179     
 -0.353089503730281     
  2.782625610111655E-002
  0.109916245444005     
  4.166814114776615E-002
  0.480770497825314     
  0.146828967703329     
 -0.382213610634684     
 -0.116876598327026     
 -4.722161229273514E-002
  0.366720422498941     
 -0.127057729121307     
 -0.625776392366627     
  0.230573019590987     
  0.110906204827632     
  0.102891157099515     
 -0.318539954105045     
  0.478804245994576     
 -0.579474431293828     
 -0.301769045757957     
 -0.377396365624199     
  0.238457795717647     
 -0.105622205732236     
  0.310554481376088     
 -0.102162435962235     
  6.984159803479567E-002
 -0.110655272302372     
 -4.247381882289329E-003
  7.410792614323937E-002
 -0.218304628515672     
  0.238743794752201     
 -1.469211826991877E-003
 -5.777587388391579E-002
  0.412457183363820     
 -1.073546078352170E-002
 -0.323251216979581     
 -5.090957027155545E-002
 -0.815712561411397     
 -0.338848730440290     
  0.269018002756703     
 -0.587208482143022     
 -0.521015752474700     
  0.451437541724212     
  0.249686817928104     
 -0.441724782194296     
 -1.207676317114617E-002
  0.180890251272034     
 -5.571610231220996E-002
  0.183201217368151     
  9.583264240712414E-002
 -0.285345350147316     
  0.373824425174578     
 -0.737987389896020     
  2.441722818138768E-002
 -6.981846539423246E-002
  0.309373130005069     
 -0.267329471542635     
  4.746617880374646E-002
  0.834877139190182     
 -0.171294204382002     
 -0.183238056536233     
   1.01986513361360     
 -0.250826338209182     
 -0.226620961294990     
  4.370737622616053E-002
 -0.297438676314596     
 -0.164310753744936     
  0.297160547754886     
  5.398380141510833E-002
  0.721265754331480     
  2.643813961164584E-002
 -0.103444901288075     
  8.094803365244606E-002
  0.566305991396357     
  -1.04580619707939     
  0.467945495055915     
  0.178251849448761     
 -0.673600448571387     
  0.179959180657961     
  0.725303724773346     
  0.462878537356280     
 -0.116037389414521     
 -0.645441574052729     
   1.41393263548222     
  0.211778403167595     
 -0.490331061936875     
  0.316123215812595     
  0.436800797306398     
  0.460141162732006     
 -0.356837375441952     
  0.684864313251517     
  1.413405718463178E-002
 -0.187608190227481     
 -0.206113299729366     
  0.117976965877877     
  0.132588660369792     
  8.356077285981850E-002
  0.195453192931746     
  0.729133039513997     
  0.589470408777708     
 -0.181579673975712     
  0.165180250454712     
  2.197226108655261E-002
 -0.272108247662284     
  0.143845649466521     
  0.540687502369964     
 -0.348480203959297     
  0.310682236255368     
 -3.982772004800986E-002
  0.108110594120733     
  0.125932107259894     
  6.009639580954967E-002
 -0.167710317988271     
  6.500987086405938E-002
 -0.293665599823190     
 -0.439146880683412     
 -0.101777079267396     
  1.295011144055164E-002
 -0.183838106663830     
 -8.640276272141781E-002
  0.224750983262727     
 -0.501191583589459     
  0.111788288434085     
 -0.406394602067292     
  0.312314978597314     
 -7.742223389572674E-002
  1.148300059257729E-002
 -0.198937780796409     
  0.303962686299940     
 -0.310157356071805     
 -0.365055752102973     
  0.358083995648553     
  3.300253723825689E-003
  0.401788043151550     
  0.245234143643512     
  6.770714031946287E-002
  0.505197268039805     
 -0.810970549698569     
  0.285689690320027     
 -2.340139922882867E-002
 -0.121322027608202     
  0.211128128268718     
  0.783705104409192     
 -2.708277574991617E-002
 -0.190421724615849     
 -0.543393466424584     
 -0.194140499710420     
  0.294159058139761     
  0.121318809905316     
 -0.178848461318976     
 -0.115303070985755     
 -6.200167630176909E-002
  0.100708657045244     
 -0.506552152562522     
  0.405075495720949     
  0.366691518787668     
 -0.175319564836652     
 -0.309554731954031     
 -0.285344579066370     
 -0.212409557562209     
  0.439329293170814     
  0.113188201263736     
 -0.358640795573924     
 -0.473068507416411     
  0.156977310641807     
 -3.144328773833048E-002
 -0.128839457950092     
 -7.914386904275389E-002
  0.377716962597778     
  0.341102513798865     
  0.213070594995906     
 -0.611035266372408     
  0.472974665915487     
 -0.255553152742843     
 -0.212230813269199     
  3.618656690273658E-002
 -0.293101928948112     
  0.341383011157746     
 -0.581064836981914     
 -0.104389320363734     
  0.572454028306277     
  0.451518082130375     
  0.105114570846791     
  0.207958411126025     
 -0.553913461018342     
  0.313452280230306     
  0.694106833100304     
  0.209792968159119     
  0.455742155931709     
  0.199888994513471     
  0.117249272793849     
 -0.187945057032205     
  0.145405038843319     
  0.203842722106933     
 -8.282832316322734E-002
  0.521159364552362     
 -0.237932353208913     
 -0.286020111337898     
 -6.061659681546074E-002
  0.199827145157037     
  3.828207448055338E-002
  0.796766367884617     
 -0.631186392277528     
  0.687045431490023     
  0.302360170681527     
  0.237094239148352     
 -0.147873334780931     
  7.399946929952376E-003
  0.416192239050331     
  7.518775763135045E-002
  0.282136854684557     
 -0.776144239273620     
 -0.176787756909066     
  0.424779491857753     
 -0.147136273379496     
  2.796400571563328E-002
  4.830579298578798E-004
 -0.391142534937897     
 -0.799860508342309     
 -4.671357808227929E-002
 -0.619615159925506     
 -0.168156946910818     
  9.723552771559354E-003
 -0.279423012545068     
  0.194682547113648     
  0.107211781152517     
  0.176666429440278     
 -0.188317552786841     
 -0.192058999407977     
  0.378115023835000     
  0.525386794729849     
 -9.906951930406319E-003
  0.296976751126456     
  0.142008934832660     
  0.112695996617509     
  0.319135834440751     
 -9.099380397436084E-002
  8.538089085777523E-002
  -1.92294034470554     
  0.117369800044145     
  0.184496390817790     
 -0.701284275685194     
  4.265685445556103E-002
  0.251028076915186     
 -0.299240912647577     
 -0.188132327689726     
  0.164440853204045     
 -1.537217971263780E-002
  0.220813386908193     
  4.342418906336987E-002
  0.175255205214720     
 -0.494925417601218     
 -0.553874476364110     
  5.233001507363595E-002
  0.474365704536590     
  0.273483965620205     
 -5.750870816275377E-002
  0.150555923371653     
 -6.773811450175245E-002
 -6.684148038043147E-002
  0.191252268263509     
 -6.614462659744989E-002
 -0.597075007705770     
  0.540207687773173     
 -0.591369966804918     
 -0.495879526555181     
  0.317645540150170     
  0.156103301717808     
 -0.139137390997264     
  0.670381608443975     
 -1.495862371358566E-002
 
  -1.38930164356747     
 -0.557067743237640     
  0.754777574832940     
 -0.388557434767458     
 -0.863923685664447     
  -1.24839100763995     
  0.733559040907742     
 -0.341782710390531     
 -0.501930146283539     
 -0.924140950904792     
 -0.584914593212700     
  8.920790655733224E-002
 -3.363584667823508E-002
 -0.558047346172716     
 -0.421852474919748     
 -0.311284276174254     
 -0.842804944007495     
 -0.746853114009095     
  0.501818420440752     
  0.739726528283834     
   1.37357009338174     
  0.226655707472672     
 -6.976290118640553E-002
  0.150251205732956     
  0.586622949987463     
  0.463114772905593     
  6.485239654073265E-002
 -0.257125642278564     
 -0.806369170412608     
  0.237277758036410     
 
  0.619619781168313     
 -0.249232779296422     
  0.298458310209171     
  0.245708216281078     
 -0.445009284366869     
  0.439735477708866     
  0.400380014290000     
  8.153044675821831E-002
  6.293736655664561E-002
 -5.497367016270395E-002
  0.173201827434421     
  1.041695543955680E-002
 -0.444564922008710     
 -0.381571865674013     
  2.970199588067596E-002
 -0.197052247409786     
  0.170983919051338     
  0.149628353647155     
  0.421444274169278     
  8.130128944637770E-002
  0.132773187673654     
  9.560261782202152E-002
 -0.119243480597751     
  0.150997324637611     
  0.304261146118332     
 -5.294110709956366E-002
  0.303873483698902     
  3.474813609575809E-002
  0.554591958999257     
 -0.486166494758785     
  6.279338077617704E-002
 -0.252105340299780     
   1.11669655021166     
  3.750392425619262E-002
  0.501155215407656     
  0.269148540156483     
 -5.555983395871963E-002
  0.399710395170730     
  0.589328877008689     
  0.319187082820617     
  0.153444518906513     
 -0.219743631715054     
 -7.051766523340219E-002
  -1.29744769959763     
  -1.23876107919687     
 -0.166719866915416     
 -7.300012476657214E-002
 -0.665008495750687     
  0.674159090070917     
 -4.741728349576354E-002
 -0.331329848686649     
  0.390271466401871     
 -0.257974459670790     
  9.077284920523992E-002
 -0.487072319956250     
 -0.913637427766511     
 -0.584680829162504     
 -0.546597585568918     
 -0.269167276758200     
  5.885182465508693E-002
  0.255264728659180     
  8.682047546527139E-002
 -0.361184000522094     
  0.178791138633509     
 -0.385199654326077     
 -0.305456784852888     
 -0.892519553746882     
 -0.362060760408816     
  0.283357131241805     
  0.304427058419054     
 -0.475205554829897     
 -0.939021161984636     
 -0.499933076170431     
  0.384994487333413     
 -0.554207774774809     
 -0.888590471812578     
 -0.547115971705451     
 -0.863870170234396     
  -1.25569482501217     
  -1.55098766979236     
  -1.35283019404761     
  0.227293086661366     
  -1.58192180140350     
  -1.16651616274675     
  0.803268135493636     
  0.647180004394017     
  -1.05558844141843     
  0.955826406425915     
  0.926359101252763     
  0.578354112505287     
  0.490603122232238     
 -4.477736092596730E-002
  0.174083155788321     
  0.533198608549485     
 -0.404348473517253     
  0.327922213029050     
  0.400980005610289     
  3.166602238327166E-002
  0.258011942633381     
 -0.198936883452081     
 -0.118220393034930     
 -0.398299429617388     
 -0.462991026384771     
  -1.02312434705602     
  -1.01817963152151     
  0.254252771482900     
  0.286407945557384     
 -1.928761253877061E-002
  0.224113456656507     
  0.127395045515897     
 -4.212303760016013E-002
 -0.551230101181357     
 -8.249189383264507E-002
 -2.973135237101342E-003
 -0.475335072816674     
 -0.444527694447525     
 -0.185656085418977     
  0.249833148575523     
  0.361704786399462     
 -0.512351132342353     
  0.643390180819015     
 -7.202610377494106E-002
  0.311198516456531     
 -0.773387566742107     
 -0.688805197718408     
 -0.722811092558661     
 -0.371572289463955     
   1.36639630883917     
  -1.17269369652120     
  0.977747270076971     
  0.640780568727204     
  0.619169148464529     
  0.913712346135307     
 -0.446050382292612     
 -0.656252500319805     
  0.885621838999556     
  0.190637694208866     
 -0.495434610208998     
 -0.868841721817126     
  0.730552197599368     
  -1.26518127593779     
  0.181351687478499     
 -0.391036382843613     
  -1.75394109531355     
   1.46978215597845     
  7.144062702626926E-002
 -0.350320983934029     
 -0.673118425024691     
 -0.173128905727206     
 -0.432428471906653     
 -0.411158933908302     
  0.546876692308919     
  0.299407779790914     
  3.451779981775905E-003
 -0.351135075935963     
  0.204226516545101     
 -1.766498279424775E-002
  9.476268863332389E-002
 -0.126820101104256     
  0.512625003913738     
  0.855827742997889     
  0.205812921600133     
  0.464439272816642     
  0.257492626380069     
   1.31779223135154     
 -9.717320415029124E-002
  0.708194305110846     
   1.19381896640526     
  0.175586774624849     
 -0.110510658702825     
 -0.144571967677104     
  0.144290399443759     
  0.175145518895233     
 -7.058816442982296E-002
  0.451143148848303     
   1.06871206686858     
  0.453485157796440     
 -0.125885763208941     
  3.664316044164512E-002
  7.549335350132452E-002
 -0.166938809628059     
  0.160796138505002     
  0.392619540626763     
  8.930380838802135E-002
  0.126148045886967     
 -0.142775965226461     
   1.67470761268057     
  0.616915219826844     
  0.340541467234877     
 -0.546616255135999     
  -1.30171495099416     
  0.198536007889959     
 -0.398578156038782     
  0.327910720996681     
   1.22401929435225     
  0.121126749599097     
  0.149597750850379     
  7.005332379055235E-002
 -0.692649839243826     
 -0.131750777760977     
  0.270650065713376     
 -0.182321431167643     
 -8.181624255840494E-002
  0.336324571849044     
 -3.681330381052508E-002
 -0.151229670918259     
 -0.186971063518727     
  3.124795916098407E-002
 -0.382850691442401     
  0.795992068186909     
  0.806625730818840     
  1.132420910020607E-002
  0.717042930506088     
  0.688434489515719     
  0.191426199956032     
  0.466818123452838     
  0.676005755480645     
  0.141661225557197     
  0.366224644303632     
  0.125197372048577     
 -8.549554420260468E-002
  0.692635361341318     
 -0.944671777410743     
 -0.441533353784891     
  0.474424405096107     
  0.919349949489663     
 -0.203506029335703     
 -0.446963945452935     
 -0.434516081755030     
  0.121120505448745     
 -0.635302199981019     
 -0.731675395713625     
 -0.695155809482351     
 -0.601895007004018     
  0.653523774595511     
 -0.177664846867678     
 -0.194659687423529     
  9.630908967115565E-002
 -0.630757647280314     
  0.143908548582012     
  0.460522139863051     
  0.115929059906158     
  2.171957793986646E-002
 -0.122818448556647     
 -0.680507670161504     
  0.247419713699135     
 -0.114363868404514     
 -0.321186186911945     
 -0.336615444391132     
  0.749949844141191     
 -0.537782372770169     
 -0.130725330269570     
  0.171382162959900     
 -0.716946370412296     
 -0.286616674484821     
 -8.786808797339561E-002
  3.281505627011506E-002
  7.328420945600442E-002
  0.171072091837016     
 -0.142126305852304     
  4.957947899896979E-002
 -0.211928580874230     
 -0.233136004516883     
 -0.112428627900549     
 -1.720474273290872E-002
  0.376216198292340     
 -0.697708384012042     
  0.299967942786920     
 -8.497488137536001E-002
  8.062087726494320E-002
  8.960802161661962E-003
  0.158922733024982     
  -1.08817992131651     
 -0.318351846995884     
 -0.688865919220157     
  0.947776867732064     
  0.336674392756600     
 -0.402661092019601     
  0.303033259365949     
 -0.114603335454559     
 -0.297185152054511     
  0.481822594017498     
  0.282358213566925     
  0.256459543029949     
  -1.33037582633781     
  0.440055086064719     
  0.473421020651060     
 -0.413368146088938     
  0.118690249086337     
 -0.105417140678349     
 -9.694229214921184E-002
  3.834705293753493E-002
  0.444085220179972     
  2.537485145229986E-002
 -0.443456137055457     
 -0.815379965709361     
  0.159068953205250     
 -0.779800345533797     
 -0.373825499092360     
  0.161575094339865     
 -0.218386944855856     
 -3.413093260707997E-002
 -0.425828700561477     
  0.697237413922417     
  0.739507481105588     
   1.47809960080143     
  0.478904199403214     
 -0.371395250877657     
  -1.07574334293965     
 -1.665137835319202E-003
 -0.456821039720409     
 -0.711165922621927     
  0.573102887875106     
 -0.664715615297248     
 -0.181911665553707     
 -0.179020414632050     
  6.168664939593584E-002
 -0.159346315473654     
 -0.755440483328523     
  -1.04252015936712     
  5.154439886495718E-003
 -9.507036852599839E-002
  0.425330319475577     
 -0.101389680447528     
  -1.03073247841462     
  5.211142054037254E-002
  0.212992167344494     
  -1.14131946167471     
  -1.39117074469816     
 -0.181321788790731     
 -0.210627855362974     
  0.142028002131338     
 -0.285114674694324     
 -0.426490378213402     
  2.505990879577508E-002
 -0.478208712481758     
 -0.941708752656435     
 -0.200857061714188     
 -0.321085190683537     
 -0.468069299300601     
  0.286493202077956     
 -0.225258103219283     
 -0.106791290797585     
  0.352361380806825     
  0.829210741852078     
 -0.119828586423631     
 -0.362576316043753     
  7.336491340749036E-002
 -9.408366058422629E-002
 -0.107281264701727     
  5.244550318191004E-002
 -0.176411772922397     
  0.190577795376951     
  0.204673444871601     
  4.849299088800631E-002
 -0.275212270463750     
  0.383323124101471     
  0.155302640774487     
 -0.261726232355435     
  0.561174948475782     
 -0.860323415589090     
  4.842949544891565E-002
 -6.226063632421574E-002
  0.271001481823386     
   1.08900979959790     
 -0.677092746075071     
 -0.147662769454842     
  0.437039484225131     
  0.281988767728770     
  0.467929095698324     
 -0.696163514653864     
  0.124836604179276     
  0.721189376085455     
  0.463444063964918     
 -0.476551529360449     
  0.562781354502447     
  8.273397329792027E-002
   1.05174994630924     
 -0.863682642986991     
 -0.196383781475541     
 -0.353714207078281     
 -0.136589800773213     
 -0.372062080084831     
 -0.260217835161722     
 -0.759270223975193     
  0.326918745156172     
 -0.946780251130573     
 -6.653874208443189E-002
 -0.686010591533981     
  0.446967916499734     
  0.181660391478755     
  2.217921589468305E-002
  0.413194340963681     
  0.352931616639506     
 -0.595485484576374     
  0.216680336655766     
  0.400169667704607     
 -0.127562051205106     
 -7.580236994967189E-002
  0.487040230000532     
 -0.707674321661909     
  8.021420734685016E-003
  0.396832804468932     
 -0.834554910348097     
  -1.41237087480273     
  0.478182480842990     
  0.436180059830558     
  6.755775721975460E-002
  1.088009526106818E-002
 -1.270640060225030E-002
 -0.194238757671322     
  7.959578142029263E-003
 -0.466380714420513     
 -8.438833339325832E-002
 -0.587165602733639     
  0.212444510549416     
 -9.336816435835117E-002
  0.192065018892796     
  1.501740315297372E-002
  0.109233447540692     
 -0.240853961849804     
 -8.313481550879225E-002
  2.772814366643198E-002
 -0.140025034350023     
  0.788218104737530     
 -0.579483919550471     
 -6.726209529820855E-002
  0.475190694034251     
  0.217620510792446     
 -1.327140617977431E-003
  0.114458574152696     
  0.125612881009177     
  0.504867846602569     
  0.422176482964437     
  0.406803036432704     
  0.109154214167683     
  4.079282298117940E-003
  0.646632290655859     
  -1.11777184187770     
  0.169589316469449     
 -0.208167946379348     
  0.121076766859471     
 -0.483393866633096     
 -4.665838082269230E-002
 -0.128208017435708     
  0.826259561583012     
 -0.161927541539815     
  6.477668499432833E-002
 -0.221441150222014     
 -0.247579766105107     
 -0.134005133573534     
  0.817214705105067     
 -0.145027549549404     
  0.152700019994037     
 -0.865252795758183     
  0.160208191971331     
 -6.773803197420605E-002
 -0.841971713633999     
 -0.265924794841400     
  3.475640458041070E-002
 -0.746826770785314     
 -3.760063611739932E-002
 -0.456706416046456     
  0.681261935815404     
  -1.00589897396406     
  6.576349505967893E-002
 -0.233822392901824     
 -0.690039919345764     
   1.31053410450651     
 -0.693620675065728     
  0.549540640339923     
  1.420500134398270E-002
 -0.252487396635599     
  4.891850232184248E-002
 -0.451003408445762     
 -0.478590122957230     
 -0.138564074876996     
 -0.436171608284330     
 -0.227693555119218     
 -4.577450742801566E-002
  5.997206330871421E-002
 -0.164826848163073     
  0.151379629212152     
 -9.912663715726702E-002
  0.231122900257058     
  0.483304427568288     
 -0.121998142882314     
  0.260727539737562     
  0.399372690878737     
 -0.775578412917393     
  0.161974370744775     
  0.187092470603490     
  0.281501787662616     
  0.508710145719680     
 -0.655833246847325     
 -0.167669476998626     
 -0.228288484835008     
 -4.507390795352931E-002
 -1.873256118554696E-002
  0.118137560396796     
 -0.303677931422661     
  0.553769654061166     
 -0.348540543166704     
  0.158550625373007     
 -0.607757170189944     
  -1.02561307301148     
 -0.470222757141910     
 -0.956775083719473     
 -0.284453686927294     
  7.925785498863755E-003
  0.291563024910219     
  0.112291533182118     
  3.498205652757590E-002
 -0.772129896912324     
 -0.302818548816740     
  0.359986835156671     
  0.439630045422127     
 -0.366637968347866     
  0.383034779691424     
  0.180487229111906     
 -0.502837499257045     
 -0.158295524778651     
  1.262747277270648E-002
 -0.837291526112253     
  0.398168645592329     
 -0.206481881093328     
 -0.650884851476617     
  0.802116933394641     
  0.595813739416933     
  0.131882811083478     
  0.320751952374039     
 -0.256619289355910     
  4.247572443491998E-002
 -0.100049896955487     
  0.257442495874513     
 -0.931417772931998     
  0.535695854763647     
  0.338596137809482     
  0.383279507595664     
 -0.134118138152949     
  0.397185052269003     
 -0.304465927603927     
   1.10791226486046     
  0.525601785910504     
  0.949124329433074     
  0.410132359679393     
 -0.273632240179871     
 -0.129067787155258     
  0.116175252648763     
  7.303057640698868E-002
  5.536670062234622E-002
  0.136728090498007     
  0.968192388014761     
  0.980828900628888     
  0.889634421341278     
 -0.221853414565056     
  0.100096641523587     
 -0.375630016953492     
  0.531522795181723     
 -7.737479202220419E-002
 -0.940512076320134     
 -5.866499784193794E-002
  2.754403321800067E-002
 -0.462043779320603     
 -0.355648126574749     
 -2.997206707359878E-002
  0.418994529075698     
 -0.190897344737226     
 -0.303922121253652     
   1.15121140591881     
  0.252862146408208     
 -1.538925110789540E-002
  0.297399828778840     
  0.840659576318382     
 -0.533698715525168     
  0.139100526158963     
 -7.839212501292338E-002
  3.019921206768604E-002
 -7.438211631199690E-002
  0.307705175599037     
 -0.215398173689362     
  0.641653881204554     
  0.322174438682048     
 -0.230938730503689     
  0.313249885420321     
 -8.421087586076827E-002
 -3.045846818918298E-002
  -1.46983069372669     
 -0.331449062867489     
  0.115227422376862     
 -7.631994735667710E-002
  0.295840548633759     
 -0.223255960296338     
  0.288500552383533     
  2.103949801958234E-002
 -0.518767162521763     
  0.240058353544331     
  3.104880516240754E-002
 -0.119620584449416     
 -0.147147681623379     
 -0.639871542322819     
  0.245467409335137     
  0.176218994137686     
 -0.926070765757205     
  0.792388701299609     
 -0.407779174942417     
  0.106295970225176     
  0.157997893803584     
  0.425385758584901     
 -4.333883909685533E-002
   1.05184060818528     
 -0.167789033408102     
 -1.999386728193937E-002
 -3.612251106490556E-002
  0.715820471430364     
  2.416468392380270E-003
  5.790703930692456E-002
 -0.250362596915894     
 -0.252228008589044     
  0.237249702160535     
 -0.258092568089949     
 -9.161050041879665E-002
  0.363471684741780     
  8.616575539083073E-002
  0.101218089758967     
  0.391691989481310     
  0.369662685378551     
 -0.119232951969040     
 -4.011371097115120E-002
 -9.076382035450130E-004
 -0.258001962483365     
  0.303829246368415     
  -1.14235274382751     
 -0.608969472163742     
 -0.165580471719125     
  0.371541940388757     
  0.366146959390796     
  0.157365925361448     
 -3.786517381864267E-002
  0.523018371123079     
 -0.220433036548145     
  0.322974870866534     
 -0.169657583838404     
  0.114886004493951     
 -0.279139220780074     
  0.262423183915070     
 -0.565826882758638     
  0.437830440069919     
  0.539968389636986     
 -0.470113175068328     
  0.273356976589431     
 -0.201870793059162     
  0.958284165494359     
 -0.116462018593154     
  0.316316278160271     
 -0.212389540378647     
  0.333515211967739     
 -0.430441880396494     
 -0.307434757405146     
  7.492843621177932E-002
  0.458413850781961     
 -0.296648690412992     
 -0.630878089257198     
 -0.361650383733780     
 -0.511964106468831     
  0.112281551925384     
 -0.805283828720240     
 -0.632228116687474     
  0.439741518218935     
 -7.340469971278223E-002
 -0.246259793389421     
 -0.113649863366508     
 -0.987889509469399     
  0.440898822690829     
 -0.249364109028712     
  0.189342637248784     
 -0.695734446093178     
  0.304370804378473     
 -0.148613107801505     
 -0.170095503393181     
 -0.404970484729336     
 -0.203668764227557     
  0.184698526693824     
  0.603635032791860     
 -0.411997898187270     
 -0.881839944426523     
  4.191335214750962E-002
  0.266889184380740     
 -0.310620372662340     
  0.295563350520280     
  0.215961205080049     
 -5.307019800328805E-002
  0.299805931706535     
  8.302621502005623E-002
 -0.166961389618504     
  6.133707298900250E-002
 -0.412140105947521     
 -8.036648486822127E-002
 -0.159050770720306     
  0.169141418811157     
 -0.228624168581127     
 -0.127129170143386     
  0.407246525986165     
  0.190418741591061     
 -0.148411608277938     
  0.248402209250309     
 -0.244491723378480     
  0.122074211542234     
 -0.654932093399514     
  0.243585068634219     
  0.169997194007913     
  0.140780010993230     
 -0.827978364277740     
  0.128384635110680     
 -0.304821864572374     
  0.280435662567964     
 -7.440986101882896E-003
 -0.122183573831265     
 -0.108517020007644     
 -6.632123789208536E-002
  -1.02272956730259     
  -1.00898336585681     
  1.743129851163131E-002
  0.871442648128522     
  0.637327444556693     
  0.181773784626257     
 -0.358799645699467     
 -0.301870699793899     
 -7.791576235820058E-002
  0.522927116435211     
 -9.388421900313557E-002
  0.869240106052657     
  0.125578336415503     
 -0.107919326316054     
  0.918417979118368     
  9.042276055637710E-002
 -0.125822415478814     
 -0.802526024367396     
  0.692635814066630     
 -0.563284004499161     
  0.227135656403020     
  0.961348202697758     
  0.867030314246644     
  0.421798069234985     
 -0.397474226969415     
  0.133843581754574     
  7.867918561148055E-002
 -0.672109650908317     
  0.377826801275735     
 -0.434107160261923     
  0.185709084950478     
  0.147766178445771     
  0.184308235166248     
  3.022683600863238E-002
  0.712615709603128     
  5.269424836352289E-002
  0.291393529226855     
  0.227526588948849     
  0.553130991986274     
  0.151649169631481     
  5.928997111533606E-002
  0.176445413170817     
 -0.111992858173679     
  -1.15281966525968     
 -0.175707858822753     
  0.142533535616386     
  0.190508867111063     
 -0.388762021665979     
  0.307802274041620     
  0.159793540913701     
 -0.196924427050776     
 -0.366767490350600     
  0.248893674965313     
 -6.997111214911704E-002
  0.176247304478477     
  0.204083593841145     
  4.154037820415200E-002
 -0.283628759714105     
 -0.357400339972106     
  8.061572872184145E-002
 -0.205289717702178     
  0.148439934904357     
  0.285243594650156     
 -0.862628311575605     
 -0.335180659515760     
 -4.638604503533389E-003
  0.457714085188511     
 -0.143587454688625     
  0.259675150402798     
 -0.117076139191405     
  0.583285973482627     
 -0.955142944599927     
 -0.144148904129967     
 -0.301023041870966     
 -0.813285192817271     
  0.179889861828822     
 -0.620609782759197     
  -1.37409474655114     
  0.572069908585102     
  7.600965491612507E-002
 -4.584122896524369E-002
  0.615268896366018     
  0.519977234402697     
  1.311919067783550E-002
 -0.678370980582036     
  0.361551023718089     
  0.851377670764003     
 -0.482750716489702     
  0.516903018715500     
 -0.219587763118170     
  0.296941291433256     
  0.249420138822932     
 -0.579853684900950     
 -0.561263331089077     
 -0.837941866449454     
  0.422526740396762     
  7.046183558376809E-002
 -0.563049499789329     
  0.221319536547774     
 -0.550225281510136     
 -0.682773653498084     
 -0.581225176759013     
  0.501055742947336     
  0.968535797560540     
  -1.06805318530682     
  0.441672592852212     
 -0.357806128932447     
  8.035385966410108E-002
 -0.181106610317895     
 -0.451068049833173     
  0.253505136120652     
 -0.135930409451895     
 -0.633503699426238     
 -0.150270616987943     
  0.353209957355675     
  0.622500350128479     
  2.467398068705318E-002
  7.159202461929946E-002
 -0.357459770170789     
  6.220421499994044E-002
  0.262710292327022     
 -0.131592140826879     
 -4.598292903979359E-003
  0.654014185955300     
 -6.402499342766557E-002
 -5.052246834805712E-003
  5.327098335877213E-002
  7.695429212074079E-002
  0.417682151506656     
 -0.458627651333985     
 -0.684242117823959     
  0.485061572842470     
 -2.214885916812438E-002
  0.463903642580980     
  0.546935768390976     
  0.516576554984543     
  0.257378045687988     
  0.328372787566296     
  8.950513591585442E-002
 -0.255162947393244     
  0.173630449816022     
 -0.396822967410220     
 -0.601864463909945     
  0.322134675530178     
  0.204378318213497     
 -8.635882419833753E-002
 -0.388596970998386     
 -0.317827323329574     
  0.223204831293972     
  0.184279217412879     
 -0.147877313476481     
 -6.220544708157267E-002
  6.128659123580485E-002
 -0.160739372672581     
  0.266817821232120     
 -3.607851136409166E-002
  0.110547046212145     
  0.321651981436589     
  0.191476406811960     
 -0.525572021430296     
  0.669962206481565     
 -0.293040357374523     
 -0.455867962897779     
  0.308698542065983     
  0.190817527640367     
 -2.226106395015234E-002
 -0.119109012213168     
 -0.644318374490955     
  0.381378386189949     
  4.704973811071146E-002
 -0.166869140660228     
  0.210464958610357     
  9.276054681756926E-003
 -1.186330920089570E-002
  6.497045576798965E-002
 -0.339214995247038     
 -0.573892165648099     
 -0.239041096299324     
  0.246075231127297     
 -0.291457085881798     
 
  0.373115902115123     
  5.921021175609562E-002
 -0.669378647724589     
  0.785356569539080     
 -0.252209315963824     
   1.04738587765385     
 -0.103285978266499     
 -0.206822174057176     
   1.36066238311538     
  0.313791702765517     
  0.340617284132018     
  3.855709342200415E-002
 -0.475602259474920     
 -0.360580667157079     
 -0.102484767882003     
  0.683289269320431     
 -0.737289576622491     
  0.171999447135564     
  0.594889647203285     
  0.489274671239315     
   1.21623253247368     
  6.421157372301196E-003
  0.187143494697048     
 -0.100034751308887     
  0.197628990117064     
  1.435015401717622E-002
  0.644204035575905     
 -0.134881603138410     
  0.123268976196472     
  0.879975818059899     
 
  -1.66845631925369     
  0.558579235896188     
  3.089561349884898E-002
   3.07015456741490     
 -0.122931683717012     
  0.232867235682092     
  0.115963634430736     
  6.930235307943303E-002
   1.90632763232603     
  0.386276700565854     
  0.106490706082318     
  -1.36493654096000     
  0.744000319012114     
  -1.82969790373733     
  -1.24788177167944     
 -0.316506713511310     
 -0.832781283012759     
  -1.46602625160079     
  0.164575351426952     
  0.662308511559652     
  0.698311785101681     
 -0.333378185642422     
  8.912349407297637E-002
   1.46828313111052     
 -4.379590980370100E-002
 -0.821711120261545     
 -0.266931669652903     
 -0.415039222004904     
  0.618743771140710     
   1.59964436634944     
 
 -5.328444962806446E-002
 
  tansig  tansig 
