     48 -    30 -    30 -     1 
rmse=  44.8384meV
  -1.81268010850953     
  0.846280203834772     
  0.857808767158298     
  0.268520895601598     
  0.514185626320975     
   2.98585880243878     
  0.233947487041551     
  -1.33543569199999     
  0.457052755640874     
  -1.75420584754751     
 -0.212561789508407     
   2.94227791245686     
 -0.310702877108417     
   1.69022515746873     
 -0.166339258670066     
  0.158775134235406     
   1.18958755911226     
  -3.19200504461645     
  0.893847854640236     
   1.35339783142815     
  0.290301092524872     
 -0.518231086404985     
  -1.26344626037378     
 -0.737812004594925     
   2.78673298599798     
 -0.699958669016224     
  1.568088033599155E-002
  0.132509883636040     
 -0.416399294703745     
  -1.08355391290083     
   1.86623727260691     
 -0.912874035067776     
   1.99902480800190     
  0.998642730779681     
  -1.70958717355766     
 -0.540157798063020     
  -2.32676533145261     
  0.232304699741766     
 -0.213411930561442     
   1.76344627490755     
 -0.478250437497460     
   1.05027869105772     
  0.691956171366279     
  -1.35421840194832     
  0.438728928311728     
 -0.632696430127185     
 -0.496676905950283     
  0.713705149043226     
  -1.99088824350151     
   1.75741174710395     
   1.58311536023150     
  0.109306646504657     
 -0.566231761640824     
  0.784583763293139     
  0.691925329763081     
  0.492249697914594     
 -0.751707397364418     
 -4.879586428977039E-002
 -0.965535578614134     
   1.71555195863649     
 -0.786190858979847     
   1.48122759401097     
  -1.01313483413721     
  0.740460431116716     
  0.214905064189836     
 -0.763632560888904     
  -1.35565501273704     
   1.21438396642149     
 -0.845783160699254     
  8.313402901548249E-002
 -0.317677375458384     
 -0.960299398724421     
  0.736744754873059     
 -0.973731353759814     
  0.537684089554651     
 -6.796711232473807E-002
 -0.160128750463839     
 -5.470009747454069E-002
  0.807318530764755     
  0.414453808856770     
 -3.542875202726591E-002
 -0.215027645818715     
  -1.93301967976154     
   1.39416729320801     
  -1.08975362370626     
 -0.423192725790917     
 -2.725042977338538E-002
 -0.980049560208315     
 -0.154871778014949     
 -0.220520629066351     
  0.862240702253165     
  -1.22627491287358     
 -6.852933649903616E-002
  0.954081393042324     
 -0.889020739390728     
  0.206508641522546     
  0.205920502676040     
   1.29586758929507     
   1.35139457404622     
  0.247579481809689     
  -1.27604418464033     
  -1.05262590320642     
   1.07041705410817     
  0.958817698851000     
 -0.951584982233938     
 -1.977561751612546E-002
  0.128564741771251     
  0.646919595725900     
 -5.807883746532385E-002
  0.762686055034338     
 -0.537286732941500     
  0.277378663283237     
   2.88479922297564     
  0.387941620666720     
 -0.422588600722997     
  0.622327687771415     
   1.75638556120813     
 -0.642377903485047     
  -1.70373373782898     
  -1.47628809762481     
 -0.472922057404752     
  0.654978996581944     
 -0.201733921516251     
  -1.17844516321988     
   1.13234468077995     
   1.42703369844215     
 -0.163194609011587     
  0.124324575792686     
  -2.35971339303322     
 -0.180127443836648     
 -0.436862212073311     
  0.142647226318886     
  0.851134554668654     
   1.53731880634006     
 -0.914175770856374     
  -1.47788723225739     
   1.26143139353055     
  -1.22086232510886     
  0.673986612013144     
 -0.843201751451047     
   1.08772597598127     
  -1.08131918967387     
   1.14459368142350     
  0.591415005929575     
   2.40889248159785     
  -2.97855341926962     
 -0.717033589836098     
  8.096466780820396E-003
  -2.06254192958510     
 -0.173016115972336     
   1.04028684400902     
   1.03397987620947     
 -0.801810500733770     
 -0.928824861214286     
 -0.472605998189144     
 -0.543116544761948     
 -0.330531640821065     
  -1.65369905067703     
 -0.202200730138782     
   1.42372566312996     
 -0.344090080953006     
  0.685239743841095     
 -0.952656258253238     
   3.15973675231709     
  0.393493710872547     
 -0.897030401536685     
  -1.19138350623362     
  9.241224211347213E-002
 -0.646515361935373     
  0.483658269913437     
  -1.75073730256782     
  0.616580887483551     
   1.00604319855467     
 -0.630715297918066     
 -0.262357058480544     
  0.490682801611471     
  0.164927859189687     
  0.347511756655798     
 -0.511922904651192     
   1.77852306054541     
  0.263784176501052     
  0.361639614203698     
 -0.591346740425301     
 -0.754400542101556     
 -0.882512702647605     
  0.252682343547809     
   1.36172215827796     
  0.461688879455814     
 -0.105600085218570     
 -0.344384572527768     
  0.776599954700054     
 -0.574737670470533     
   2.43400287909298     
  -3.36414533610489     
  0.852111477668035     
  -1.80903437238894     
   4.60378973366558     
   2.27306132756641     
  -2.28878345670221     
 -0.324594346586436     
  0.770680572440163     
  -1.05407164522693     
  0.504048487389208     
  0.203335956135372     
  0.628519988479455     
  -1.30766559547709     
  0.980823110902904     
  0.123942638304625     
  0.419180067118530     
  -4.15973959259519     
   1.11987144748377     
   1.04108593219143     
  -1.78695851531912     
  -1.02173507318699     
 -0.761699609356557     
   2.07146136558325     
   1.50000339147950     
 -1.035087848727361E-002
  0.405099215954148     
 -0.569600383674342     
 -0.504594355212093     
  0.602012619095713     
 -0.568145302394170     
 -0.696057130445887     
   1.58513119688664     
   3.47856105738329     
  -1.76616424773605     
  -2.33510919376337     
  -1.97136666542606     
   3.56131641318422     
 -0.483081541365188     
 -0.530333909808147     
   1.32821673893189     
  0.246590295963021     
  0.288086959532000     
  0.403837038217840     
 -0.623085307575461     
  0.754818861301388     
  -1.06410984280981     
  0.166514431986010     
 -0.193309603001471     
 -0.874106047716604     
  0.465412657692322     
 -0.530645269528179     
  -1.23995910282660     
  0.311587079843430     
   1.79758902881734     
 -0.456974584884157     
  0.154349067472723     
  -1.79783595472355     
  -1.16141973109703     
 -0.896050234002314     
  0.908345569445920     
  0.219383206529645     
  0.887328367071253     
  0.345976302008648     
   1.29088544259759     
   2.68471268638500     
 -0.801263343423317     
 -0.336214184141846     
  0.836896657051070     
 -0.770198699852209     
  0.421030847870672     
 -9.819938888451646E-003
 -5.356287165795001E-002
   1.58986669466635     
 -0.177307090689493     
 -0.590690052177262     
   1.81609780839110     
  0.579829286375942     
 -0.869119237780999     
  0.641543436394754     
  -1.94249644051441     
 -0.877410588646169     
   1.74593889739477     
 -0.478871783655205     
  0.859121431850938     
  -1.62943347953061     
  -1.53629940395899     
   1.76140657755504     
 -0.130093053401171     
   1.65131811795130     
  0.303466733566800     
  0.341411232685034     
  0.748426795942709     
 -0.783680458540039     
  -1.33779187980073     
   1.63674091835522     
 -0.509537910952385     
  0.173150641611801     
  -1.43019837406936     
 -0.315360258004438     
 -0.520208439616076     
 -0.635095708747597     
  5.028903854195253E-002
 -0.668523388927528     
  0.602895986049526     
  0.313241846590136     
  0.695511957914786     
  -1.25481331715372     
  0.246821861812076     
  0.213799066839716     
 -0.199486200010373     
  0.349635562250176     
   1.57510884264630     
 -0.914929400676952     
  0.823037119531787     
   1.38406613252283     
  0.626731062911405     
  0.678765605478356     
  0.854189976544984     
 -0.788945907842262     
  0.681787714743746     
  0.635065061646705     
 -0.760959742776677     
  0.338045941682897     
 -0.121857780877305     
 -0.747829397869522     
  0.710254425135444     
 -9.252562857335135E-002
   1.17618058992446     
   1.14224591872685     
  0.333242747793311     
 -0.863178870532423     
  0.511165527731394     
 -1.449062660524082E-002
 -2.592394188314743E-002
 -2.608531934140228E-002
  2.911771617314942E-002
 -0.264663476169841     
 -0.585198157262050     
   1.09042234732477     
  -2.06224062025868     
   2.09315144003487     
  -1.93434107648551     
 -0.150444973372312     
   1.29557170040299     
  -1.25569364941387     
 -0.918729580024367     
  0.522629232787892     
  0.333948611098035     
  -3.23977177871433     
 -0.311259923820083     
 -0.470322293823853     
 -6.040990498641991E-002
  0.490359938495777     
  0.475984341815014     
  -1.95298995307973     
 -0.942722851244703     
 -0.210623762423497     
 -0.253449498971107     
 -0.672107707989280     
  0.161151253210289     
 -0.575890352364759     
  -2.19134153567943     
  8.397227499473525E-002
  0.804929049677396     
   1.03269443095671     
 -0.127449635582893     
  -1.18279413769890     
  -1.59391568107958     
   1.57495643006313     
   1.52132675738484     
  -1.40565278561617     
   1.03432700119392     
   1.29020266558558     
 -0.627625934449988     
  0.423764485183660     
  0.969041578764047     
 -0.434368636260400     
   3.96266536239404     
  -4.09210814287471     
   2.87237899868582     
 -0.172251699578112     
 -0.657631062958908     
   1.88339097367100     
  0.490861266771458     
 -0.714588613253697     
 -0.897014668698560     
  0.545700725926604     
  0.489694478618329     
 -4.979926618005536E-002
  0.830417120513106     
 -0.874118234020625     
  8.525553703370463E-002
 -0.126543700588757     
   1.20930607933854     
  0.383719128965562     
 -0.517244006068631     
   2.13452712992290     
  0.650856214698987     
 -0.849679094133170     
 -0.398414064012330     
  0.585144131089421     
   1.91446068843804     
 -0.954290768932315     
 -0.263397599140332     
  0.857207328879528     
  0.397674789697477     
  -1.21136150146488     
  -1.27059406587412     
 -0.327921145223649     
  -2.35388311509432     
  0.541332451826231     
 -0.984860120186294     
   1.55986086410496     
  -1.63056693694098     
  0.119756900075777     
  -1.06756086317812     
   1.12727095333738     
 -0.910063453295678     
  0.683557533784742     
  -2.42894609609191     
 -0.591102771530255     
  0.420818773616088     
  8.330762727363056E-002
  0.437414094131927     
  0.139314641954781     
 -0.255220458588487     
  0.397755342411656     
  -2.88303364317034     
 -0.680455881067857     
  0.487052130556406     
 -6.816631083793927E-003
 -0.677020157501286     
  -1.29696635603775     
   1.63596998176608     
 -0.162801122953827     
  0.290184670436331     
  4.596895969445589E-002
  3.810670203157298E-002
 -0.265938719926560     
  0.902338048172554     
   1.22278809953423     
 -0.588115298687027     
   2.16556167666249     
  -2.78752767227134     
 -0.233063473099867     
   2.34082104495676     
 -0.172935157675944     
  0.280699867014203     
  -1.56136935014631     
  0.210356377387130     
 -0.925834593106560     
  0.948523205669624     
   1.10159990716553     
  0.371451524378455     
  -1.02421501906888     
  0.369819417585312     
  0.265637212622148     
  -4.03144804644111     
 -0.459958900750044     
  -1.52631549387249     
   2.13896075318793     
   1.19770194806281     
 -0.766378661512627     
  -1.69201476851327     
  0.809779226970311     
  -1.21004884855489     
   1.22131627395644     
  0.556646698189425     
  -1.35100597823428     
  -1.27431460392764     
  0.795643010126658     
 -0.280558353668791     
  -1.57272928237801     
  0.990186413059426     
   3.26782439417477     
  -2.19939993931456     
  -2.83239789444060     
  -1.67399219761600     
  0.329138996699450     
 -0.238754508717657     
  0.953701718571596     
 -3.075350925712578E-002
  0.166853607681712     
  -1.01044078173497     
  0.805655169295938     
 -0.142074253444729     
  9.849901204635803E-003
   1.57697428459017     
  0.787596221669122     
  -1.18677879345258     
  0.106712899447628     
  -1.65071123179840     
 -0.383415118402476     
  -1.09058664926852     
  0.420418890293566     
   1.58430850024075     
  0.526727379836648     
  0.359358765204285     
  -1.81730743549371     
  0.220432646738203     
 -0.842847235372264     
  0.431476663572098     
  -1.16076911127263     
  0.765521236099259     
  7.197053833950470E-003
 -3.299889885623276E-003
 -6.075481288380044E-002
  0.275038078073132     
  -1.45987288826014     
  0.460808153130878     
  0.262010094086671     
  0.263919550149419     
 -6.584008879178543E-002
   1.33447724385518     
 -0.310557846784113     
  0.573615225391703     
  0.135711973223620     
 -0.384126901031739     
 -0.664521789434675     
   1.07932164393897     
 -0.832369200468211     
 -0.198355491241705     
 -0.710596632235428     
  0.963599126644263     
   1.04872636046878     
  0.598451921479951     
 -0.367880504666533     
  9.187255271101964E-002
  0.332364919396644     
  -1.01015541038577     
  0.677844790773424     
  2.358335916793991E-002
 -0.418381637735130     
  0.785147271468092     
 -5.068257656357394E-002
  0.224883220133199     
  9.413132010769214E-002
   4.00304860361564     
   1.40229341254481     
 -0.569725184847324     
 -0.821562232616057     
 -0.765861542933605     
 -0.747243920130391     
  0.833572174952425     
   1.07395751134593     
  0.949647341248858     
  0.120301853564234     
 -0.364567874866927     
  0.973216367533547     
 -0.104825356614142     
  0.509879495600029     
 -0.742498666277507     
  -1.60696035489647     
   1.73244568172848     
  -2.70276691929654     
 -0.841366916865548     
   1.81680454691190     
  0.108776403418461     
  0.100318524570401     
 -0.325311245430931     
  -1.00367029645178     
 -0.135326590654290     
  0.235205261320916     
 -0.398990818367382     
  0.431026189329642     
   1.08840314459916     
  -1.58901741278729     
 -4.275744944070119E-002
  -2.65668872585814     
  0.353915155649688     
  0.723859427084701     
 -0.116046708128008     
   1.99246629618477     
  -1.77114841511045     
   1.37701450489333     
  0.496680849974328     
  9.533670548677198E-002
 -4.816702067277066E-002
  -1.01143775029992     
  0.831274247465943     
 -0.733325561340211     
 -0.459585290861796     
 -0.530762668956953     
  0.810407766028349     
  0.350598433898977     
 -0.151269542575712     
 -0.977848982196664     
   2.51227261542250     
 -0.760123197894725     
   1.45041040715344     
 -0.872744006273358     
  -2.20920826503836     
  -1.86904545830310     
  2.173177215711769E-002
 -0.851075057358289     
  0.336082638702231     
  0.432960732024639     
 -0.863326412705796     
   1.36025311814182     
  -1.91403896847122     
 -0.433290473292597     
  -1.75824474691898     
  0.576800634182810     
  -1.80513309200499     
   2.06692571270366     
 -0.313566480305952     
  0.576541797330355     
 -0.785480290791153     
 -0.600629305952901     
  0.102421207200997     
  0.668104013266687     
  0.340349603464598     
  -1.42797222368115     
  9.517406466426651E-002
 -0.513536347494510     
  -1.00615891489413     
   1.46816145360015     
  2.367233387821015E-002
  -1.35875696222990     
 -0.836817526802520     
  -1.56805364147254     
  0.435346296099770     
   1.38240447231927     
 -0.773976518271961     
   1.12201630886130     
  6.261852280509085E-003
  0.568944147845525     
 -0.644271905634387     
  9.908807430309374E-002
  6.141277197818328E-002
   1.13482761400981     
  -2.07114258099014     
   2.43587486280857     
 -0.807726581020373     
 -7.746469218088374E-002
  0.125943128619436     
 -0.964742522263208     
   1.31700355706865     
 -0.460598394840864     
  0.315585852348210     
 -0.329293710258505     
 -0.122917110610915     
  0.405663210731941     
 -0.679425299040409     
  0.611788202054174     
  0.537460376494466     
 -0.119956398787307     
  -1.28382488266466     
 -0.623583829446084     
  -1.79838323932516     
 -8.474772245933651E-002
  8.238273519905170E-002
  0.638325736088055     
 -0.118965256803500     
 -0.900170522495960     
 -2.817511358052410E-002
  0.380031135169965     
  0.479867714256022     
 -0.272299671288397     
 -8.213604140907642E-002
  0.352828380110366     
 -8.487968793106859E-002
  0.615304381250884     
   2.10574651830667     
  -1.64586917948599     
   2.45924526942856     
  -1.07150868727193     
  0.362764823389870     
  -1.38079168978225     
  -1.32805559255318     
  0.153831059193127     
 -6.110825767069122E-002
 -0.244397302540312     
 -0.671919025013056     
  6.429321456706272E-002
 -0.560734572386158     
  0.294567961951729     
 -0.751026458450822     
 -0.275711753536953     
 -0.362548491472224     
  0.118465291654500     
   1.20118159626167     
  6.644571492410052E-002
  -2.59825725102862     
   1.74319037948986     
   2.42382659295896     
   3.03178048871461     
  0.861404522834769     
   1.91919269531265     
  -1.98504880183731     
  0.368936406057425     
  -2.01932778796301     
  0.595338864747083     
   1.03130462556464     
  0.878868518227871     
  0.980757046067372     
 -0.657317281649566     
  0.649582881579176     
   1.19477415910860     
  0.903395464280065     
 -0.524988829327450     
  -2.05717267703155     
  4.107187943150231E-002
  0.471393387973472     
  -1.42663445431593     
   1.89453314001922     
  0.139086064216327     
 -2.925589363176532E-002
  -1.23826569665101     
  0.643256632783075     
 -0.785111971853910     
 -0.160616015174443     
  0.154688496370233     
  -1.29915907934406     
   2.09064209273803     
  -1.31167020416160     
 -0.295908332058673     
  7.477858875768817E-002
  -3.90118058325211     
   2.10856536484142     
 -8.513528182201327E-002
  0.765890302471204     
 -0.837183136587277     
   1.30549199622613     
  -1.15264003086081     
  -1.20672165056025     
  0.730699716090918     
   1.40873507048167     
  -2.83813696110860     
  -1.18649228943772     
 -0.564101306443566     
  0.113854831460195     
  8.547032826492287E-002
  -1.55002158758349     
   1.75374729675939     
 -0.733895363382014     
 -0.625290545750989     
 -6.163594450918736E-002
  -1.21793888128066     
 -1.201931016093220E-003
 -0.957467155058610     
 -0.436387065220839     
   1.35244859794310     
  -3.48787998033473     
  -1.29606699121544     
  0.239487987535180     
  0.199402052382345     
  0.785806445935570     
  0.319780410664102     
 -0.670290119697637     
  0.635875510839700     
 -5.524978741881065E-002
  4.424178500947813E-002
  -1.04646868230145     
  0.916026657495481     
  0.196584495976810     
 -0.439741589435787     
  0.831971896341453     
 -0.503865648647004     
   3.28414768978139     
 -0.432695045001279     
   2.66107689855836     
  -1.03906664629336     
  0.464714033864327     
   1.28720559258021     
  0.186055241754308     
 -0.584883644368613     
 -0.240898781933888     
  8.419527873790325E-002
  0.794382877772800     
  0.928541033584821     
  -1.74742808964575     
   1.62967652856505     
  -1.42763330885337     
  0.168649830929474     
 -0.875298878714370     
   1.14964275982387     
  0.475371845818889     
  -2.15251040542522     
   1.02958082555730     
  -2.85987565694788     
  0.898059793687717     
  -3.44590126485248     
  -1.42382596181847     
  -1.23590990637935     
  0.404945921150766     
  0.934243995742465     
  0.990741704409327     
  0.328048754808754     
 -0.201893167871497     
  -1.58270214626956     
   2.04153659850237     
  -1.97628030208450     
 -3.536731702367406E-002
  -1.29692848183523     
  4.469267618381628E-002
   1.45077138922378     
 -0.282842426512211     
   1.67955405746834     
  0.816386616837633     
  0.471865069091899     
 -0.230729290857359     
 -0.362842544013758     
  0.301359951192149     
   1.98251176762684     
  7.689970121860359E-002
   1.43861568039421     
   2.04589721885707     
  -1.95267377413411     
   2.59115623825900     
  -2.47216270157294     
   2.65205207147962     
   1.06386420515880     
 -0.254534495719376     
   2.21572315872592     
 -0.189017309794460     
 -4.322989971159721E-003
 -0.182180630051848     
 -4.989222962664846E-002
 -0.479091673574456     
  5.497721514989601E-002
  0.369521236860569     
 -0.182226658169157     
   1.27667832221272     
 -0.755766261639640     
  6.664899705619388E-002
  0.849124060056096     
  -1.36223987422090     
 -0.599449823556534     
 -0.233039103220998     
   1.90892483122101     
  3.940287610829548E-002
 -0.197818819814725     
 -0.991261378071440     
  5.610396175651931E-002
 -8.224008483785963E-002
 -0.989358342581275     
  0.151921137458139     
  0.841488439279746     
  0.702644145285837     
  0.937660076703802     
 -0.903611512964355     
   3.73825907446222     
   1.43936428799589     
  -1.41854122134970     
 -0.670520520518916     
  9.036126758482052E-002
  -1.01196736795939     
  0.547345599942611     
 -0.775873105404344     
  0.409169476538296     
  0.307084058459520     
  0.450506576618213     
 -0.171625960484204     
  0.378410335589982     
  -1.63693695100379     
  0.486948856310249     
  -1.86774001739911     
  0.866318586898359     
   1.21826404073101     
  5.480812508220047E-002
  -2.02532594412857     
 -0.903662605073266     
 -0.312802663352123     
 -0.364323614170517     
  0.340700239185818     
  0.327527848481016     
 -3.636316555552865E-002
 -0.327155162459520     
 -4.164647999942975E-002
  0.288548989277712     
   2.64290086148452     
 -0.896331646520792     
  -1.47580202277948     
 -0.241827971020328     
  0.177823850208323     
  0.612376085991419     
 -0.190690667950058     
  0.518122585629158     
  -1.02626059743437     
 -0.325498598317206     
   1.01298973406110     
  -1.16366525301193     
 -0.443834853966351     
 -0.778158444761258     
 -0.130227357439744     
  0.776819748554780     
  -1.48902081040155     
  0.635144185915471     
 -0.240907829428093     
  0.444614944451599     
 -0.484341977658840     
 -0.303187902059198     
  0.875687230385785     
  -1.11801721479376     
  0.545468082499601     
  -2.28572189669880     
   1.98477856591700     
 -0.991984942669079     
  0.714539074492782     
  0.834191493909738     
  -1.27512780358755     
  0.761427562004664     
  -1.62114739200730     
   2.05456406416902     
 -0.124363368824252     
  0.342474454529608     
 -0.191554790696918     
 -0.687662048051810     
  8.662217441661253E-002
  8.770823980212482E-002
  0.179609215689393     
  0.526354671123834     
 -0.204467682392623     
 -0.239960146380209     
   1.17282940224777     
 -0.609762599582907     
  0.356943132041029     
 -0.219920134563896     
 -0.391115337855958     
 -0.117773304902147     
 -0.299520133919625     
 -0.345486446950234     
  0.943678755052703     
  -1.56197243076465     
  0.868961429163859     
  -1.31635933765563     
 -0.888922696703362     
 -0.225006949357298     
  0.977296040956764     
  0.530547665487460     
   1.36926865518703     
  0.102563608872103     
  9.504035711959791E-002
 -0.910687054558185     
 -0.573690332340879     
 -0.643418696788620     
  0.619237696517261     
  -2.25731608630235     
 -0.595351100743563     
  0.822911093494850     
  0.208237600394300     
 -0.145131081041647     
  -1.13943318703749     
  -1.42259324134221     
   1.27031444468474     
 -0.454359951252398     
  0.112147995312117     
  0.603619929850918     
  -1.08039459427169     
  0.294734303050976     
  3.609624634115847E-002
  0.974099844431166     
   1.60594028215581     
  -1.06429320992251     
  0.798901637489439     
 -0.377401112916583     
  -1.41196217378796     
  0.163530413473517     
  0.839534670141915     
   1.01033068619000     
   1.47355297432209     
 -0.332668468426430     
   1.15631207349054     
 -0.295391371779164     
  0.163557427872545     
  0.464365995927883     
   1.00764918711217     
 -0.121076409290218     
   2.42554507272240     
  0.122738414804802     
 -0.513760617824592     
  0.898152885632048     
   1.26800127096981     
 -0.973320056339425     
  0.207155185739016     
  0.386251124170465     
 -0.792352085480467     
  0.506377913275711     
 -0.611672643735840     
 -0.119179239090275     
   1.30955259623167     
 -0.841686797643616     
  0.941149638577818     
   1.27918990689401     
 -0.987847161446438     
 -0.331127260873308     
   1.92404129111612     
  -1.83740573790867     
  -1.02237483528212     
 -0.558268646375893     
  -1.50300524733263     
  0.664029707341006     
  0.285315677737112     
  0.771746615887740     
 -0.291963488570581     
 -0.892279927507790     
  8.196719184407875E-002
 -0.885542164328620     
 -0.913922790493740     
  -1.19954703909496     
  0.175312523327683     
  -1.19833923058952     
  4.773752419391592E-002
  0.284096322399268     
   2.36459734312181     
  0.235105353163099     
   1.81403234864155     
  -1.04974101687497     
   1.31195445625157     
 -0.934158251922375     
  0.196227111489754     
 -2.472488685163592E-002
 -0.576438391192686     
  0.691159912303622     
  0.222709695363434     
 -0.461954932916922     
 -0.264189269650772     
 -0.924439344874226     
  0.701584061800309     
   1.73818260857963     
  -2.19769389684257     
 -0.439691537135250     
  -3.09194496734610     
 -0.642153706021735     
  -1.11113803096592     
   2.18459583325849     
  0.379617233471655     
  -1.46690293748605     
   1.45945298277330     
 -0.586778097860171     
  3.082513965517724E-002
  0.330029437808039     
 -0.973115176979903     
  -1.80345924042380     
   2.31859440511918     
  -1.98760641037928     
   3.64974239162154     
   2.06738247889307     
  -1.68357135382892     
   2.37564492280639     
   2.24398043463132     
   2.50256236693474     
   1.28631612291571     
  2.059339738711048E-002
 -0.661661730574296     
   1.22629780566472     
  0.791150914355081     
  -1.05212137840115     
   2.23461291924401     
  -2.59720541710367     
  0.355354133553748     
  -2.16651991980375     
   3.27394858630177     
   2.55789012908165     
  -3.22025515164348     
  -2.74930720758393     
 -0.229398631790384     
  -3.93041549019454     
   1.42567402502903     
  -2.07501316560499     
   1.55683335123006     
  -2.06985967689711     
  0.129379251470769     
  0.196811989842235     
 -0.389290798657185     
 -0.406524707847579     
   1.51977676762582     
  -2.08159508494336     
 -0.259828768850460     
  0.831522122821499     
   2.00506233279740     
  -1.19467559722054     
  -1.49402162630263     
  0.656765017533534     
  0.270208934183625     
 -0.529407498569109     
  0.129499467688093     
 -0.787864249122584     
   2.14342916533713     
  -1.68136387853908     
  0.191401520458428     
  5.815921152409540E-002
  0.847530987721079     
  -1.34797961015827     
  -2.36750167719194     
   1.30240295227913     
  0.893535267087838     
  0.670987913415351     
  0.173062711414605     
  -1.79992872862042     
  0.798695736283695     
   1.40796871826474     
  0.337655716689440     
  0.629781305877989     
  0.990569016669186     
   1.06104423693610     
  -1.49804444684492     
  2.444933313217023E-002
   2.11660270121031     
  -2.01102389931623     
  0.274027431328172     
  -1.24881291389388     
  0.946955347205127     
  0.471901091942501     
 -4.022530887691164E-002
  0.654535867795797     
  -1.05750490061717     
 -0.352254896374324     
  0.781734171257952     
  -1.98490676184527     
   1.03436158322162     
  -1.40554252528868     
 -0.825562076128516     
  0.344841115774347     
 -0.659519888263740     
  0.377117558203786     
  9.893052496830243E-002
 -0.147775665288200     
  -1.22400278684277     
   2.18828258179615     
  -2.45540469805871     
  -1.20496854543180     
  -1.12523745610578     
  -1.57836799055062     
 -0.474769461219763     
  0.306058848302712     
  -1.59452652279059     
 -0.660782389844658     
  -1.67791683164730     
  0.731271153793170     
  0.677168989404231     
  -1.26386241349713     
  0.554911294319705     
 -0.169592850882165     
  -1.04827138860520     
  5.298444064245413E-002
  0.910099915709067     
 -0.170503630870414     
  0.782449134245044     
 -0.947099623920814     
 -0.532048085548783     
 -0.166624335285267     
   1.02885267233168     
  0.584122791491684     
  0.250032710625958     
  0.305958633394306     
  0.145703188567092     
  0.355410638067429     
   1.26516929827968     
 -0.743848048833843     
  0.443078677254488     
  -1.61890732394494     
   1.23676968624664     
  0.596887924673123     
  0.649310068823592     
 -0.395904719262278     
  0.600581200817078     
   1.35315219436658     
 -0.852411842920661     
   1.71626652757249     
 -0.202521002485252     
  0.544054124416363     
  0.347357675024868     
  0.881544659741979     
  -1.54877721890408     
   1.78431243400934     
   1.15362715404137     
 -0.417837675098450     
   1.07747660826589     
   2.01444454330070     
  -3.37544301412004     
 -0.550033405238274     
   4.47808363837185     
   1.36877132708172     
 -0.378363331562985     
 -0.274508718295443     
 -0.486603580488977     
  0.736646526986803     
 -0.263797148584392     
 -0.998608778620555     
  9.456215531792617E-003
 -0.920097091743335     
 -6.578084249884561E-002
  -1.38097650259383     
  -1.66587830746539     
  0.642091707578290     
   2.79990524661102     
 -0.259127665638816     
  -2.44806389066645     
 -0.646405889256770     
  0.296286016607868     
 -0.768574354855925     
  0.839368027733619     
 -0.504404142033998     
 -0.579496125033933     
   1.64516683905157     
 -0.361301227956422     
  8.028087516941641E-002
  -2.29364159331940     
   2.17729914066474     
  0.448853619766434     
 -0.823418469901921     
  -1.79956353200227     
  0.761437432673968     
  -3.34899091336817     
   1.30834946175553     
 -0.539087883511858     
   1.01436951821009     
  0.788862856845471     
  0.124913672840382     
  -1.68504513905293     
  -1.63255907395619     
   1.19899288084206     
 -0.668591351404206     
 -0.551268654016857     
 -0.202945325462316     
 -0.827068532332175     
  8.822677320480936E-002
  0.862773648034175     
  0.664235941214151     
  0.740527270327339     
  0.268723445440930     
 -0.814846659657297     
  0.247574626088970     
 -0.763700401190515     
  -2.45052993264922     
  0.742038977109858     
  -1.69236656218790     
   1.87625216522584     
  -1.17109625003921     
 -0.918189469458038     
  0.423406988585072     
  0.602960709277971     
  0.444406873391907     
 -0.873977511150729     
  -1.15839238553406     
 -0.442710996869977     
 -0.263466449266798     
  0.341407980269115     
  -2.56537398593358     
   2.51403000094113     
  0.227221092619597     
   1.59550748611997     
 -0.824814062276161     
   1.12673535393263     
  0.134775871404205     
   1.28170752972197     
  0.388725484694480     
  3.018366548350958E-002
 -0.158215862318835     
 -0.197471776130499     
  0.457890220136137     
  -1.35674295401740     
  0.525996946870840     
  0.354305577195364     
   2.01974375735908     
   2.64041924363959     
 -0.605579247003733     
   1.07544669304922     
 -0.313619132835405     
  0.275392266111333     
 -5.027019336025775E-002
  0.523380077348209     
   1.05883678336613     
  0.198974382989661     
 -0.698214447440209     
 -0.684340031907109     
  0.252210916552479     
  0.895139426284804     
 -4.937359674617740E-002
   1.27374694024509     
   1.19332145192530     
  0.816533395255894     
 -0.430845086679011     
   1.41014389479437     
  0.664686441787360     
  -2.20557215247780     
  -2.46080219697550     
   1.01598651678788     
 -0.316483483106931     
 -0.447839945974666     
 -0.225919512848875     
  0.738612539114454     
 -0.431308220925577     
  -1.31039294420677     
  0.841241372892594     
  -2.81088079537974     
   1.41992128424668     
  0.633939063642476     
  -1.41238876951478     
 -0.422858329236816     
  -1.52206588404584     
  0.716512934866577     
  0.153292186662795     
 -0.872638884703182     
 -0.927577615977180     
  -1.12030370914262     
   2.13320186112481     
 -5.833851159180239E-004
 -0.894119009397222     
  0.554067373018802     
  0.762069251560576     
 -0.666413652173604     
  -1.38894609896138     
 -0.811944833690913     
  0.578942794740552     
 -0.333991062927468     
  0.547501750273047     
  -1.73680197271175     
  0.104897240061284     
  8.434258212449694E-002
  -1.97628453579990     
   1.47803960491868     
  0.240150494255374     
  0.775995573905310     
  0.510728793511595     
  0.812446084913288     
 -0.976332041603752     
  0.114738625485928     
 -0.325060505441142     
  -1.05239353844498     
 -0.786891177531453     
  -1.63388571887073     
  -2.11043729544148     
  6.652421452214928E-002
 -8.711363724113780E-002
   1.17360206821432     
   1.45179538422855     
  2.987931797375073E-002
   1.10799342064506     
  5.382310531633580E-002
 -1.035473626223677E-003
 -0.235981998674904     
   2.09932549738466     
   2.66998058491659     
 -0.981108157956744     
   1.56194792716469     
 -0.687886806521138     
  0.847491718638715     
   1.08090954157440     
   1.24600918585308     
 -0.250002367370299     
  2.185529484732712E-002
 -0.512540766319373     
 -0.785193060938764     
  -1.68867933407840     
  8.637710234847987E-002
  0.401307542622897     
  6.086881840023499E-002
  -1.51985661068362     
 -0.441592253090710     
 -0.199958889057637     
  0.776882730553231     
  0.595080863957785     
  0.558731471761040     
  0.564844522562298     
  0.282818055360664     
  0.156466282611618     
  0.295953240859381     
 -0.545340924217351     
  0.975657481939185     
 -8.195587573671251E-002
 -0.383747175812129     
 -0.258371039072247     
  0.713774274951968     
  2.855091266091603E-002
  0.282200404845566     
   1.00872369510175     
   1.22541259948412     
  -1.18443111307237     
 -0.215879194999910     
   2.09340239647573     
 -7.016198110453498E-002
 -0.133026541479147     
 -0.605898884146031     
  0.416193882241847     
  0.619410242609276     
  0.276712704184991     
  0.583017401855849     
  7.096774308821413E-002
 -0.608157286333826     
 -2.477451587747776E-002
   1.35277991057970     
  0.393305697109646     
  0.726532069614918     
 -0.586346462839136     
  0.959086472640228     
 -0.398975015192743     
 -0.759236190438793     
  0.723566681353020     
 -0.460472867987832     
 -9.695880143769509E-002
 -0.149307885702819     
   1.27033084046084     
 -1.216316612134953E-002
  0.700343168542642     
   1.27193281980736     
 -0.128721096424697     
  -1.64455057302419     
  0.749920036682589     
  -1.07012750104529     
  -1.26990307604857     
   2.08870835324767     
  -1.87906918467320     
 -0.931533774200213     
  0.586421103571035     
 -0.898956782015873     
  -1.43163852093284     
  4.921318515025572E-002
  4.888261045534813E-002
 -0.970723476068899     
   2.46964248686111     
  0.128000383331195     
  -1.35135110236401     
 -0.155937477537661     
  0.346482027843458     
  0.330598898911344     
  0.618436602616546     
  -3.52102805381622     
  0.414537788766559     
 -7.183583232915315E-002
  -1.13444122270122     
  -2.48046749436020     
  3.536421070128329E-002
 -0.820958615482811     
 -0.728282245366186     
  -1.44581291931819     
  0.570781396315997     
  0.271917400318492     
   1.43672547486418     
   1.12168693439084     
  0.613698161141092     
 -0.443740634548004     
 -0.564069160483287     
   1.53193185364079     
  0.413739466601163     
  0.754892026372419     
  0.407579948832490     
 -0.262670178483748     
 -0.672510839502258     
   2.03997857908883     
  0.482692254230221     
 -0.689163576470614     
  -1.56438273457997     
   1.48090319365867     
  0.127929152564681     
 
  0.610284372259973     
   1.03497100057223     
   1.38716936072407     
  8.052403829325065E-002
  0.746178957658417     
  -1.38450208779423     
 -0.429834310527702     
 -0.801672278154268     
   1.78043178055833     
 -0.218268874513431     
 -0.205210641411624     
  0.860118771766630     
   1.59975027088885     
  0.314106693432607     
  3.594794423709177E-002
 -0.283353662874217     
 -0.966733977772603     
 -0.113655763176262     
  -1.01074951608214     
   1.08558178189139     
  6.954396429500678E-002
  -3.34612529986255     
 -0.327350354536339     
 -6.951206853602335E-002
 -0.452426796971583     
 -0.284343609552200     
   1.08261173368101     
  -1.05314330233332     
   1.94493212251436     
 -0.366885255393102     
 
  -2.15569389102631     
  0.830352212440704     
   1.04397558337051     
  -1.49033937938454     
 -0.658189725035735     
  0.796949878055450     
  -1.34710180991552     
  -1.99590854902404     
  0.396250380970819     
 -0.742954259786039     
  0.453566000055330     
  -1.36178377555897     
  0.400210020914335     
 -0.591892835673147     
  -2.98609886331061     
   1.58016040375031     
  0.324437179003267     
  -1.75894187968181     
  -1.51678628038179     
 -0.687657504551168     
  5.639317532896892E-002
 -0.349048422419854     
 -0.195570432219906     
   1.01056888167652     
  0.474879190743570     
 -7.227942753806897E-002
  0.167628765863525     
   1.79506881171975     
  0.301240527439005     
  0.988052302866955     
  -1.33376368118026     
 -8.330543234103144E-002
  0.774827026641850     
  0.600976678163956     
  -1.39086501558820     
 -0.383813845830008     
   1.51049879621211     
 -0.196462831636943     
  0.373703972644269     
  0.653235515388934     
 -0.704070496180664     
 -0.753198907615996     
 -0.140524890320074     
  -2.97899813648195     
  0.367869327538557     
 -0.241682840418212     
  0.694325840292512     
  -2.14320316357234     
 -0.889831938841228     
  0.980022169486552     
  -2.60415863021071     
  8.251901011651262E-003
 -0.455627887545088     
  -1.27928118142939     
   2.19404099810374     
  0.630384182943441     
  0.142390546945900     
  -1.22116911239931     
  3.853769617148214E-002
   1.25451805282600     
 -0.394450390291745     
  0.221804060933841     
 -0.930633877611338     
  -1.14630324868270     
  -2.46197128778770     
 -0.193183206135112     
   1.03958354148131     
 -0.589715829439566     
  4.287845296143602E-002
 -0.166034682720433     
 -0.407950808457556     
  -1.95386553276757     
  0.205960397444279     
 -0.493953356158448     
 -0.831762592224069     
  0.848289702991702     
  0.470971372721659     
   2.30342022350615     
  -2.92462993326366     
   1.67490882623437     
  0.471349436357650     
 -0.505206004430810     
   1.33351987338050     
  -2.33645613605938     
  -1.31566598967314     
  -1.77378428731171     
  0.152951691763514     
 -0.441426788809769     
  0.498915680201012     
  0.856606756220733     
 -0.415516187761418     
  -1.76067643214004     
   3.87636924330147     
   1.38714474487924     
  -1.15639481325402     
   1.49250385414356     
  -2.11598896085582     
   1.54991474743934     
 -0.360214795371595     
   1.36721143024077     
 -0.306907735822605     
  1.547446346387959E-002
 -0.302052405179543     
   1.69053680403222     
 -0.304409519621954     
   1.96114760170730     
   1.71044217931851     
  -1.29106499555138     
 -2.719939300264257E-002
 -0.867659110321448     
 -2.150242561520009E-002
  -1.03630090143162     
 -0.446810130557894     
  -1.81489254819072     
  0.448288909564116     
  0.586793493704337     
 -0.592161380525589     
  0.447072355083530     
  0.219979313047862     
  -2.12467615777421     
  -1.45675603472138     
  0.761124813925063     
  0.616675323542260     
  7.463392249016644E-002
  -1.45238386618065     
   1.22158095738773     
  -2.16248905615791     
   1.09720750946047     
   1.16565619141247     
  0.114551485546341     
 -0.730501013929503     
 -0.994290677033375     
   3.07357777822091     
 -0.259314450921962     
 -0.266361889655918     
 -9.876395938209387E-002
  -2.10016959814888     
   1.31983286711563     
  -1.65035263523133     
  0.620522788990699     
  8.621752496741611E-002
   1.99715162143484     
  -1.08768776092782     
  0.231013703120753     
 -0.550752384971003     
  0.491647808417369     
   1.10746908618861     
 -0.419600342522120     
 -0.428406836299124     
  0.435217147718008     
  -3.17906611338499     
  0.602488201146264     
 -0.980089087080259     
  -2.26013662220433     
  0.217898299549624     
 -0.612731447446574     
  -2.36758295293007     
   1.71839648577257     
 -0.826492348779912     
  0.454616681313638     
   1.12222133052246     
 -0.626123368586553     
   1.27085574970828     
 -0.786634939522445     
 -0.539882228891136     
 -0.736903874976944     
 -0.121962793170520     
 -0.134957797284869     
  -3.69580881294161     
 -0.116285711559356     
  0.968179606177881     
  0.463706211536664     
   1.94036899794997     
  0.446213205602788     
  0.526549570481978     
  -1.03665338594562     
  -1.29027922509109     
 -0.242895877829371     
 -0.370087565365206     
  -1.94959469015057     
  0.299709852192370     
  0.721164641263844     
   2.59221109720300     
  -2.20371590673108     
   1.78126119508679     
  0.217013366228914     
 -0.735750976385186     
  4.914823867839038E-002
  7.482169783281292E-002
   1.47508970935015     
  0.316218376682169     
 -0.319594754504336     
  -1.43687278765124     
  -2.31712305441073     
  0.716797436408101     
   1.92629320230148     
  0.620819972445917     
   1.37564265682168     
 -0.485520241718188     
  0.974204337836091     
  -1.78245266076732     
  0.185647939941355     
  0.469820128375983     
  0.969739437108410     
   1.15342671838128     
 -0.767267705542459     
  -2.24643009097647     
  -1.14511571795199     
 -0.415803931231645     
 -0.141526625328259     
   1.13349104697588     
   1.23024140181683     
 -0.628534251039792     
 -0.861366735885427     
  -2.22692152454875     
  0.335189911136899     
   2.34212327909142     
  -1.69925589575885     
  0.174782714319961     
  0.357466129891529     
   1.41859361976631     
  0.278605343018453     
 -0.760750974530298     
   2.25673514187220     
 -0.273820596396005     
  0.230673923508597     
 -0.677154337577706     
   1.03292472009941     
   1.63845129851618     
 -0.260233211197060     
  0.558118218476922     
  0.889785798803693     
  -2.49692346189227     
 -0.760967952316169     
 -0.485982631232393     
  -1.54442065064838     
   2.36763360129624     
 -2.690933428495040E-002
  -1.12378982966120     
 -6.518822005069570E-002
 -0.558506167434835     
  0.722639539206624     
  -1.53679173745219     
   1.36230827294281     
  -1.44365087680833     
  -1.54152282368813     
  -1.60714658781737     
   1.70330393928236     
 -0.712227677093350     
 -0.670941061097774     
 -0.314525605154926     
 -0.461633458937260     
  0.652416137291116     
   1.11074488950192     
  0.468988537938832     
   1.48694698376055     
  -1.66898556177738     
   1.35266858068673     
 -0.339260168552434     
   3.32968422227213     
  -1.11692733853451     
  0.293541853952632     
   1.32873324387779     
  -1.20719111229386     
  1.269323867909875E-002
 -0.652348235236753     
 -0.363920892707793     
   1.66967537952680     
  0.260728507484857     
  -1.00225582813226     
  -1.03174855434239     
  0.658780489380378     
  -1.31287147502137     
 -0.279912189386535     
 -0.252949340239483     
  9.714470491006544E-002
 -0.894602669293040     
 -0.443207378434718     
 -0.836607591096508     
  0.273574712215730     
  0.572155788737723     
  0.937797998310376     
 -0.558377948220575     
 -0.111122694772250     
  7.312500671238661E-002
 -4.404265622431271E-002
   3.30723746900597     
 -0.803741977728759     
  0.234342653722642     
  0.554675875232832     
  0.893074836351241     
  0.309660919663918     
 -0.459175116589129     
  0.155760040307077     
  0.624332124015444     
  0.725798901654040     
   1.77242561241254     
 -0.920839436333535     
   1.34477118624132     
 -0.838206693073680     
  -1.42859909327348     
 -0.940003356113725     
   2.07713591205931     
   1.63961177174891     
 -6.602675866629541E-003
  0.400337417265473     
   1.45492770953112     
 -0.373620557003820     
 -0.509419653932935     
  0.160566053150522     
   1.26662575395639     
  0.557209510210041     
  1.008144657211472E-003
  0.284772257734020     
  0.194110115991170     
   3.30548727784519     
  -1.78795052087426     
 -0.235177099448454     
  -1.46296899539594     
  0.341378798318670     
 -0.928174546042519     
 -0.375165989703455     
 -0.436710160601240     
  -1.93109880695145     
 -0.263214278706304     
 -0.788628871458234     
  -1.11704148355828     
  0.390893183894057     
  -1.82906464339444     
  -1.21887969603190     
  -1.10653504785811     
   2.20287607779491     
 -0.714130004264343     
 -0.267659234092312     
 -0.487209694097311     
   1.09401007025072     
  -1.05878083030714     
   1.96756833152427     
  -1.02730953129903     
   1.99567127084521     
  -1.08932192697513     
   2.08425856157487     
 -0.968281278925392     
 -3.244673855967053E-002
 -0.583215300201110     
  -2.42553268189779     
 -0.546438896468676     
  -3.08359084123521     
 -0.759854212085579     
 -0.223548852928581     
  0.355834897133192     
  0.354423588544950     
 -0.391857520782348     
  0.117079071808615     
  0.734749589650860     
 -0.977738801426209     
 -0.396133950758447     
  0.187033334915501     
   1.57657771480687     
  0.910650437611237     
  -2.04784981097828     
   1.45450581516148     
  -1.00519457188963     
  -1.76487763884613     
  -2.81144486130313     
  0.390706102654573     
  -4.51104837439677     
   1.25053731082681     
  4.309248919937082E-002
 -0.394395921282938     
   2.03377631631454     
   1.24405127076902     
  -1.33981310317808     
   1.00648335090142     
 -0.170543916940826     
  0.609586173899779     
   2.30864839281859     
   2.65377909716267     
 -0.890763288990765     
   1.44882802954213     
  -2.00677137599180     
  -1.59992060698741     
  -3.57151987261360     
  0.758033544694236     
  0.741357744488502     
  -1.11954327249594     
 -0.374062595674990     
  -1.46708455264516     
 -0.307095135089957     
 -2.038857173556045E-002
  -1.53068416018906     
 -0.409880424293839     
 -0.913503796770921     
 -0.231557806740338     
  -3.36904221657261     
 -0.883140209870076     
  0.517251215508559     
 -0.357432601862626     
 -6.626775989590815E-002
 -0.160618532360516     
  0.979503493704775     
  -2.07698901296045     
   1.12045253688734     
   1.54878969075498     
  0.693887068785541     
  0.732215875781310     
  0.661980370959782     
  0.252019187596906     
  -1.94939570307190     
  0.556706541978010     
  0.765088061836519     
  -2.08430545814191     
  -1.15101702362537     
  -1.66615560046459     
  -1.18688383336243     
  -1.11330026642986     
  6.165507296830462E-002
  0.561851402259625     
  0.967076919058832     
  0.226775804652346     
  -1.70064711094514     
   1.18264488348404     
  0.175844581246820     
 -0.763357780731428     
  0.312810547319352     
   1.77946512034336     
  -1.02448612175794     
  -2.36570784873257     
  0.887005753254212     
  0.210637447048659     
  0.673521625649369     
 -0.750833409758049     
 -6.465748070381509E-002
   2.19201037870975     
  -1.90376416700177     
 -0.685748112067278     
  -1.49149664643370     
 -0.549013113235434     
 -0.997801699948063     
 -0.256684001166161     
  0.578156714491116     
  0.728716089251233     
  -1.25959155167756     
   1.32786101961897     
  0.458453851103670     
  -2.39538094149079     
  6.725306842176997E-002
   3.10684744962022     
  0.453454965520867     
  0.204445792683246     
   1.78001420753509     
  -1.73710994291806     
  0.433341254115160     
  0.961598423717961     
  0.695236509939345     
  1.652061280854273E-002
  0.210681668483554     
 -6.489541012073255E-002
  0.763202233446865     
  0.169031737491638     
 -0.601732953136272     
   1.06757842915020     
  -1.11002579931631     
   1.88630393482262     
  -1.17980019955702     
  7.586800296002019E-002
   2.64812725091418     
  -1.33090882034913     
  0.541107380802500     
 -0.706871555797286     
  0.139729760509108     
   2.61577212553212     
 -0.994486840434167     
  0.147166220237374     
   1.42216700904911     
  0.525358363680229     
   1.19030704053216     
  -1.65972358007356     
 -0.992741076603427     
 -0.371576843757939     
  -2.55305001125651     
  0.504064802528000     
 -0.500704993885167     
 -0.922499526883358     
  -3.16948138011785     
  0.811555711873571     
   1.15672171838629     
  4.838493041344193E-002
  0.994142175837369     
  -3.87165489644698     
  0.263393900703112     
  0.132096825868948     
  0.481296353243281     
 -0.798912478603759     
 -0.914780934878825     
  0.947342516252011     
   1.49566107842002     
  0.933229207611919     
  -1.78592180987705     
  4.714901506359288E-003
  0.218448098652168     
  1.359684003450800E-002
  0.108891421730168     
  -1.03536291962364     
  0.978633118308332     
   2.45257755382754     
   2.01509119665069     
 -0.192599036712775     
  0.879584881668038     
  0.129701883537994     
 -0.294692449412412     
 -0.651769819204127     
  -1.45434512376021     
  0.935897280465623     
   1.87310161416460     
   2.65030818600774     
 -0.655997481245935     
  -1.71998297369418     
   1.02230900438277     
  0.230535442698657     
  -3.11313799590687     
  -1.57436275061778     
 -0.280396501626908     
 -0.580951364913142     
  0.145469286409817     
  -1.67637588211900     
  0.200384209548071     
  0.243704623651283     
 -5.820590881401295E-002
   1.02018663138955     
 -0.196182538992470     
 -0.635802110450792     
  0.134635485656867     
 -0.680165133778990     
  0.399937218649819     
  -1.16303521860086     
 -0.217757828665842     
 -0.437072349264570     
 -0.198812020756158     
  0.877487300697195     
   1.52466321855582     
  -1.87647732768981     
 -9.729693340896906E-002
 -0.467220481863463     
 -0.881763733705365     
  6.626782036673400E-002
  -1.72024026227844     
  -4.26434322636989     
  0.960955724596626     
   1.10040603640567     
  0.570437650981744     
   1.72052731531434     
  -1.36554371456689     
  0.339584660663927     
 -0.109047323858163     
 -0.469473020779117     
   4.13964706488445     
 -0.200666704834233     
 -2.441417222875747E-002
 -0.309381164544579     
  0.191230236425236     
   2.30655307309649     
 -5.218719424894595E-002
  0.173315921192347     
   1.73425778548124     
   1.60889622115607     
  0.183371978656412     
  -1.06494723547012     
  -1.46242489918109     
 -0.919132141318706     
  -1.97369086115970     
   3.44643896584288     
  0.143569843174339     
   1.49390369646211     
  6.501602012217669E-002
 -0.291286428992651     
   1.10902408687714     
  0.175303680014286     
  0.804650081189449     
  0.207308606759512     
   1.46858767583072     
  0.607789246926440     
  -1.72570389367784     
 -0.355874356354654     
 -0.871208943793664     
  0.537662708060742     
  -1.62930512953654     
  0.296576705954564     
  -2.02761621170685     
  -1.48406810409174     
   1.65190964974900     
  0.699856944132576     
   1.25366649722301     
  -1.73369466882609     
 -0.296654240223889     
   1.14100030802474     
   1.66277018044261     
 -0.367348758414076     
 -0.739777703572894     
  0.741239095408212     
  -1.64175724442818     
 -0.616003733152009     
 -0.542626357989046     
  0.321961830456643     
 -0.157428288988072     
 -0.378851989501413     
   1.60515404312978     
 -0.296639133041502     
 -0.500869289022112     
  0.696970309850672     
  0.481091094883504     
 -0.472379600491545     
  0.315243309005707     
  -2.72659627266220     
  0.468673222435386     
  -1.28394780953028     
  0.766181174749198     
  0.837146522181065     
  0.743488493290318     
 -0.789405775135928     
  0.830583963051203     
  -3.26065458438902     
  0.590085241367137     
  -2.08652849524670     
  0.788172969440758     
  -1.58976450455497     
   1.81688096708588     
  0.277531131848513     
 -0.780481070562553     
 -0.652282479533007     
  0.608960247529864     
   1.27730622991598     
  -1.88549865461721     
 -0.413534553148348     
   2.37742204639118     
 -0.897603462398294     
   1.11988400201764     
  0.900695965467441     
 -0.855483335402696     
 -3.940192576477283E-002
 -0.978258467493709     
  -1.03413192173329     
 -7.376764337102018E-002
  -2.25615810735964     
  0.548326830666898     
  -1.75323240356415     
  0.395825128457134     
 -0.159740457521466     
  -1.54544479114589     
  0.287970056107915     
  0.820622598369843     
 -0.660600963530711     
   1.34189831110540     
  0.428375989547356     
 -0.255892383815732     
 -0.551464566714649     
  0.687046190186764     
   1.15040381678606     
 -6.147721201186960E-002
  5.912144336932212E-002
 -3.908951017171984E-002
 -0.533567285120066     
   1.34074870435901     
 -0.627968763982440     
  0.107523744685720     
 -0.199507898555356     
  0.320648334445742     
  -1.70914743166164     
 -0.881238398808598     
 -0.703812491753605     
  0.428680985770936     
  -1.55893126856951     
  0.827194637520062     
  -1.70300591853734     
 -0.560823707099572     
  0.519956470959264     
  0.187635130160030     
 -5.066850581313455E-002
  -1.27536155798070     
   2.00920420883643     
  -1.73659897489681     
   2.04000929710459     
   1.30697338623839     
 -0.518523232989683     
 -1.766165790808315E-002
 -0.587343122533261     
 -0.998195160371877     
 -0.163464207791973     
 -0.198187116621211     
 -0.977105715463048     
 -0.375537524983586     
  0.595721593220349     
  -3.37353104647019     
   2.48553245569200     
  0.330382779335121     
  0.849060730662721     
 -0.740947302267409     
  -1.27416410765423     
  0.835912444852899     
   1.10836502260720     
  0.480180760299619     
  0.771399952838468     
   1.07309219981043     
   1.61221034681733     
  0.125514719015047     
  -2.18728150444347     
  0.134508216909217     
  0.269305167301383     
  5.480019082383844E-002
   1.66731741033454     
 -0.537921678767284     
  0.866485332238525     
   2.20495665146803     
  0.148798846538264     
  0.623320967267654     
  -1.06266220365983     
   1.62669700395983     
   1.72689662939598     
  8.354651839447255E-002
  -1.50929599388829     
  0.429641102054289     
   1.07822016077903     
  -1.05249885870640     
   1.41759583492747     
   2.02624300426542     
  -1.15527055286581     
  -2.24097530611119     
  -1.75573256386431     
  -1.03556212686898     
   1.59090456935370     
  0.448094648920204     
 -5.961215975730618E-002
  -2.54146324550912     
 -0.646575212460403     
  0.726349299932251     
  -2.12374189170252     
   3.02824618654820     
   2.07457536409605     
   2.84432848475020     
 -0.675320776975939     
  0.699703391253943     
 -0.462512465571659     
 -0.677238899876951     
  0.728760197431634     
  0.595846947444591     
   1.59226011281682     
   2.62735207749624     
  -1.33951855540968     
  4.061533322763305E-002
 -0.946846435826313     
  -1.39864813106653     
   1.21895382076950     
  0.648003560098157     
  0.141246417721098     
  -1.13261280797792     
 -0.761390136434029     
  0.839315791802906     
  -1.10247450679400     
  -1.30601521121209     
  0.521673694849597     
 -0.197815115779930     
 -0.709705960144995     
 -0.834394483151328     
  -1.50394049007717     
  -1.04573345881297     
   1.04538728210504     
  0.858295512079473     
  0.149168715045377     
   1.52447842924058     
  0.387617176452750     
 -6.805514416421953E-003
 -0.598928437116476     
  0.924577521709158     
  -2.19346515745108     
 -0.575436624879418     
 -0.689321409781206     
 -0.362007556501133     
  -2.03657404746858     
  0.356205697277370     
  -1.48858766079531     
  0.634042784857513     
   1.63309748701321     
   1.33152911967302     
   1.18920389705466     
   2.19141264918711     
 -0.737421138416761     
  -1.42658465053290     
  0.455185792893278     
  -1.91584813049081     
 -0.125140907501823     
  0.860929019858506     
 -0.911276135937008     
  -1.33368966705352     
   1.75324198365817     
  -2.90968317225150     
   3.12922484221477     
 -0.834566654628823     
 -0.218392129910603     
   1.11186658625328     
 -0.308205059833191     
   1.57450160399506     
  0.530914383733848     
   3.65860677057899     
  -2.55578108884270     
  -2.28390083923430     
   1.83564038907386     
   2.07738888535592     
  -1.18559621204406     
  0.519754002345301     
  -1.45159269319269     
 -0.425784365211640     
 -0.428006544720892     
  0.951203017864050     
  0.674420352129937     
  -1.67301105768761     
  0.571156445793456     
 -0.558049819679343     
  0.227994524227762     
  0.201024884999436     
  0.288071601383817     
 -0.454314080375106     
  0.629468711652541     
 -1.977897486755778E-002
  0.140587558202078     
 -1.991809165335345E-002
 -0.628234447893688     
   1.11295453573811     
  -1.22438461947609     
  0.795429105650088     
  -1.36007764098369     
  0.675291833818758     
  0.904634183363825     
 -0.746663814073774     
 -0.550671298543865     
 -0.899716822006756     
 -1.158325459756614E-002
  0.649638348510421     
  0.285284303966951     
   1.10527775999885     
 -0.688073805713704     
  0.225756541403996     
  -2.22508939268050     
   1.89588543908953     
  0.776969676200088     
 -0.517925193772651     
  0.168176091639556     
  -2.99348385471293     
 -0.917285064497402     
  0.510592427060629     
  0.104549222378961     
   1.00344938510796     
   1.57773471309423     
  -2.04033231154960     
   3.59894808063149     
 -0.613280951410083     
  0.995137158238535     
  0.847056131966039     
  -2.16192037533946     
  0.159015593843707     
  -1.83643032985125     
 -0.800415070034638     
   3.33496774217383     
  -1.08394139004147     
   1.81668405287325     
 -0.100166113264731     
 -9.231519011887988E-002
 -0.646476987104404     
  -2.42772583537935     
  0.735528540146917     
 -0.504425098032011     
 -0.314686733388050     
  -1.76768560369697     
  0.983031227406530     
  0.533656595780353     
   1.02145616787682     
  3.391921147511326E-002
 -0.356132358906122     
 -0.601117798921022     
   1.44996290080353     
   2.00302417471086     
  -2.17603114689485     
 -0.277843067985162     
  0.806116435490981     
 -0.354136597325976     
  0.376392746226408     
  -1.92739408388501     
   1.02047975269048     
  0.153123787429414     
   2.56493085539592     
 -0.844127057435414     
 -0.901305571939595     
  -1.35041913435599     
   1.26594742247820     
 -0.501955362053044     
  -1.06791528307571     
  -1.91427498225710     
  0.176157573414301     
   1.25950699443381     
  5.709242810148377E-002
 -0.601177479980326     
 
  0.549869112054624     
  -1.12970633506742     
 -2.270088483413736E-002
 -0.824369480111672     
 -0.526312706770505     
  6.193793583784523E-002
 -0.425178070996193     
  0.106701177556021     
  0.206452098283339     
  0.511446176308373     
  -1.47787339378816     
  0.923584319182488     
 -1.366595070327378E-002
   1.42553540311672     
   1.07725963193278     
 -0.556498729784195     
  0.952773300778483     
  0.103154108726284     
  -1.69797362406904     
 -5.793652661012584E-002
  -1.48185854922132     
 -0.754708916871497     
  0.969126591494423     
 -6.119522756738941E-002
  -1.00081709922529     
  0.120679630513696     
   1.29810471134719     
   1.09786818536417     
 -7.776718460750331E-002
 -0.327680379325422     
 
  5.000141470961470E-002
  5.250613852207736E-002
  0.167651531681838     
 -2.313210271187712E-002
  2.911446729332552E-002
 -3.800468503458151E-002
  0.139358194267968     
 -0.122253284022138     
  7.713966447916835E-002
  0.349579402393133     
  8.948274780106358E-002
  2.625461845914426E-002
  6.834219434580109E-002
  0.172005660725348     
 -6.894839889455864E-002
  0.123340057141078     
  0.151288877242987     
 -0.186756469104921     
 -0.102444491300205     
  0.233295057140593     
 -0.215208731100760     
 -0.128283691070824     
  6.209625511385647E-002
  4.108942966484938E-002
  3.174717837540357E-002
 -0.140009044303933     
  5.497819863375962E-002
  0.381756583723425     
  0.263434689756479     
 -0.156168599880319     
 
 -6.796993440332245E-004
 
  tansig  tansig 
