     48 -    30 -    30 -     1 
rmse=  44.8384meV
 -0.691936452385164     
  0.162292682719433     
  -1.60378276895007     
 -0.322048258178042     
   2.17012196485405     
 -0.198832293983516     
 -4.806107364386858E-002
  -1.40594211674655     
  -1.49184701447017     
  0.465307333751200     
 -0.569092266193861     
 -0.745269734167454     
 -0.604011944239611     
 -0.213455401351835     
  0.587550127269129     
  0.352615953260256     
 -2.755007676005913E-002
  0.427472094452028     
  0.262493570118902     
   1.57191773287491     
 -0.893687445438644     
 -0.110947904290789     
  -1.16856190496793     
 -0.934590971675252     
 -7.155175310726092E-002
   1.29576366812812     
 -0.475715412345193     
   1.19188247320932     
 -0.486245390841177     
   1.07254813726780     
  0.101693104383959     
 -0.331552220224929     
  0.498284640874885     
  -1.00677606353732     
   1.20664317412741     
  -2.47296062295456     
  -1.66569344658864     
   1.12148263141637     
 -0.227128783200860     
  0.480717318327017     
 -0.471868148744465     
 -0.329694944851665     
  0.751123689279565     
  0.196963901612754     
  0.651515441787780     
 -6.419275387460688E-002
 -0.712846823023259     
 -0.546673797636474     
 -1.661712121077361E-002
 -0.428106325084176     
   1.75622049596000     
  -1.85706691983849     
 -0.553293409971264     
   1.49525647174830     
 -0.946090249298196     
 -0.785651337651610     
  0.722386356364180     
 -0.972876886773958     
  0.238656973342488     
 -0.643554318746257     
   1.32286762476394     
 -7.330080459026019E-002
  -1.06240838841434     
 -0.491832271933254     
 -0.152767643783444     
 -0.613853701700982     
 -0.766193270672418     
 -2.232781389279073E-002
  0.416114714586376     
  2.995300536834950E-002
   1.32720714621226     
 -0.426410489615055     
  0.617324592014944     
  0.919954570343439     
  0.457953898128374     
   1.08064626958564     
 -0.988091723238992     
  -1.14636155663593     
   1.09262623274743     
 -0.590907381045632     
   1.15466467025406     
 -0.374610614058325     
  0.371643692702088     
  0.398634017683125     
  -2.08109496382923     
 -0.127341790811095     
   2.02040668357771     
  0.297361841850692     
 -4.840120108561490E-002
   1.67032222565106     
 -0.124165993959537     
  -1.41455158161214     
   1.63268227166199     
  0.892288508032134     
 -0.475814700273519     
 -0.115337618301756     
 -0.189870455963689     
 -0.567803959943419     
  0.754787038233861     
  0.162840588721320     
 -0.502704008284297     
 -0.136843477315776     
  9.560208002857588E-002
  3.340850134387839E-002
  0.355309602087077     
  9.090506343422960E-002
  2.124693708378715E-002
  0.341466388354719     
 -0.145819992258536     
 -0.448080104229448     
  0.111492902656794     
 -0.173683984606914     
  2.285055264508139E-003
  0.398880855097834     
 -0.491118494660127     
 -0.409503909896860     
 -0.505957633490917     
  0.817738960448699     
  0.672051793784263     
 -0.916451762350390     
  0.507970729689592     
 -1.876296661761345E-002
  0.418607341345159     
 -0.287353516262813     
 -5.531852235347080E-002
 -0.135082669705928     
 -0.392663796527484     
  0.117188188977764     
 -0.706029649454657     
  0.123530045683255     
  0.113208148743726     
  0.317065121338938     
 -1.495184726122681E-002
  5.100246316491176E-002
 -0.474794058327527     
  0.114404653421629     
 -9.097506235663633E-002
 -0.557974869638939     
 -0.359547330783749     
 -0.113269714368611     
  0.413092857433518     
  0.475138728654166     
 -3.421566393671376E-002
  0.156521563637471     
  9.981683833525722E-002
 -0.108897132627568     
  -1.84846182578319     
  -1.65408592079903     
 -0.498409044202649     
 -0.825219744323664     
 -0.318626111418629     
  0.820482421794896     
 -0.614980611410499     
  -1.67583356268873     
 -0.392963781440066     
 -0.136186337977359     
  0.279635089322716     
 -0.603142876160703     
 -0.520124610189826     
  0.731021269977909     
  0.888983011176885     
  9.995845818729292E-002
  -1.29641729187524     
   1.70784812635827     
   1.63568203477602     
  -1.83140516726642     
  0.530542050463602     
  0.745415777302788     
  0.281517727321815     
  0.552502690601430     
  6.602227769880183E-002
 -0.532038339726041     
 -0.587232914173688     
   1.51523384521923     
 -7.016742759670083E-002
 -0.593949682730710     
 -0.434978916811977     
   1.08126451287632     
  0.331581107945840     
  -1.12899996056109     
   1.20816884994015     
  0.266549202480086     
  -1.01105700560822     
 -0.577120534975494     
 -0.165235426703822     
   1.16454886700723     
  0.984523514312232     
 -0.273735829347780     
   1.26566216009954     
  9.587265415904202E-002
  0.832739427177036     
  0.375523590270326     
 -0.300590737681474     
 -0.877961732141081     
  0.135244631871136     
 -0.337650014043786     
  0.698923654366163     
 -0.346869702126795     
 -0.963950724997862     
  -1.62835566168750     
 -0.628985367985553     
  0.739505193574772     
 -0.143217309067823     
 -0.555202873013204     
  0.311731461624329     
  4.199788791112733E-002
 -0.336038367599666     
 -0.483397328737749     
 -1.776663384079949E-002
  0.486042428869823     
  0.195128359753140     
  0.227321135739660     
  0.665830882480940     
  -1.41564732216490     
 -4.712097407520094E-002
 -0.256801016481877     
  -1.52667934356374     
 -0.269264990168523     
  0.122933181752601     
  4.603342242358123E-003
  0.703352757430271     
  0.191022766804317     
  0.340015346700659     
 -0.427491744224216     
  -1.19639021976680     
 -0.174274556874161     
 -0.445396604589867     
 -0.336670226643410     
  0.534984159016718     
 -0.223172386025912     
 -0.376011651131272     
  0.427445043996140     
 -1.449474844634590E-002
  -1.11398126823102     
  0.135375815851507     
 -0.113445755875317     
 -0.748244859197705     
 -0.121168695216145     
 -8.832071748379391E-002
  0.162184364975209     
  0.539909892313739     
   1.24331342424418     
 -0.242698165952856     
 -0.666943497491371     
 -0.545568848672622     
  0.722998277315837     
  0.523665560926674     
  0.282179909587197     
  0.161685322055924     
 -0.847877631261208     
  0.452885805049065     
  0.536614982030691     
  0.234009520868815     
 -0.492088904058303     
  0.449134896997098     
 -0.309097235287294     
 -0.609663827306194     
  9.251602983480131E-002
 -0.510803965799634     
  0.172292946165211     
 -0.869863228557215     
  0.684213603493885     
 -0.815145907298056     
  0.723769721047952     
  0.112317132782642     
  9.997072510296112E-002
 -1.299354508364869E-002
 -0.502825709224500     
 -9.868413360638362E-002
  0.465733421746583     
 -8.059111777841799E-002
  0.532941023847304     
   1.12856628682891     
 -0.117146081152313     
  0.618864504702249     
  0.245020640786181     
 -0.686143449652228     
  0.401326491611802     
 -0.166960283358802     
 -7.626939494486804E-002
  0.397079067820906     
 -0.131462387510456     
 -0.375502612481114     
 -0.402025794495422     
  0.887297487866021     
  0.334344092776736     
 -0.289505012152388     
  0.514105093111625     
 -0.531553236769659     
 -0.192810055634074     
  0.366704342019773     
   1.61417428698275     
  0.800972919255440     
 -0.576334159476318     
 -0.364675514008615     
 -0.206781837238257     
  0.825695412620822     
  0.164635022261561     
  0.558372872116941     
 -8.502530531507066E-002
 -0.239768885613975     
  0.612007078896201     
  0.282364364556070     
 -0.407092103797097     
 -0.133854451351583     
  0.214592728319957     
 -0.773671668763462     
 -0.930881763325740     
  3.205727867929808E-002
  0.206188163653876     
   1.52766641226749     
  0.508150809852912     
 -0.867352445516807     
  0.891660536671350     
 -0.422726163924823     
 -0.658477603628050     
  0.488163307033356     
 -0.867240717396635     
 -3.211309895795663E-003
  0.625377133182077     
 -0.981335305732267     
  0.398610622513735     
  -1.17860432384767     
   1.50160014216601     
 -0.489297792843189     
   1.32302208180593     
  -1.78882876235737     
  0.305439096529551     
 -4.508324903318768E-002
 -0.596055765985252     
 -0.235475837872657     
  0.183111841883663     
 -0.475660832273756     
 -0.418696104581004     
 -0.555533630263254     
 -0.673335037754367     
   1.11735036706020     
   1.20897553744983     
  0.884371765513810     
 -0.546576731230935     
 -8.246957624391857E-002
  0.300688911834013     
 -0.190303058592595     
 -0.235534428351561     
  0.429309917211345     
 -0.366387349570036     
 -0.270534554664322     
 -0.219961735773713     
 -0.261997994519378     
  9.066706258571519E-002
 -4.766227425596335E-002
 -0.228603345832276     
 -0.638724821850837     
 -0.437470605246558     
  0.570903350293859     
 -0.245636820104013     
 -0.154104935476470     
  0.222838671408102     
  0.529159949154959     
 -2.345464072726873E-002
 -0.257433440745141     
 -0.306100731667322     
  0.498876300796430     
 -0.317772424506015     
  0.170029012680260     
 -0.444852262348440     
 -0.299743593430910     
 -0.200298280762697     
  0.930400742027961     
  0.175229893972390     
 -0.423142964107914     
  0.738543668201853     
  0.186419082641291     
  1.854190690324343E-002
 -0.716833672951081     
  0.196571009656974     
 -0.241870272884877     
 -8.304826367840314E-002
  0.596955377499967     
 -0.534757573045803     
  0.551343219598467     
 -0.189260729088769     
  0.342181583324545     
  0.253251542051384     
  0.206643991794774     
  0.772597756492392     
 -0.450210096604699     
  -1.60641684879901     
   1.12706233546021     
  0.928659076205518     
  0.461468043045035     
 -0.108582907242903     
  0.524738770957461     
   1.21449436281842     
  -1.49955835813253     
  0.531375172395720     
 -0.293674465123335     
 -0.200599519809932     
  0.364695923387866     
   1.25125216099670     
 -0.345180934285532     
  0.749930297856642     
  -1.02129355392754     
   2.27848819334590     
 -0.678517956270676     
 -1.902490178144454E-002
  4.039142763383340E-002
  0.210612091746572     
  -1.03607884542266     
 -0.694166074858736     
   1.23407157295321     
 -0.609192057103286     
 -0.380229527174760     
 -0.141678821479320     
 -8.934059406217595E-002
  0.115288784548208     
 -0.224419034446636     
 -0.225928151764277     
  0.853317626168960     
  -1.01862989256179     
  0.365227825175097     
 -0.938341362053090     
 -0.433824903925921     
 -4.660390018132896E-002
  0.645005921730437     
 -1.149380695805363E-002
  0.261951941813950     
  0.386282792803427     
  0.420695710419203     
 -0.362847838348792     
 -5.660029090863011E-002
 -0.588232043663529     
  0.458238638256548     
 -7.201710184285887E-003
  0.344534120596569     
  -1.65867977053370     
  0.901487111897864     
 -3.808206411448066E-003
 -0.491356890815694     
  0.284584563374032     
  0.491816885368997     
  0.676955678580432     
  8.684270799647682E-002
 -0.111363079713614     
 -0.708218431934387     
  0.490991940119826     
  0.601077508342752     
  0.424936424284694     
 -0.349375097433752     
  0.547170812805222     
  -1.41035343730278     
   1.65021766721925     
  0.882244169469620     
  -1.24733053575809     
 -0.622110499842287     
  0.245951540730547     
 -1.909571972491226E-003
 -0.992306874633504     
  0.253318955119424     
 -0.607438141129944     
  0.135257357969919     
 -0.450408877814294     
  0.427455157372693     
 -0.324786573165746     
 -0.299901753120972     
 -0.142755897640798     
  8.061577457734465E-002
  0.820389003918705     
 -0.689162615509033     
  0.131315136774101     
 -1.465427959674109E-002
 -0.195867457552131     
 -0.151826547927291     
  5.898669463245881E-002
 -3.223506031007177E-002
  0.688084755510684     
  0.183232772855699     
 -0.543597363098887     
 -0.558812406882342     
 -0.417912583393851     
  7.429569702732011E-002
  0.958307805480314     
   1.27540904183242     
   1.82405078422151     
   1.00536765214455     
  -1.58704131606249     
 -0.292957146548918     
  0.112893725778329     
   1.44894997195573     
   1.10301391097931     
  -2.45207511628269     
  -1.11848952486895     
  0.397373997133135     
   1.10245481221144     
 -0.526794655804690     
  0.487817801859657     
  -1.51125327810409     
 -0.438940517998650     
  0.680140559393377     
  -1.21370375592499     
   1.02221845812023     
 -0.755442880069050     
 -0.586450622845467     
 -1.583609053205632E-002
  -1.54478409540887     
   1.25956758376583     
 -9.831221261605286E-002
   1.32736162836751     
  -1.85113156425445     
 -0.799882762859828     
  0.704330683435407     
 -0.119003079707037     
   1.86312503971893     
 -0.814306216204067     
  -1.77950835266647     
  0.129433586517276     
 -6.697620460399509E-002
  0.519826344010839     
   1.01718242511813     
  -1.87253056907916     
   2.20444743312791     
  0.150925549437394     
 -0.362441820230940     
   2.42568139655058     
 -0.491803721890268     
  -1.58961283093755     
  0.489910036728427     
  -1.60948658193742     
   1.25545275209806     
  0.977556712245608     
 -0.169535806480420     
  -1.04524302515486     
 -1.063036864048617E-002
  0.704495313904542     
  0.781570597460135     
 -0.480025847930823     
  0.191429351552489     
 -0.646360413558819     
  0.225670637244818     
  0.374338577129801     
 -0.606141266954838     
  0.121546133480640     
  0.184665219182204     
 -0.428550649491142     
  -1.06619202864208     
  0.943884138234026     
  -1.41535495460078     
   1.37267275668179     
  -1.42467817714277     
   1.46119550690804     
 -0.924044700532377     
 -0.221787456764518     
 -2.343641731997302E-002
 -0.151267873612472     
 -0.323703626269119     
 -7.400133465573067E-002
  0.251168572114850     
 -0.362172204124150     
  6.558823604417745E-002
 -0.277892926300447     
  0.404550422436058     
 -0.103075314971415     
  0.198304567463803     
 -0.188792386292257     
 -0.181422605491547     
 -0.260846790622598     
 -0.155108169947061     
  0.551711549525719     
 -7.959513743767824E-002
 -0.249458297183407     
 -7.854226266524571E-002
 -0.372301485740188     
  0.863852073137286     
 -0.130877586993929     
  5.491792090278435E-002
  0.500096266818070     
  0.979850435031099     
 -0.226694975321617     
  0.111323565099877     
  -1.10023994121806     
 -0.560564248222986     
 -0.726913895699319     
   2.20229049454146     
  0.158868640053169     
  0.220726827996322     
 -0.245782764427148     
 -0.216414287212220     
  0.477659081259973     
 -0.363190334764850     
 -0.516877544443033     
 -0.434822627423320     
   1.04143109199231     
  0.427478980091618     
 -0.599027855514078     
 -0.783928526261306     
  9.242887865408489E-002
  -1.07145143853514     
   1.36460517177915     
 -0.657250556616457     
  -1.16157286040421     
  0.353853344052608     
 -0.478073927755556     
  0.883775956380381     
  -1.00824695947810     
 -6.306810234663617E-002
 -0.521698081563583     
 -0.830443224937189     
  0.111799167445444     
  0.226648969064217     
  0.837693782245527     
  0.825212430832440     
  3.571796523103409E-002
 -0.314924322403284     
 -0.293007254178696     
  1.617647908734411E-002
 -1.941759328714829E-002
 -8.293928469642733E-002
  0.300451188690260     
 -0.486071892469127     
  0.156828327640923     
  0.506376271646394     
  0.923052238382062     
  0.241949076723044     
 -0.720774604862312     
 -0.531523464433299     
   2.43770973932375     
  0.929363283184083     
  0.508972737590407     
  0.557623202256726     
  7.887130546474611E-002
 -0.975666028251909     
   1.17220336304576     
 -0.658175642827012     
 -0.123913336109860     
  0.344969985613286     
   1.31668038722475     
 -0.224343066002982     
 -7.339200831014883E-002
 -9.395809277932202E-002
  0.669563773402749     
 -5.637518039960071E-002
  -1.42574171786478     
  0.515786878537852     
  -1.13916687013918     
  0.447303741504945     
 -0.420295667934657     
 -0.859164903682168     
  0.522907296046610     
   1.14667883460401     
 -0.381220892436790     
 -0.161853664081811     
 -0.446689420488400     
  0.359809852835379     
 -0.376968115039495     
 -0.113970741133969     
  0.814037843194352     
  0.489286499713656     
  0.514696249562945     
 -0.133002318531716     
 -0.928342338616899     
  -1.07274739477186     
 -0.647383423566387     
   1.66013746443938     
 -0.638095883633383     
   1.15051192549976     
 -0.838179474291542     
  -1.15575095009951     
  6.890428127087977E-002
  4.629948009816523E-002
  0.232780817969941     
 -7.812672794433882E-002
 -0.465991662053181     
  0.665680611561968     
 -6.054044114709931E-003
 -0.651181893932151     
  0.192198663972173     
 -0.430365497785409     
 -0.658169727434016     
  0.136063920548827     
  0.849657175886127     
 -0.275507662337235     
   1.06771520183235     
  0.270877691689444     
 -0.866938671051685     
  0.169653009883982     
 -3.959174501047566E-002
   1.56737810218071     
  0.142148335374932     
  0.423944059673319     
 -0.476773385983137     
  -2.25650248824797     
   1.11863184831039     
  0.715274107862552     
  -1.28614972509261     
  0.489146885888434     
  0.414869707985852     
 -0.619914287520272     
  9.216516369610780E-003
  0.822584311838371     
   1.31532147574811     
 -0.683958396423082     
   1.06558276512273     
 -0.496359071050799     
 -0.472500698019754     
  0.583852263568767     
 -0.425289824028845     
   2.29411423802012     
  -1.01197954916431     
 -0.562583303327627     
 -0.359873645125808     
  0.949097411916681     
 -0.538888215274923     
 -3.900673954524773E-002
   1.25874692908724     
  0.166082430204410     
  0.210729948759151     
  -1.09738894854928     
 -0.262937531857391     
  -1.01789503190169     
  9.607298063851331E-003
  0.798202185073303     
  0.314351268405926     
  0.462961748373853     
 -0.246772418941401     
  0.414474488791096     
 -0.896655407949636     
 -0.889273164076751     
 -0.695978395422558     
  0.109489463882767     
   2.08804721241723     
  1.219673638510357E-002
 -0.331385739778581     
 -0.646433703267345     
  0.302849383707067     
 -5.384140845088047E-002
  -1.62283219629171     
 -0.777379157667275     
  0.396351320061633     
   1.77079987592990     
 -0.690049737854198     
  0.807205652045366     
  -1.39429294414084     
  0.435003307269854     
 -0.854747430877624     
 -0.495344901121585     
 -0.349106122469804     
  0.639578820084959     
 -0.688298989404080     
   1.15072550834797     
 -0.322472622317136     
  0.445646214604792     
 -0.954688144131254     
 -0.444138784015672     
 -0.223078377293748     
  -1.58355652652560     
  0.430967363221249     
 -0.266528316692802     
   1.01607352040215     
 -0.134637472305681     
  0.211301229758158     
 -0.426858460586463     
  -1.14275354803272     
 -9.917511300847499E-002
  0.212245914496791     
 -0.819047000377033     
 -0.519189920816228     
 -3.309908285128933E-002
  0.475623565510394     
   1.00844501874189     
   1.26988875367039     
   2.54996317471223     
   2.43627165485383     
   1.56048208717469     
 -0.818713666609041     
  0.191283100849443     
 -0.429043380777217     
  0.489324599994382     
  0.401493180167824     
 -3.173836442257225E-003
 -0.443490289873760     
   1.06183836718486     
  -1.12588721641172     
 -0.393766017901541     
  -1.75815085893557     
 -0.816543048430919     
  -1.71113179230280     
  0.995516363130504     
  -2.00794189947392     
  0.320081903594984     
   1.04586531743585     
   2.27755742526778     
  -1.61382675065318     
 -0.490071331685863     
  0.270877017982899     
  0.797631870278241     
  0.528433950124179     
  -1.18682140761474     
  0.865537683735650     
  0.840386844490082     
  0.736165320391455     
   1.93161978446714     
 -0.657733915133442     
  -1.05844830799593     
   2.84793903304824     
  -1.36574101878785     
  -1.36765025246833     
 -0.909007324804343     
 -9.698995831643983E-002
  9.692827941924487E-002
   1.21118166015481     
 -0.461976179416231     
  7.862735067669793E-002
  0.538039670630421     
   1.21702930989091     
 -0.550028437733601     
   1.49510753463885     
 -0.474564322287513     
  -1.04500410473101     
  -1.17532838158854     
 -0.112100342535393     
  0.435154933210579     
 -0.527127951241724     
 -0.804102920591025     
  0.205032385624303     
 -0.401395402229551     
   1.08012079269535     
  -1.08958857907917     
  -1.14324837833318     
 -0.752854318554080     
  7.216000988587527E-002
  -1.21809580972226     
  0.952831303930022     
  0.413673614216159     
  0.290430251814526     
 -0.804271586173199     
  0.857570381343270     
  1.597457446419090E-002
 -0.405228769574674     
   2.31914803684970     
  0.761886722456156     
 -0.588207408384519     
   1.11203558954088     
  2.057745850186195E-002
  0.614234016010011     
 -0.754179036026406     
  0.846734675829093     
  0.400926009422656     
 -0.841118382868950     
  0.826600718329581     
 -0.715438658614190     
   1.02687743598235     
   1.18397315456515     
 -0.664053294096154     
 -3.505645946728019E-002
  0.259604396224634     
  5.770180247719592E-003
 -0.137738473654645     
 -1.785286454981956E-002
  0.942634534688512     
   1.09164836518889     
 -0.427807479861169     
 -0.271762085290247     
  0.594368150547067     
 -0.936598301052234     
  5.392998284785580E-003
   1.27429904810972     
 -0.638798279026266     
  4.725233366304474E-002
 -0.287248522047861     
  -1.16194723053247     
   1.05435590901387     
  0.555993789242912     
  -2.32276317240184     
 -0.473283735125247     
  0.765332318441555     
  -1.58802030745114     
  0.779941308660962     
 -0.778099062341558     
 -0.115650972762026     
  -1.65209554192455     
 -0.191002752963166     
  0.212576734300374     
  0.329145932760900     
  -1.40605747194941     
  0.817794429304549     
  -1.34839800317194     
 -0.115655858368857     
 -0.179015310511590     
 -6.131602414938941E-002
  0.962594021851082     
  0.510286266118881     
  0.334119992442593     
 -9.220953517327357E-002
  0.707880855266397     
  0.235806132715647     
  0.392651197792636     
  0.383659045483055     
  -1.13796554750246     
   2.14971593113499     
  0.895073373386741     
  -1.04438448642519     
  -1.45266500110976     
  0.550495252163827     
 -9.032741278866227E-002
 -0.873426891428411     
   1.08571581261235     
 -0.104337011266195     
 -0.619196450065467     
   1.28670677584954     
  0.678826369402738     
 -0.599713476714234     
  0.930216309096409     
  0.459110596117654     
 -0.193941808490995     
 -0.697335462008198     
  -1.58642201691787     
  4.816086177338652E-002
   1.27987811487303     
  0.314869097406504     
 -0.714590434050305     
  0.349464932082832     
 -0.818877690870169     
 -5.858306304654355E-002
  0.729021413207953     
   2.40503934428737     
  -1.07713490716969     
  -1.38971593255569     
  0.347985013533767     
 -7.902094852181415E-002
  0.543408196117107     
  0.684748558871554     
 -0.247693760412980     
 -0.837366223649481     
  0.157199785908657     
 -0.781052447619455     
   1.29854584017605     
  0.241982332796496     
  -1.43932955224177     
  0.838725385993151     
 -0.701230586632839     
 -0.723603846148076     
  0.787429770145392     
 -0.251715656035603     
  4.308390522589756E-002
  -1.01229256104314     
  0.512720474607394     
 -0.664394977836495     
  0.650906015752634     
  0.567236522168814     
 -0.647825814422004     
 -6.848861347782922E-002
  0.282056473624320     
  0.601932486419069     
  0.778058776283933     
  6.131276377537190E-002
  -1.48152798368872     
  0.960461210414186     
  0.801332388411619     
   1.56904893560722     
  0.358373528187674     
  0.335928944054130     
  0.480849088378843     
 -0.976953442225743     
  0.369255062924400     
  0.573513340788098     
 -0.134462273776537     
  0.409747445533778     
  0.251261273070489     
 -0.236459802445218     
  0.224448972266520     
 -9.877336982600043E-003
 -9.161596433740925E-002
  0.125212363840878     
  6.417134812654093E-002
  3.207331048350186E-002
  0.102679155577684     
 -0.267302394884043     
 -5.877754355511089E-002
 -0.779916826051710     
 -7.288158242508988E-003
  0.400586123398234     
 -0.747291936987032     
  7.134526956929790E-002
  0.314754666606322     
 -2.805878868986171E-002
  3.385550986629717E-002
  0.233775437177272     
  0.351565229353015     
 -0.181593810926085     
  0.371095405254612     
  9.111134532136218E-002
 -6.689015501557827E-002
  0.604215622107512     
 -0.191276383678782     
  0.272302283174901     
  0.249558506964331     
 -0.300545553800106     
 -0.281059339079063     
 -0.114489486462911     
 -0.182654548151496     
  6.355903165866492E-002
  0.373735429105647     
  2.663842768448205E-002
  0.105503789147947     
 -0.225315573389774     
 -0.167803399573325     
 -8.936291773226522E-002
 -0.373335449409646     
  0.600987722119173     
 -0.222129775261451     
  0.354449789785312     
 -0.614037854722547     
 -0.169320962699670     
 -2.684306306439436E-002
  -1.76609778306309     
  -2.79733167582244     
  0.597318235306228     
  0.392572901891781     
 -0.421736102876445     
   1.66905848781185     
 -0.142821164204669     
  -1.13120062013630     
  -1.86646842102767     
 -0.221536261185959     
  -2.11537343002309     
   1.84336533738371     
   4.69132951219708     
  -1.26492116981451     
  0.342360527574313     
  8.416080790263236E-002
 -3.574570823894899E-002
  0.166515873764218     
 -0.728039325650398     
  0.918257358024931     
  0.521324002918951     
 -0.480248748813956     
  -1.51517233406764     
  0.645639974794940     
   2.47871314162820     
  -2.41373419777203     
 -0.459373152672109     
  -1.39327178058795     
  -2.32267987963854     
 -0.282250243630238     
 -0.350896384715134     
   3.05274912713930     
 -0.411922030343355     
   1.55137858546963     
 -0.822568290469324     
  0.841447753428264     
  -1.38355729469677     
  0.970125365614055     
   1.41321301036863     
  0.690305551944282     
  -1.24443332123675     
   1.34259429199661     
 -0.160165265398263     
 -0.600941566741692     
  0.179344633957354     
 -0.311475299550509     
 -0.447915948904038     
  0.382804615583625     
 -0.116728091801784     
  9.472104926961472E-002
 -0.108969183142680     
  0.194061164049724     
 -0.318049256696654     
   1.14919215272396     
 -0.782553105464531     
 -0.580164557705193     
  -1.03826119952932     
 -4.497090501167833E-002
  0.109079121593509     
 -2.482632804462178E-002
  0.679890545832289     
  1.390600294867463E-002
  0.404080914764597     
 -0.523746899239740     
 -0.708969032798396     
  0.847633028523332     
 -0.249695348475592     
 -0.853727111011217     
 -2.625196476827336E-002
  0.471829659794972     
  0.123800160436877     
  0.536956669179109     
  3.673076016320467E-002
 -0.565433170573303     
 -4.926797922874381E-002
 -0.118823177684040     
  0.160501681584905     
  -1.24305620852778     
  0.889112897590992     
 -0.579838062608841     
  0.770492323579431     
 -6.928554795385344E-003
 -0.273040926496843     
  0.359280256899913     
  0.229125769276581     
  0.120101307032154     
 -0.216394657744548     
  0.678673716992362     
  0.922173081727749     
  0.874213262302313     
 -0.303178073515247     
  0.111783652040961     
   1.39597732196600     
  0.401631740273546     
  0.303891645020510     
 -0.134068896449910     
  -1.40632610245497     
  -1.01620361905861     
   1.26900961664469     
  -1.47712205220894     
  -2.03769730142200     
  -2.59670434149187     
 -0.529662776201231     
   1.96906310601734     
  0.241984036658840     
 -4.677695087153591E-002
  -1.31259815349211     
   1.82649655293189     
  0.838017408093084     
  -2.04367857985939     
  3.748077560129533E-002
  0.817068186851297     
   2.15217419697521     
  -2.83000734068550     
  0.238214618625168     
  0.579083786672830     
 -0.100208157130185     
   1.65062672155490     
  0.247926305581259     
  -1.53158569507422     
  0.768602899350145     
 -0.499040663429499     
 -0.826974644452113     
  -1.93501343127066     
  6.156446295822458E-002
   1.32598100708894     
  0.323781666209669     
  -1.94238699948113     
  0.265646621126447     
  -3.28905295626168     
   1.64044592172862     
  0.424819304617775     
   2.51026822965984     
  0.126727792328966     
  -1.20207216310322     
  -1.30784010001909     
 -0.688109613815315     
 -0.895726025349555     
   1.58818773666463     
   1.09583476473558     
 -0.383773099050472     
  -2.56167415873290     
 -0.887309663503024     
  0.977590817612786     
 -0.357653535134347     
  8.924666918943389E-002
  -1.26945417004880     
  -1.63856918045056     
 -0.476133002078418     
  -1.04806930253727     
  0.577057635122942     
  0.213488896861323     
   1.38448291852108     
  0.731866860910871     
  2.774578209156163E-002
  0.135600560315898     
 -0.868571526125592     
  0.696876451784181     
  -1.14357574450063     
  0.549463923193990     
  -2.58396066179395     
   1.00474250656762     
   2.12339016382450     
  -1.03278644185355     
   1.09351742720512     
 -4.680877865071605E-004
  0.904719410481707     
  0.200068618027956     
 -0.552712030221189     
  -1.22248488044386     
 -0.597835522148659     
  0.547733399538246     
   1.28962790193187     
 -0.947060506206278     
  0.227060363739380     
  -1.54588355285834     
   1.14256091167018     
 -2.241516456979359E-002
  0.587464034848844     
  0.782967419149179     
   1.05843328168257     
 -0.429372192167313     
  -1.11050439062104     
 -0.640480669969555     
  0.249229226188641     
  0.928653175053471     
  -1.85187979606753     
  -1.29912616964686     
  -1.22952337418388     
  0.658297944800208     
   1.20652687938250     
 -0.257908044302817     
  -1.55586707555284     
  -1.01258557986224     
  -1.00279325983594     
   1.49386605677992     
  0.709867100784696     
 -0.250064057165401     
  0.886949381234217     
 -0.465922713679954     
  0.742364332445976     
   1.00249938252833     
   1.00953709716497     
  0.568145533247831     
 -0.252982412807549     
   1.42056914973631     
 -0.483840753398250     
  0.167096537176469     
  0.614864688523407     
  -1.51223304597990     
 -0.652806287695376     
 -0.131318062186448     
 -0.413456727552022     
   1.17158818121426     
 -0.990714955376611     
   2.19592071390968     
  0.605258245118348     
  0.317867388363449     
  -1.04502252457430     
 -0.554161275715285     
   1.07097439680053     
  9.572873683265472E-002
  -1.12271489738061     
 -0.765414879225599     
   2.26941247870181     
 -0.315025893317477     
  0.302074928185773     
 -0.882483820146493     
 -0.812192393841383     
 -0.447783876576547     
  0.407695549332660     
  6.622636670217168E-002
  -1.16096152443236     
 -0.368353635274037     
 -0.743447842311022     
  0.102366962993401     
  -1.76996533236788     
 -3.552756730015461E-002
  0.556717228609120     
  -1.65849448425379     
  0.364752186846158     
   1.10553859714208     
 -0.725933016978043     
 -0.454140101551742     
  0.205284482978962     
  0.822046305913695     
 -0.346620731397180     
  -1.73816153167227     
   2.45176311314821     
   1.77149262596054     
  0.276000984403264     
  0.693271907204313     
 -0.989795519670973     
  3.109127002329670E-002
   1.72332149427424     
  -1.57149083472519     
 -0.851724442375522     
  0.421920040942563     
  0.479502902889620     
  -1.83209920026204     
   2.00364524619390     
  -1.43577340395049     
  -1.25192005401581     
  0.812806916680463     
  0.533444438051500     
 -0.124128904940900     
  0.532904838999584     
 -0.750883124776353     
  0.919864938334424     
   1.78857664369703     
 -0.301345820920240     
 -0.103709522159661     
 -0.490374635025985     
 -0.507032833157979     
 -0.259475645916233     
   1.32237201155782     
 -0.261628682943602     
   1.33005102638109     
  0.128509245356398     
   1.27050955349653     
  -1.90018898749570     
 -0.549131256748924     
  0.207827196989858     
   1.10152028826154     
 -0.195293031392650     
  -3.17901709608597     
 -0.787126856806480     
   1.59280312012910     
  0.430685499340301     
  -1.43813851202551     
 -0.821196927223034     
  0.396082107932783     
 -6.750075622769133E-002
  0.279550657575472     
 -0.432326011783565     
  0.485743183530044     
  0.190073418344662     
 -0.283968028126155     
  -1.06376560035598     
  0.973434515331033     
  0.381193455648448     
   1.28051136544683     
 -0.839480801700035     
  3.525574238461671E-002
 -3.290933931738361E-002
   1.07685345018093     
 -0.616682845196881     
  0.799130895517101     
  2.834194196506359E-002
 -7.154641967011474E-002
 -0.450023792727729     
 -0.542701389608866     
  0.595581135217204     
  -1.05854898661490     
  0.494674638451267     
 -0.515679722247391     
 -4.262724732820259E-002
  -1.16243458385407     
   1.64797942197725     
 -0.389874557486134     
 -0.837472912850447     
  0.558682399055877     
 -0.288734465020116     
  0.428165517592990     
 -0.742897759381752     
  0.679320453187702     
 -0.135155291552988     
 -0.489679139027141     
 -0.515875923029117     
  -1.15517651892922     
 -0.160350460264152     
  0.144795025103523     
   1.70887153792468     
   1.41722038775525     
 -0.279714539979194     
  0.261549879907160     
 -0.156142420290629     
  7.145859818964023E-003
   1.19836394150869     
  0.670557059060047     
   1.46120463692132     
  6.140896165824924E-002
 -0.293429551790622     
  0.983138397551510     
   1.13767088429626     
 -0.598006129522764     
 -0.674470688152443     
  0.181820453412535     
  -1.26924223464661     
  0.125366509282254     
  -1.65875994342638     
   1.09011643727239     
 -0.705412136572805     
  0.494550240709852     
  -1.84887655218346     
   1.81307795697885     
  -1.73728629829562     
 -0.838121876493681     
  0.834627095568882     
   1.44855306655042     
 -0.845402740374012     
 -0.542563228976081     
 -6.863707423220795E-002
 -0.422110868414962     
 -0.394844563808735     
  0.893823352713903     
  0.200511822672169     
 -0.344188046220658     
  0.816962879326575     
  0.698998087676995     
  -1.20883178170373     
 -6.820030073478073E-002
 -0.544455669524547     
  0.246985492641579     
  0.759038408551006     
  -1.14599673062208     
  -1.41721077837608     
  0.144565776272556     
  -1.23220535597475     
  0.931341147269687     
 -0.430360770516447     
  -2.80319310147340     
  0.931303385158127     
   1.92616785363117     
  -1.84324065680133     
 -0.315416235239312     
   1.34112808054825     
  0.252829941260238     
 -0.379483056784038     
 -0.435755139973269     
   1.28312154210113     
   1.14680130350250     
  0.524741286127933     
 -0.484340583760711     
 -0.695352586556642     
   1.24345140143630     
   1.12035176203197     
 -0.122459407330826     
 -0.870469414560793     
  0.337004935490464     
  0.528640844385913     
  -1.06230731660282     
  0.150222545057454     
 -0.185353244421452     
  0.948148958696679     
  2.170969824317219E-002
 -0.637007010082960     
 -0.622976969010285     
 -0.664472982518996     
  0.781698244129334     
  0.304326041340289     
  -1.24209051690566     
 -0.323043371701957     
  0.543764493499829     
 -0.625631525598189     
 -0.221445739277255     
  0.288398352281316     
 -0.452162020720606     
   1.10673061953103     
 -0.843127564208331     
 -0.238767504962276     
 -0.960083723187656     
  0.407253207162948     
 -0.764075040976811     
 -5.138860028601549E-002
 -0.200532849006991     
 
  0.466757376451240     
 -0.164968141722476     
  0.345296210761990     
  0.649687476922703     
   1.28202788652386     
  0.112440674377422     
  -1.00999897043623     
  0.364566301817560     
 -0.494468384023569     
  0.834809560373346     
   1.16961432546652     
  0.612820606696722     
   1.49630888592418     
  0.725855621996740     
 -0.506034793283881     
   1.20759489618040     
  0.226030964957105     
  -1.23406613993286     
  0.537460925250060     
   1.11244874893593     
 -0.111187176969308     
 -0.651833404419821     
   1.51951680169689     
  0.580966556256364     
  0.449294305217259     
 -0.460555034398234     
  0.554442373801134     
 -2.199156978723354E-002
  -1.43384310840073     
 -0.870351171710006     
 
  0.451999061098445     
  0.991265970602983     
  1.791672415880863E-002
  0.464629641332905     
  0.169842175223232     
   1.63506654001536     
 -0.581583310844154     
  0.252286739498130     
  0.703814504051093     
 -0.622411139909796     
   1.07031937686488     
  -2.13573293457707     
  -1.30751195694270     
 -0.367797132120367     
 -0.320569051634936     
   1.45886328365354     
 -0.215558299514822     
 -0.158866396108763     
  -1.10677957092193     
  -1.04098750808291     
  0.508732935274191     
  -1.50205711330739     
 -0.918689155348127     
  -1.08515943109169     
  0.332575574323872     
 -0.654300159321629     
 -2.906657947524336E-002
  -1.07032157017586     
  0.134429796819338     
  -1.75683703418178     
 -0.200146567143622     
  2.114515643875566E-002
  -1.18056614050028     
 -0.292868272991571     
   1.84116556886322     
   1.97854725429393     
  1.464207621534253E-002
  0.146817470645220     
  0.465391370788400     
  8.835178065136852E-003
 -0.368372138326912     
  -1.64972236996655     
 -0.512554331699196     
 -0.405860883811441     
 -0.324861298581637     
 -0.817618997845279     
  0.348262351509022     
 -0.510872757139554     
 -0.182102736634269     
  -1.60308791741521     
 -0.440598708780613     
 -0.164313506123751     
  0.975610303126512     
  -1.29140035038537     
  0.451054940182305     
 -0.868235126893052     
  0.166460482223204     
  0.442264035111050     
  0.571293944300827     
  4.457966509892244E-002
   1.61341633536601     
 -0.122862879040543     
 -0.602472266295769     
  0.823742520274037     
 -0.317812923465657     
 -0.173760215664466     
 -6.962686116265004E-002
 -0.615138680993746     
 -0.336298128758411     
  0.997643340222186     
  -2.89339879168024     
 -7.331767881770958E-002
  0.114653496917101     
 -0.236283385321246     
 -0.126791983007425     
 -6.916664658375253E-002
  9.400056374537541E-002
  0.880548442036022     
  -1.06031274690510     
   1.74484253439443     
  4.889252388317301E-002
   1.75327095827811     
  0.751828638203978     
  0.898935375753331     
 -0.251303932490560     
 -0.278458265968244     
  -2.49710576124805     
 -0.762919730382313     
  9.347827002016554E-002
  0.365171321551936     
   1.15501665300484     
 -0.909121022649235     
   1.01630975067442     
   1.03477672153229     
 -8.600939387974545E-002
 -0.512672992611377     
  4.064722464335570E-002
  -3.29054866324524     
  0.123974766233312     
   2.70437172469824     
  -3.14412884580276     
 -0.702091236641112     
  0.664335623166884     
 -0.980684620562610     
  6.092431945317411E-002
  -1.00900071402710     
 -0.115149445645810     
  7.655287233439234E-002
 -0.887115239399972     
  0.857900297924910     
 -2.835395413326074E-002
   1.20932107937626     
 -3.972227377156236E-002
   1.36005667583483     
  0.289271921203387     
  2.069958069512645E-002
  -1.36801210273183     
 -0.425223532611616     
  -1.12279524222977     
   1.36075361787544     
 -0.794679385779755     
 -0.275323393847575     
 -0.431384149988060     
 -0.786778568148748     
  -1.31278870288263     
  -3.44136337598193     
  0.116803367997382     
   1.07795432014404     
  2.698476332489742E-002
 -0.944564343374930     
  0.240154160622022     
 -0.402398659292899     
   1.02201959091751     
 -0.437497731459349     
  0.402103483300780     
  0.219915421555304     
 -0.455599804501084     
 -0.361583981032123     
  0.518325520008441     
   1.07071784126051     
 -0.913449901985258     
 -0.600734232063586     
   1.41115836150246     
  0.245398474728053     
  0.192249764314689     
  0.425678470393131     
  0.562964970043070     
  1.677927129956425E-002
  0.974319542662219     
  -1.16495147543654     
 -0.196983466769637     
  0.543391652233851     
   1.26543618003390     
 -0.236342175752438     
  5.620776006450457E-002
 -0.777410659208577     
 -0.821613494351028     
 -0.904841173376413     
  0.612479968331485     
 -0.316936270843108     
  0.403963364225592     
 -0.945081758126344     
 -0.497675844719392     
  0.159406151904469     
 -0.748394149149125     
  0.696398128740974     
 -0.129358131888814     
   1.05444400295025     
 -0.343228239320297     
   1.23595940420231     
  0.721957757009426     
   1.60090315820193     
 -0.865801875191365     
 -0.646809314932033     
  7.781860063914869E-002
 -0.553626025156773     
  0.718134976600253     
  -1.19828926983793     
  0.173420153692936     
  -1.22376021209347     
  0.423844119275503     
 -2.797324024236681E-002
 -0.473120762585679     
 -5.419012228681076E-002
 -0.775662617575531     
  0.147385631410689     
  0.939808978091382     
  4.586299157326965E-002
  0.500001243889891     
  -1.82112013147381     
 -0.389781744210805     
 -0.404359668801299     
   1.41841752132542     
  0.555267577549158     
 -0.734385105787318     
  0.167661160586053     
  0.655779051834026     
 -0.415045183868959     
  0.672735005976279     
  -1.55177215861439     
  6.649465146582274E-002
 -0.695609293875110     
   2.39706624896926     
  0.723227097431677     
  0.161806911898249     
 -0.746223919690521     
 -5.688961133865673E-002
 -0.813207895535699     
 -5.144727621384981E-002
   1.57792259202224     
   1.45241097100214     
  0.476939034943702     
  0.843841383375162     
   1.04470170825712     
  -2.00681879658924     
 -0.432784810626197     
   1.02358532236804     
 -0.205590418186754     
 -0.200972682233360     
 -9.742318506661030E-002
  0.265919350366405     
  4.821512510681961E-002
   1.02468561561324     
  0.191062061749891     
  0.417023260257720     
   1.42460498449285     
 -0.160427654872667     
  0.259821307424127     
 -0.972998618145970     
  5.262039052656942E-002
  0.211936362744894     
  -1.70555846834115     
 -0.226962448544298     
  0.602332315250872     
  0.475213953878923     
   1.07204510337187     
 -0.443652298872402     
  0.744110740706924     
 -0.646198510123300     
 -0.133423215006197     
 -0.399277546933546     
 -0.415791488625711     
  0.116607579872302     
  1.738098606678702E-002
   1.10117349946152     
  0.653353483415247     
  -2.24527373548922     
   1.74645684590434     
 -0.870797496468219     
  0.766785058003656     
 -0.166883439351198     
  0.326995952556827     
  -2.16898879533481     
 -0.528546195055460     
  0.646604005360318     
 -0.177128623326292     
 -0.144236659632706     
  0.322409122728423     
  -1.15974856030521     
  -1.07447748663176     
  0.364325427194215     
 -0.683005869067778     
 -0.974698473054429     
  0.133263616056658     
 -0.910530885736926     
   1.11834850825847     
  -2.40200941666295     
 -0.738994303946363     
  0.282020697899779     
 -0.734791542484809     
  0.829078330286286     
 -0.454341340493175     
 -0.919278703388912     
 -0.262105497383083     
 -0.399778124724546     
  0.251591111649980     
  0.598918770245163     
 -0.462926966239927     
 -0.495098651212522     
 -0.189282447347205     
  8.055397734088597E-002
  4.183839329508849E-002
  0.791904937718692     
  0.393513440259656     
  0.247890162852019     
 -0.569662475962436     
 -1.671224539789860E-002
 -0.473270490237797     
  0.236451248212328     
  0.300059482848228     
 -0.824673410466560     
 -0.730749054817399     
  0.394199567018689     
 -5.694398316262305E-002
 -4.326864062269488E-002
  0.254747627568077     
  0.801625299198063     
  0.396228454915908     
 -0.187494938146384     
  0.804238046958585     
  2.034729333695975E-002
 -0.506745964733087     
  -1.60100971756023     
  -1.66650536068690     
 -0.436032401625631     
  0.410426421101546     
  0.427346672547794     
  0.366063689383212     
 -0.877149013269572     
   1.05989724454447     
 -0.319573076354434     
  -1.51084149819749     
   2.38810296190389     
   1.26118509431738     
  0.735112012204484     
  -1.10362916640500     
 -4.818752616577406E-002
  0.142520625214785     
   1.02189358098113     
   1.61662333117699     
  -3.11794047448429     
  0.415304403404451     
  0.158098220902976     
  0.292640859757286     
  0.246574125738418     
   1.32169271636996     
  0.227926852330852     
   1.39627232674446     
 -0.886380273412212     
  0.284633272853905     
   1.01178090980936     
  0.102774729272888     
  -1.88424508953517     
 -0.278147199851399     
  -1.08438017332171     
 -6.055128628483987E-002
  0.568906866457875     
  0.882755569314512     
 -0.322897192101598     
 -0.631044617125014     
  -1.33292621189487     
 -0.400511664427223     
  0.817469845445337     
 -0.143231377554574     
  0.238711045359839     
  0.879968587707118     
  0.102347515221181     
 -0.207097115811788     
  0.211489788192946     
  0.104118618568409     
  -1.52738647933137     
  0.810630073934839     
  0.607994444446249     
  2.797746130841218E-002
 -0.216028037538179     
 -0.326569821356314     
 -0.784656419859910     
 -0.574239686196221     
 -0.583778281393765     
 -0.123747069863107     
  0.697178133162360     
  0.727483364123155     
 -0.694999907193983     
 -4.388953190732689E-002
  0.227656076655656     
  -2.13521455245160     
  -1.92258433858540     
   1.90588577710526     
 -0.432132288353065     
  0.372942440031304     
  -2.42523010699368     
 -0.465401892250462     
  -1.63029390309843     
 -0.883080406671101     
 -0.554103685074907     
  7.391377619942502E-002
  0.180161334948871     
  -1.55004984116134     
 -0.617716141663891     
  0.767888095475092     
   1.28283476033799     
   1.74244032998020     
 -0.419725225919552     
  0.339832098503496     
  -1.17648990012596     
  0.675357008996987     
  -1.53067272781683     
 -0.186173514666217     
  0.571195576645122     
 -0.325840612179231     
  0.401599412417649     
  9.047140432233991E-002
  -1.80838256792160     
  0.386673232163934     
  -1.03626368314837     
  -2.37058575680770     
  0.113634526842702     
 -0.450990639744369     
  0.633633914643339     
  -1.41591400925987     
 -0.958026148800220     
  0.254745716405386     
  0.347920081823492     
  0.315974474650152     
  0.147891089185844     
  0.371608286402366     
  0.302948534645737     
  0.111309204655538     
  0.106228573611741     
   1.26275839488099     
  -1.64992711166696     
 -0.214963235546187     
 -9.813426606844616E-002
  0.172556142175964     
 -0.753081641326723     
 -0.236774824253663     
 -0.316513863828255     
  0.650086264257542     
 -0.135091180285046     
  -1.83295806474654     
  0.134296843074166     
  9.112506453479152E-002
   1.57050137857217     
   2.04777973404353     
  0.856280853547748     
  -1.01114511842190     
  0.533503529871558     
  0.123757922969525     
 -0.243225529363455     
  3.931692635107341E-002
  0.859542658604842     
   1.50989970814372     
  -1.59192758832674     
 -0.794230677368960     
  -1.36233026478793     
 -0.902062589455871     
  1.357714753476218E-002
  0.257478558417230     
  0.142427042193695     
 -0.652899956150568     
   1.73959074767096     
   1.76015501786825     
  -1.26208314115321     
  0.129148802388562     
   1.03154802108418     
 -0.360532037976198     
 -0.264729092053129     
  -1.36475142858134     
  -1.25209788443611     
  0.262535932035845     
  0.486874727889172     
  0.315942721820532     
  -1.26320094022617     
   1.74155714663356     
  -1.56271967306963     
  0.208308928121753     
 -0.165248463320092     
 -0.321207453246427     
  5.853911273252244E-002
   1.14749060137494     
   1.84966365723107     
   1.40037163781396     
  -2.16267853970450     
  -1.98726797404406     
  0.799056713693544     
 -0.942659645115363     
  0.262414964219574     
  -1.79451492137023     
  0.402745930402898     
   1.30931569677526     
  -1.57215770772162     
  0.486924128451806     
   1.53040336684490     
  0.312572192017184     
  0.377939095669789     
   1.16338108598119     
  -1.78126332795798     
 -1.671844299180600E-002
  0.250317088520598     
  0.278926395105284     
 -0.130357055829563     
  0.417546134778562     
   1.96960882238710     
   1.48533762413632     
  0.310408814625348     
 -0.573305229365350     
   1.60716638304891     
  -2.86173423138613     
   1.63166179536386     
  0.754327916013809     
  -1.11834471189429     
  7.041941780346889E-002
 -0.417356248509398     
  0.202497656917258     
 -0.632118281370246     
  7.736370360031591E-002
  0.360379241717846     
  0.537334713047167     
  0.573886131081708     
 -0.399439672407457     
  -1.92554089023756     
  0.215571573378550     
  0.491560873321914     
 -0.899805495605078     
   1.92658374609727     
  0.264621942738860     
  -1.45700704173377     
 -0.799471532721344     
   1.55288237130317     
  -1.80729865818445     
  -1.13387104089810     
  0.255408081973275     
 -0.823773180067348     
  0.165422810223215     
  0.325583588421480     
  -2.03076513153836     
   1.52254638049792     
  0.838595253563248     
  0.786157345148867     
   2.91854439244454     
  0.287857955576222     
  0.406228866857590     
  -1.51243179731182     
  -2.05734151571698     
  0.269776067218569     
 -0.219430253022199     
  0.720235786314464     
 -0.858557448645340     
 -0.452337636231060     
 -0.481920589178639     
 -0.257891945541325     
 -0.931806962578485     
 -0.926275507148828     
   1.30420079798357     
  0.139088780675184     
  0.449489820861940     
 -0.585033768994092     
  0.195522749765595     
 -0.981710709579550     
 -0.803200727971580     
  0.462231234824970     
 -0.431231730270611     
   1.00381399761393     
   1.43566074355794     
  0.645219938963061     
  -2.28760672503745     
  -1.40242122468066     
  0.903662996818717     
 -0.776047979553904     
  0.386428779574881     
   1.06723451699254     
 -0.696093614431628     
  0.972761045910105     
  0.370938826160843     
 -0.801006315907197     
 -0.561175034383910     
 -0.332469923510003     
 -0.549253709669423     
 -0.379619454110823     
 -0.700546528024338     
  0.345704202029425     
 -0.311926661557062     
  -2.19557544603215     
 -3.431781115665709E-002
  -1.02081159379238     
 -0.352631802967241     
  0.554989249989302     
   1.07790968824851     
  0.158111589225279     
  6.325045396463140E-002
  -1.01483479638715     
 -0.383978714551209     
   1.20645657643928     
 -2.192591993063559E-002
  0.389658551752677     
  -1.04032112553729     
 -0.245776949681164     
 -0.676900753209588     
 -0.440054243482649     
  0.793978372127425     
  0.100226864384721     
   2.47612471400817     
 -0.368141671589197     
  0.887493673464566     
   1.00883257951884     
 -0.821699951880978     
  0.216288929657609     
  0.738502813308386     
 -6.858689251218801E-002
   1.74213674840140     
 -1.124349564960291E-002
  0.127906106689190     
 -0.722831821978608     
  9.118436871314964E-002
 -0.275523612608605     
  0.133514664801437     
 -0.113856010251575     
   2.23195883728712     
 -0.493615730181709     
  0.233034167290235     
  0.483830356597220     
 -0.137773145891460     
 -0.474392323864834     
  0.443515490821098     
 -0.243765087902639     
 -0.592391612242408     
 -0.499727078066245     
   1.01195054134847     
 -0.130498729122225     
 -0.563251436078216     
  0.275139316319011     
 -0.961803973114127     
 -0.247951249100112     
 -0.518950505833668     
 -0.228064312579598     
  0.153551238184921     
 -0.125136675694815     
 -0.482167602956070     
 -3.412147016175298E-003
 -0.381235381935755     
 -0.233993121733369     
  0.226989937380349     
   2.06341932338210     
 -6.510486343544661E-002
  1.821144695837787E-002
 -5.475613753406904E-002
  0.160802076297035     
  -1.42737436504859     
  0.400760450632473     
  0.410422948953890     
   1.40228836503500     
  0.109366689526487     
  -1.05008533215502     
  0.821523931891521     
 -0.555497492242835     
 -0.985667448205194     
   1.07244715573184     
  2.477488895764460E-002
  -1.99933652888532     
  -1.91149890745764     
  -1.46974454015992     
   1.21949810093626     
  0.188592239733573     
  0.271473582463806     
  0.670287224751625     
   1.03901849341440     
 -0.176914917573902     
   1.11532703040211     
  0.711144740479354     
  -1.69522692259890     
  -2.06762481547343     
  0.273895222534925     
   1.52177999171168     
  0.546021191464976     
 -0.905372994643340     
 -0.751621839398148     
  -1.36102174984719     
  0.264204028926582     
  -2.09350111648741     
  0.122809903677534     
 -0.495407949156662     
 -0.330622245519140     
 -0.341161182611004     
  0.141090883869642     
 -0.264046564348582     
 -0.282208486986201     
 -0.505711770857019     
 -0.254145131438309     
  0.611836517676511     
  -1.77156148290695     
  0.228519888601306     
 -1.408925548171341E-002
 -0.203960908333851     
 -0.157203094751919     
   1.04558287802601     
 -0.740728669286844     
 -9.616337410297723E-002
 -0.459738538563271     
 -4.216434265189726E-002
  8.158881169312775E-002
 -0.562615806635799     
  7.640095369472968E-002
  -1.20374169699797     
   1.22301459137515     
 -0.579935960991141     
  0.857711683471771     
   1.66229766181820     
 -0.901580032168596     
  0.586871961142726     
  0.451375057383365     
  0.679555328457902     
 -0.637453461722327     
   1.24474796426024     
  0.283262591458136     
 -0.251471467049087     
  0.507008608630186     
 -0.235476699928976     
  -1.99722637141051     
 -0.484202059797030     
   2.34013950294219     
 -0.665834233546499     
  0.467466398051198     
  -1.13862841311611     
 -0.491202171649072     
  0.493374902765003     
 -0.800482481512025     
 -0.154447599955299     
  7.757661886417597E-002
 -0.154607893381466     
 -0.934929221395108     
  0.137367749892547     
  0.473302350276056     
  -2.16036245700582     
   1.09282277399586     
 -0.255408223507291     
 -0.495535077442532     
  0.129371442778172     
  -1.04835624814126     
 -0.353969702546787     
 -0.176668181262594     
   1.48164963216370     
  0.243068184892501     
  -1.34235813070509     
 -0.224820764721856     
 -0.975059184271535     
  0.741182795424305     
  0.608868239253305     
 -9.005886664231440E-002
  0.243483265909071     
  6.060950049513328E-002
 -0.570073098047791     
  -1.46622026290277     
   1.51286944941836     
 -0.790435000039202     
 -0.931109896704497     
  0.850761063927325     
 -0.202524867134797     
 -0.856595165917500     
  0.148224963236126     
  -1.43880202517661     
 -0.357750911227127     
  0.449527581693838     
   1.36036389892493     
  -1.11172580307242     
  5.453025152919986E-003
 -0.197758364203819     
  0.219412644754154     
 -0.400602777051237     
  0.314052104176547     
 -0.482116933582468     
 -0.263153153014217     
 -0.392056080143537     
  0.988850471621981     
 -0.623445025550210     
  -1.36783698984339     
  -1.78233319911807     
 -0.270066510274460     
 -0.457074243703422     
 -0.379770154704561     
   1.10314676577407     
  0.428951508317209     
   2.36470645951387     
  0.912580006390537     
 -0.615504062589871     
 -0.785664877217622     
 -0.233930823585031     
 -0.121737274000961     
  9.524291310112688E-002
  0.780410773849622     
 -0.118831433295536     
   2.49954525895086     
  -1.35140032599212     
 -0.700927985143600     
  0.665420249730941     
  0.232117161007789     
  0.209951230215354     
  0.368466749528839     
  4.359441346690099E-002
  0.343541689423184     
  0.593113486653285     
 -0.398803367839670     
 -0.392223048226851     
   1.38386558781915     
  0.874775800022202     
 -0.181408673068361     
  0.261237644707433     
 -0.417506917321511     
 -0.605994206203948     
  0.557367341275910     
  -1.01625096406138     
  0.851798941844415     
 -0.535532926574457     
  0.547629310440402     
  0.857447562600183     
 -0.262281507615057     
  7.452155843230709E-003
 -0.237928491670003     
 -0.378772888814709     
 -0.498446369138865     
  0.405954815237935     
  0.892889672683571     
 -0.320484694335622     
  0.227485289602840     
  0.369388681448818     
  0.358519216869401     
  0.487963105168016     
  0.349290484784821     
  0.319986993063243     
  0.369152701307843     
 -0.516549528874732     
 -0.456248319145394     
  0.449300237157944     
  -2.09575540934049     
  0.733721590078816     
  -1.09643997773053     
  0.499961819624638     
  0.464110098217175     
 -0.998683956054624     
   1.04600090612445     
  -1.48249578933412     
  -1.06082359316628     
 -0.539412321749725     
   1.10064423675910     
   1.17019729238080     
  0.863886620293296     
   2.50198045422875     
 -0.682860116850107     
 -0.776582672795175     
 -0.204982056463138     
  0.895955420047882     
  -1.53982520703039     
  -1.57832689059261     
  -2.49419897308392     
  6.354001484585357E-002
  -1.42245510666847     
  0.176700372275046     
   1.12923504183553     
  0.311581753780215     
 -0.767622826438383     
   1.20241101469745     
 -0.103627805245892     
  0.915901685349007     
 -0.198245307029470     
 -0.824080934968553     
  0.149878591090634     
   1.26400795976011     
 -0.405522921055015     
 -6.813510197237585E-002
 -0.141717830782962     
  0.547294196012668     
 -0.976017470743799     
  0.924157301458566     
  -1.04836228995015     
   1.25873142712726     
  -1.44783956985851     
  0.495151087928560     
  0.923200366318349     
 -0.559281771238434     
  0.353293915195528     
 -0.196569942612472     
   2.02989359779056     
   1.62119644918279     
 -0.927211942197095     
  -1.08183963961090     
   1.05225666185750     
  0.340621269557430     
  0.723364534611403     
   1.43341218622907     
   1.87212259699741     
  0.728247412151331     
 -0.170440858823254     
  0.404613924210474     
 -0.411386047209244     
  0.406044837883906     
  0.399165400246112     
 -0.221457149957946     
 -0.678260387758368     
   1.48968713904800     
  0.218629091768495     
 -0.451078858117428     
  4.376928082160605E-002
  -1.13172475670880     
  9.523855227697263E-002
  0.223478536245207     
 -0.134887091334551     
  0.410258430548008     
  0.177319079469191     
  0.298526034467440     
 -0.408176089817640     
  0.176165679900291     
 -0.236349615560896     
  0.286812419131391     
 -0.510003684211114     
 -0.328847414844783     
  4.285496052573739E-003
 -0.425881540131037     
 -0.576160920001994     
  9.029486369635581E-002
  0.256306537404999     
 -0.718323036982807     
 
 -0.841983527479317     
 -0.217166699262772     
  0.271372525895022     
  0.470963825576983     
 -0.336971097728257     
  0.218996708042660     
  -1.37853768072369     
  -1.16268881663784     
   2.76342474689344     
 -0.582520797078868     
 -0.999342663967110     
  2.278262198187140E-002
   1.93804047465101     
  -2.21469733363953     
  0.193915628514692     
   1.07406668842831     
 -0.334051404467477     
 -3.758743344598904E-002
  0.913104731191205     
 -0.335714700188109     
  -1.71028286644143     
   1.20554128862217     
   1.56401398650295     
   2.69628411899176     
  -1.80035655841671     
 -0.836670417477621     
  -2.16330402845566     
   2.19676262179961     
  0.509110828760856     
 -0.664471955379903     
 
 -0.102216732127659     
  0.134129025036244     
 -6.489152636183720E-002
 -6.890680921318296E-002
 -5.318760465731529E-002
  0.132756553915928     
 -8.486715912870924E-002
  5.605962375996473E-002
  4.215731622041362E-002
  0.184744191393023     
 -4.378446316417160E-002
  0.221934011966635     
  5.464675670703893E-002
 -0.122565410119180     
 -0.114272175569458     
 -3.124882780102327E-002
 -8.468707355412383E-002
  1.208328536570926E-002
  3.336470026625835E-002
 -0.259981626024857     
 -0.270143776012518     
 -3.478251113515464E-002
  4.840840793330335E-002
  0.171421511565383     
 -0.166100186337534     
  0.111047104058288     
  6.210834190940223E-002
 -0.163605424102246     
 -1.949981570317560E-002
  0.329737609645640     
 
 -6.796993440332245E-004
 
  tansig  tansig 
