     48 -    30 -    30 -     1 
rmse=  44.8384meV
   1.23789267133387     
  -1.31871378486381     
  0.244203345335599     
   1.30259321999425     
   1.65960660936477     
 -0.828904114793782     
  -5.92018394307051     
  -3.60613749637203     
 -0.724553351612586     
   1.87181961007383     
 -0.573491024931573     
  -1.62769658778817     
 -0.730418953596688     
   1.46372863185636     
 -5.363926905134239E-002
 -2.347260859621037E-002
  0.405276198222768     
  -1.61164893720615     
  0.480871308399407     
 -0.950893706650545     
 -0.629052174999716     
  -3.91042927278061     
   1.62972868016750     
  0.888643534574045     
  -2.81228897324065     
 -0.403740227439537     
   1.87402461598693     
  6.630580652586543E-002
  0.505095922760761     
 -0.557731089050097     
 -0.892200644377689     
  0.548679588882436     
  0.915762390792600     
 -0.846440712614807     
   1.07054914962332     
 -0.807017252701563     
  0.665603386936677     
 -0.387220277678597     
   2.26472698486394     
  -1.34639696465889     
  0.687344099602045     
  0.653140198430285     
  -2.83981613945119     
   1.88949608552128     
  0.220030390364951     
  -2.07536032505427     
   1.07086764457333     
 -0.939573850163851     
  -1.31232468056043     
   2.05913581524768     
 -0.820981123608548     
  -3.22477862221077     
   1.90569829052882     
  -1.30790867546196     
 -0.802870003916654     
 -0.578792350019782     
  0.663491284953668     
  8.169606025827983E-002
 -5.897928503739681E-002
 -0.711358244257076     
  -1.09602728604609     
  7.069582602357516E-002
 -0.372927122119264     
 -0.852843617950197     
   2.80445897996891     
 -0.884296343826122     
   1.32303351583057     
  0.322778977945891     
  0.469024592815652     
  -1.56342156391347     
 -0.736205035514080     
   1.32550414989274     
  0.571245506749743     
 -0.387907607507650     
  -1.34317389279123     
  -1.03427598539361     
  0.861312782583400     
  9.707371546453207E-002
  0.487296215551531     
 -0.539150537536590     
 -0.242240674375130     
  0.468766338230946     
 -0.256836402386997     
 -0.311834844952914     
  0.799619160566808     
   1.12356986004135     
  0.129183653186942     
 -0.321115855280296     
  -1.59012571792085     
  -1.02913971754324     
   2.34537804673419     
  -1.48857999822597     
   2.31818326440513     
 -0.755763357376082     
 -0.329582590405693     
  0.351164450281405     
  0.646385233817864     
 -0.955978046290864     
  0.120452163364908     
   1.98055009588144     
  0.162448679628074     
 -0.408454744750083     
  0.239995991951151     
  -1.65386061587153     
  -1.83532264033390     
  0.353293389623741     
  0.814186205821529     
 -0.178047569428964     
  0.524361398863868     
 -0.600277362968632     
 -0.472115894654113     
  0.455598748425896     
  0.590898260964799     
   3.30906555306208     
  0.697301269732399     
 -5.251012111261377E-002
  -1.66657754511383     
  -1.22480667582201     
  0.472332792455593     
  0.524325083626488     
   2.05295222417701     
   1.09328919834641     
 -0.760430268013458     
 -0.763090553432121     
 -0.302691570977588     
 -5.423807667208388E-002
   1.70156208592476     
 -0.642315666583687     
   1.60671787247323     
  -2.04022001732948     
  0.457973228034923     
 -1.026912530628907E-002
 -0.278348984583601     
  0.169475267613711     
  0.180230422818842     
   1.36627440878345     
  -1.50581610480432     
 -0.185046377151840     
 -0.103385717457327     
  0.528375487673659     
  0.425280427886475     
  0.609977612386068     
  -1.17125238588315     
  0.275250219277731     
   1.55975957615083     
  -1.75096221479324     
  0.330405916621181     
  0.535888368281507     
   1.54178735186823     
  -2.04607764055877     
 -0.349374896869195     
  7.771426993751318E-002
  0.275718157475427     
  -1.47409828810015     
  0.360481544466480     
   1.19267292197360     
  0.695345035689145     
  0.707471756920891     
 -1.538728481745075E-002
  0.728229072731841     
   1.05811052846969     
   1.25267803608329     
 -0.662664087256242     
 -0.776722633941365     
 -0.112302016161855     
   1.62054021568947     
  0.351488929966604     
  6.770949473616437E-002
  -2.10611236475743     
  0.259739285290029     
 -0.676485340130710     
  -1.19901641843840     
 -0.733048693031186     
 -0.848170179400654     
  0.767307165593551     
  -1.33647155718716     
  0.287132677070954     
  -1.42063224866709     
   1.56514593274896     
  8.162636990530235E-002
 -0.410088902857346     
   3.03704426809564     
 -0.365606154494145     
  0.108358505524421     
   3.43556079503659     
  -1.84334071394291     
   1.31946190477465     
  -1.32788991606484     
  0.150531148326578     
  0.212825853800215     
 -0.560676091207031     
  0.230400821301577     
   2.92084161619972     
  -4.43565791538651     
   1.01979147546164     
  -1.26338217295905     
  -1.08054134963584     
  -1.13725855769541     
  -2.19174064168017     
 -0.821016447701148     
  0.540922365601854     
   2.56885537414949     
 -0.542111335293884     
  0.284214460744643     
 -0.554645323937831     
 -0.541067044542701     
  -1.13753290735092     
  -1.09565734206496     
 -0.366607516344618     
   2.09051381868328     
 -0.439580133697100     
 -0.307322187971278     
 -0.296384500939474     
   2.47617972031229     
   1.50503912036251     
  0.495986303746599     
  0.254759322869340     
 -0.657291965176088     
  6.559670537403468E-002
  8.816080508190298E-002
   1.04111043683180     
 -0.369057115283220     
  -1.31265321043127     
  -1.06388859965397     
   4.04966100324831     
  -3.98194003868602     
   3.77062393522743     
  -2.85898186172923     
 -0.728378983011344     
   1.65547106819128     
  0.661621466005096     
  -1.29826009854525     
   4.23394805978830     
  -1.72460209182227     
 -0.971120201684528     
  0.148342581634343     
  -2.11117658019076     
 -0.728216176936835     
   2.12504432488187     
  -1.32235025304121     
   2.02153453047748     
  -2.14497862108111     
  0.437914716383183     
  -2.75735081046516     
  0.374102108902662     
  -2.31907740873293     
 -0.122889385509069     
  0.258619994852502     
  0.247156855754280     
 -0.228142814416980     
  0.902542190382344     
   3.15290092756604     
   1.47042584200519     
  0.749938149770949     
   1.16556448766740     
  0.932541679079730     
  -1.29456299497910     
   1.07269120781150     
  -1.40818153210020     
 -9.405986774454383E-002
   2.77192613634579     
  -2.36154772006646     
 -3.695332916780114E-003
 -0.112620590341475     
   1.12089837146861     
  0.471319506967829     
  -1.81323512522805     
 -0.623342918538775     
  -1.28774398283426     
 -0.868079154683012     
 -0.672209589864590     
  -1.19319256191774     
  0.996924033916046     
 -0.294000477838163     
  0.678286599727992     
 -0.690376099291042     
  0.495579366922593     
   2.27132363242942     
  0.146507619059806     
  0.710518862080734     
  0.305476681369631     
  -1.82191386751567     
  0.711853003229578     
  -2.28971276039298     
  5.065442728690728E-002
  0.538298405772973     
 -0.316311368917889     
  0.534140276448113     
 -0.672651832933225     
  0.821534214607774     
 -0.335068873268466     
  0.734765576756226     
 -0.253566573308154     
  -1.10998312732124     
  0.511314478324254     
  0.753765895988861     
   1.31887403888480     
   1.86824212064246     
  -1.13779229536808     
 -2.864543842611474E-002
  0.183927717729834     
 -0.400062905278284     
  0.347929539309049     
  0.104034309515797     
 -0.150008902850460     
  0.361269602570298     
  0.658125128827139     
  0.175011094183762     
   1.09196934301553     
  0.173262419397663     
   1.83108793832679     
  -1.30643282022764     
   2.53024945214888     
  -1.36555798935078     
  -1.44100142302230     
  0.739095050687826     
 -0.369383076859830     
  -1.86493760627263     
  0.178007128880612     
 -0.850583517844605     
  0.283403358683561     
  0.299326703391128     
 -0.659255066878547     
  0.432980763429887     
   1.60616642606434     
 -0.949086901002978     
  0.790813726682938     
  -2.10054142066031     
 -0.256138313412999     
   3.42130672866532     
 -0.184335500399063     
 -0.607603556698881     
  0.901636554413632     
   1.25806969254723     
 -0.464496092296739     
  0.292150664621346     
   2.34207661338452     
  -2.25709416644149     
  0.159169967322549     
  -3.12106216246363     
  -1.52905328655147     
  0.113496836446535     
  -2.87151087033727     
  -1.83009870538357     
  1.005565955212091E-002
   1.84221413285632     
 -0.759589618629069     
 -0.859178752257883     
  -1.41681158372903     
  0.694219666257584     
 -0.106030873231918     
  -1.89832224435284     
  0.725910291035920     
   1.20522053799361     
   1.52220108874530     
  0.781645381224836     
 -0.773474859726592     
   1.53318443613162     
   1.62442380055529     
  9.509538038825226E-002
 -0.269293565486157     
 -0.127056467747653     
  -1.27100049247878     
  -1.18057353739966     
   1.58127498994265     
 -0.121116509807305     
  0.443317729983582     
 -1.847117878184176E-003
   2.17761996373866     
  -1.50153081971114     
 -0.573942416556202     
  0.509669883744410     
   2.14363255950841     
 -0.382304391508490     
   1.03760014165594     
 -0.404102882701098     
 -0.494485964315711     
  0.506693547549058     
  0.150138654533778     
 -0.102790330340973     
  0.628540061017805     
  -1.01929989343656     
 -0.803792421128445     
   2.04597821381915     
  -1.30051418928473     
  0.835946817926938     
 -7.853862640571459E-002
  -2.98395628402621     
  4.145269811344531E-002
  -2.99154963885108     
   1.52967640982569     
  -3.84771062769585     
   2.19004890187381     
   2.07130434053222     
  0.918157486958029     
   2.46357781600824     
   2.55661618653012     
   1.62982939687388     
   2.18072897812136     
 -4.349095255909330E-002
  -1.16601202530702     
  0.212970244336091     
  -1.21269588650407     
 -0.505807411404550     
   3.04878635979020     
   1.90843172099926     
  -1.82641170546253     
  0.569584411144788     
   2.68691272478080     
  -2.71182116895152     
  -1.60516528223041     
 -0.910461125357821     
  -3.03072939880056     
  -2.95933954766779     
 -0.115983923243302     
 -8.712826904981567E-002
   2.34482590231299     
  0.622856351089383     
  0.406767337185193     
  0.187569236364110     
  0.928769620094770     
   1.03185090418512     
   4.47787968896299     
  -1.56571323221317     
  -1.18448200628809     
   2.63834219534876     
  0.126333654393676     
  -2.53282506354095     
   1.42452359064682     
 -8.570646219053109E-002
  -1.09010271256047     
 -0.117168460455387     
 -0.941556058926643     
   1.52473333447056     
 -0.408743891327812     
  -2.87488583095572     
  -1.75395267272270     
   2.51813489826131     
  -1.77827149521985     
  -1.33694314923412     
   2.66182285553830     
   1.14052586223998     
  4.618512905154350E-002
  -1.07790636592906     
  -1.71818803981349     
 -0.710040308148546     
 -0.701029823564996     
  -1.30837329671183     
  0.380883335666824     
 -0.912350930277758     
  -1.45211838160538     
   1.32727763464349     
  -1.45246903818153     
  -2.25943767617108     
 -0.370697622600146     
  0.603830599546050     
  0.566325317268565     
 -0.946982350624644     
 -0.707554286264741     
 -0.355795927106818     
   1.36295780123195     
  -1.07968754731412     
 -0.478543368409265     
 -0.586226100540966     
  -1.30180253910340     
   3.04573983424593     
  -4.15205146486887     
   3.80437706145658     
  0.492024144358222     
   2.58419346641174     
  0.946209301287212     
  -3.13469470522847     
 -0.923152612540865     
  0.511877081438033     
   1.08107158621464     
  -1.16683624294798     
   2.02579306942868     
  0.356267700806701     
  0.964988395009105     
 -0.938480634179536     
   1.46636242319613     
 -0.855714649666088     
 -0.256562678681004     
 -0.343644882198268     
  0.861129117668657     
 -0.555523327493196     
   1.14191033326279     
  -1.54403037431159     
   2.84185462550927     
  -2.41341406503957     
  0.327079305697718     
  0.770860429729489     
  0.548821171551785     
  4.039320119360754E-002
 -0.316770848988355     
 -0.216191088391484     
  0.889495843172146     
  0.252703298776240     
   1.04685437697768     
  0.936330221616728     
  8.877098538194797E-002
   1.66388054732113     
  0.316731483151636     
 -0.185220332142653     
  -2.81695297122642     
  0.601570012156801     
  -1.09540863009362     
  0.212768469903619     
 -0.313773109540883     
 -0.427075834485907     
  0.762985589085267     
 -0.113449171010421     
 -0.132524136661169     
   1.47739142362569     
  -3.22073215020577     
   1.78555569660226     
  0.749471771806583     
   1.17476901813769     
  4.089398483396380E-002
  0.288119840661426     
 -0.181384849300329     
 -0.988273031505299     
   2.94239243570367     
  -1.45561921070646     
   1.35621481059185     
 -0.474487930609186     
 -0.400163813873163     
  0.201523328350963     
 -0.930774830091513     
  0.697067513205736     
 -7.689045204707069E-003
  -3.39118686466484     
 -0.859301820114200     
   1.11010817254968     
 -0.478599096775754     
  -2.63391921442514     
  0.961900791377464     
  -1.31633312538166     
  0.657487420856951     
  0.305711109259677     
  0.953011534711087     
  0.705542965648072     
  0.133139348923784     
  0.587105590873529     
 -0.492723109454080     
 -0.306988754227034     
 -0.715137202647317     
 -2.835360104338954E-002
  0.529576167443799     
 -0.290521922838944     
 -0.481192469608623     
   1.25563043861107     
  -1.28562504623125     
  0.227056486013519     
  0.303378367097544     
 -0.829428637049250     
 -0.785254686104462     
  0.304320662310497     
  0.161273744976667     
  0.306165845785522     
  0.477342171823433     
  0.577547199686964     
  0.363195511234247     
 -0.542214632079088     
 -0.111375680574552     
  0.768822020953649     
  0.565285889866585     
   1.60201766902357     
   1.99677885255432     
 -0.482133924264676     
  0.526194640170287     
  0.367348366621844     
  0.340622810234846     
 -0.919652609734043     
 -6.126668751714789E-002
 -0.606405729610286     
  0.465589117946767     
 -0.824344776955273     
  0.321762895544985     
   1.09080096854284     
  0.456516024386569     
 -0.574870975875095     
 -0.828558570309937     
   1.48724053529400     
  -1.17527723511052     
  0.347446515125126     
  0.135278601383612     
 -0.171077266009323     
 -0.982541097807866     
 -1.834205175470366E-002
  -1.22696023932587     
   2.69517237987047     
 -2.672426995678959E-002
  0.144771091173225     
  -1.85423212218496     
 -0.410437844386083     
 -2.480572907447321E-002
 -0.871554861815130     
 -4.587575836400765E-002
  0.544884773859063     
  -2.46023882966222     
  0.396418814577108     
   1.24265083995745     
  -1.85354099078372     
   1.43729483518507     
   1.36749514169164     
 -0.168185779841704     
 -0.804139170703803     
 -0.378945514590070     
 -8.505552654125692E-002
   1.08217035569398     
  -1.08259218914669     
 -0.387572336808408     
 -0.262749755984562     
 -0.266807693720501     
 -0.174673067259043     
   2.28730927410097     
  -2.25386226836470     
 -2.858538322889073E-002
  0.554180973875777     
  -1.25915866327521     
 -0.525799946766038     
  0.939801254975138     
 -8.955799030947187E-002
   1.10230839462988     
  -1.26481014430030     
  0.643425367501127     
 -0.697590207989059     
  -2.21215944759349     
  0.488247748510854     
 -0.101681244767352     
 -0.801552700224034     
  0.610284286631616     
  0.642049104499112     
 -0.775000804175502     
 -0.111946622039312     
 -0.191687597359103     
  0.906576133732956     
   2.16710075123793     
 -0.569811285668135     
  -1.44240667091800     
  0.114530904958014     
  -2.17218979161337     
 -0.192338325827446     
  -1.82204070047461     
   1.82321177402146     
   1.30645656803018     
  -1.02350025919157     
  0.810941337676169     
 -0.432296572063606     
   1.28282365536464     
   1.01699367094926     
 -0.142532121369378     
 -0.311558695316602     
  -1.63807324103219     
   2.16086234136474     
 -0.626758329230224     
  0.278060285309123     
  0.717103200727598     
  0.980884045054815     
  0.622751369948409     
  0.626096594313559     
  9.953441859300032E-002
 -0.202095012304838     
   1.31494458467912     
   1.89690134124716     
  0.493653364376686     
  0.532306452654746     
  0.347995845891316     
 -0.706754083931570     
 -0.187786163970428     
  0.113865289110131     
  6.679964902884200E-002
  4.267282922572562E-002
  8.208783900053385E-002
  0.804742178054991     
 -0.217478504104912     
   1.85503115213288     
  0.856739428999336     
  -1.07665660136712     
  -1.42641284833520     
  0.291341925562880     
   1.11474976012025     
  0.893976364768292     
 -0.542279612095689     
  0.971773872431636     
 -0.663327197034078     
  -2.44327110260057     
 -0.141104697191165     
  5.044057897234537E-002
  -1.41023220920834     
  7.049670473967889E-002
  -1.77083708391475     
   1.54627200183122     
  0.232055403055149     
  0.184428173009490     
 -0.943438915074576     
  0.373519364042801     
   1.00001274299168     
  -3.13365096001771     
  0.466019921563561     
  0.279010391366602     
  4.602213310745701E-002
   1.44717370454343     
 -0.608278853440151     
  0.636391258290051     
 -0.498541796206516     
 -0.115936202105489     
  -1.08260817136549     
  -1.54659654935539     
 -0.629707050179669     
   2.56786547101704     
  0.686058315040486     
  -1.74653997529973     
  0.400515435377614     
  -1.24680279728886     
  0.267517763982802     
  -1.63183299731032     
  0.486317266590478     
  -1.06997545243825     
  0.986025401639846     
 -0.981446945968630     
  0.412406683430459     
   2.24488967261699     
  -1.48222800266741     
  0.608921023758981     
   2.54804018204470     
  0.395419386635372     
 -0.528878212381330     
  0.712521270922935     
  0.798896697128672     
  0.946420630086756     
  0.452046542671223     
  0.151584136502173     
 -0.366276279493785     
   1.30343914157265     
  -2.42182666850739     
  -1.17741438307770     
  -3.30559162161695     
 -0.104107622060064     
   1.14726492931912     
  5.612872008382681E-002
  -1.04855931957650     
 -0.207375872205269     
  -1.75145556818180     
 -0.774742925785709     
  -1.06588268289078     
 -0.159008471908180     
 -0.371326907659413     
  -1.93679778843447     
   1.76641038150045     
  -1.71668247095623     
 -0.903995651867021     
   1.79325726165309     
  0.242695120557931     
 -0.386872600364077     
  0.422829880081197     
  -1.34900579072441     
  -1.13820461992719     
  0.815462719913484     
  3.379697631288549E-002
  0.818250731169254     
 -0.405336403999604     
  2.585501280799268E-002
  -1.32019253781861     
   1.92212799015962     
  -1.61706576478345     
   1.71391859881742     
  -1.66707508788056     
   1.96882813968346     
 -0.508211679258082     
  -2.22919765253765     
  0.128541065425770     
  -1.99183083956719     
  0.126754198034673     
  -1.19800078468212     
  0.453787842977377     
  -1.25330224150376     
  0.281360656890541     
 -0.492712227673390     
  0.380170181506129     
  -1.00554356764968     
 -0.692816171336050     
  9.938898680285857E-002
  0.582768932328790     
  7.610467293824870E-002
  0.376102429302347     
  0.379469353640553     
   1.01362044226605     
  0.610032393919240     
  3.736119097456123E-002
  0.277557426026786     
 -0.212560596169836     
 -1.011793152381951E-003
  -1.04280266014713     
 -0.963393746190846     
 -0.249735151215851     
 -0.243397767103962     
   1.21318145117901     
 -0.545235689672078     
 -0.329065647641197     
 -0.339089465266715     
  0.911492701240063     
  1.181766784256553E-002
   1.02321078056870     
   2.14066602458023     
  0.222842300208963     
  0.256826172740608     
   1.52392195118938     
  0.411331007497714     
   1.20452595867027     
 -8.847911332399602E-002
  0.754310231118349     
   1.03337192425459     
 -0.463058653242285     
 -0.449863965677188     
 -0.608503424005007     
  0.547743715803875     
 -8.382735222830026E-002
 -8.939951565925905E-002
 -0.641924048202339     
  -1.19857096514026     
 -0.111167428684610     
   2.10144724896486     
   2.45865222422219     
 -0.392227911650968     
   2.18160004080063     
  0.986508677418232     
   1.57852058377739     
   1.00329276040405     
  0.239796836938768     
 -0.549191297850552     
  7.049604561074063E-002
  -1.52895046761746     
   1.09804689825688     
 -0.879739983196540     
   1.49300448856220     
  -1.33809288209827     
 -0.829398140608092     
   1.30295341805963     
  0.216071020544413     
   1.55777679220613     
 -0.131511120869573     
   1.56955822795364     
  0.322620720823348     
  0.924304399193013     
  0.491748811359014     
 -5.539969857731082E-002
 -0.819951954573467     
  0.644273030154176     
  -1.06098988345698     
   1.65194329495585     
  0.264444148009640     
   1.80498343742923     
 -4.136689280832984E-002
 -0.380882446065949     
  -2.23306954613210     
  0.599556845890647     
  0.634182963571631     
  0.766426942848231     
  -1.39673906210182     
 -0.561443362027702     
  0.109002509192760     
  1.265083637093290E-002
   2.98423708063642     
  -2.71193123396407     
  0.634094864507603     
  0.897965014918954     
  0.337740252724416     
  0.421609430939346     
  0.279350125468237     
   1.13053227120648     
  -1.82944537543122     
  0.782937531740458     
 -8.415305553430552E-002
  0.145259194092650     
  0.486309941088371     
   4.11678140003647     
   2.07293119995020     
 -0.603249117200128     
  -1.15429252569754     
 -0.978711857623453     
 -0.866633585077564     
 -0.130683076567735     
  3.079676723181391E-002
 -0.905412649987935     
  0.396016231665753     
 -0.858028582781149     
  -1.17831195420086     
  0.122458395587139     
  0.849967301761316     
 -4.115840644559379E-002
 -0.725243903925521     
 -0.233719156979180     
  -1.59837938383711     
  0.670967116768322     
 -0.949824459453368     
  0.303868055734484     
 -0.452381840876948     
 -0.151178658577365     
 -0.161550722422589     
  0.319320217483043     
 -0.978168812882409     
   1.89646458634876     
 -0.351854340382033     
 -0.728263129217035     
 -5.565147075286467E-002
 -0.916100174613655     
  0.358152458109778     
  -3.10765600790877     
 -0.195522906149636     
   1.24066466436266     
   1.21828194976812     
 -0.697593977902736     
 -9.372125398256423E-002
   1.24529400216392     
   1.46322590145282     
  -3.48573488653218     
   2.07236183285618     
   1.17519647641052     
 -1.710269702666253E-002
 -0.663430625774971     
  0.279312178790254     
   2.63771532800522     
 -0.544159392482690     
 -0.547521591834936     
  0.183055720129225     
 -0.252758384025702     
   1.34129677707344     
   1.28566033632152     
   6.06386414161684     
  0.228578229486568     
  0.316334207276143     
  0.250573702501991     
 -0.144398687020811     
 -0.305260448986043     
 -0.159713888793888     
  0.664203890292364     
  0.474242295325220     
  0.488329405989449     
 -0.215238846619547     
  -1.59642346325531     
 -0.148558306336639     
 -0.381718624835980     
  0.414941103132780     
  -5.49381410919187     
  -2.58797271592711     
 -0.588544683330341     
   1.04542373735867     
   1.42917937934590     
 -0.978484204184032     
  0.695674714083027     
 -0.327864859582981     
 -0.984163429094399     
  -1.37936428962601     
  -1.26302995128119     
  0.732112770970674     
  0.314590577668438     
  0.111763397163195     
 -0.752632340540956     
  0.254701644766736     
  0.532957535766860     
 -0.393372681275658     
   3.04056829525791     
   1.34310158434066     
  -2.62098564594224     
   3.74049875020282     
  0.266315022385947     
  -2.00188466709781     
 -0.512554262519067     
   1.38598057005458     
  0.717236217717317     
   1.18434376647231     
 -0.907777898839290     
  0.259461051505096     
 -5.437170160411273E-002
  0.267078155131406     
  -1.49995900148178     
   1.88462099584697     
   1.15907397114913     
  0.223074763759937     
 -0.710789338719478     
   1.19383574359610     
  -2.05101379097564     
  0.652484325142940     
  0.283683782521183     
  -2.63114718703328     
 -0.547423354235484     
 -0.877893360441770     
 -0.308992530059793     
   1.23491147401536     
 -0.946567877056842     
 -2.769854359672654E-002
  0.730507529313336     
  -2.01679567512618     
  0.585399565990573     
 -0.199415140306358     
   1.73694793233174     
  -1.26574075070232     
   2.94752125280369     
  -1.53903092319547     
  0.863652388027625     
  1.975043935364861E-002
 -0.829789425318701     
  0.314521452103468     
   1.95770923473825     
  -1.37042358317278     
   1.04377750943297     
   1.67634181043057     
  -1.64628019036276     
  0.369467396881682     
   3.40702314852403     
 -5.151856049840938E-002
  -1.39037654683363     
   1.01623498987575     
   2.17857061919277     
  -1.45400459105760     
   1.87041232778379     
 -0.106215847343251     
   1.62422525867569     
  -1.03214080350175     
   1.34840451361376     
  4.944194854422419E-002
  0.448641478991859     
  -1.27673562245877     
 -8.939927820906002E-002
  -1.39817730494279     
 -8.008597627576472E-002
   1.59673103375316     
  -1.16231329493484     
 -0.598376762943839     
 -0.345543447664230     
 -0.745549452757605     
 -0.413660442303369     
 -0.662927925513157     
  -1.59297710999167     
  0.904580434145548     
  -1.85833535778457     
  -1.32166567726399     
 -0.521548804572699     
 -9.228446795596511E-002
  0.138616298734682     
 -9.111253010563780E-002
 -0.778573260358757     
   1.41369756303991     
  -1.12839439575008     
 -0.426333815844024     
 -0.609866476363204     
  0.289169823033045     
  -1.23511922249132     
 -0.425309310048366     
 -0.647689685858021     
 -0.969201555440612     
 -0.198806770316732     
  0.918297808516997     
 -2.201493456255622E-002
  0.851760473833465     
 -0.857026438364933     
  0.322108944461765     
 -0.311454344910307     
  0.387155727418013     
  -1.44486714874158     
  0.546272173270506     
 -0.656430460926724     
  -1.52604892348391     
  0.175403067330413     
  0.163593439729768     
  -1.37188880276256     
  0.365741270718122     
   1.53634514287573     
 -0.302180005533287     
  0.379340406959726     
  -1.21960239285834     
   1.27647743612512     
  -1.27232576690590     
 -0.307590245778114     
  0.413350880115059     
 -0.377342618629926     
 -0.145538952776534     
 -0.612288013991917     
   1.08327747011244     
  0.270500205993721     
 -0.998358534998194     
  -2.33655331411450     
 -0.454686436850614     
  -1.36744121703253     
   1.41504582557154     
  0.440210509070839     
  0.713755309025063     
 -0.433318350961959     
  0.590929061170796     
  0.114363521771482     
  0.511004695044179     
   1.05045906253228     
  0.186189806218233     
   1.08552321163238     
 -0.626332746377903     
 -0.417649767407125     
   1.45699108623907     
   1.22599187380507     
  0.596060149007841     
 -0.619054255123955     
 -0.943011030464501     
  0.134103807546040     
   1.43723889378015     
  -1.95793448177393     
  0.466182372585395     
 -0.758300812517931     
  0.223084418947519     
   1.55121968047099     
 -0.359774008902083     
  0.104599197896352     
  -2.10702025015899     
   1.67265009976396     
 -2.756232504385502E-002
  0.810087873569017     
  0.728864949931872     
   1.51918939438145     
  5.387048339864323E-002
  0.320848133092756     
 -6.291853596828779E-002
  0.630782506330988     
  -1.74005761562022     
 -0.123980363306453     
  0.141914099920995     
 -0.708352331947427     
   1.01396968456551     
  -2.70962796985060     
  -1.13920355216223     
 -0.820024869966596     
  -1.90678843195119     
  -2.15484657042602     
 -0.450289049847313     
 -0.831435737585904     
 -0.786539113001953     
  -1.07787518666864     
   1.94273105525449     
  0.553663132661503     
 -0.878623675050139     
  0.149958755723554     
  -2.32007223878558     
  -1.77611798199909     
  0.999013285949546     
  0.939138007230872     
   1.28641194887602     
 -0.293183889170427     
  0.834875153515027     
  -1.94717626620806     
  0.475473364275714     
  -1.01070360317305     
  0.965635385439315     
  -1.06491636077740     
   1.78064236763692     
  -2.02560099797298     
  0.285322273739926     
   3.31019876710443     
   1.23041200034863     
 -0.673607705153641     
   1.82487434131018     
  0.653620603638010     
  -2.33808601595001     
  -3.41827546817256     
   2.11558045368670     
 -0.424181234411864     
   1.70349208649502     
 -0.257177869701856     
  -1.57425613325852     
   1.24498507805531     
  0.533706615589839     
   1.60538833998770     
  0.610244570542025     
 -9.064042453561066E-002
  -1.20831071733601     
 -0.350916599044389     
 -0.174552765905589     
  4.385649341682166E-002
   1.12516487652436     
   2.23420144705700     
  -1.39853895062757     
  -1.69165261956225     
  -1.18966859984244     
  0.101977827962286     
   2.14332047132806     
  -1.86269610425290     
   1.40298609338434     
 -0.886545758142987     
 -0.666444056479071     
  0.745581222699929     
  -1.58035530158789     
   1.32656632335245     
 -0.994127678873481     
   2.71573176854611     
  0.445552778827363     
  -2.71907928040989     
   1.36313073669615     
 -0.171573681210548     
 -0.146208301231096     
  0.332991593452358     
 -0.502601729392276     
 -0.382873527123445     
  9.056678170431492E-002
  0.358331457930995     
 -0.224461752356441     
  -1.32989937728186     
 -0.231403451554380     
 -7.527145937420140E-002
  0.436065351592300     
   1.41570520963682     
 -0.621070009773037     
  0.485522491078650     
 -0.702219980139023     
  0.485367584837123     
 -0.279269892388896     
 -0.353883306750761     
  0.540239395144255     
 -0.237505293677794     
  0.428718581180060     
 -0.258745436102117     
   3.55166584105786     
  0.275594443560074     
  0.283619413718287     
   1.21851275182787     
  0.409071717255064     
  -1.27574981786512     
   1.00217891508029     
 -0.128701059747535     
  0.156363695330205     
  0.821227759678286     
  8.923121976593608E-002
 -0.167472488874400     
 -0.730265741126559     
  0.222873002432593     
 -0.745934535595474     
 -0.789237015800347     
  -1.08084983172854     
  0.284693785674923     
  0.630185466154843     
 -0.500567458345139     
  0.113023461087517     
 -0.489984404724988     
  0.459292016647436     
  0.917032660802866     
  -1.05650028918636     
  0.324658522808996     
 -0.456309447446512     
 -2.627868281225363E-002
  0.247759500200877     
 -0.193798579172371     
 -0.238947222221812     
  0.501753187780968     
 -0.315519131047647     
  -1.79431322971613     
  5.311002899126765E-003
   1.98098716272471     
   1.13884251311836     
   1.17491491709294     
  0.106335234712920     
  2.185290064894661E-002
  0.785670319052761     
 -0.653399200484605     
 -0.422873726101590     
   1.01063710836211     
  -1.51697873121922     
  -1.99713497504157     
 -0.310347755739120     
  -2.12701248338369     
  -3.65622571477136     
   1.24005125036274     
  0.967896225974505     
  -1.12449252295388     
  -1.55564531588393     
  0.743175169328552     
  -1.56966365094053     
 -0.246759592463188     
  -2.69791084984420     
 -0.494134110857683     
  0.415581499080477     
 -0.546474490783576     
   1.21404655420558     
  -1.50023630687253     
 -6.018514070891401E-003
   3.11614647465237     
  -1.17679961621274     
 -0.303130179118709     
 -0.673054976377785     
  -1.04964071417428     
 -0.496040942728715     
  0.152931481616424     
 -0.907369906287504     
  -2.29485691281559     
   2.06925542218635     
  -2.45948262810968     
   1.14836302692471     
 -0.683547239195423     
 -0.101398029853560     
  0.784649232476455     
 -0.202081799663736     
  0.554719109322749     
 -0.237909748385801     
 -0.529282159524948     
 -0.475268284045684     
  0.666242529758538     
  0.445757893465943     
 -0.938074578459239     
   1.39547775348715     
  0.332471135288854     
  0.246601526169340     
   1.09499555383486     
 -0.319553377365881     
  -1.01277707865402     
 -3.492543865665653E-003
  -2.55825211276362     
  0.495339526021125     
  -1.02076699987568     
  -1.24525622979426     
  0.427354936017496     
 -0.777362622305493     
  0.375906395692157     
 -0.234906026269028     
  0.616048878902818     
 -0.565508525879925     
 -0.409141922378892     
 -0.346255756916143     
  0.992606892197251     
  8.125656405609820E-002
 -0.677783631256653     
  0.259879370797673     
  0.748880731859320     
 -0.124323599817616     
   1.30355692977446     
 -0.413855828259335     
  0.475465616384891     
 -0.113188872076283     
  -1.23607681888575     
 -0.129909743447737     
 -0.306654628992383     
  -1.32043261820885     
 -0.245443521447471     
  8.078855124315148E-003
  -1.14576036829110     
  0.284833506345417     
   1.07893603157532     
 -0.343319886872853     
 -0.121690121750545     
  -1.04527988258205     
   1.79652294784800     
 -0.585862256743410     
  -1.01167024515868     
  0.806889161782447     
 -0.286187407570921     
  0.654752302359987     
  0.899077523699145     
 -0.826850243151948     
 -0.750470978697019     
 -0.448723811246374     
  -2.16503436060274     
 -0.826418320138143     
 -0.113544198777601     
  -1.13095781850867     
 -0.642778798470826     
  0.328067425796915     
 -0.410111583165767     
  -3.13032071510383     
  0.661518563473068     
   1.81120291871276     
  -1.97985388510948     
  -1.31224659275117     
  0.347341082397971     
  -1.68883280742133     
   1.16547908802768     
  0.102132522709705     
   1.75504717972341     
  0.474335352699424     
 -6.129375523077295E-002
  0.462990134178887     
 -0.901061560277551     
  -2.21245602502835     
   2.38696133421634     
  -1.90628898898954     
  0.131567160867889     
 -0.601910980533849     
  0.954375601966924     
 -0.261039487685210     
  0.540739063594686     
 -0.887659820530787     
  -1.06336757745126     
  5.357953602635294E-002
 -0.400661051113384     
  0.788381636514886     
  0.127431933651222     
  0.369501962687047     
  2.718156130315589E-002
  -3.78374920395646     
   4.10108218339759     
  -1.42052838973982     
  -3.93969966664606     
 -0.879517407311607     
  3.837732360426815E-002
 -0.755849140140856     
  -1.94583309737268     
   2.65339015222375     
  -1.17606409410719     
 -0.183849636004041     
  0.160608560443244     
  0.484853173325775     
 -0.260277254799370     
  -2.08052708259908     
  -1.23716620283499     
   3.09976834508319     
  -2.24632825299207     
  -1.89781855955126     
   2.20654779435610     
   2.43106828326516     
  -1.14716458060834     
  -3.11188111168515     
   3.19058071278617     
  0.407807568318809     
 -0.699513766382917     
  -1.12622640242407     
   1.42108811976227     
 -0.756929171138087     
  -1.50206457623295     
   1.97275959819020     
  0.450292817338981     
   2.35913608422435     
   3.88014009603517     
  -2.78995652049858     
   2.00334255348269     
   2.30539721263547     
   1.15823193317444     
   1.20751120106776     
  -1.70388583523850     
  -1.36255820982533     
  0.125379221231370     
   1.53897989349688     
  -1.72246885024218     
   2.44601392762520     
  0.799565818851525     
  0.134257434593202     
  -1.93771355196596     
 
  4.870616007099801E-002
  -1.04627128308105     
  0.174936485697258     
  -1.48779371628885     
 -0.587332692512814     
 -0.189090196482715     
  0.710624053774268     
  -1.43079586210953     
  9.205736912503912E-002
  0.387242481620782     
  -2.09413252098007     
 -0.557908509476054     
   1.73823447998537     
 -0.531271583760849     
  0.120115359043720     
   2.37418339840390     
 -0.178288169505650     
  -3.87072984080476     
 -7.738288214650270E-002
 -0.693096865220877     
  0.606731850306938     
   1.32841307745682     
  0.383662009650021     
 -0.198862512788603     
 -0.291400135353499     
  -1.41096812119875     
  0.614321865000430     
  0.125400006528933     
  0.156724509774056     
  -1.75820670017719     
 
  0.126031145921327     
  -1.15199373436891     
   1.21480127095301     
  0.566898293765995     
 -0.477221181618002     
 -0.219135200600840     
 -0.572455283386233     
  0.111665838581233     
  0.866607837462628     
 -0.470524140703990     
 -0.215371599345950     
   1.01719495290038     
 -2.388714633346362E-002
 -0.261374867838391     
  -1.49295764831166     
 -0.897808209225238     
  0.128785915506924     
  0.783673027680357     
  -1.07227710069487     
   1.97580832272596     
 -9.686958630164775E-003
   2.30658491096648     
  0.285698461733660     
  0.256555217722379     
  -1.57939840388327     
   1.17166044187267     
  0.927023876628111     
  6.116851937930005E-002
  -2.04448672391809     
  0.120826271005776     
  0.567350063330153     
 -0.670077294583477     
  0.241504677463122     
  0.688334782489655     
  9.396255357585910E-002
   1.23127375086920     
  0.227657252206592     
  0.260185723508078     
  0.233089715674049     
  0.132381963780877     
 -2.179341053796673E-002
 -0.769271304881385     
  -2.80415718380859     
  0.522121547615492     
   1.21226203408431     
  0.321742512096995     
  -1.24172535619910     
 -0.225880920450546     
  -1.30538300645389     
 -0.719789557095525     
  0.204196986972398     
  0.687793529615224     
 -5.205952456102230E-002
  0.301330667748373     
  -1.30067069286206     
  -1.66747958800404     
  0.570186255820755     
  -1.09995818616171     
   1.32361651037638     
  0.573824670019801     
  0.562868070716670     
  -1.72152568543105     
 -0.862049204621066     
 -0.238383885583337     
 -0.642576107833451     
   1.90569544602336     
  2.408360489670160E-002
   1.07970257592200     
 -0.513134681807918     
  0.297392839134338     
 -0.609163755391610     
  -1.18844248145986     
   3.20834516055156     
  0.915398629887331     
   1.24226990152244     
   1.55655553566004     
  -2.93030595277710     
 -0.716504411545361     
  -2.36787773877791     
  -1.26334786770900     
  -1.03750532545050     
  -1.70373208224205     
 -6.565419103290279E-002
  0.241748700161770     
  0.345840349832044     
   2.99753774315281     
 -0.262655613788954     
  0.445748210815534     
   1.15491025073079     
   1.02135394327254     
  0.400719021630932     
   1.13995577455422     
   2.88956586251458     
   1.77756191300931     
 -0.273854892545113     
   1.07137958757741     
 -0.470482153019627     
  -1.94067034414907     
  -1.49838785003486     
  -2.08398978860206     
  0.209347645736551     
  -2.23612517198571     
 -0.428244763121453     
   1.34010069076286     
  0.567713752392169     
   1.42614671631214     
  0.696707147867280     
 -0.391860348979970     
  0.110009490821937     
   1.66246669816255     
   3.34112324357712     
  -3.59179695373553     
  -1.81389132528255     
  0.961774606968814     
  -2.91019270942238     
  -2.05387103834100     
   1.83655668188396     
 -0.345985899644660     
 -0.862178721734247     
  0.362710672513971     
 -7.176714893077515E-002
  0.687849996493469     
  0.444088975400032     
   1.21285372765824     
 -0.640587527957629     
 -0.356677697431878     
 -0.120199121945222     
  0.785513304366074     
  0.448941177729389     
  0.163481288148282     
 -0.888403337826833     
  -1.23542554220930     
 -0.668549248540685     
   1.51058300334981     
  0.307292621711262     
  0.802078729163415     
 -0.758311344106494     
 -0.287157202165688     
  -1.08712483958134     
  0.334045558206671     
   1.33362176643102     
 -0.178571260541670     
  -1.72976132695820     
  0.168512340825482     
  0.837640728858109     
 -0.760237026945148     
  0.700921827743934     
  -1.99251061300499     
  0.267145634682677     
  0.285314296152648     
   1.21614336985578     
 -0.644106550338534     
   1.10307852043557     
  0.193049016596996     
 -0.260145563885547     
  0.541617181531638     
  -2.54511566433961     
  -1.73956262325707     
   1.16468882843266     
  0.105166540637928     
  0.669965554606473     
  8.252701774938667E-002
  0.303756503494756     
  0.441557319909978     
 -0.737774748547461     
  -2.13957243273212     
  0.646282756816692     
  0.176992375197650     
 -0.890798153092503     
  6.841125563411729E-002
  0.301317458571888     
   1.63952393284013     
 -0.278357662475011     
 -0.810586522751855     
  -1.69373140314493     
 -0.423979320953477     
   2.87110868206231     
  0.566804614883527     
  -1.09400233538257     
  0.189824344415752     
  -1.76154793356189     
 -0.532743657638943     
   2.62204016909894     
   2.05471845015282     
 -0.873194014487595     
  -1.11943412722656     
  0.464344978448053     
  3.638194297729749E-002
 -0.160149601261563     
  -1.03166248879914     
  -1.04131943829321     
 -0.855881503975200     
  -1.17877629777840     
 -0.778285477221378     
  -1.40989087229795     
  -1.35272623747162     
   2.28654235948585     
   2.23727837216225     
   1.36025753616608     
   2.01681476383816     
 -0.647093270324687     
 -0.669626377853748     
 -0.770952183492058     
   1.04189994606195     
 -0.457910931397583     
 -9.962486282818683E-002
  0.609969065430650     
  0.237213872066428     
  -1.55479123339784     
  -1.58212083342465     
 -5.569433077778171E-003
  0.197859912615180     
 -0.130191422019827     
 -0.149345858482701     
  0.510061791124645     
  0.305985771313577     
   1.28202808416970     
 -0.885063769685509     
  0.488460561350080     
  -1.73679515086444     
  0.998059981648838     
 -0.335449627380028     
   2.07766798653058     
  -2.41919761451837     
 -0.704507514124197     
  0.791502132069782     
  0.361732521810187     
  0.418496082426213     
  0.609856727702888     
   1.64947040784547     
 -0.290085103111847     
  -2.19543877276014     
   1.73474188579430     
  8.076613708084367E-002
  -1.60450491392852     
  0.198635495950539     
 -0.980780451508623     
   1.36856748008710     
  -1.32372037633226     
   2.14369519408381     
  0.541490173900588     
 -0.295624945691851     
  0.842356989181484     
  0.456460104574269     
 -0.475375556896502     
  0.769776791203404     
  -1.17528185744210     
 -0.313039630549505     
 -0.916364489174505     
 -0.190373466457690     
   1.17593244902178     
  0.150548258110680     
   1.31873124454561     
 -0.805030723590035     
 -8.535248565215474E-002
  0.613647241676017     
 -0.729774069542324     
  0.423975261706617     
  0.393988858987862     
   1.30084493810855     
 -4.404980317136004E-002
  -2.50451075993121     
  0.571541741395912     
  9.083407079487886E-002
 -0.689813885661840     
 -0.526374378139076     
 -0.952129444006720     
  -2.42599443972860     
  0.956654139689307     
  0.627030223120973     
 -7.075646930383563E-002
   1.04507046882754     
  0.617002279619314     
  0.576571991739296     
  2.062325401341438E-003
  0.340417584844970     
  -1.16612510245165     
 -0.743241794295862     
 -0.312054882914468     
  0.399843544279670     
  0.145838869162564     
 -0.743257256650703     
 -0.229240841120941     
 -6.078108187751014E-002
  0.368315253929980     
   1.69854762596026     
 -0.773848200755183     
 -3.495092004589088E-002
 -0.636607739825205     
 -0.330130162172753     
 -0.399054191775533     
 -0.367990021905761     
 -0.557447016118148     
 -0.600868415556424     
 -0.356885504347599     
 -0.740909845343836     
  0.375864164330568     
  -1.82053175257195     
 -0.840461014348536     
  0.709249116880602     
 -0.609012612563004     
 -0.305804347207758     
  -1.12070005953379     
 -0.469935140982842     
  -1.31630507931999     
   2.72077729364839     
  -2.54344524631525     
   2.07630805972568     
  -1.14149612666283     
   2.21093781621690     
 -0.540992277752877     
   1.11534497643068     
  -1.47599476088000     
 -0.658558580049058     
   2.73205233393057     
 -0.842224186211399     
  -5.01073231283998     
 -0.608811407231104     
 -0.838439211412070     
  -2.56433044341888     
   1.84535699341978     
 -0.999180598194819     
   1.58512849181941     
 -0.515437079008627     
 -6.223999256733798E-002
 -0.520362934715475     
 -0.398700424373903     
 -0.811929109741290     
 -0.240109117619532     
  -1.86188548861208     
 -0.739900064316594     
  0.724789800376145     
 -0.155691057428943     
  2.833925091343905E-002
  0.175416392988340     
  -1.11731929640046     
   1.92902279516069     
  0.530856618099050     
  -1.16308464746046     
  0.753509896371317     
 -0.348135542941932     
  0.285531773122504     
   2.40586080289777     
 -0.172135484665868     
 -0.551299076990874     
   2.13553596421074     
 -0.770893070634093     
 -0.447187408411516     
  0.207343387775154     
  0.949852948685883     
 -0.593801031414845     
  -1.38503024806622     
  3.675518987584961E-002
  0.623628601447206     
  0.416881487879355     
   2.33971152742443     
  0.978301434562817     
  -1.26219657921017     
  -1.05077588982734     
  -1.19892172885676     
 -2.082215118629048E-002
 -0.356041996586522     
 -7.909160616288421E-002
  0.427702241126880     
  0.109042008259994     
 -0.103725284774329     
   1.12764083248439     
  0.632439481606147     
 -0.619160216076109     
 -0.285712513387009     
  8.567089220056365E-003
  0.176188899970983     
 -0.646276482761910     
  0.349314994316045     
 -0.332536296133453     
 -0.589160929803037     
 -0.782369703539428     
 -0.357140874404072     
 -0.831353124718081     
  0.347835304106641     
 -9.604507552064821E-002
  0.789823162430801     
  0.104155961048719     
  0.562764071800222     
 -0.382383431301804     
  -1.31363093116056     
  0.518387300545788     
 -0.172917109565285     
   1.15760410739322     
  5.166841005689261E-002
 -0.237780126262575     
 -0.979478521263493     
 -0.598330389822260     
  0.662938978173715     
  -2.91896574857652     
  0.219538444393933     
  -1.03834894773910     
   2.15145788865648     
  -1.15957067763322     
   3.30022156207541     
  -1.84568390614479     
 -0.718063511886948     
   2.07249707708636     
 -0.912573638315455     
  8.936602514939541E-002
   2.83550633238622     
 -0.680538647367322     
 -0.722520982134797     
  0.366373954968852     
 -0.170874499064192     
  -1.14908570034462     
 -0.142148289726493     
  -1.55673371122343     
  0.839406546735904     
 -0.198380675329092     
 -0.156688291795233     
  -1.35287260721633     
 -0.357512334418195     
  0.414378787495405     
   1.17494261652347     
   1.05238337555145     
  0.459503625067916     
 -5.306733644652105E-002
 -0.638878485784126     
  8.255527425255330E-002
   1.29386875347493     
  -1.05143348304550     
  -2.02102451844015     
  5.441081065633021E-003
 -5.831176665945145E-002
 -0.253348583632944     
 -0.530195909502573     
 -0.383293062964745     
  0.604636792378693     
   1.73218583891335     
 -0.783170222251463     
  0.774983802091561     
 -0.112187389101066     
  0.749865460012872     
 -0.305498273259260     
  0.804236256777297     
 -0.506413292951051     
 -0.759109134369290     
 -0.211715207604634     
  0.134113832428989     
 -0.413428575132627     
  0.664593815066030     
  0.773173883092040     
  -1.88293269487994     
  0.738352932746926     
  0.441360361530895     
   1.59994310138648     
  0.464954314769519     
   2.07058426073515     
 -3.435368222401262E-002
  0.597236557046692     
  -1.21225107676081     
 -0.835088838311243     
  0.289350429776986     
 -0.374474240065039     
  0.242704194450511     
  -1.18402548690575     
  -1.14319343294161     
  0.573360634336859     
  0.853811916766227     
   1.73191959976534     
  -2.18726483626322     
  0.253741751600509     
  -2.11287072060301     
  0.260833192438220     
   1.81217998987963     
  -1.07085205096570     
 -0.442880352569668     
  4.053413366838706E-002
 -0.720724724900369     
  0.927284108843512     
  0.300704620795647     
  -1.33252477395119     
 -0.274704303457199     
 -0.231095504124771     
 -0.909789772517065     
 -0.465232287914219     
 -0.345791793492618     
   1.71826421315958     
  2.882376084532582E-003
  0.429915118110440     
  0.220414786130044     
  0.459768375736643     
 -0.508877431994927     
  -4.07372311467421     
 -0.231720681354601     
   1.66428539276622     
  -1.68777214062005     
  -1.65913479884579     
  0.381242705487333     
 -0.952198045132779     
  -3.20207613200855     
 -0.313278090856997     
  -2.66202209892337     
 -0.560142899879326     
   1.54645116618984     
  0.270126230128781     
   1.03574748552564     
 -0.702436809833444     
  -1.09452810073306     
  -1.43816090612327     
 -0.364891214692128     
 -0.782318144861493     
 -0.175177373948728     
  0.317681010455278     
  0.738324846964253     
  -4.36247085424349     
  0.605973349498113     
  0.873910791028065     
 -0.228390990601635     
  0.153905340964293     
  0.297893184850138     
   1.36746457416874     
  0.716380614412621     
   1.90442263662400     
 -0.272779414625925     
  0.913657072793291     
  -1.29422947588154     
  -2.01756158564484     
   1.25076885237852     
  0.827628420609634     
 -0.905636827526180     
  -1.24985080107157     
  0.967189683188487     
  0.435972462176413     
  0.742009523859069     
  0.704323051733297     
  -2.36906674706800     
 -0.226371682101556     
 -0.737058129728374     
   1.79754878845916     
  -3.26409897953856     
   1.21005237578358     
 -0.728358059620780     
  0.528727557083845     
  0.452751281782359     
  0.185838255731274     
 -0.814370845200684     
 -5.867964148580260E-002
  6.803908070779680E-002
   2.56232727810470     
  -1.61754816324912     
  -1.49356996511693     
 -0.478272375882893     
  -2.31097772176190     
   1.59214500473347     
 -0.718880958913138     
  -3.78343957745654     
   2.45918590401068     
  0.314644179528396     
   2.27361450116206     
   2.80453599291748     
 -0.478985266659858     
  0.257228642924761     
  -2.04479454019587     
  0.766888792633755     
   1.05168279233144     
  -2.65912434016565     
  -1.20817354522228     
  -1.01588308910898     
 -1.771440499109553E-002
   1.01196170343064     
   1.17801342059352     
   1.63368343993448     
 -0.644442356008360     
  9.635579504809999E-002
  0.451604377496343     
 -0.725718502495757     
 -0.323142172280953     
 -0.229826901595789     
   1.15937599177039     
   1.07419133787840     
   2.04364802760613     
   1.09010524893025     
 -0.115607990538358     
  -1.29210259369027     
   1.25919193433370     
  -2.90863581355695     
 -1.210345863412881E-003
 -0.316350414049912     
  -1.73005445587013     
 -0.693892077202987     
 -0.266218099713672     
 -0.169999452641785     
 -0.538978893945221     
  0.155655050350077     
  0.387063624563216     
  0.597479487832872     
  0.317105254894824     
   1.04547131985598     
  0.388187992532943     
 -0.399243171166300     
   4.14665460161351     
 -0.690494650222224     
  -4.26976763042097     
  -1.33226554570883     
  0.626943556632451     
  0.694433488588684     
   1.15745072009477     
 -0.405909412110413     
  -2.46897440454949     
 -0.445330438031319     
  0.574262644487583     
  0.641615063730067     
   1.62929235546046     
  0.349476836857320     
  0.131438451108939     
  4.161666552838603E-002
  0.645315382977469     
  -1.66317196529386     
   1.91495369856398     
 -0.844874250587500     
 -0.546446421201434     
 -0.811115513539625     
 -0.157992154876479     
  0.377670889851837     
  0.861088929817466     
  -2.08982918239906     
 -0.559775384935349     
  0.816102642113779     
  -1.37812695627007     
 -0.572272719973337     
  -2.27731309814968     
   3.36408361362176     
 -0.861050145530369     
 -0.138395193117443     
  0.121462039701999     
  0.516753630560735     
   1.09168901941860     
  -1.55955214832097     
  0.214259987041188     
  -1.23148134362082     
  0.102645066284348     
  0.238061142198097     
  1.582242139348289E-003
  -1.44986549628307     
  -2.57778871566730     
   2.29295495185620     
   3.72645282983866     
  0.115013459144331     
  0.725613143328095     
 -0.297546554718096     
  -2.48512917501706     
  -1.67284257561483     
  0.516909457936593     
  -1.38483866424249     
  0.786925681428811     
  -3.39951602170794     
 -2.542142333635241E-002
  0.361880351630183     
   3.04392026423733     
   3.79026356418625     
  -3.70008061780913     
  0.647237667633920     
  0.170915301840639     
  0.703257556111695     
 -0.490897023001433     
  -2.01010662307257     
  -3.85221666559399     
 -0.480405610672654     
   2.97333641741916     
 -0.955933308118559     
   2.53379247109168     
   1.60366744240003     
 -4.356698972379234E-002
  0.838818812267219     
 -0.225117133941372     
   2.37784326545590     
  -2.32993068795810     
  0.318445006476215     
  0.130859071240852     
 -0.224553047476261     
  0.312628354235829     
  0.445503748410027     
   1.04739146003220     
  0.216162093621396     
  -3.28355125867628     
  -1.43293837904246     
  0.723601763562026     
  0.212817064670654     
 -0.227129533396429     
 -0.563287419945024     
  0.328076612098059     
  -3.16403358745668     
   1.38172137223320     
  -2.01310542821367     
   1.44900530927280     
  -2.49835422019800     
  0.597280428434610     
 -0.376339524852062     
  0.782608053920686     
 -0.616317066101380     
  0.206910073492242     
  0.475389614794366     
  -2.28807827385126     
 -0.675984953513448     
 -0.194405074368843     
 -0.283907113858056     
 -0.602849235352701     
  0.827206082306822     
  -2.87394199050270     
  0.354478283967432     
  -1.29620498194187     
  -1.18626171144576     
 -0.701966784347404     
   1.35960566170453     
   1.02561249909857     
  0.459409314730098     
   1.50756551052223     
  -1.14765818371902     
  -2.40272330957520     
  -1.43381308212799     
   4.49041250410039     
 -0.988885718517997     
  -1.09271694628224     
  -1.05019655365876     
 -0.338442712666074     
   1.73297540077658     
  8.028764575010952E-002
 -0.289038087670884     
 -0.545379489552876     
   1.26919221262428     
 -0.410356449062311     
  0.858513118254940     
  0.684147256758715     
  0.400270899521021     
  0.239947356740394     
   2.80166329877072     
  -2.32209042360318     
  -1.32361976768863     
 -0.711752934084475     
  -2.25791644237418     
 -0.857634848265616     
  0.732927605103358     
  0.169753272271414     
   1.44873705425931     
  -2.53369524415522     
  -1.31372065910887     
  0.357078637768941     
  -3.36083900943537     
   1.51603502627679     
  -1.30623793155949     
 -0.593182132458480     
  0.616868384464287     
   1.20367029279792     
  -1.21188314181928     
  -1.75457612101108     
 -0.448723978535462     
  0.296774328110192     
 -0.853427111148118     
   3.59978907197382     
  -3.73712686093841     
   2.07474035620709     
   1.09391895418734     
   1.57301259435230     
 -5.175981562550566E-002
  -1.40771893411787     
  -2.10405350048520     
  -1.60697219379423     
  0.663244100779976     
   1.63757089927791     
 -0.351826605853452     
 -5.142609561400283E-002
  0.279466038623886     
 -0.168917055522879     
  0.239980626139652     
  0.251484090585624     
  -2.65009920407111     
  0.467208735745045     
  -1.19182119644985     
  -1.83941736582899     
  -1.44375135397616     
  -1.50524047459085     
   2.43559472387027     
   1.54090308311828     
  0.302731155400083     
 -0.335568994581930     
  0.457762207034627     
 -6.495017367795282E-002
  0.119843977124898     
 -0.634753079174512     
   1.40038897646452     
 -2.562975465797054E-002
 -0.119199159702009     
 -0.390264863143714     
 -8.535837036387592E-003
  0.627823313268866     
   1.28014637018135     
  -1.18315772921397     
  -1.24115330750109     
  -1.19734128803736     
  0.262069012298461     
  8.198670190178420E-002
   1.26610824355628     
   1.56424110806394     
  0.139275873567222     
 -0.640964941859440     
  0.497459273559724     
  0.478715393663378     
 -6.062927608684226E-002
  0.597086345815880     
 -0.594426818345882     
   2.04197746744399     
  -2.44773428062115     
 -0.741555310084009     
  -1.79551245859562     
   3.29540959172151     
  0.297355620105662     
   1.75576490183015     
  -1.29232611923269     
 -0.333243153414557     
   2.75211154332547     
  2.784866509548016E-002
  -2.77704878224017     
  -1.39299312623079     
 -0.136684573884773     
   1.37600333913730     
  -1.79659830802363     
 -4.763103612857897E-002
 -0.738826957946059     
  -1.31298555428849     
  -1.27344170107003     
  0.502007639675549     
  -1.03994360927010     
  3.383652138472323E-002
   1.57460779976028     
   2.37450772965415     
   1.57664793326814     
 -0.238024338407313     
  -2.02017875177930     
  -2.92141028296260     
   2.38157144113406     
  0.416952859165194     
  -1.09298467723931     
  -2.14857214629140     
   1.10385666978239     
   1.64562544252086     
  -1.49631367100035     
 -0.897057096704352     
 -0.446918364872390     
   2.44552330814927     
  0.445681564052518     
  -1.00708848408453     
  0.811938481933949     
  0.528551836797386     
 -0.594029977847422     
 -0.296015297877817     
 -0.794520251584096     
   1.65597145685384     
   1.91278582095177     
  -2.18746162738477     
  -1.72514607401131     
  1.653224742757777E-003
 -0.518707256675119     
  -1.99856085641906     
   1.41108168736139     
 -0.570010769594766     
  -1.33915795146833     
 -0.335766871604738     
  -2.02077571218493     
 -0.107571728417014     
   1.19128969850935     
  -2.75047415899494     
   1.70678467967953     
 -0.469068581153296     
  0.903537296928380     
   1.32684266830390     
 -0.450788549712368     
 -0.621219235822530     
  3.255651227295532E-002
   1.06180160036433     
 -0.271340151364923     
  0.244105056411852     
  0.175492226878863     
  -1.22076133929377     
  4.220517663873509E-002
  -2.23451498984227     
   1.28461316877249     
   1.65445623576438     
  0.651664955952368     
  0.217807431878903     
   1.11240211913063     
  5.089430087219216E-002
  -1.14782498888154     
  0.884195090843691     
  0.286850760002121     
  -1.24649496812181     
  0.547336400439915     
  0.405586149776431     
  0.490098812948904     
  0.347482314658598     
   1.32958799394154     
 -0.374072899291820     
 -0.142913143637829     
 -8.814141221856939E-002
 
   1.29043215093181     
   1.07104025209636     
  -1.96700620955598     
   1.86034771082236     
 -0.339805930551433     
  -1.63545819502794     
   5.16437915015805     
  0.691914855962864     
   1.11804943382635     
 -0.829607613387819     
 -0.575168867182538     
  -1.39185017878927     
   1.28422310018515     
  -2.86147586126951     
  -1.20539235924450     
   2.70582418645321     
   5.12953413317708     
  -1.07403357395857     
   1.92409945216368     
  -1.98597653135427     
  -2.01151056209137     
  0.681066986391534     
  -1.39074923425716     
   3.97783698426167     
  -2.16288087593396     
   2.10892656471200     
  0.283801368768977     
  0.853766930813121     
 -0.338509008082674     
   2.34705735459744     
 
 -9.516952973048512E-002
  0.243418664888782     
  0.173304815467584     
 -3.121402882322536E-002
 -0.216572974829133     
  0.130375369693152     
  6.711630442307959E-002
 -0.111728879847550     
  9.132837411917344E-002
 -0.262125003230426     
 -2.565161627724923E-002
  0.141933340369082     
 -0.393608934945451     
 -1.822913626962484E-002
 -8.631843520873327E-002
  0.169826590201659     
  0.533949810028940     
 -5.254062569665170E-002
 -3.227941095941024E-002
  0.109026065627470     
  5.266825991495630E-002
  4.951982218895565E-002
 -4.078980986663793E-002
  7.860706201215306E-002
 -3.966254530193546E-002
  3.311107475863730E-002
  0.510899321461619     
  2.894555736189149E-002
 -2.488977966793578E-002
 -0.341731183760043     
 
 -6.796993440332245E-004
 
  tansig  tansig 
