     48 -    50 -    50 -     1 
rmse=  16.5627meV
 -0.595421171230838     
  0.809642784712309     
 -0.747993635112976     
  3.000446488363234E-003
 -0.362169990932915     
 -0.263903342907431     
  0.263926840082336     
  6.411524594793501E-004
 -0.488291096356197     
  0.434057015420455     
 -0.146185041952586     
 -0.571971960963623     
  0.417463894298135     
  0.103906250814082     
  0.294646363506415     
 -8.243344931899048E-002
  5.938483001360778E-002
  5.417511999836726E-002
  0.245260885279208     
  0.404064864295373     
  0.214174478772542     
 -0.185997559164194     
 -0.315789784272646     
  0.890160817359841     
  0.328882996164870     
 -0.951784406121592     
  0.525892050243133     
  0.511065124395178     
 -9.467299523481959E-002
 -5.717641461368919E-002
 -8.482652849691817E-002
 -0.432067346686417     
 -0.208433858827804     
 -0.121799168679455     
 -7.374483753171657E-004
 -0.317226836303405     
 -0.224679147209286     
  0.305473317836511     
 -0.478260323547426     
 -0.258525260378740     
 -0.338536537054955     
  0.797368020747836     
 -0.878100061164457     
 -0.103872300308442     
 -0.123996453986439     
 -0.313043064057538     
 -0.230947990960262     
  0.275628311767392     
  0.170050342532498     
  0.149000017293770     
 -0.240046075438705     
 -0.103460969805015     
  0.105778394700651     
  0.345638177652851     
 -4.611130578862285E-002
 -6.222139956851907E-002
  0.136208896782016     
  0.172894165809953     
  0.152545475920715     
  7.066205879828336E-002
  1.919577866864379E-002
  0.102945440099395     
  5.923653080912603E-002
 -6.883888634957730E-002
  3.550883122808959E-002
  1.249664746449733E-002
  0.151379690241058     
  0.257389301767330     
 -9.415203567677584E-002
  1.586417563220921E-003
  7.787011017573581E-002
 -4.285829501781434E-002
  5.602072098785227E-002
 -0.149773505186942     
  0.178730479875236     
  0.320510587367012     
 -2.871715651599733E-003
  0.139091853681132     
  0.132032331917119     
 -0.246987728791345     
  0.103342590856233     
 -4.591794217334726E-002
 -5.471711038249808E-002
 -0.127251456533078     
  0.244259399252778     
  0.242112061366907     
  6.456627648898260E-002
  0.247830052026314     
 -4.046865204099550E-002
 -0.263607541767269     
  8.802990741112530E-002
 -6.556682587740871E-002
  0.238831235507947     
  0.179547313012056     
  0.120681874311435     
  6.794844870511980E-002
 -0.499337358616735     
  0.204806348971134     
  0.328445347628437     
 -0.849406398161055     
  0.196803910736524     
 -0.268016231765593     
 -0.841595883173396     
   1.11612333056132     
 -9.223646341632238E-002
 -0.269866376790704     
  0.836762512714246     
  0.451907550723219     
 -0.162630672027304     
 -0.735077231933571     
 -0.195725236129979     
  0.160841468817391     
 -1.883212500915968E-002
  0.532510785908113     
  0.633950533296105     
  1.873528079735122E-002
 -0.658145074817098     
  6.474045168237466E-002
 -0.287150377036277     
  0.211140082004464     
 -0.376248672636785     
 -0.559042420133752     
  -1.05890729686119     
  0.813576157911874     
  2.728921949047041E-002
  0.514606243381955     
 -0.113120162890819     
  0.572260455849649     
  0.132854937405840     
 -0.574356304058835     
  0.270262071319643     
  0.897411758663564     
  0.458488225519696     
  0.608308413504970     
 -0.668171479116657     
 -5.272082448153491E-002
  0.446395371700872     
  0.639117686078636     
  0.420951250162926     
 -0.651956325594653     
  7.692655481433189E-002
  0.565152015814329     
  8.905247079977131E-002
 -0.365517622801068     
  5.327802456440438E-002
 -6.347969298506899E-002
 -0.143754616687575     
  0.105639515936682     
  0.144511117838253     
  0.233704169827264     
 -0.440501383486709     
  0.713708402236811     
 -0.722127611200642     
  0.507518249346048     
 -0.201330186570217     
 -1.973647217720046E-002
  0.277718412845392     
 -6.006679711208090E-003
 -0.387462557684764     
  0.453411845061564     
 -7.509973766824879E-002
  0.257767365407982     
  2.569915726552292E-002
 -0.198594589547136     
 -0.627674280794643     
  0.157541667824579     
  3.176778057471586E-002
 -0.105949377920797     
 -0.475250689304243     
 -0.246089834431971     
  0.518947672808645     
 -0.672939698346255     
 -3.087835910387513E-002
  0.295027331385369     
  0.171046845987502     
  0.373263715438172     
  0.189950391923689     
 -0.365662186539165     
  0.639674545784039     
 -5.572887433975027E-002
  0.773327157850298     
 -0.264370203215458     
 -0.144498915875287     
  0.540877329946300     
  0.235457754480312     
 -5.495015966078571E-002
 -0.297223798661513     
  0.663379239550022     
  8.355839437409023E-002
 -0.367661662700797     
 -0.179082523221149     
 -0.343303102886781     
 -0.115928457438251     
 -0.169212405733821     
  0.141801376151626     
  0.497315074594737     
 -0.212219119420094     
  0.863655665655710     
 -0.396139913994103     
  0.385303821884328     
 -0.240034630074091     
  0.200627703305158     
 -0.425222166645758     
  0.309912434268168     
 -0.454006644305625     
 -0.388239589968418     
 -0.109813104519888     
  0.381286782164697     
  0.209899897041155     
  6.365569102435699E-002
 -0.752067602787532     
 -1.035493352101953E-002
 -0.195904864345845     
  0.316429660686805     
  0.198529674444826     
 -0.527323090000367     
 -0.712015652138527     
  0.617810593983100     
  0.387549709579305     
  0.130462093076853     
  2.426093475459795E-002
  0.358150654162427     
  0.149590029903935     
  0.336269971200229     
  0.266518576571064     
 -0.164876991274922     
  0.588471691831909     
 -0.148116850964304     
  0.455314301414270     
 -0.661156132817398     
  0.451169888223187     
  0.188289212562782     
  0.681605502886069     
 -0.710853895214231     
 -0.145016504622039     
  1.855623474288967E-002
  0.389190887016444     
  2.747815631067867E-002
 -2.534217153696203E-002
 -0.498047033978922     
 -6.901866739595623E-002
  2.192237959847960E-002
 -9.180280904741557E-002
 -8.441056307359805E-002
  0.175810108571666     
 -1.821592362880382E-002
  0.118896035185395     
  0.125318111392321     
  0.170489547304358     
 -1.907694756112742E-002
  5.129329216767393E-002
  0.245012887158728     
  0.179423097129921     
  2.098138178177760E-002
  6.938947935527673E-002
 -9.554152864938294E-002
  9.718304411669212E-002
  0.206733325186802     
 -8.538099852080872E-002
  0.195870720912558     
  3.544544882225909E-002
 -0.143984917600149     
 -0.117624799523635     
  0.127649360152188     
  0.102510653394332     
 -8.384877141598480E-002
  0.117532784545470     
 -0.104959324570517     
  4.391989850183194E-002
  1.964452653032812E-002
 -4.379933275788415E-002
  5.604897384892361E-002
 -9.070672807536398E-002
  0.180698411224309     
 -8.175750720547158E-002
  0.181712209121039     
  0.131195340111649     
  9.493892629689023E-002
  0.208065005513197     
  8.795037505019977E-002
 -6.492299576808221E-002
  0.135496652685400     
  7.709797724886207E-002
  8.280589667260098E-002
  5.082882246874283E-002
  0.157683322438495     
  0.186849774310106     
  3.183263236569300E-002
 -4.805610821868802E-002
  0.368425391827516     
 -3.248366847215260E-002
 -0.117946787658033     
  4.168240920562859E-002
 -0.195766690417345     
  0.107536489187799     
  0.197553103340365     
 -0.419053294952916     
  0.341923395593620     
  0.209634296666753     
  0.157180990592691     
  3.863812590697780E-002
 -0.278556979338197     
  0.134778487321912     
 -0.175983333202857     
 -0.182285470708689     
  0.231950031034885     
  0.127514805990403     
 -0.133096111884749     
 -8.309749268547639E-002
  3.680540744194305E-002
 -0.141851303935282     
  0.279230061581740     
 -0.335456997342397     
  0.231932183665250     
 -0.286015856220508     
 -4.296405538168167E-002
 -8.866345845109633E-002
  2.319515572668930E-002
 -5.113752914705876E-002
 -0.150791129687657     
 -0.185737646971514     
 -2.265336017471092E-002
  7.378205673935884E-002
  0.366846348642802     
 -9.169418240434732E-002
  0.180780521307838     
 -0.197088720292594     
  0.100562128946137     
  0.219693531461639     
 -0.266159526713234     
  7.754995596775600E-002
  0.229953627217013     
 -0.131851924957917     
  0.264995851857777     
 -8.018403525342804E-002
  0.192384956583497     
 -0.469319273592677     
  0.419253552899738     
  5.974691930610248E-002
 -0.144229089669512     
 -0.348996691428143     
  5.035256829072440E-002
  0.170899994326150     
  0.317857181602710     
 -0.348101229780504     
  0.374649253116798     
  0.292798975912393     
  0.317411332712951     
 -0.425144873942396     
  0.223429235178739     
  0.175449895503911     
 -0.215797135404494     
 -0.461653859954177     
  0.656872443772195     
 -0.337256111362723     
  0.424394763568565     
 -4.731400148803464E-002
  8.016098058778917E-002
 -0.340383852644415     
  0.172492803518789     
 -0.246114267988163     
 -0.230888346601855     
 -0.444263741696295     
  0.118893362569542     
 -5.858333075926628E-002
 -0.168729529645486     
  3.117003188783346E-003
 -0.334510483015041     
  0.198658785440064     
 -0.228243769084828     
 -5.585145452972742E-002
  5.444268362650292E-002
  0.498748264509916     
 -0.119170117886611     
 -0.200252824579312     
  0.103423638364165     
  0.207443483255075     
  6.977997616021854E-002
  0.220564398455699     
 -6.529880378764526E-002
  9.310337922826986E-002
 -0.101408032446743     
  4.563214901555037E-002
  0.360828635448431     
  6.152501109431163E-002
 -0.270742043129710     
 -0.166595964647594     
  0.176339851428862     
  0.104161373780297     
  0.267656469999903     
 -0.264529436804998     
  7.652313005979502E-002
  0.457493905265697     
 -0.499965261743809     
  0.113146699695882     
  0.185931970166782     
 -0.168440410210966     
 -0.367981908443566     
  0.109160973535850     
 -7.389830027445279E-002
  0.490570916109544     
  1.480015644174772E-002
  0.177082666423190     
  0.319450242864593     
 -0.396996819119340     
 -0.496906326213703     
  0.380902184574750     
  2.968700301334425E-002
 -8.886456037928735E-002
 -0.170936015017717     
 -0.128794009131930     
  4.780441290192945E-002
  7.424274481955621E-002
  8.740849277543884E-002
 -2.452041501575471E-002
  6.564355997315363E-002
 -0.313406102640018     
  0.184267924554114     
 -0.388850933623333     
  7.931879880237190E-002
  0.415977491302272     
 -0.129682510945294     
  4.907075258717264E-002
 -0.338198901527116     
  0.115914827950579     
  0.418363667577027     
 -8.369172015361009E-002
  8.501567405633899E-002
  0.246506358019368     
  0.317896378916435     
  8.846685724598853E-002
 -5.963490256067034E-002
  0.138420134248836     
 -0.144225780769342     
 -0.168632399324893     
 -0.121240589629554     
  0.378954337161383     
 -9.908766375529592E-002
 -0.179415229592901     
  0.185378489128131     
  0.150185266211841     
 -0.212681405784823     
  3.672997252299692E-002
 -3.943364777612955E-002
 -4.200617295000404E-002
 -0.245452616810440     
  0.252963361985733     
  0.107189972526661     
 -0.280070386100733     
  0.107398701646087     
  0.339804136459422     
 -4.442838927927286E-002
 -0.534009432223971     
  0.122087814908077     
 -5.244026460240036E-002
  0.198178594674805     
  5.745097660172731E-002
 -2.432107116234946E-002
  4.284076684541856E-002
  0.156224328199918     
  0.216393381915920     
  0.156340441190820     
  9.563322327543584E-004
 -0.124673454504183     
  0.548256546267166     
 -0.602021647973008     
  0.418931268882498     
  0.101912268911010     
  0.297518585534128     
  0.296060071293048     
 -0.327879858036916     
 -0.134018569908056     
 -1.612635913442658E-003
  8.333134018192352E-002
 -0.101011361488139     
 -0.136550073140799     
  0.166359415839554     
 -0.244488174410619     
 -0.189281387524219     
  1.937040526242681E-002
 -0.553488779291499     
  0.327117980539360     
 -0.571546084074865     
  0.778587406798307     
 -0.462744288966578     
 -0.230431367068861     
  8.035230085506510E-002
  0.167742804599568     
 -0.342085099258195     
  0.322237927804316     
  0.145633753857970     
 -2.452800552018330E-002
 -0.224571077426422     
  0.335159995389655     
  0.111452656990550     
 -9.538558196140716E-002
  5.070382536050107E-002
  5.535450296646435E-002
 -0.254037922145963     
 -0.714196867719738     
   1.13858231910504     
  0.197354674246341     
 -0.210079677987145     
 -0.528938354008249     
  0.371920373581163     
  0.333865166109627     
 -0.337223968844554     
 -0.261702938032411     
 -0.234077293084927     
 -4.986134961015080E-002
  2.032910143840963E-002
 -7.139608826872061E-002
  0.255392183827894     
 -0.245016312429684     
  0.422582216984886     
 -0.427592458978239     
 -0.540787137771585     
 -0.294989783265815     
  0.463275463241473     
  0.214753230118734     
 -0.379164922950983     
 -0.319469867875201     
  0.395322987238018     
  0.349572442700150     
 -4.198344133326024E-002
 -0.216740239749696     
 -0.133608975311098     
  0.247126558448985     
  0.481183415561008     
  4.688276258963427E-002
  0.224782595470689     
 -0.584169854746246     
  9.176931335102775E-002
  0.180612471538117     
  3.500369049870113E-003
  0.489925814772693     
  -1.15417073279155     
  0.554990975202916     
  8.945661130866743E-002
 -0.290896897988584     
  8.352693826601391E-002
 -0.142259103673407     
 -0.143465165094232     
 -0.495023603663254     
  8.458297367738794E-002
 -0.451182849247075     
  0.477641808125569     
  0.351232496086986     
 -0.557962593151638     
 -0.740691456463347     
  0.885481498433874     
  -1.18706838432642     
  0.838327640637955     
 -0.240570385630796     
 -0.333681366386343     
  0.488105023775887     
 -9.429248537029858E-005
  0.213780523168677     
 -0.116223918464072     
 -0.366970378555671     
 -0.505899691770945     
  0.489078952859244     
 -0.550726940384755     
  0.126567109761549     
  0.744015417822736     
  1.135901361208304E-002
 -0.569526650554113     
   1.38761768484131     
 -0.711737441212041     
  9.257699934179356E-002
  0.477578970924436     
 -0.429042720760681     
 -0.388150961921356     
  0.405412965628318     
  0.482738129252296     
  0.413484847617345     
  8.579546800080991E-002
  0.111345568296525     
  0.164625969423598     
  0.414953131037152     
 -0.172352400942781     
 -0.205391614132219     
 -0.179409210671756     
  0.251307765053203     
  0.244717869873611     
 -0.101785460231041     
 -2.306072701765211E-002
 -5.696934852351054E-002
  0.155715290269351     
 -0.170641463278628     
  8.005362134969305E-003
 -9.207151923167730E-003
 -0.245487560654366     
 -0.622873283297259     
 -0.838031965878544     
 -0.285905220387914     
  0.957289107880239     
  0.142535262443696     
 -0.182838881421301     
 -0.666325112194511     
  0.336355574448477     
 -0.314386542292884     
 -0.117128052874449     
 -4.691507049757426E-002
  2.824323548438858E-002
 -1.940395501015609E-002
  0.183407383203335     
 -0.261241405494568     
  0.380635066760844     
  0.155276433558832     
  0.328869584853801     
 -0.459110179082914     
 -0.875830761183325     
  0.134959012293923     
  0.234914136083727     
  0.141902933849092     
 -0.281570888243103     
  0.518761078693951     
 -0.169698334845598     
  0.371833799909147     
 -0.166297274871458     
  0.196750086687136     
 -3.591012924936806E-002
  9.014028984390489E-002
 -0.349502815708082     
  0.895202495665858     
  0.228164042463115     
 -3.764941343737389E-002
 -0.289879770198295     
 -5.364160000934801E-002
 -3.806875290137659E-002
  0.102302350701853     
  2.221491798865668E-002
 -0.129745426769730     
  0.292177583371159     
 -6.678468054041438E-002
 -0.209898248339982     
  0.258407408685730     
  0.595360783626574     
 -0.290035834388523     
 -0.318708306967670     
  3.160881836918124E-002
  0.221367514787119     
 -0.247908402559692     
  0.552079902390554     
 -7.771717535523738E-002
 -0.160556847348652     
  0.660653553419613     
 -0.809179158324785     
 -0.111353631141796     
 -0.329687648002971     
 -0.381404186291279     
  0.239966105095180     
 -0.421858322251302     
  9.412860468958144E-002
 -0.103829195879359     
 -0.545619037875542     
  0.333939134973696     
 -0.508309861849450     
  0.146751476937430     
 -0.292622094779577     
  4.479214036668155E-002
 -0.286834430973680     
 -0.309464887222469     
  0.599747572445410     
  0.192319400199600     
  0.363071598482353     
  0.153329331771234     
  0.153843226132522     
  1.441192437902556E-003
 -0.444873038136256     
  0.386056424507317     
  9.686783910608707E-002
 -9.798602249318684E-002
  0.110703915033708     
 -0.255737897936134     
 -0.171064870434110     
  0.186676462583757     
  0.525660020539278     
 -0.598491100743496     
  0.628055500753600     
  8.281386359481401E-004
 -0.156710106186147     
  0.198236817424722     
 -0.252890984816213     
 -7.135382905459804E-002
 -0.224093325410562     
  0.396561911911596     
 -0.241255419162793     
 -7.345960438573321E-002
  0.794271094994311     
 -0.287754895233627     
 -0.301254925935543     
  7.957821103178493E-002
 -0.197751093552801     
  0.342650796991137     
 -0.240619974902181     
 -0.473590505322855     
  0.627251797728324     
 -7.208142351786489E-003
 -0.397789153123952     
  0.191829659175327     
 -6.437547757148337E-002
 -0.188828613017984     
  0.282567420110650     
 -0.439581610628127     
  8.706868697153919E-002
  0.611609504964028     
  0.222053639652225     
 -0.114769804620838     
  0.100265333500654     
 -0.380641669914376     
  0.280032327728192     
  0.224207913664459     
 -0.875464366988822     
  0.560118842990403     
  2.257397559104870E-002
 -9.612340759943938E-002
  6.641668215904852E-002
 -0.275995044531550     
  0.256846935543614     
  0.146024161826503     
 -0.175315480637590     
  0.435440636371735     
 -0.645749841158515     
  2.195699621890633E-002
  0.683740653820842     
 -0.283301942552408     
 -0.799846883501647     
  0.808331160009046     
  0.144071224672596     
  0.222853342131479     
 -0.345813474605807     
  0.413417966417264     
  7.103648525396056E-002
 -5.734124303529031E-002
 -0.430733531737032     
 -1.093902277605674E-003
 -0.105303745955603     
 -0.376312289736451     
  0.749106179032651     
 -4.911074227536495E-002
  0.220766358508289     
 -0.335892163463271     
 -0.303754605967407     
  0.361806566771742     
 -0.285587768037246     
 -0.447906934356308     
 -0.231712830259943     
 -0.232988336870217     
  5.562199801323520E-002
  7.960709007820439E-002
  5.244555249187156E-002
  0.107473875714282     
 -2.429571940339721E-002
 -0.291802988294781     
 -0.325681180400310     
 -0.541275346865475     
  4.012720118225338E-002
  0.794036895438421     
  0.162178085317159     
 -0.690205759797828     
  0.483243673397806     
  0.250200823889586     
 -6.671897300053387E-002
  3.443889873672804E-002
 -7.895109893472123E-002
  2.462699111923552E-002
  0.288916317406429     
 -0.567046711152561     
 -0.256281852453023     
  0.228726098906755     
 -0.136133543278846     
  0.209601506997881     
  4.351040508694280E-002
 -0.240955322116182     
  0.377022790001538     
 -0.186917567134783     
 -5.450776456643575E-002
 -0.138425509506174     
  7.834151143609271E-003
  0.307246550242728     
 -0.359291372664360     
  0.214321044949097     
  8.034546728470374E-002
 -8.809459511558350E-002
 -4.236670552433540E-002
 -0.141658853973381     
  0.123725391700092     
 -1.873008354218191E-002
 -6.895539280294109E-002
 -0.402962571698402     
  0.213510165463058     
  4.601802990097794E-003
  0.170555436306518     
 -0.364424716940344     
 -0.124575612370265     
  0.106945731772937     
 -1.357288585181358E-002
  0.237198447075006     
  0.333670890825959     
  8.024677949823129E-002
 -0.101338666364326     
  8.869933544563516E-003
  0.182428062878041     
 -0.343582528499647     
  0.492383887877022     
 -9.664393976488923E-002
 -7.457977565949356E-002
 -0.100625292538605     
  0.127586085782807     
  0.202434590136560     
  2.753956097669766E-002
 -0.207891503570249     
  0.137532430106515     
 -0.182653117786503     
 -5.366700352831842E-002
  0.194736598710540     
  0.356088666818845     
 -0.641335293325900     
  0.560834827216460     
 -4.236471130737259E-002
 -4.832557297102198E-002
 -0.155599641360808     
 -0.164738797997529     
  0.317861330657270     
 -0.121936242279946     
 -0.108191011938434     
 -7.725796175029855E-002
 -6.992235031495213E-002
 -5.112448956239162E-002
  5.841162079453023E-002
 -4.570716225621391E-002
 -8.214655438796426E-003
 -0.270402452576493     
  0.906807100631388     
 -0.345042218534038     
 -0.626599077465499     
  0.235705366829880     
 -0.321014720018321     
  0.658562899457536     
 -4.683777288169402E-002
  0.147044242906988     
  5.134219876085539E-002
  9.331192948571822E-002
  3.113913028324488E-002
 -4.381596205849333E-002
  8.459245714107975E-002
 -0.255556712336668     
  0.416759814232673     
 -0.834290973419915     
  0.217322893999644     
  7.892802278685355E-002
  6.681932095560279E-002
  0.280997748709016     
 -2.133558857492652E-002
 -0.650116141504695     
 -2.643196813486713E-002
  1.972074764104517E-002
 -0.222992776439242     
  0.143198025699721     
  0.113690665292469     
  5.638963086935805E-002
 -0.106370441974903     
 -0.548286956226577     
  0.389440071659032     
 -0.172823608819924     
 -4.632339666785808E-002
 -0.474130590347444     
  9.166893286947279E-002
 -0.140307530903679     
  0.314033427160642     
 -4.632416373713739E-002
 -4.862829002209713E-002
  8.267702337670392E-003
  0.256573320367519     
 -0.212123982598900     
  0.476097472798926     
 -0.243651673649655     
  0.324797739941439     
  0.183045485022148     
  0.345233990227660     
 -0.109282740857799     
  4.360192883205852E-002
  0.139422243820491     
 -0.341241395934831     
 -0.180053288227412     
 -0.372527943794379     
  6.715383366912225E-002
 -1.526598627779837E-002
  6.005273259454286E-002
 -0.814811800010113     
 -0.679347386351670     
  0.225322726939540     
  0.181943456141176     
  0.301397890694341     
 -0.127888793813193     
 -2.708479278799066E-002
  0.221509062261561     
 -1.519558807497111E-002
  0.527363104361692     
 -0.468379825879838     
  0.391749353209053     
 -9.215490611999096E-002
  0.208084146170492     
 -0.284749588531292     
  0.277319988457896     
  0.929578378011410     
  0.169429127269483     
 -0.275139295349215     
 -0.353404271953801     
 -0.225270489063935     
  3.937265091865534E-002
 -0.377976599611877     
 -0.548039378524133     
  0.291740737458137     
 -0.202418518664373     
 -0.286032010855865     
 -0.315660683223377     
  0.573104579739647     
  0.359602841602112     
 -0.310386129701339     
 -3.712073681020851E-002
  0.149015954948593     
  0.553688949516501     
 -0.911901048404851     
  3.337196865420751E-002
 -0.998745537178033     
  0.256467157987666     
  0.848950341292531     
  0.603740785722508     
 -0.365044636281459     
  7.608234591723241E-002
 -0.182221835113591     
  6.643242624867771E-002
 -0.117716670831355     
 -0.468692021970549     
  0.170532695716684     
 -2.620163873074430E-002
  0.301211070550848     
  0.106427829523763     
  0.412251657531667     
 -0.269535636049600     
 -0.570640440741651     
 -0.107050337184679     
 -0.456194706169276     
  0.209243813418000     
  0.188174795891026     
 -7.038443075396744E-002
  0.143304334954970     
 -0.183200364957744     
 -0.242847648078134     
  0.543726330899199     
  1.790365739290356E-002
 -0.309040023234908     
 -6.747310606278617E-002
 -0.741201491448587     
  0.613972258421300     
  0.334092526828481     
   1.63049857573982     
  5.177863417072388E-003
  0.103165027318158     
  0.189888894000216     
  8.415627624950066E-004
 -0.108030071364631     
 -1.627793407900833E-003
  0.179706879867042     
  4.096470188305752E-002
 -0.370254229740555     
 -0.105520797245575     
  0.192231832688917     
  0.356414775045476     
 -0.124035578081799     
  0.271880361905550     
 -0.330708744106541     
  0.292136037401868     
  1.536823261679667E-005
 -2.238844095073582E-002
 -1.009122761981884E-002
 -0.237570996849771     
  0.197002374114910     
  0.162504704716816     
  0.183217490850886     
 -8.182952024958665E-002
  0.479248948553527     
  0.153438807451967     
 -0.194718591555667     
  0.191451261703465     
  0.152683497893287     
  0.313173019541219     
 -1.447640234476644E-002
  0.227852969647798     
  7.869880394157533E-002
  0.324533836616792     
  0.209067755768470     
 -0.269344227476236     
 -0.167564221931745     
 -6.280708394316606E-002
  0.179067805547101     
  1.237829982307632E-002
 -0.215567194425391     
  4.695871097585477E-002
  4.332606678157334E-002
  0.211988174798535     
  0.111827894583563     
  0.291952805009921     
  1.906419467968660E-002
  0.112621909593854     
 -2.338796939676833E-003
 -0.362239186028497     
 -0.778725136205492     
  0.430388484307888     
 -0.330781258742905     
 -3.775434542871848E-002
  0.471832653264946     
 -0.415751856019681     
 -0.227273013845890     
  0.379244949902739     
  0.801881626793973     
  0.101279491907286     
 -0.393524901389226     
  3.032630167014503E-002
  0.248771039677003     
 -0.200624835283720     
  0.489926699925004     
  0.617134470372852     
 -0.579575539903607     
  0.347826843306054     
 -0.247327924848944     
 -0.469197950445986     
  0.636918708381362     
  0.254564627705493     
 -0.284388290941244     
  -1.13887921753243     
 -0.394598727727747     
 -9.929333914520415E-002
  2.240378471903724E-002
 -0.225601729436503     
 -0.360473162446233     
  0.340307421379476     
 -5.443120466182817E-002
  0.185150636693088     
  0.108255130979340     
  0.308210479391131     
  7.362762970865447E-002
  0.271998299139755     
 -0.817406479520799     
  0.438724475992344     
  3.655767803229575E-002
   1.11786721757732     
 -0.503195449742965     
  0.555401381468817     
  0.118131512669701     
 -0.142195897704414     
  0.248573166183201     
 -4.124818787529800E-002
  0.168472597934516     
 -0.413788142878160     
  0.259374815294737     
  0.262844284889272     
 -7.315832396566864E-002
  0.401136375451253     
  0.343748739785747     
 -0.459877227458029     
 -8.926694829094411E-002
 -0.560845079492831     
 -0.212994861229779     
 -0.285427489640388     
 -0.404166290399328     
  0.664602930569554     
 -0.347855537307517     
  5.527734821964170E-002
  0.167696129245923     
 -0.347773870871054     
 -0.128278233713190     
  0.455187799404513     
 -0.235362720450971     
 -0.171203213116601     
  0.980340603914242     
 -0.833079050808979     
   1.22293619779048     
  0.540087603718872     
  0.230140046041685     
  0.203203649112375     
 -0.637583067402510     
  6.653445959847755E-002
  3.628820432333427E-002
  0.327802056394325     
  0.411206769393889     
 -0.462722803732321     
  0.409867779876876     
 -0.614621464595538     
  0.144063167672161     
 -0.502489682170097     
  0.178812467280521     
  0.366537412449892     
 -0.940338164651299     
 -0.202191309290881     
  1.313348193139679E-002
  1.135188435287083E-002
  0.185850896433027     
 -0.111447959476691     
  2.488013883415904E-002
 -0.156218812063048     
 -0.253843668225355     
 -4.181883162203708E-002
   1.09839380996500     
  -1.10734884688315     
  2.204028003795164E-002
  0.384891267025474     
 -0.348741232561266     
 -1.519137490018930E-004
  0.552225012821055     
 -0.126395263678917     
  0.199021280639889     
 -0.127275382653897     
  4.737991011842597E-002
 -3.862797855960377E-002
 -0.323680313564875     
  0.211431956813228     
 -3.179854946358877E-002
 -0.461972240136140     
  0.422974827236514     
  0.913011795228452     
 -0.612356116385308     
  0.498164086224030     
 -0.349988021241399     
  0.140536966920104     
  0.174640808992272     
 -0.248531455147158     
 -0.169626302857225     
  0.106674042068504     
 -0.261264108636106     
  0.446620657169401     
 -6.366816872099056E-002
  0.389496072138044     
  0.354021616681046     
 -0.386256402166405     
 -0.182100743701269     
  0.380561805843793     
  0.353860925378347     
  3.099595240428321E-002
  0.247400996669099     
 -0.709936957301102     
 -6.281378922896002E-003
  0.127351575732763     
  0.158911946837616     
 -5.604711306434440E-002
  9.405772805927734E-002
 -0.153487837773340     
 -9.861544935431134E-002
 -0.127007679873269     
 -0.393684703622850     
  1.120263471399527E-002
  0.113211661367395     
 -0.278610032654527     
  0.177420226062309     
 -0.250048637335707     
 -7.158407494974744E-002
  0.519500206147267     
  0.443378298316638     
 -0.534387987565050     
  4.045975418846082E-002
  0.186439662516353     
  0.102540476265084     
 -0.164995799559078     
 -4.775275972649715E-002
 -0.138946276065833     
  0.142022017073293     
  0.270936904167840     
 -5.040687313951218E-003
  0.209178441125152     
 -0.148579002534570     
  0.305264809510959     
  -1.12641319884935     
  0.626664966699342     
 -0.291418030976301     
  0.499101531208842     
  4.303513296361997E-002
  0.338952751934973     
 -0.243840342734776     
  0.203495106637309     
 -9.386230170550568E-002
 -0.251708985944708     
  0.108040880969699     
 -0.203339168415004     
  8.157060111324040E-002
 -0.148043987278822     
  0.122978802689712     
  0.315815961604099     
  8.948165526081177E-002
 -0.758982630672311     
  0.274106254323247     
 -0.283926818055179     
 -0.120847394668516     
 -0.148371679963443     
 -0.204226413302106     
  0.136378657483096     
  2.218298467023525E-002
  0.332513078818556     
 -0.146942387575919     
 -9.754697370431843E-002
  3.217673933443463E-002
 -0.198610965340707     
  0.154565777297810     
 -9.051513227899773E-002
  0.495439916744860     
 -0.114903523557905     
 -0.331367859428058     
  0.272933285527175     
  0.183203502408019     
  0.192769824679802     
 -4.693436479440936E-002
  0.177585732314180     
 -0.352617826936473     
  0.457666431382747     
  0.617930497234129     
 -0.246345482851006     
  5.447660673151514E-002
 -4.811713518605955E-002
 -0.378740821234331     
 -0.115957576258379     
  3.298724657474457E-002
  0.428054737353416     
 -0.374122357995468     
  8.757643290345912E-002
 -0.360305354332480     
 -5.348242947530685E-002
 -7.030115259457448E-002
 -2.182928556834272E-002
 -3.866519768487243E-002
  0.277075816733325     
 -0.285377794918582     
  0.170547021591282     
  6.557462383453276E-002
  0.355036463959311     
  0.145466206275061     
  6.204159466110156E-003
 -0.481298789259528     
  9.679310877952198E-002
  0.510372253444828     
 -0.402550070527229     
  0.421862613080558     
 -0.151619700904737     
 -0.136758002962747     
 -8.680661378835701E-002
  0.133634086406770     
 -0.557014227003530     
  0.141397074414298     
  0.410457143305205     
  0.261180830541839     
 -0.517035187935657     
  0.124927981685327     
  0.101314245784634     
  0.243261634994079     
 -0.159546192121569     
 -0.143671587426958     
  0.340933009888957     
  0.255257558928977     
 -8.587605058221720E-002
 -0.163127821663893     
  4.466435396176684E-002
  0.169516943393086     
 -4.764429764212723E-002
 -0.605997835967588     
 -1.836408326946790E-002
  0.438025340993982     
 -6.279743426228126E-003
  -1.05184784672792     
  0.456804847358853     
  0.327026903376251     
 -0.280099277002350     
  3.774750367839404E-003
  0.134650989675535     
 -0.237882983903815     
 -0.456980723222588     
  8.863334496522332E-002
  8.984685122941037E-003
 -7.474923704681166E-002
  0.148307718886796     
  0.318164902363989     
 -0.557485696019119     
  0.587421062546981     
  0.997122997977687     
  0.381901076131422     
  0.162615759724229     
 -0.389821247691264     
  0.739928057750476     
 -0.508850332025977     
 -2.581938116518056E-002
  0.238631930975372     
  0.231448978678140     
  0.339286313364521     
 -0.188385759819219     
 -0.107736270681726     
 -5.029030721313167E-002
 -0.108092726789529     
  2.471949441538247E-002
  2.268035781255242E-002
  0.205821136390672     
 -0.345866844537620     
  0.249954675482386     
  3.545824431858961E-002
  0.370490651841810     
 -0.228798241954394     
  0.515170632061626     
 -0.479521204927337     
  0.304691229130003     
  2.079636399397324E-003
 -0.371311715673983     
 -0.236096968125713     
  8.384096528731398E-002
  0.451041969432966     
 -0.174505373885804     
  0.129038764330694     
 -0.279792424809383     
  0.163702302546462     
  0.280534603230512     
 -0.367955210593633     
 -7.023536902440859E-002
 -0.459710198557515     
  0.357600655525360     
  0.615471483083978     
 -0.421342745019601     
 -9.729377946611177E-002
  0.393843938684154     
  0.185893371542229     
  0.610346774345329     
 -0.341964437559873     
  0.157556397331411     
  0.146549081471714     
 -0.216281377634305     
  0.345129686843314     
 -0.489748152160669     
  0.411321403096442     
  9.980774197181401E-003
  0.264267910591221     
 -0.628638669049108     
 -0.320123435527947     
  0.610553520907276     
  6.961069222500205E-002
  0.168553439430792     
 -9.155225958547404E-002
 -0.127384111477841     
 -5.932279321383586E-002
  0.532545943822591     
  0.203167987724610     
 -0.374334847786831     
 -0.139838484949691     
 -9.690783382517565E-002
  0.588873076356588     
 -0.215878691582624     
 -0.746565129010514     
  0.590022953236145     
  0.626082515867972     
  0.276918472249116     
 -0.227580940651502     
  9.146033542807502E-002
  0.144145828522246     
 -0.268550133852320     
 -0.236411233808850     
  6.288355290469162E-002
  0.375001387281615     
 -0.275700756747463     
 -8.760135332553144E-003
  0.111109355384980     
 -1.696009299398397E-002
  0.571603291151243     
 -0.319237639050486     
 -5.279701526363071E-002
 -0.982983362040115     
 -0.242093222367870     
 -0.250833016516303     
 -6.862406943134491E-002
 -2.387348111543536E-002
 -4.102294296681337E-002
 -0.317800606623203     
 -2.077585429106273E-003
  0.134847581873937     
 -4.375480701809610E-003
  0.149923408249112     
 -0.160177038358124     
 -0.572918767093896     
  0.568774487953377     
  0.191136073374713     
 -0.248500939974143     
  0.907849088592166     
  9.643773412950758E-002
 -0.113271676633907     
  0.351344537188241     
  3.881284886985935E-002
  0.129478374463077     
  0.197049216377170     
 -0.280755125694623     
 -9.618015197552476E-002
  0.198305079511930     
 -0.103249159075520     
 -4.272781650977052E-002
  7.933030896758517E-002
 -0.304380161633634     
  0.249476053768138     
 -0.103796099375465     
  0.214370926611182     
 -7.954686636015852E-002
  8.832217975958409E-002
  9.181008584855328E-002
 -0.116937890561396     
 -5.700630424208395E-002
  6.526166380252230E-002
 -1.497594810592359E-002
 -0.420229609750068     
  0.545998541675254     
  2.840079160696833E-002
 -0.135495077671517     
  0.179731272941227     
  0.280545990451043     
  0.433408331595859     
 -0.461607317649359     
 -0.342523295231081     
  0.453293971173999     
 -7.910266232973423E-003
  3.642889255429016E-002
 -0.125966251673339     
 -8.180517570895289E-002
  9.559111513341839E-002
  0.165012166907989     
 -0.154760831897813     
 -9.199494790671157E-002
 -0.396086229272518     
  0.523745453092184     
 -0.379418046819529     
 -0.231263841048946     
 -0.300795599264566     
  0.491620997839392     
  0.144415570159252     
 -0.540005174832865     
  6.399808959638754E-002
  7.604584183463210E-003
  6.541332702157870E-002
  4.060988900445791E-002
 -1.531153978574362E-002
  0.183104474804915     
 -0.222720893920711     
  0.280893498258656     
 -0.351879405733445     
  0.213254476372691     
  0.382442273646620     
 -6.088320705453605E-002
 -0.209825525202049     
  0.361205080897102     
 -0.228696036156819     
 -0.235645201368353     
  0.258195024511878     
  6.061925139294173E-002
 -0.152161128651155     
  0.164773273721843     
  7.122999519471891E-003
  0.378032007726139     
 -0.407698033109048     
  0.338244716373701     
 -4.726899665747198E-002
  0.278141976995921     
 -0.327157844350347     
  0.144806143410210     
 -0.454727040321152     
 -0.198223384005141     
  0.226178991576188     
 -0.186153928962843     
  1.663793288834221E-002
  8.881729910497334E-002
  7.563448541840152E-002
 -1.744230466940581E-002
 -0.180923811890111     
  1.389872198351114E-002
  0.251581049189455     
 -0.237511373704064     
 -6.245454894862184E-002
  3.951710413492959E-003
 -0.112661033659455     
  0.315864271394287     
  0.261945481642580     
  3.557134036331766E-002
 -0.133564106205716     
  0.245685029875612     
 -6.400092348510458E-002
 -0.302237297823132     
 -4.271098676565141E-002
 -4.845111213248924E-002
  0.332986626912045     
 -0.212069961830055     
  0.466399348596749     
 -0.549337994076809     
 -0.232283666692613     
 -0.149185548907988     
  0.689911109302067     
 -0.273942280546819     
  0.266958596150282     
  0.385997740016064     
  0.530108599684293     
  0.239189427484497     
 -0.158791939782127     
 -0.466451889284521     
 -0.107015063461173     
  9.804371220167078E-002
  7.779850740108442E-002
 -0.256678759862768     
 -0.360316318053262     
  0.330230647003688     
  5.819404200998319E-002
 -3.320128829638792E-003
 -0.724091577122753     
  0.824968406663350     
  0.193117962356171     
  -1.02721824658578     
 -0.585670491101901     
  0.536193256561060     
 -0.160855279126386     
  0.372945397793726     
 -0.199862958783004     
 -0.260320231782716     
 -0.122615357290286     
  0.530361956704750     
 -0.237063653817865     
  0.452635558465059     
 -0.169679404062595     
  0.411429336361172     
 -0.356277874775040     
 -0.540729165094759     
  1.126948659049487E-002
  0.738412180355507     
 -0.179058696986701     
  9.005219092358857E-002
  3.670081349677366E-002
  0.177215150574122     
  6.218346182297353E-002
  9.674559142532409E-002
 -4.212611226240853E-002
 -7.488588366189323E-002
 -0.246050821832532     
  0.202275507022489     
 -0.482693310635601     
  6.244938274459309E-002
  0.877671997243935     
 -0.553215551199905     
  0.206099687058680     
 -9.220236311289123E-002
  0.272539339616340     
  6.829495716796824E-002
 -8.425332937430611E-003
  0.197713933795446     
 -0.190353877760694     
  8.542016522769769E-002
  0.313258324520035     
  0.272537621827108     
  0.464162231940526     
 -0.870831783343053     
  0.277899904413000     
  0.224574758077481     
 -0.212130601688198     
  0.374516291794147     
 -0.342742218089783     
 -5.930564865828202E-002
 -0.553028797712475     
 -0.264372774648767     
 -7.424288810504227E-003
 -9.095206276876934E-002
  5.055821799879618E-003
  7.679570630891069E-002
 -0.468135067689508     
  0.240988742019887     
  5.266580722918859E-002
  0.423359164465959     
 -7.772490539926376E-002
 -0.537337409089055     
  0.125795576458040     
 -0.224386815860841     
  0.446225172603320     
 -6.002589562181577E-002
  0.601164734019271     
  6.445704576087462E-003
 -0.150395016089636     
 -4.250661407197077E-002
  0.160414706622074     
 -9.701517596056189E-002
  0.385620003181455     
 -0.573908369738661     
 -0.311081790922901     
 -6.114214941821518E-002
  0.622364918360389     
 -0.115394746455492     
 -0.287189028628838     
 -0.269831901969104     
  0.257350235360340     
 -3.635512049951437E-002
  3.788692718254737E-002
 -0.215561012788912     
  7.054517685785008E-002
 -0.396721639062934     
  8.822547913724456E-002
  6.811452952266120E-002
  0.216580758111492     
 -4.795045000068064E-002
 -0.299386498935733     
  0.245753071741333     
 -0.344843354928019     
  0.329752618634134     
  6.791701513644009E-002
  1.959541229754175E-002
  0.420306207796923     
 -4.292051227250096E-002
 -0.151529615669212     
  0.403195646911161     
  0.170369323879214     
  0.147445423112862     
  2.574333483100495E-002
  0.206063502889067     
  0.165808417166733     
  0.142390630780802     
 -3.446115615315808E-002
 -9.357651646537571E-002
 -0.236129089227858     
  0.322305117127112     
  0.161520204467092     
 -0.210161179144763     
 -0.409516469112925     
  0.186416756282105     
 -4.856536791942083E-002
 -0.232725076988894     
  0.109352443851641     
  0.143917194123332     
 -9.594999233244544E-002
 -0.161866022929712     
 -6.768935060772971E-002
  0.362468486942540     
 -0.295043660485422     
  0.522775051586341     
 -0.442960709563999     
  8.579711940652444E-002
 -0.233846342057313     
 -9.115464438139535E-002
  3.653630625354486E-002
 -0.159010910722339     
 -0.116939210427685     
  1.522039696911170E-002
 -4.699146587351587E-002
  4.048078848360160E-002
  1.336861954875440E-002
 -5.214559539573425E-002
  2.573574425780202E-003
  0.371692397916833     
 -0.502128526458290     
  9.126551619942173E-002
  0.442500316866409     
  0.140359378010893     
  4.034710643740914E-002
 -0.281447595020018     
  0.134444648443193     
  0.199410491142013     
  0.256552672774930     
  0.338211393331486     
  0.230025765921966     
 -0.118186273591114     
  9.232742838345966E-002
 -1.591654782102677E-002
 -0.554628931123348     
  0.399218865717209     
  2.197947285347269E-002
 -0.894299937990041     
  0.100028365278130     
 -0.203959319731550     
  0.265854991441238     
  0.122972042556882     
 -1.995915149362956E-002
 -0.141902020136719     
 -0.271498830174237     
 -0.308068472976768     
 -0.120048664458189     
 -6.470364110767332E-002
  7.422656224421773E-002
  7.716579204141188E-002
 -0.623120622968356     
  0.334256100001045     
  0.140637426173012     
 -0.182950273328267     
  0.669349172777828     
 -0.641122934699466     
 -0.508210857962290     
  0.887874792534750     
 -3.608300439255600E-002
  1.156620102568277E-002
 -0.416922906118744     
 -0.139019844076288     
  0.281071137271411     
 -0.157856941039518     
  1.120086643406917E-002
  0.258544388317674     
 -0.121984238238664     
  0.250398377239452     
  0.195396326916729     
 -0.207343245815331     
 -0.182468980779840     
  0.551151501790705     
 -5.084776623314871E-002
 -0.121753308688993     
 -0.273905830433672     
  0.280446051641725     
  0.360496735287255     
  7.172640698904205E-002
  0.151202225564437     
  0.144272569346898     
 -0.185082245110357     
  0.254285707116127     
  0.203473761041385     
 -0.631765258141310     
  0.351509020459930     
  0.134832466497353     
 -0.532412168872908     
  0.917804239819800     
 -0.681064591548651     
  0.150348167460254     
  9.045730019603870E-002
 -7.500058174552225E-002
 -0.185848936589927     
 -8.652312942243440E-002
 -0.166902537605214     
 -0.272613699706878     
 -6.677444107358346E-002
 -0.177691051003990     
 -3.745021812445226E-002
  0.526626139459472     
  7.101446524227689E-002
  0.158467786022512     
 -0.730686704403014     
  0.280920888758072     
  0.450481382480640     
 -0.326909386672504     
  0.287038292728878     
 -0.129257019420048     
 -7.157766835963251E-003
  0.293314636338662     
  1.528704801990358E-002
 -4.770411967219252E-002
  0.142533897027015     
 -6.835019082291621E-002
 -6.335209994441701E-002
  2.345028429190940E-002
 -0.362662336171894     
  0.325749354959166     
  0.205039884789349     
  0.387245232001772     
 -0.152817996066901     
 -0.559966976993986     
 -0.719178266004888     
  0.455005796535666     
  0.374656797396189     
 -0.291129236148266     
  0.170572496440443     
 -0.194899572098223     
  2.562181385153949E-002
  0.206915610127886     
 -0.733445505996487     
  0.737667145914677     
 -0.569830075686730     
  4.296326715272131E-002
  2.937578997041847E-002
 -0.380034472069053     
  0.300214758797565     
  0.622926495549858     
  0.634817607333325     
 -0.407208035356107     
 -0.524241869198249     
  0.362125135144271     
 -0.246274035246355     
  7.595822833205064E-002
  4.412440193920080E-003
  9.727322615214645E-003
  0.393871921957212     
 -0.443500225263441     
 -0.532527230869844     
 -4.332468676969579E-002
  0.432033073869310     
 -0.371165545220636     
  1.980051592075837E-002
 -8.404475984365593E-002
 -0.584618868857312     
  0.638644297997821     
 -0.268406010332951     
 -0.691834076901385     
  0.352099095865648     
  0.510618045500340     
  0.244565130698323     
  0.189273199498272     
  0.270786065248755     
 -4.325757033459638E-002
 -0.334838843362864     
  0.415058572467417     
  0.141591093624101     
 -0.296045944537537     
  0.107372342991011     
  0.405565604951625     
 -0.358153268727437     
  0.472726163492552     
 -0.194261852468154     
 -0.808922643949034     
  0.473260427236554     
 -0.387365009785273     
  0.282512267715535     
  2.271210585998984E-002
 -0.115969034268325     
  0.609594674964104     
 -0.752539045988852     
 -0.158049697729906     
 -1.174923772667433E-002
 -0.315229501650677     
  0.251354621474395     
 -1.105577648479994E-002
 -3.228779720827653E-003
 -0.452431105044099     
  0.740092330461053     
 -1.121671777199091E-002
  8.380130049626644E-002
 -0.720626054542911     
 -0.459953524920768     
  7.809216506044388E-003
  0.367953322770399     
 -5.095806199136280E-002
 -0.317636118199248     
  8.564342682741252E-002
  0.135934164483233     
 -0.222502548680957     
 -0.110447631389872     
  0.448329401679264     
 -0.295881076329193     
 -1.586301696195692E-002
 -0.249257744179968     
 -0.243195129171127     
  0.231070118008078     
 -0.164745515049166     
  4.590006510622537E-002
 -0.143956478089016     
 -0.464888833356193     
  0.400832603215175     
 -8.366985967019937E-002
  0.153582279577981     
  1.225180390209272E-002
 -0.189642155325776     
  0.109428846614536     
  0.171253255331072     
  0.174866631092038     
  0.129472538795298     
  0.469249599480722     
  0.143095505809047     
  0.167158241883157     
  0.100725650839032     
 -3.398779384806676E-002
 -9.324494452478248E-002
  0.229374092381238     
 -0.141386277760967     
  2.193128289870946E-002
 -0.124611729784428     
  3.534151316339567E-002
  1.221576050222186E-002
 -0.355439768834859     
  0.103581157621741     
 -0.342642311373121     
  7.316188900396502E-002
 -0.483550379560977     
 -0.121191288418579     
 -4.336361860997336E-002
 -3.069186003903624E-002
  7.176179958506015E-002
  0.236498416768211     
  0.382891588142153     
 -0.281754704458554     
 -8.160747936632912E-002
  0.236736213925264     
 -2.926107240092881E-002
 -0.102326541354025     
  6.485415092794215E-002
 -0.345528047079786     
  0.512075779724205     
 -0.285749272204236     
  0.190307406947041     
  0.217166573451820     
 -3.521674900449923E-002
  0.148807319466655     
 -3.817290307857778E-002
  3.960548849888955E-002
 -0.244467576289801     
 -0.252273372371462     
 -0.338755763901534     
 -6.088790572113763E-002
  2.797503037041942E-002
  0.292374173526530     
 -4.882495705603442E-002
 -0.316305670230965     
  0.428640524001832     
 -4.748879844948722E-002
 -8.673456413160754E-002
 -0.102458437160118     
 -0.178265891380930     
 -6.966880986559604E-002
 -1.546302757355894E-002
  0.158808407435164     
  0.388654063984172     
  0.133697873718439     
  3.739521619099966E-002
  2.558742931543677E-002
 -7.186585321646796E-004
 -2.550718249968805E-002
  0.173583984878385     
 -8.102029070983739E-002
 -0.219295967623858     
  1.656808751973746E-002
  1.663095599965639E-002
  0.126436293486722     
 -0.119491676021774     
  5.447992435639488E-002
 -4.164093950822536E-002
 -6.600320884661080E-002
  0.243395241251654     
  3.290747829051719E-003
  0.875496423943609     
 -0.815701161036818     
  0.432375212805617     
 -6.194915270125756E-003
 -0.581942613399081     
  0.709512986492981     
 -0.179958791670918     
  0.152415064641649     
 -0.314035181505818     
  9.192004061693866E-002
  1.308767762767799E-004
 -0.300928106529720     
 -0.176091273256080     
  0.312099087956345     
 -0.249502265965896     
 -2.748912763767127E-002
  0.310973679856493     
  0.543698120888361     
 -0.863713824931145     
  0.319973511733165     
  1.939550151571473E-002
 -0.192122542378131     
 -0.247118407973555     
  7.522269031706647E-002
  0.207302245516947     
  0.135995778449552     
 -8.666502756668673E-002
  0.352151799019499     
 -3.491023229430749E-002
  0.314547041950013     
 -0.139061129363008     
 -8.184674210685224E-002
 -7.658358746906860E-002
  0.293291569258790     
  0.257630725473093     
  0.641379020840716     
 -0.378840161374374     
  0.122404929149230     
  0.146832816875792     
 -8.035514557615593E-002
 -5.879056769753929E-002
 -0.112975979683536     
  0.192807692430740     
  1.981825527775350E-002
 -0.158972205961236     
 -0.300086156818932     
 -0.467691044067102     
  4.147826120095487E-002
  0.475246039387963     
 -0.162309850789488     
  0.662986522650254     
  4.160595501566012E-002
 -9.172627523442826E-002
 -3.886603032414886E-002
  0.108433909075487     
  0.195292387871765     
 -0.407453132393516     
 -0.102497155242397     
 -0.290314720722132     
  0.400509358652633     
 -7.695642075009106E-002
 -0.193749529665779     
  9.969925713263723E-002
 -0.177648314749344     
   1.16276466132777     
  -1.01515360991895     
 -3.461819222227890E-002
  0.913032491676542     
 -0.206895547544225     
  7.210291411575426E-002
  0.586517132144226     
  0.506788730325665     
  9.728030849769330E-002
 -0.648090116465355     
 -0.561550564159401     
  0.120917482386076     
 -2.247077348818479E-002
  0.113133178093508     
  9.200722472854422E-002
 -0.800959954813517     
  0.351370731386769     
 -1.735107292962807E-002
 -0.110886525816128     
 -9.907101224361976E-002
  0.325245847135264     
 -0.521203532725265     
 -0.606956580354411     
 -0.655968624471328     
  0.658969540073627     
  0.419672581119448     
  0.246833012801445     
  9.726371816624502E-003
 -7.856293829128355E-002
  0.139884234992956     
 -0.258929966048969     
 -1.612433960217858E-002
  0.317694785052845     
 -0.120056628657352     
 -0.112519346929130     
  0.375406676897732     
  0.165803928772809     
 -3.768835882801661E-002
 -0.101286293078191     
  0.222330379401334     
 -0.298939242852964     
  0.192320152566593     
  3.351682233212636E-002
  0.227701115122048     
 -0.355691006020127     
  0.117538772171272     
  4.294647846323742E-002
 -0.154048364212607     
 -0.387201586983624     
  0.240503511073881     
 -0.374025345322746     
  0.436024220820248     
 -0.210959983842968     
 -0.577099705656556     
 -0.401019684047133     
  0.535785342928046     
  0.495025316607513     
 -0.540215688272563     
 -0.241925527407547     
  0.309444394274819     
  3.090939742583368E-002
  0.124583815187837     
  0.203772246847311     
 -4.233729579367233E-002
  0.250933217384755     
 -9.186047819317097E-002
  0.557455243767928     
 -0.613598570721000     
  0.722623977649022     
  0.285972904413419     
  0.401608862566921     
 -0.878517221897428     
 -9.542735800844854E-003
  0.294877360357621     
  0.225210548747911     
 -0.377927013724782     
 -4.965909541498455E-003
  7.203249668122637E-003
  5.329852115587451E-002
  2.231961458409443E-002
 -0.596065343500734     
  0.539502472475891     
  2.180992165567176E-002
  9.688190475867817E-002
 -9.877969986839075E-002
 -0.283685578160765     
 -7.326496217342278E-002
  0.422328253820590     
 -2.102787573445362E-002
 -0.270133870944527     
  0.178035088210696     
 -7.083704176813087E-002
  5.238687070268245E-002
 -0.139222569294311     
 -0.227097732163398     
  0.357265582351073     
  6.398269529075919E-002
 -0.424226686845948     
  0.132066246742780     
 -0.327264196850274     
  0.249490147759477     
  3.002853035834389E-002
  0.290205986836866     
 -0.237978431065211     
 -0.153370046145435     
 -0.227613796187941     
  0.364742231232068     
 -7.993657262242408E-003
  5.461385420316562E-002
 -0.116566354168307     
  0.105559827811398     
 -8.164853420428844E-002
 -3.005669376259925E-002
  8.493331351710891E-002
  6.082491064678072E-002
 -0.131750415325861     
  0.182719315603661     
  1.451683438480615E-002
 -0.491876230406144     
  0.150099416794188     
  0.395151000075706     
 -0.170505942587871     
  0.165781128892067     
 -3.270177172793055E-002
  4.224661876329436E-002
  0.136635183723496     
 -0.278892884840578     
  0.627598650551668     
  5.223219095649416E-002
 -0.233835195232828     
 -0.257584131079087     
 -0.154452632511474     
 -0.174105104683790     
  0.378759854786783     
 -0.324679372590270     
  7.067447379963586E-002
 -0.358350425115190     
  0.209150972755467     
 -0.153762711231362     
 -0.215309545386662     
 -0.214261262719263     
  0.492921800725394     
 -0.250412220053095     
  0.483844525286575     
  0.169852163726021     
  0.117729871940585     
 -8.004773522278606E-002
  0.240977495683048     
 -0.452954472548288     
 -2.633755757135757E-002
 -0.740206094273795     
  0.891327918038912     
  0.217303237380387     
 -0.158375925768502     
 -0.183787479205505     
  0.309461224566159     
  4.875165465866100E-002
  0.170377434080832     
 -0.431104781343856     
  0.162726805472085     
 -0.294794607102790     
  0.423807557167395     
  0.129728139265272     
  0.191786459791083     
  0.109005356186987     
  3.589516163432203E-002
  0.859559506305871     
 -0.964708049407232     
 -1.310951936702964E-002
  0.450034276394132     
 -6.224451937430429E-002
 -4.480192799575125E-002
 -0.188438440160463     
 -0.305784508890067     
  0.481250730663877     
 -0.328497164190836     
 -0.130240716236772     
  0.272531272253329     
  0.101030030225381     
 -0.285934824339832     
  5.962332066350395E-002
 -0.739523459811837     
  0.607072409888835     
 -0.463756487990395     
  0.518749176867469     
  1.143587447998722E-002
  0.133531154290299     
  0.135211549727255     
 -0.303583523576251     
 -0.288311264226546     
 -7.337559705679562E-002
 -0.549054140157726     
 -0.302387715757749     
 -0.266898000413364     
  0.579024103566857     
 -0.101629417492464     
  0.377272107397694     
 -0.187924360063623     
  0.691110325751833     
 -2.757846406410076E-003
 -0.468913423848551     
  0.155171059802300     
 -6.095583409394831E-002
 -3.983239265946530E-002
 -0.149926688716032     
  0.100407377011295     
  0.168712976880085     
  0.495132446282727     
 -0.420438192580363     
  0.198243574840513     
 -0.721270890973260     
  0.191685998280842     
  0.105856283153719     
  1.948822624373915E-002
 -0.720561139412702     
  0.292475746878476     
  0.228945961759366     
 -0.410923309317389     
  2.616013845405590E-002
  0.270521155248458     
  0.298039271537598     
  0.100880476229853     
  0.151685485974895     
  0.330654400172148     
  0.208393514380081     
  0.166733585774497     
 -0.517499188432586     
  2.858239223206477E-002
  0.504826820387748     
 -0.261446832474103     
 -1.852471127261470E-002
 -0.239608716358588     
 -0.265175194978106     
 -2.197009118577841E-002
  0.308541583624914     
 -0.149386511359165     
 -0.217337456383506     
  0.224250089906939     
 -0.568529814641256     
 -0.189378732004568     
 -0.236379651262229     
 -0.374911717506552     
  0.304876177332252     
 -0.297665130973056     
  0.159406255229511     
  0.384740512783345     
 -0.215832561503464     
  0.167692306773105     
  0.330255444739845     
  0.158009060723339     
  0.102366264178961     
  0.188288893531787     
 -6.981146341024873E-003
  2.516472394825129E-002
  0.251437308867302     
 -0.168897904785648     
  0.657667050885722     
 -0.252109425625220     
 -5.734280214158445E-002
 -0.143437394129860     
 -0.333598850330821     
 -0.207660368193858     
  0.509863690126989     
 -0.336481263363760     
 -0.162867615372971     
 -0.283610528348200     
 -0.211244395312125     
 -0.148106320707200     
  4.063749933755562E-002
 -0.134328557484655     
  5.611585837490825E-002
 -0.372653947802137     
 -0.400964826159514     
  0.153210057228434     
  4.803328619480059E-002
 -2.319306729534614E-002
 -0.304855016945921     
  0.449939358821888     
 -0.315025429777472     
  0.496202270058362     
 -0.129236691799412     
 -4.868051397422638E-002
  2.689792760407052E-002
  0.400255117793555     
 -5.452195798871773E-003
 -0.332211507666985     
  0.436942136797389     
  0.247534179358251     
  0.336697722076354     
 -0.205141021518907     
  5.025970985460849E-002
  0.177932158012057     
 -0.523868975927421     
  0.495447214498016     
 -9.737467183879783E-002
 -0.299276440014025     
  0.185645028082040     
 -6.879796121163140E-002
 -0.472655394462130     
 -0.184459366401680     
  0.220671425952841     
  0.297463994717630     
 -0.170301815731371     
  4.748565783940135E-002
 -6.914835720428651E-002
 -9.795377717187324E-002
  0.123925757907478     
  0.332153067815638     
 -0.258182728767388     
 -0.293857042904097     
  0.158210739213692     
 -6.085548296822237E-002
  4.612505938369796E-002
  0.232260432986816     
  0.314450673057487     
  2.375145973067810E-003
 -0.305738023264285     
 -0.262790644146493     
 -0.372896484748799     
  0.358876643394360     
  0.502777458355308     
 -0.595753286295683     
  2.476281049713125E-002
 -0.105466360067600     
 -0.652684886170437     
  0.469940490965926     
  0.621382379438399     
  -1.19849319604868     
  0.458157302997789     
 -0.108581987295327     
 -3.832651667695318E-002
  0.273876755229438     
  0.231803458733489     
  0.104918713881695     
  0.157628103248849     
 -0.149264848732575     
 -0.760387406502740     
  0.912424388824452     
  3.871458902328653E-002
 -0.600497619344351     
 -0.104430820868981     
 -0.117333990730473     
  0.283937895370416     
  8.511756151940181E-002
 -0.389224149112141     
  0.592538353745095     
  0.260021526307239     
 -0.475771431631881     
 -0.313301369571884     
  0.208534885214018     
 -0.337520115099110     
  0.647161294727717     
 -0.654035763571194     
  0.158269511064203     
 -1.954985122049620E-002
  0.390891235373335     
 -0.164015633682041     
 -0.578124095097145     
  0.158761226206163     
  0.442961402683096     
 -5.681272335696665E-002
 -0.677973754000680     
 -0.240218486063424     
 -0.252388910985219     
  0.240121844368040     
 -0.342705240344686     
 -0.274236279386675     
 -0.339009836268627     
 -0.202781918024071     
  0.610822802935186     
 -0.611036814991102     
  0.219767977968218     
  8.115998798264516E-003
 -0.637330358729478     
  0.324757592440557     
 -6.795022622848340E-002
 -0.327712146469587     
 -0.869485624343370     
  0.563110115739177     
  0.239554546224042     
  0.811280587750564     
 -0.523753260578001     
  8.710882038095141E-002
 -9.586090352752795E-002
 -0.355504188030648     
  0.379153423921792     
  0.500486245707881     
 -0.399405426538948     
  0.149729506654287     
 -0.234382981006049     
   1.16799831469018     
  -1.11969642534033     
  0.723261971061617     
 -0.618705996177475     
  0.513066699481219     
 -0.343875179970879     
  0.222356558220326     
 -0.852647421048261     
  0.411493536167662     
  8.020578615752917E-002
 -0.551849451979679     
 -6.141201460743846E-002
 -1.652835052706855E-002
 -0.405556316994451     
  0.706467818901301     
 -0.204687548444000     
  -1.18293729712196     
   1.14927943389394     
 -0.508418248579477     
  0.400860717389863     
  0.264032089627758     
 -0.735008929105655     
 -0.519282601731001     
  0.880176710410469     
 
  0.786392258100326     
  4.015036919678600E-002
  -1.22607146067162     
  0.362052159652773     
  0.258353966431130     
  2.925831379423889E-002
 -0.451658078496908     
  0.237144503983836     
 -0.797789617055563     
 -0.771599759651863     
  -1.68475485317786     
 -0.526078574544785     
 -4.645559834923339E-003
 -0.376274091879357     
 -0.258086770140726     
   1.69368405486611     
 -0.676816372188590     
  4.880430483052785E-002
  -1.07162330845155     
   2.25499778931390     
 -0.244508470876847     
  -1.01803889349345     
 -0.659986567433929     
  0.649242540573889     
  -1.07624976867787     
   1.30899103471286     
 -0.618724564337120     
  -1.75195748657346     
  0.725115680777630     
 -0.629275120509683     
  0.732132018658931     
  -2.06188610832240     
   1.96185250712684     
  -1.01511398528171     
  5.428627455868108E-002
  -2.48548289378488     
  0.457118262630962     
  0.973764224608184     
 -0.556899705130818     
 -0.885770261392692     
  -1.16287514981071     
 -8.809734695244126E-002
  0.846418261405775     
  -1.63607609438061     
  -1.21669298291946     
 -0.168743279301342     
   2.86241637786949     
  -3.58186111611051     
   1.81605142090119     
 -0.958591032311362     
 
  0.617368676182608     
 -9.150898168982530E-002
 -0.361480791707996     
  0.167157103201934     
 -3.027859183929000E-003
 -0.375682226424677     
  0.560037414367653     
 -0.595388055914944     
   1.17971043886801     
 -0.436923394501316     
  0.267693048279275     
 -0.178466208899865     
  0.306750466646207     
  0.157716629609056     
 -0.116829476877374     
  0.172440209396594     
  0.542582469252980     
  0.245399314231940     
 -4.571254095279423E-002
 -0.169765992367610     
 -0.466618923473445     
  0.152247948894981     
 -0.503602975664539     
  0.423980764391654     
  0.337678413149270     
  0.861434954588420     
  3.569796382142618E-003
 -0.153456408124384     
 -7.262027677948987E-002
 -0.149930978954928     
  0.183688031022885     
  0.267428637429004     
  0.221794489108875     
  0.181479206941543     
  0.855196238681741     
 -0.207066429964903     
  7.480720503110676E-002
  0.298854505736489     
 -0.436092564701890     
 -0.427422690554230     
  0.534407732012651     
  6.731450245192118E-002
  0.382288276168030     
  0.429583098199431     
 -0.309855393922398     
  0.139813903753055     
  0.602782571439376     
 -8.252072051163749E-002
  2.993392163623932E-002
  1.282403570963973E-002
 -0.408798863987488     
  0.235282753888748     
  0.275258018653493     
  0.371615025816256     
 -0.228092170673917     
  0.459427176205574     
  0.282841606335663     
  0.840188613595746     
 -0.888899081330948     
  5.343602434273307E-002
 -0.424349471797508     
 -0.168665654248032     
 -4.828662255131122E-003
 -0.321739834392945     
  0.224308536905770     
  0.152658646577224     
  0.260534531804305     
 -0.290134782389833     
  8.092115549302481E-003
  0.116894011939641     
  0.336921268624880     
  0.217608206636485     
  0.443226363825401     
 -0.420735291461543     
 -2.021063597690431E-002
 -0.693889297421354     
 -1.393545668397333E-002
 -7.729342540374812E-002
 -8.380966545939902E-002
  2.193520088017987E-002
 -0.367451670534505     
 -9.480267996683719E-002
 -0.136029450757913     
  0.523195550892964     
 -0.661866240476526     
  0.435403314711091     
  2.754177316753758E-002
 -0.236936655690462     
  0.242442093861180     
 -0.239372002499859     
 -0.387930237055687     
 -0.128626542017022     
 -0.944006640771964     
  7.845786722143920E-003
  0.250651592615053     
 -0.281828643815598     
  7.581012855702897E-002
 -8.371956113169002E-002
 -0.424171909027172     
  0.144029336546327     
  0.118011370909879     
 -0.635918837845084     
  0.219838337070561     
  0.374712927150834     
  7.836067132829409E-002
 -0.567261244331610     
  -1.99906021494112     
  0.219517021146507     
 -0.395080570976262     
   1.10971873756259     
  8.811602974549455E-002
 -0.216007102233206     
 -0.188456291163817     
 -0.208419806919832     
 -0.389257082593811     
 -0.304469194054026     
  -1.39788048601105     
 -0.374938164986733     
  0.539812170442595     
 -0.231535093129272     
 -0.389329200218310     
 -0.504559653220193     
 -0.282729486598094     
 -0.246719558382989     
  0.259884594903484     
  0.871386117729319     
  1.357751637759330E-002
  0.206055153836473     
 -0.499195443877639     
 -0.290157741988551     
  0.551726586353131     
  0.864744013370640     
  0.280424007253316     
  0.100325674204945     
 -0.643497572105506     
 -0.195008070156777     
  0.587423800522777     
  0.650177058342599     
  -1.23043418123137     
 -2.320708433152537E-002
  0.114610555609883     
  0.144242779564265     
 -0.740876074050175     
 -4.361349694154854E-002
 -0.290090112638061     
   1.02925381675215     
 -0.446876279725279     
  0.913033640202413     
  0.107133514083462     
  0.375855561793120     
  0.186550441803262     
  0.181247911335475     
 -0.585256653231976     
 -0.390936567776674     
  0.434124052719653     
  0.164579069048888     
 -0.133680247924022     
 -0.341971278102232     
 -0.926603472328208     
  0.212493838969594     
 -0.437637756283261     
 -0.589941657636126     
  0.287819758189030     
  9.224415433948283E-002
 -0.326454566573668     
 -0.419977313100302     
 -0.250959463049949     
  0.487213513302811     
  1.747087453039538E-002
  3.701876752786355E-003
  0.282848181080493     
  0.339274568334106     
 -0.424737729823401     
  2.972586461760261E-002
 -0.104927981017984     
  0.115001874866056     
 -0.241518855923621     
  0.242771007854968     
 -0.140832850494285     
  0.486464467030294     
 -0.643478711943279     
 -3.031821210910082E-002
  0.830736332074116     
 -0.701536569623718     
  0.229352868422934     
 -0.446667585478743     
 -0.276972473403216     
 -6.222546711074944E-002
 -0.107939059805376     
  0.469735080602083     
  0.458750041198934     
 -0.186332420718215     
   1.16574988645779     
  0.412681459382268     
 -0.117496885743686     
 -0.146576160903538     
 -0.550777826493941     
  0.111224436794475     
  0.175564469614484     
 -9.469767591906895E-002
   1.85046907170204     
  0.527566815430273     
 -0.459849319158082     
 -0.486866797548669     
  0.507139180158163     
  0.326783028194494     
   1.14978748125264     
 -0.237559913713305     
 -0.372438587575819     
  0.342399722555995     
  0.152055796116340     
  0.252764075790649     
 -0.967606998920919     
  0.624554011280136     
  0.138983416106745     
  4.259930632647272E-002
  0.818613862189480     
  7.266633758073222E-002
 -0.230880764208081     
 -0.713725192257683     
  0.608381329111805     
 -0.675795703101177     
  0.463046539008451     
 -0.352012139949597     
 -0.306513749629374     
 -0.549641927429264     
 -0.638765866124812     
  0.692151391881242     
  9.869350211618352E-002
 -0.548826343961226     
  0.344121060676819     
  0.424705606684196     
 -0.574313127920268     
  0.284895186041784     
  0.191763434778457     
 -0.737286885118543     
  8.818319173803191E-002
 -0.873909399807780     
 -0.386572713227031     
 -0.338534202380101     
  0.875985523075805     
  1.910112401734846E-002
 -0.689017233731473     
 -0.312270621418258     
 -0.207365312105972     
  0.160666056629045     
 -9.612331234787892E-002
  0.168294325792649     
  6.825835696439643E-002
 -4.922299006985935E-002
 -1.038912235730154E-002
  0.415813825732181     
 -0.601510703956119     
 -7.904483176518562E-002
 -0.393669787369064     
  0.361942976035188     
 -0.738778667832162     
 -0.817657114263376     
  0.182994377994911     
  0.122010448768523     
  0.340603196678075     
  0.618178227046671     
 -0.207769382599529     
  5.393237910660104E-002
 -0.439925534814516     
 -0.112481527871370     
 -0.393495476551795     
  9.576048452582130E-002
  0.405335420669547     
  0.298716402963280     
  0.158863872146850     
 -4.437169613913003E-003
 -0.695636150455138     
  7.490108770264187E-002
 -0.155980482045421     
  0.784920712823610     
 -0.124506308617662     
 -0.269436701100269     
 -0.200611145806246     
  0.770272412443353     
 -0.151979656431169     
 -0.334044731427797     
 -0.691912836399263     
   1.05592666568024     
  0.216107547675223     
  0.262497087459673     
  0.544031714280969     
 -0.658824137835317     
 -0.754625494990164     
 -0.224553663712579     
 -0.579150871274830     
  0.595654632000482     
 -0.298600643301546     
  -1.35789392278307     
  0.233983706367339     
 -0.217879212464545     
  0.218651413184907     
 -0.440478981997445     
  0.133056191079207     
  0.927571776271640     
  0.738146740019269     
  0.468501271476662     
  0.118512645421000     
 -7.802391125884903E-002
 -0.300195038718711     
  0.597231153699036     
  0.504711154617651     
  -1.00215832973301     
  0.319936306424380     
  0.497334799603890     
  0.356934704160130     
  0.310021306534604     
 -0.103349029136418     
 -0.460065016544720     
 -0.145620995247452     
  0.509129535049667     
  0.720769751028828     
 -0.110958325564340     
 -1.865338422675329E-002
  0.275605832306577     
  0.523929357030972     
 -6.751842491400370E-002
 -0.201573933973467     
 -0.745382099263635     
 -0.286637110310367     
 -0.549800093934034     
 -0.228619602768537     
  0.344310013267339     
 -0.246651382155893     
 -0.826191699256998     
  0.886463687829411     
  0.996875546567125     
  0.202689750508959     
  0.890135373603146     
 -0.977745776286212     
  0.744756103259280     
  0.383280194855654     
  0.166569248676163     
 -0.514387018778330     
  8.158442147889168E-002
  0.279240494907787     
  0.376406512079277     
 -0.497710521136399     
 -0.368061583633098     
 -0.945908635529937     
 -0.155679131528563     
  0.830859671585665     
   1.21221122594477     
  0.398235126712415     
  0.489110654609722     
  0.207042367683743     
 -7.351999118134890E-002
 -6.231345865205740E-002
 -0.256035959380507     
  0.581029354461620     
  9.317503385451084E-002
 -0.311036225404104     
  0.388531383238397     
  0.731257079513198     
 -0.482380275106275     
 -0.342428795943418     
  0.114188094816176     
  0.120085159095818     
  0.444089267128484     
 -0.274004417819045     
 -0.185737291865949     
  0.544214672107652     
 -0.235512911798975     
 -1.526283362722419E-003
  0.235349312495925     
 -6.504088639369973E-002
 -0.258583686401278     
  0.655210937320334     
  0.177950442055486     
 -0.137503369412667     
  0.669848598550860     
 -0.376453036941149     
 -8.053126353880942E-002
 -0.455508585985468     
   1.15434282059297     
  -1.25120230569280     
  0.282799583907201     
 -5.886356064549203E-002
  0.130922140536764     
 -0.507306071113520     
  0.679700506122407     
  0.175515607642040     
  8.877003394301437E-002
 -0.170046369984887     
  0.212839405438879     
 -0.407735755434384     
  2.880376894451264E-002
 -8.422110583048165E-003
  0.265492264135297     
  0.312250802590953     
 -0.185499881469109     
 -0.687210794731171     
  0.165891849087499     
  -1.36366946160513     
  0.113843057373898     
  5.977209747954875E-002
  0.102884662939623     
 -0.184725780539387     
  0.386919997282260     
  5.388156519374489E-002
  0.210507502457572     
  0.278861367114836     
  0.483217294518076     
  0.230604404053776     
  -1.09682327851587     
  0.553454190408227     
  0.240157017808922     
 -0.400972115676870     
 -0.308979814417034     
  0.736735315340200     
 -0.316265726692744     
 -4.638773670542538E-002
  1.305498658216483E-002
 -0.588124502941278     
 -0.557548972427791     
 -0.150445218581038     
  0.735638807774248     
 -0.107923459659164     
  1.914123469353728E-002
  0.296592596820487     
  0.552318098680339     
 -2.736305762826921E-002
  0.234801737379246     
  0.327787764959060     
 -0.672144766891970     
  0.383510671619452     
 -0.526887017436572     
 -0.721830824342141     
  0.253601165301287     
 -0.273939199449293     
  0.421868682558529     
 -0.133318129748382     
 -4.438705430620533E-002
 -0.487179812257764     
 -9.268157009056963E-002
  0.463518475287108     
 -0.690857222339682     
 -8.954678114667133E-002
 -0.739814699545817     
 -7.389745222062771E-002
 -0.334740416671225     
  0.977615694712372     
  0.168396238013713     
  -1.12300003769949     
  0.110188516477855     
  0.328927719974489     
  0.288469450674479     
 -0.179332576347670     
 -0.718260287235967     
  0.223877608458598     
  0.273569264440902     
  2.495420018537148E-002
  0.755344121687650     
  0.186737892662470     
 -2.738817010564095E-002
 -0.434549373927120     
 -6.244445610396186E-002
 -0.328148282031110     
  9.018321987745480E-004
 -0.248162842933980     
  0.350749223156588     
  6.515277043447724E-003
 -0.670484088687299     
  0.241911901283237     
 -0.305573300426750     
  0.207352022397541     
 -0.436206219829051     
 -0.671960415789535     
  0.377007037515226     
 -0.562480374517516     
 -0.830273846552504     
 -9.430281976008976E-002
  0.497440514071918     
 -0.180501245219207     
 -0.433349276615372     
 -0.380637944602659     
  5.833584282990286E-002
  0.343818853427547     
  1.473766167651648E-002
 -9.676129148202217E-002
 -4.884837240778279E-002
 -0.190127520227790     
  0.223913989329386     
 -3.711663041015058E-002
  0.809853338502583     
  0.171829440528031     
  0.396022004023015     
  0.285708846438003     
  0.759907949625950     
 -3.961803208675318E-002
  0.236386068030332     
 -0.285809175244000     
  0.110415843353321     
   1.04833487402104     
 -0.468482350889526     
  0.399764040443228     
  0.162777992879233     
 -2.655173428124212E-002
   1.24740540520803     
  4.154544025431020E-002
  0.337826752804337     
  0.334565408185122     
  0.170476805407810     
  0.494984831367694     
 -0.296754741057365     
  0.869584472954490     
  0.178082325264319     
 -0.172579163542374     
  0.929344133953094     
  0.355450027972647     
 -0.600627032828116     
  0.237003880965079     
  2.667582388149281E-002
 -2.091489809623745E-002
  0.912881649626817     
  0.447401513041288     
  0.512893180695418     
 -0.477227060414112     
 -0.660152068417696     
 -1.865737097356053E-002
  0.540640550955635     
  0.553568490533593     
  -1.01449107233869     
  0.236823397723454     
  0.826989101513875     
 -0.498038481975577     
 -0.824150764985611     
  1.236117909494461E-002
 -0.158021033772234     
  0.155977523003864     
 -0.745715970295316     
  0.292721907114776     
 -9.998755609896075E-002
 -0.366898600509627     
 -0.712617413395324     
  0.760676043462869     
 -8.929228974882114E-002
 -0.337101683134500     
  0.372897954698581     
  0.404354004153291     
 -0.109455192838772     
  0.653185895689036     
  6.566594103401475E-002
 -0.553868461412859     
 -0.193831103600112     
  0.559539495059487     
 -5.192355040835332E-002
  0.406866251928785     
  0.390916503348346     
  0.736995529536002     
 -5.911489027972912E-002
  -1.07621884527846     
 -0.671980249114352     
 -0.847603592055523     
 -0.123776750466144     
  0.294382588078938     
 -0.448417766756490     
  0.212106700808338     
 -0.145052322678155     
  -1.03813887376750     
 -0.871850753021799     
 -0.563732764840516     
 -0.482289154459010     
  0.251126837041660     
  0.262626313201843     
  0.318220015852405     
  0.555930249969516     
 -0.367786636374783     
 -0.547384110303651     
  0.812706043502619     
  0.431988346141355     
  0.588898106465234     
 -0.952123698497830     
 -0.134994809656956     
  0.829272890940920     
  -1.47379148056753     
 -1.896380510088618E-002
  2.984277971096370E-002
 -0.647247377933627     
 -0.127822048662854     
 -0.105452396108575     
   1.27185818230040     
 -1.233571443093254E-002
  0.579032814626892     
 -0.439946253243714     
  0.802443281516002     
  0.348465351304723     
 -0.339304843426067     
  0.706043176049234     
 -7.151119349081998E-002
  2.681017327016763E-002
  0.147282599966314     
 -0.616516658304095     
 -0.628311403724395     
  0.245599601342589     
  0.499156461560650     
  0.331242340518300     
  0.525830769970740     
  0.320036617202485     
  0.690856708236043     
  0.547660431758957     
  0.525626727045593     
  0.648239630780578     
 -0.236757591213681     
   1.21665249552185     
 -0.470444499533095     
 -0.511417248380242     
  0.347391188067184     
 -0.521770251591806     
 -3.223168449024366E-002
   1.21088864310469     
 -0.115480310889153     
  0.520500310077332     
 -5.089170966931855E-002
 -0.229584493321187     
  0.479841887250817     
  4.984686420279546E-002
  0.369987338897893     
 -0.273554800944622     
 -0.292586290603705     
  -1.08297803363696     
 -0.970918124233866     
  0.208266838241844     
 -3.536691185837787E-002
 -0.593248198543205     
 -0.254031329858472     
 -0.149344135266493     
  0.890086531056301     
  0.125032345272868     
 -0.523634851627883     
 -0.219082386911796     
 -1.181562206718813E-002
  0.363937241239968     
 -0.278144887891507     
 -0.404032447138791     
 -2.607378866968858E-002
  -1.19232110557329     
 -0.669200218527324     
 -0.442926995449364     
 -2.072410155529351E-002
  0.798049406265898     
  9.862579112622018E-002
 -0.288676060174384     
 -0.261871603763875     
 -0.146036024082461     
  1.672971795437472E-002
 -0.523173006942588     
  0.611168273808173     
  0.606375825917740     
  0.407651607917261     
 -0.428342785326922     
 -0.724258881741733     
 -0.156920714901894     
  0.344526334043652     
  0.247416945518495     
  0.357082703007245     
  0.566905735958331     
 -0.313826835329725     
  0.589732569939549     
  2.987282335611633E-002
  0.364341041772616     
 -0.941707207764691     
   1.19663289130332     
 -0.771736211680199     
  0.946669529745618     
 -0.357553052537176     
 -0.679470060843857     
 -0.407499123060072     
   1.55148053592835     
 -0.283478782716071     
 -0.403576668667905     
 -0.579244692033346     
  6.828950054890937E-002
 -0.626603053869127     
 -0.583797006055523     
  0.868957578528957     
  0.318592989046372     
 -0.154383747508888     
 -0.529706857125025     
 -1.361580307866943E-002
  0.308240278661112     
 -0.290275674000714     
   1.14693445701614     
 -0.230945957586875     
  0.959559544259108     
  0.156910593260423     
  2.132816912894449E-002
  0.480454461017492     
  0.628691958141573     
  0.623223210810649     
   1.24822728360682     
  0.377466944435788     
  0.487422376988409     
 -0.695098184526765     
 -0.590937223006057     
 -0.518976344707149     
 -9.138730176831109E-002
  0.357711629193543     
  0.200507520731953     
  3.143799330379185E-003
 -0.243714893163861     
  0.435980755985268     
 -0.341799596140927     
   1.02622517699006     
  0.330286336811635     
   1.07332070578896     
  0.592184612590025     
 -0.361508129928059     
 -0.299999531328814     
  0.211039321312912     
  0.804302454782800     
  0.151098087954785     
 -5.198714839321929E-002
 -0.476418161613765     
  0.341360478952384     
 -0.215323365960397     
  1.232146239704414E-002
 -0.223576158084704     
  0.220236560522242     
 -4.853624928233877E-002
 -7.122934422131966E-002
 -0.932556871169235     
  0.424738882162929     
 -2.527829058560218E-002
 -0.359142618222901     
  0.883884296141545     
 -5.112757088161920E-002
 -0.100787344818763     
  0.736584408052280     
 -0.557134708885922     
 -0.241974230222290     
  0.428258654246378     
 -0.227750718137745     
 -5.956903189960043E-002
  0.175405773383785     
  0.412712763553409     
 -7.566247761731958E-002
 -0.451443226678670     
  0.592322641822802     
  0.755421748263146     
  0.246016910615853     
  3.479250209952945E-002
 -0.509508092500558     
 -0.225508442010223     
  0.119923739306593     
  0.195175540080112     
  1.539036285695263E-002
 -0.217590943482704     
 -0.135972888391189     
  6.302464820335679E-002
  0.147624781948313     
  -1.01409262595841     
 -0.705271409659839     
 -0.882563385991841     
 -9.061204769928615E-003
 -1.543286429532685E-002
 -0.368374724734654     
  0.672679411200050     
 -0.269060331340685     
  2.032522585668133E-002
  -1.06612229231042     
  -1.06564682664507     
 -0.377758938611927     
 -0.582403100808287     
 -0.226277220074936     
 -3.848385615193151E-002
  0.491683958451754     
  0.430571680877215     
   1.13181181382167     
  0.121264292504483     
  0.415835188059888     
  0.445775410101014     
  0.443748057127888     
 -4.243525601456070E-002
  -1.23473716714942     
  -1.35476747332823     
 -0.385239688629312     
  0.636073684403460     
  -1.28704509813130     
 -0.528261792424506     
 -0.734522118039659     
 -7.286984400519786E-002
 -0.370757398221358     
  0.191794687196424     
  0.711664441209584     
  0.133676335584292     
  5.666831639608797E-002
 -2.322682375976884E-002
   1.42118284009738     
 -0.183361679407271     
  0.156604906859237     
 -0.377134872613411     
  0.320628493310403     
 -0.385953703246420     
 -0.252557709424509     
 -8.667750371084273E-002
  0.692288974167711     
  0.379971551675400     
 -0.190395194597314     
 -0.107171782399285     
  0.479966097401336     
  0.343446043223916     
 -0.302339780252565     
 -0.442753471737897     
 -6.807729721605860E-002
 -0.627137613348277     
 -0.351060932907430     
 -0.106459565901318     
  0.296501527550836     
  0.238296585533326     
  0.499309557856073     
  0.365304410533723     
  2.703237293732812E-002
 -7.807096703489563E-003
 -0.161189669069058     
  0.625689262898948     
 -0.244779117193750     
  0.146166501374062     
 -0.195606755821624     
 -0.131371226088924     
 -0.625806710163494     
 -0.143428581602292     
 -0.326466156483491     
  9.605033838496721E-002
 -8.661523762701363E-002
  0.562379514897809     
  0.240981276146734     
 -0.418777436548609     
  6.162911905174483E-002
  0.151521130289835     
 -0.171107243776520     
 -0.257574641438478     
  1.227466419913944E-002
  5.155617516998966E-002
  0.680618546344944     
 -9.553607642414201E-002
  2.815224818609246E-002
 -2.437873858066101E-002
  0.437091571951447     
 -0.463440692216987     
 -0.492288091148203     
  0.126830668954456     
  8.960035370840359E-002
  4.545681729700032E-002
 -0.153999237371881     
   1.16811416673404     
 -0.201796716197889     
 -0.658546228235656     
  0.720857768631049     
  0.947152169480056     
 -0.213748243766925     
   1.14180295091428     
 -0.552017438151493     
  0.657714579305419     
  0.192602554456235     
  0.561447811367480     
  7.250650027928240E-002
 -0.128443768057826     
  0.403513740309178     
 -9.985070630883409E-002
  0.969943648962160     
 -0.244605769701683     
  0.415348715038952     
 -0.773642793463241     
  0.497616828397028     
 -0.239378822323382     
 -0.466075462360478     
 -0.410654089288073     
  0.669711735200711     
 -0.926501660329653     
  1.895406047359714E-002
 -0.789587929274389     
  -1.09817474890302     
  0.187329031134780     
  -1.04580459602891     
  0.931628601120331     
  0.480549137353353     
  0.446860564845431     
  9.709105390355585E-002
  9.235243359018043E-002
  0.251053019475226     
  -1.00554902041308     
 -9.463818932862586E-002
  0.261155945505074     
  0.581657604661131     
  0.506485195769457     
 -0.480322148810302     
  0.840510768941180     
 -7.742148391340237E-002
  0.476242016167543     
  0.518668985652933     
 -0.396744518524199     
 -0.332923540861843     
  0.301554993805536     
  7.142859944625586E-002
 -0.750354485826624     
  0.239017815036209     
  0.109870528748022     
 -2.927712670250262E-002
 -0.413135938411839     
  0.179204167644662     
 -0.146722844160569     
 -9.550552458905121E-002
 -0.292564139524070     
  0.994537253076633     
  0.561628629403957     
 -0.118983444551881     
  0.241426992691043     
  0.362204139495767     
 -0.562745472007280     
 -6.593718323018921E-002
 -0.341451118606388     
  1.848843255366861E-002
  0.234754825247429     
   1.03125902112144     
 -0.142127206001353     
 -0.672840096191679     
  0.398572299460160     
 -0.632409896129276     
 -0.334456357238907     
  6.511782349675868E-002
  0.168300159192834     
 -0.351818435664859     
 -8.291012768919694E-002
 -0.200757976931125     
 -0.369030593365325     
  0.199777849196538     
  0.524926640949700     
  0.548657292953950     
 -0.767518909724603     
  0.578001916141418     
 -0.519609294807544     
 -0.715716182080432     
  0.782036773106021     
 -0.519221651967827     
  1.801048170937516E-002
 -0.589087601989625     
  0.266102353760209     
  0.221664172557471     
  0.421969176515706     
  0.853494679640362     
 -0.625454555849447     
  0.824800029467351     
  6.952630015006840E-002
  0.390596266534558     
  0.621924573643920     
  0.144327806744585     
 -0.181787046179355     
  0.947007080691451     
 -0.212685085811891     
  0.513968957112343     
  0.162653190140392     
 -0.692988346185444     
 -5.000286054275770E-002
  0.749918364683161     
  9.467990968317394E-002
  0.431282153053404     
  0.346884451266179     
  0.129581608911311     
  0.905673600147371     
  0.945199030308565     
  0.442628148570636     
 -0.272357512276089     
  -1.16087076615224     
 -3.081728979573224E-002
  7.015011249790379E-002
 -0.335663608758654     
  0.386859804950691     
 -0.800241640649918     
  1.724251607755913E-002
  0.454338057585236     
 -0.158219716930161     
  0.818992262102490     
   1.04155686608235     
  7.464507126564011E-002
 -1.644955227464093E-002
 -3.072426709284926E-002
 -0.561940999335640     
 -0.424960152209983     
 -3.534309078328126E-002
  0.223257906218205     
 -0.535692718420307     
 -0.525977538018437     
  3.022747612262291E-002
 -0.687728166503185     
  0.695784383052323     
 -0.102647668852812     
 -0.193094802366583     
 -0.262050699824796     
  0.188381522188947     
  0.642128148959751     
 -0.385021898271645     
 -0.912292100206293     
   1.00571361258497     
 -0.115811681831965     
 -0.754077296909612     
  0.334938261363302     
  0.426338691330235     
 -0.230741892680913     
 -0.122524162049154     
  0.302435529854952     
  0.279926492329042     
 -0.223597282689000     
  -1.06936135823945     
  0.282010167670431     
 -0.487361634875821     
  0.290395923243124     
 -0.378204549172463     
 -7.011976179557221E-002
 -0.190698057533001     
 -0.134856405737435     
 -0.186805355432630     
  8.317130452211788E-003
  0.322403825836957     
  0.633092495071277     
  0.369886394714235     
  3.968005551984681E-002
  0.206037249981429     
  0.104685589836053     
 -0.356193589014911     
 -0.571789532177125     
 -0.281358305388517     
 -8.651502212158720E-002
 -0.917433588343183     
  0.368968494401942     
  0.202711478795323     
 -0.241432376329128     
  4.177152540578250E-002
  0.149865063860608     
 -0.546623393122749     
 -0.606623925494272     
 -0.176864643430697     
  9.464825254320347E-002
  0.785438713924477     
  0.739214352857157     
 -0.374367697268819     
 -0.202935528990975     
 -0.317456741203867     
  0.182427460159715     
 -7.525068844049965E-002
 -0.565055609923985     
 -0.345879745780132     
  0.250110357779666     
 -0.128989076573307     
 -0.354704226295752     
 -8.865624806798218E-002
  0.345074921601891     
 -0.120643916027197     
  0.341221431675276     
 -0.331719600286127     
  0.161219471068668     
  0.133955071239055     
  -1.66681902257053     
 -0.675615421739767     
 -0.421852007766184     
 -0.276735372283886     
  -1.08646960189775     
 -0.193480848511426     
  0.974363252031591     
 -1.582513355480054E-002
  0.495811199892429     
  0.212988447576929     
  0.916970453847252     
 -0.275490595318926     
   1.02339233142777     
  0.425201912654024     
  6.945446883324870E-002
 -0.488496120305688     
   1.17492070141328     
 -8.966139875292405E-002
  0.194807371174950     
 -0.404907440669634     
 -0.208011404054117     
 -0.188382044169538     
  0.670667756871744     
  0.460521670203486     
   1.04030566398164     
 -0.711519021437503     
 -0.474101394153598     
  0.846197137501673     
  0.324376476970987     
 -0.243989813398217     
  0.470262015328332     
  3.742653364219036E-003
  0.146878545233868     
 -4.264831404226027E-002
  4.468447824539055E-002
  0.914887907926314     
  0.769428995858473     
 -0.521819255663156     
 -0.955814435477434     
 -0.434944847527073     
  7.063839394179690E-002
 -0.749787310859245     
 -0.265059016418387     
   1.12266132145414     
 -0.226225825388423     
 -0.139737148220665     
  7.066270088451357E-002
  0.152139288830865     
 -0.469301193618580     
   1.18887225253798     
  0.255734932638413     
  0.124411699279093     
 -0.450397561737389     
 -0.902175130129188     
 -3.802289483212810E-002
  0.987470509482897     
  9.581996509099584E-002
 -7.745515065520640E-002
  0.328363582117868     
  0.509124115401310     
 -0.593030830811100     
 -0.435917105844626     
 -0.370066661142780     
 -0.537479883938252     
 -0.495193084486085     
 -0.687822608648952     
   1.32581367600517     
 -0.176315690015074     
  0.493348984290508     
  1.258156311891805E-002
 -0.593885852478238     
  0.637277099452201     
 -0.393312647361684     
 -0.499572456357078     
  0.649087312236217     
 -1.013562990557101E-002
 -0.251937494648567     
  0.723473844346736     
 -1.885288104178512E-002
 -0.219181997385788     
 -0.355256565437319     
  0.319872865850657     
  4.053174278064905E-002
  0.147191711468803     
  0.384982026714021     
  0.247944604465282     
  0.240436522837487     
 -0.324281425245236     
  0.202227657609585     
 -0.510426754023871     
 -4.523737106204635E-002
 -0.342322311909643     
  0.510480790948875     
  0.926965458902137     
 -0.138359681326322     
  0.118440140051936     
  1.844114102306163E-003
  0.822917602911867     
 -7.603364830311882E-002
 -0.856170333277825     
 -0.382564365070005     
  0.225837050579090     
 -0.101858287328013     
  0.263611301661836     
  0.290972718847516     
  5.248932044159563E-002
 -0.423320057753103     
 -0.283495202123575     
 -0.400108535376557     
 -0.294565440524747     
  0.382165941089932     
 -0.611992183096682     
 -0.678687716579855     
 -0.322057365285383     
  0.379197381700501     
  0.173718833175010     
  5.256028282841890E-002
 -7.161100349180363E-002
  0.213880863636979     
 -3.611693211823770E-002
  0.374666362035754     
  0.515894541547477     
  0.387340296093281     
  -1.10364942737871     
 -0.706500083604794     
  0.495135235211344     
 -0.614741408284389     
  5.243853949306145E-002
 -0.653310502200591     
 -0.275156148589888     
 -0.126235354624942     
 -0.294154289236711     
  0.380321699747986     
  3.232847436401930E-002
  0.102956830990363     
  0.639187804493194     
 -0.706649469448484     
  0.551136011115387     
  2.931726760096694E-003
 -0.271539617670733     
  1.206263809259489E-002
 -0.218819435568522     
 -0.181201066047950     
  0.749324563434856     
  6.439274710553092E-002
 -0.374585405435129     
 -0.670725073056585     
  0.842203542508213     
  0.162006449313682     
  6.149632582627066E-002
  8.810936579071016E-002
  0.591153190229762     
 -0.881610244321670     
  0.428743119764573     
  3.245394097257064E-002
 -0.200698031827542     
 -0.535318370118192     
 -0.306633520293561     
 -6.919297751433325E-002
  0.323534029033770     
 -0.170097653047349     
  0.315790006555834     
 -0.773934358579832     
  0.152268641429548     
  9.886924135824104E-003
 -0.149431374666236     
 -0.103085490642907     
  0.361052849025762     
  0.580165770897626     
  0.420763932414277     
 -0.241637321014878     
  0.138745809172270     
 -6.033498365085735E-002
 -0.364090333100364     
 -0.359189390554730     
  0.295276647174860     
  0.310059218784286     
  0.705909925543743     
 -0.337927056797816     
  0.274628510877932     
 -0.402200207340189     
 -4.114245810735526E-002
  0.156111572998258     
   1.08535691336928     
  0.285330720162206     
 -0.638131350194087     
  0.487070072219501     
  4.957096819904908E-002
  0.395382198033614     
  0.244958862350182     
  9.730783708711513E-003
 -0.209444095683652     
  6.198211646436456E-002
  0.409682838510551     
  0.370451135813507     
  0.512928554784407     
  0.448692447200331     
  0.488151580945704     
  0.292978628805971     
  0.669451328478475     
 -0.505775622305223     
  6.236338892765329E-002
 -3.394454983588897E-002
  0.333926771856660     
 -0.453709934900429     
  0.375999836489630     
  0.223472401667328     
  0.275719605727611     
 -0.264139091643078     
  0.805513295313447     
  0.644546715274797     
 -0.632531206855329     
 -0.499971715496951     
  0.365602736044721     
 -0.183239931216727     
  5.120014887623704E-002
 -0.158861970707916     
  7.010284077106214E-002
 -0.154716913930839     
  3.421153533705770E-003
  0.233264440551267     
  1.842576286434207E-002
  0.173548837080421     
 -0.244429077054934     
  0.207759861484438     
  0.591417205708083     
 -2.598777142779645E-002
  4.119973425175252E-004
  0.838236658061940     
  0.358226622469234     
  0.686528089372461     
 -0.547937651489729     
 -0.632923574898215     
 -7.657527928728074E-003
  0.126448194500477     
  0.132276080577756     
  0.147665609919292     
  0.331636860037840     
  0.365828187782362     
  0.452282409772081     
  0.673537727734307     
 -0.305995392485749     
  0.102426608874764     
  0.155466466899092     
  0.233407537477011     
 -2.166035799343979E-002
  0.126639821698368     
 -0.119129300359786     
  2.131658963230304E-002
 -0.389837408465421     
  0.367464179391356     
   1.10992683597331     
 -0.347005128500284     
  0.713242921812552     
 -0.136081071949691     
  4.903936356253176E-003
 -0.229266123401680     
  0.124009135848158     
 -0.105620793090866     
 -0.392200301754507     
  0.243579723399390     
 -0.359663102792973     
 -0.380964187641922     
  4.802349124292212E-002
  0.167184749198120     
 -0.319341109305005     
 -2.283805930204134E-002
 -7.950942270994213E-002
 -2.484310682836653E-002
  0.246893745435462     
  0.323881838152014     
  0.667387805563922     
 -0.411101442172189     
 -0.247753976991634     
  6.050886478164195E-003
  0.337882780301668     
 -6.461671501629485E-002
 -4.502807007097362E-002
  0.606564473648516     
  0.362542569715410     
 -5.994891627854910E-002
 -0.449614608987026     
 -6.818782673210545E-002
  0.441571788501070     
  5.421146947976017E-002
 -0.314352482281010     
 -0.352545563352604     
 -0.118211748006037     
  0.459969065680308     
  0.457368976020653     
  0.429344153200804     
 -0.355350563172757     
  0.513434738268297     
  4.719990819933467E-002
 -0.413345899629797     
  8.990405670964362E-002
  8.919094840376275E-002
  6.616480596018630E-002
 -0.289219212503493     
 -0.326470675583852     
 -0.298742651524966     
 -0.621197553509053     
  0.633048863341204     
 -0.449007390133457     
 -7.414289112207006E-002
  0.377529382769805     
 -3.359846259901125E-002
 -0.606050907515175     
  4.420660003877830E-002
 -7.628900869243527E-002
 -0.165028617289925     
 -6.552147208602313E-002
  8.189150309706279E-002
 -0.291165396585024     
  0.210750919852994     
  0.439814007039590     
 -0.219879283820306     
  0.162417419913778     
 -0.136770591828668     
 -1.390241981922117E-002
 -0.134739576008747     
  0.176521173050130     
 -0.295015401356880     
 -1.754385210464249E-002
  0.275179859422633     
  0.546466198804511     
 -0.357218400320920     
 -0.298557853140259     
 -2.869627387175230E-002
  0.193024347504653     
 -0.149696547555909     
  0.289316747199333     
 -0.504188712558638     
  2.154125914976398E-002
  6.966260260712151E-002
  6.777979814297398E-002
  0.254073674713019     
 -7.711236534657195E-002
  0.348942718325056     
 -0.127421070311992     
 -9.731760971508491E-002
 -0.269967477470981     
  0.262635205727800     
 -0.105245703016622     
  0.592389417534870     
  0.473820034037670     
  0.330198510815713     
  0.374258471242135     
  0.318272333891221     
  0.397066311419664     
 -0.782580735389800     
 -7.983572845703922E-002
  0.126991969087624     
  0.222998854743702     
 -0.499573112914609     
 -0.520136806660855     
  0.229498318746948     
  0.175942003910548     
 -0.608433036335781     
  0.241533736973395     
  0.800519939335670     
  2.140323153588069E-002
 -0.495899067046243     
  0.289738437647236     
 -6.584776248699939E-002
  0.826519288710673     
 -0.458384227781381     
  0.311116880920693     
  0.390920863110857     
  -1.20152283813604     
 -0.192799918811303     
 -0.255417144333541     
 -6.424551079491697E-002
   1.16014418690151     
  0.258985482780116     
  0.556493860093765     
 -0.277610245954236     
  0.431280515348063     
  0.552223688221853     
  0.199497152479604     
  1.375927248000479E-002
 -0.387475351065823     
 -0.327497707506846     
  0.234622303515114     
 -7.892849204978974E-002
 -0.229087457996963     
  0.433819891117920     
 -5.150894433082778E-002
  0.642737473643058     
 -7.834391138731819E-002
  0.373909238536018     
  0.111613765805622     
 -0.516096497634148     
  0.143091000742758     
  0.276134772390420     
 -1.170744753602982E-002
  5.863692387010289E-002
  0.385321563238674     
  0.527299453819268     
 -0.568578906570315     
 -0.171705563034211     
 -0.626592961615019     
 -0.384819176220512     
 -2.005879674127660E-002
  0.474729881529101     
  0.226779270683504     
 -0.158313285066612     
  0.118123415970092     
  7.737170886445184E-002
 -0.751750106201953     
 -0.822296232330866     
  0.147085403243866     
  0.385304102763101     
  0.308194613025905     
  0.140773639289465     
 -8.921925341516580E-003
  0.164738249456882     
 -0.399104417236999     
  0.500144065121071     
 -0.467137719312513     
  5.497451018057022E-002
 -0.466283159481555     
 -6.293554169147614E-002
 -0.722281570630066     
  0.250302568863231     
 -9.206578529069256E-002
  7.002632277996043E-002
 -0.388160841129578     
 -0.466526163572204     
 -0.286947858629225     
  0.246989124216916     
  0.952197046463209     
 -0.403009204233581     
  0.545271172078283     
 -0.214810256418478     
  0.324913012165135     
  0.140520316912682     
  0.489200041671550     
  0.476105879385707     
 -0.248938601442484     
  0.332456226310661     
  1.530361978115889E-002
 -0.103686192550361     
  6.893470543447788E-002
  0.149375669234524     
 -0.278515417456094     
 -0.180829812670913     
  4.717171506319096E-002
  0.307189711763740     
  0.535637162531806     
  0.201729453130067     
  0.396500523678512     
  0.427887091930941     
 -0.131966252883604     
 -0.524896783870553     
  0.160749765095966     
  3.464713562820761E-002
 -0.661980125661162     
  0.191062543146771     
  0.420578028626239     
  0.676384952344127     
 -2.278845893208872E-002
 -0.510510184877337     
  0.370083101883665     
 -0.215531686957379     
 -0.238344248333155     
 -0.334093463388883     
  0.319288439946648     
  0.911481220704700     
  0.158870770235928     
 -0.339884164496279     
  0.226716196733010     
 -0.318266117921731     
  0.578633576119002     
 -0.422764226358033     
 -0.286569284913875     
  0.146880099615011     
  0.368990826652214     
 -0.115129244493962     
  0.320447194910556     
 -0.347282293941068     
 -0.189003618409537     
  0.374751646123779     
  0.429583282338548     
  0.123653450679120     
 -0.454573087714607     
  0.121156426569777     
 -0.401914099048103     
  2.811511975711464E-003
  0.354116816427678     
