     48 -    50 -    50 -     1 
rmse=  16.5627meV
 -0.421956992166126     
  0.120734645246254     
  0.503328398336893     
 -0.348424330151440     
 -8.696913693521048E-002
 -0.135272077668197     
 -0.240659388452181     
  0.829782464705958     
 -0.928151005460400     
  0.381269254668269     
  0.127514702525550     
  0.354291679023750     
 -0.166135809593300     
 -0.543863840378040     
  0.744332845251062     
  0.349446482324602     
 -0.240438384543962     
 -5.102590059555833E-002
  6.325997251401909E-002
  0.396167182684080     
  0.601356275302566     
 -0.831797952538371     
 -0.832438124609110     
  8.610996302609517E-002
  0.139024961540157     
  0.518185562174258     
 -0.224929694818813     
 -0.137341076506356     
  0.204776678291765     
  0.713983067690545     
 -0.611398803071545     
  0.135446089582214     
   1.61607136840691     
  -1.36264173199123     
  0.813348998915981     
 -0.401563685197732     
  0.193159359153549     
  0.445443387978335     
  0.627600080516146     
  0.238190868540224     
 -0.399386817691418     
 -0.557322901291911     
  0.350036227275896     
 -0.548412148309089     
  0.118276957339228     
  0.176044739152469     
 -0.340610425955438     
 -2.305836504685742E-003
 -0.237572665128744     
  0.324803375218591     
 -0.223082964500443     
  0.681173858532115     
 -0.560388059441393     
  0.171741620594508     
 -0.176642147816773     
 -9.930513325227515E-003
  0.289257495472510     
 -0.784477757044025     
  0.609769566794837     
 -0.290958356312523     
  0.181348557440599     
  3.601231685145821E-002
  0.143149450390000     
  0.421765806767340     
  0.243635198085454     
 -0.665194032206045     
  0.654252612274015     
  0.113865188325870     
  0.612881391029356     
  0.949033278738135     
 -0.226951913320939     
  0.486987942694440     
 -9.709779172677704E-003
 -0.161977677275895     
  0.110095320694771     
  0.229873494222047     
  0.130486420890864     
 -0.187553470371604     
 -0.140632109368858     
  2.762247584950765E-002
 -0.268268180818214     
 -0.584183440331569     
  0.604820945457229     
  0.165809028060504     
 -0.877576407546229     
  0.750619989247926     
 -0.432814316832157     
 -0.256894218640151     
  0.520514529253323     
  0.276771147912668     
 -0.349394769179903     
  0.114929271201951     
 -0.142886588765013     
  8.789301181122128E-002
 -0.132413991265026     
 -3.945007264705164E-002
  4.555073453946101E-002
 -0.119624909671040     
 -3.207297482594312E-002
  0.128200369454150     
  0.317318877081281     
  8.632608864663791E-002
 -0.115112223107910     
  0.237472761104430     
 -6.364466058145514E-002
  0.251099237426426     
  5.274448852551256E-002
 -3.472532336994480E-002
 -0.100290650466425     
  7.755564217674547E-002
  1.647180992236837E-002
  8.569899330826596E-003
  0.115293910160766     
  5.628110373716393E-002
 -0.348595284156950     
  5.447020678027312E-003
  0.132442360646195     
  6.880909783276591E-002
 -0.215605502626779     
  9.635173022508263E-002
 -3.662762916505420E-002
  7.086667503604439E-002
 -0.176789420744373     
  7.021087263970797E-002
 -0.144815450968991     
  7.364457872431650E-002
 -0.101309168162448     
  9.026572636063411E-002
 -0.125182359258781     
  0.153990805846870     
 -8.705338888132909E-002
  7.746049054970700E-002
 -0.104512545106626     
  0.147298542717670     
  3.993531316250849E-002
 -1.367041868794096E-002
 -0.202017162231129     
  2.196475400921837E-003
 -7.053542875225009E-002
  0.131361684166036     
 -1.209306588946653E-003
  8.292362495544043E-003
 -0.122788188459489     
 -3.825888929246977E-002
  9.428545872813236E-002
  9.868667816166630E-003
  8.689212098637476E-004
  0.184860423805119     
  0.297870798780406     
 -0.705757716379781     
 -9.561323557769931E-002
  8.483085969292134E-002
  0.470140756633457     
  0.217843623646181     
 -0.242573765056498     
  0.346833363362750     
  0.106008469892390     
 -0.217507767323307     
 -0.273624263581013     
 -4.527849564619227E-002
  1.301610397394142E-004
 -0.302353939896117     
  0.248856626245389     
  0.671295765600113     
  0.453497448403790     
 -0.619455985735122     
 -0.332360247565182     
  0.178471242161815     
  7.924294645091135E-003
  1.570900442731279E-002
 -0.256124781585269     
  0.130209031183276     
  0.252940123595121     
  0.113053761214730     
  0.130256485630364     
  0.127152832250725     
 -0.571361901744332     
  0.143953206543997     
 -0.194787995647541     
  0.403950509627674     
  0.642701245380681     
  0.163581089545747     
 -1.783883407616449E-002
 -0.852909614909012     
  0.161963261908028     
  0.109283625711305     
  0.148290132321576     
 -0.254088380565546     
 -0.184851243100617     
  0.168684836846280     
 -0.104014010308798     
 -6.927599938402183E-002
 -7.468299949221703E-002
  3.755562236449482E-002
 -2.560513219964864E-002
 -0.372346284583873     
 -0.321626914433802     
  0.687749045873684     
 -0.638770716155455     
  0.318186918115169     
 -7.596547137173663E-002
  0.137068405888827     
 -0.197446686204306     
 -1.219527998613162E-002
  6.264803781270487E-002
  0.108178270039042     
 -0.197309487717805     
 -0.551123835799799     
 -1.023094669558992E-002
 -0.131069855911517     
  0.211042061685612     
 -0.160536093078470     
 -9.034675007997114E-003
 -0.455027634999332     
  0.234350244514075     
 -0.412960604883496     
  0.179292933028332     
  3.517957058285755E-002
  0.156603604437400     
  0.109235464610116     
  0.320423734865916     
 -0.170931225527076     
  0.144326795737101     
  0.539345503213527     
  5.880703681663096E-002
 -0.306039614229698     
  0.380555397195522     
  5.788208042798727E-002
 -0.491940934935733     
  0.625438878216982     
  0.318227049081966     
  5.455639058371053E-002
  1.335693048265448E-002
 -5.160105299613238E-002
  2.193732230722783E-002
 -0.196159216492164     
 -0.211838536706663     
  9.730616652929165E-002
 -3.861614353033799E-002
 -0.434005448707565     
  0.327487987652743     
 -0.661636936590245     
 -4.390004086045209E-002
  0.519092570795072     
 -0.203064191121414     
  1.453644420642560E-002
 -0.225442404542361     
 -2.331553105637310E-002
 -4.907615924756126E-002
 -0.203888759480116     
  0.114090828234278     
  0.146549878411659     
 -0.565475243946107     
 -7.170041470345424E-002
  0.232942412224968     
 -0.345116463060901     
  0.605802112032632     
  -1.02873664945995     
  0.332959967594806     
  0.159928960247668     
 -0.160775828182707     
  0.266720971239920     
 -0.507037129287837     
  0.943570437591863     
 -0.518007936714622     
  8.642828040560979E-002
  0.380300838805693     
 -0.107834059637880     
 -0.283440675233374     
  0.173083394467405     
 -0.214597219812767     
  0.299811595320595     
  0.471905961736213     
  0.414632494467606     
 -0.520403106363410     
  0.232223767494796     
  0.106401104546557     
  0.267106559716584     
 -0.393147545770662     
 -0.332613369208594     
 -8.825885584223672E-003
 -0.145597625363913     
 -0.460633706476800     
 -0.343317431408693     
  0.440142865295217     
 -0.382002898184695     
 -0.129892879288218     
 -0.406192573460497     
 -0.431782444879963     
  0.622602714303927     
 -0.444988988448503     
 -0.549202281822396     
 -0.184648839462450     
 -0.558868973667545     
  0.201407219204642     
 -0.486363433256055     
  0.182947073111292     
 -0.378444721680993     
 -0.220804775824648     
 -0.717127660773059     
 -0.164529482997281     
  0.156090767304629     
 -0.202993769999612     
  0.106224125995595     
 -0.236518285739780     
  0.266265374392767     
 -0.552625052421373     
 -0.133052037556611     
  0.252428922916955     
  0.639376888233556     
 -0.235401685696313     
  7.909979031064715E-002
  0.144192114074645     
 -0.214458665372076     
  0.526428833247480     
  0.195184842225732     
 -0.121155321432760     
  0.142653346330054     
 -0.194293755070739     
  0.364626121022622     
 -8.494002493825691E-002
 -0.380670297718884     
  0.351022451957180     
  0.336185297350148     
  0.205498167694216     
 -2.558272841216183E-002
 -0.350065853422363     
 -2.868124006438531E-002
  0.307239012103199     
  0.302983524290089     
  0.464871500480591     
  0.288842079396974     
 -3.991536728235552E-002
  0.457417299950559     
 -0.388385592194632     
 -4.379368172915719E-002
  0.402197905392176     
 -0.201519085109674     
 -0.203342327319377     
  0.428176593584002     
  0.323362213986409     
 -0.570375079407413     
  0.221642700561695     
  2.479545921058355E-002
  0.181389299327405     
  0.355915922181772     
 -0.434678658715269     
  3.720491530207958E-002
 -0.298914321435781     
 -0.116171420483459     
 -7.477021269391304E-002
  4.988486329171931E-002
  0.181241474496754     
  0.306657929294976     
  4.140431638205859E-002
 -1.678172614542180E-002
  0.593988238635820     
 -0.209288915453039     
 -9.700533568120009E-002
  0.218331366388808     
  0.193880272768059     
  0.332396634225922     
 -0.128443719381871     
 -1.577682949746063E-002
 -0.101437028486915     
  0.251428189631470     
 -0.318636682109974     
  0.248984561934228     
 -7.087208338509575E-002
 -5.384255117708862E-002
  8.592598666195271E-002
  0.623554050556430     
  2.907409264159663E-002
  0.360201054470233     
 -0.584119065966039     
 -0.207048499561465     
 -0.631207432792334     
 -0.201987411866327     
  0.356433757100301     
 -0.139503711975751     
  0.212361894511905     
  0.308913232752322     
 -0.191952829955640     
 -7.515968820928112E-002
 -0.287453515866508     
  0.304310793472760     
  0.121843346390189     
 -0.121281465570363     
 -0.305049806403801     
  0.143635411792808     
 -0.278962571426721     
  0.198411145349917     
 -0.120788005014649     
  4.192509064451601E-002
  0.256327259160780     
  0.676671373526662     
  0.439057455399354     
 -0.401728014208770     
  0.108621768180648     
 -2.060132465985644E-002
 -8.516351372028150E-002
 -0.126646955780457     
  9.224466067841310E-002
  3.683877540183802E-002
 -7.587465640173881E-002
 -5.185201461464042E-002
  8.605119536899616E-002
 -0.397372215006358     
 -0.113067270139003     
  0.378855660198182     
 -0.280213545416693     
 -0.659369987282271     
  0.396352642935949     
  0.175263373027521     
  6.953154289021798E-002
 -0.211446704039207     
 -0.154578997397647     
  1.340702002890711E-002
 -2.228323686767501E-002
 -0.163751432678291     
  0.113418809885054     
  0.266677770919298     
  0.499193689248345     
  0.387877075663146     
  1.474285903610313E-002
 -0.407001714416457     
  5.710358620568314E-002
 -0.107657184402060     
 -0.282009802326309     
  1.422159741877565E-002
  0.134330084670537     
  0.220485054523812     
 -0.139407053485488     
  0.280447663824850     
 -0.209102675860466     
 -4.935678808174890E-002
 -7.912719457056708E-002
  0.109369855821616     
 -7.371811797325156E-002
 -3.945014760125408E-002
  0.156555953223032     
 -1.701118716016591E-002
  1.220632879597565E-002
 -7.697047204680903E-002
  7.720019165587931E-002
 -1.224719858226273E-003
 -4.257676077985537E-002
  5.520653580113760E-002
 -9.368743501351671E-002
  3.636654242832267E-002
 -2.683557986765684E-003
 -3.820773515214979E-002
 -4.565432934738017E-002
 -7.929947195774922E-002
  3.002632790594885E-002
 -0.171536842387043     
 -0.118345338341674     
  0.110921435023857     
 -2.257774263595232E-003
  0.148483986341587     
  5.139005014545939E-002
  5.274529968777611E-003
  8.174299422102203E-003
 -3.288211409672203E-002
 -3.284202450032803E-002
 -8.879237332549988E-002
  6.808251408479808E-002
 -1.114242873514313E-002
 -7.886845876904539E-002
  7.606279942870785E-002
  0.119569964969515     
  1.638929977138628E-002
  4.163952120643441E-003
  7.544670624732389E-002
  5.474911639136097E-002
  0.120901726079419     
 -4.285402758241771E-002
  0.159733928753303     
  8.815488876886789E-003
  0.111338709530206     
  0.124483211603017     
 -0.151343982135912     
  8.143501169373205E-002
 -6.875855274468121E-003
 -2.900295346784550E-003
 -0.507292152209552     
  0.576461503654941     
 -0.259728306084693     
  3.069497261054170E-002
 -0.384595376492692     
  0.333774880214512     
 -0.183387176141651     
 -0.263868224034116     
  5.330986986732445E-002
  4.425127805455538E-002
  0.362932966924535     
  0.349129011063393     
 -0.218359598356668     
 -0.107789633358488     
 -6.516231194675402E-002
 -0.329954877830945     
 -7.790879585896855E-002
 -3.997020749360781E-003
  0.139263326574962     
  9.737192305735187E-002
 -0.152071499445107     
  1.494061394514453E-002
 -9.054924604256267E-003
 -4.829050093131045E-002
 -4.296094199154425E-002
 -0.111242152936884     
 -0.124925546030564     
 -0.420030782043568     
  0.408927608446616     
 -0.178757052295581     
  2.908628671709549E-002
  0.516827631581994     
 -0.345914231792363     
 -1.768310141661084E-002
 -3.942271085334067E-002
  0.185874421679872     
  3.566413141873896E-002
 -0.135871797950905     
  7.824323563767707E-002
 -4.433746897642744E-002
 -1.923057213134230E-002
  1.436344240551373E-002
  4.674869148850774E-002
  0.533102469353093     
 -0.620108961621245     
  0.502086195223557     
  0.342466582332725     
 -0.199834590839898     
 -0.648807294583419     
  0.586160119002038     
 -8.872414834169361E-002
  5.076422820955876E-002
  4.739986095366767E-002
 -0.165452410158489     
 -0.241934560452719     
 -9.837323638605425E-002
  0.127518883206341     
  0.165142245614494     
 -6.658230995867699E-002
  6.574597210706697E-002
 -0.699695815669586     
  0.438677069228191     
 -9.742510967504664E-002
  9.721213019302154E-002
  0.170206803080199     
 -9.451114561778680E-002
  8.128972045050355E-002
  5.128396947865378E-004
 -0.206279766494830     
  0.259791285415730     
 -3.044783504338416E-002
 -0.228004885420351     
 -8.494108666267335E-002
 -2.561235282641671E-002
 -5.810249816671956E-002
 -0.153361125018590     
 -8.812957005949244E-002
  6.797066991538163E-002
 -0.416041631241159     
  0.398728940727030     
 -0.195953470445597     
 -0.225444890466085     
 -9.669713548565659E-002
  2.615758069072445E-002
  2.453854311581433E-002
  8.232349848431587E-002
  1.708321233675985E-002
  0.289766715879062     
 -0.218690379806701     
  8.807379512291801E-002
 -3.314404832382484E-002
 -0.499906465788305     
  0.604758796809633     
  -1.23651217953593     
   1.20392012931258     
  -1.38198618462592     
   1.18313685303556     
 -0.497171277721775     
 -5.778542953707532E-002
  0.153450980274108     
  0.250482598958891     
  9.347761470579782E-004
  0.190751697815352     
 -0.154412874648915     
  1.871303800786786E-002
  0.273415213143642     
  0.393077662203132     
 -0.190290567797620     
  0.572298112959236     
 -0.112244395537608     
 -0.352391529307272     
   1.11310794728715     
 -0.267965449828574     
 -0.281160880535116     
  0.755408330622434     
 -0.621636744860599     
  0.196758751415260     
 -0.239473815830494     
 -9.770406586285903E-002
  2.093759714319161E-002
 -8.767264653576456E-002
 -0.299432835679820     
 -0.125404750961302     
  0.677530990356023     
 -0.529430779761662     
  0.724965874061222     
  0.135930015667504     
 -0.324637713565987     
  0.106998091272900     
 -0.115287535238380     
 -0.385608568651799     
  0.317939271013328     
 -0.344011466250287     
  0.307987036735554     
 -0.158383328145136     
  0.233921122695168     
  4.400776213133738E-002
  0.162220530165618     
  0.131543895624056     
  9.876583036350900E-002
  0.138684839016923     
 -0.544218060112491     
 -0.294344938569207     
 -0.385883680917460     
  4.944900918877677E-002
  6.875020381399927E-002
 -5.864953686651499E-002
  3.039700565369866E-003
 -0.182496833940701     
  0.213168232768715     
  0.495590974641699     
  0.168037187234971     
 -0.150899490755764     
  0.144505996957877     
 -0.130678548530052     
  0.558721689315232     
  7.300119187669028E-002
 -0.150243961133216     
  0.497933046064955     
  0.158545143513271     
 -0.292435899729793     
  5.406736457640724E-002
 -0.496962682903534     
  1.586779127073753E-002
  0.449116870226143     
 -0.493500523699364     
 -6.580309596986338E-002
 -2.036234061259011E-002
  2.532226158985886E-002
 -7.650924996427171E-002
 -6.663353444258442E-002
  0.243898183656604     
 -0.116363585957132     
  0.253449171298434     
 -0.146714874530441     
  8.410476128414715E-002
 -0.281553010027950     
  0.429256365928938     
  0.203982111403898     
  8.982275223386006E-002
 -0.103777558709040     
 -0.216103402437557     
 -6.183190399253303E-002
  5.931633274639035E-002
 -9.419832091371406E-002
  0.170290079069771     
  8.214962941562806E-002
  0.142189588842154     
 -0.341714544150397     
  0.321870279951652     
 -0.258708024434136     
 -0.295048641713182     
  0.853115222573831     
 -0.374444312775969     
  0.178324697973423     
 -0.532912763623797     
  0.250605460917227     
  6.957286511794393E-002
  0.122158101695901     
  0.438797110762039     
 -0.444579713299933     
 -0.161230885193831     
  8.054965225208255E-002
 -2.911923997475490E-002
  0.235553155049305     
  0.471084403850329     
  8.582069740864570E-002
 -0.302293751962379     
  2.050279458403995E-003
 -0.423495842690243     
  0.308259198622383     
 -4.377501960903094E-002
  6.547319655866531E-002
 -9.166969826288869E-002
 -7.195815518044175E-002
  0.726180110790788     
 -6.624099308664294E-002
  0.327928395618343     
 -0.529555412524909     
  0.428765346027914     
 -0.335036822874277     
  0.345921115196461     
 -0.326633601400484     
 -0.674922781436497     
  0.594726463175707     
 -0.118059562318705     
  0.181170745029508     
  0.214697523091791     
 -0.269346984128833     
  0.634422588388910     
 -0.546021446239763     
  4.325286816577686E-002
  0.271762852004222     
  0.297479715093398     
  0.726378413736070     
  0.240427888500207     
 -0.557852562124884     
  0.181047591075039     
 -3.740157585556086E-002
 -0.347237308317630     
  0.984253596086378     
 -0.204706127052989     
  0.331542560244202     
 -0.366057910797066     
  0.712017656078092     
  1.503636283743031E-002
  5.137802444140731E-002
  1.613295399431369E-002
  0.342114773630445     
  0.150871352440130     
  0.528394783012562     
  0.447178224355233     
 -0.451302390298900     
  5.720105779936783E-002
 -0.193970730142345     
 -0.544957941759672     
  0.326808794852421     
 -3.351569897708415E-002
  4.360173028475677E-002
  0.363560227310217     
 -0.445151464006644     
 -0.137374577120145     
  0.101066461948670     
 -8.630931022251252E-002
 -0.263551216996579     
 -4.863318102882110E-002
 -0.374990510357066     
 -0.373845739774975     
  0.938762993580247     
 -0.476813193941989     
 -0.800154819123995     
 -0.564387096440854     
 -5.821850717637448E-002
  4.580083037655661E-002
  6.999586935840117E-002
 -0.667140900105145     
  0.125468689633220     
 -9.913100563578840E-002
 -3.269427171810150E-003
  2.528138493308556E-002
 -0.141501629923500     
  0.158391018124504     
  0.253403148398024     
  -1.07451113182708     
   1.34115120570564     
 -0.927062698572862     
 -0.337961857323830     
 -0.663527037792963     
 -5.871263712610209E-002
  0.244683668460190     
 -0.228939642730053     
 -0.138109824816059     
  0.402858978617080     
 -0.438109990690184     
  5.445232345999098E-002
  0.225663799356171     
  0.238578258375111     
  5.097392209586184E-002
 -0.523269144246105     
 -0.483961323400552     
  0.211277190609228     
  0.374699951608715     
  0.223477745749713     
  0.258364535930942     
 -0.111226138567870     
 -8.724828659657885E-002
  7.954317507245202E-002
 -1.505680176526669E-002
  1.183398022846072E-002
 -0.201226745065850     
 -0.155600454740575     
 -0.192740061262276     
  1.580048868229301E-002
 -8.800898164872357E-002
  0.159754418411043     
 -4.950452951186794E-002
 -0.612753146965920     
  0.599663839307179     
  5.339188804806057E-002
  0.226980776957164     
 -0.271513946580330     
 -0.177211248688817     
  7.702168446037888E-002
 -0.305442993550829     
 -8.244679857222946E-002
  0.357336382727950     
  0.206770694748976     
 -4.097721274314983E-002
  4.683226720571058E-002
  8.448972260993874E-002
  9.570519061871642E-002
 -7.420231486371846E-002
  0.525273630130895     
 -0.728154041572200     
  0.721170732215706     
 -0.170667805341984     
  0.444155430928465     
 -0.136480743488301     
  7.161239638665272E-002
 -0.217768722362887     
 -8.107044554581827E-002
 -8.282121102553280E-002
 -0.310134834633401     
  0.124318317706491     
 -0.221787381124440     
  0.286806560523421     
 -0.122695765162427     
  2.145756636230693E-002
 -5.392641045510336E-002
 -0.216583426829919     
 -5.398189231957876E-002
  0.350251430230986     
  0.461965546910059     
 -0.218364785480690     
  0.431945411239825     
  0.310228991490373     
 -0.206897740926530     
 -4.132199141355226E-002
 -0.126276579894330     
 -5.740177311351913E-002
  0.104748006573951     
  6.504910982922441E-002
 -0.205732329641515     
  0.762208150232044     
 -0.722415804792793     
  0.419574447930113     
  0.961373538564779     
 -0.603701412996855     
  0.128663155784450     
 -0.166731475754536     
 -0.126586750742549     
 -0.332782385803893     
  0.188656593702975     
  0.364516203157625     
  0.349848783101149     
  8.566835612338487E-002
 -0.158151205024750     
  1.272036634804024E-002
  0.227556647050650     
 -0.135224762221493     
  0.433571572284401     
 -2.581964528884798E-002
  0.262937398625982     
 -0.106954138825398     
 -0.363460187205415     
  0.345281915810529     
  0.236638002014463     
 -0.400356955733432     
 -0.289545953006195     
  0.547218250818275     
 -0.122324373271277     
  0.143470452148489     
  0.368293262508431     
  0.149661277086814     
 -0.120789025858885     
 -0.504776274214840     
  0.393885145876710     
 -0.295481299854129     
  0.580264726984466     
  4.677098352876192E-002
 -0.319014752515559     
 -0.176260114903492     
 -0.416695715087101     
  0.284312398902826     
  0.256012277710032     
 -6.068583036115561E-002
  0.102429064609210     
 -4.370630105155852E-002
 -0.345160790293779     
  0.144925773054337     
 -0.238902079361829     
 -0.562455470619027     
 -4.408807446603821E-002
  0.461071043508140     
 -0.582693500231845     
  0.276577543389186     
 -0.245530347997637     
  0.369950887093679     
  0.435901566839845     
  0.289913680849044     
 -0.230830750170113     
 -0.148986720204441     
  9.031871187901415E-003
  1.260615449731397E-002
 -0.175951147804870     
  0.270402932472783     
  0.117598929010522     
 -0.189859228113990     
  0.450288854921439     
 -0.828229919651131     
  0.384091654831609     
 -0.457993643697042     
  4.204295059603429E-002
 -0.162780461703409     
  0.147465281791043     
 -0.188852362479022     
  0.143512893107610     
  0.226410081124560     
 -9.646865661662996E-002
 -0.151318132292862     
  0.227286741969834     
 -0.180313809497865     
 -0.340702290502302     
 -0.253152881012185     
  0.330923380637260     
  0.153669010551759     
 -0.358193969353329     
  7.668654955472406E-002
  0.147698975292023     
 -0.118837272578244     
  4.151876125404098E-002
  3.473834328825749E-002
 -5.910167252395633E-002
 -0.298084860108555     
  0.416522994018228     
 -0.295635490769086     
  7.262044520860515E-002
 -7.765884274597926E-002
  0.430480248169987     
 -0.155149635816746     
 -0.182609551026006     
  0.410272569714606     
 -6.249128185057769E-002
  7.450446814735968E-002
 -1.330556436483309E-002
 -9.450189855547549E-003
  5.047504230708103E-002
 -9.989177962136558E-002
  0.268348863458676     
 -0.223562011286557     
  0.191007117251595     
 -3.804959591087554E-004
  0.139033352497553     
 -0.289288523600909     
 -0.236012719999895     
 -0.276161919906597     
  0.421284890554786     
 -1.564400169685344E-002
 -0.999972114596847     
 -0.381251070053054     
  5.950408358989419E-002
  6.185306355946241E-002
 -0.556204312660740     
  0.215668841951131     
 -0.791536376900748     
  0.672349583877952     
 -0.262942334197063     
 -0.317045877331096     
  7.834015454455374E-002
 -8.796704086882427E-002
 -0.464249160286435     
  2.411991588607554E-002
 -0.274498504852457     
  0.252178537461972     
 -6.918489294021897E-002
 -0.222035161540214     
 -0.302427791905563     
 -0.183142524835788     
  0.362856248410963     
  7.576550062716096E-002
 -0.250165284085695     
  0.210820423263026     
  0.138207278460950     
 -0.251790229432162     
  8.511348633437532E-002
 -7.716666541527595E-002
  0.410479288031208     
  0.275344140350631     
 -0.686890095375515     
  0.522200998281156     
  0.426885506554263     
  0.259268315450531     
 -0.147488124758073     
  0.111117711074438     
 -0.303395313490724     
  0.684917740843694     
  0.291972649838920     
 -0.502881159148852     
  0.219054896064731     
 -7.846118425363502E-002
 -1.690663138453910E-002
 -0.189722423201659     
 -0.314800615903391     
 -0.169348007665266     
  2.090684730063588E-002
 -0.238508936413179     
 -0.387097179790495     
 -0.367742371234225     
 -0.727092827319776     
 -0.376389338199253     
 -3.238380379592366E-002
  0.155769320187318     
  0.308033138144927     
 -0.159752648889944     
 -0.637571516111794     
 -8.703774602594506E-002
  0.157235945888113     
 -8.383820370601527E-002
  0.166366146175038     
 -0.191778445863923     
  0.918695223187125     
  0.209790753084450     
 -0.290464791735641     
 -2.981305822006934E-002
  0.658921416096883     
 -0.203590240510267     
  0.378265669578538     
 -0.272809413984099     
 -0.134712592348762     
  0.322913077718498     
  0.628046762282921     
  6.825538365410654E-002
 -0.117667370175513     
  3.387414809382324E-002
  4.665082847250811E-002
 -6.613751432631633E-002
  0.255857799563353     
  0.246014236358389     
 -0.182697191541340     
  0.418124539782861     
  0.507647470548177     
 -0.242656790307255     
 -0.557964775836152     
  0.115757727884531     
  0.274832985009395     
 -0.264894309372007     
  0.143032134730178     
 -6.281175247652382E-002
 -6.290013005913396E-002
 -7.059299965280939E-003
 -2.474187958167615E-002
  0.132139211998796     
 -0.330282051720641     
  4.942634709072151E-002
  0.341813095894870     
 -0.297687352759487     
  0.393524275750926     
 -6.922176928722604E-002
 -0.269010280542897     
 -0.198010313932750     
 -0.242626361680941     
  0.125644755606321     
  4.591232329405655E-002
  0.250810295401863     
 -0.125069073342691     
  2.413695036082523E-002
 -9.751247674319946E-002
  8.500384118177851E-002
  3.131492905496550E-002
 -5.047817263385126E-002
  6.458593986544113E-002
 -0.409871620008012     
  0.159836495984159     
  5.730417795312619E-002
 -0.250486196638223     
  0.139741829271798     
 -2.661620849576105E-003
  6.118861219864418E-002
 -0.131069338706148     
  9.723193458977615E-002
  3.332920031412103E-002
  4.787835328914889E-002
 -3.803040757423073E-002
 -1.866020308871651E-002
  0.131223082966763     
 -9.543321854385957E-002
 -0.118136826969172     
 -0.159901723933018     
 -9.867691201199430E-002
  0.180898574035408     
  0.457463297590201     
 -7.115409657215552E-002
 -3.861981380966385E-002
  1.753751304480512E-003
 -1.459682440425669E-002
 -5.379260538341872E-002
  2.347758938331936E-002
  4.577860912859497E-002
  6.780991259277019E-002
 -0.937039989141298     
  0.648588536540928     
  0.359018896862882     
 -0.372277739797927     
 -0.748315472667271     
  0.276511912788198     
 -0.140478834911083     
 -0.106502738345578     
 -0.242302982372454     
  0.170078904608862     
 -0.256271555901360     
  0.222051299203526     
  0.476322857323076     
 -0.354326785037571     
  0.268261516140370     
  0.231533873674055     
 -0.142092232672971     
 -0.458840431193350     
  0.163336780420214     
 -7.418097780804603E-003
 -0.270143284189230     
 -0.516221640833120     
  0.247896122656368     
 -0.200791343653240     
 -0.340156437383530     
  0.346940418587190     
  9.878315329056047E-003
 -4.598191723718507E-003
  0.420970107774502     
 -0.252357897989569     
  0.326280110535065     
 -0.767971484513191     
 -7.862037134100178E-002
 -0.320024045542730     
  0.212279974021338     
 -0.276069896319138     
  0.261231582796669     
 -3.963278447368343E-002
  0.248294492208706     
  0.144528907382828     
  0.168765936118119     
 -0.207128012336275     
 -0.113375060499651     
 -0.300306606920467     
  0.135211961669765     
 -0.370717781305118     
  0.593099953765756     
  0.460198716213284     
 -0.150969545701986     
   1.01951754042102     
 -0.249305084299534     
 -0.362816235615345     
 -0.458679170329899     
  0.577802543448848     
  0.466877372995943     
 -0.981222711583348     
  0.795783644287749     
 -0.115566653418375     
 -0.256867050414917     
 -0.645125246458882     
 -4.667918687952297E-002
  7.720727454211397E-002
  0.195310980517911     
  0.693160777032757     
  -1.52288081640028     
  0.364467126586807     
  0.512887851444153     
  -1.30705877583811     
 -0.109055709652012     
  0.499968295716499     
  0.855950953707675     
 -0.137970335313569     
  0.759924086001625     
 -0.823361396359401     
  0.313076986579110     
 -1.280940713382832E-002
 -3.728203560394063E-002
 -0.109355176109228     
  7.838799048656900E-002
 -0.845808192602174     
  -1.79246101547138     
 -9.483126177715154E-002
  0.948399691462502     
   1.26998107684133     
 -0.746427591824389     
 -0.432601020071589     
 -0.711336539618525     
 -0.473030024771075     
 -0.543474018361527     
  0.401983706697585     
  0.524275453156454     
 -0.180647454255216     
  0.286379982942147     
 -0.204596886508711     
  0.168015076533070     
  0.539198091764683     
 -1.509098297269822E-002
  0.173628518364996     
 -0.712373895338583     
  0.862779170695089     
  0.144596681898882     
 -0.325714243739840     
 -0.109772828267829     
  6.483363986196988E-002
  0.401842869993538     
 -4.656388618874173E-002
 -0.202552706919751     
  0.137863049097509     
 -0.132908236029540     
 -7.590647181300553E-002
  0.103642265729565     
 -0.258429886191792     
 -9.020837570901633E-002
  0.316748319677152     
 -0.158128294353785     
  0.272948384615144     
  0.474395763350984     
 -0.244463843697831     
 -0.175336064984857     
  2.012420130627741E-003
 -0.147414818342192     
  0.158277165805388     
 -0.124790393461150     
 -0.166270607563044     
 -5.910739763711324E-002
 -6.998373514299525E-002
 -0.113444905427905     
  0.239747919040509     
  2.716277760758026E-002
 -0.252168656915491     
  0.269833207352651     
  9.339344999139046E-002
  6.586685157423502E-002
  0.266672126431906     
  0.134518485050936     
 -0.358895447345259     
  5.217313424572319E-002
 -0.115836226157160     
  0.221912490851172     
 -0.187512094931059     
  0.320592098682775     
 -1.412214797021881E-002
  4.601622400856689E-002
 -0.240650245210408     
 -0.508418219493569     
  0.792431653499977     
 -0.720440836560516     
 -0.393437229881820     
 -9.889124473121537E-002
 -0.362984119891072     
  0.541423863223914     
 -9.929870103075726E-002
 -0.226178676594695     
 -0.118634331325178     
 -5.375538860885088E-002
  0.240639251623190     
 -0.467265159189601     
  0.331441903535814     
  0.242514802721385     
  0.442909243680130     
 -0.257706163983260     
 -0.414254880664986     
  4.096717912935815E-002
  0.986153337070964     
  5.813195445637128E-002
 -0.259986518975695     
 -0.322795187886195     
  0.539614682468883     
  0.346843733822084     
 -8.572291575498389E-002
 -0.167402671915094     
  0.209032475415953     
 -0.915415959672195     
  0.417743756256850     
 -0.441984464322698     
 -1.422730868392861E-002
  0.523168260136182     
 -0.515667618430768     
  0.380893442815871     
  0.474641177696202     
  0.149041727878698     
 -2.315086396970539E-003
 -0.390255234202145     
 -0.147670610787870     
 -7.653283439058656E-002
  0.181850244865078     
 -0.215226210933214     
  1.990101934303349E-002
  0.333613610257304     
 -0.220872869897611     
 -0.400765916655440     
 -7.705359299875593E-002
  0.125784918602015     
 -7.883055159632035E-002
 -9.137559058944049E-002
 -0.262118050296870     
  2.274397316397267E-002
  0.234126329729292     
 -0.467684452277543     
  0.345262056994332     
 -0.391061144007303     
  0.288780373321359     
  0.366480625075718     
 -0.122197506593839     
 -0.303483562435513     
  0.434874541267174     
 -5.160320471231665E-002
  8.568111538206744E-002
 -9.872518938735593E-002
  0.404995237519641     
 -0.155465677270201     
 -0.171519852178023     
  0.120278389421377     
  5.986374525667140E-002
 -6.039052699916170E-002
  7.168769492822508E-002
  0.366042149578050     
 -0.401431029204643     
 -6.826260876439822E-003
  0.291945788908644     
 -0.338536368280262     
 -6.171841603662817E-002
 -0.112006050494379     
  0.123181545203218     
  0.184737670988321     
 -0.168374002338973     
  0.222863056788474     
  7.342390934890858E-002
 -0.306561440277051     
  0.462910815074697     
  0.193280265653456     
  6.376439252045467E-002
 -0.176843635294175     
  0.341131031344230     
 -0.502907420855066     
  0.109780032907514     
  1.860014172494036E-002
 -2.561710591208465E-002
 -0.189691733700191     
 -0.165573331125646     
  0.299805258437694     
 -0.481864497639021     
  0.282988404327988     
  0.609093045772741     
 -0.638860823308273     
   1.01798187862316     
 -0.883477724254671     
  0.981303082927365     
  1.158935129897663E-002
  0.748305107268114     
 -0.671969091096463     
  -1.07096162621057     
 -0.942327170542117     
  0.384086218143286     
 -0.518503320677264     
  0.849089907480754     
  0.863775475021202     
 -0.202823759975739     
 -0.681877145541053     
  0.260895065200889     
  0.106762511049248     
 -0.265015926304445     
 -0.807721483703435     
 -0.251364683057368     
  0.814102670092387     
 -0.752763579172369     
 -0.304676193776823     
  0.774120183401288     
  8.017614855683936E-002
 -4.463749080203176E-002
  -1.09499100959711     
   1.02344552621810     
  0.623951595046718     
 -0.208452072553929     
 -9.690926084030672E-002
 -0.718410359751722     
 -0.387306135068667     
  0.770359409266431     
  0.415316262525238     
 -0.536648127459853     
 -5.607360162448971E-002
  0.523890649908834     
   1.22421237296760     
  0.861059005338452     
 -0.407759290521746     
   2.03697259883359     
   1.08063788860189     
 -0.151463991853864     
 -0.192286738867474     
  0.111763207440530     
 -0.201131110622497     
  0.583452299342335     
 -5.058665578728781E-002
  0.143606011093405     
 -0.280839444007333     
  0.126453565023539     
  5.985715370973844E-002
  4.737994311952818E-002
  0.378336648342434     
 -5.724900206020613E-002
  1.055793367837002E-003
  0.191668348408970     
  7.223507492264192E-002
 -6.690923624845506E-002
 -0.243928037590089     
  0.338984499637765     
 -0.238310966246501     
 -0.186112067295151     
  1.626742876717724E-002
  0.152008414288785     
 -7.003497007631249E-002
  0.197807697460498     
 -1.879452770744474E-002
 -0.150260767017633     
 -0.146981705101259     
  2.624403279926643E-002
  1.517672740213840E-002
 -0.195843489952848     
 -4.463180151563385E-003
  0.132033019500491     
 -3.919714846007490E-002
  3.892658065360926E-002
 -4.940195480614731E-002
 -0.175423270762820     
  2.435949921983465E-002
  0.132843501031438     
  0.219432339795033     
 -0.213728099754573     
  7.558311457720814E-002
  5.306798149229003E-002
  3.827953584751553E-002
  3.724629528586767E-002
  4.050831822877016E-002
  5.470793269163834E-002
 -7.050804805335921E-003
 -0.117261083169893     
 -0.178122980213805     
  0.412868730638987     
 -5.863836103159817E-002
 -0.197954192306851     
  0.224819004430998     
 -0.100352699886507     
 -7.998531244749342E-002
 -7.425237448799209E-002
  6.249047715596577E-002
  4.424221765521962E-002
 -0.284418589659629     
  9.313770558851453E-002
 -0.116858189612572     
 -3.581231778152542E-002
 -0.134859136642625     
 -0.424541363505096     
 -0.248963283587945     
  0.239869939044096     
 -3.636228699394815E-002
 -0.105406795112811     
  0.222041310860764     
 -1.198437337238686E-002
 -6.131650197008923E-002
 -0.104268577070064     
  7.310236562051574E-002
  5.072147628344697E-002
  1.761426856531855E-002
 -9.880772306512378E-002
  5.193242453581855E-002
  4.588571687503165E-002
  5.150539675764178E-002
  0.299194900788844     
  6.128422727342925E-002
 -0.265127310148608     
  0.213162432025646     
  0.132454054879989     
 -9.794085823646562E-002
  9.137625658714994E-002
 -3.120272794483934E-002
 -9.254865055212359E-002
 -8.030371842060874E-002
 -3.866940230693695E-002
  0.112707634115690     
 -2.895702132931868E-002
 -0.106499829090282     
  3.867452480562453E-002
 -5.282918187552998E-002
 -0.211011178874526     
  0.165758244251239     
 -2.512669734474124E-002
 -6.783324704794728E-002
  0.235465400692965     
  9.532686126224114E-002
  0.707283426105661     
 -0.783277720805990     
  5.440064983221950E-002
 -6.715143001038454E-003
  2.936849788839831E-003
 -2.673522192075661E-002
  0.140046377083886     
 -7.033905087247699E-002
 -5.681686824274731E-002
  0.101349537616265     
 -7.307331027469138E-002
  0.220895907264986     
  0.408850795913917     
 -0.673920866662014     
  0.150254983529087     
  0.407931505295176     
  3.602026897546422E-002
 -0.293994031029936     
  0.230886076149138     
 -0.363547397944106     
 -8.890651413168904E-002
  0.372666505578410     
 -2.024744213366339E-002
  9.934627379942317E-002
 -1.448573435836200E-002
 -2.316364759685420E-003
  8.571687194095737E-002
  0.119939992258548     
 -0.179364659607744     
  0.181406383322917     
 -5.253717331160752E-002
 -0.640981394706041     
  0.437735851292721     
  0.334671142670099     
 -7.180268261661465E-002
  0.355599117456752     
 -7.268768105163961E-002
 -3.994676604599691E-002
 -0.322431836678568     
  0.198992486960539     
 -0.103057000603045     
 -4.614376314083013E-002
 -0.146758965674643     
  0.433945172455334     
 -0.582112476031804     
  0.574769526932142     
 -1.380827109239615E-004
  0.235385127196590     
 -0.509305189539286     
  0.153121317696869     
 -7.208104281624250E-002
  1.879785156451238E-003
 -0.584229350797853     
 -0.206447480379413     
  0.341760699747626     
 -0.107523273083442     
 -0.706863889730140     
 -3.409541187966486E-002
  0.179063600203648     
  0.721510860148185     
 -0.317211532838126     
  0.288616864618271     
  0.343836904734193     
 -0.314817288827917     
 -0.284926425127779     
 -0.108255209904445     
  0.152333017433711     
  0.169501020466695     
 -0.571964212558824     
  0.535167726407664     
 -0.154608139829825     
  0.255949307590482     
  0.285712669273099     
  0.187283036247940     
 -0.419837379978620     
  2.953152761237824E-003
  9.123087947393757E-002
 -0.125419461399611     
 -0.142374961153002     
  0.557395225460973     
 -0.213237614636883     
  0.143605500858826     
 -0.228588459211227     
  0.835973395480091     
  0.201110977428519     
 -1.115501065829344E-002
 -0.434830366015018     
  0.113248192395793     
 -0.129952176866264     
  0.218693202705152     
  0.234023005759744     
 -0.160425935919779     
  9.140451379555556E-002
  0.196090631957529     
 -0.320808528872411     
  4.992781302604198E-004
  0.135585160625147     
  3.045712055652621E-002
 -0.264635437090505     
  0.656197474504118     
 -0.287058213820573     
 -7.692866684109627E-002
 -0.253687277683385     
 -9.486346861529353E-002
  0.636713930708939     
  0.107227081416794     
 -0.573702196337083     
  9.378502322141442E-002
 -5.209361113754681E-002
 -0.172225500961209     
  1.494447458496830E-002
  0.225726344147719     
  6.364112518005033E-002
 -9.065108024395611E-002
  0.141539874950269     
 -0.231491755855654     
 -0.172029180888569     
  0.463139491274772     
  0.224127910892660     
 -0.168406960990637     
 -0.330495615666132     
 -0.133508658219978     
  0.547168999802335     
  0.139869725787918     
 -0.244146317557567     
  0.216171480841830     
  0.123810195697072     
 -0.322375614892048     
  0.161162677322334     
 -2.477316448477737E-002
 -0.377748645031035     
  0.343641691813561     
  0.207776754885815     
 -0.181663019970912     
 -3.142060830674124E-002
  6.875144778238322E-002
 -0.154333587602720     
 -2.097787410567132E-002
 -0.438268453106886     
  7.897815691185037E-002
 -0.188184804499708     
  2.264486295950746E-002
 -0.128231688072952     
  4.687818206988589E-002
 -0.230599831148169     
  0.135375751582817     
  0.144232415765603     
 -0.300929262657569     
  0.117906016762315     
 -0.104482034445566     
 -6.064742413212799E-002
 -3.172834329934779E-002
 -1.009841013764064E-002
  2.519709133163036E-002
  0.156086855375408     
  9.488246233272125E-002
 -0.293739456141819     
  0.197094217140204     
 -0.343069724145946     
  0.392802683530369     
 -0.387447393063174     
  0.245273786547868     
 -0.332390785586284     
  0.284433274770711     
  4.814813386603582E-002
 -0.118286851621583     
 -1.386728211367356E-002
  0.102325754461069     
 -0.148588266257563     
  0.120551709830155     
 -0.213942161306308     
  0.136888750395381     
 -6.762247179654209E-003
 -9.322897151016769E-002
 -0.344858829530045     
  0.139582037790299     
 -0.155541238046975     
  0.168187576518654     
  0.143722247891044     
 -0.199169137897617     
 -8.091887366041821E-002
  0.188093514940224     
 -6.148730525314445E-002
  6.458030373719853E-002
 -6.113396101429546E-002
  0.112714505892621     
  0.142962275145020     
  3.566421450394949E-002
 -0.236822659992570     
  0.268338757757191     
 -6.446767517393527E-002
  0.165420930584396     
 -7.342165561933375E-002
 -0.211081837225641     
 -0.232011160433167     
 -5.852832856476413E-002
 -0.319718135883358     
  0.365562411657876     
  0.295150334232329     
  0.461722347104430     
 -0.181644500482663     
 -0.155697969124863     
  4.719019143532597E-002
  0.205976330226086     
 -0.153876605651355     
  0.174346796764503     
 -4.593559956122329E-002
 -0.372348219181792     
  8.816415227565393E-002
  0.227432888273892     
 -0.410171040476081     
  0.281444260542689     
  3.182688991567312E-002
 -0.227431558422121     
 -0.160930889173286     
  6.824245096952844E-002
  0.264801245644097     
  0.168821444485995     
 -0.123365097409631     
  8.071828845131999E-002
  0.252931233052490     
 -0.336127758188518     
  0.551921175456391     
 -2.560848718196113E-002
  0.277330053061178     
  0.136460257574928     
  0.420353373209901     
  6.536090028425181E-003
  1.175835364016652E-002
 -0.146201110215555     
  0.245734573236925     
 -0.524356759907150     
  0.136669153144098     
 -9.579081015212637E-002
  0.140989217171674     
  0.102022357763377     
 -0.127029400461371     
  6.879875250844118E-002
 -0.461428348326609     
 -0.310646466970374     
  0.205672189972538     
  0.353446943873811     
 -0.226414141943490     
 -0.246656898772164     
 -0.472327136158450     
  8.935955507597960E-002
 -0.302900712708107     
  1.088574873313033E-002
  8.902492543603682E-002
  0.145912358959600     
  7.369532427925186E-002
 -4.985199761786962E-002
  0.127672947692204     
 -3.574612642799944E-002
  1.699550254138467E-002
  4.291568603365159E-002
  0.587390528786490     
 -0.179489801903725     
  0.453778367064891     
  0.512761839130028     
  0.135864014188082     
  0.467015975446803     
 -0.180813314924970     
  5.598006404091674E-002
 -0.187081663438421     
  8.699625348090376E-002
 -0.255512443524057     
  0.397753046416242     
 -0.433199063098198     
  0.375088630509800     
 -0.246043667146359     
 -0.262699399697766     
 -0.384791503956130     
 -0.559468991993875     
  0.181119979820144     
 -0.428188229526973     
 -0.182518100892379     
 -0.100149157919632     
  2.858771741639538E-002
 -5.160864347988397E-002
 -0.187179938958207     
  0.183716669912473     
  2.803945868945045E-002
  0.723075014812234     
 -0.470188522508879     
 -0.383497078607641     
 -0.377757221225248     
 -0.642636532206710     
  0.356435728513565     
  0.222125145601709     
 -0.169277669208181     
 -8.284072318859101E-002
 -0.558953581368150     
  0.685047707726452     
 -1.380722882727839E-002
  1.396444402552749E-002
 -0.198056872020182     
 -0.311316932180668     
  0.384376393219048     
  0.562234790566394     
 -0.422611105397628     
  7.580554000367146E-002
 -0.193035019556525     
 -0.130732516099617     
 -4.278554018080204E-002
  0.562322274331057     
 -0.543781864922474     
  0.398819447878218     
 -0.144329365822786     
 -0.672673179049794     
  9.758820896597237E-002
 -0.397812569230622     
  0.601045219871766     
  1.149718368437973E-002
 -0.355667000032504     
 -0.836001612736253     
  0.792177754354921     
 -0.259392924439436     
 -0.583660897865412     
  0.161259946379613     
 -0.567951917814628     
  2.756314259907632E-003
  0.475479620372124     
  0.166643815972750     
  0.188604084288871     
 -0.373017203598394     
  0.806750850334654     
 -0.693969541844036     
  0.359947827004983     
 -0.275927789491372     
  0.435659534800295     
  0.239079780845956     
 -0.435278845578679     
   1.07958048761647     
 -4.093945958287595E-002
  0.535657360330019     
  0.319803471386895     
 -0.517540575593805     
  0.510489940468944     
 -0.285637896478760     
  0.433144580668352     
  0.393175225479113     
 -0.387485657570718     
 -0.109068011373465     
  0.112887207375537     
 -0.339371015594913     
 -0.472431810764404     
  0.574698445429970     
  0.277242238123064     
 -0.191547378292997     
  0.124359019587686     
 -0.250671445480217     
  0.680481763972515     
 -0.641294781056364     
  0.182227256841711     
  0.268046732835784     
 -0.132327130136039     
 -0.119270489180835     
  0.317411145235408     
  4.107905578263975E-002
 -0.306705220976770     
  0.570598849650634     
 -1.675871272882693E-002
 -0.656204619572707     
  0.631534466622546     
 -0.641829462112290     
  0.160757560016490     
 -0.628986859251994     
  0.801725009595859     
  2.315280570694622E-002
 -8.010359904342778E-003
 -0.327384684026331     
  8.932294507558626E-003
  1.393326677273349E-002
  0.121648921732667     
  0.361589852459811     
 -1.010539710403465E-003
  1.925269948165762E-002
  0.142250155785674     
 -0.695116273190007     
  0.882434404122179     
  6.700294987373623E-002
 -0.738742291378577     
 -0.184652175568689     
  0.112935773683778     
  0.575479345410329     
 -0.130603617930217     
  6.786941177409367E-002
  5.518282279311080E-002
 -0.490820471848956     
 -0.344609097314662     
 -0.318197369219587     
  0.195949740100826     
  0.324234065298765     
  1.433101103998431E-002
 -0.161901565008958     
 -0.414142500961692     
  0.258681797563278     
 -0.472819847097210     
 -9.357237723478946E-002
  0.153302875744603     
 -0.458204262626939     
  0.820606754547909     
  0.365320513140704     
 -0.549920327878565     
   1.21057484291496     
  8.827992092960102E-002
 -6.221006542898646E-003
 -0.583215762574337     
  0.215813679955292     
 -0.114419079888749     
  0.181047307830438     
 -0.611396393503718     
  0.364185754064033     
 -0.458660774447831     
 -9.490692165152734E-002
 -0.606558814276813     
 -0.131487920969124     
 -0.805675675616838     
  0.304305380939900     
  0.125893857204844     
  0.185722777917116     
 -0.951967231707322     
   1.26316330252581     
 -0.751644481441846     
 -9.032061426340612E-002
 -1.341318444282115E-002
  0.113612855866463     
 -0.347445012512769     
  0.331475972318315     
 -0.615633892611389     
 -0.362622160762099     
  8.539931019123871E-002
  0.278648777033211     
 -0.430336262864344     
 -0.191261431675257     
 -6.754719626717530E-002
 -0.256788230948660     
 -1.708367604299087E-002
 -0.252085972582991     
 -0.660000611180547     
 -0.485411783339069     
  0.611172644477436     
  0.284687981549893     
 -7.133089515077370E-002
  0.256084793303355     
  0.389803768956320     
 -0.525268096985988     
  0.409211002132735     
  1.734800327761023E-002
  0.373950319738442     
  0.420348536132325     
 -0.304568743469287     
  6.040419555250882E-002
  0.135732060586954     
  0.261998747552337     
 -5.985181957621172E-002
  0.695346859970672     
 -0.535187114164818     
  0.489044985393071     
 -0.174506627639554     
  3.607812293048760E-002
  0.648999408498667     
  9.235097610580903E-003
  2.001252694568982E-002
 -0.608927272115354     
 -0.208630051229336     
 -0.120978543727124     
  0.296261574712932     
  7.480282649024160E-002
 -0.213322185041129     
  0.352509317564512     
 -7.458733202296916E-002
  0.106702211017072     
  0.318872126642635     
  3.025335973115668E-002
 -4.215849044070474E-002
  0.829611913495022     
 -8.234231101391518E-002
  0.390644334602046     
 -0.454596446416100     
  0.242406879877418     
 -7.452137183453476E-002
  0.197274305114305     
  9.713047565455575E-002
  0.142610702218218     
  2.091956346012956E-003
  3.362307215531350E-002
  1.962735381509727E-002
  0.196592435049259     
  0.486096422080943     
 -0.103230919696295     
  0.175994776814470     
 -2.897112136422590E-002
 -1.140192981552031E-002
 -0.151880391021147     
 -9.068381513577822E-002
  5.069049633385531E-002
  6.109914810863421E-002
 -0.184091330017982     
  0.172511988960526     
 -0.118598057376238     
 -2.906862227462512E-003
 -6.286466746871881E-002
  3.331573160856253E-002
 -0.175867181039261     
 -0.293563766104841     
 -0.369194889314588     
  0.290843122218894     
 -0.459636708678972     
 -5.406033917252673E-002
  0.447233059719516     
 -0.102033004194343     
 -5.837424094843286E-002
  1.736505464698872E-002
 -5.965508751024989E-002
 -0.113798699389928     
  6.550509553721170E-002
 -4.610502590132656E-003
  0.117211689903514     
 -2.520314472728190E-003
 -9.077106577888817E-002
  0.285069433492221     
  0.140509499638500     
 -0.405096563497025     
  3.319558034356185E-004
  0.977105775714768     
 -2.980050763266889E-002
  0.306228765276546     
  0.810962756927700     
 -0.103839678225019     
  -1.01080811684492     
  0.172585392028381     
  0.559237297732731     
 -0.283005838015360     
  7.898718608956190E-002
 -0.973622030710715     
  0.109093757082488     
 -0.716254186980323     
 -0.232675292296295     
 -9.360960819351842E-002
 -0.993212222008657     
  0.649381419977073     
 -0.880424710419672     
 -0.195418399842095     
  0.478858846461401     
  0.417050335708293     
  -1.41419903908234     
  0.780594884678283     
  0.661778453034174     
 -0.555999825671887     
   1.03409011629686     
  0.225015738927943     
 -0.254526971947795     
  0.551856028573305     
  0.646839013601577     
 -0.378159785242587     
  0.491795795413075     
  0.362715010258360     
 -0.421767072264033     
 -0.450090173648757     
 -0.674562540326522     
   1.03800010717806     
 -0.975182829123995     
 -0.795764247171485     
 -0.307662994513212     
 -0.783798844682134     
 -0.326723176152776     
  4.936395039199998E-002
  0.295749989793483     
 -0.396442608718384     
 -0.174051941695400     
  0.496172697730028     
  0.382760138015370     
  0.247858859652241     
  0.542061253071027     
 -0.343362087594209     
  0.341589187882338     
 -9.513589281264294E-003
 -8.851600132503222E-002
  7.600952847235436E-002
 -8.162332643781470E-002
 -0.108793451841381     
 -9.640248378408935E-003
  5.828255751032894E-002
 -3.894122541009295E-002
 -0.136053561088352     
 -0.318553995345977     
 -0.113083700242260     
  9.858459487772529E-002
 -0.241400481574065     
 -1.242639573940382E-002
 -3.586744603783116E-002
 -6.419595380491894E-002
 -5.089217485620815E-002
  0.116427344612168     
 -3.415934093223529E-002
  7.083682604509295E-003
 -2.914167479977736E-002
 -4.455614735980165E-002
 -3.930228988152254E-002
  7.993978668733188E-002
  1.315655474195473E-002
 -0.569801679984754     
  0.176793064748118     
 -0.179202591845670     
 -0.138429957612187     
  2.738799115561860E-002
 -0.180376494211481     
 -9.249185692067748E-002
  5.750036306160971E-002
 -0.199437851693356     
  3.741581590749020E-002
  2.863663338635201E-002
  4.836326433935636E-002
 -1.291288388838182E-002
 -2.334403899313958E-002
  5.248098515602474E-003
 -9.870092465225421E-003
 -0.332198592062003     
  0.201973535568019     
  0.135256402487159     
 -7.369619202302920E-002
 -0.405116829105144     
  5.773549927607491E-002
  0.566915574547289     
 -0.830588911708699     
 -0.262926960844654     
 -0.343281509468082     
  0.211219169338058     
 -0.130153260659995     
  0.153368414530311     
  0.184414924182293     
  0.141235414385355     
 -0.194779415002152     
  0.160729109696807     
  8.710720682326321E-002
 -7.143856730874168E-002
 -0.398290499675984     
  0.268346882997532     
  0.273287642185574     
  6.587845018803239E-002
  0.544818332858724     
  0.341195853028797     
 -0.237171480001759     
  1.167398034535794E-003
 -9.819012729843717E-003
 -0.154272667174420     
 -0.215399781983671     
  0.313857208709628     
 -0.310904712639548     
  0.330511323549007     
 -0.338043644396679     
  0.226454786394995     
  0.147644344268404     
 -3.942443872586785E-002
 -0.631727258696563     
 -0.458061647880213     
 -0.147917692522244     
  9.804464508664928E-003
  0.182443337275265     
 -0.107537271906038     
  0.163682543600937     
  1.369802735351350E-002
 -0.383232884548408     
  0.144026161108672     
  9.348530488282074E-002
  0.237986813556802     
 -0.358280571312178     
 -0.420169877202123     
 -0.164903743097827     
 -0.136943962609087     
  2.451688398088665E-003
  0.244595114617102     
 -0.248981079118573     
  0.306622439350803     
 -0.185189545219333     
  0.344352910661763     
  9.540277417000797E-003
  9.488737665910922E-002
  0.182974763620077     
 -7.884521308443965E-002
 -0.339325705094610     
 -0.179016076126429     
  7.750681486356142E-002
  0.624856349334176     
 -8.052737991733180E-002
  3.790959260142837E-002
  0.229471314274717     
  1.303094654317036E-002
  9.365256059853215E-002
  5.710350282958714E-002
  1.690326300370111E-003
 -0.286322215932206     
  0.172880445178074     
 -0.415868568679424     
  0.186543663003928     
  8.348696139556672E-002
  9.490233485903082E-002
  0.169043611572014     
  4.306317610720468E-003
  2.569278526256857E-002
  0.184881049789223     
  4.458831734951076E-003
 -0.131722185797806     
 -0.295775197834187     
 -0.124082438673012     
  2.695466125386099E-002
  0.152302507920328     
 -0.346795362528954     
  0.371769904970665     
 -0.142916141007884     
  6.268217944049138E-003
 -0.246571281091419     
  1.269258588523540E-002
 -0.112719006090691     
  0.167840094826829     
 -0.125272530082554     
 -0.146490092502798     
 -0.224701442270658     
  0.120390139113749     
 -0.178831617106949     
 -0.137423072767612     
  0.245205009036567     
  2.543735699335513E-002
 -4.501561235201108E-003
 -9.900528370787835E-002
 -9.555495291492222E-003
  0.163446916031161     
  8.919964125217092E-002
  4.384388088666644E-002
  1.819930973408539E-002
 -3.354876936495108E-002
  0.162857174694600     
 -8.597474315890499E-003
  4.668737664575334E-002
  8.414002116253978E-002
  0.224479643276965     
  0.249634291149829     
 -0.151590135154447     
 -7.970355539759362E-002
  0.129613595485888     
  7.058586301854186E-002
 -3.939316853921476E-002
 -6.667308672221876E-002
 -0.122590441688166     
  5.464199138499485E-002
 -1.102861323571493E-002
 -0.130933854918696     
  0.132379742836128     
  0.168424956235478     
  5.533652429589137E-002
  0.111357376567581     
 -0.141066098188661     
 -0.179695945614741     
  0.126484168880711     
  9.456190189052906E-002
 -2.460507018182908E-002
  7.649330506745192E-002
  6.214622426599876E-003
 -1.929372374581407E-002
  3.585448350895588E-002
 -3.067603355516942E-002
 -0.236769664062085     
  0.220105477003333     
  3.344956250180488E-002
  1.449548544419723E-002
 -1.984942224755166E-002
  0.256201460653301     
 -0.453696803873427     
 -0.196387033776565     
  0.209464486217989     
 -0.691968128389482     
  0.694697843741223     
 -0.102690208353313     
  4.624748835497064E-002
 -0.269720627877771     
 -0.293416003258715     
  0.201837349669188     
  0.189725843021990     
  0.302425156513077     
 -6.067021216265565E-002
  0.556477143394525     
 -0.309443973104504     
  7.172757274305840E-002
  3.469004545020315E-003
 -6.642798033034893E-002
 -0.179913023889551     
 -2.063297482361026E-003
 -0.289170285654951     
  3.336284120918032E-002
 -0.143932352107712     
  0.656968263641611     
 -0.174363402705732     
  0.246477142256349     
  0.209950336824767     
 -0.164467275051344     
  0.117828837170765     
  0.453226854260994     
  3.074196071266277E-002
  0.204592278061202     
  0.251362761999734     
  0.120135067587665     
  0.468080273809744     
  9.552555412016811E-002
 -0.458329375346722     
  0.493578116172839     
 -0.815686300645796     
  0.277492741654048     
 -0.412525009236449     
 -0.235323792286352     
 -0.276006286607991     
  0.590125580898810     
 -0.121141949613749     
 -0.715571258724256     
 -7.271265905659978E-004
 -0.641672475119985     
  0.567407257923482     
  0.191704293336739     
 -0.101640018079937     
  0.685389417050040     
 -9.643113344498894E-002
  7.446592339964576E-002
  0.197101191371276     
  0.388061812938684     
  6.312083121332235E-002
  0.461200352330393     
  -1.28128458001817     
  0.997793765432997     
 -0.218702644995506     
  0.404226672704278     
 -0.115587256660971     
  0.106706398284769     
 -0.980922155492142     
  0.151175492737820     
 -0.213587560463452     
  0.709113253078603     
 -0.306281936772321     
 -6.347211410325372E-002
  7.680765310484805E-002
 -5.464758211356630E-002
 -0.210442407065630     
 -0.470384602260639     
  0.431371685546891     
  -1.07096501745623     
   1.05362639570411     
 -0.171856176634153     
  0.236367405228922     
  1.302018311225310E-002
 -0.171229576166692     
 -3.745626604756414E-002
 -0.504831439506144     
 -0.456330200152202     
 -3.370921035075045E-002
  8.990326040627517E-002
 -0.314221511349368     
  8.423143889938249E-002
  0.213318277526660     
  0.460262919941287     
  0.107240086372102     
 -0.155656780584596     
 -6.763744990561311E-002
 -8.917015101612956E-002
  4.121260557672887E-002
  0.170204534362099     
 -0.257217438014586     
 -6.302489783824196E-003
  0.202894645774864     
  8.343138388240606E-002
 -0.276265411703897     
  3.364110833238706E-005
 -0.200066415008269     
  1.622606972895691E-002
  7.276263049413065E-002
 -0.343026432231577     
  0.409769187511821     
 -0.129230992805509     
 -0.296380883497944     
  0.323538525997689     
 -6.715131652999054E-002
  3.990605881254750E-002
 -1.099943570332572E-002
  0.115905555808072     
 -6.923915043043399E-002
 -0.109688939638617     
  0.513887935483449     
 -0.304761442053994     
  0.104496407538194     
 -3.437728453141142E-002
 -0.225519979933763     
  0.528104957004731     
 -0.316025809153801     
  0.568829040661190     
 -0.448570389709054     
  2.090331754051001E-002
  4.290391758216936E-002
 -6.767034093866232E-002
  0.258401156289024     
 -9.086951640772935E-002
  2.398165898930404E-002
 -0.126197173815047     
  0.212888345868612     
 -0.180968698116457     
  0.208107208161274     
  2.505619032621724E-002
 -0.105164895288526     
 -0.321618699853801     
 
  0.729520376741717     
  -1.90588023004445     
 -0.805814564491495     
   2.05039155156362     
  0.333014202916277     
  0.659012411752646     
   1.06499766754165     
  0.102594120524079     
  -2.00612507217908     
  0.413087868484689     
 -6.524584446841687E-002
 -0.578074882992473     
 -0.416889386300466     
   1.62678462667263     
 -0.715590993589138     
 -0.375953985188544     
  0.590768962455040     
  0.833802503170603     
 -8.404338791677449E-002
   1.13018342737722     
   1.03584700339999     
   2.04318236244575     
 -0.618902389913420     
  0.944855741899214     
  -1.39474626222208     
   1.29718381775193     
  -1.42606328446929     
  0.409577971700788     
   1.52256660513693     
 -0.169281077867633     
   1.12166532508042     
  -1.43166269173834     
  4.783251122014696E-002
 -8.436954646283992E-002
   1.84148316298099     
 -0.940295487593638     
  0.128026737982804     
  0.483170627656976     
  -1.40268622678040     
 -0.684065451646912     
 -0.420936782742624     
 -0.989733512745894     
 -0.398551647809343     
  0.652339394524141     
  0.787837450319709     
  -1.32994298053090     
 -0.715081703620106     
  -1.24106754520418     
  0.869625689718725     
 -0.198341168823620     
 
  0.124338062346405     
  5.291931227715939E-003
  0.468650804422931     
  0.141114864493908     
  0.280236768191106     
  0.318795566376256     
  0.149661512643299     
  4.708731210179483E-002
  3.499616532091143E-002
  0.530575705947949     
 -0.203221658555436     
  0.746657406924468     
 -6.125499354085623E-002
 -0.534096537778816     
  7.870063639230500E-002
 -0.207901288711693     
  1.338839042428350E-002
  1.944156529495395E-002
  0.148852488127346     
 -0.428601209174821     
 -0.374365108167586     
  1.564351153677136E-002
  0.935161081354704     
 -0.376456951266271     
  0.106202084921925     
 -0.759231472537678     
 -0.181396866929331     
  0.606808441075236     
  0.375417996495039     
  0.306925380411420     
  0.562331623204477     
 -0.166918614428640     
  0.235317673262733     
  0.373069106597703     
 -0.348580509607290     
 -0.630232536807520     
 -0.440214081925376     
  0.135910535148614     
 -0.244106992185187     
 -0.122730525305856     
 -0.616144024510009     
 -0.734228695132890     
  6.705926967540449E-002
 -0.427473101892732     
  0.443353327803137     
 -0.308566883101372     
  8.541911640205568E-002
 -0.393807986972960     
 -0.491696315065455     
 -1.308231475807765E-002
 -0.220881533331256     
  0.238983600315174     
 -0.846558685470546     
  0.153297156247657     
 -0.323613140371984     
 -0.264930205150588     
 -4.500230563913552E-003
  8.191427718435412E-002
  0.100454599420395     
 -0.906881159266628     
 -7.299710466168567E-002
 -0.172802530061626     
  0.194443530049771     
  0.266712249355962     
  0.551735513605611     
  1.799828808229853E-002
 -0.330452504031408     
 -0.347928988464897     
 -0.199545020562196     
 -0.537470815637807     
  0.155107413213724     
  0.115967722512408     
  -1.06718330216530     
 -0.354796890422091     
  2.490772042275955E-002
  0.697547073104964     
 -0.301928910060253     
 -9.609613501475794E-002
 -5.029486987567550E-002
  0.151675449853472     
 -0.746078399397729     
  0.187525136987821     
 -0.314242189876660     
  0.717241072533736     
  3.953579544723652E-002
  0.469343374782484     
 -0.174448743006248     
 -0.192722715621908     
 -0.467839894696924     
 -0.146827263432250     
   1.12677491606563     
  0.466586369653923     
 -0.121728955927163     
  0.654014406618349     
 -0.206655546222444     
 -0.768226264868807     
 -0.810613784971510     
 -0.191409725159628     
  3.183971692880357E-002
  0.376035308612370     
  0.475847030576523     
  0.886623843508535     
  -2.42787336027418     
  -1.15639415250416     
  0.924053816658948     
 -0.938216891011605     
 -0.972956763420198     
 -0.435306471861245     
 -0.157462149389977     
  -1.33742989927417     
   1.00224823973819     
 -0.268581961354959     
  -1.22771450218471     
 -2.651542742395207E-002
 -0.717186271652330     
 -0.798075378447242     
  0.629770468731151     
  0.723439888996164     
  0.319014443930739     
  0.398989014571834     
   1.15406035944005     
  0.321537526868183     
 -8.547280549333608E-002
  -1.07767718372504     
 -0.257500000484751     
   1.05811295724590     
  0.424774647848450     
  -2.48291678876331     
 -0.692614941447454     
   1.12479344527954     
 -0.401812018985272     
   1.15723366810389     
 -0.512112372025015     
 -0.254555435001176     
  0.117326572130688     
 -0.144084972027678     
  -1.48106982378785     
   1.62514407932480     
 -0.770548321348199     
  0.691694647543220     
 -0.733330889137559     
   3.59480893130398     
 -0.989885209019814     
  2.946018194402168E-002
  0.691899245904596     
  -1.11543919666715     
 -0.623147614343731     
 -0.659886482526829     
 -2.725217641715605E-002
  -2.02589882170216     
 -0.139260541427553     
 -0.341933075475244     
 -0.121974261211495     
  8.625301645213503E-002
  0.927045801848999     
  0.565508264092835     
  0.512157427226701     
  0.493371772710158     
 -0.918663984833642     
 -8.148547314593281E-003
 -0.375628257723937     
 -0.407334074279900     
  0.698891084511986     
  0.928943861822115     
  0.295218798979936     
  0.614316806167893     
 -0.788341457597289     
 -0.575308372100213     
  3.556160298856957E-002
 -0.235224977529739     
 -0.306749303511608     
 -0.964851093797383     
  0.189980664446324     
   1.18548371266329     
 -0.778518176235220     
  0.442607425022610     
 -0.777704195408280     
  -2.13864237924574     
  0.137839990160368     
  0.940094822562259     
 -0.973214699750680     
 -0.837045494383173     
 -0.427544242029843     
  -1.18634484679091     
  0.234885543602193     
  0.400555026331584     
  0.151282368613490     
  0.339264787845240     
  0.794483679373245     
  0.303452617616267     
  0.441833454674212     
  3.880065840639628E-002
 -7.582355013624286E-003
   1.50876695002255     
 -0.131549979413420     
  8.945518772231506E-002
  0.317321920665510     
   1.15407326072148     
  0.694891928823854     
   1.26897540018263     
 -0.236703781445298     
  0.456657926631595     
 -0.319055383727508     
 -0.362505587615107     
  -1.19537491455022     
  0.373427020094259     
 -5.897143155190556E-002
  0.164740357689813     
 -0.946832891990361     
  -1.51689139034314     
  -1.45579700707984     
  -1.31550529299240     
 -0.267336155726435     
   1.06181723892433     
  0.349210799875641     
 -0.594469447320036     
 -0.551754517740922     
 -0.259164389656156     
 -0.313631913730612     
 -0.122579541970567     
 -0.623371797727370     
  0.319805638605203     
 -0.899225236509256     
   1.34680038143784     
 -0.296374720981568     
 -9.383404248293079E-002
 -0.234120464966911     
 -8.628047095083205E-002
  0.787501193090385     
  0.929036243675372     
 -1.083124557967239E-002
  8.618234164212175E-002
 -0.617417464630235     
   1.02848044568477     
  -1.42514607793438     
 -9.334851492352203E-002
  0.223941273285044     
  0.580682136285706     
  0.110495780429437     
 -6.744355763902834E-003
  0.938745931347560     
 -0.831293433522547     
  0.616590603095022     
  1.600565935587571E-002
 -0.840989740791498     
  0.168148762951139     
   1.04826826373386     
 -0.681020232844771     
  0.291238249277395     
  0.835240090090120     
 -0.232103347190616     
 -0.446504199762262     
   1.18902455606999     
 -7.111549935620455E-002
   1.22001074057136     
 -0.164061994438083     
  0.867210098498678     
  0.322804877071810     
 -0.381544999813138     
 -0.700273200238151     
  0.304220033131430     
   1.59331872672633     
 -9.148471832918828E-003
  0.378918508975478     
  0.278021189463793     
  0.783914109972315     
  0.117100260685137     
  0.481958774853274     
  0.462795157851479     
  7.732986045816395E-002
  0.488909655951194     
 -0.786182148601522     
  -1.07989345988279     
  2.414146111161920E-002
 -0.144281962224050     
 -0.625345186427742     
 -1.679394571656895E-002
 -0.584962897703793     
 -0.593454640368642     
  0.520560354539556     
  0.369071039743974     
  0.371400921615598     
  0.322553536286790     
 -0.458080520307781     
 -9.469240740575835E-002
 -0.837984216556386     
  0.390599049828616     
 -0.701576087076872     
 -0.162389409067868     
 -0.943440179354691     
  0.172219227989365     
  0.820242344471985     
 -0.703093719234184     
  0.122395934528936     
 -0.154150610408072     
   1.56622954200642     
 -0.561396060116149     
  0.573464537945418     
 -0.411877989571201     
  0.816675029889105     
  3.280251407075239E-002
  0.315768214637040     
  0.326138111249728     
 -0.328090687461555     
  0.340796532732584     
  0.240362246989717     
  0.200746370818699     
 -0.891195537218467     
  0.174053480347649     
  0.294166031899419     
  0.114317237164965     
  8.852903824220980E-002
 -0.203222614291527     
  4.484172136507617E-002
 -0.729781751595994     
 -0.299734290127680     
 -0.105797475354967     
 -4.839104370036354E-002
  0.110568833233784     
  0.277930504336319     
  0.261691401700227     
 -0.158922057347672     
  -1.35229238624910     
  -1.60800112509979     
 -0.372163883422967     
   1.00859858029687     
 -0.247693541106519     
 -0.529838742551244     
  8.305531319702475E-002
 -0.342219085955469     
 -0.693848524819677     
 -0.281911517595476     
  0.490461614819408     
  0.292161621709041     
  0.368266223959723     
  0.128361072041946     
 -1.545527469422170E-002
 -0.128435964384325     
  0.416479777875437     
  0.127290111545787     
  0.347548394933948     
   1.15435783137981     
  0.170487319122688     
  0.590095701896144     
  6.177410996440730E-002
  2.275746440001327E-002
 -0.300799376560463     
 -0.326780462418139     
  0.449748228492021     
  -1.63708199451124     
   1.89810763500824     
  0.320293559541286     
  0.433003542343293     
 -0.136132672776791     
  0.515364022135082     
 -0.316034139609645     
  0.245127964327384     
  5.002746454769337E-002
  -1.26756405195646     
  -1.39409247667734     
 -0.324082635417988     
  0.753193099612747     
  0.359832159184140     
  0.421812214654627     
 -0.999575574708786     
 -0.325895649331772     
  0.216231849754694     
  0.470724773775298     
  -1.98615194780095     
 -0.569168430456945     
  0.434528646205270     
  0.439272615337356     
 -6.411977884401523E-002
  0.904860966498697     
  0.819140307331163     
  0.380858821955839     
  3.387033439275833E-002
 -0.274223845157036     
 -0.530143470381818     
  0.673622734772420     
   1.33875876457465     
 -0.556935524360007     
  5.207178462295615E-002
  0.181617439390519     
 -0.489379131252963     
   1.72551950700270     
 -0.300680889240436     
  0.380155346749284     
  0.665563594878292     
  0.249698866971472     
  -1.70422646490331     
 -0.640717287766679     
  0.968448767440432     
  -2.07320387267612     
  0.378811922523108     
 -0.993752537983338     
 -0.949161992232479     
 -1.555323441752350E-002
   1.25355275853348     
  0.805322184319113     
  0.365318327529529     
 -7.996288573662776E-002
 -0.861049512244685     
   1.05654883217552     
 -0.769483510090591     
 -0.886579996892743     
 -0.172382376908923     
  0.209314296927343     
   1.13302796407625     
 -0.190291811637137     
  0.165001355546958     
 -0.389352367057704     
 -6.296291258223255E-002
  7.889541771247756E-002
 -9.988790269420056E-002
  0.147263509527054     
 -0.454389551698585     
 -1.073270420157250E-002
 -0.872962882232710     
   1.26632203924969     
  -1.53511333866034     
 -2.588160330833177E-002
 -0.117340298186376     
  0.942015707311615     
 -0.161300476362901     
 -0.357722705285135     
  0.408385284284594     
  0.681137119103285     
  0.529857860038113     
  0.173163604398838     
  0.290857441590352     
 -0.332865127105800     
  0.253470776937015     
   1.16398817710601     
 -0.342770429924152     
 -0.790157719189723     
   1.41069549143118     
  0.160091045511738     
 -2.256609991469906E-002
 -9.897938591125797E-002
 -0.406451556770348     
  -1.51599147147027     
  0.638669231060540     
  0.319524783031643     
 -0.657027429110231     
  3.737023889418369E-002
 -3.505320593012962E-002
  0.526122134547243     
  0.457272710111157     
  0.816116915598622     
  0.486491793845162     
  0.558026293402066     
  -1.54512726855021     
 -0.279848934356381     
  0.411627747179614     
  0.170389289452328     
  0.645635420237404     
 -0.244107846443858     
  0.223456619933826     
  -1.69566086732504     
  0.780434828551775     
 -8.255918787408326E-002
 -0.665337599411907     
 -0.645372991147885     
 -0.191272532137241     
  0.803284848490606     
 -2.515306370419434E-003
  0.532118274284096     
 -1.339854204650312E-002
 -0.327866184934226     
  0.705057908184573     
 -0.321870036718684     
  0.169842137461295     
  0.464393385113195     
 -0.348233222254161     
  0.180407744880727     
  0.849722948497318     
 -0.325522817687874     
 -0.143152301788810     
  0.573053050195598     
  0.629960836323706     
   1.65659629936292     
  4.972493886509294E-002
 -0.397209477476065     
 -0.397465324357751     
 -0.687668393242581     
  -1.06283826643486     
  8.839260770455135E-003
 -0.225900557154506     
 -8.822756811750260E-002
 -0.963929046485002     
  0.644254335056966     
 -0.302481973339801     
 -0.277638126544914     
  0.437952129294235     
 -0.473195999587624     
  0.983643937031253     
 -6.478579974309671E-002
 -1.274125980483949E-002
  -1.33215024726500     
 -0.913380728581073     
  0.656372613030126     
  -2.59691967583116     
 -0.948604386850116     
  0.168334746651487     
  -1.77510111250644     
 -0.209355517870394     
  0.673679537241083     
  -1.50444941856986     
 -0.526959613741458     
  0.239600438583445     
   1.71668793803955     
 -0.703545192087896     
  -2.21434932499913     
  0.510820262215860     
 -5.727355464552411E-002
 -0.565278664852964     
  0.463316456948456     
  0.589097127265509     
   1.20872176411289     
 -0.299748336000721     
 -8.165273608593966E-002
  0.427316978491895     
 -0.554230388398156     
  -1.51552446279855     
 -0.193325838413561     
  0.228312573050014     
 -2.596476364749856E-002
   1.56682346215002     
  0.499116597860696     
   1.72885914049387     
 -0.258954446744604     
 -0.484539053407129     
  -1.04680676473319     
 -0.636773076224284     
  -1.26088563794894     
 -0.573972294291224     
  -1.12779140243301     
  0.195316339183195     
  0.137162385720391     
 -0.134909254554253     
  -2.21555238022581     
  0.515108284380900     
  0.591260150341058     
  0.231780920383022     
  0.337241809493197     
 -0.130333982143507     
  0.717192103663226     
  -1.00017732452650     
  0.276087664662014     
 -0.899286588242733     
 -2.026899137737520E-002
 -0.242774325726813     
  0.337188639266342     
 -0.356135948853147     
  0.190394809881234     
 -0.336254059497648     
 -4.324943106565854E-002
  0.597909312578165     
 -2.032411347083194E-003
  0.394209214051671     
  0.239836652547968     
 -0.982741619613651     
 -2.580139877974897E-002
   1.34472538135085     
 -3.142113423768197E-003
  0.503801638621867     
  0.415487331859093     
  0.889767214365673     
  0.156085623918724     
 -0.780485090884778     
  0.699491881667369     
  0.585707710885874     
 -0.415912684076102     
  -1.15513133389930     
  0.269987162987277     
  0.395332986598650     
  0.164505686967620     
 -0.705142986033361     
   1.64314936697686     
 -0.906980965223477     
   1.20399151232299     
 -4.386755628211569E-002
  0.262578746053409     
  -1.68936758310827     
  -1.19856649879394     
  4.883348721817282E-002
   1.11398678320228     
 -0.230998504932529     
 -0.330863404732502     
   1.31129963399510     
  0.333474884743058     
 -0.385580190196877     
   2.76560142839783     
  0.235453028311857     
 -0.885291998871655     
   1.89687643592730     
 -0.847375841476997     
 -0.365796702597369     
 -0.780091639816795     
  0.117506855459494     
  0.279674834400975     
  0.235041271354273     
  4.192118495854443E-002
 -8.985061464270107E-002
 -0.130660215602263     
 -8.772303868158292E-002
 -5.964726792604150E-002
 -0.195409072735017     
  0.687018543091637     
 -3.736262892952825E-002
  0.710475762103693     
 -3.113671225118671E-002
  0.194343124835640     
 -5.998856299230011E-002
  3.941533016038894E-002
  2.620839121745672E-002
 -4.650158047711571E-002
 -0.193614917559470     
  6.186123044218454E-002
  7.587049509893250E-003
 -6.834660680822818E-002
  0.364942017457486     
 -3.517811349042413E-002
 -0.108673474676795     
 -8.184777586517035E-002
 -0.119905132332235     
  6.637054654856447E-002
 -0.117115914247175     
  0.159166543087271     
  0.514055516835486     
  0.233218378572329     
  0.124868063336528     
 -0.261430257762468     
  0.491000326182021     
  0.211336825184049     
  2.453695421459567E-002
 -2.524785163285342E-002
  5.887213579632786E-002
 -2.918500058291482E-002
 -0.133505886390169     
 -1.899220955102468E-002
 -7.272988857739904E-002
 -8.561938999912136E-004
  0.103374060911703     
  0.137948019784945     
  0.403361304258627     
  0.147681060098205     
  0.259936955379611     
  0.493744024708465     
  0.614852772164563     
 -0.630834638162738     
  -1.52738827835893     
 -0.176802055966797     
 -0.183236965940664     
  0.764005971527070     
 -0.291672354418188     
  -1.42123998707261     
  0.343718694192070     
 -0.148804282083096     
  0.558020261057007     
 -0.439515188033546     
  0.474134354042709     
  -1.75202167841621     
 -0.529631929962172     
  -1.58467857215542     
  0.529226674907856     
 -0.653754811929406     
 -0.167359655936698     
 -0.413599057199469     
 -0.512312911824694     
  0.524311616711385     
  0.260342346027531     
 -9.356823598570325E-002
  -1.24089664189337     
   1.05914111690050     
  0.158043119888861     
   1.11679204539250     
 -0.227209662295650     
 -0.284798635267144     
 -0.296652272526067     
  0.570389052031078     
 -0.866886612569690     
 -0.716730055356556     
  0.848604996237934     
  0.399015549236169     
 -0.431229799889778     
  0.355294588118012     
 -0.701205365131976     
  0.229825075374961     
 -0.900197458067836     
 -0.701778193051452     
 -0.722767528911149     
 -0.317794466015475     
  0.580258178147983     
  0.448466976112317     
  -1.93487976810167     
 -0.270334154589578     
  0.106149154981459     
   2.22349477383343     
  0.232894895027480     
 -0.913797131000442     
 -0.915301160460617     
 -4.323858714732945E-002
  0.480368198279997     
 -2.680593252172491E-003
  0.403104385124803     
 -0.309981498955066     
 -0.265188597649531     
 -0.268769057103863     
 -0.742494313305464     
 -0.158310837998077     
 -0.102268020202521     
  3.565368036195447E-002
 -0.313203406324815     
 -0.279221301839562     
 -0.625428036731002     
 -1.072930225257554E-002
  0.591362897170980     
 -0.350002035046507     
  0.255048701614624     
  0.505577812973040     
  0.113265269768697     
  0.661993498553080     
  0.133272828036310     
 -3.097984629010608E-002
 -0.651268878603782     
 -0.880983906893167     
  0.175641739158509     
 -0.690805606327364     
 -0.388375147874076     
 -0.663574866476624     
 -0.523947617009615     
 -0.483944995284194     
  0.854779576015702     
 -0.125777239466738     
  0.512992291430832     
 -0.301352985643330     
 -0.319915133937714     
 -0.255824336859040     
  0.292367697180858     
  -1.35263612259019     
 -0.536731100882261     
  0.722442958854911     
  -1.00033857557310     
  0.774654711492317     
  0.769686444029771     
  0.663969807264726     
 -0.610279326804147     
  0.959654397686487     
 -0.349742538794935     
  0.184857382545114     
   2.22446463534088     
  2.499844260313920E-002
 -0.335735597081441     
 -0.798525281546575     
  -1.08256143383176     
 -0.996652519806558     
 -0.275453898777415     
   1.24253402174259     
  8.658806986036247E-002
   1.09510404070775     
  -1.31742215248578     
 -0.872936482900712     
   1.88610260387776     
  -1.30064950794933     
  0.902672693518131     
   1.20223598667019     
  -1.51882436882288     
 -0.289039612652301     
  0.597233280973311     
  0.552646189409424     
  0.184230815210249     
  0.281535157884966     
  -1.15240818764758     
 -8.976098034124047E-002
  0.195809740652220     
  0.987145795660497     
   1.15462537065187     
  0.392767247091493     
  0.302711819360962     
 -7.815155108283463E-003
  0.262742368066754     
  0.655854468909424     
  1.341294629669641E-002
  0.158513876991611     
 -0.294846140525712     
  0.877544982021027     
  0.470387108077762     
  0.191565710863303     
 -0.726392167385892     
 -0.549845157434887     
  0.124435686143604     
 -2.073202413614689E-002
  0.949416524888232     
   1.57224954428418     
  -2.44442765398257     
  0.531283036548691     
 -0.315078950781097     
  0.127313012405925     
  0.400025410001571     
   1.02333190821101     
  0.374838025417348     
  0.605106147786653     
 -0.101848061113588     
 -0.576852403818987     
 -0.603589785032880     
 -0.692276206681645     
  0.344800656162858     
   1.38562859453194     
 -0.694997324455344     
  0.745107151637448     
 -0.151913280024289     
  0.140861942597569     
 -0.613420671424140     
 -0.310861119622618     
  0.938937360313322     
  0.195452095228468     
 -0.316927950289752     
 -0.714641706648830     
  0.108121876549536     
  0.153891043137600     
   1.58540928088099     
  0.247533915469491     
  0.750108942741226     
 -0.148831232312756     
  2.393263104670810E-002
  0.385213076828650     
 -0.690452181094678     
  0.565847087684901     
  0.354167733044109     
  0.194979924581963     
 -0.178292925039318     
 -9.434319566241492E-002
  0.102681098142181     
 -6.835901130137444E-002
  0.288421790789783     
  0.710099558214480     
  0.168592900901682     
 -0.318582845565618     
  0.108230082398209     
  -1.00169201239636     
  -1.31537295272986     
 -4.269819811642141E-002
 -0.464166182759071     
  -1.46305590087135     
  0.281570402004801     
  0.527188617489176     
  0.842383520814069     
  0.682041911868435     
 -0.361874369440683     
 -6.090560868361217E-002
 -0.579649203808355     
  0.137453543358470     
 -0.945946687148814     
 -0.794725419656413     
  0.102493777000514     
  0.204567812169754     
   1.11933753496599     
  -1.95554613348886     
  -1.22432489460829     
 -0.378478549079995     
 -0.406123023874173     
 -0.774892486065798     
 -0.207304888964303     
 -0.449084693894455     
  0.102336607337756     
 -0.182425121642043     
 -0.275193315358025     
  0.829356835281845     
   1.63714045883144     
  0.646601805131090     
 -0.715895374927337     
 -0.637117464684221     
  0.897341257927000     
  0.917704891701886     
 -0.139805518131784     
  -2.32936215950068     
  0.363017656946007     
  0.388434658228155     
 -0.305681086317801     
  0.921978234993856     
  -1.22905676504051     
  0.675694742933174     
  0.401957682684572     
  0.369088209133473     
 -0.764315975710135     
   1.03800732751022     
  0.448824264325364     
 -0.263375905380996     
  0.343184506851102     
  1.037767887976400E-002
 -0.309751396843434     
  -1.19094716535814     
 -1.665242509045693E-002
  -1.94707685358718     
  -1.85645031994252     
 -0.249413371434665     
  3.162309331097509E-002
 -0.263793227675686     
 -0.183896869715552     
 -0.334904785238065     
  0.304825014119781     
  0.485951003300535     
  0.156246880346793     
 -2.539469566053416E-002
  0.662161916735498     
 -5.881341392856980E-002
  0.316462575689779     
  -1.98168449212024     
 -0.720290944808642     
  0.375558873041858     
 -0.452990132219632     
  0.343798384649661     
  0.736225407263287     
  5.428795743178100E-002
 -0.164328091324231     
  0.650119291406614     
  0.390084121047400     
  0.189263811647346     
  0.867334213003335     
   1.36697060063830     
 -2.747814440100033E-002
  0.127074745434382     
   1.39530775698575     
 -5.849966568617092E-002
 -0.540606849203694     
  -1.13303873590856     
  -1.02530253275295     
  0.274102819006358     
 -9.976547836040668E-004
  9.603186360415086E-002
 -1.907228161084900E-002
  0.451646036870969     
 -7.213995786033853E-002
 -0.625017959123452     
   1.10201063040569     
  5.971630583476399E-002
   1.92550677109814     
  2.508764274285713E-002
 -0.377331160573855     
 -0.339807832236072     
  0.360379780709977     
  0.745610390125717     
  -2.10893050945955     
  0.424417918982652     
 -0.342073297056269     
  0.779667514190281     
  -1.28170501634839     
 -0.122619414958339     
 -0.576613419100867     
  0.657685049006552     
 -0.318458404934039     
 -1.485699619834120E-002
 -1.724551589802687E-002
  0.467706225438767     
  0.714382631938594     
   1.18520655554749     
   1.06797922672890     
  -1.16208509787273     
 -0.743802217755147     
 -0.466234368272491     
  0.285452931024021     
 -0.714440662917626     
  0.920347258136751     
  0.597441206100026     
  -1.13320007326470     
  0.699723723198925     
 -0.869594925351421     
  0.525538635056216     
  0.804962145954589     
   1.11135128216469     
 -8.457790107398547E-002
 -2.635426968887219E-004
 -0.302923110994082     
   1.00584026210583     
 -0.573083166598320     
  -1.60977759147754     
 -0.190298427553392     
  -1.08323037922641     
  0.652899704485913     
 -0.826014718642287     
  9.349298834505637E-002
  0.726124088758288     
  0.353806121323008     
 -0.446956203658358     
 -0.762313605984306     
 -0.126082638493856     
 -0.327663900518624     
  5.361584810517477E-002
  -1.02032999863847     
 -0.397568549803261     
  0.132086410067234     
  -1.55208283552532     
  0.337660026115285     
  0.101052361211886     
 -0.682598988472059     
  0.348129364105357     
  0.513726378050214     
  1.875638967131865E-004
  0.360878477004130     
   1.02101800432274     
  0.470670391053855     
 -0.652889113839654     
 -0.504829461544250     
 -0.643866921512102     
  4.095697286736508E-002
  8.449249943337292E-002
 -1.193312487436446E-002
  0.634710777161565     
   1.55481129482286     
  0.633652634011045     
 -0.384212880872669     
 -0.268781991947504     
 -0.315064880050729     
  0.219676986683607     
  0.136526594043856     
  2.904167850716078E-002
 -0.185381451648540     
   1.80244551868951     
 -0.499371150498805     
 -0.223332463054209     
  -1.74273501453048     
 -0.502829460776713     
 -0.345568987798543     
  0.881426345743607     
  9.735023733346619E-002
  -1.17273695381574     
  0.281731358017431     
 -0.488855776036779     
   1.21305138400517     
   1.14773643610022     
  0.855877373816588     
  0.926121721894482     
   1.64452354464787     
   1.73094425870300     
  0.218928070381997     
 -0.734482769460531     
 -0.455702637655776     
  0.289933177525788     
 -0.285002887681217     
  7.939935451527262E-002
 -9.168041219847723E-003
 -0.522785029137289     
 -0.304226424915598     
   1.51871352296474     
  0.575935628185775     
  0.745254265662180     
  0.158713688198298     
 -0.163893581895336     
   1.81984252005158     
 -0.676830267204230     
  0.690310446558286     
   1.34417721617438     
  0.395747249796282     
  -1.14274893495158     
  -1.02929138539262     
 -5.369435191466809E-002
 -0.635787295195739     
   1.93781620032473     
  0.663980423192993     
  0.498809867790144     
  0.586741921526047     
  0.439559692586907     
 -0.371459468312043     
 -0.359870967578384     
 -0.181547780241327     
  0.575150043914218     
  -1.55546007828643     
  0.522848072389404     
  0.324143762644082     
  0.114810719759995     
  0.105213920494490     
   1.12026716815881     
 -0.411838108728807     
  -1.58099853471800     
 -0.504860998523704     
   1.68158564706782     
 -0.198406262608228     
  -1.02062274572877     
  0.593503028980590     
  0.465403085554414     
  0.123442929303431     
  0.800603072894855     
  0.152745959969482     
 -0.501079162156939     
   1.58730770179743     
 -0.671073209595074     
 -0.767325891171115     
  0.316152893986929     
 -0.404620088241183     
  -1.25581067189269     
 -6.739802352250113E-003
  -3.41345147597805     
 -0.115647731219364     
  0.843141199700874     
  -2.20026143460157     
 -0.503073973704279     
  0.584151388494240     
 -8.976612769083432E-002
  8.294788260513644E-002
   1.41731489496789     
 -0.312323290155191     
 -3.203377894475858E-002
 -0.321355279061528     
  0.277175937862605     
  0.362842773615100     
 -0.501283149988689     
  0.556409419098644     
 -1.146413073949328E-003
  0.215638519238786     
 -0.273467103558121     
 -0.106196607267317     
  0.850795559932168     
 -0.642576801867220     
  0.944121052883332     
  0.519102925352569     
 -3.664935572963120E-002
 -0.752475188161360     
 -8.720011353604526E-002
  0.718926549407593     
 -0.207758955276855     
 -0.984540864698975     
  0.360042740671819     
  0.751608227252340     
  9.383138561286207E-002
 -0.320072294811832     
  0.413023969122935     
  0.690231328445487     
  0.501488423330309     
  0.333491348027737     
  0.750496076145557     
  0.271205566141354     
 -0.230922882311334     
  7.122393032367746E-002
  0.104449678342724     
  0.930936451603563     
  -1.57212515442729     
  0.789782320816525     
 -4.496056758637085E-002
 -4.451528305787518E-002
  0.877377007156376     
  0.395452827469411     
  0.598574516810426     
  -1.11075372850876     
 -0.132773145251839     
  0.254556502788521     
 -0.220622007302416     
 -4.772318057326460E-002
  -1.36103843168634     
 -0.508599061745129     
 -0.124116591176861     
 -0.175307655345010     
 -3.228621855995844E-002
 -0.224633809017104     
 -0.874039646933899     
  6.519698923764271E-002
  0.768980143327958     
   1.05150413697600     
 -0.472442168798827     
  0.360887530903553     
  0.137628524897686     
 -0.494394666752415     
  0.696765751147483     
   1.49682630621643     
 -0.132085982620821     
  0.860473186455444     
 -0.214227024831999     
   1.11022797424778     
 -0.385998260587321     
 -0.741016846358943     
  2.841025258427486E-002
  -1.92179811081401     
 -0.806248752032413     
 -0.446343679212824     
 -0.939879271465851     
  0.460566349764625     
  7.021078129471112E-002
 -0.733323722036755     
 -0.638930932494722     
 -0.945758083898206     
  0.184670421086997     
  0.397282438311178     
  0.869381659582174     
 -0.755830365358381     
 -5.970138531353918E-002
  0.504976586866217     
  -1.00442265996276     
  -1.48642502135003     
 -0.401712310694459     
  0.366845012510838     
 -0.103537457431604     
  -1.21377588675572     
  -1.13002695333747     
   1.55585321291294     
  -1.26202472553102     
  -1.34112154733777     
  -1.30077220635766     
  0.340983209210453     
 -0.657835123069280     
 -0.106448148814978     
  0.208985096481409     
   1.33963409232966     
 -0.323130073997217     
   1.39576205445801     
 -0.185362296440585     
 -0.378392256947485     
  0.169573563860668     
  3.809516293406535E-002
   1.67213346239056     
  0.914415850298984     
 -6.837809581938031E-002
  0.644128390849775     
 -0.208146822675511     
 -0.529540850914998     
 -0.837120989019961     
  0.747648822700983     
 -0.532256638395881     
 -0.168421236048010     
 -0.696859793001377     
   1.12377120693352     
  0.191672682943645     
 -0.817853224587434     
  -1.27025824149598     
 -0.441040791739363     
 -0.416947090422735     
 -0.377019105820660     
 -0.250893102310008     
 -0.189465398170091     
  0.634240278875550     
  0.611661367083523     
   1.81522084661289     
  0.150352499170695     
 -0.451541284585257     
 -1.212592722153146E-003
  0.112522631689865     
  3.532966363536776E-002
 -0.139570493819389     
  0.176878888121668     
  0.304066069421680     
 -0.207005451852479     
   1.08697932132643     
 -0.484589191915547     
 -0.930225740258614     
  0.850384177831378     
 -0.681619603235463     
  -1.69347940589318     
  0.179168965727064     
  0.416379675599258     
 -0.958210804200947     
  0.366286081768099     
   1.74816294447476     
  9.263579040169766E-002
  0.714531575492085     
 -0.287182336769619     
  0.197048418713770     
  0.841121627000287     
  0.368078028623686     
  0.565040101557834     
 -0.831658856159305     
  0.885095722412970     
   1.05054778586751     
 -0.699224579330793     
  0.692797971134625     
 -0.556438108801955     
 -0.712883220654587     
  0.718466082672739     
 -0.318876989786942     
 -0.562233146801197     
  0.851883092329933     
  -1.15990931001330     
  -1.25631298015355     
 -8.427224434675627E-002
 -6.369957678285694E-002
  -1.87333453073508     
  0.442151784368452     
 -0.744214393396794     
   1.38950282794675     
  0.646328574147668     
   1.48647816561995     
   1.14123329386485     
 -0.224812649146118     
 -0.119021769304146     
   1.93498528834344     
 -0.848983152198774     
   1.01131579931746     
   1.93608441458771     
  0.107714557175999     
  0.672685333049502     
  0.359725512785046     
 -6.107690872048641E-002
 -0.167843628959649     
 -9.284415561081247E-002
  0.290490109036946     
 -0.169109515218957     
  -1.44134637345588     
 -0.521862043127953     
 -0.353632349745061     
 -2.334366730239827E-002
  -1.72131660943639     
 -0.877637640713097     
 -0.317930412985482     
 -0.419262636672334     
  0.152559081955216     
   1.46869050074403     
 -4.242108048371634E-002
  0.891338237420321     
 -0.115673685358334     
  0.102644202317002     
 -0.448207879011516     
 -0.995821262603523     
 -0.366555718808987     
  0.242377013999672     
   1.66656508191935     
 -0.778564024590397     
  8.339236587824504E-002
   1.56052122691222     
  0.357376296857109     
 -1.113021865534965E-002
  -1.67899278040422     
  0.527070404851198     
  0.600060280776211     
  -2.35939766664564     
 -0.546594048890502     
  0.389726930801598     
 -3.344939522404460E-002
  5.342217234178293E-002
 -0.852291761619353     
 -0.495238084209570     
   1.62694958514083     
  -2.02277474470649     
   1.37920239859447     
 -0.311214161533683     
 -0.763643470965065     
 -0.275662481110215     
 -0.678094853147441     
  0.288791431398330     
   1.13876899886689     
  0.422554407790777     
 -4.337916808572529E-002
  -1.59647684672405     
  0.573949869863700     
  0.441445961937040     
   1.23844445475316     
  0.457046883148489     
  -1.23220854500923     
 -0.245165036910774     
 -0.316095669423870     
 -0.372778769827222     
 -0.892859794872225     
  0.504183815460889     
  0.535101875454496     
  -1.83168786167513     
  0.932409193001083     
  2.358890165743075E-002
 -0.515902310512785     
  0.413294972984065     
  -1.29287112220152     
  0.866834847292004     
  -1.64575366514060     
   1.69793995930307     
  0.736601718647998     
 -0.165707057934748     
  0.395328172571043     
  0.213292136661093     
  -1.03097131104784     
  0.843300722875500     
  0.661741386120073     
 -0.866228132832356     
   1.89359019050057     
 -0.720289531860198     
  -1.76751926471596     
 -0.308018680703642     
 -0.649031933756221     
  3.343796645972474E-002
 -0.414430693308576     
  0.560016375084929     
   2.19817210102540     
 -0.527186756399560     
 -0.709571695368778     
  0.822979879315811     
  0.327346338553709     
  0.254898321677904     
  0.839151131476112     
  0.599467667144910     
  -2.23543944276484     
 -0.109177365528935     
 -0.731302990875863     
  0.617950344302725     
  -1.23409926438416     
  0.646295965448608     
   1.50847708355977     
 -5.875263750827799E-002
  0.185247047717698     
 -2.737765263062864E-002
   1.61777701694237     
  -1.20920426261594     
  -1.06654808654381     
 -6.635875674831304E-002
  0.804991266184891     
 -0.874561811829225     
  0.861136200839436     
  0.345776472883973     
  0.366325984644842     
 -0.654937792804664     
  0.705464822548199     
  2.462140191573861E-002
  0.122591337358758     
  9.457224614325692E-002
 -0.428155365574630     
   1.38737611326452     
  0.507255288688666     
  0.359062648223488     
 -0.207013914856548     
  0.668789051514177     
 -0.439967662661746     
 -0.395708031940498     
 -0.269950988703903     
 -0.878348043285747     
  0.564714854006595     
 -0.285097845532235     
  0.231028899643667     
 -0.653131133685759     
  0.378753691019614     
 -0.117292760759784     
 -3.573193827231040E-002
 -2.876464041285486E-002
  0.286133157322666     
  0.723231215702032     
 -0.546461149587170     
  6.707742052055676E-002
  0.678931345359383     
 -0.197050778418628     
 -0.169329870365223     
  0.443440109709897     
   1.58783292079427     
  0.268884144480481     
 -0.588877680269626     
 -0.289933032574717     
  0.187373617944227     
 -0.668474713852724     
 -0.167654553764180     
  0.392662956209912     
  3.935388159430568E-003
 -0.630482526281979     
 -0.286169158581391     
  0.214319768871858     
  0.133778989953470     
  8.221886000275926E-002
 -0.554359874046170     
 -0.476199233893083     
 -0.243042921591325     
 -5.038494619491166E-002
  0.229490462177384     
 -0.288975140427095     
  0.203528525742913     
  0.186837138271369     
 -0.563607632307363     
  0.488871473095830     
  0.359084405658921     
  0.577411970116862     
  -1.34075148444804     
 -8.368071304149022E-002
 -3.112597200476686E-002
  0.806487061192314     
  3.745516772212118E-002
 -0.106302513332525     
 -9.009488457566669E-002
  0.392214868738337     
 -0.239834353726469     
 -1.426361494294730E-002
 -1.840017544407773E-002
  4.308591459492561E-002
 -0.617244418282727     
  0.461130552283126     
  0.828102152665953     
 -0.378039764221666     
 -0.150206192954756     
 -0.231975784882549     
  -1.68208277967178     
 -0.150581512582225     
  8.134330119833423E-002
 -0.354321607431591     
 -0.130565413799872     
  0.444054027775468     
 -0.989802467912415     
 -0.127340193242931     
 -0.186909559149860     
 -0.368921660322880     
 -0.263139742685388     
  0.686088128037000     
  0.381572368777766     
 -0.205459381750556     
 -0.313190290454666     
  0.397703754330053     
  0.265277155244952     
  0.877504710056227     
 -0.590253125278053     
 -0.404946037818235     
  0.245763110210897     
 -1.613342318266855E-002
 -9.993072769534267E-002
 -9.811134268483454E-002
  0.275419231056312     
 -0.950575639542653     
  0.258297822118010     
  0.390204854946619     
 -8.532174102682155E-002
  0.198347955496597     
  -1.56998015376208     
  0.196431863742481     
 -0.619130351969293     
  0.115418815383737     
  0.609134136796013     
  0.444391937673597     
  0.116567090647152     
 -0.301645242584514     
 -0.187503485378582     
  0.142381870270885     
 -0.844614483279437     
 -0.413852437835037     
  0.238024049155925     
  0.509134017737679     
 -0.358387305287830     
  0.325848056561694     
 -0.276151148347797     
 -0.253050826684487     
 -0.278148626010193     
 -0.322330263947895     
 -0.254368047205374     
  0.174632178117870     
  0.223970943505670     
 -0.558253663417594     
  0.354016360617929     
  8.021958809107518E-002
 -0.247507003580150     
 -0.341863193356901     
 -0.109729498020043     
 -0.656093218943992     
 -7.396778032057580E-002
  0.123018384806039     
 -0.577386001837605     
 -0.285670731898016     
  4.415251863310159E-002
 -0.706710338026307     
 -0.706431333331100     
  0.731450037426027     
